{"nesterov": true, "init_weights": [77630, [[[[-0.0012571236584335566, 0.0001863711077021435, 0.0003378320543561131, 0.000655842013657093, -0.00031730878981761634, -0.000145169033203274, -0.00017957910313270986, 9.551261609885842e-05, -0.0007124664261937141, -0.00028468098025768995, 0.00043821855797432363, 0.00012136549776187167, 0.0011187792988494039, 4.90595048177056e-05, -0.0005045377183705568, 0.0002982259320560843, 0.0002605275367386639, -0.0006825109012424946, -0.0014204917242750525, -0.0004583314585033804, -0.0005132468068040907, -1.9603408873081207e-05, -0.0003163423971273005, -0.0008526845485903323, -0.0003083499032072723, -0.0001389741082675755, 0.0009898007847368717, 0.0001244565355591476, -0.0008441917016170919, -0.00035691651282832026, 0.0006091565592214465, 0.00015491992235183716, -0.00033532033558003604, 7.971657032612711e-05, 0.00043027213541790843, -0.00033324374817311764, 0.0005365447141230106, 5.05056741531007e-05, -0.0005997027037665248, 0.00024365729768760502, -0.0002620085724629462, 0.0007988882716745138, -0.0006086693610996008, 0.00025345716858282685, 0.0012948262738063931, 0.0006988002569414675, 0.0007530947332270443, -0.0008105270098894835, -2.7989779482595623e-05, -0.0007492322474718094, 0.00029002578230574727, 3.57936805812642e-05, -0.00044871261343359947, 0.0006406802567653358, 0.0008704850333742797, 2.7891634090337902e-05, 0.0003164194349665195, -0.002286821138113737, -0.000369153538485989, 0.000573016470298171, 0.00033757390337996185, -0.0002560857974458486, -0.0003132095735054463, 0.0006352649070322514], [5.694563753877446e-08, 6.358661153171852e-08, -4.202843584266702e-08, -4.52946835594048e-08, -1.8883767438637733e-07, 1.2541789828901528e-07, 2.2565281199149467e-08, 3.30638769696634e-08, -2.8006466479268965e-08, -5.234160482814332e-08, 1.3232410722707755e-08, 2.650811836701905e-08, 3.322164943142525e-08, 2.3762721568232337e-08, -5.703491012809536e-08, 2.0582936244295524e-08, 5.415460080371304e-09, -9.230120667780284e-09, -4.2391878452008314e-08, 1.0776790304589667e-07, -1.166318952527945e-08, -1.2887450218102003e-08, -4.2709558556452976e-08, 1.1071408323459764e-07, 9.65879598524566e-10, -1.7316811096179663e-08, -4.058393443528985e-08, -1.449706754641511e-08, 6.649161576888218e-08, -1.4753672950007513e-08, -1.3580118363165639e-08, 2.906409335423632e-08, -1.6890074050479598e-07, -1.3813142629715003e-07, -1.703476826264705e-08, -1.2989191588985705e-07, -1.1129178467683687e-08, 1.8540951884915557e-08, -7.008763702742726e-08, -1.7646403449589343e-08, -2.0244986131956466e-08, -2.4064455317329703e-08, -1.1355755447084448e-07, -2.9071125506874296e-09, 5.017626492076488e-08, 5.522203139207704e-08, -4.787095164715538e-08, -6.25542426746506e-08, -4.3277996297774735e-08, -1.3512883256794339e-08, -4.011231169442908e-08, -9.965238945142119e-08, -9.179194648822886e-08, -3.202100629096094e-08, 2.1456108001416396e-08, 1.1547688671953438e-07, 2.3663039527832552e-08, -2.180015883368469e-07, -1.4792088443016382e-08, -1.4748895438287946e-09, 1.1220249618304479e-08, 8.873834644873568e-08, -2.19870614159845e-07, 2.133679455340598e-09], [4.458994226297364e-06, -1.6684624597473885e-06, 5.177425350666454e-07, -1.7694335383566795e-06, 2.5899823867803207e-06, 2.1471300897246692e-06, -7.109844091246487e-08, -1.3852959455107339e-05, 8.888981938071083e-06, -1.1742123433577945e-06, -5.262519152893219e-06, -4.2019928514491767e-07, -1.6387781442972482e-07, -3.7195932236500084e-06, -1.8396224277239526e-06, 2.839846331426088e-07, 4.184060799161671e-06, -6.070335984986741e-06, -4.293417077860795e-06, -8.606604637861892e-07, 7.17399780114647e-06, -7.726635544713645e-07, -4.096824341104366e-06, 6.999836159593542e-07, 4.03727335651638e-06, 4.935404831485357e-06, 8.061980452112039e-07, -1.4426325378735783e-06, 4.813512532564346e-06, 1.0400963219581172e-06, 1.3577684399024292e-07, -5.657595465891063e-06, 8.064657208706194e-07, 3.1277268135454506e-06, 4.486167199502233e-06, 5.313850579113932e-06, 3.644063326646574e-06, -1.5796199477335904e-06, -1.3263331766211195e-07, -1.1296641559965792e-06, 3.958752131438814e-06, 1.8715657290613308e-07, -5.4159936553332955e-06, -1.2943788760821917e-06, 4.262055881554261e-07, 1.776314547896618e-06, 8.859028639562894e-06, 3.896201633324381e-06, 1.268900632567238e-06, 1.7659681361692492e-06, -2.5296146759501426e-06, -2.340716491744388e-06, 7.593988016196818e-07, -1.4278472804107878e-07, -5.828644134453498e-06, 8.765027814661153e-09, -3.077663222939009e-06, -7.137812190194381e-07, -8.787698391188314e-08, 4.153449481236748e-06, -2.402233349130256e-06, -8.213368829501633e-08, 8.05764921096852e-06, 5.6754179240670055e-06], [1.3436616427497938e-05, -3.866559200105257e-05, -6.925893103471026e-07, -7.351819476753008e-06, -4.18065937992651e-05, -0.000131209846585989, 2.9689461371162906e-05, 5.723647518607322e-06, 1.8484879547031596e-05, 1.6739782950025983e-05, -3.0975603294791654e-05, 1.840346521930769e-05, 1.6761734514147975e-05, -1.4072511476115324e-06, 3.2357507734559476e-05, 2.2602855551667744e-06, -4.120494850212708e-05, 1.7030070011969656e-05, 1.8859234842238948e-05, 2.7357141334505286e-06, -2.042893538600765e-05, 1.0434485375299118e-05, 2.0375380245241104e-06, -1.4754685253137723e-05, -2.4960312657640316e-05, 3.387613105587661e-05, -2.4116131953633158e-06, -8.869217708706856e-06, 0.00010899120388785377, -2.815029802150093e-06, 3.27934576489497e-05, -1.4216067938832566e-05, 1.2579598660522606e-06, 9.075106390810106e-06, -1.887201506178826e-09, 1.3454991858452559e-06, 5.7466563703201246e-06, -1.9707591491169296e-05, -0.00015739660011604428, 1.733434146444779e-05, 1.7128470062743872e-05, 2.472919186402578e-05, 4.410570545587689e-05, -1.9193917978554964e-05, 1.531022644485347e-05, -3.0205399525584653e-05, 2.4683862648089416e-05, 2.770077480818145e-05, -2.865036549337674e-05, -1.978401814994868e-05, 1.4247000763134565e-05, 6.903538633196149e-06, 2.1691370420739986e-05, 3.1817867238714825e-06, -5.6899812079791445e-06, 1.6212763512157835e-05, 8.979068297776394e-07, 2.0468938600970432e-05, 1.3939015843789093e-06, -2.8489921533036977e-05, -8.650399649923202e-06, 6.763794317521388e-06, 1.1576648830669e-05, 5.5591102864127606e-05], [-7.039935735519975e-05, 5.258905730443075e-06, 0.0001583308185217902, 8.279753819806501e-05, 0.00019913300639018416, -0.0004414278082549572, -5.5304422858171165e-05, 0.0002681160985957831, 0.0003156763268634677, -6.82453319313936e-05, -3.051570092793554e-05, -0.0004749574582092464, -0.00019230284669902176, -0.00012678420171141624, 7.517035555792972e-05, -8.877753862179816e-05, -0.00012636433530133218, -0.00013247864262666553, -6.86034036334604e-05, 1.0032761565526016e-05, -9.401240095030516e-05, 4.7964873374439776e-05, -0.0001858818286564201, -7.493110024370253e-05, -0.00020745881192851812, 9.722660615807399e-05, -0.0006068760412745178, 0.0003701637324411422, 5.043364217272028e-05, -9.68895255937241e-05, -0.0005045579746365547, -8.219009032472968e-06, 0.00015087221981957555, 0.00016733842494431883, 0.0005102093564346433, 0.00025483747594989836, 9.315530769526958e-05, -7.466095848940313e-05, 0.00013799811131320894, -9.370722546009347e-05, 0.0007970927399583161, 2.754160959739238e-06, 0.0006056084530428052, -6.125504296505824e-05, -0.0003426679759286344, -0.0005077116657048464, 0.0006837514229118824, -1.686071846052073e-05, -0.00018431823991704732, -0.0001309837243752554, 8.617059938842431e-05, -3.3388012525392696e-05, 0.0001695615501375869, -0.00029296864522621036, 7.581926183775067e-05, 0.00022486648231279105, -6.17770929238759e-05, 0.0008463752456009388, -9.585126827005297e-05, 0.00048300603521056473, -2.7480673452373594e-06, 9.869998029898852e-05, 0.00023747090017423034, 0.0005689411191269755], [-0.00029945324058644474, -0.00027180174947716296, 0.00010828497761394829, -0.0007662373827770352, 0.0002152046945411712, 0.000444667850388214, -0.0004576471110340208, 0.0012269873404875398, 0.0004461167845875025, -0.0002520341658964753, 0.00014984689187258482, 6.984281935729086e-05, -0.0008208910585381091, -0.00022355724649969488, -0.00021896319231018424, 0.0005757767939940095, 7.921806536614895e-05, -0.0003507595683913678, 8.821909432299435e-05, -0.00043217584607191384, 0.0006002066656947136, -0.0008814816828817129, 9.438452252652496e-05, 0.00012730048911180347, -0.0004733901296276599, -0.0002459422976244241, 3.6010751500725746e-06, 6.250842852750793e-05, -0.00018478836864233017, 0.0004428336978890002, -0.00024263463274110109, -0.00015152629930526018, -4.182519478490576e-05, 0.0008640491869300604, -0.0002017088554566726, 0.00018391117919236422, 0.00019084583618678153, -0.00048294966109097004, 0.00031790550565347075, 4.3146428652107716e-05, -0.00019146883278153837, -0.00018778667435981333, -0.0004347220528870821, 0.00039020532858558, 0.0005153416423127055, 0.00012909267388749868, -0.0006762320990674198, -4.752763197757304e-05, 0.00019939197227358818, 0.0003690566518343985, -0.0003159394836984575, 0.00022702047135680914, -7.698974513914436e-05, -0.00015675020404160023, 0.00013064983068034053, 0.00021848273172508925, 0.00021873987861908972, -0.00033010990591719747, -6.524426135001704e-05, 0.0006539404857903719, -0.000328383466694504, -0.00027226790552958846, -0.0007556762429885566, -0.0005703414208255708], [6.459685391746461e-05, -0.0012635699240490794, -0.00015585908840876073, -0.0007387782679870725, 0.0004714937531389296, -0.0002473030472174287, 0.0007370832609012723, 0.0016709325136616826, 0.0012760973768308759, -0.0009484011679887772, 0.0005791951552964747, -0.0010367946233600378, -0.0014066500589251518, -0.0005168102798052132, -0.0003170614945702255, 0.0005882573314011097, -0.0006287238211371005, -0.0007987176068127155, 0.0006064631743356586, -0.00011767355317715555, 0.0003911012609023601, -0.00021279185602907091, -0.0005593136302195489, -0.00014227809151634574, -0.00017931220645550638, 0.0004094663308933377, -6.222457159310579e-06, -0.0002563819580245763, -0.0004116013878956437, -9.813252836465836e-05, -0.0008989256457425654, -0.0003851656801998615, 4.58040158264339e-05, 0.00044627697207033634, 0.0002655737625900656, 0.0004854354774579406, 8.461240213364363e-05, -0.0006344225839711726, 0.0014287702506408095, -0.001383672934025526, 0.0006908418145030737, -0.00031195918563753366, 0.0007663039723411202, 0.00014053098857402802, -0.0020611644722521305, -0.0008261578041128814, 0.0006039742147549987, -0.00037055445136502385, 0.0004605015565175563, 0.0003413700615055859, -0.0015624912921339273, -0.00020299656898714602, -0.00023361582134384662, -0.0004249369085300714, 0.0005455011269077659, -0.00041934437467716634, 0.000592257478274405, 0.0027868212200701237, 0.00021844363072887063, 0.0012646076502278447, 0.0003562265483196825, -0.000663163373246789, -0.0005294922739267349, -0.0005623645265586674], [-3.52307761204429e-05, 0.0015226994873955846, 0.0004868308606091887, 0.00043536906014196575, -9.587920794729143e-05, 0.00224909745156765, 0.0005435870261862874, 0.00021599493629764766, -0.001896815956570208, 0.00010855803702725098, 0.0008271411061286926, -0.0003134594880975783, 0.0005836385535076261, 0.0005588994827121496, 6.14449309068732e-05, -0.0007757670246064663, -0.0008231399697251618, -0.00014701936743222177, -0.0006738007650710642, -8.733141294214875e-05, 0.0004933676682412624, -0.00015999737661331892, -0.0006489544757641852, -0.0005146656767465174, -0.0010826380457729101, -0.0006018200074322522, -0.0014069023309275508, -0.0001847322128014639, 0.0009573509451001883, -0.00012938166037201881, -0.001089646015316248, 0.0013056079624220729, 0.00019114199676550925, 0.00047913743765093386, 0.00031120370840653777, -0.00015338398225139827, 0.0006700700032524765, 0.0004996339557692409, -0.0006955240969546139, -0.00035645460593514144, -5.5626216635573655e-05, -7.63197458581999e-05, -0.0005335655878297985, -0.00024174328427761793, 0.0025393906980752945, 0.0002849414886441082, 0.00039802631363272667, -0.0007921498036012053, -0.00037087476812303066, 0.0004579586675390601, 0.0009277733042836189, -0.0003288716252427548, -0.0002933517680503428, -0.0003075537388212979, -0.0002950752095784992, 0.0003788805624935776, -0.0001685629686107859, -0.0009635455207899213, -0.0003181170322932303, -0.0004468026745598763, 0.0007708602352067828, 0.0009384974255226552, 0.00016932658036239445, -0.0006827772012911737], [-1.455920937587507e-05, 1.6371261153835803e-05, 1.8877033653552644e-05, -4.0433469621348195e-06, -0.0001391333353240043, 0.00019591009186115116, 1.0749183275038376e-05, -2.600416337372735e-06, -4.439698386704549e-08, 1.7274330730288057e-06, -1.2750710993714165e-06, 3.561862831702456e-05, 1.2978141967323609e-05, 2.7194231734029017e-05, 5.183584562473698e-06, -1.0490871318324935e-05, 1.0348907380830497e-05, -2.542444781283848e-05, -1.9665212676045485e-06, -4.591465039993636e-05, 1.5675497706979513e-05, 6.061467047402402e-06, -1.2385682566673495e-05, -3.40580299962312e-06, 2.469630999257788e-05, 1.2436054930731189e-05, -1.2573458661790937e-05, 2.932338247774169e-05, -8.062497727223672e-06, 2.3071323084877804e-05, 7.170570370362839e-06, -1.1361606084392406e-05, -7.818839549145196e-06, 8.454349881503731e-06, 7.203329914773349e-06, 3.3900380458362633e-06, -4.0997580072144046e-05, 1.0612299774948042e-05, 5.1198916480643675e-05, 1.5253554010996595e-05, -1.64352295541903e-05, 3.96176119465963e-06, 9.035637958731968e-06, 1.122551657317672e-05, 3.972951162722893e-05, 1.372562564938562e-05, -3.5207023756811395e-05, -9.45983083511237e-06, 1.7733777895045932e-06, -8.631724995211698e-06, -1.2291266102693044e-05, -1.5198990695353132e-05, 1.3255062185635325e-05, -2.39789023908088e-05, -1.2383261491777375e-05, 1.0070541975437663e-05, -8.81614105310291e-05, 4.4196090698278567e-07, 1.457775397284422e-06, -7.548144367319765e-07, -2.0833469534409232e-05, 1.7897634734254098e-06, 2.3081310018824297e-07, -1.2744558262056671e-05], [-3.274633490946144e-05, 1.4666035895061214e-05, 3.0147064535412937e-05, 1.3533232277040952e-06, -0.00014687387738376856, 0.00015558527957182378, -1.7744896467775106e-05, 4.6479930460918695e-05, 3.176597147103166e-06, 1.8117192666977644e-05, 2.0957051674486138e-05, 5.5220543799805455e-06, 3.4115375456167385e-05, 1.6034326108638197e-05, 3.8128804590087384e-05, 1.2787360901711509e-05, 1.5246675502567086e-05, -3.0335397241287865e-05, -1.4880158232699614e-05, -7.875431037973613e-05, 2.535780004109256e-05, 1.8035032553598285e-05, 2.195866545662284e-05, -1.565983984619379e-05, 4.1619092371547595e-05, 3.711286262841895e-05, -2.2864969650981948e-05, 3.4184937248937786e-05, -3.498137084534392e-05, 2.1215788365225308e-05, 2.3048029106575996e-05, -1.3886011402064469e-05, -3.156534876325168e-05, 5.027232691645622e-05, -3.3959954635065515e-06, 2.6572100978228264e-05, -3.3470547350589186e-05, 1.8133059711544774e-05, 0.00013213607599027455, 1.4217471289157402e-05, -2.1473862943821587e-05, 1.9169126971974038e-05, 1.1412525964260567e-05, 2.137346746167168e-05, 1.9846696886816062e-05, 4.498047474044142e-06, -5.4291307606035843e-05, 3.234799805795774e-07, 9.042498277267441e-06, -6.479800504166633e-05, 1.0511890650377609e-05, 2.4601044060545973e-05, 3.8096179196145386e-05, 3.2417352485936135e-05, -2.206276622018777e-05, 2.5216566427843645e-05, 3.443450395934633e-06, 3.870488581014797e-05, -2.158687129849568e-05, -1.2320989299041685e-05, -3.4026361390715465e-05, 4.047333732160041e-06, 3.5478456993587315e-05, -3.386084426892921e-05], [-2.9562310373876244e-05, -0.00011597391858231276, -5.2845789468847215e-06, -0.0002139292046194896, -0.00016767889610491693, -0.00010710456990636885, -3.0096216505626217e-05, -3.3797747164499015e-05, -6.2698873080080375e-06, -0.00011397338676033542, -8.28165138955228e-05, 0.00011305221414659172, 0.00010417005978524685, 2.0877485439996235e-05, 0.00016847373626660556, -8.998093835543841e-05, -0.00010744629253167659, 7.090920553309843e-05, -5.8944508054992184e-05, -3.1632524041924626e-05, 0.00020653463434427977, 3.607013786677271e-05, -6.086918438086286e-05, -0.00019928340043406934, 2.4243978259619325e-05, -4.6298100642161444e-05, -4.093850293429568e-06, 0.0001071602528099902, -0.00021338759688660502, -2.8455673600547016e-05, 7.118796202121302e-05, -0.00010407341324025765, -8.443120168522e-05, -6.26500986982137e-05, 2.0141389541095123e-05, 5.749400224885903e-05, -8.072049968177453e-05, 2.17241067730356e-05, 8.413178875343874e-05, -0.00017600719002075493, -7.127866410883144e-05, -2.902549931604881e-05, 5.665489152306691e-05, 4.394233110360801e-05, 8.619586878921837e-06, -8.495679503539577e-05, -8.29856980999466e-06, 0.00014081077824812382, -8.98791040526703e-05, 0.00019306795729789883, 4.959296711604111e-05, -0.00018308173457626253, -0.0003485384222585708, -0.00010763552563730627, 8.694820280652493e-05, -7.425649528158829e-06, -0.0003066206118091941, 9.017145202960819e-05, -5.25741015735548e-05, 9.123600466409698e-05, -0.00025815024855546653, -8.695483847986907e-05, 2.434080670354888e-06, 0.00018336543871555477], [0.00028569085407070816, 9.082064207177609e-05, -0.00014655065024271607, -0.00041768961818888783, -5.9369111113483086e-05, -0.0008128448389470577, 6.282239337451756e-05, -1.5186345990514383e-05, 8.898209489416331e-05, -0.00016823396435938776, 2.5199551600962877e-06, -0.0002112578513333574, -2.2370732040144503e-06, 0.00035618856782093644, 0.00010319917055312544, 9.065782796824351e-05, 9.424320887774229e-05, -0.00017828651471063495, -0.00014137463585939258, 0.0002860743261408061, 0.0004323624016251415, -5.013236659578979e-05, -0.00011522263957886025, 4.553976759780198e-05, -2.6300622266717255e-05, 9.927825885824859e-05, 6.674834003206342e-05, 0.0001807582884794101, -0.00013624118582811207, -1.7397745978087187e-05, 0.00011175989493494853, -0.00022701283160131425, -0.00011005216219928116, -0.00017687333456706256, -0.00015493726823478937, 0.00014046498108655214, -4.5968175982125103e-05, 2.2939957489143126e-05, -0.0001713723031571135, 4.709580389317125e-05, 0.00010898695472860709, 8.122836152324453e-05, -1.5480578440474346e-05, 0.00035005295649170876, 0.00016443541971966624, -0.00011877455108333379, 8.574541425332427e-06, 0.00038111195317469537, -0.00021439760166686028, -2.7100213628727943e-05, -2.5133991584880278e-05, -0.000207630917429924, -0.0005051398766227067, -0.0002924542932305485, -0.00020036552450619638, 0.0002783507516141981, 7.32669432181865e-05, 0.0005330173298716545, 0.00022102602815721184, 0.00012622536451090127, -0.00024746262351982296, -0.00015096558490768075, 0.00029797491151839495, 0.0002686551015358418], [0.0004903273074887693, -0.0003752062330022454, 6.0391223087208346e-05, -0.00010442099301144481, 9.176453750114888e-05, 0.0008468584856018424, -0.00010851556726265699, -0.0002644236374180764, 0.00042913423385471106, -0.00017964033759199083, -0.0008555395761504769, 6.938141450518742e-05, -0.0006751164910383523, -0.0006723993574269116, -0.00023302441695705056, 0.0011349957203492522, 0.000309893541270867, -0.000847100222017616, -0.00032097892835736275, -0.00025240506511181593, 0.0003733771445695311, 0.0003382990544196218, -0.0006129834800958633, -0.00019333726959303021, 0.0005019127856940031, -0.00015007812180556357, 0.00045832546311430633, -0.0002569782081991434, 0.00018323370022699237, 0.00017673555703368038, -0.00013602562830783427, -0.0006367436144500971, 0.00012684764806181192, 7.659556285943836e-05, -0.0005109236808493733, -0.0001996567298192531, 0.00017931355978362262, -0.0008627558127045631, 0.0006425640895031393, 0.00044542114483192563, -5.065809818916023e-05, 3.416619438212365e-05, 1.8885843019234017e-05, -0.0002435260103084147, -0.00015370812616311014, -0.00022245864965952933, -4.4425323721952736e-05, 0.0006620328058488667, -0.0001457874896004796, -0.00043778997496701777, 0.0004267665499355644, 9.455601684749126e-05, -0.0008023836417123675, -0.00025282619753852487, -0.0008344455854967237, 0.0007621629047207534, -0.00017871780437417328, -0.00010322661546524614, 7.103093230398372e-05, 6.198826304171234e-05, -0.0002857607905752957, -0.000155199013534002, 0.0003897705755662173, -0.0005438851076178253], [0.0014657933497801423, -0.0007688696496188641, -0.0001963055838132277, -0.000869239098392427, 0.0009753695921972394, -0.001859508454799652, -0.0007390404352918267, -0.0007723708404228091, 0.0006921935128048062, -0.001216415548697114, -0.0008739766199141741, 0.0005748424446210265, 0.0001481806830270216, -0.0005012315232306719, 0.0009435698157176375, 0.0008278071181848645, -0.00012098663137294352, 0.00039181261672638357, 0.00011356706090737134, -0.0007495435420423746, -0.0002878197992686182, -2.1848565666005015e-05, -0.0006357955280691385, 0.0005437507061287761, 0.0006553461425937712, 0.0005380014190450311, 0.00018009731138590723, -0.0008792555890977383, -0.0002576745464466512, -9.673227395978756e-06, 0.0001816039002733305, -0.00011046002327930182, 0.00037921115290373564, 0.0005785012035630643, -0.0009999629110097885, -0.00019131925364490598, 2.0118732209084556e-05, 0.0007760996231809258, 0.00041324933408759534, 0.001106124254874885, -0.0007485435926355422, 0.0005414698389358819, -0.0003036120324395597, 0.000564378802664578, -4.4900079956278205e-06, 0.00032884482061490417, -0.00032772566191852093, 0.0008218634757213295, 0.0003538682940416038, -0.00019350205548107624, -0.0004565477720461786, -0.000848070252686739, -0.0020911109168082476, -0.0005646993522532284, -0.0003794622025452554, 0.0004936266923323274, 0.0008534773369319737, -0.0007477027247659862, 2.017742008320056e-05, -5.473330384120345e-05, -0.0009563668863847852, 0.0004293129313737154, 0.0001437463070033118, 0.0001458219630876556], [0.0005387201672419906, -0.0011278522433713078, -0.0010197436204180121, -0.0005570900975726545, 0.00011580286081880331, -0.0012496423441916704, 0.0003432199009694159, 0.0021237703040242195, 3.2773008570075035e-05, 0.0002827993594110012, 2.1140614990144968e-05, -0.00017472082981839776, 0.0023978997487574816, -0.00048263760982081294, 0.0009652749868109822, -0.00015664247621316463, 0.00019898562459275126, -0.000736613292247057, -3.2685056794434786e-05, -0.00045281925122253597, 0.00034678346128202975, -0.0011473925551399589, 0.0008663128246553242, -0.0007950349827297032, -0.0007012205896899104, 0.0009546250803396106, -0.0003949612728320062, -0.0005208245129324496, -0.0002775150060188025, -0.0006201798678375781, -0.00022140430519357324, -0.001865278696641326, -0.000659077544696629, -0.0006878020940348506, 0.0011003955733031034, 0.0009827407775446773, 0.00025741872377693653, -0.0014864006079733372, -6.210280116647482e-05, -0.0020855253096669912, 0.0014156512916088104, 0.0007083230302669108, 0.00014912709593772888, -0.0007224282599054277, 0.0004367444780655205, -0.0007271136855706573, 0.001637034583836794, 0.0008742984500713646, -0.002121918834745884, 0.00010985782137140632, 0.0003051840467378497, -0.0011211923556402326, -0.002245023613795638, -0.0013436349108815193, -0.0005612225504592061, -0.0010238600661978126, -0.0017495059873908758, 0.0011668491642922163, -0.00020942799164913595, 0.0017472462495788932, -0.0008173873065970838, -0.002072511240839958, 0.0005107737961225212, 0.0037093565333634615]], [[-0.0004386789514683187, -0.00016736725228838623, -1.907517435029149e-05, -0.0005149161443114281, 0.0001466146786697209, 0.0010647126473486423, -0.0002454945060890168, 0.00019778762361966074, 0.0009116539731621742, 6.603202200494707e-05, 6.873301754239947e-05, -0.0008214767440222204, -0.00029745197389274836, -0.00011446607823017985, -0.00031287712045013905, 0.0009525415953248739, -0.00040571088902652264, -0.0010045130038633943, -0.0001953600294655189, -0.0014924549032002687, 0.000589971081353724, -0.0006170152337290347, -3.339602699270472e-06, 0.001146805938333273, -0.0005057125817984343, 0.000535301398485899, -0.0009112568804994226, 0.00043938157614320517, -0.0007560728117823601, -0.0002255421713925898, -0.0005380143993534148, 2.1627784008160233e-05, 0.0009741835528984666, 0.001127541298046708, 0.0009194480953738093, -0.0003801740240305662, 0.0013687184546142817, 0.00056125083938241, -5.814879841636866e-06, -4.367961082607508e-06, 0.00038922816747799516, -0.0002709943801164627, -0.000692758010700345, 0.00027424682048149407, 0.001155720092356205, 0.0011304552899673581, 0.0015726280398666859, -0.0004757218121085316, 0.0003954881976824254, 0.0005131628713570535, 0.0005122311995364726, 0.0007733775419183075, -0.00046592974103987217, 0.0002132720546796918, 0.0002772111911326647, 0.0006450631772167981, 0.0006288060103543103, -0.000980719574727118, -0.000836665160022676, 0.001145554706454277, 0.00021325558191165328, -0.00027913166559301317, -0.0003425692266318947, -0.0007045906968414783], [5.183312890011393e-09, -1.3448358515688597e-07, -3.6562983751764477e-09, -4.9068464846868665e-09, 2.8417179720463537e-08, 8.338454904333048e-07, 7.722511519148156e-09, 4.843802869913816e-08, 2.7364142951569193e-08, -3.489499889042236e-08, -1.1183153958427283e-08, 2.2429667012602295e-09, 5.4000388161057344e-08, 2.212799188328063e-08, 4.670349440516475e-08, -4.406849285487624e-08, -2.59381210954146e-10, -2.7095669707932757e-08, 3.38544907663163e-08, 1.161496943069551e-08, -1.0194190025458738e-07, 5.3104077579746445e-08, 2.74868057204003e-07, 6.514376815758283e-10, -3.255565061976995e-08, 4.027886291169125e-08, 7.863805606689311e-09, 2.0612638707007136e-08, -3.076942789448367e-08, -5.055363061501339e-08, -3.103809120830192e-08, 3.855644248318413e-09, 1.0829382546262423e-07, -3.1463457617064705e-08, -2.102322582686611e-08, 2.532270926280944e-08, -2.7724343709678578e-08, -7.246242272884729e-09, 2.0184360849384575e-08, 2.6270779329706784e-08, 7.601126128520264e-08, -6.127250884446767e-08, 1.916103187227236e-08, 3.175834706325986e-08, 3.7475738068337705e-09, 5.6276558524359643e-08, 7.017355585503537e-08, 2.0966252733956026e-08, 1.617905809325748e-08, -5.478818287940612e-09, -3.384555213870044e-08, 4.167298683910303e-08, -1.4695926608965237e-07, 1.1617514728001765e-09, 3.8286305681367594e-08, 9.911657272709817e-09, 2.5763023714375777e-08, -6.03624172867967e-09, 6.22053306642556e-08, 4.9109750932530005e-08, -2.3984515706843013e-08, 5.689555049315231e-09, -4.6172160539370566e-10, -9.35681132574473e-09], [-2.008457386182272e-06, -1.8049026948574465e-06, 2.048354190264945e-06, 2.2128659793452243e-07, 1.939875346579356e-06, -2.361078713875031e-06, 4.219544280203991e-06, -8.130648893711623e-06, -6.236644821910886e-06, 4.467189228307689e-06, -1.3880796814191854e-06, -1.9598528524511494e-06, 1.3019539437664207e-05, 2.292661065439461e-06, 2.107881527990685e-06, 1.4427125734073343e-06, -1.9200670067220926e-06, 6.0011107052559964e-06, -1.1147938039357541e-07, 4.23259461967973e-06, -2.492785370122874e-06, -2.3763897161188652e-07, -2.2675098989566322e-06, -1.1896336218342185e-06, 1.2923726899316534e-05, 5.777114893135149e-07, -2.377388227614574e-06, -1.7024000271703699e-06, -8.131097274599597e-06, 2.561689598223893e-06, 2.0492875592026394e-06, 2.102467988152057e-06, 8.071529919106979e-06, -4.57454325442086e-06, 1.1963229553657584e-05, -1.2376191307339468e-06, 1.1813948731287383e-05, 8.84358087205328e-07, -1.469404833187582e-05, -2.0231734652043087e-06, 1.418906890648941e-06, -8.264524353762681e-07, 2.707119165279437e-06, -8.26354789751349e-06, -5.228029749559937e-06, -2.015676273003919e-06, 1.0077264050778467e-05, -7.735705366940238e-06, -4.746964805235621e-06, 2.5505676148895873e-06, 7.767426723148674e-06, -2.9374145924521144e-06, 1.0568087418505456e-05, 5.880810931557789e-07, -1.200448991767189e-06, 1.0652226592355873e-05, 4.021796939923661e-06, 3.8716511880920734e-06, 4.0752036056801444e-07, -1.0197311439696932e-06, 4.1278990465798415e-06, 2.0673433027695864e-06, 1.019811043079244e-05, 4.471894953894662e-06], [3.823903534794226e-05, -5.495610457728617e-05, -2.890466566896066e-05, -4.387220542412251e-06, -1.1927248124266043e-05, -0.000251720251981169, 8.437373253400438e-06, 5.296075414662482e-06, 1.1072975212300662e-05, -5.823929768666858e-06, -6.2060744312475435e-06, -3.27906891470775e-05, 1.1142335097247269e-05, 1.9726350728888065e-05, -3.609070699894801e-05, 4.0558388718636706e-05, -5.163314654055284e-06, 3.895470581483096e-05, 2.8227186703588814e-05, 5.6344238146266434e-06, 1.9127701307297684e-05, -2.0687852156697772e-05, 2.3469474399462342e-05, -9.29751513467636e-06, -4.047944094054401e-05, -7.087290214258246e-06, 2.1142497644177638e-05, 1.3729019883612636e-05, 1.6749048882047646e-05, -2.4981534807011485e-05, 1.0647636372596025e-07, -4.534493200480938e-05, 7.812108378857374e-05, 1.262850400962634e-05, 1.3040263183938805e-05, 2.4201752239605412e-05, 2.5888884920277633e-05, 3.125220609945245e-05, 1.919235182867851e-05, 2.2890289983479306e-05, 2.4201472115237266e-05, -2.157046083084424e-06, 8.96071651368402e-06, 1.7326055967714638e-07, -2.364877946092747e-05, -2.71141971097677e-06, 9.229326678905636e-06, -2.2720536435372196e-05, 2.008288174693007e-05, -4.5097334805177525e-05, 1.8428090697852895e-07, -1.3451691302179825e-05, -2.1734111214755103e-05, -1.9601769963628612e-05, 5.286487430566922e-05, -1.396349944116082e-06, 1.3552140444517136e-05, 3.2099600502988324e-05, 2.9968086892040446e-05, -1.90136336186697e-06, 1.1444064512033947e-05, 3.4007098292931914e-05, -4.9493362894281745e-05, 2.6611292923917063e-05], [-5.918697206652723e-05, -1.603903729119338e-05, -5.383025563787669e-05, 2.966791726066731e-06, 0.0001671908248681575, -9.223399683833122e-05, 0.00018232892034575343, -0.0003238325007259846, -0.0001561506069265306, -0.0001995164784602821, 0.00011117255053250119, -0.00046137734898366034, 0.0005366166005842388, 0.00038628687616437674, -0.0004198162932880223, 0.00044158927630633116, -0.00013629134627990425, -8.845784032018855e-05, -0.0004386652144603431, 4.079862992512062e-05, 0.00022739541600458324, 8.871094905771315e-05, -8.4218721895013e-05, 5.060394687461667e-05, -0.00025777716655284166, 2.5962657673517242e-05, 0.00012283408432267606, -5.186228736420162e-05, 0.0003657258057501167, 0.00010012375423684716, 5.178392893867567e-05, 4.709858330897987e-05, -4.8607813369017094e-05, -0.00021200027549639344, 0.00033593937405385077, -0.0001575428177602589, -6.402799772331491e-05, 0.0002356659242650494, 3.611815918702632e-05, 6.338400999084115e-05, 0.0001221492129843682, 3.883968747686595e-05, 7.522868691012263e-05, -7.81303460826166e-05, 0.00017042328545358032, -0.00020411927835084498, 0.00011683713819365948, -0.0004433745634742081, -5.433161641121842e-05, -0.00013416979345493019, -0.00017091052723117173, -0.00020251699606887996, -4.298907151678577e-05, -2.530376696086023e-05, 0.00012215354945510626, 8.895203791325912e-05, 0.00032547497539781034, 0.00015901602455414832, 0.0003898158320225775, 1.4827910490566865e-06, -5.77740793232806e-05, 0.0001878423208836466, -0.0001284802274312824, 0.0005228146910667419], [-0.00030025822343304753, 0.0003898798022419214, 0.00010451477282913402, -0.0001061216025846079, -5.64571819268167e-05, -0.0008648084476590157, 0.0002069617185043171, 0.001628204365260899, 0.00010533272143220529, -3.601487696869299e-05, 0.0005713641876354814, -3.462623499217443e-05, -0.0007527824491262436, -4.82519026263617e-05, 0.00011687109508784488, 0.0005053108325228095, 3.495923010632396e-05, 1.9469374819891527e-05, -5.669476377079263e-05, 8.703792991582304e-05, -0.00011865681153722107, -2.1066764020361006e-05, -2.0980492990929633e-05, 0.0012651672586798668, -0.00019734600209631026, -0.00015061761951074004, -0.00012342196714598686, 5.94107223150786e-05, -0.0005124222952872515, 0.0003013953100889921, -0.0004949613939970732, 0.0005252278642728925, -0.0003843543236143887, 3.1166739063337445e-05, -1.5340017853304744e-05, 0.00039732566801831126, 0.00029276078566908836, 0.0004253604565747082, 0.00039163813926279545, 0.0003830118221230805, 0.00018557268776930869, 5.433401383925229e-05, 0.0001538726210128516, 0.0002839772787410766, -2.7448637410998344e-05, -0.0005630188388749957, -0.0001367302320431918, -0.00017232986283488572, 0.00016273048822768033, 0.000381680962163955, -4.657337558455765e-05, 1.2924261682201177e-05, -0.0001348570513073355, -0.0003513959236443043, -0.0002793892635963857, -0.0001746564666973427, 0.00026975665241479874, 0.0004894401645287871, 1.2000789865851402e-05, -2.1336061763577163e-05, 0.00040643749525770545, 0.00022810022346675396, 0.0004159758100286126, -0.00016738378326408565], [-0.0009931867243722081, -0.00019567458366509527, -7.792298856656998e-05, -0.00010328736971132457, 0.0005910871550440788, -0.0015218080952763557, 0.0006431713700294495, 0.0010262669529765844, -0.00025066136731766164, -0.0010965949622914195, 0.0005220019374974072, -0.0008021885296329856, -0.0006235481705516577, -0.0003351949853822589, 0.0011097342940047383, 0.0014790697023272514, -7.081868534442037e-05, 1.5742843970656395e-05, -0.0005396839114837348, 0.0001104495968320407, -0.0003970652469433844, 0.0005812060553580523, -0.0007383483462035656, 0.0010433176066726446, -0.00030381741817109287, -0.0003547746455296874, 0.0005446692230179906, -0.0007311488152481616, 0.0006691371090710163, -0.00012200246419524774, -0.0007678453112021089, 0.0012188261607661843, -0.0008235822897404432, -0.0004216258821543306, 0.0004481551586650312, -0.0006841373979113996, 0.000717796094249934, 0.0009677448542788625, 0.00024105931515805423, -0.0001609737373655662, 0.0009413947118446231, -0.0002248959062853828, -0.0004767270584125072, -0.00020736115402542055, -0.0024323975667357445, -0.0007432058919221163, -0.0008216917049139738, -0.0013400936732068658, 0.00034158004564233124, -0.0002425748825771734, -0.0011236657155677676, -0.0008277829037979245, 0.0002767287951428443, -0.00047436723252758384, 0.000767699908465147, -0.0010120619554072618, -1.810332469176501e-05, 0.0012938084546476603, 0.0005693631246685982, -0.0004132598405703902, -0.00011013884795829654, 0.0006372982170432806, -0.00025775263202376664, -0.0002553465310484171], [0.0016806172206997871, 0.0005210135714150965, -5.232752300798893e-05, 0.0004416450101416558, -0.0004506433615460992, 0.0006119296886026859, 0.00014673714758828282, 4.2143219616264105e-05, 0.000623064290266484, 0.00031465268693864346, -0.0011527383467182517, 0.0014901680406183004, -0.00031102020875550807, 0.00060677295550704, -4.026536043966189e-05, 0.0011724865762516856, -0.00046780615230090916, -0.00034478629822842777, -0.0011606105836108327, 0.00020293942361604422, -0.0007635130314156413, -0.0010177557123824954, -0.00012246611004229635, -0.001188142690807581, -0.0007237201207317412, -0.00024153501726686954, 0.001049102284014225, -0.0002698399475775659, -0.0002611805102787912, 0.00042967687477357686, 8.773188892519102e-05, 3.752472184714861e-05, 0.00028760774875991046, 0.0007036588503979146, -0.0006444827886298299, 0.0005844786064699292, 0.0001808901142794639, -0.0003462874155957252, 4.599428939400241e-05, -0.0002968145126942545, 0.00040369690395891666, -0.00023531618353445083, 0.0003642199153546244, -0.0008056851220317185, 0.0008946433663368225, 0.00029187658219598234, -0.00012347428128123283, 0.000597679172642529, -0.00023454349138773978, -0.0003874632529914379, 0.0004911409923806787, 2.226687502115965e-05, 0.00023392419097945094, -0.0002627538633532822, -0.0008373851887881756, -0.0007475612219423056, -0.0009663737728260458, -0.0011978124966844916, -0.0007290559005923569, 0.000521873589605093, 0.00031976771424524486, -0.00011265091598033905, 0.0011201038723811507, 0.0010030911071226], [8.53032815939514e-06, -9.496012353338301e-06, -1.660464477026835e-05, -2.9215601898613386e-05, 1.7675551134743728e-05, -2.017955466726562e-06, 3.859963908325881e-05, -3.830071000265889e-05, -2.0141867935308255e-05, -6.94856407790212e-06, 2.1061532606836408e-07, -2.6194920792477205e-06, -2.4158422093023546e-05, -9.65280742093455e-06, -5.131175839778734e-07, -3.949660822399892e-05, 1.4799903510720469e-05, 3.7846173654543236e-05, 6.69824567012256e-06, 2.4429186851193663e-07, -6.210601713974029e-05, -1.4740982805960812e-05, 9.11318238649983e-08, 1.5213557162496727e-05, -3.9358699723379686e-05, -1.5602868188580032e-06, 5.1836368584190495e-06, 1.2854031410824973e-05, 5.086917553853709e-08, 2.855039929272607e-05, 6.386088898580056e-06, -4.664940661314176e-06, -2.0808853150811046e-05, 4.443052603164688e-06, 4.675425770983566e-06, -1.3655186194228008e-05, -2.433445115457289e-05, 5.3797924920218065e-05, -0.0003025372279807925, -3.3581716706976295e-05, -1.3729074453294743e-05, 1.6599502487224527e-05, 3.2447358080389677e-06, 1.5092414287209976e-06, -1.0071905307995621e-05, -4.5868990127928555e-05, 2.1458450646605343e-05, 4.013150464743376e-05, -2.2190095478435978e-05, -6.375848897732794e-06, -3.078184454352595e-05, 6.8816916609648615e-06, 1.7514410046715057e-06, -1.2385728041408584e-05, -2.9784077923977748e-06, 1.2937326573592145e-05, 2.9353035642998293e-05, 1.663004695728887e-05, 1.6277113900287077e-05, -1.585553582117427e-05, 9.14177689992357e-06, 2.837547435774468e-05, 2.994477836182341e-05, 5.406660420703702e-06], [7.810021998011507e-07, 3.7045570024929475e-06, -2.7563382900552824e-05, -3.8888148992555216e-05, 5.541972132050432e-05, -1.207361310662236e-05, 1.2273962965991814e-05, -4.256517786416225e-05, 1.8868986444431357e-05, -1.4689756426378153e-05, 4.564738446788397e-06, 3.1567517453368055e-06, -9.797554412216414e-07, -8.849173173075542e-05, -3.173840741510503e-05, 2.555419814598281e-05, 4.582642941386439e-05, 2.6957186491927132e-05, 7.376032954198308e-06, 1.9904000509995967e-05, -1.799006167857442e-05, 5.2921250244253315e-06, 2.2307085600914434e-06, 6.54888353892602e-05, -2.606939415272791e-05, 4.209728558635106e-06, 3.6550918594002724e-05, -1.1930617802136112e-05, -9.17750639928272e-06, 3.162321445415728e-05, 1.6365860574296676e-05, -2.291650525876321e-05, -8.131843969749752e-06, 2.9414261007332243e-05, 9.439929272048175e-06, -2.8214012672833633e-06, -2.9606921998492908e-06, 4.7062723751878366e-05, -0.000176564120920375, -1.5874760720180348e-05, 2.7839976155519253e-06, 1.4497522897727322e-05, -9.580297955835704e-06, 4.024788358947262e-05, -2.939122168754693e-05, -6.583750655408949e-05, 2.9682540116482414e-05, 4.625505243893713e-05, 2.4385470169363543e-05, -4.463386721909046e-05, -3.737990482477471e-05, 6.184243829920888e-05, 6.405972726497566e-06, 4.217366949887946e-06, -1.1744882613129448e-05, 3.5389093682169914e-06, 9.69847387750633e-05, 1.3298062185640447e-05, 7.589383130834904e-07, -7.93292565504089e-06, -1.2450350368453655e-06, 1.2038940440106671e-05, 3.929473314201459e-05, 2.6364565201220103e-05], [9.269268048228696e-06, 0.00010817256406880915, 6.539783498737961e-05, 8.02479189587757e-05, -2.8726690288749523e-05, -0.0002485912700649351, 2.5348261260660365e-05, -0.00015877412806730717, 8.989471098175272e-06, -2.6639356292434968e-05, -5.113930092193186e-05, 3.57446915586479e-05, 7.551126327598467e-05, -6.9736415753141046e-06, -5.076064189779572e-05, 0.00010426882363390177, -5.844277256983332e-05, -1.5418776456499472e-05, -1.5052482922328636e-05, -3.6364283005241305e-05, -3.9113874663598835e-06, 3.0040580895729363e-05, -6.530006430693902e-06, -4.077631456311792e-05, -0.0003117781598120928, -0.0001681708381511271, -7.449932309100404e-05, -0.00013727214536629617, 6.0003905673511326e-05, 3.972194099333137e-05, -2.594528268673457e-06, 0.00010072233999380842, -4.664764128392562e-05, 2.8835906050517224e-05, 9.007460903376341e-05, -5.28992859472055e-05, -7.890225970186293e-05, 6.885504262754694e-05, 0.00018222953076474369, -0.00025866535725072026, 9.476063860347494e-05, -1.0949797797366045e-05, 5.969382982584648e-05, -5.495164077728987e-05, 6.667593697784469e-05, -2.66377828666009e-05, 0.00012727014836855233, 6.183789810165763e-05, -7.630475738551468e-05, 0.00015298590005841106, -5.115323074278422e-05, -0.0002479329996276647, -0.00035887505509890616, -7.02945762895979e-05, -1.1545618690433912e-05, 5.791011790279299e-05, -0.00018209201516583562, 2.4824770662235096e-05, 2.3250249796546996e-05, 3.006328915944323e-05, 0.00011739067849703133, 2.4342532924492843e-05, -2.5525001547066495e-05, 0.00018859062402043492], [-2.514478546800092e-05, 0.0005632233223877847, 1.7643658793531358e-05, -8.869991870597005e-05, 0.0004388609086163342, 0.00027214473811909556, 0.0004146367427892983, -0.0003126292140223086, 0.00013988069258630276, -9.571314149070531e-05, 1.3485230738297105e-05, -0.00010475189628778026, -0.00011016098142135888, 0.00013563851825892925, 9.430626960238442e-05, -0.0001878844341263175, -3.0264251108746976e-05, 0.0002065976441372186, -4.101982631254941e-05, 0.0004909161361865699, 5.074548244010657e-05, 9.653369488660246e-05, -9.245071851182729e-05, -6.563921488123015e-05, -0.00029473696486093104, -0.0003571004490368068, -0.0006632748991250992, -0.0004661469138227403, -1.089394027076196e-05, -0.0004347817157395184, -0.000392058864235878, 2.74944759439677e-05, 0.0003295165952295065, 0.00015789581811986864, 0.00016806190251372755, -0.00011040459503419697, -0.0003330388863105327, 0.0002618044672999531, 0.000402987003326416, -0.0002016286744037643, 0.00014112345525063574, 0.00013373990077525377, -8.611157682025805e-05, -5.8493067626841366e-05, 2.5334273232147098e-05, -8.51437944220379e-05, 0.00020255058188922703, -5.07821241626516e-05, 5.5702184909023345e-05, 0.00033294211607426405, 4.42875170847401e-05, -0.00027434329967945814, -0.00037616275949403644, -0.0001349956582998857, -4.307020572014153e-05, -6.80031007505022e-05, -0.0002737609902396798, -0.00016474841686431319, 0.0004098728240933269, -6.09405105933547e-06, 0.0003071250976063311, 7.286597974598408e-05, -0.00036153558176010847, 0.00020716933067888021], [-0.00022705341689288616, 7.63729476602748e-05, -1.2810003681806847e-05, 7.859613833716139e-05, -0.00012783484999090433, 0.0002681632759049535, -0.0002488201716914773, 0.0007468609255738556, -4.3958290916634724e-05, -0.0004203887947369367, -1.2880656868219376e-05, 6.0859147197334096e-05, -0.00016960201901383698, 1.9842584151774645e-05, 6.318341183941811e-05, 0.0013895909069105983, 0.00028394570108503103, -0.0003993225109297782, -0.00043290291796438396, 0.0003075129061471671, -0.000570930540561676, 0.0001964739931281656, 0.00017342942010145634, 0.0004362724721431732, -0.00016278857947327197, -0.00034728681202977896, 0.0004935131873935461, -0.00043446995550766587, 0.00042649690294638276, -0.00021419039694592357, 3.619617928052321e-05, 0.0004713674134109169, -0.0003081753966398537, 3.219492646167055e-05, -0.0008832612656988204, -0.0008546761237084866, -0.00012389171752147377, 0.0009080196032300591, -0.00029642076697200537, 0.0006902250461280346, -0.00025702230050228536, 9.030713408719748e-05, -0.0003048641956411302, 0.00022811544477008283, -0.0004418998723849654, 0.0005232882685959339, -0.0008118543773889542, -0.0003774598881136626, 0.00017285323701798916, 8.543590956833214e-05, 0.00024266520631499588, -0.00017732055857777596, -0.00047429773258045316, -9.143805982603226e-06, 6.30658760201186e-05, -0.00033427600283175707, 0.0008898202795535326, -0.0005134217208251357, 0.0005910623585805297, -0.000600973260588944, 7.448957330780104e-05, 0.00023862184025347233, 0.00022422774054575711, -0.0004922895459458232], [4.2940817365888506e-05, 0.0006525909993797541, 0.00012448549387045205, 0.0007597426301799715, 0.0012151167029514909, 0.0009154919534921646, 0.00018983657355420291, -0.00037595833418890834, 0.000718294526450336, -0.0007028657710179687, 0.0012197016039863229, -0.0007317534764297307, -0.000616378674749285, 0.0006993769202381372, 0.00013545603724196553, 0.0019850044045597315, -0.00013571628369390965, -0.00025912205455824733, -0.00022098937188275158, 0.0004003028734587133, -0.0003561272460501641, 0.00012519830488599837, -7.392815314233303e-05, -0.0002726130769588053, -0.0008629838703200221, -0.00034323017462156713, 0.0005802737432532012, -0.0006571237463504076, 0.0011177307460457087, -0.00035357329761609435, -0.00046176984324119985, 0.0014510472537949681, -0.0005542449653148651, 0.0001803874911274761, -1.8870021449401975e-05, -0.000449012266471982, -0.00037100023473612964, 0.001138761406764388, -0.00012130208779126406, 0.001124093309044838, 0.0006441809237003326, 0.0009831537026911974, -0.00018928511417470872, -8.817703201202676e-05, -0.0015225308015942574, 0.0002692429698072374, 0.00034769572084769607, -8.386831177631393e-05, 4.529673606157303e-05, 0.00022263627033680677, 0.00033437839010730386, -0.0004760152078233659, -0.0014201870653778315, -0.0006714830524288118, 6.573251448571682e-05, -0.0003926822682842612, -4.5131659135222435e-05, -0.0006035937112756073, 0.0008279584581032395, -0.0004419040051288903, -0.00019613784388639033, 0.0004576932406052947, 3.814828232862055e-05, -0.0004766893107444048], [0.000656564487144351, -0.0011642463505268097, -0.0008904295973479748, -0.0005390919977799058, 0.00010708051559049636, -0.00097299600020051, 0.00014219549484550953, 0.002109765075147152, 0.0003662374510895461, 0.0002412433532299474, -2.3616477847099304e-05, -7.203314453363419e-05, 0.0019079467747360468, -0.000535867118742317, 0.0010032295249402523, -0.0003650594153441489, 0.00021902321896050125, -0.0010599878150969744, 0.00010962266242131591, -0.0004844724899157882, 0.00040893879486247897, -0.0013869769172742963, 0.0010333906393498182, -0.0008372486336156726, -0.0005374714965000749, 0.0007068542763590813, -0.0004041556967422366, -0.0005721292109228671, -0.0003365871962159872, -0.0006215819739736617, -0.00018407484458293766, -0.001889693783596158, -0.0004394444404169917, -0.00022788136266171932, 0.0012560270261019468, 0.0011533809592947364, 0.000318150850944221, -0.001923818839713931, -7.618393283337355e-06, -0.0018823399441316724, 0.0017312990967184305, 0.000633434159681201, 0.0002130810171365738, -0.0008351568831130862, 0.0004626779118552804, -0.0008288160897791386, 0.0017548128962516785, 0.0010060099884867668, -0.002126822480931878, 8.507311576977372e-05, 0.00037131313001737, -0.0009928104700520635, -0.0024019666016101837, -0.0015174710424616933, -0.0005452391924336553, -0.0011176109546795487, -0.001927379984408617, 0.001196664059534669, -0.0002640534657984972, 0.0018301601521670818, -0.0007930630818009377, -0.0024956895504146814, 0.0006867306074127555, 0.003886834718286991]], [[0.000852755387313664, -0.0002818821230903268, 0.0006472511449828744, 0.000987627194263041, 0.0004275140236131847, -0.00039698969339951873, 0.0012673480669036508, 0.0002561482251621783, -0.00012674939353019, 0.0014423697721213102, 0.00047002467908896506, -0.0003730040625669062, -0.0007967696874402463, 0.0004475317837204784, -0.0009773295605555177, 0.0008053514175117016, 1.2138181773480028e-05, 0.0006301222019828856, -0.0005078633548691869, 0.00021065204055048525, -0.0009763120906427503, -0.000551538250874728, -0.00037763675209134817, 0.00016685097943991423, 0.0004062490479554981, 0.0001599494571564719, 0.0007994696497917175, -0.0003499063604976982, -0.0006452049128711224, 0.0005950466147623956, -0.00011117679241579026, 0.00013301725266501307, -0.001015943824313581, -0.0002866178401745856, -0.0007870950503274798, 0.0003623083175625652, 0.0008518364047631621, -0.00021087918139528483, 0.0010674281511455774, -0.0007735751569271088, -0.00028378996648825705, 0.0011870658490806818, -9.422584844287485e-05, 0.0004628573660738766, -0.0012396937236189842, 0.0009237091289833188, -0.0007339833537116647, -0.0006399306585080922, -7.756944978609681e-05, 0.0002282867208123207, 0.0005477668601088226, -5.1561801228672266e-05, -0.00032807607203722, -8.76291815075092e-05, 0.0005133577506057918, 0.0004692270013038069, 0.0004173947963863611, -0.0014519777614623308, 0.00011342721700202674, -6.916002894286066e-05, -0.00018148399249184877, 0.00011285030632279813, 0.0007140152738429606, -0.00022094458108767867], [3.8547948832956536e-08, 1.3245289665064774e-07, -2.719740344048205e-08, -1.5235370653954305e-07, -5.946177950022502e-08, -3.658831246866612e-07, 4.680169496396047e-08, -3.816577986981429e-08, 1.6747476294654007e-08, -5.860578156102747e-08, 1.2576926167184865e-07, -4.8188120160830294e-08, 1.0298923314167041e-07, -5.220170962161319e-09, 1.8736791673745756e-08, -1.377113867384594e-09, -1.6325107310422027e-07, 4.1275768580817385e-08, -1.2741907085001003e-07, 2.0344170081898483e-07, 5.92339688409993e-09, 1.0749626966344294e-08, 5.170824479705516e-08, 1.0814782314128024e-07, -3.0665010086750044e-08, -1.0045518905599238e-07, 1.8108416099948954e-08, -5.496421451312017e-08, 2.712430102747021e-07, -2.198972737232907e-08, -8.156460040709135e-08, -1.1355735907159215e-08, -6.596696522365164e-08, -2.4602547910035355e-07, 3.516586744023442e-10, -9.812458756641718e-08, 5.978819217489217e-08, 7.96377861433939e-08, 3.2358194346215896e-08, -7.533603074705297e-09, -1.9701488440659887e-08, -1.634652058157826e-08, 2.5739836928551085e-09, -6.3247282966472085e-09, -4.206911086157561e-08, -5.348339371380462e-08, 9.121565369696327e-08, -7.490552178524013e-08, 8.02984878589541e-09, 1.565839902184507e-08, -4.590474844690107e-08, -1.416441079982178e-07, -9.935662603766104e-08, -6.970032728759179e-08, 3.2356187062987374e-08, 1.1218806150736782e-07, -6.286912657138544e-10, 3.7499852112432563e-08, -1.0968918218168255e-08, 1.2545260830165716e-08, 4.1488931401545415e-08, 4.436284228859222e-08, -2.419781139906263e-07, -1.2996370202245089e-08], [-2.5731644655024866e-06, 1.5310253047573497e-06, 1.0762846613943111e-07, -1.5774314761074493e-06, 3.0372279979928862e-06, 1.95797565538669e-06, -1.4658567124570254e-06, -7.669044862268493e-06, 5.61367687623715e-06, 2.544222752476344e-06, -1.7285547073697671e-06, 3.020481244675466e-06, -4.9561634796191356e-08, 3.1767831387696788e-06, 3.7637669265677687e-06, 5.734273599955486e-06, -1.3917526757722953e-06, 8.509624080943468e-07, -7.855634009956702e-08, 7.462633107024885e-07, -5.4466381698148325e-06, 3.229829417250585e-06, 3.408874960086905e-08, -4.003675712738186e-06, -1.3448460549625452e-06, 2.5061601718334714e-06, -1.3050932921032654e-06, 9.67925984696194e-07, 6.286730922511197e-07, -9.521695005787478e-07, -2.210168759120279e-06, 1.534988086859812e-06, 3.869281499646604e-06, 1.1922481917281402e-06, 1.3959468105895212e-06, 3.680053850985132e-06, 2.464340923324926e-06, -1.2849395716330037e-06, -6.053221113688778e-06, -9.110092946684745e-07, 5.778157174063381e-06, -5.471417807711987e-07, 2.8526444566523423e-06, -1.0935439149761805e-06, 1.326585334027186e-06, -3.426446255616611e-06, 1.1548720067366958e-05, -3.779717417273787e-06, 5.143366706761299e-06, 4.312798864702927e-07, 1.8343779117913073e-07, -1.7257837043871405e-06, 1.768976744642714e-06, -1.204999989568023e-06, -3.5486366414261283e-06, -1.9157491806254257e-06, -1.1963189763264381e-06, -1.3064100130577572e-06, 2.0988377400499303e-06, 6.264110197662376e-06, -1.5695537740612053e-06, 6.108531636073167e-08, -3.1583199415763374e-06, -1.5268601600837428e-06], [2.155003858206328e-05, -5.573958333116025e-06, -1.5048460227262694e-05, 1.4403552995645441e-05, 1.1734246982086916e-05, -0.0003026534104719758, -9.33481987885898e-06, -1.7183525415020995e-05, -2.7352805773261935e-05, -1.1794209058280103e-05, -3.185689638485201e-05, -7.227064088510815e-06, 2.5110712158493698e-05, 7.093026397342328e-06, -4.044883462483995e-05, -2.6623627491062507e-05, -4.475718742469326e-05, 2.9127280868124217e-05, -1.3693735127162654e-05, -1.9782522940658964e-05, 1.4779265256947838e-05, -3.323441342217848e-05, -2.696047340577934e-05, -1.7298219972872175e-05, 4.374308446131181e-06, 2.1839643522980623e-05, 9.934576155501418e-06, 3.0164770578267053e-05, -3.515554271871224e-05, 2.1053447198937647e-06, 3.283445039414801e-05, -5.117545515531674e-05, -2.0210305592627265e-05, 1.7538126485305838e-05, 3.310011379653588e-06, 2.6554587748250924e-05, -4.341921885497868e-05, 7.318638836295577e-06, 9.384462828165852e-06, 2.7193240384804085e-05, 1.0648209354258142e-05, -1.1784405614889693e-05, 1.0300052963430062e-05, 1.541094752610661e-05, -2.4732738893362693e-05, 4.415451257955283e-06, 1.6605976270511746e-05, 9.850527021626476e-06, -3.53952418663539e-05, -1.7976608432945795e-05, -1.9232988051953726e-05, -3.991113044321537e-05, 1.4526699487760197e-07, -3.270499291829765e-05, 2.6655001420294866e-05, -1.3624926396005321e-05, 3.276760980952531e-05, 2.49407094088383e-06, 1.4276973161031492e-05, 3.129155084025115e-05, -1.3645484614244197e-05, -2.3160264390753582e-05, 3.120286055491306e-05, 3.9605241909157485e-05], [-0.00016811085515655577, -0.00018931488739326596, 1.767485446180217e-05, 0.00011906377039849758, 0.0003118436725344509, -0.0005282984930090606, 0.00026156657258979976, 0.00046566632227040827, 9.67827218119055e-05, -0.00031779520213603973, -0.00037899648305028677, -0.00013935589231550694, -0.0003604388330131769, -6.0126683820271865e-05, -0.0005154104437679052, -0.00029598246328532696, -0.00015549363160971552, 6.6965221776627e-05, -0.0004012896097265184, 0.00015874957898631692, -3.8226422475418076e-05, -2.5010078388731927e-05, -9.838085679803044e-05, -8.146187610691413e-05, 0.00012997644080314785, 0.00021881377324461937, 0.00019824953051283956, 0.00030827318551018834, -0.0007047602557577193, -5.8822119171964005e-05, -0.0004778463626280427, -0.0002498254762031138, -0.00012106270878575742, 8.853174222167581e-05, 0.00018511599046178162, -5.122575385030359e-05, -0.00013116421177983284, -0.00013692349602933973, -8.709047688171268e-05, -0.00011724137584678829, 0.000301126332487911, 0.00017607287736609578, -9.177417086903006e-05, -0.0002053303614957258, -0.00013481578207574785, -0.0004935984034091234, -0.00016459693142678589, -0.00020853715250268579, -0.00038017777842469513, 9.24847336136736e-05, 5.794496973976493e-05, -5.884010897716507e-05, 0.000190840641153045, -0.00028431147802621126, -0.0002965385210700333, 1.737980346661061e-05, -2.9578044632216915e-05, 0.00010086430847877637, 4.090113361598924e-05, 0.00046035624109208584, -5.74970108573325e-05, 0.00014583732991013676, -0.0003086606739088893, 0.0002327783004147932], [-0.0001668408658588305, 5.2960735047236085e-05, -0.00017087385640479624, -0.00016495463205501437, 0.0002898908860515803, -0.00018343361443839967, -0.000762598414439708, 0.0010537942871451378, 0.00032095477217808366, -0.0007209260948002338, 0.00033655232982710004, -0.00021014506637584418, 0.00010984636901412159, -0.0002224449417553842, 0.00013307981134857982, 0.00025812379317358136, -4.314199395594187e-05, 0.00014562370779458433, -3.46690030710306e-05, -0.00035035802284255624, -0.0003204471431672573, 0.00013095585745759308, -0.00019447655358817428, -0.0003033522516489029, 0.00027713552117347717, 9.602958016330376e-05, -8.14787345007062e-05, -0.0002604370820336044, 0.00011327296670060605, 0.00035374064464122057, 0.000321046041790396, 0.0005435111816041172, 6.132225098554045e-05, 0.0003018358547706157, -0.00023232342209666967, -6.703758845105767e-05, 0.00041923997923731804, 0.0010621933033689857, 9.988575766328722e-05, 0.0002862767141778022, -0.000256241241004318, -0.0003786777670029551, 0.000249157368671149, 0.0005881697288714349, -8.969006012193859e-05, -0.00030642221099697053, -0.00011186274059582502, -0.00017218802531715482, 0.0007954136817716062, -0.0006124741630628705, -0.00016362563474103808, 0.0007275053067132831, -0.0004808589874301106, 0.0008002709364518523, 8.117428660625592e-05, -0.0005769853014498949, 0.0004375370335765183, -0.0005793349118903279, -0.00016003694327082485, -1.2090496966266073e-05, 0.00012939736188855022, -0.00011152587831020355, -0.0005760758649557829, -0.00014235424168873578], [-0.0010776587296277285, -0.0008340184576809406, 4.668019028031267e-05, -0.00035050330916419625, 0.0004139255324844271, -0.000839370593894273, -0.0001408513926435262, 5.213527037994936e-05, -0.0004194437642581761, -0.0015311823226511478, 0.0001138797597377561, -0.00022186311252880841, 0.0012797696981579065, -0.0008811245206743479, 0.0011240810854360461, 2.5102242943830788e-05, -0.0011451171012595296, 0.00039814296178519726, 0.00019057895406149328, -0.00035855069290846586, -0.000680049357470125, 0.0007621368858963251, -0.0001945872645592317, -0.0014820855576545, -9.199182386510074e-06, 4.3366977479308844e-05, 0.00017010248848237097, -0.0011167428456246853, 0.0008851300226524472, -0.00016207786393351853, -0.0006474542315118015, -2.9267161153256893e-05, 3.471161471679807e-05, 0.00013502650836016983, -6.501373718492687e-06, -0.000690134649630636, 0.0001309775689151138, 0.0017143344739452004, -2.8183625545352697e-05, 0.0009189434931613505, 5.423708353191614e-05, -0.000748027756344527, -0.001132844714447856, 0.0007703241426497698, -0.001446056878194213, -0.00024547026259824634, -0.0014119802508503199, -0.002060289029031992, 0.00035990600008517504, -0.00042117826524190605, -0.0007008258835412562, 0.0006646353285759687, 0.0004522022500168532, 0.00015011860523372889, 5.817922647111118e-05, -0.0016543562524020672, 0.0009986456716433167, 0.00014060837565921247, -6.34811440249905e-05, -0.0012800933327525854, 0.001635612454265356, -0.00015044727479107678, -0.00021252335864119232, -0.0005268492386676371], [5.369159043766558e-05, -0.000229763361858204, 9.825939196161926e-05, -0.0003076854336541146, -0.00040613015880808234, 0.0001768937800079584, -0.00036578666185960174, 0.00036391589674167335, 0.0001747330534271896, -0.0005235628923401237, 0.0002842032117769122, -0.000470742117613554, -0.000296089390758425, 0.0004764625628013164, 0.0007579395896755159, 0.0010612731566652656, -0.0005861966055817902, -0.00034076516749337316, -7.066342368489131e-05, 0.0005170710501261055, 0.0015769524034112692, -0.0005189761868678033, 5.775643512606621e-05, 0.00037736870581284165, -0.0010698800906538963, -4.036753671243787e-05, 0.0001766356872394681, -0.0002491755585651845, -0.001206439919769764, -0.0006378465332090855, -0.00024154759012162685, 3.566274244803935e-05, 0.00030809646705165505, 0.0017485785065218806, 0.0005493062781170011, 3.243924584239721e-05, 0.0004826888907700777, 0.0004222347924951464, -0.0010621377732604742, 0.0014905750285834074, -0.0001320064184255898, -9.386915189679712e-05, 0.0007028059335425496, -0.00018218658806290478, 0.0002878223604056984, 0.000419135729316622, -0.00012905942276120186, 0.00016871967818588018, -9.443229646421969e-05, -0.0007954853354021907, 0.000347319757565856, 0.0006688506691716611, -0.000851539196446538, 0.00014954805374145508, -0.0006825309828855097, 0.0006047402857802808, 0.0007351071108132601, 0.00032037566415965557, -0.00039100949652493, 0.00020457064965739846, -0.00024484843015670776, -0.000636130862403661, -0.0002927666646428406, -8.625671034678817e-05], [8.305141818709671e-07, 2.0907104044454172e-05, -4.758248906000517e-06, -4.6467202992062084e-06, 7.168939191615209e-06, -0.0006493944092653692, 6.785390723962337e-05, -2.4689950805623084e-05, -4.777467256644741e-05, 7.292262125702109e-06, -1.4342610484163743e-05, 1.6173720496226451e-06, -4.075573815498501e-05, -2.0350214981590398e-05, 3.158023173455149e-05, -5.0113922043237835e-05, -4.750363586936146e-06, 5.374655302148312e-05, -6.700185622321442e-06, 6.681906234007329e-05, -2.900084655266255e-05, 2.505184784240555e-05, -1.5239130561894854e-06, -7.390286918962374e-05, 2.5118256417044904e-06, -3.237690543755889e-05, -4.9637339543551207e-05, -3.574481524992734e-06, 2.271456287417095e-05, 4.48762220912613e-05, 3.0001281174918404e-06, 1.3559628314396832e-05, -2.50816774496343e-05, 1.0821540854522027e-06, 1.3901420970796607e-05, 3.510009264573455e-06, -5.972359758743551e-06, 1.4389461284736171e-05, -3.5277138522360474e-05, -6.053029210306704e-05, -1.7623187886783853e-06, 1.062795490724966e-05, -2.6825825898413314e-06, -1.6429159586550668e-05, 2.8323356673354283e-06, -8.299773980979808e-06, -4.51582636742387e-05, -3.606866448535584e-05, -3.5407945688348264e-05, 2.8428272344172e-05, 1.7256155842915177e-05, -5.234445779933594e-06, 2.0670879166573286e-05, -2.6361483378423145e-06, -9.927914106810931e-06, -1.2187305401312187e-05, 8.247516234405339e-06, 1.0292017577739898e-05, 1.5293198885046877e-05, -3.481172461761162e-05, 5.6452777243976016e-06, -2.2886189981363714e-05, 6.302539077296387e-06, -1.4602242117689457e-05], [8.650433301227167e-06, 2.3635371690033935e-05, 4.202049240120687e-06, 2.244655479444191e-05, 3.057664434891194e-05, -0.000545214512385428, 1.6245958249783143e-05, -1.5301011444535106e-05, -1.7124948499258608e-05, -4.458689090824919e-06, 2.000395215873141e-05, 2.1841651687282138e-05, -5.706515730707906e-05, -1.267026163986884e-05, 1.882999640656635e-05, -4.011902638012543e-05, -3.3970768527069595e-06, 3.260848097852431e-05, -9.126027180172969e-06, 5.0628055760171264e-05, 2.2860971512272954e-05, 1.4873581676511094e-05, -3.7190047805779614e-06, -7.442067726515234e-05, -2.7301259706291603e-06, -5.783028245787136e-05, -8.483148121740669e-05, -1.1580106729525141e-05, 5.1386963605182245e-05, 6.242335075512528e-05, 8.650864401715808e-06, 4.015857484773733e-05, -1.5961666576913558e-05, 3.7779926060466096e-05, 3.187785478075966e-05, 1.9094793969998136e-05, -1.512425751570845e-05, 6.064859917387366e-05, -7.671086495975032e-05, -4.128422006033361e-06, -3.237263808841817e-05, 1.4488301530946046e-05, 5.7080615079030395e-06, -1.1950141924899071e-05, 2.4679369744262658e-05, -3.677085987874307e-05, -5.951658749836497e-05, -5.7018281950149685e-05, 4.9145237426273525e-06, 3.354843283887021e-05, 2.2973054001340643e-05, 1.8380274923401885e-05, 5.610608423012309e-05, 2.701927223824896e-05, -3.92180445487611e-05, -1.5636420357623138e-05, 3.480921805021353e-05, 2.594368561403826e-05, -2.2299745978671126e-05, -4.194830034975894e-05, 2.7610736651695333e-05, 1.860285919974558e-06, 2.8993216005801514e-07, -2.787151788652409e-05], [7.516197365475819e-05, -0.00015804344729986042, -5.317938484949991e-05, -6.741532706655562e-05, -0.0001274516835110262, -0.00029960033134557307, -0.0001535487244836986, -0.00025806576013565063, -0.0001340613525826484, -0.00020014354959130287, 7.289763743756339e-07, 6.8963214289397e-05, 0.0002050114271696657, -0.00010848177771549672, 2.500969458196778e-05, 0.0001269110944122076, -5.213804615777917e-05, -3.122390262433328e-05, -2.9886417905800045e-05, -9.894307004287839e-05, 0.00019641450489871204, -4.586891736835241e-05, -1.1585348147491459e-05, -0.00016779765428509563, 6.553236744366586e-05, -0.00023616329417563975, 4.6668064896948636e-05, 8.657528815092519e-05, -5.1048795285169035e-05, 0.00011462124530225992, 5.542574217543006e-05, -6.15083918091841e-05, 0.00030790112214162946, 8.016150968614966e-05, 7.452101272065192e-05, -0.00014822919911239296, 5.447217699838802e-05, -1.864012301666662e-05, -3.985691364505328e-05, -0.00017631551600061357, 3.229231515433639e-05, -9.950749517884105e-05, 2.935517841251567e-05, 6.0055368521716446e-05, -6.310787284746766e-05, -0.000103299695183523, 9.322905680164695e-05, 4.955831172992475e-05, -3.532354094204493e-05, 3.422313602641225e-05, -9.8454300314188e-05, 0.00015989370876923203, -2.5887531592161395e-05, -1.2805088772438467e-05, -0.00013883215433452278, -0.00011400571384001523, 9.940643212758005e-05, 8.700219041202217e-05, -3.752335032913834e-05, 1.8975519196828827e-05, -0.000161943695275113, -3.458321953075938e-05, 6.644638779107481e-05, 7.362962060142308e-05], [0.0005364342941902578, -5.311501445248723e-05, -0.00015798662207089365, 1.701546716503799e-05, 7.630384061485529e-05, -0.00019269154290668666, 9.970939572667703e-05, -0.00021200603805482388, 8.986662578536198e-05, -0.0005394363543018699, 0.00018143135821446776, 0.00015164853539317846, 0.00020075119391549379, -0.00014422960521187633, 0.00036172522231936455, 0.00029888891731388867, 0.00011831062147393823, -0.00015990293468348682, -0.00013419649621937424, -0.0002984188904520124, 0.000486524251755327, 3.339658724144101e-05, 1.4697616279590875e-07, 3.3822298064478673e-06, -1.6354984836652875e-05, -0.00017094834765885025, 0.00045833367039449513, 5.7295383157907054e-05, -0.00032915500923991203, 0.00015484896721318364, -8.728314423933625e-05, 9.523973858449608e-05, -0.0001227960456162691, 0.000208301076781936, 9.328039595857263e-05, -0.00027687285910360515, 0.0005183904431760311, 0.00031819145078770816, -0.0005594129324890673, 1.0907991963904351e-05, -3.7970163248246536e-05, -4.923241795040667e-05, 2.912790296250023e-05, 0.00027747004060074687, 0.00019465909281279892, 8.082528074737638e-05, 0.00013491942081600428, -1.864021032815799e-05, 0.0001030414059641771, 0.00021026720060035586, -0.0002835151390172541, 0.00010027458483818918, -0.0006142650381661952, 8.131089089147281e-06, -0.00014766576350666583, 9.083282202482224e-05, -9.83250793069601e-05, 8.424263069173321e-05, -0.00023965138825587928, 0.00017829482385423034, -0.00037013323162682354, -0.00018216841272078454, 0.00029465247644111514, 0.0002652299008332193], [0.000767468533013016, 9.819852857617661e-05, -0.0003655248146969825, 0.00014103723515290767, 0.00013213104102760553, -0.0005308681284077466, -0.000244608469074592, -0.00033394130878150463, -5.410975427366793e-05, -0.0006235252949409187, -0.00012479061842896044, -0.00036120263393968344, -0.0005578001728281379, -0.0003841800207737833, 0.00013501013745553792, 6.506927456939593e-05, 0.00013011523697059602, 0.0001434827281627804, -0.00019616633653640747, -0.00034896645229309797, -0.0009899975266307592, 0.00015471047663595527, -0.0003415110404603183, -0.00017474713968113065, -0.0004989730659872293, -0.00036120269214734435, 0.0006853701779618859, -0.00029866641853004694, 0.00024094109539873898, 1.7541162378620356e-05, -0.00013694004155695438, 0.0005918410606682301, -0.00035161778214387596, 1.777725265128538e-05, -0.0008516935631632805, -0.0006380926351994276, 0.00019674224313348532, 0.0015788186574354768, -0.0004127834690734744, 0.0006719792145304382, -0.00034985621459782124, -0.000588003545999527, -0.0001054028543876484, 0.000987967592664063, 8.353708835784346e-05, -0.0002828705473802984, -0.0003525831562001258, 0.00035131003824062645, 0.0005642445175908506, 0.00019191378669347614, -7.783499313518405e-05, 4.485814133659005e-05, 3.970165562350303e-05, 0.00011472010373836383, 7.061475480441004e-05, 4.6571032726205885e-05, 0.0005791635485365987, -0.00024178202147595584, 5.262584090814926e-05, -0.00014984735753387213, -1.896753383334726e-05, 0.0005036832299083471, 7.498209743062034e-05, -0.0010992423631250858], [0.001197378383949399, 0.0007626671576872468, -0.0001547160791233182, 0.00023086542205419391, 0.0008865904528647661, -0.0027426262386143208, -0.0003121021727565676, -0.0003153453581035137, 0.00014805971295572817, -0.003077907720580697, -0.0001864265650510788, 0.00033236885792575777, -3.214721800759435e-05, -0.001264659222215414, -0.0003897733986377716, 0.0007990864105522633, 0.00023910365416668355, 3.588231629692018e-05, 5.226336361374706e-05, -0.0009105717181228101, -0.0004293988167773932, 0.0007687197648920119, -0.0004537578788585961, 6.773596396669745e-05, -0.0005722640198655427, -3.111093246843666e-05, 0.0019225126598030329, -0.00036008114693686366, 0.00045251258416101336, -0.0006021956796757877, -0.00023132989008445293, 0.00027559141744859517, -0.000509655277710408, -0.00010744441533461213, -0.0015900987200438976, 6.656906043644994e-05, 0.0003102493938058615, 0.002031623851507902, -0.00034502422204241157, 0.0006551778060384095, 5.465364665724337e-06, -0.0008892902988009155, -0.00031872864929027855, 0.001487293979153037, 0.0008140669669955969, -0.000584869587328285, 0.0007855161093175411, 0.0002306530368514359, 0.0011369563871994615, -4.1174935176968575e-06, -0.0007868296816013753, 0.00035192063660360873, 0.00011155687388963997, -0.0004844115464948118, -0.0007752045639790595, -3.389620906091295e-05, 0.0006273756735026836, 0.0003719203232321888, 0.00010037229367299005, -0.00015586300287395716, -0.0001910546561703086, 0.00015517183055635542, 4.269797136657871e-05, -0.00011761626956285909], [0.0006924436311237514, -0.0010939566418528557, -0.0010093493619933724, -0.0004376359283924103, 0.00014119541447144002, -0.0019444359932094812, 0.00015363551210612059, 0.002056673401966691, 0.0003170498239342123, 0.00017902269610203803, 4.076474579051137e-05, -6.688269786536694e-05, 0.0016656345687806606, -0.0005231052055023611, 0.0010305566247552633, -0.00018982106121256948, 0.00027711939765140414, -0.001040613860823214, 6.930119707249105e-05, -0.000543756817933172, 0.00044127641012892127, -0.0013969511492177844, 0.00096034788293764, -0.0009481664164923131, -0.0005865144776180387, 0.0006508449441753328, -0.0003147312381770462, -0.00031727872556075454, -0.00022684775467496365, -0.0005704476498067379, -0.00034632120514288545, -0.0020021419040858746, -0.000525884737726301, -6.798305548727512e-05, 0.0009986191289499402, 0.0012964532943442464, 0.0003120102337561548, -0.002028573304414749, -3.9864477002993226e-05, -0.0018068114295601845, 0.0016703399596735835, 0.0007492959266528487, 0.00018576730508357286, -0.0008195655536837876, 0.0005204591434448957, -0.0008131791255436838, 0.001599621376954019, 0.0010462950449436903, -0.0021776817739009857, 0.00011763942893594503, 0.00013895900337956846, -0.0008624711772426963, -0.0023359754122793674, -0.001384437084197998, -0.000263968831859529, -0.0007600053795613348, -0.0019067794783040881, 0.0012122978223487735, -0.00022608986182603985, 0.002013914752751589, -0.0006585747469216585, -0.002391123678535223, 0.0007015232695266604, 0.003713115118443966]]], [[[0.0004498740308918059, 0.00031394141842611134, -0.0003691344754770398, -0.00046738944365642965, 0.0015995679423213005, 0.0007085710531100631, 0.00012233115558046848, 0.0005586032057181001, -0.001005000900477171, -0.0007297303527593613, 0.002324784407392144, -0.00033598439767956734, 0.0008487778250128031, -0.0006564868963323534, -7.982818351592869e-05, 0.0009292937465943396, 7.617843220941722e-05, 2.7360751118976623e-05, -0.001044646487571299, 0.0004379096208140254, -0.00018460204591974616, 0.0003012552915606648, -0.00019691340276040137, 6.9684989284724e-05, -0.00032558751991018653, 7.438053580699489e-05, -0.00022544566309079528, -0.0004792094696313143, -0.00011138306581415236, 0.0011018123477697372, -0.0007622618577443063, 0.002362957689911127, 0.00042800800292752683, 0.00010708914487622678, -0.00034474642598070204, -2.2425665520131588e-05, -3.3106509363278747e-05, 0.00015412888024002314, 0.00052307965233922, -0.0004660592821892351, 0.00035765947541221976, -0.0003307525475975126, 5.839401273988187e-05, 0.0014709874521940947, 0.0012310673482716084, -0.0008893313934095204, 0.001254806644283235, -0.0001474149466957897, -0.00026237114798277617, -0.0003713304759003222, -4.578892549034208e-05, 6.761684198863804e-05, 0.0006713137263432145, -0.0005351800937205553, 0.00031917760497890413, 0.0003972735139541328, 0.0009154799045063555, 0.00011931115295737982, 0.0008385437540709972, 0.0007669608457945287, -0.0001450350391678512, -0.00030283251544460654, 0.0006391116767190397, 0.00031604612013325095], [-2.9187024352950175e-08, 5.780908196584278e-08, 2.2003844080131785e-08, 1.4950234383803718e-09, 2.420627609467374e-08, 2.7323332574269443e-07, 7.782136179912413e-08, 7.193317230758112e-08, 1.1457930781944015e-07, -1.6464188234976973e-08, -4.559665978121075e-09, -7.805016366546624e-08, 5.8173490913304704e-08, 4.326076563643255e-08, 2.7726217766144146e-08, 2.4144367061218475e-10, -1.4111634083491253e-09, 4.024402855407061e-08, 2.6891637361359244e-08, 1.434128478194907e-07, 5.973311800744341e-08, -6.343602088065836e-09, 6.667385754610677e-09, 1.0110353088066404e-07, 7.221053976991243e-09, -2.3489326039793923e-08, 9.975586579002993e-08, 4.0470709450346476e-08, 1.3693862932484535e-08, -2.2357927065286276e-08, -2.7614614594995146e-08, 5.956544590901558e-09, 1.3912814722516487e-07, 4.8278188558015245e-08, 3.486255906182123e-08, 1.2206485600074757e-08, -3.290256600507746e-08, 1.1166680025098685e-07, -5.1283205237950824e-08, 1.2751218037010403e-07, 7.81130324867263e-08, -1.5967165367669622e-08, -4.262533792598333e-08, 1.0123971350139982e-07, 2.269222143524985e-08, -1.9374656545778635e-08, 5.399142111173205e-08, 4.351782578737584e-08, 7.181731831451543e-08, 8.19835364040955e-08, 4.766584993376455e-08, 9.604266892893065e-08, 4.692385147109235e-08, -1.5002900310978617e-10, 8.139684481989207e-09, -9.984173487964654e-08, 4.888289595328388e-08, -1.0930940597120298e-09, 6.2565290726013245e-09, 4.6313871848724375e-08, -4.6797687502930785e-08, 6.582732225979271e-08, -3.941868698120743e-08, -2.0091084351747668e-08], [1.3795490758639062e-06, -4.18374747823691e-06, 9.072925308828417e-07, 1.1865438409586204e-07, -8.81390951690264e-06, -9.685752957011573e-06, -4.491693744057557e-06, 3.982450834882911e-06, 3.297739112895215e-06, 1.4151856930766371e-06, -3.539803856256185e-06, 5.99386385147227e-06, -3.2397090308222687e-06, -4.935709512210451e-06, 1.9586977941798978e-06, 2.162266810046276e-07, -1.096712367143482e-06, 1.5711136711615836e-06, -2.0170293737464817e-06, -7.971206628099026e-07, -4.558853561320575e-06, -2.427821755190962e-06, 7.55182009015698e-06, 8.519636139681097e-06, 2.6785730824485654e-06, 6.1949235714564566e-06, -8.686274668434635e-06, -2.862802602976444e-06, -5.751617663918296e-06, -6.04186425334774e-06, 8.000454840839666e-07, 5.090199010737706e-06, -9.063945071829949e-06, -1.7312705722360988e-06, -6.5369617914257105e-06, 7.568137334601488e-07, 1.0471651421539718e-06, -9.002398655866273e-06, 1.458646465835045e-06, 1.007896344162873e-06, 2.3101304122974398e-06, 4.427834880971204e-07, 4.092479457540321e-07, -7.08549669070635e-06, -1.9171491203451296e-06, -1.775965756678488e-06, -1.3415315152087715e-06, -3.274013806731091e-07, 1.4026818462298252e-06, 4.592514869727893e-06, 6.343801146613259e-07, -4.040111889480613e-06, -3.4076392694259994e-06, -2.126098479493521e-06, -7.903558980615344e-07, 1.4638075072070933e-06, -4.588208412314998e-06, 4.3033323890995234e-06, -9.481502161179378e-07, 3.3217190775758354e-06, -3.467032001935877e-06, -2.4273768417515384e-07, 7.661034942429978e-06, 3.9897636270325165e-06], [4.479921335587278e-05, -2.535993371566292e-05, 1.4901376744091976e-05, -4.1103921830654144e-05, -7.806616486050189e-05, -0.0003892497916240245, 2.647683140821755e-05, 1.0077525075757876e-05, 8.891850484360475e-06, 5.871749635844026e-06, -7.213866047095507e-05, -1.2341818546701688e-05, -3.392867074580863e-05, 3.69093831977807e-05, -1.4290621038526297e-05, -2.9934022677480243e-05, -1.2246424375916831e-05, -1.4033021216164343e-06, 3.559542528819293e-05, -3.729659511009231e-05, -3.960707545047626e-06, -6.863659655209631e-05, 1.1281977094768081e-05, -7.974141226441134e-06, -8.327593604917638e-06, -3.6199330679664854e-06, 6.483346805907786e-05, 1.0654062862158753e-05, -1.260484441445442e-05, -2.945184678537771e-05, -1.8852668290492147e-05, -4.979217555955984e-05, -6.068767834221944e-05, 1.0311351616110187e-05, -5.2663990572909825e-06, 4.377976438263431e-05, -2.537393447710201e-05, 5.917273665545508e-05, -5.146608600625768e-05, 1.1885525964316912e-05, 9.832725481828675e-06, 2.7217397473577876e-06, -1.5593461284879595e-05, 3.258244032622315e-05, -2.8648977604461834e-05, 4.700971476268023e-05, -2.6533849450061098e-05, 3.1754616429680027e-06, -1.8314884073333815e-05, 1.9841185348923318e-05, 1.5120880561880767e-05, 3.7064899061078904e-06, -1.3634875358548015e-05, -1.7709396615828155e-06, -5.683398285327712e-07, -4.979026471119141e-06, -9.958173905033618e-06, -1.7171361832879484e-05, -2.2203763364814222e-05, 2.501052222214639e-06, 6.7950245465908665e-06, 2.6764504582388327e-05, 3.99661366827786e-05, 2.2367805286194198e-05], [8.859382796799764e-05, 1.0492240107851103e-05, 0.00012415694072842598, -8.844603871693835e-05, -0.0004138507938478142, 0.0004895271849818528, 0.0004931243602186441, 0.00012099996820325032, 3.829237539321184e-05, -0.00020447954011615366, 6.63069004076533e-05, 0.0002086622844217345, -0.00012517921277321875, 0.00023596480605192482, -7.931506115710363e-05, 0.00018399738473817706, -5.5921431339811534e-05, 5.1709546823985875e-05, 8.900232933228835e-05, -0.00030747332493774593, 0.00024939249851740897, 0.00014726720110047609, -0.00020350050181150436, -0.00017887687135953456, -2.9301958420546725e-05, -0.0002952492213808, 0.0003653767635114491, 0.00020577971008606255, -0.00019147006969433278, -2.870886237360537e-05, -0.00018377386732026935, 7.781170097587164e-06, -0.0003892389067914337, 4.3254971387796104e-05, 0.00017876863421406597, 1.5323166735470295e-08, 0.00016889430116862059, -3.464016117504798e-05, -6.743939593434334e-07, -1.382868504151702e-06, 0.0003278849762864411, 0.0001100925583159551, -3.635883331298828e-06, 0.00021458748960867524, -0.00029713715775869787, -0.00026895880000665784, 0.00014089678006712347, 6.190055864863098e-05, -8.582808368373662e-05, 4.54079890914727e-05, -8.692702976986766e-06, 7.531954906880856e-05, 0.0001830268738558516, 0.00010359244333812967, 0.000298093247693032, 0.00017572837532497942, -0.00018250205903314054, -0.0003962222835980356, 0.00021899037528783083, 0.0003562817582860589, 0.000244464521529153, -9.643257362768054e-05, 0.00016644364222884178, 0.0003453768149483949], [-0.0002690787659958005, -0.0002573452948126942, 0.00017635853146202862, 0.00016048130055423826, -0.0003868938656523824, -0.0009155389852821827, -0.0006424464518204331, 0.0008605702896602452, -0.000469723716378212, 2.5991001166403294e-05, 0.0002721808268688619, 0.0006552764680236578, 0.0008605748880654573, -0.0004579180385917425, 0.0002501934941392392, 0.002264527603983879, -5.849346052855253e-05, -0.00017742026830092072, 0.0003068370861001313, 0.0003687908174470067, 0.0007921533542685211, 0.0002239157329313457, 0.00017818310880102217, -3.7019890442024916e-05, -0.0009071336826309562, -0.00032169459154829383, 0.00043128084507770836, 0.00015530291420873255, 0.0006034112302586436, 0.0002575433754827827, 0.00019821265595965087, 0.0002925705339293927, 0.00039166619535535574, 0.00021645396191161126, 0.0009814699878916144, 0.000540836772415787, -9.405532182427123e-05, -0.0010739921126514673, -0.0003068112418986857, -0.0001961234083864838, 0.00018494547111913562, -0.0005635145935229957, -3.2164782169274986e-05, 0.0003390175988897681, -0.0002572231460362673, 0.00028592965099960566, 0.0006075025303289294, -0.0001315441622864455, 0.00024659407790750265, -0.0002352593292016536, 0.0001976912171812728, -0.0001562891120556742, -0.0002540702698752284, 0.0003029102517757565, -0.00015774922212585807, 0.00014701246982440352, 0.0003848066844511777, 0.00032855491735972464, 0.0001504639512859285, 6.588648830074817e-05, -0.00011994996020803228, -0.00012354410137049854, 0.00026772392448037863, 0.00011644724872894585], [-0.0007047656108625233, -0.0011359847849234939, -1.7206024494953454e-05, 0.00025972764706239104, -3.0413662898354232e-05, -0.0012363061541691422, 0.00010269978520227596, 0.001829634653404355, -6.530153768835589e-05, 0.0002607108617667109, 0.0006091712275519967, 6.429472705349326e-05, 0.00022207788424566388, -0.00028089675470255315, 0.00030654994770884514, 0.001314577297307551, 0.0003158913168590516, -2.1850821212865412e-05, 0.0005126993055455387, -0.00022068319958634675, -0.000412988243624568, -0.00043942214688286185, 0.00035990477772429585, -0.0006127246306277812, -0.0007108575664460659, 0.00019549179705791175, 0.0005207979120314121, 0.000740386254619807, -0.00011504883877933025, 0.00042145641054958105, 0.00013377581490203738, 6.33480231044814e-05, -0.000714410562068224, 0.0002248264499939978, 0.00012430103379301727, -0.0002981672587338835, 2.9375602025538683e-05, -0.0011448765872046351, -0.00022667576558887959, -0.0013740360736846924, 0.0009445113246329129, -0.00013940685312263668, 9.551591938361526e-05, 0.0002842940157279372, -0.0013282392174005508, 0.0002756532630883157, 0.00035604307777248323, -0.00018378181266598403, 0.00021521642338484526, -0.00013814478006679565, 0.00021508254576474428, 1.242147118318826e-05, 0.0008262827759608626, 0.0007585521088913083, 0.00039783609099686146, -0.00039238162571564317, 0.00039798684883862734, 0.0008975790115073323, 0.00011578970588743687, 0.0009587619570083916, -9.38238445087336e-05, -0.00019750368664972484, -0.00031990831485018134, -9.918732393998653e-05], [-7.086809637257829e-05, -5.5191165301948786e-05, -0.0003397954278625548, 0.0007735883118584752, 0.00019141002849210054, 0.0033833314664661884, -0.0005841082311235368, 0.0007472574943676591, 0.00026612653164193034, -0.0013233786448836327, -0.0011173045495525002, 0.00040405202889814973, 0.00032694987021386623, 0.0011386717669665813, 0.0007832313422113657, -0.0012565422803163528, -0.0009213299490511417, -5.7351309806108475e-05, -0.0003252429887652397, -0.0007350080413743854, -0.0010953815653920174, -0.00044349569361656904, -0.0002280204207636416, 0.001121666980907321, -2.4546086933696643e-05, -0.00039518490666523576, -0.0007847270462661982, -0.00036230371915735304, 0.00044120464008301497, -0.00036718841874971986, 0.00015686420374549925, 0.00036104785976931453, 0.0002244034258183092, 0.00014159694546833634, 0.00039170216768980026, -0.0006509126396849751, 0.0002835806808434427, 0.000294645840767771, 0.000951967085711658, -0.000643937848508358, 0.00043417292181402445, -0.0006711998139508069, -0.0006542169721797109, -0.0005334586021490395, 0.000749669736251235, 0.0006406463216990232, 0.0002922248386312276, -0.0016346873017027974, -0.0006578128086403012, -0.0006467847852036357, 0.0003424622700549662, -8.968388283392414e-05, 0.0014554441440850496, 0.0007733192178420722, 0.0013332311064004898, -0.0007421470363624394, -0.00013426580699160695, -0.002732144668698311, -0.0002934631775133312, 0.00017447423306293786, 0.0012578428722918034, -9.64431237662211e-05, -0.00015447176701854914, 0.0017071675974875689], [1.4448015463131014e-05, 5.3636995289707556e-08, 1.3786614545097109e-05, 4.5620467972185e-06, -1.0945762369374279e-05, 1.404403883498162e-05, -2.675174800970126e-05, -2.468008824507706e-05, -2.9270788218127564e-05, -4.158303636359051e-05, -2.3002316083875485e-05, -3.4313873129576677e-06, 6.774590019631432e-06, 2.4670442144270055e-05, -1.0482134484846028e-06, -2.0566956209222553e-06, -7.553198429377517e-06, 1.720852014841512e-05, -1.931546876221546e-06, 1.727853850752581e-05, -1.5116069334908389e-05, 1.4909743185853586e-05, 7.2453444772691e-06, -7.293620001291856e-06, -2.292632416356355e-05, 1.377310309180757e-05, -4.041255670017563e-05, 6.56615065963706e-06, 1.2690209587162826e-05, -2.228187622677069e-05, -1.909193815663457e-05, 2.2991957848716993e-06, 4.640151928470004e-06, -3.813392686424777e-05, 1.799162055249326e-05, -1.1923454621864948e-05, 8.922428605728783e-06, -3.196101897628978e-05, -1.886626341729425e-05, -4.0400514990324154e-05, -1.1826643458334729e-05, 1.221334605361335e-05, -1.0884731636906508e-05, -7.475663551304024e-06, -1.7092474081437103e-05, 4.867264578933828e-06, -2.5149780412903056e-05, -1.0673000360839069e-05, -1.0233877219434362e-05, 1.0791447493829764e-05, -1.951350350282155e-05, -1.803129998734221e-05, 1.5181026356003713e-05, 1.2674687241087668e-05, -1.7835904145613313e-05, -3.0400100513361394e-05, 4.653882115235319e-06, -2.5786866899579763e-06, 1.5188823454082012e-05, 1.4231886780180503e-05, -2.9965736757731065e-05, -1.2105841051379684e-05, -1.6377922293031588e-05, -1.9373968825675547e-05], [-2.4559883968322538e-05, 3.9827089494792745e-05, -1.000280008156551e-06, 1.0962919986923225e-05, 1.686238101683557e-05, 0.0002986782928928733, -3.591040876926854e-05, -1.7008738723234273e-05, 1.0099091923621017e-05, -6.661200313828886e-05, 2.5739576813066378e-05, -1.8558137526270002e-05, -4.1784922359511256e-05, 3.788787216763012e-05, -5.19277364219306e-06, 4.29327110396116e-06, 4.451345830602804e-06, -1.013269957184093e-05, -1.1482025001896545e-05, 3.414844468352385e-05, 7.502802418457577e-06, 1.3348699212656356e-05, -7.508584758397774e-07, -2.57715473708231e-05, -2.4836390366544947e-05, 6.991734608163824e-06, -9.570289694238454e-05, 4.936655841447646e-06, -4.972743226971943e-06, -9.059572221303824e-06, -2.3765518562868237e-05, 2.0633637177525088e-05, 4.87801808048971e-05, -1.591843283677008e-05, 4.178733070148155e-05, 2.945369851659052e-05, -5.476530350279063e-05, 3.087628283537924e-05, -6.540155300172046e-05, 1.829498796723783e-05, -1.2402380889398046e-05, -4.55497274742811e-06, -1.956407504621893e-05, 1.7887015928863548e-05, 4.106031155970413e-06, -3.108596138190478e-05, -1.7171731087728404e-05, 1.119386524806032e-05, 5.5382777645718306e-05, -6.209552520886064e-05, 4.10513166571036e-06, 4.6658547944389284e-05, 5.164455433259718e-05, 6.133425631560385e-05, -3.497197440083255e-06, -3.898412614944391e-05, 4.0810184145811945e-05, -3.0082237572059967e-06, 2.1176165319047868e-05, 2.159259111067513e-06, -4.590722528519109e-05, -4.9191181460628286e-05, -1.3501540706783999e-05, -5.557825352298096e-05], [4.588957381201908e-05, -0.00011257192090852186, 0.00015258617349900305, 5.375265573093202e-06, 1.182965024781879e-05, 0.00018108959193341434, 0.00017854265752248466, -3.406566975172609e-06, -0.00010193618072662503, 0.0001601747644599527, -6.477883289335296e-05, 8.485547368763946e-06, -0.00014353649748954922, 3.297891089459881e-05, -0.00019035133300349116, -0.00010401497274870053, 0.00012689245340880007, 6.628649862250313e-05, -4.687739419750869e-05, 3.301390097476542e-05, -0.00011990126222372055, 4.887300747213885e-05, -0.00014899345114827156, -0.00012426926696207374, 0.000166170735610649, -0.00010465734521858394, 0.00012277964560780674, 1.817579504859168e-05, -1.2251309271960054e-05, -1.9014602003153414e-05, -8.698072633706033e-05, -7.711318176006898e-05, -0.00020463773398660123, -9.824788139667362e-05, -8.42952067614533e-05, -2.9080234526190907e-05, -0.00027821934781968594, 0.00011784413800342008, -0.0001461722858948633, -6.528375524794683e-05, -0.00010761273006210104, 5.9771700762212276e-05, -0.0001303782919421792, -8.232076652348042e-06, -0.0002145272446796298, 0.00014307170931715518, -0.00010644867870723829, 8.747386164031923e-05, -0.00018727112910710275, 0.00026012264424934983, 3.857232513837516e-05, -3.268027649028227e-05, -0.00013975109322927892, -1.0369704796175938e-05, -0.0001852705463534221, -0.00010691107308957726, -0.0001641015987843275, -7.042699144221842e-05, 0.00012542524200398475, 0.00010006963566411287, -8.460352546535432e-05, 0.00014666405331809074, -4.016602906631306e-05, -7.442962669301778e-05], [5.745440284954384e-05, -0.0004364919732324779, 6.198082701303065e-05, 0.00020320178009569645, -8.791874279268086e-06, 0.0009878897108137608, 0.00024716698681004345, 0.00020568593754433095, -0.0004981335951015353, 4.1758394218049943e-05, -3.0157734727254137e-05, -1.9618306396296248e-05, -0.00037812977097928524, 0.00022630130115430802, -0.00022428750526160002, -0.00037590268766507506, 0.0001931226724991575, 0.00010964937973767519, 2.7626028895610943e-05, 6.477548595285043e-05, -0.00011883788101840764, 0.00021564090275205672, -0.00038166382000781596, -0.0009882347658276558, 0.00012617923493962735, -1.9247032469138503e-05, -0.00012391773634590209, 3.723615373019129e-05, -0.0003882495511788875, -0.00020748648967128247, -0.00031443359330296516, -0.0003418169799260795, -0.0004948012647219002, -0.00019016463193111122, -5.7126620959024876e-05, 0.00012472721573431045, -0.0005936603993177414, -6.664400279987603e-05, -0.0006011633668094873, 0.0001127576979342848, -0.0001866070815594867, -0.00016674035578034818, -1.6432881238870323e-05, 0.0001066691183950752, -0.00027539467555470765, 0.00034552946453914046, -0.0002760213101282716, 0.00015516024723183364, -0.00020713621051982045, 5.666379729518667e-05, 4.929117494612001e-05, 0.0001624744909349829, -0.0004867513198405504, 7.427836681017652e-05, 0.00011614089453360066, -0.00018459194689057767, -0.00037967844400554895, -7.60499169700779e-05, 1.2278462236281484e-05, -5.79566003580112e-05, -0.0002777721092570573, 0.00012843326840084046, 0.00023676539422012866, -0.00025312320212833583], [-9.148893877863884e-05, -0.0003152041754219681, 0.00040388552588410676, 4.2403320549055934e-05, 0.0004106245469301939, -0.00045290871639735997, 4.728865314973518e-05, 0.0006249155849218369, 0.00015584603534080088, 5.515324301086366e-05, 0.00034615970798768103, 0.0002471772604621947, 0.0004711682558991015, 0.0003636202309280634, 0.00046874527470208704, 0.0001069974823622033, 6.291601312113926e-05, 0.00016201396647375077, 9.93021167232655e-05, -3.6715886380989105e-05, -0.00010855536675080657, 0.0002980486024171114, 0.0007799776503816247, -0.00031818123534321785, -0.00042054601362906396, 0.00038868459523655474, 6.466165359597653e-05, 0.00034422887256368995, 0.00036606081994250417, -0.00031017002766020596, 4.448549589142203e-06, 0.00044495947076939046, 0.0002674745337571949, 0.000973385467659682, 0.0009588817483745515, -0.0010009999386966228, 0.0007537656929343939, -0.0003845038008876145, -0.0002742116339504719, -0.0008189470390789211, 0.0005995620158500969, -0.0007132724858820438, -0.0001542422833153978, 0.0005324471276253462, -0.001462169224396348, 0.00011019009252777323, -0.00015394411457236856, -0.0008224808261729777, 0.0008395189652219415, 0.00018288855790160596, 0.001034809509292245, 0.0007587067666463554, 0.0005050209583714604, 0.0007143965922296047, 0.00035355964791961014, -0.00048660169704817235, 0.0006676696939393878, -0.00023888368741609156, -0.0005449477466754615, 0.00011834806355182081, 0.00018235044262837619, -0.0003789914771914482, -0.000474088970804587, -0.00019587299902923405], [-0.00043375464156270027, -0.0007544808322563767, 0.0008179722935892642, -0.00015660011558793485, -0.001267444109544158, -0.00031150347786024213, -9.089244849747047e-05, 0.0011759771732613444, -0.00027868201141245663, -6.5880041802302e-05, 0.00016873059212230146, 0.0002136135008186102, 0.0004942104569636285, 0.0009232720476575196, -0.00036264845402911305, 0.0005998954293318093, 0.0006659171194769442, -0.0002044304710580036, -5.103764124214649e-05, -0.0006534731946885586, 0.001166266854852438, 0.00032391626155003905, 6.296587525866926e-05, -0.0005373362801037729, -0.0008564908057451248, 0.00020858383504673839, 2.8153066523373127e-05, 0.0005936171510256827, 0.0007304736645892262, -0.00035329125239513814, -0.00043143719085492194, -0.00040925340726971626, -0.0005461550317704678, 0.0006946247885935009, 0.0007964331889525056, -0.0014339570188894868, 0.0005656155990436673, 0.0002558280248194933, 0.0003374567022547126, -0.0011027627624571323, 0.0005182665190659463, -0.0008686049259267747, -0.0002639534941408783, 0.0015320974634960294, -0.0014097874518483877, 0.0012209942797198892, -0.00020942790433764458, -0.001133458805270493, 0.000545666494872421, 1.4279445167630911e-05, 0.0010565195698291063, 0.00017596787074580789, -0.0008622563909739256, 0.00035763258347287774, -0.00034480460453778505, -0.0013238628162071109, 0.00026441545924171805, 7.456056482624263e-05, -0.000785714655648917, 0.0005847119609825313, 0.000433251349022612, -0.00017351387941744179, -0.0002665990323293954, -0.001430447562597692], [0.0006054089171811938, -0.001210764516144991, -0.0010678463149815798, -0.0006325578433461487, 0.00010896549792960286, -0.004101000726222992, 0.00014702108455821872, 0.0021250247955322266, -0.00010944274254143238, 0.0008596469997428358, -8.301110938191414e-06, -0.00010055297752842307, 0.00285379053093493, -0.0005156255792826414, 0.0009648202685639262, -0.0002112985821440816, 0.00022634794004261494, -0.0007643734570592642, 8.71111114975065e-05, -0.00039135871338658035, 0.0004662057908717543, -0.0018441572319716215, 0.0010658196406438947, -0.0008291600388474762, -0.0005862725083716214, 0.0009294532937929034, -0.0003968705714214593, -0.0006552773411385715, -0.0002132655936293304, -0.0006601058412343264, -0.00018937868298962712, -0.0018323479453101754, -0.0009542130865156651, -0.0005834538023918867, 0.0013641839614138007, 0.0009005755418911576, 0.0001470711431466043, -0.0016985133988782763, -0.00011720269685611129, -0.0022754287347197533, 0.0012078579748049378, 0.0004267712065484375, 9.432900696992874e-05, -0.0007179298554547131, 0.00048075400991365314, -0.0007406537188217044, 0.0017562075518071651, 0.0013320462312549353, -0.0021909717470407486, 0.00012736773351207376, 0.00038671435322612524, -0.0013759498251602054, -0.0022739043924957514, -0.0013555372133851051, -0.0006154838483780622, -0.000996623421087861, -0.001949423924088478, 0.001178074162453413, -0.0003049359074793756, 0.0017888438887894154, -0.0008301237248815596, -0.002070497488602996, 0.0003305055433884263, 0.0043186042457818985]], [[9.503697219770402e-05, 0.000558587780687958, 0.0003442932211328298, 5.0547223509056494e-05, 0.0003104404895566404, 0.0001520886435173452, 0.0005887032602913678, -8.9249515440315e-06, 0.00019421748584136367, 0.00029644722235389054, 0.0006176989991217852, -0.0010793893598020077, -0.000482684641610831, 0.0008664115448482335, 0.00010973418829962611, 0.0008106062305159867, 0.0002666932123247534, -0.00020387803670018911, -0.0008356032194569707, -0.00078921252861619, -0.0008225837955251336, -0.000925046915654093, -0.0008004632545635104, -0.00043019262375310063, 0.0005824370309710503, -0.00021341588580980897, -0.00014645846385974437, -5.0902515795314685e-05, -0.0013588976580649614, -0.0009508360526524484, -0.0011189397191628814, 7.590554014313966e-05, -0.000770377810113132, 0.0008289762772619724, 0.00026231264928355813, -5.7417229982092977e-05, 0.00032359606120735407, -0.0002135906834155321, -0.0016614821506664157, -1.1525808076839894e-05, 8.528161561116576e-05, 5.769201379735023e-05, -0.0006029870710335672, -0.0004126944113522768, 0.0006926959613338113, 2.1518149878829718e-05, 0.0004430235712788999, -0.00034811487421393394, -0.0002645753847900778, 0.00022234380594454706, 0.0002069995243800804, 0.00010241370182484388, 0.001842624507844448, -0.0002543581649661064, -5.714687722502276e-05, -0.0008100506383925676, 0.00016929509001784027, -0.0009436581749469042, -6.750480679329485e-05, 0.0016162748215720057, 0.0010924057569354773, -0.0006989575340412557, 0.0005315054440870881, 0.0006200490752235055], [2.2474837990671404e-08, -1.2077218514150445e-07, -4.518101803796526e-08, 2.3255117298504047e-07, 6.822884923707306e-09, 4.77900186979241e-07, -1.6833723748277407e-07, -2.328902226622631e-08, 3.3700022328275736e-08, 3.6114009560606064e-09, 5.244725542752349e-08, 1.117996450972214e-08, 5.655406880578084e-07, 9.805354750369588e-09, 3.481277843775388e-08, -6.051836720644133e-08, 1.77708187720782e-07, -1.9892299008006376e-07, 9.003252898764913e-08, -1.9963347313023405e-06, 4.302886580376253e-08, 1.2983702113444906e-08, 3.672123582987297e-08, -1.1796912247064029e-07, 9.777193277216156e-09, 1.299106600072264e-07, 3.490082534085559e-08, 1.8119902733815252e-07, -1.1025229440519979e-07, 9.196203798467195e-09, -7.208194574559457e-08, -1.4063158459975966e-07, 6.750650527465041e-08, -3.320281649621393e-08, -3.9545378172078927e-07, 3.0084670754604304e-08, 1.961614870538142e-08, -2.7897884002925366e-09, 1.9919144733648864e-07, 7.026075365956785e-08, -7.605271434840688e-08, 2.717361269333196e-07, -2.310418167894568e-08, -2.7978306338383163e-09, -3.366307765872989e-08, -2.5708379425282146e-08, -2.1303492303559324e-07, 9.381074761449781e-08, 7.86573650657374e-08, 7.350404018779955e-08, -1.2405546812033208e-08, 3.3834214718808653e-07, -2.1790393489595772e-08, -2.677678523355098e-08, 4.45177938956931e-08, -1.411977450516133e-07, -6.838752852900143e-08, -7.191269446593651e-08, 6.809732155943493e-08, -9.730658234730072e-08, 6.996543078230388e-08, 3.075549841469183e-07, 1.1091419338526975e-08, 5.543945746921963e-08], [-3.826223291980568e-06, 9.298717486672103e-06, 5.401511202762777e-07, 2.5488393475825433e-06, 6.383855861713528e-07, -9.96397648123093e-05, -2.680715169844916e-07, 7.663314818273648e-07, -8.556693501304835e-06, -1.6960758557615918e-06, -5.873891950614052e-07, 2.7382052394386847e-06, 6.565494459209731e-07, 1.5745865766803036e-07, 1.0472150506757316e-06, 4.273451850167476e-06, -5.624035566142993e-06, 1.5302587144105928e-06, -7.344295909206267e-07, -3.5350513627463442e-09, 5.606850209005643e-06, -4.511270162765868e-06, -5.462210538098589e-06, -7.5103062044945545e-06, 6.086372650315752e-07, -8.172978596121538e-07, 5.894088417335297e-07, -6.785377536289161e-06, 5.975906788080465e-06, -4.278399956092471e-06, -3.5150901567249093e-07, 2.5324713988084113e-06, -9.833742296905257e-06, 1.5352552509284578e-05, 2.079347541439347e-05, -1.5110514368643635e-06, 9.01088696991792e-08, 2.302552047694917e-06, 8.32004297990352e-06, -5.7193042266590055e-06, -1.1011070455424488e-06, 1.989646079891827e-06, -4.2108928255402134e-07, -2.5219742383342236e-06, -3.1671140732214553e-06, 1.5268267361534527e-06, -6.536165528814308e-07, -5.351290610633441e-07, -7.391574399662204e-06, -8.22726406113361e-07, 2.4506782665412175e-06, -3.35180584443151e-06, -3.7198226436885307e-06, -2.303534529346507e-06, 1.798808625608217e-06, 6.155313712952193e-06, 1.1779805930700604e-07, -3.2294460652337875e-06, 2.3326915652432945e-06, -6.814224434492644e-06, 1.2895004601887194e-06, 3.148222049276228e-06, -8.98380130820442e-06, 2.9994628221174935e-06], [4.1114642954198644e-05, -2.1458154151332565e-05, -3.236700649722479e-05, -6.665952241746709e-05, 1.469829612688045e-06, 0.00015495404659304768, 5.329739724402316e-05, -6.133754504844546e-05, 4.3798892875202e-05, 1.5727095160400495e-05, -1.5352406990132295e-05, -2.427036815788597e-05, -3.110444959020242e-05, -1.07285732156015e-05, 4.798737063538283e-05, 9.410326310899109e-05, -3.8705082261003554e-05, 3.6755987821379676e-05, 1.0341727829654701e-05, 3.392677172087133e-05, 3.713059413712472e-05, -5.050090976510546e-07, -3.6851495679002255e-05, -1.3884438885725103e-05, 5.241152848611819e-06, 1.761593739502132e-05, 4.450952110346407e-05, -1.4024872143636458e-05, -9.679837603471242e-06, 9.360139665659517e-05, -1.2529749255918432e-05, -3.202209700248204e-05, -0.0001285628241021186, 3.420108259888366e-05, -1.875310408649966e-05, 5.12379156134557e-05, 2.630686822158168e-06, 2.8876469514216296e-05, -0.0001425613445462659, -2.7950090952799655e-06, 2.629099617479369e-05, -9.32991042645881e-06, 7.362625183304772e-05, 7.4345216489746235e-06, -5.732427234761417e-05, -3.3649590477580205e-05, 9.426912583876401e-07, 1.9207473087590188e-05, -1.3186871001380496e-05, -2.5688625100883655e-05, -3.674202525871806e-05, -2.3071594114298932e-05, 2.7299420253257267e-05, -2.0904612028971314e-05, 1.7873990145744756e-05, 2.7181493351235986e-05, -4.0927925510914065e-06, 0.000134493806399405, -1.0305880095984321e-05, -1.2117840924474876e-05, 2.9704635835514637e-06, 1.091046397050377e-05, 1.4818739145994186e-05, -2.7533356842468493e-05], [0.00010413706331746653, -0.0001613308268133551, -5.911512562306598e-05, -0.00010318082058802247, 5.5424119636882097e-05, -0.0001230908092111349, -1.6939389752224088e-05, 1.5158206224441528e-05, -0.0003420058055780828, 0.00010511508298804983, 0.00025371304946020246, -0.00010974928591167554, 0.0009031636291183531, 7.696973625570536e-05, -0.0001185423243441619, -0.00014424360415432602, -0.00029606008320115507, -3.4625481930561364e-05, -0.00010428362293168902, 5.832580791320652e-05, -0.00020121436682529747, -8.194037218345329e-05, 6.0761129134334624e-05, -0.00016273009532596916, -4.6067660150583833e-05, 0.00010316286352463067, 4.4019969209330156e-05, -9.439860878046602e-05, 0.00038431613938882947, -6.571098492713645e-05, -2.215427957708016e-05, 0.0003503639600239694, 8.573007653467357e-05, -4.512895247898996e-05, 0.0005837123608216643, -2.684041828615591e-05, -7.956787885632366e-05, -3.513632691465318e-07, 0.0005628669168800116, -0.0002743779623415321, 0.0003916410496458411, -2.0487997971940786e-05, 0.0004728646599687636, -0.0001055134562193416, -0.00024277318152599037, -0.000397200376028195, 0.0007881983183324337, -1.8446589820086956e-05, -0.00023530951875727624, 3.0624672945123166e-05, -0.00012383385910652578, -0.00033328303834423423, -0.00019535534374881536, -0.00018238351913169026, 0.00024873277288861573, 8.06647731224075e-05, -0.00027311150915920734, 0.0010092087322846055, -2.836892963387072e-05, -0.00021883458248339593, -2.0622344891307876e-05, -8.184889156837016e-05, -5.493748176377267e-06, 0.00030618690652772784], [0.00033661103225313127, 0.0008428831933997571, -0.00010454420407768339, -0.0002364085812587291, -0.00012474192772060633, 0.00023553948267363012, 0.00040232291212305427, 0.0005333496956154704, -4.39876748714596e-06, -0.00021681103680748492, -0.0002947441244032234, 0.00017757891328074038, -0.00046552647836506367, -0.00037131758290342987, 0.00026915737544186413, 0.0006483150064013898, -8.132148650474846e-06, 0.000537449901457876, 0.00016725547902751714, -0.0002806652628351003, -6.54390751151368e-05, 0.00011341717618051916, -5.731693818233907e-05, -0.00021826739248353988, 0.0001231063943123445, -0.0003094518033321947, 0.0004889706615358591, -0.0005322007928043604, -0.0009392815991304815, 0.00023125378356780857, -0.0003717227664310485, 0.0003925452474504709, 