{"nesterov": true, "init_weights": [95374, [[[[0.00015737298235762864, 2.7891866920981556e-05, 0.000271209777565673, 0.00016133120516315103, -0.00012409669579938054, -0.0002695711445994675, -0.0004741112352348864, -0.0002892231859732419, -0.0008550002239644527, 0.00022624584380537271, -0.0005086881574243307, 0.00021626154193654656, -0.0003186719259247184, 0.00031678256345912814, -0.00015452287334483117, -7.758825086057186e-05, 0.0006092137191444635, -0.0009148640092462301, 8.679136954015121e-05, 0.0005390251753851771, -0.000125571881653741, -4.105786501895636e-05, 0.00020442109962459654, 0.00018984414055012167, -7.009109685895965e-05, 0.0001996996288653463, -0.0004716985858976841, 4.258845001459122e-05, 0.0003313823544885963, 0.00018195438315160573, 0.0001285400940105319, 0.0007436921587213874, -7.322332385228947e-05, 3.565456427168101e-05, -2.7488502382766455e-05, 0.0005671780090779066, -0.0006085320492275059, 0.0009075247799046338, 0.00017611270595807582, 0.0004897673497907817, -0.0006179760093800724, 3.1166913686320186e-05, -0.0005696954322047532, 0.0001224348379764706, 0.0003618915216065943, 0.00012171873822808266, 0.0002836417988874018, 0.00012819611583836377, 2.3520307877333835e-05, -0.00022138678468763828, 0.0003858489217236638, -7.710006320849061e-05, -0.0004231394559610635, 0.0002647030050866306, -0.0004895312013104558, -0.00025592997553758323, -0.00015186228847596794, 0.0003170626296196133, 0.0006044593174010515, -0.0004011063720099628, 0.0004714023962151259, 1.979040098376572e-05, -1.20761469588615e-05, 0.00047046065446920693], [1.138934835331895e-09, -6.696913579240515e-10, -2.172787061383019e-09, 8.635043791116459e-10, 2.0814718837414148e-08, -1.328298138147943e-09, -2.9438238513534998e-09, 1.929937987199537e-08, -2.9102194432084616e-08, 2.4933397568815963e-09, 1.7010156616592553e-09, 4.371973449934785e-09, -4.0153377511842336e-08, 2.625100359310295e-09, 1.4586296614993444e-08, -5.719609230681044e-09, -4.825545740771986e-09, -5.491854193628853e-10, 4.768654915388026e-10, 4.531771902183124e-10, -1.8566377324447103e-09, -2.0226393893096883e-09, 4.3917883219002363e-10, 4.636316219830405e-08, 4.876619996707632e-09, 1.5658837559939798e-09, 2.1635042202206023e-08, 1.9951275354035403e-10, 1.2926654413547567e-08, 1.7073720215421417e-08, 1.3121330688647959e-08, -1.3541370247338591e-09, 5.653027379537434e-09, 3.8238203714513475e-09, 1.2833853424432107e-10, 1.7169162092045553e-08, 1.2239567137584118e-09, -1.0769136693511427e-08, 4.240400031108038e-09, -1.4997745267919527e-08, 1.0456489840660055e-10, 4.094535377419106e-09, 2.999455972485521e-08, 9.958205371418671e-10, -1.3021358213904932e-08, 2.2189723392074256e-09, 3.230693579325816e-08, 2.7395184787337712e-08, -4.971179023982586e-10, 1.9493218150756775e-09, 2.4938007214814206e-09, 1.1966322155387843e-08, -3.2294165119850504e-09, 1.0174620035385828e-09, 1.7190372458841807e-09, 4.632063621556881e-08, -1.6676117153835435e-09, -6.128716201203588e-09, 1.1702807611868593e-09, 1.775113922519722e-08, -3.656493108294967e-09, 4.7726253171731514e-08, -2.6069866265743258e-09, -1.023715556769389e-09], [-2.161041265935637e-06, 5.903503961235401e-07, -1.8515124793339055e-06, 8.333981895702891e-07, 1.751323225107626e-06, -1.8134457491214562e-07, -6.729944743710803e-07, -9.75024931904045e-07, 1.3831805745212478e-06, 3.6629691635425843e-07, -6.101977305661421e-07, 5.445982083074341e-07, -5.233536626292334e-07, -1.8168401538787293e-06, -1.2501415085353074e-06, -5.30901706952136e-06, 7.06961316154775e-07, 2.2478282062365906e-06, -2.851774752343772e-06, -4.903076842310838e-07, -1.1016767302862718e-06, 6.902740778969019e-07, 7.034652753645787e-07, -7.691948553656403e-07, -3.619338997395971e-07, -1.2819430139643373e-06, -5.834190801579098e-07, 2.3111012978915824e-06, 1.1805753956650733e-06, -5.7601275329943746e-05, -1.9565338789107045e-06, 1.8383499877927534e-07, 1.3710554185308865e-06, -2.8416859549906803e-06, 7.392144993900729e-07, 1.166834294963337e-06, 7.810274382791249e-07, 4.0636297171658953e-07, -1.6306313455061172e-06, -3.252695478295209e-06, 4.003598405688535e-06, -3.501935452732141e-07, 2.877601161799248e-07, 1.1821105090348283e-06, -6.494585846894552e-08, -2.527483502490213e-06, 2.4159874101314927e-06, -2.206421413575299e-06, 8.551708106097067e-07, 1.5424723187607015e-07, 8.270741886917676e-07, -5.982831794426602e-07, 1.1787400353568955e-06, -8.281465966319956e-07, -3.832221295851923e-08, -1.6009354908419482e-07, -7.415201253024861e-08, -2.2856107761981548e-07, 1.5061209523992147e-06, 9.390082027493918e-07, 1.3134808796166908e-09, 1.6537951808004436e-07, -1.0893669468714506e-06, -1.2931928949910798e-06], [3.012030356330797e-05, -1.7761619801603956e-06, 9.618663170840591e-06, 7.6193432505533565e-06, 2.930026312242262e-06, 1.2746701031574048e-05, 1.619782233319711e-05, -1.3360979210119694e-05, 1.0352480785513762e-05, -2.4863271391950548e-05, 2.8147542252554558e-05, -7.929396815598011e-06, 6.37050152363372e-06, 1.3996270354255103e-05, 7.496426405850798e-06, 2.0165512978564948e-05, -1.8598872202346683e-06, -2.6659618015401065e-06, 8.717895980225876e-06, 3.858724085148424e-06, -1.2268254067748785e-05, 1.981812238227576e-05, -1.8008322513196617e-06, 6.584077709703706e-06, -1.0949019269901328e-05, -2.249444332846906e-05, -1.1900643585249782e-05, 8.894508937373757e-06, 1.512550898041809e-05, 0.00014148792251944542, -6.6703232732834294e-06, -3.2736986668169266e-06, -9.019329809234478e-06, -1.3148403013474308e-05, 7.629453648405615e-06, 1.6481603779539e-06, 7.910100066510495e-06, 8.753650035941973e-06, 1.3450706319417804e-05, 1.1697289664880373e-05, 5.713704013032839e-06, 5.719115506508388e-06, -2.1557330910582095e-05, 8.136286851367913e-06, 2.0296560251154006e-05, 1.487483928030997e-06, -2.081391903629992e-05, 6.858599590486847e-06, -5.108850018586963e-07, 1.739124854793772e-05, 1.982991670956835e-05, -3.2694788387743756e-06, -1.1811898730229586e-06, -1.353856350760907e-05, -7.711523721809499e-06, 2.665029387571849e-05, -1.0448442480992526e-05, 1.0199999451288022e-05, -1.857705501606688e-05, -2.4911530999816023e-05, 2.6862397135118954e-05, -5.94838229517336e-06, -1.611470725038089e-05, 3.930723323719576e-06], [3.6117718991590664e-05, 7.328992069233209e-05, -1.9976105249952525e-06, 3.987760646850802e-05, -9.845440945355222e-05, 4.976851778337732e-05, 7.148952136049047e-05, -7.69890975789167e-05, 5.064029755885713e-05, 8.570270438212901e-05, 6.91228051437065e-05, -0.0001111661404138431, -0.0002197307621827349, 1.7809441487770528e-05, 9.558983583701774e-05, -7.95004962128587e-05, -4.141518729738891e-05, 7.742898014839739e-05, 2.693221904337406e-05, 9.346986189484596e-05, -1.4977216778788716e-05, 7.950869621708989e-05, 0.00015283384709618986, 1.267402694793418e-06, 6.972363917157054e-05, 0.00014142754662316293, -1.2658027117140591e-05, 8.4484345279634e-06, -8.549077028874308e-05, 9.825379675021395e-05, 4.3358708353480324e-05, -1.3580036466009915e-05, -7.14081761543639e-06, -1.2247764971107244e-06, -2.0284274796722457e-05, -0.000201355607714504, 1.995299317059107e-05, 0.00014373451995197684, 3.17146404995583e-05, 1.476153192925267e-05, 8.147359039867297e-05, -3.739131352631375e-05, -3.779821054195054e-05, -0.00016046817472670227, -0.000129090272821486, -1.7083031707443297e-05, -0.00010896564344875515, 2.6766658265842125e-05, 4.4696495024254546e-05, -9.99663898255676e-05, -2.209061676694546e-06, -0.00018233968876302242, -5.158448766451329e-05, -0.0002153104287572205, -1.8598864699015394e-05, 1.9669358152896166e-05, -2.7837546440423466e-05, -2.193588443333283e-05, 1.2683081877185032e-05, -0.00018740333325695246, -0.00034521601628512144, 2.079498881357722e-05, -1.4034470041224267e-05, 1.5236890249070711e-05], [-7.58463102101814e-07, 0.00030937662813812494, 0.00025893861311487854, -5.136039362696465e-06, -0.00014664704212918878, 0.00021647453831974417, -5.783868255093694e-05, -0.00014904618728905916, 5.097343819215894e-05, 8.128035551635548e-05, -0.0001927660923684016, -9.088981460081413e-05, -0.00013883778592571616, -8.911262739275116e-06, 0.00014791643479838967, 5.100497219245881e-06, -0.0002034688222920522, 0.00042628581286408007, -2.5935398298315704e-05, 0.00011700043978635222, 0.000310435047140345, 7.548406574642286e-05, 4.6688655856996775e-06, 1.9973103917436674e-05, 9.47367079788819e-05, -0.00026113068452104926, 3.971725163864903e-05, 0.00020589680934790522, -3.5915123589802533e-05, -1.5195729247352574e-05, -0.00019911864364985377, 0.0002324774832231924, -2.4777164071565494e-05, -7.20515672583133e-05, 0.00026988019817508757, -9.533672709949315e-06, -5.0456030294299126e-05, -2.73115947493352e-05, -0.00047065579565241933, -0.00010229877079837024, -9.06714194570668e-05, 0.0001281381701119244, -4.976787022314966e-05, -0.0002712934510782361, 0.000174852684722282, -0.00017320421466138214, 6.3502331613563e-05, 1.1207874194951728e-05, 0.0001387952215736732, -0.0002064318978227675, -1.488704583607614e-05, 4.414425347931683e-06, -6.36681306787068e-06, -0.00014041121175978333, -0.00024405968724749982, 0.0002412657195236534, -0.00017747018137015402, -6.279400258790702e-05, -4.722413359559141e-05, -0.0003618404734879732, -0.00016698955732863396, 3.5114808270009235e-06, 0.00014400845975615084, -0.00010532371379667893], [3.130129334749654e-05, 0.000460330891655758, 7.234814256662503e-05, 1.0547642887104303e-05, -6.712769391015172e-05, 0.0002047479065367952, -0.0004159810487180948, 0.0003172647557221353, -0.00013924509403295815, -0.00033488322515040636, 0.00016041062190197408, -0.00010995141929015517, -7.199640094768256e-05, 0.00021911990188527852, 2.418436633888632e-05, 2.0267387299099937e-05, -0.00027468561893329024, 0.0005880739772692323, -0.00023110443726181984, -1.7361831851303577e-05, 0.00025483814533799887, -0.0003136600716970861, -1.4782504877075553e-05, -0.0001720603759167716, 0.0001811855036066845, -9.337429946754128e-05, -0.0006726385909132659, -2.2223684936761856e-05, -2.1866988390684128e-05, -0.0004316015401855111, -0.0003243059909436852, 0.00011369858111720532, -2.5967456167563796e-06, -0.0006780411931686103, 0.0002722801873460412, -0.00045945882447995245, 0.0003493413096293807, 4.624889334081672e-05, -0.0005115221138112247, -0.0003654291504062712, 0.0002700862823985517, 0.00016492247232235968, -3.169858973706141e-05, -4.0307058952748775e-05, 8.682889892952517e-05, -0.0006673198658972979, 0.00023364610387943685, 0.0003209234564565122, 1.6042475181166083e-05, -0.00018848746549338102, 0.00010577072680462152, -0.0002683970669750124, -0.00026270587113685906, 3.01461732306052e-05, 0.00011422194074839354, -0.0002800424990709871, -0.00022781849838793278, 4.328783688833937e-05, -0.0004868456453550607, -0.0001819432363845408, -0.00014000693045090884, -9.79087344603613e-05, 3.734965866897255e-05, -0.00024167905212379992], [0.00027907962794415653, -3.2275274861603975e-05, -0.00012958358274772763, 0.00013048230903223157, -0.0003225661930628121, 0.0004196257796138525, 3.1043025956023484e-05, 4.425905353855342e-05, 5.16935542691499e-05, -0.00023868070275057107, 0.0004025300731882453, 0.0004758470749948174, 0.00024215324083343148, 0.0009607180836610496, 0.0003200884675607085, 0.00026968633756041527, -0.0005186396883800626, -0.00011410364822950214, 3.6836674553342164e-05, -1.8604174329084344e-05, 0.0002746417303569615, -1.9967796106357127e-05, -0.0001614259381312877, 0.0005990116624161601, 0.0011393006425350904, 0.00018391298362985253, 5.17677835887298e-06, 0.00028976687463000417, -0.00011259161692578346, 4.881461791228503e-05, -0.0001230998313985765, -0.0005038389936089516, -0.00017586356261745095, 0.00024545477936044335, -0.0003749018651433289, 9.328141459263861e-07, 0.00012571869592648, 0.0002826884447131306, -6.215098255779594e-05, 0.0005189238581806421, -2.6459412765689194e-05, 0.0007831031107343733, 9.115756256505847e-06, -9.564311767462641e-05, 1.2891825463157147e-05, 0.00023276862339116633, 0.0001837704621721059, 0.0007523553213104606, 0.00021215884771663696, -0.00012647005496546626, 0.001134285586886108, 0.00016337503620889038, -0.00012332022015471011, 0.0005823414539918303, -0.0003518132434692234, -0.00024348970327991992, -6.981422484386712e-05, 0.00029849703423678875, -0.000567785813473165, 0.0007241226849146187, -9.603910439182073e-05, 9.899998985929415e-06, -0.0002619649167172611, 0.00012445237371139228], [4.367070687294472e-07, 4.4288490244071e-06, 1.6837886960274773e-06, 3.9428296076948754e-06, 3.7249772049108287e-06, 2.0728134586533997e-06, 1.3556461453845259e-05, 7.99358167569153e-06, 1.6761709957791027e-06, 7.076204838085687e-06, 1.464126216887962e-05, 6.1675073084188625e-06, -9.837438483373262e-06, 7.120870122889755e-06, -2.119714537229811e-07, 2.8444865165511146e-06, 9.605152627045754e-06, 8.18368164345884e-08, 2.6148192773689516e-05, -3.3639571483945474e-06, -1.1518800420162734e-06, -1.816319581848802e-06, -2.1294414182193577e-05, 2.4058972485363483e-06, -3.331153266117326e-06, 9.388381840835791e-06, -5.593663445324637e-06, 8.86732141225366e-06, -4.751057531393599e-06, -6.625059177167714e-05, -1.08127551357029e-07, -7.733496204309631e-06, 2.3987344320630655e-05, -1.3869027952750912e-06, -5.396624146669637e-06, -9.035804396262392e-06, -6.15166482020868e-06, -1.4105326954449993e-05, -1.223274239237071e-06, 1.5973603240126977e-06, -1.013718247122597e-06, 2.669485184014775e-06, 1.7779286736185895e-06, 6.290952569543151e-06, 2.824218881869456e-06, 2.7769292501034215e-06, -6.84702808939619e-06, 8.117449397104792e-07, -1.8004684534389526e-06, 6.950902388780378e-06, 4.077282937942073e-06, -3.573981302906759e-06, -6.303288046183297e-06, -5.705996954930015e-07, 1.3903209037380293e-05, 5.562830665439833e-06, 1.0537622074480169e-05, 1.995963657464017e-06, -1.2845952369389124e-05, -1.8847672436095309e-06, 1.5441350114997476e-05, 7.953238309710287e-06, -3.973401362600271e-06, 5.0619555622688495e-06], [8.513598913850728e-06, 2.842518824763829e-06, 8.173919013643172e-06, 1.0087791451951489e-05, 3.536608801368857e-06, 6.098412995925173e-06, -3.619388053266448e-06, 9.838759979174938e-06, 2.409282387816347e-06, 6.7706523623201065e-06, 9.758973646967206e-06, 2.5943309083231725e-05, -2.4990040401462466e-05, 1.5174167856457643e-05, -5.763889475929318e-06, 6.291941645031329e-06, 1.1312060451018624e-05, 3.4488698474888224e-07, 2.9231807275209576e-05, 8.82692893355852e-06, 5.424069968285039e-06, -8.86979978531599e-06, -1.3097790542815346e-05, 7.60710008762544e-06, 1.3241246051620692e-05, 1.5807634554221295e-05, -5.95120900470647e-06, 6.639905677729985e-06, 2.3569828044855967e-06, -0.000343255145708099, 8.867712494975422e-06, 3.455255864537321e-06, 9.584788131178357e-06, 1.049561888066819e-06, -5.8125806390307844e-08, -4.580387212627102e-06, 2.887722985178698e-07, -1.7161381038022228e-05, -3.896576345141511e-06, 2.710708031372633e-05, -5.383071766118519e-06, 1.1885714229720179e-05, -3.7941142636555014e-06, 3.325352736283094e-05, 2.3269039957085624e-06, -2.278801730426494e-06, 2.163220960937906e-05, 5.248680281511042e-06, -5.771210453531239e-06, -8.885755050869193e-06, 2.1658970581484027e-05, -3.8198659240151756e-06, -1.218224861077033e-05, -5.617869192064973e-07, 2.0717981897178106e-05, -1.5064799299580045e-05, 1.9141874872730114e-05, 3.2455714062962215e-06, -3.458067658357322e-05, 3.4554905141703784e-06, 1.4882733921695035e-05, 1.21343200589763e-05, -1.0823864613485057e-05, 2.263978421979118e-05], [-4.2860625399043784e-05, 2.4029943233472295e-05, 2.9967297450639307e-05, 3.269591252319515e-05, 6.533323357871268e-06, 3.6642020859289914e-05, 1.0278850822942331e-05, 9.927350038196892e-05, 8.208356121031102e-06, -4.0412571252090856e-05, -1.6025296645238996e-06, -8.59504216350615e-05, 4.033613367937505e-05, 9.845694876275957e-05, 4.7085370624699863e-07, -8.4398161561694e-05, -4.685386556957383e-06, 1.4693720913783181e-05, -1.7019790902850218e-05, -4.9747697630664334e-05, 2.94803630822571e-05, -7.512867796322098e-06, -5.251717993814964e-06, 6.335273064905778e-05, -5.6359443988185376e-05, 4.988395630789455e-06, -2.029606548603624e-05, 4.938108759233728e-06, 3.818733603111468e-05, -0.000108013664430473, -1.5863000953686424e-05, -3.9438433304894716e-05, 3.991669655079022e-05, -1.6106563634821214e-05, -2.6079420422320254e-05, -3.611192369135097e-05, 3.970484613091685e-06, -3.6632201954489574e-05, -2.1650484995916486e-05, -7.336014823522419e-05, -2.7173435228178278e-05, -0.00010068705887533724, 1.0486706742085516e-05, -0.00011547702888492495, 1.2682888154813554e-05, 4.425223323778482e-06, 2.963090082630515e-05, 1.3112550732330419e-05, -8.170232467819005e-05, 7.711922989983577e-06, 0.0001244671002496034, -0.00011197906860616058, -4.8594902182230726e-05, -1.87746700248681e-05, 2.3938429876579903e-05, -3.5444594686850905e-05, 2.059494363493286e-05, -8.199676813092083e-06, -1.4048663615540136e-05, -2.2474290744867176e-05, 3.63009785360191e-05, -3.3409065508749336e-05, 3.955023566959426e-05, -7.718240522081032e-05], [-4.556570274871774e-06, 0.00019988816347904503, 7.987111166585237e-05, 0.0002604139444883913, 1.458009319321718e-05, 3.2492556783836335e-05, -3.993844075012021e-05, 8.878880908014253e-05, -8.065320434980094e-05, -9.666416008258238e-05, 4.078566053067334e-05, 5.8744248235598207e-05, -0.00016900786431506276, 5.4071198974270374e-05, -8.097600220935419e-05, -0.00022959569469094276, 2.7513873646967113e-05, -5.042140401201323e-05, -5.6432996643707156e-05, 0.0001255787501577288, 7.645531150046736e-05, -2.8769201890099794e-05, -3.599324554670602e-05, -4.202487616566941e-05, -0.0001206072120112367, -6.291616591624916e-05, -0.00017481105169281363, 5.829981091665104e-05, 0.00016187209985218942, -0.00015677021292503923, -8.954110671766102e-05, 7.138202636269853e-05, 6.460832082666457e-06, -7.3799274105113e-05, 9.102401963900775e-05, -3.590539563447237e-05, -7.958873902680352e-05, -4.68984289909713e-05, 1.6695878002792597e-05, -9.771643090061843e-05, -4.215970329823904e-05, 1.164574314316269e-05, -2.345478606002871e-05, -0.00011548598558874801, -7.75244552642107e-05, 7.104756514308974e-05, 1.8247308616992086e-05, 4.314137186156586e-06, -1.4206852938514203e-06, -0.00013619445962831378, 0.00018126668874174356, -8.487310697091743e-05, -9.214376768795773e-05, -9.503011824563146e-05, 1.5434688975801691e-06, 5.0199159886687994e-05, 0.00012630650599021465, 2.8999706046306528e-05, 5.4940486734267324e-05, -0.0002196083078160882, 7.89443129178835e-06, 7.935929897939786e-05, 0.00017674209084361792, -0.0002576663391664624], [-0.00022025269572623074, -5.8339923270978034e-05, 0.00012083251203875989, -0.0001561834942549467, 2.543385016906541e-05, 8.038358646444976e-05, 0.00013144769764039665, -7.185287540778518e-05, 0.00010817506699822843, -9.023951861308888e-05, 0.0004032997530885041, 0.00013827203656546772, -0.00021079510042909533, 2.1614621800836176e-05, -8.348912524525076e-05, -0.00041208043694496155, -3.2568274036748335e-05, 0.00019355937547516078, -0.00024273435701616108, -0.00018059444846585393, 0.00016721905558370054, -6.390979251591489e-06, 5.931829218752682e-05, -0.000211385078728199, 0.00020597240654751658, 0.0001726381160551682, -8.512916974723339e-05, -0.0003022066375706345, 5.2627521654358134e-05, 9.200909698847681e-05, 7.281639409484342e-05, -3.133889549644664e-06, -0.0001305733749177307, 0.00010030929115600884, 0.00041340288589708507, -0.0001575609639985487, 7.119342626538128e-06, -0.0003083724877797067, -0.00040131600690074265, 0.00018802085833158344, 7.206414738902822e-05, -0.0003740045940503478, 0.00015362488920800388, 3.0790655728196725e-05, -7.803829794283956e-05, -1.4691802789457142e-05, 0.00022498653561342508, 0.00030144554330036044, 6.189948180690408e-06, -0.00022412239923141897, -6.869531353004277e-05, 6.350600597215816e-05, 0.00021877425024285913, -0.00011605843610595912, -0.00014184907195158303, -0.0003120123583357781, 0.00020700585446320474, 6.014195969328284e-05, -8.138531120494008e-05, -0.0001527023414382711, -0.0002085129963234067, 4.050743427796988e-06, 0.0001524988911114633, -0.0002240542380604893], [-0.0002365176915191114, -0.00012889587378595024, 3.2733805710449815e-05, 3.4525233786553144e-05, 0.0002984805323649198, 0.0002075169759336859, -1.2613098078873008e-05, -1.4150122296996415e-05, -5.7275592553196475e-05, -0.0002643965417519212, 0.0005301920464262366, -1.2996279110666364e-05, -2.8205640774103813e-06, 0.00021752691827714443, 0.0002936593082267791, -0.0005951170460321009, 4.4418658944778144e-05, 9.240918006980792e-05, -0.00041024546953849494, -0.0005786400870420039, 0.00025604950496926904, 9.581063932273537e-05, 7.693468069192022e-05, -0.0006155607989057899, 0.00017756098532117903, 0.0001856542658060789, 1.4332756109070033e-05, -0.0005575179238803685, 0.00038745353231206536, -0.0004789013764820993, -0.0001413838763255626, 0.000368547101970762, -0.00019210760365240276, 0.00019747260375879705, 0.0008322668727487326, -0.000405996514018625, 0.00020976497035007924, -0.0008212101529352367, -0.00010352992103435099, 5.448622687254101e-05, 0.00041483575478196144, -0.000944982108194381, 4.3842155719175935e-05, -0.00031935758306644857, -0.00047429584083147347, 0.00031247895094566047, 0.0006843906594440341, 0.00023527418670710176, -4.52034073532559e-05, -0.00010932923760265112, -0.0009275843622162938, -0.00010292266961187124, 0.00020760772167705, -0.00011481817637104541, -0.00035295580164529383, 9.388975740876049e-06, 0.0004336984711699188, -0.000377069489331916, 0.00016061232599895447, -0.00017675323761068285, -0.00011408715363359079, 0.00010634740465320647, 0.0003225550753995776, -9.5855284598656e-05], [0.00025368831120431423, -0.0010058111511170864, 0.00024479080457240343, -0.0002439473755657673, -4.994188202545047e-06, -0.0005326276295818388, -0.0008352238801307976, -0.0001593810593476519, -0.0006478599389083683, 0.00024947358178906143, 0.000517388223670423, -7.824508065823466e-05, -9.597162716090679e-05, -2.5806715711951256e-05, 0.0003412131336517632, -0.0004338390426710248, 0.00022697288659401238, 0.0008535311790183187, -7.906053360784426e-05, -0.00016867383965291083, 0.00047494808677583933, 0.0005561282741837204, 0.0004941452643834054, -0.0005712580168619752, -4.888458352070302e-05, 0.000661183032207191, 0.0007231640629470348, 7.363076292676851e-05, -0.0002570452634245157, 0.0003303567646071315, 3.547985397744924e-05, 0.0003471088130027056, -0.0006781477713957429, -0.0013656874652951956, -4.469747364055365e-05, -0.0006708637811243534, -0.00011154169624205679, -7.681723218411207e-05, -0.0006503178738057613, -0.00010449589171912521, 0.00010220217518508434, -0.0002787654520943761, -0.0006597400060854852, 0.00015736340719740838, -0.0005906758597120643, 0.00012190459528937936, -7.461682253051549e-05, 0.00010398650192655623, -0.00045349192805588245, -4.138123040320352e-05, -0.001203773426823318, 0.0007075484609231353, 0.00021205598022788763, 0.00033600753522478044, 0.00022172450553625822, 0.00044827722012996674, 0.0005143614253029227, 0.0003343618009239435, 0.0005360379000194371, 0.00017603511514607817, -0.0006528344820253551, -0.00032858437043614686, 0.0008422438986599445, 0.00015350847388617694]], [[0.0003745096910279244, 0.000700838805641979, 4.6983019274193794e-05, -1.3307922927197069e-05, -8.238828741014004e-05, -1.1430383892729878e-05, 0.00027201452758163214, 0.00023184300516732037, -0.00020950345788151026, -2.2706182789988816e-05, 0.00012306221469771117, -0.00020104004943277687, -0.0006812384817749262, 0.00011263994383625686, 0.0003822026483248919, 0.00012471387162804604, -0.00032807051320560277, 3.2794647268019617e-05, 0.00035237258998677135, -3.869472129736096e-05, 0.0002017303486354649, 0.00019959824567195028, -3.651755105238408e-05, -2.6859221179620363e-05, 1.61275893333368e-05, -4.33265813626349e-05, -5.0859707698691636e-05, -0.0002681348705664277, 0.00047541220556013286, 0.00018536091374699026, 0.00023631221847608685, -0.0007747170748189092, 0.00019093186710961163, -8.000910747796297e-05, 1.3730677892453969e-05, 0.00019344183965586126, 0.00042838850640691817, -1.40069396366016e-05, 0.00017324043437838554, 0.00015312753384932876, 0.0004722287121694535, 8.003175025805831e-05, 0.0003504645428620279, -0.0005059906980022788, -0.0007079092902131379, 0.00036509751225821674, -0.00016998509818222374, 0.0004074597673024982, 5.9328056522645056e-05, 0.0001592233602423221, 0.0003787727328017354, -0.0002465969300828874, 0.00017335041775368154, -0.00042807101272046566, -0.0004241157148499042, 0.0004426388768479228, 8.829164289636537e-05, -9.30028036236763e-05, -0.0002209949743701145, 2.0496605429798365e-05, 0.00013044168008491397, 3.428824129514396e-06, 0.0002691374975256622, 0.0005341808428056538], [-4.682097376473848e-09, 3.716040530843401e-10, 1.9333761258621962e-08, -3.8471652530347455e-09, -1.49556438344689e-08, -1.537916105576187e-08, 2.418362043954403e-08, -2.176551916477365e-08, 2.9575907944945357e-08, 9.436072367918769e-09, 1.8819560493321674e-11, 2.634078066776624e-09, 5.539628311623801e-09, 1.8574867866050226e-08, 1.205117811098333e-10, 7.332915163971165e-09, 6.133112240291894e-09, -1.6656318990726504e-08, -2.1057417143310886e-08, 2.300071688665639e-09, 5.251891366242489e-08, 3.4472439125465826e-08, 6.673024444125986e-08, 1.297110241438304e-08, 3.799261349968219e-09, 1.3050066582920294e-09, 2.0568066361192905e-08, 1.4439752171746534e-10, 1.4724749419769978e-08, 4.89552176574648e-10, -1.2128894333329754e-08, 1.54091484017016e-09, 2.0871631534191692e-08, 9.417645552289855e-10, -1.6904145860863196e-09, -1.7697496801361012e-08, 4.914697537827806e-10, 8.566375164775764e-09, 5.312876805163569e-09, -6.995391821362773e-09, 3.287662087014809e-10, 1.2915958969017538e-08, 1.0464707989044086e-09, -3.543131787964171e-09, -1.086879652945072e-08, 7.47788231336699e-09, -4.250480412082425e-09, 4.858556224007771e-09, 8.109785731846841e-09, 7.752897879242937e-09, 1.7469396595970466e-08, -1.3084596739432186e-09, 2.1397585925342355e-08, -9.12599240621148e-09, 2.071167237716054e-09, -3.2154749973756225e-09, -9.569848247181767e-10, 5.016382864653224e-09, 2.6166510735947668e-08, -1.648933967146604e-08, -2.1577639230940804e-08, -2.363401696570122e-09, 1.5303077693928913e-09, -1.3781559893288886e-08], [-1.7296678151978995e-06, 4.939033715345431e-07, 1.2304836900511873e-06, -4.1419147578380944e-07, 2.261005647596903e-06, -1.2781653140336857e-06, 1.0376728596384055e-06, 3.484237538486923e-07, 2.0245013274688972e-06, 2.4637708975205896e-06, 5.78471428980265e-07, -2.209257218055427e-06, -6.823404419264989e-07, -1.4834399735264014e-06, 1.937332399393199e-06, 5.52725850866409e-07, 4.2665558908083767e-07, -2.0178997601760784e-06, -2.1126556930539664e-06, -1.8090457842845353e-06, 8.114969887174084e-07, -1.9998140032839729e-07, -1.482306259958932e-07, -1.066665276994172e-06, -1.192777716596538e-07, 1.5247962892317446e-07, 3.0325584248203086e-06, 1.5002431155153317e-06, 1.9395856725168414e-06, -1.5654232754513941e-07, -1.1945686537728761e-06, -4.008579139735957e-07, 1.9196865252979478e-07, -7.332163249884616e-07, -2.4355481400561985e-06, 4.299834017729154e-07, -2.6103468826477183e-06, 1.2857052524850587e-06, -6.536606633744668e-07, -4.498168379996059e-07, 8.737741268305399e-07, -2.1463997654791456e-06, 1.964503013596186e-07, -8.63934531025734e-07, -1.0125691005669069e-06, -4.5910583139630035e-06, -1.4090575177760911e-06, -1.7805981542551308e-06, -9.205907645082334e-07, 1.9712751964107156e-06, 1.495872936629894e-07, 1.334419721388258e-06, 1.8874058014262118e-06, 4.09809103985026e-07, 1.6989163214020664e-06, 1.508010427642148e-06, 1.2007561736027128e-06, -1.0064156867883867e-06, 1.6427056834800169e-06, 1.1741237813112093e-06, 4.099636043974897e-07, -8.01802571004373e-08, -4.5605992227137904e-07, -1.6281202306345222e-06], [-1.9454923858575057e-06, 3.0727342164027505e-06, 1.27299526866409e-05, 2.24885134230135e-05, -1.1628851552814012e-06, 3.5341954571777023e-06, 2.303278051840607e-06, -2.7922968001803383e-05, 5.5108193919295445e-06, -2.924180307672941e-06, 5.974850409984356e-07, 1.1836225894512609e-05, -1.01985006040195e-06, -4.821165020985063e-06, 6.731966095685493e-07, -2.046336703642737e-05, -1.0405135981272906e-05, 4.564103619486559e-06, -1.6677620351401856e-06, 8.83552183950087e-06, 5.411007805378176e-06, -2.32671300182119e-06, 1.004048954200698e-06, 2.140434844477568e-06, -2.8738099899783265e-06, -2.9424833769553516e-07, -7.0881856117921416e-06, 3.410369799894397e-06, -2.2216031538846437e-06, 1.0559064321569167e-05, 2.499707625247538e-05, 4.3468797230161726e-05, -1.5884012100286782e-05, -3.3583683034521528e-06, 1.430785459888284e-06, 1.0152625691262074e-05, -1.540446282888297e-05, -2.5221715986845084e-05, -1.648384022701066e-05, 3.431332970649237e-06, 2.0032432075822726e-05, -1.2376935956126545e-05, -1.5778272427269258e-05, -1.4371735232998617e-05, -1.0702206054702401e-07, 3.054969738514046e-06, 2.7291858714306727e-05, -1.966587115020957e-05, 8.9264385678689e-06, -1.9030603652936406e-06, -1.867589890025556e-05, -6.926842615939677e-06, -1.2129278729844373e-05, -5.711307494493667e-06, -3.0137900466797873e-05, -6.561529971804703e-06, 1.4462686976912664e-06, 1.608970023880829e-06, 9.509212759439833e-07, 1.753099695633864e-06, -2.934426265710499e-05, 1.4002405805513263e-05, -1.0893715625570621e-05, -1.7548431060276926e-05], [2.294361729582306e-05, -3.794479926000349e-05, 0.00017137308896053582, 8.847245771903545e-05, 0.00013685901649296284, 8.750541019253433e-05, -6.695196498185396e-05, -0.00012433600204531103, -0.00017569615738466382, 0.00010644153371686116, 4.0937215089797974e-05, -7.884583465056494e-05, 8.568519660911988e-06, -2.0800536731258035e-05, 3.749836469069123e-05, -0.00015388359315693378, -0.0001667632459430024, 5.947116733295843e-06, -8.771179273026064e-05, 3.850696884910576e-05, -7.480071508325636e-05, 0.00019138534844387323, 9.18209261726588e-05, -8.007280121091753e-05, 7.536556950071827e-06, -2.2618147340836003e-05, 3.625760291470215e-05, -0.0002601520100142807, -1.5501609595958143e-05, -0.0001766915520420298, -4.4704600441036746e-05, 0.00015189239638857543, -2.701172707020305e-05, -0.00013359246077015996, -8.479426469421014e-06, -0.00010063148511108011, -9.94292349787429e-06, 0.00012278504436835647, -8.688071102369577e-05, -1.1823091881524306e-05, 0.00014903763076290488, -0.00012212363071739674, -2.152012530132197e-05, -0.0001023308141157031, -8.960568811744452e-05, 6.487470091087744e-05, 4.352428368292749e-05, 2.2385353076970205e-05, -3.77061587641947e-05, -0.00011154138337587938, -0.00012576274457387626, -0.00011896842624992132, -4.670489943237044e-05, 8.121035352814943e-05, 1.7635116819292307e-05, -7.339070725720376e-05, 5.890903412364423e-05, 0.00014307460514828563, 0.00014441533130593598, 5.277644959278405e-05, -9.427541954210028e-05, 6.70299050398171e-05, -0.00010425294749438763, 7.894281588960439e-05], [-7.188234303612262e-05, 0.00011793435260187835, 5.94916200498119e-05, 0.00012362450070213526, 0.0005896245711483061, -4.4656942918663844e-05, 0.00016532310110051185, -0.0002224533527623862, -0.00010629490861902013, -0.0002576354891061783, -0.0001855674636317417, 0.0002657980949152261, -0.00012867091572843492, 0.00017420573567505926, -1.7202066374011338e-05, -0.0002511671627871692, -0.0003218064084649086, 0.0002621566236484796, -0.00011894312046933919, 0.00011108816397609189, -1.758462531142868e-05, 6.759012467227876e-05, 4.89934318466112e-05, 7.122316310415044e-05, 0.00012405849702190608, 4.58982030977495e-05, -7.778974395478144e-05, -5.909896572120488e-07, 0.00018523464677855372, -0.0003355038643348962, -0.00017500192916486412, 0.00010840161849046126, -0.00012005447933916003, -0.0001757729914970696, 0.00017536281666252762, 4.3129781261086464e-05, -4.058107151649892e-06, -4.71856037620455e-05, -0.00015932312817312777, 3.2643976737745106e-05, -0.00011247356451349333, 1.6995069017866626e-05, -3.443226160015911e-05, 0.00018730323063209653, 0.000141415061079897, -0.0002225748321507126, 0.000601810053922236, -7.174786151153967e-05, -3.203979576937854e-05, -7.129781442927197e-05, -3.123183341813274e-05, -0.00030774445622228086, -7.045768870739266e-05, -6.779073373763822e-07, 7.402242772514e-05, 4.211032501189038e-05, 2.8735579689964652e-05, 6.143730570329353e-05, -0.0003074784472119063, -0.0001394225691910833, 0.00022136353072710335, 2.8967864636797458e-05, 4.804998025065288e-05, 4.047880065627396e-05], [0.00023808018886484206, 0.00033450961927883327, 0.00023657409474253654, 0.00016404179041273892, 0.000401197379687801, 0.00017608539201319218, -0.00017466640565544367, 1.4568374353984836e-05, -0.00033602825715206563, -0.0003258323995396495, 0.00010452487913426012, 8.452047768514603e-05, -0.00032964625279419124, 0.0008778174524195492, 2.7944915927946568e-05, -0.00025923814973793924, -0.0005666610668413341, 9.176349703921005e-05, -0.0002505093580111861, 0.00021538046712521464, -1.3643744750879705e-05, 0.000131115666590631, -8.090725168585777e-05, 0.00030960116419009864, 0.00042484875302761793, 0.0007036566967144608, -0.00013211517944000661, -0.00017068312445189804, 0.00026111589977517724, -0.0003218396450392902, -0.0001125961571233347, 0.0002789790742099285, -0.00034060978214256465, -0.0010652730707079172, 0.00019872625125572085, -0.0006833920488134027, 0.00034739598049782217, -0.00048072729259729385, -0.00023225137556437403, 7.79886613599956e-06, -0.00013326192856766284, 5.664367927238345e-05, 3.187754191458225e-05, 0.00031485920771956444, 7.1734182711225e-05, 0.0003693938779179007, 0.0006204831879585981, 0.00015993797569535673, 0.00020531273912638426, -0.00023099384270608425, 9.448605123907328e-05, -0.00030301258084364235, -0.00038069800939410925, 4.5553075324278325e-05, -2.0268431399017572e-05, -9.856908582150936e-05, -0.0001875734596978873, 0.00030153224361129105, -0.0003569262335076928, 0.0001487093250034377, 0.0005904799909330904, 4.451531276572496e-05, -5.980311834719032e-05, 8.013749902602285e-05], [-0.0006014339160174131, -0.00027731448062695563, 0.00019963979138992727, 0.0001008192848530598, 0.00015338188677560538, 0.0002547377080190927, -3.0799623345956206e-05, 0.0003298968658782542, 0.00016555667389184237, -5.392292223405093e-06, 0.00023592541401740164, 0.00017029204173013568, 0.00016770513320807368, 0.0005064437282271683, -8.452766633126885e-05, -1.9295279344078153e-05, 0.0004607015289366245, -0.0005244832718744874, -0.00011049138265661895, 0.00014852287131361663, 5.669894744642079e-05, -0.00047799540334381163, -0.00022056043962948024, 0.00045904904254712164, 0.00047757691936567426, 0.00019763907766900957, -0.0002006427093874663, 0.0002368103014305234, 0.00017611203656997532, -0.0001761361345415935, -9.6631541964598e-05, 0.0004196563095320016, -0.00012698909267783165, 0.0013090583961457014, -0.00023408903507515788, -0.00010470471170265228, -0.0001408935058861971, 0.0005465930444188416, -0.00012154672003816813, 0.00019994712783955038, -0.0004648509784601629, 0.0002199172886321321, -0.0006376273813657463, -0.00023759870964568108, -0.00016247580060735345, -0.0006870522629469633, 0.0003180875501129776, 0.0005010595195926726, -9.5917253929656e-05, -0.00034923385828733444, 0.0004104296676814556, 0.0004591351025737822, 0.0003160694323014468, 7.005349471000955e-05, -0.00015054541290737689, -0.00025911565171554685, 8.461401739623398e-05, -0.00021976904827170074, 0.00015542219625785947, 8.137605618685484e-06, -0.00012405021698214114, 0.00016574330220464617, -0.0002862272085621953, 7.182608533184975e-05], [6.75447427056497e-06, 1.443119799660053e-06, 8.35815899336012e-06, -7.986473065102473e-06, -4.68681628262857e-06, 2.2033287677913904e-05, 7.263347924890695e-06, -4.906998128717532e-06, 7.541125796706183e-06, 7.289463610504754e-06, 2.3746861188556068e-06, 2.4129728899424663e-06, 1.263359808945097e-05, 7.011769412201829e-06, -1.5658330084988847e-05, 1.17410618258873e-05, 8.164312930603046e-06, -3.8657308323308825e-06, -9.528446753392927e-06, -1.8068967619910836e-05, -2.095550371450372e-05, -8.682251063873991e-06, 8.91801028046757e-06, -8.036993676796556e-06, 4.570817054627696e-06, 2.9387356335064396e-06, 1.2677507584157865e-05, 2.3084323402144946e-05, 6.626404456255841e-07, 5.293449794407934e-05, -2.1754356112069217e-06, -2.180639512516791e-06, -7.183253728726413e-06, -1.4882327377563342e-05, 6.658243819401832e-06, 2.171967480535386e-06, 6.880144155729795e-06, 8.598624390288023e-07, -2.3882244022388477e-06, -6.4551772993581835e-06, -5.961311217106413e-06, 2.3586453608004376e-06, -6.7274550019646995e-06, -2.864333737306879e-06, 8.083863576757722e-06, -1.8207361790700816e-05, -2.7195981147087878e-06, -6.995651347097009e-06, -8.494189387420192e-06, -5.03578303323593e-06, -5.537386186915683e-06, 3.1258196031558327e-06, 4.952573817718076e-06, -7.723330782027915e-06, -4.430647095432505e-06, 2.3523263735114597e-05, 3.5427922284725355e-06, -1.0881637535931077e-05, 4.463318418856943e-06, -1.0940744687104598e-05, -1.4695301615574863e-06, 1.0598467270028777e-05, -1.2547223377623595e-05, 1.2906014489999507e-05], [7.436543455696665e-06, -9.472539659327595e-07, -2.404280166956596e-06, -6.906580438226229e-06, 2.288172936459887e-06, 4.5407759898807853e-05, 8.81652067619143e-06, -6.3475063143414445e-06, -8.252850420831237e-07, -5.387553301261505e-06, 1.3129950275470037e-05, 1.0944174391624983e-05, 6.59304168948438e-06, 1.451292700949125e-05, -6.092470357543789e-06, 1.3925402527092956e-05, 2.7462856451165862e-06, -3.6340679798740894e-06, -7.002784968790365e-06, 1.4616973203374073e-05, -2.2029998945072293e-05, -1.489127771492349e-05, 1.974914994207211e-05, 6.365644367178902e-08, 3.38049212587066e-05, -7.755411388643552e-06, 5.766994945588522e-06, 0.00020450283773243427, -8.221019015763886e-06, 0.0002108273474732414, 5.34059154233546e-06, -2.0071494873263873e-05, -4.4743417674908414e-05, -1.5516496205236763e-05, 5.167412837181473e-06, 4.60625142295612e-06, 4.416087904246524e-06, 1.3478254004439805e-05, -7.770900083414745e-07, 8.922928827814758e-06, -1.3454085092234891e-05, 2.4578694137744606e-05, -3.300840762676671e-05, 1.0177890544582624e-05, 1.2734295523841865e-05, -1.8076458218274638e-05, 2.1294632460922003e-05, 4.066054316353984e-06, 2.6009878638433293e-05, -1.772433279256802e-05, 3.0328405955515336e-06, -7.976148481247947e-06, -2.6252714633301366e-06, -9.475306796957739e-07, -3.9308200939558446e-05, 1.4011062376084737e-05, -6.483297966042301e-06, -2.3335389869316714e-06, 8.288741355499951e-07, -1.8272592569701374e-05, -2.7067946575698443e-05, 1.1275786164333113e-05, -2.6228819479001686e-05, 2.396554555161856e-05], [-2.4723289243411273e-05, -1.6801810488686897e-05, 1.0477542673470452e-06, 4.8074657570396084e-06, -5.060282092017587e-06, 4.018998151877895e-05, -3.502348408801481e-05, 1.8941342204925604e-05, -6.79646291246172e-06, -4.143417754676193e-05, 6.561953341588378e-05, 4.465067831915803e-05, 3.405523966648616e-05, -1.473859629186336e-05, -3.780665065278299e-05, -6.511507672257721e-05, -3.4424483601469547e-05, -4.120663652429357e-05, -5.624096957035363e-06, -2.494736236258177e-06, -7.880753400968388e-05, -3.2867152185644954e-05, -7.905338861746714e-06, -1.3347464118851349e-05, 3.425309114390984e-05, 3.412953810766339e-05, -4.100352816749364e-05, -0.0003470808151178062, -3.1424711778527126e-05, 0.0003819070407189429, 6.849604687886313e-05, 8.066113878157921e-06, 4.353848999016918e-05, -3.628671038313769e-05, 5.185120244277641e-07, -0.00010210793698206544, -0.00012200843775644898, 1.3751005099038593e-05, -4.4370099203661084e-05, -5.7034718338400126e-05, 2.6963309210259467e-05, -3.438713611103594e-05, 3.645724063972011e-05, -4.135055860388093e-05, -2.536824467824772e-05, -0.0006121504120528698, 9.420574497198686e-05, -4.648903995985165e-05, -5.210727249504998e-05, -3.392781945876777e-05, -6.480913725681603e-06, -3.999484033556655e-05, -6.407476030290127e-05, -1.4760908015887253e-05, 0.00014053640188649297, -1.981933746719733e-05, -2.8028285669279285e-05, 1.4904793715686537e-05, 7.923516932351049e-06, -5.774979945272207e-05, -4.36435584560968e-06, 1.602652446308639e-05, -9.467991185374558e-05, -1.6546069673495367e-05], [4.6553919673897326e-05, 1.681869434833061e-07, -1.0088224371429533e-06, 0.0001137512008426711, -2.9133734642527997e-06, 9.526612120680511e-05, -6.187770486576483e-05, -7.543922401964664e-05, -0.000195255532162264, -2.036759542534128e-05, 0.0002655606949701905, -2.689455504878424e-05, -0.00022739125415682793, 5.696721200365573e-05, 7.786862624925561e-06, -0.00021806049335282296, -5.0015751185128465e-05, 1.074064402928343e-05, 0.00013795768609270453, 8.463539415970445e-05, -0.00010376382851973176, 0.00011138670379295945, 0.00010292846127413213, -0.0001230727939400822, 8.016231004148722e-05, 8.913400233723223e-05, -0.00010128704889211804, -0.00031399299041368067, 2.8647176804952323e-05, 0.0003014506073668599, 3.1905459763947874e-05, -3.4160097129642963e-05, 5.3130519518163055e-05, -0.0001040731294779107, 4.473215085454285e-06, -8.557956607546657e-05, -8.306090603582561e-05, -4.7532899770885706e-05, -3.2690622902009636e-06, -0.00013925900566391647, 7.073900633258745e-06, 3.699041553772986e-05, 7.820961400284432e-06, -5.31354162376374e-05, -9.138465975411236e-05, -0.0005913727218285203, 6.737795774824917e-05, -6.167434912640601e-05, -4.132636240683496e-05, -0.0001300251460634172, 1.0617784937494434e-05, -0.00014209428627509624, -8.545680611860007e-05, 2.3079343009158038e-05, 0.00012414666707627475, 1.7048223526217043e-06, 8.09065968496725e-05, 5.136002437211573e-05, 3.97879266529344e-05, -0.00017007236601784825, -0.0001769898517522961, -5.254394272924401e-05, -0.00033450991031713784, -0.00013380940072238445], [7.6253309089224786e-06, -1.9038558093598112e-05, -6.6724260250339285e-06, -0.0003549116081558168, -0.00026176715618930757, 0.0003232345334254205, -0.00010347881470806897, -6.23625164735131e-05, -0.00016925846284721047, -8.74427059898153e-05, -0.000190200938959606, 4.389971218188293e-05, 9.341844270238653e-05, 0.00025431610993109643, 3.836129326373339e-05, 8.122652798192576e-05, 7.907103281468153e-06, 2.2872052795719355e-05, -0.00023420661455020308, 9.204850357491523e-05, 0.00016746646724641323, -6.742440746165812e-05, -0.00013036427844781429, 0.0003943998017348349, 0.00046466896310448647, 0.00013336339907255024, -0.00015459989663213491, -5.854501068824902e-05, -0.00017587294860277325, -0.0002565481700003147, 5.259493991616182e-05, 6.400833808584139e-05, -9.256131306756288e-05, -0.0004448247782420367, 0.00015102233737707138, -0.00029053547768853605, -0.0002397293719695881, 0.00029076699865981936, -0.00014926001313142478, 0.00031529832631349564, -9.6894298621919e-05, 4.200280091026798e-05, -0.0004339841543696821, -2.375804069743026e-05, 6.271836173254997e-05, -0.00029135376098565757, -0.0001154300116468221, -6.799040420446545e-06, 0.00031765029416419566, -0.0002826671116054058, 0.00021278284839354455, 4.478251503314823e-05, -0.00039344863034784794, 0.00034280872205272317, -0.00024537526769563556, -0.00011383467062842101, -0.00025850103702396154, 0.0005557498661801219, 2.0698160369647667e-05, 4.802779585588723e-06, -0.0003559064934961498, 3.335527435410768e-05, -1.2381860869936645e-05, 0.00040252821054309607], [0.00034775270614773035, -3.6077690310776234e-06, -2.744511039054487e-05, -0.00067454285454005, 5.5635486205574125e-05, 0.00012879993300884962, -0.00026918447110801935, 0.00015726406127214432, -0.0003576997260097414, -0.0001764878979884088, -7.851122063584626e-05, 0.00017128715990111232, 0.00022805533080827445, 0.000574721023440361, -0.00022998196072876453, -7.433334394590929e-05, -0.0002739965566433966, 6.601154746022075e-05, -0.00015808825264684856, -9.21592436498031e-05, 0.00013778300490230322, 0.0002167211496271193, 0.00024019464035518467, 0.00024069627397693694, 0.0007495225872844458, 0.000579116283915937, -0.0002711385313887149, -0.0006972473347559571, -0.00037188775604590774, -0.0002607343776617199, -4.770173109136522e-05, 0.00029419915517792106, 0.0002713240101002157, -0.00017529301112517715, 1.82056610356085e-05, -0.00014727959933225065, -0.00024396440130658448, -0.0001135334896389395, -0.0002379278012085706, 0.0003160873893648386, 0.0001185660221381113, -3.180332714691758e-05, -1.6427773516625166e-05, 0.0004625386791303754, 1.666988100623712e-05, -0.0002985347236972302, -0.00014191327500157058, -0.0003445754700805992, 0.00011731677659554407, -0.0002005233254749328, -5.977877299301326e-05, -8.939862891566008e-05, -0.00035868375562131405, 0.0007838774472475052, -0.000310949282720685, -0.00024539153673686087, -0.00035191947245039046, 0.0007468978874385357, 2.286491508129984e-06, 0.00036986175109632313, -0.0001431823766324669, 0.00026743015041574836, -0.0007456532912328839, -0.00011351201101206243], [0.00012861758295912296, -0.0009890587534755468, 1.7897211364470422e-05, -0.00026077640359289944, -0.0001439761254005134, -0.0005045583238825202, -0.0007398558664135635, -0.0002625894849188626, -0.0006436544936150312, 0.0003622140211518854, 0.0005372113082557917, -0.0001653394429013133, -8.519702532794327e-05, 2.5474400899838656e-05, 0.0004183296114206314, -0.00038751092506572604, 8.414655894739553e-05, 0.0008728428510949016, 4.8184658226091415e-05, -0.0002297971077496186, 0.00048526519094593823, 0.000508974539116025, 0.0005330829881131649, -0.0005337113980203867, -5.6650755141163245e-05, 0.0005711868871003389, 0.0006945389322936535, 8.399871876463294e-05, -0.00047396152513101697, 0.00045764897367917, 0.0001758755388436839, 0.00022833578987047076, -0.000640834157820791, -0.0012672243174165487, -6.647166446782649e-05, -0.0006663010572083294, -0.0001222520077135414, 0.0001293543173233047, -0.0005384270916692913, -0.00013873973512090743, 0.00014598861162085086, -0.0002417365030851215, -0.0006455624243244529, 0.0003736070648301393, -0.0005583534948527813, 0.00026747878291644156, -0.00014729230315424502, 1.1554919183254242e-05, -0.0004394135903567076, -1.67180915013887e-05, -0.0012176494346931577, 0.0007900402997620404, 0.0003036348207388073, 0.00037758119287900627, 0.00030479434644803405, 0.0003074652631767094, 0.00045561528531834483, 0.0003729006857611239, 0.0005474997451528907, 0.00011053176422137767, -0.0006242373492568731, -0.0002707648673094809, 0.0007831087568774819, 0.00023449664877261966]], [[-8.538196561858058e-05, 0.00039614428533241153, 0.0002443038683850318, 5.351139407139271e-07, 0.00015323670231737196, -8.770880231168121e-05, -7.55625223973766e-05, -0.00013160737580619752, -3.6967830965295434e-06, -4.026650276500732e-05, -9.587348904460669e-05, -0.0001722434681141749, 0.0005709759425371885, -2.8962051146663725e-05, 1.706720286165364e-05, 0.0002882749540731311, -0.0005653907428495586, 0.00018404549336992204, 2.65757626038976e-05, -0.00018337267101742327, -0.00011824430112028494, 8.775813330430537e-05, 0.00018879286653827876, 7.41591866244562e-05, 0.0003147394163534045, 5.414680344983935e-06, -5.275796866044402e-05, 0.0002784717071335763, 9.728304576128721e-05, -0.00048759442870505154, 7.317362178582698e-05, -0.0003760371473617852, -0.00015656990581192076, 4.645968147087842e-05, -0.00019611149036791176, 5.129355486133136e-05, 4.589097443385981e-05, -0.0005289019900374115, -0.0002458620583638549, 0.00026397049077786505, -0.00036297153565101326, -8.172003435902297e-05, -0.0002216914581367746, -0.00024343267432413995, -0.00016387128562200814, -0.0005209607188589871, -4.554397310130298e-05, 8.949856419349089e-05, 0.00017701825709082186, -7.14046909706667e-05, 0.00042829790618270636, -0.00026758061721920967, -4.087431443622336e-05, -2.658343146322295e-05, -1.3417142326943576e-05, -5.705193689209409e-05, -0.00015984228230081499, 4.004030779469758e-05, -8.885962597560138e-05, 0.00019128984422422945, -0.00023422454250976443, 8.154725946951658e-05, 0.0006500756717287004, -5.446758586913347e-05], [-1.1019930745703732e-08, -1.0283979223757456e-09, 1.4788396285325689e-08, -1.7851752298625456e-09, -2.021029565923982e-08, -1.7001361429791473e-09, 2.6718223189448054e-09, -3.3074886829354e-08, -8.44960013068885e-09, -7.017993297608882e-09, -1.357762613451996e-08, 2.0636772291027228e-09, -1.7576653021933453e-08, 5.393061996983306e-09, 9.962070057767392e-10, 3.41513972657026e-09, 2.8709101762558475e-09, -5.2314246268281295e-09, -1.0753901769078311e-08, -8.988216837479968e-10, 4.040191237120183e-10, 1.4228939804183938e-08, 3.5730871594807923e-09, 3.046604746259618e-08, -1.1439343694519266e-08, 1.2239373958777833e-08, -1.651277159453457e-08, -9.641485831934915e-09, -1.0105607017862894e-08, 1.7172181454583324e-09, 1.9975423981577478e-08, 3.956922345338398e-09, -9.488823948800018e-09, -2.6886601389719544e-08, -6.32407148870584e-09, -1.499879687116845e-08, -4.277512719030874e-11, 1.9810940443676373e-08, -4.410980025681965e-09, -9.971504733030656e-10, -1.3440164536859811e-09, -1.8908108856408035e-08, -4.520278196196159e-08, -4.244896933958131e-10, 2.1702537544854295e-09, -2.990433456417918e-10, -9.447523652283962e-09, 3.2288329787633074e-09, -1.674220873049137e-09, -1.4382943724911001e-08, 2.7008399072769862e-08, -2.609450611146258e-08, -1.0647561943244455e-08, 2.3509016955358675e-08, -1.689185502584678e-08, -1.4822052030183386e-08, -2.1785227843906796e-08, 2.4923403785237497e-08, -6.922793893693324e-09, -2.2700172408463004e-08, -4.078601900658896e-09, 1.921602965637703e-08, -2.9410252011530247e-10, 1.3381737384854375e-10], [8.746225965694521e-10, 5.648854539685999e-07, 3.061182951569208e-07, 9.408095706930908e-07, -8.993561664283334e-07, 5.667562419375827e-08, -1.201303092557282e-07, 3.721505947851256e-07, -7.763985649944516e-07, 9.540580094835605e-07, 2.96246611242168e-07, -3.149715439576539e-07, -3.655820137282717e-06, 6.421434477488219e-07, -1.44203966101486e-06, -1.6326810055034002e-06, -7.382471380878997e-07, 6.786239623579604e-07, -1.1623076261457754e-06, 1.100397980735579e-06, 4.910299935545481e-07, 1.2951514918313478e-06, 5.400040663516847e-07, -1.3057087926426902e-06, 5.513043106475379e-07, 5.186396947465255e-07, 9.863433660939336e-07, 2.201946358582063e-08, 1.576972977090918e-06, 5.149250341673905e-07, 1.1695725561366999e-06, -7.123389877961017e-09, -5.527728319520975e-08, 1.6769652688708447e-07, 1.0115202258020872e-06, 4.953189431944338e-07, 7.486550401836212e-08, -1.748273461998906e-06, -6.913445531608886e-07, -3.959619903071143e-07, -1.29576761764838e-07, -6.764322506569442e-07, 1.4418189948628424e-06, -2.175786676161806e-06, -9.788418964262746e-08, -3.639438261870964e-08, 5.851140940649202e-07, -4.543018121694331e-07, 6.931703211421336e-08, -8.365699386558845e-07, 1.0874199460886302e-06, 8.280434258267633e-07, 2.1285357831857254e-07, -9.713861572890892e-07, 6.273520511967945e-07, 2.5708718567329925e-06, 2.0746415430039633e-06, -3.933495520413999e-07, -2.9567047477030428e-08, -8.708644827493117e-07, -6.070463314244989e-07, 1.1719644277263797e-07, -1.2272028016013792e-06, -5.974612236059329e-07], [-2.415440758340992e-05, -5.089394107926637e-06, -8.630885531601962e-06, 6.134085197118111e-06, 7.927142178232316e-06, 2.042802589130588e-05, -9.705075171950739e-06, -8.526890269422438e-06, 4.452780558494851e-06, 4.0988202272274066e-06, 2.0365132513688877e-07, -1.7404094251105562e-05, 7.81985727371648e-06, -1.0275055501551833e-05, 3.408742122701369e-05, -5.58196370548103e-06, -8.812342457531486e-06, 1.8678625565371476e-05, 1.0304660463589244e-05, 2.365245745750144e-05, 1.7243697811863967e-06, 2.6430859634274384e-06, 1.1596247531997506e-05, 4.335579433245584e-06, -1.668876939220354e-05, 2.0964150735380827e-06, 1.8318876755074598e-05, 7.1767235567676835e-06, -7.120351256162394e-06, 0.0003418292326387018, -8.856180102156941e-06, -1.3015906006330624e-05, 4.495560460782144e-06, 3.1908172104522237e-07, -1.8289541912963614e-05, -2.982199930556817e-06, -5.519257229025243e-06, -6.939927970961435e-06, 2.3923570552142337e-05, -9.718585715745576e-06, -2.223739465989638e-05, 1.466379762860015e-05, 2.0901861716993153e-06, 3.508330792101333e-06, -1.0949447641905863e-06, 1.719842316560971e-06, 3.3739297577994876e-06, -8.956441774898849e-07, -2.6715929379861336e-06, -9.620149285183288e-06, 9.968707672669552e-06, 1.2407864232955035e-05, 2.251037130918121e-06, -1.1190135410288349e-05, -1.2633011465368327e-05, 1.3244827641756274e-05, 1.9539464119588956e-05, 3.1668228075432125e-06, 1.1677223483275156e-05, -5.020520802645478e-06, 1.0166395441046916e-05, 4.578832886181772e-07, 7.10927906766301e-06, 2.8972885957045946e-06], [-4.726405313704163e-05, -6.392567593138665e-05, -5.884125494048931e-05, -2.270228651468642e-05, -6.854579987702891e-05, 4.361171886557713e-05, 3.0429870093939826e-05, -3.2771808946563397e-06, 9.178186155622825e-05, -8.723328210180625e-05, 2.8630443921429105e-05, -8.951398194767535e-05, -1.6935653547989205e-05, -8.882999827619642e-05, 6.0812828451162204e-05, 3.506060238578357e-06, 0.0001080093570635654, 4.331166564952582e-05, 0.00012632322614081204, -2.3515895009040833e-06, -8.958786565926857e-06, -1.9352046365384012e-05, 2.9921286113676615e-05, 0.0001456437457818538, -1.6994437828543596e-05, -8.130021160468459e-05, -1.2513980436779093e-05, -0.00018668416305445135, -3.7182460800977424e-05, 0.00027880677953362465, -0.00020445007248781621, 1.6847749066073447e-05, 2.948737528640777e-05, 9.264129403163679e-06, -0.0001798100711312145, -6.980840407777578e-05, 5.884731581318192e-05, 0.00012646480172406882, 4.268255361239426e-05, -3.947949880966917e-05, 8.06909883976914e-06, -4.835432628169656e-05, -2.9943166737211868e-05, 2.713347930693999e-05, 2.3866785340942442e-05, 1.776969656930305e-05, -0.00017424429825041443, -1.7307334928773344e-05, 1.0114425094798207e-05, 3.061086681555025e-05, -7.635316433152184e-05, -8.8747292465996e-05, -2.340616993024014e-05, -6.602521170862019e-05, -4.479380004340783e-05, 0.000150361520354636, -6.676488555967808e-05, 5.746156966779381e-05, 8.789404091658071e-05, -0.0003314779605716467, 0.00015233992598950863, -0.00011455775529611856, -2.234027488157153e-05, -6.26832406851463e-05], [-0.0003756179066840559, -1.343643816653639e-06, 0.00016255529772024602, 0.0002037391677731648, 0.0001965595583897084, 0.00026055690250359476, 0.0002991183428093791, -0.0003149113617837429, -4.134664050070569e-05, 0.00010122308594873175, -0.00021726428531110287, 5.828731082146987e-05, 0.00027758555370382965, 1.7958300304599106e-05, 0.00010616025247145444, -0.0002712802670430392, -7.856909360270947e-05, 0.00016173190670087934, -0.00017953020869754255, 3.027954517165199e-05, -5.9839352616108954e-05, 0.00011334555892972276, 8.300599802169017e-06, 7.820546670700423e-06, -0.0003181188949383795, -0.0001886894751805812, 2.5590135919628665e-05, -0.00011911631736438721, -0.00016242964193224907, -0.0002193509426433593, 2.55391114478698e-05, 0.00010148727596970275, -9.220300853485242e-05, 0.00028018621378578246, 0.0001399604370817542, -0.00020310358377173543, 8.211682143155485e-05, 0.000252772297244519, -0.0002874040510505438, 3.665851545520127e-05, -0.00017716948059387505, 7.300207653315738e-05, -2.479116665199399e-05, 6.216704787220806e-05, -2.3379952835966833e-05, -2.9006685508647934e-05, 0.0003188317932654172, 6.264718831516802e-05, 5.9149293520022184e-05, -0.00034111563581973314, 7.42289048503153e-05, -0.00020843910169787705, 6.116458825999871e-05, -5.8357683883514255e-05, -7.993594044819474e-05, 1.872871143859811e-05, -7.379175076493993e-05, -3.591831409721635e-05, 0.00015939539298415184, -3.8653779483865947e-05, -0.00033896032255142927, -4.9845315515995026e-05, -1.1349558917572722e-05, -0.0002126437466358766], [-0.00011679382441798225, 0.00013381146709434688, 0.0006388738984242082, 0.00040912438998930156, -3.1360730645246804e-05, 0.00037334184162318707, 0.0003025673213414848, 0.0001718736020848155, -0.000103650992969051, -9.877457341644913e-05, 0.0002671305264811963, -3.489952359814197e-05, 0.0002744383818935603, 0.0004539862566161901, 0.0001795266434783116, -7.146556163206697e-05, -2.523986495361896e-07, 0.00042199011659249663, -4.119369259569794e-05, 4.236617678543553e-05, -3.969224417232908e-05, 0.0003075315325986594, 0.00021324316912796348, 0.00026719161542132497, 1.737829006742686e-05, 0.00013705703895539045, -0.00017078060773201287, -0.0005842677201144397, 0.0003746808797586709, -0.00014819462376181036, -0.00016416952712461352, 0.0004802006878890097, 0.00035977154038846493, -1.559191514388658e-05, 5.701663758372888e-05, -0.0003344753058627248, 0.00046220430522225797, 0.0003281917597632855, -0.00040259474189952016, 0.00030507618794217706, 0.0004597708466462791, 0.00015055734547786415, 0.0001743367174640298, 0.0002052699273917824, 0.0001058061679941602, 0.0001462562067899853, 0.0007210139883682132, -2.0892732209176756e-05, 0.00023274120758287609, -4.141672980040312e-05, 0.00036290084244683385, -6.767451122868806e-05, -6.103450868977234e-05, 0.00048611394595354795, -9.546528599457815e-05, 0.00012280329247005284, -0.00038220995338633657, 0.00032964948331937194, 0.00023351226991508156, 0.00014456658391281962, -0.00025098578771576285, 3.7867939681746066e-05, -0.00019671636982820928, -4.936833283863962e-05], [-0.00020415891776792705, 4.3110616388730705e-05, -0.00014533958164975047, -0.00011015628842869774, -0.00013980123912915587, 7.992650353116915e-05, -0.00025445976643823087, -0.00032170521444641054, 4.478095070226118e-05, 0.00021934644610155374, -0.0007333492394536734, 7.765975169604644e-05, -0.0010735461255535483, 6.667277193628252e-05, 9.495990525465459e-05, 0.00019137462368234992, -0.00018758072110358626, -0.0006250918377190828, -3.6727578844875097e-06, 0.00022946303943172097, -4.2248680983902887e-05, 0.00012342969421297312, 0.0005530822672881186, 0.00013558720820583403, -0.0002614301920402795, 0.00023829250130802393, -0.0003295118222013116, -0.00018256512703374028, -0.0003772959753405303, 0.0003490506496746093, 9.743840200826526e-05, -0.00031333131482824683, 0.00022968715347815305, -3.170505806338042e-05, 2.2759937564842403e-05, -7.640010153409094e-05, 4.051715222885832e-06, 7.912772707641125e-05, 0.00029046161216683686, 9.073177352547646e-05, -8.257418085122481e-05, 0.00025297925458289683, 0.00021804956486448646, 0.00014787036343477666, -7.41935073165223e-05, 3.947882214561105e-05, 0.00048741893260739744, 0.000639411504380405, 9.452369704376906e-05, -0.000303012493532151, 0.0005967473261989653, -0.00037686494761146605, -0.00013353905524127185, -6.150985427666456e-05, 0.00028177749481983483, -0.0003067578945774585, -5.436884384835139e-05, -0.00012117516598664224, -0.0001386296353302896, 6.426390609703958e-05, -0.0005619330331683159, 0.00010419256432214752, -3.981564077548683e-05, 8.106435416266322e-05], [-1.1974454992014216e-06, -6.4251576077367645e-06, -3.3522242119943257e-06, -1.9134386093355715e-06, 3.204122549504973e-07, -7.945708944134822e-07, 5.989279998175334e-06, -6.896319746374502e-07, -7.035978342173621e-07, -3.2218249543802813e-06, -6.724089416820789e-06, 7.500487754441565e-06, 6.4457331063749734e-06, -1.828629865485709e-05, -7.785255547787528e-06, 5.029491603636416e-06, -1.936717353601125e-06, 7.337177521549165e-06, 1.8177519450546242e-05, -5.25345012647449e-06, -6.621193278988358e-06, 1.912303105200408e-06, 1.4347260730573907e-05, -7.4232466431567445e-06, -1.8233142782264622e-06, -4.698990323959151e-06, 1.8805465515470132e-05, 2.2752839868189767e-05, 4.27013492299011e-06, 6.516468602058012e-06, -6.922146894794423e-06, -2.237518401670968e-06, -6.3237389440473635e-06, -5.675593911291799e-06, 7.348118288064143e-06, 2.876070084312232e-06, -2.786107415886363e-06, 9.057505849341396e-06, 8.543447620468214e-07, 3.2403295335825533e-07, -2.206704948548577e-06, -6.486504389613401e-06, 1.07312018826633e-06, 1.8917705801868578e-06, 5.68296127312351e-06, 1.3093784900775063e-07, 2.956277512566885e-06, 1.1626081004578737e-06, -1.4504791579383891e-05, 3.269570242991904e-06, -8.102631909423508e-06, 7.2563129833724815e-06, 3.165810653626977e-07, -3.0077146675466793e-06, 5.24856113770511e-06, -3.014382400579052e-06, 3.8194098124222364e-06, -1.8082055248669349e-06, 5.864815648237709e-06, 1.2630652236111928e-05, -2.6945554054691456e-06, -6.864863280497957e-06, 1.4951587218092754e-05, -1.4753728464711457e-05], [-2.843174570443807e-06, -2.5160813947877614e-06, 5.176184458832722e-07, 5.552165930566844e-06, -5.009584128856659e-06, 2.931223662017146e-06, 3.755919351533521e-06, -3.940481292374898e-07, 1.4557745089405216e-06, -7.897626346675679e-06, -1.4755742085981183e-05, 1.520626392448321e-05, 1.718809835438151e-05, 1.6368744581995998e-06, -4.6898330765543506e-06, 2.6209756470052525e-05, 1.7095500197683577e-06, 7.868347893236205e-06, 2.2808631911175326e-05, -3.7801205508003477e-06, -7.888939762779046e-06, -5.584675818681717e-06, -1.8383911083219573e-05, 1.2471537047531456e-05, 1.126832103182096e-05, -1.087040982383769e-05, 2.2505675588035956e-05, 2.038390448433347e-05, 8.821402843750548e-06, 8.415199772571214e-06, -1.6503090591868386e-05, -7.093403837643564e-06, -1.1379466968719498e-06, 2.5110632577707293e-06, 1.1533742508618161e-05, 5.029346539231483e-07, -4.399112640385283e-06, 2.071907147183083e-05, -1.714711106615141e-05, 2.4765988200670108e-05, -2.4444263999612303e-06, -3.5151924748788588e-06, 8.84048222360434e-06, -2.0347765712358523e-06, 4.739273208542727e-06, -1.101362613553647e-06, 1.0733583621913567e-05, 2.0535946532618254e-05, -8.58678322401829e-06, -7.014899892965332e-06, 4.297676059650257e-05, 1.3478244909492787e-05, 8.46099737827899e-06, 4.808991889149183e-06, -4.571397312247427e-06, -1.6086671166704036e-05, 1.4788229236728512e-05, 8.849247024045326e-06, -1.4545947124133818e-05, 1.959835208253935e-05, 7.5894677138421685e-06, -4.0493068809155375e-07, 3.694366023410112e-05, 3.3410008200007724e-06], [1.8369257304584607e-05, -5.9861667978111655e-06, -5.442343535833061e-05, 9.76552655629348e-07, 1.4862680473015644e-05, 3.178129190928303e-05, -3.7987101677572355e-05, 4.071576404385269e-05, -5.986162068438716e-05, 2.4910048523452133e-05, 8.543920557713136e-07, 1.6439098544651642e-06, -2.0728512026835233e-05, 6.340946856653318e-05, 1.9627776055131108e-05, 1.4842980817775242e-05, -3.711952376761474e-05, 7.094145075825509e-07, 0.00013839306484442204, 3.881971133523621e-05, 3.375120650161989e-05, 6.77022326271981e-05, -7.48813763493672e-05, -1.0107468369824346e-05, 0.0001078560744645074, 7.519957580370829e-05, 5.754460289608687e-05, -3.623090742621571e-05, -1.0639931133482605e-05, -5.1836148486472666e-05, 5.1176786655560136e-05, -8.074712241068482e-05, 2.414000300632324e-05, -5.0711176299955696e-05, -2.0122932255617343e-05, 6.383288564393297e-06, -3.922001633327454e-05, 0.00014629679208155721, -3.192790609318763e-05, -5.8382338465889916e-05, -9.430749923922122e-05, 6.780270632589236e-05, 6.663109525106847e-05, 6.2850554058968555e-06, 5.387762939790264e-06, 5.393842002376914e-05, -3.7901703763054684e-05, 5.506709203473292e-05, -3.4098411560989916e-06, -2.3036713173496537e-05, -2.88649298454402e-05, 5.161490116734058e-05, 1.9932776922360063e-06, -4.393405470182188e-05, -1.9886003428837284e-05, -4.8781086661620066e-05, 2.179585862904787e-05, -6.352285708999261e-05, 3.158161052851938e-05, 2.6682333555072546e-05, 1.2529402738437057e-05, -2.64985574176535e-05, -5.224115739110857e-05, 3.78847325919196e-05], [-3.895178087987006e-05, 4.6170371206244454e-05, 0.00013701937859877944, 0.00010230154293822125, 7.490673397114733e-06, 5.549755951506086e-05, -5.264735227683559e-05, 1.2364671420073137e-05, -0.00015240338689181954, -2.9691231247852556e-05, 2.357641642447561e-05, -8.229997183661908e-05, -6.66419873596169e-05, 6.37719058431685e-05, 8.584605893702246e-06, 1.0413878044346347e-05, -4.213525244267657e-06, 5.914523353567347e-05, 0.00018818292301148176, 6.166262755868956e-05, 8.307145617436618e-05, 6.737967487424612e-05, -8.486915612593293e-05, -3.302397090010345e-05, 0.00023547015734948218, 5.5949785746634007e-05, 4.620619802153669e-05, 7.57012894609943e-05, 5.8784167777048424e-05, 8.349744166480377e-05, -0.00011696261935867369, -5.5246557167265564e-05, 3.4706448786892e-05, 8.450946916127577e-05, -5.611086817225441e-05, -1.7467820725869387e-05, -2.5672004994703457e-05, 0.00012227383558638394, -0.0001246921019628644, -4.299331340007484e-05, -0.00018111859390046448, 7.224103319458663e-05, 4.609728421200998e-06, -4.482837175601162e-05, -6.115409632911906e-06, 7.214584911707789e-05, -9.705160482553765e-05, 2.7035137463826686e-05, 5.419786612037569e-05, -9.091796528082341e-05, 7.196493970695883e-05, -9.641963515605312e-06, 2.927390596596524e-05, 1.9596103811636567e-05, -0.00012970766692887992, -7.23462289897725e-05, 0.00015310753951780498, -8.335930033354089e-05, -3.7623638490913436e-05, -0.0002019809908233583, 6.694674084428698e-05, 4.0586324757896364e-05, -7.640843978151679e-05, 0.00011911812180187553], [-0.00010399060556665063, -0.00015204348892439157, -1.0266470781061798e-05, -8.161443111021072e-05, -3.34745564032346e-05, -8.33013400551863e-05, 0.0001672701764618978, -0.00038921271334402263, -0.00026294271810911596, -6.17393889115192e-05, 0.00030001625418663025, 0.00034009269438683987, 0.00010567568824626505, 0.00021397134696599096, 0.00047839610488153994, -0.00030454277293756604, -4.795438144356012e-07, 0.00011789666314143687, -9.69816610449925e-05, 0.0003038692520931363, 0.0003046404744964093, -4.0645980334375054e-05, -0.0003750006144400686, 0.000437091599451378, 0.0005430726450867951, 6.710979505442083e-05, -0.0001231818023370579, -3.666944394353777e-05, 1.7172787920571864e-05, -0.00014782854123041034, 0.00011028479639207944, 0.00013638158270623535, 1.2759555829688907e-06, 2.3905849957372993e-05, -0.0004269898636266589, -1.4494507922790945e-06, 1.0122654202859849e-05, 0.00032898178324103355, -0.00021942853345535696, 0.000530779710970819, 0.00011284290667390451, 0.00012280402006581426, -5.568565757130273e-05, 3.651463339338079e-05, -0.00016277878603432328, 0.00010102933447342366, -6.359624967444688e-05, 0.00026752028497867286, 0.00021569940145127475, -0.00024002118152566254, -4.8794259782880545e-05, 0.00013537316408473998, -0.0003360563423484564, 0.0002530087949708104, -0.0003038400027435273, -0.00015694893954787403, -0.00015981122851371765, 0.00033675754093565047, 4.963016544934362e-05, 9.407143807038665e-05, -0.00028424637275747955, 0.00013242058048490435, 0.0002123498561559245, 7.500554056605324e-05], [-0.0004258971894159913, -0.0007948604179546237, -0.00014553895744029433, 0.00034944250364787877, 0.0003436369588598609, 0.0002604143519420177, 0.000450807623565197, -0.0002289572439622134, -0.00025198672665283084, 6.5660584368743e-05, 0.0002820879453793168, 0.0005051727057434618, 0.0005445725400932133, 0.0009188423864543438, 0.00023818190675228834, -0.00013225854490883648, 3.3861128031276166e-05, 0.00020478965598158538, -0.0002961617719847709, -2.780715294647962e-05, 0.0002495001535862684, 9.901932207867503e-05, -3.051848034374416e-05, -3.073572588618845e-05, 0.0006615735474042594, 0.00024289257999043912, 0.000107965650386177, 0.0001777868892531842, 0.00018586090300232172, -0.00041841971687972546, -0.00019846382201649249, 0.00031430728267878294, 4.794053529622033e-05, 9.74473514361307e-05, -0.00029359885957092047, 0.00022025541693437845, 0.0005065738223493099, 0.0003500728344079107, -0.00029871304286643863, -0.00016879139002412558, 0.0004107044660486281, 6.906341877765954e-05, 0.0002994078095071018, -1.9636732758954167e-05, -1.0596308129606768e-05, 0.00040846242336556315, -7.69345133448951e-05, 0.00044708477798849344, -0.00018010521307587624, -9.425159078091383e-05, 0.0001047666446538642, 0.00035586964804679155, -0.0003432894009165466, -0.00018540790188126266, -0.00011605035979300737, 5.0420720071997494e-05, 0.00027268577832728624, -8.559836714994162e-06, 4.54938635812141e-05, 0.00027915617101825774, -0.0002871654578484595, 0.00022586174600291997, -6.986375228734687e-05, 0.00048090319614857435], [-1.954031176865101e-05, -0.0008297135354951024, 7.902277866378427e-05, -0.0003056551213376224, -0.0002033965429291129, -0.0004969203728251159, -0.000715197587851435, -0.0003168978146277368, -0.0007317512645386159, 0.0004620096005965024, 0.0005021884571760893, -0.00025337975239381194, -0.00017257021681871265, -7.683617150178179e-05, 0.00043773275683633983, -0.0005480728577822447, 0.0001512908493168652, 0.0006335703656077385, 9.59452663664706e-05, -0.0002939781697932631, 0.0003586753737181425, 0.0004036793834529817, 0.0006382443243637681, -0.00044069389696232975, -0.00010447460954310372, 0.0005729746189899743, 0.0007463729125447571, 7.333874236792326e-07, -0.00037206741399131715, 0.000644621264655143, 0.00016493897419422865, 0.0003050081431865692, -0.0006918997969478369, -0.001248844899237156, -1.4276884030550718e-05, -0.0006217843620106578, -6.740086246281862e-05, 0.00018792915216181427, -0.000614901480730623, -0.00017021200619637966, 0.00011542885476956144, -0.000238070817431435, -0.0005045218858867884, 0.0002355179749429226, -0.0006894772523082793, 0.0001940040965564549, -0.00013142569514457136, -1.920234353747219e-05, -0.0003968771197833121, -0.00010339674190618098, -0.0012413831427693367, 0.0008505989098921418, 0.0003265615669079125, 0.000347699475241825, 0.00022558588534593582, 0.00029212087974883616, 0.0004438667092472315, 0.00033065458410419524, 0.00043405540054664016, 6.056697748135775e-05, -0.0006898831925354898, -0.0002482136187609285, 0.0007432014681398869, 0.00022361119044944644]]], [[[0.00032908591674640775, 0.00012283909018151462, 3.601064963731915e-05, -0.0003026060585398227, -0.00039073251537047327, -0.00017930433386936784, 0.00019039376638829708, -6.687403947580606e-05, 0.00020438097999431193, 8.482630073558539e-05, 0.000315106037305668, 0.0003172967699356377, 0.000544638663996011, 0.00057694484712556, 0.0002714353031478822, -0.00019733542285393924, -0.0002718096075113863, -0.0006276407511904836, 0.0002464419521857053, 0.00013762913295067847, 0.0002011080359807238, -0.00017414535977877676, 0.0003117278392892331, 0.00019261587294749916, 0.0006708531291224062, 0.0005452574696391821, -0.0006395112141035497, 0.00038992275949567556, -0.00037484103813767433, -0.00029508292209357023, -2.603546454338357e-05, 0.00017420081712771207, -6.086025678087026e-06, 0.0006438657874241471, -0.00021712858870159835, 3.744322748389095e-05, 0.0004181968979537487, 0.00035620658309198916, -0.0004309320356696844, 0.0006126725347712636, -0.00031929422402754426, 0.0004018403124064207, -0.0001488148991484195, 0.00012419131235219538, -3.026184276677668e-05, -0.000655374547932297, -0.0005075515946373343, 0.00036323670065030456, 3.926974750356749e-05, -4.15774411521852e-05, 0.0004004817456007004, -9.869741916190833e-05, -0.000329751695971936, 5.560409772442654e-05, -0.0003318579401820898, -0.0003074254491366446, -0.00028548308182507753, 0.00037833722308278084, 3.659631602204172e-06, -0.0001878761249827221, -0.0005588710773736238, 0.00026168941985815763, -0.0002745634992606938, 0.00045582582242786884], [-2.0954139756668155e-08, 2.6073248005076266e-09, 3.0172155884855556e-09, 9.402238987377132e-09, 5.479367626293197e-09, 5.8614624265374e-10, -3.0855127342022115e-09, 9.367306041951906e-09, -5.800258495725075e-09, 5.708058026243634e-09, 1.30248012375489e-09, -1.9072936563446774e-09, 2.552393185695223e-09, 2.9364571885182045e-10, -1.9087005753704034e-08, -2.3479104882540014e-08, 6.31382368609934e-09, -3.5450176127937993e-10, -6.403516827901967e-09, -1.8833949955165963e-09, -2.407992027997352e-08, -4.7937160907451926e-09, -2.5954017601748092e-08, -3.5765779671237397e-08, -8.281333840898242e-09, 6.421596587813383e-09, -1.0665207383908637e-08, -2.9047189098463377e-09, -2.3294290940611972e-09, -1.6303052241539717e-09, 2.5655271684854597e-08, 2.739089133285688e-08, -3.3591645021147087e-09, -7.672463775421079e-10, -3.2420397477750384e-09, -4.021470267900895e-09, 1.3399463760777053e-09, -2.4720264946154202e-08, 3.5477581983300865e-10, -6.197508617411529e-10, 2.538161680831763e-09, 2.297918655358444e-08, 5.311404649432916e-09, -1.039013142190015e-08, -3.426743999668247e-09, -3.7455212265058435e-09, 1.534394300506392e-08, -1.496886170571088e-08, 1.530338411548371e-09, -1.6334400498863033e-08, 7.390339451518457e-09, 2.7972561156275333e-08, 1.342446953600529e-08, 1.6003674774278664e-10, 8.080988322944904e-09, 3.02924760831047e-08, -2.9993942884942726e-09, -3.2276712413903397e-09, -4.680356102682026e-09, 2.8616899960809405e-09, 2.1127878113702536e-08, 5.839753924874458e-08, -5.767416766389033e-09, 7.903589782642939e-09], [5.894776791137701e-07, 4.233064032632683e-07, 3.6228624367140583e-07, -5.206746891417424e-07, -5.172504415895673e-07, -8.77345769367821e-08, -1.47128389471618e-08, -8.272244826912356e-07, 8.904784749574901e-07, -8.494567964589805e-07, 1.9820556644845055e-06, 2.0102461348869838e-06, 1.3789324384561041e-06, -6.384876201082079e-07, -2.6709274152381113e-06, -6.489982524726656e-07, -4.807895379599358e-07, 3.607620101320208e-06, 4.580099641771085e-07, -2.15140431691907e-07, -3.3236865419894457e-06, 3.7193913726696337e-07, -1.7490036441358825e-07, 3.9565867382407305e-07, -1.5277370835065085e-07, 2.687645519472426e-07, -1.1239666264373227e-06, -1.0180854133068351e-06, 6.703676831421035e-07, 7.879119948484004e-06, -1.7165551753350883e-06, 9.865602805803064e-07, -2.7434631988398905e-07, 1.392539388689329e-06, 2.2362853542290395e-06, 5.089344767839066e-07, -1.982921276066918e-06, -5.712344091080013e-07, 9.436507184545917e-07, -2.688832182684564e-06, 3.541146611496515e-07, 9.36893115977e-07, 1.7188509673360386e-06, -4.6276693410618464e-07, 2.974953986267792e-06, -2.0972441916455864e-07, 3.6669916880782694e-06, -9.308295716436987e-07, -2.711341039685067e-06, 2.4737330477364594e-06, 1.4545894373441115e-06, 1.5826403796381783e-06, -3.0054129638301674e-06, 1.0313893881175318e-06, 2.2389019704860402e-06, -4.0569591419625795e-07, 3.1642532576370286e-06, -2.986904519275413e-07, 3.702702713326289e-07, 1.2480210216381238e-06, -2.565012209743145e-06, -7.956853096402483e-07, -1.774029215084738e-06, -3.3264620924455812e-06], [2.6737336611404316e-07, 6.543143626913661e-08, 3.790660684899194e-06, 3.656682565633673e-07, 1.107707794290036e-05, 1.6508794942637905e-05, 1.37856868605013e-05, -1.942545850397437e-06, 1.5893499949015677e-05, 8.272200830106158e-06, 2.087756001856178e-06, -1.1236123100388795e-05, 4.838911991100758e-06, 4.99581619806122e-06, 4.546968284557806e-06, 8.130330570566002e-06, 1.658375549595803e-05, 4.53466373073752e-06, 2.5601621018722653e-06, -4.532069397100713e-06, -9.392048013978638e-06, -1.2140676517446991e-05, -2.0829971617786214e-05, 2.3048161892802455e-05, -4.187213562545367e-06, -7.10154290572973e-06, -1.9187646103091538e-05, 5.84160334256012e-05, 7.618233212269843e-06, -3.0920462450012565e-05, -1.2485686966101639e-05, 4.64224285678938e-08, 2.0390889403643087e-05, -1.0439185643917881e-05, -4.776408786710817e-06, -8.492040251439903e-06, 2.53980897468864e-06, 1.7890067738335347e-06, -7.6272735896054655e-06, 6.30929116596235e-06, 1.8988910596817732e-05, -1.0054097401734907e-05, 9.422979928785935e-06, 2.47997377300635e-07, 8.6395748439827e-06, 3.209877377230441e-06, 9.829851478571072e-06, 4.855945007875562e-06, -2.8107547223044094e-06, 1.0411410585220437e-05, 2.9630831704707816e-05, -1.533620888949372e-05, -2.3042473912937567e-05, 5.616506314254366e-06, 1.4824985555605963e-05, -1.639999754843302e-05, 2.0883355318801478e-05, 2.154842331947293e-05, -8.558172339689918e-06, 1.3982476957608014e-05, -6.0270972426224034e-06, -4.233839263179107e-06, 3.134602229692973e-05, 2.473801032465417e-06], [5.8009747590404004e-05, -3.113871207460761e-05, 5.1803039241349325e-05, -7.762853056192398e-05, -7.484589878004044e-05, 1.9175764464307576e-05, 0.0001361538888886571, 5.489698378369212e-05, -1.6989619325613603e-05, 0.00010495586320757866, 4.204845754429698e-05, -0.0001241606951225549, 8.075519872363657e-06, 9.775361831998453e-05, 0.00015442240692209452, 1.5206787793431431e-05, 2.7805479476228356e-05, -0.00013224632130004466, 5.048661114415154e-05, 7.27789374650456e-05, -1.5519395674346015e-05, 8.783872908679768e-05, 7.426828233292326e-05, 0.00013751687947660685, -7.129675941541791e-05, -2.3378077457891777e-05, 5.126722498971503e-06, 3.450176154728979e-05, 8.867605356499553e-05, -0.0002305015514139086, 2.5253300918848254e-05, -0.0003336964291520417, 5.1835173508152366e-05, -3.84515878977254e-05, -4.508945130510256e-05, -0.00012556437286548316, 2.5988887500716373e-05, 6.81516612530686e-05, 4.551765596261248e-05, -1.190727562061511e-05, -5.11781036038883e-05, -0.00013311469228938222, -1.9306120520923287e-05, -0.000160350144142285, 0.0001657046959735453, 0.0001756784040480852, -0.00021598106832243502, -1.4714749340782873e-05, -1.4421602827496827e-06, 5.849743047292577e-06, 3.053932232432999e-05, -0.00010019592446042225, 1.4193174138199538e-06, -0.00010687505709938705, -7.68981990404427e-05, -3.2025007385527715e-05, -1.3389653759077191e-05, 5.9832171245943755e-05, 8.973933290690184e-06, -8.94276745384559e-05, -6.485948688350618e-05, -2.2274381990428083e-05, 4.113392787985504e-05, 4.087139313924126e-05], [6.682306411676109e-05, -4.303540481487289e-05, 1.953519313246943e-05, -0.00013121843221597373, -0.00034808932105079293, 1.7659440345596522e-05, 0.00021239215857349336, 0.0001688695338089019, -4.019106563646346e-05, -0.0001211247144965455, -0.00021912914235144854, -0.00010074827878270298, 7.702999573666602e-05, -8.830188016872853e-05, -2.7855130610987544e-05, 0.00018136383732780814, 7.187373557826504e-05, -8.695427095517516e-05, -6.15852841292508e-05, -0.00010183129052165896, 0.00027444225270301104, -0.00023066418361850083, 0.0001733645622152835, 0.00019810313824564219, -1.532842725282535e-05, 2.9749440727755427e-05, -5.8462421293370426e-05, 1.5958299627527595e-05, 0.00019040187180507928, 1.804075509426184e-05, -4.635026562027633e-05, -0.0001937553024617955, -1.499160862294957e-05, 0.00026228578644804657, 5.353771848604083e-05, -4.672833165386692e-05, 1.0159696103073657e-05, -6.699602818116546e-05, 0.00025288877077400684, 0.00018322226242162287, -4.9504746129969135e-05, -0.0001210952177643776, 5.9754729591077194e-05, -5.391384183894843e-05, 0.0001002524804789573, -0.00011063687270507216, 9.589010005583987e-05, -1.544305996503681e-05, 8.06317912065424e-05, 0.00019602527027018368, 0.00022801742306910455, 9.112492261920124e-05, -4.030568015878089e-05, -0.00012777397932950407, -9.1492613137234e-05, -7.618906238349155e-05, 8.449061715509742e-05, -0.00012391310883685946, -3.920136805390939e-06, -6.534311251016334e-05, 0.0002920461702160537, -7.584225386381149e-05, -0.00014745308726560324, 8.227095531765372e-05], [0.00020073937776032835, -0.00013619371748063713, 3.7210505979601294e-05, 0.0002557368716225028, -9.891018271446228e-05, 0.000529536628164351, -8.847135177347809e-05, 6.762602424714714e-05, -0.00023224999313242733, 0.000231665326282382, -1.9813422113656998e-05, -0.00022935718880034983, -9.595751180313528e-07, -0.00012308415898587555, -0.00011972129868809134, -0.0002020512765739113, -0.00012349993630778044, 0.00028734432999044657, 0.0002846465795300901, -0.0002243264898424968, 0.00016723044973332435, -0.0003156975726597011, 3.638067573774606e-05, 0.00022015950526110828, -8.445366256637499e-05, -0.0003003787714987993, -0.00010789939551614225, 1.0932490113191307e-06, 0.0005923011340200901, 0.00020794011652469635, -0.0005212848191149533, -8.977716061053798e-05, -0.0006379762198776007, -9.26486318348907e-05, 0.00010634176578605548, -0.00015704699035268277, 0.0004480418283492327, -0.00030244101071730256, 2.887521986849606e-06, 0.00013239156396593899, 0.00044373335549607873, -0.000533967511728406, -0.0003629694692790508, 0.00011638177966233343, 0.00043671843013726175, 0.0005109615158289671, -0.0004049885901622474, -0.0002813498140312731, -8.183400495909154e-05, -0.00018763613479677588, 0.00024108790967147797, 2.6795867597684264e-05, -0.0002456619404256344, -0.00037747941678389907, -0.000749314553104341, 0.0003925524069927633, -0.0002676749136298895, 0.00016084074741229415, -7.4057315941900015e-06, -0.0001454832818126306, 0.0005054828943684697, -0.0004358169680926949, -0.0003454016987234354, -0.00035436428152024746], [0.00023907974536996335, 0.001245113555341959, 4.1176033846568316e-05, 0.00014824031677562743, -0.00036436246591620147, -0.00028442894108593464, 3.4402808523736894e-05, 0.00040540890768170357, -5.867834261152893e-05, 0.00021999193995725363, 0.00034135644091293216, 3.638159250840545e-05, -0.0005637747817672789, 0.0009750131284818053, 0.000462404394056648, 0.0001050818245857954, 4.4712433009408414e-05, 2.470764229656197e-06, -0.0008850473095662892, -0.000552212935872376, 0.0006083110347390175, 0.0003008089552167803, 0.0006251335144042969, 0.0007906488608568907, -0.00019910965056624264, 0.00027132086688652635, 0.0005534473457373679, 0.00030860956758260727, 0.00025303204893134534, -7.677116082049906e-05, 0.00011332733265589923, -0.00021455236128531396, 0.00033023138530552387, -5.25135692441836e-05, 0.0006371265626512468, -0.00020260625751689076, 5.013297777622938e-05, -7.151007594075054e-05, -0.00033061407157219946, 0.0004121065139770508, -0.0004974338808096945, 9.11460374481976e-05, -0.00023550540208816528, -9.520429011899978e-05, -0.0006770617328584194, -0.00017920538084581494, 0.0003084372729063034, 0.0007342049502767622, 0.0003908197395503521, -0.0002248358796350658, 0.0007533322204835713, 0.00019407144282013178, 0.0004764991463162005, -0.0003126715891994536, -0.0002316486497875303, 0.00013959567877463996, 9.458228305447847e-05, -0.00042074924567714334, -0.0001447372487746179, -0.00044524294207803905, -0.0005671235267072916, 0.00021718846983276308, 0.0009813616052269936, 2.0359180780360475e-05], [1.2516452443378512e-06, -1.0309736353519838e-07, 2.6730604076874442e-06, 1.0337991625419818e-05, 3.851818291877862e-06, -5.994049843138782e-07, 1.465878085582517e-06, 2.0926723664160818e-05, -8.576257641834673e-07, -5.387757028074702e-06, -8.0297832028009e-07, -9.522647815174423e-06, 1.2340591638348997e-05, 6.234960437723203e-06, 9.953222615877166e-06, 4.004512902611168e-06, -3.209275064364192e-06, 4.983325652574422e-06, 1.3372619832807686e-05, 2.3624306777492166e-06, -6.312373898254009e-06, 2.6222620363114402e-05, 4.951083610649221e-06, 1.3231707498562173e-06, -2.049556769634364e-06, 6.059482302589458e-07, 1.540642188047059e-05, -1.0459457371325698e-05, 5.907967533858027e-06, -0.00012222101213410497, 1.2515716889538453e-06, 2.112595029757358e-05, 8.81181586009916e-06, -1.537361981718277e-06, -5.523726031242404e-06, -6.686185770377051e-06, -1.3558287719206419e-05, 9.832453542912845e-06, 1.209004403790459e-05, -1.7191836377605796e-05, 1.8321734387427568e-06, -1.9877563772752183e-06, 1.368783887301106e-05, -1.3988767932460178e-05, -5.4719557738280855e-06, -1.9838089428958483e-06, -1.206007982545998e-05, 4.229338628647383e-06, -3.926234512618976e-06, 1.1667895705613773e-05, -5.282841357256984e-06, -2.020741931119119e-06, 1.673702718107961e-05, 1.054306085279677e-05, 9.743864211486652e-06, 1.5238239939208142e-05, 4.750274911202723e-06, 3.5610335089586442e-06, 2.7349383344699163e-06, -3.012713705174974e-06, 9.78029038378736e-06, 4.209942744637374e-06, -9.5723962658667e-06, 1.4578245099983178e-06], [2.2259368961385917e-06, -2.56922385233338e-06, -6.394617685145931e-06, 9.862128536042292e-06, 6.532218321808614e-06, 1.0522546745050931e-06, -1.3745623618888203e-05, 1.5126537618925795e-05, -2.528577169869095e-05, -7.627124887221726e-06, 5.369946848077234e-06, -2.522750037314836e-06, -4.2555591790005565e-05, 2.4717748601688072e-05, 2.5757113689905964e-05, 7.748945790808648e-06, -2.923321517300792e-06, -5.523895652004285e-08, 4.2494346416788176e-05, 2.425624188617803e-06, 3.60284757334739e-05, 1.133606110670371e-05, -3.841309080598876e-06, 1.178487082142965e-06, 4.9378786570741795e-06, -8.554380656278227e-06, 9.432653314433992e-06, -6.662060513917822e-06, 7.287002517841756e-06, -0.00010807672515511513, 6.9771826929354575e-06, 1.2228552805026993e-05, 6.1439641285687685e-06, -1.4775532690691762e-05, 7.271662070706952e-06, -1.8248701962875202e-06, -8.242505828093272e-06, 1.684690869296901e-05, 8.226640602515545e-06, -1.1187290510861203e-05, 1.7687732906779274e-05, 2.9662369342986494e-05, -3.441191211095429e-06, -1.671710742812138e-05, -5.245740794634912e-06, -3.3382261790393386e-06, -4.466708105610451e-06, 8.141166290442925e-06, 2.320496605534572e-06, 2.262296220578719e-06, 2.770320134004578e-05, -2.932662027888e-05, 1.0680942978069652e-05, 8.225688361562788e-06, 6.687238055747002e-06, 1.8202015326096443e-06, 1.078573041013442e-05, 1.6208992747124285e-05, -1.5492238162551075e-05, -1.628209702175809e-06, 1.531974339741282e-05, 7.419220310111996e-06, -8.287756827485282e-07, 2.111427966156043e-05], [1.9922328647226095e-05, -4.1634502849774435e-06, -1.3309131645655725e-05, -5.83809960517101e-05, 3.33527204929851e-05, 6.904848851263523e-05, 1.960657027666457e-05, -8.371421245101374e-06, 4.821508264285512e-05, 4.94658961542882e-05, 2.0963987481081858e-05, -3.4859709558077157e-05, -2.63035180978477e-05, 2.1494357497431338e-05, -5.6229753681691363e-05, 3.261482561356388e-05, 3.8765174394939095e-06, 1.2588066965690814e-05, -2.9692930183955468e-05, -7.21933101885952e-05, -5.653345215250738e-05, -1.0674189070414286e-05, -2.585497531981673e-05, 8.467359293717891e-07, 3.622442454798147e-05, 5.18064116477035e-05, -1.9192355466657318e-05, -2.7738578864955343e-05, 2.2951771825319156e-05, 0.00017803465016186237, 9.68690073932521e-06, 2.090535417664796e-05, -1.724340472719632e-05, -1.809620334825013e-05, 1.1611238733166829e-05, -1.162962507805787e-05, -2.8515576559584588e-05, -5.392551247496158e-05, 1.3084800229989924e-05, -5.690166290150955e-05, 8.683750820637215e-06, -2.0753686840180308e-06, 5.066721132607199e-05, 5.459925523609854e-05, 1.8083484974340536e-05, 0.0002410865854471922, -3.943670162698254e-05, 4.2509320337558165e-05, -1.1751038073271047e-05, -2.390282134001609e-06, -6.0123995353933424e-05, -7.024953083600849e-05, 2.5625246053095907e-05, -9.19027479540091e-06, 5.195336416363716e-05, 2.396071795374155e-05, 4.538658686215058e-05, 1.058519774232991e-05, 4.0902763430494815e-05, 5.0403567001922056e-05, -3.8335801946232095e-05, -2.574736572569236e-05, -2.780714930850081e-05, -8.097514364635572e-05], [-5.964835509075783e-05, 3.782234125537798e-05, -0.00013954020687378943, -6.641082291025668e-05, -4.7675443056505173e-05, 0.0001840563490986824, 6.236320768948644e-05, -3.819508492597379e-05, 1.4968775758461561e-05, 8.22436559246853e-05, 4.853021528106183e-05, -9.562889317749068e-05, -1.4543329598382115e-05, 4.451902350410819e-05, -1.0041394489235245e-06, 9.928309009410441e-05, -7.619601092301309e-06, -1.8467966583557427e-05, -7.59485483285971e-05, -9.782363486010581e-05, 0.000275622820481658, 2.01769798877649e-05, -0.0001985829439945519, 8.779310883255675e-05, -1.4722216292284429e-05, 2.211725768574979e-05, -2.4634311557747424e-05, -0.0002669447276275605, 8.690226968610659e-05, -0.00010461415513418615, 2.120246244885493e-05, 0.00018914276733994484, -7.845101208658889e-06, -5.5834905651863664e-05, 0.00014456322242040187, -4.5252534619066864e-05, 1.6162819520104676e-05, -1.941854861797765e-06, -7.345929043367505e-05, -2.101020800182596e-05, -6.508672959171236e-05, 6.884626054670662e-05, -1.5255318430718035e-07, 2.4324235710082576e-05, 3.900078445440158e-05, 0.00030112298554740846, -6.2252685893327e-05, 8.01973365014419e-05, -5.7068744354182854e-05, 5.0930484576383606e-06, 4.579525193548761e-05, 0.00013993681932333857, 7.376878056675196e-05, 2.1193709471845068e-05, 3.0331058951560408e-05, 5.361597868613899e-05, 2.833746293617878e-05, 5.156396946404129e-05, 1.4614306564908475e-05, 6.240695074666291e-05, 6.37178382021375e-05, -7.119993097148836e-05, -0.00013361565652303398, 8.514263754477724e-06], [-2.4299803044414148e-05, -6.41012447886169e-05, -5.404134208220057e-05, -0.00033384672133252025, -0.00033417559461668134, 0.00020806374959647655, -0.0002477116941008717, -4.1794570279307663e-05, -0.00025181318051181734, 0.00014768890105187893, 3.1836811103858054e-05, -1.679973502177745e-05, -0.00018006391474045813, -0.00015283537504728884, 0.00020652894454542547, -0.00010810070671141148, 0.00013458231114782393, -9.510222298558801e-05, -0.0005335433525033295, -0.00018196585006080568, 0.0003841038851533085, -0.0002730183186940849, -0.00022886959777679294, 0.0003514557611197233, 0.00017081464466173202, 0.00020185252651572227, -5.688120290869847e-05, 0.00023583797155879438, 0.00017081965052057058, 3.741487489605788e-06, -0.00011122108844574541, 0.00014820709475316107, -0.0003101915935985744, -4.866596282226965e-05, 0.00016328098718076944, -0.0002090923662763089, -0.0001610675681149587, -6.790629413444549e-05, -2.5843582989182323e-05, 3.828352055279538e-05, 0.00016580591909587383, -0.0001529872533865273, 0.00018055638065561652, 0.0002698985917959362, 3.99565469706431e-05, -9.289103036280721e-05, 0.00011674514098558575, 0.0003027680504601449, 6.383959407685325e-05, -0.0001529954606667161, 9.691608283901587e-05, 0.0002068866597255692, -0.000301957392366603, 0.0002445088466629386, -0.0004548982542473823, 0.00010641491098795086, 0.0002147173072444275, 7.371112587861717e-05, -0.00019464650540612638, 0.0003063002950511873, -0.0002841681707650423, -8.957205864135176e-05, 0.0003965838404837996, -3.5022429074160755e-05], [-0.0001086365373339504, -0.0003357941750437021, -5.6907112593762577e-05, 3.749669122043997e-05, -0.00030387906008400023, 7.766361522953957e-05, -0.0003924892807845026, -0.000496136024594307, 2.207031320722308e-05, -3.623518568929285e-05, 0.00010087463306263089, -5.774223245680332e-05, -0.00011384710523998365, -0.0001614836510270834, 0.00011369524145266041, -0.0001690891367616132, -0.00010633076453814283, -6.226182449609041e-06, -5.1080205594189465e-05, -0.00017524437862448394, 0.00025191911845467985, -0.00010329992073820904, -0.00048182863974943757, -3.865667531499639e-05, 0.00020709219097625464, 0.00010863300849450752, -2.1455620299093425e-05, -0.00013413986016530544, 0.00024200466577894986, 0.00022629757586400956, -2.821867383318022e-05, 0.00031088964897207916, -0.00047799147432669997, -9.741028770804405e-05, 0.00011202578025404364, 0.000247496907832101, -0.00015591368719469756, 3.1257513910532e-08, -0.00010752466187113896, -0.0003068639780394733, -2.2304137019091286e-05, -0.0007139212684705853, -0.0004072421579621732, 0.00012810905172955245, 0.0002857967047020793, 0.0006330535979941487, 0.0005331206484697759, 0.00013863877393305302, -1.4539604308083653e-05, -0.0002778096531983465, -0.000636929995380342, 7.814974378561601e-05, -0.0002497915702406317, 0.0007532461895607412, -0.0005780194769613445, 0.0001278671552427113, -0.00015225289098452777, 2.3276443243958056e-05, -0.00022521325445268303, 0.0006329619791358709, 0.00030064862221479416, -0.0002694845316000283, 0.000279581465292722, 2.764025703072548e-05], [4.369368980405852e-05, -0.0010133436881005764, 0.00015715030895080417, -0.0002662025799509138, 4.097644705325365e-06, -0.0004590202879626304, -0.0007570907473564148, -4.726549377664924e-05, -0.0006187855615280569, 0.00020431942539289594, 0.00046410912182182074, -0.0001936188491526991, 9.773371857590973e-05, -0.00024304725229740143, 0.0003829682245850563, -0.0004057793412357569, 0.00036787011777050793, 0.0009229045826941729, -2.916435551014729e-05, -0.00017270675743930042, 0.00046423004823736846, 0.000632052484434098, 0.00047450046986341476, -0.0005285654333420098, -0.00012443859304767102, 0.0005862339166924357, 0.0007159750675782561, 0.00016573324683122337, -0.0003034596738871187, 0.00017616909462958574, 1.592260377947241e-05, 0.00029104057466611266, -0.0005362535011954606, -0.0013713513035327196, -0.00018895311222877353, -0.0004782741016242653, -0.00012987008085474372, -8.851646271068603e-05, -0.0006707807187922299, -0.00022506107052322477, 0.00010939699859591201, -0.0002940712438430637, -0.0005537938559427857, 1.4746066881343722e-05, -0.0005503561696968973, 8.108980546239763e-05, -0.00017559874686412513, 3.371686034370214e-05, -0.00045079016126692295, 4.4274693209445104e-05, -0.0012572179548442364, 0.0007424316136166453, 0.000254480866715312, 0.0003020555595867336, 0.00031657840008847415, 0.000516274303663522, 0.0005311342538334429, 0.0002849530428647995, 0.0005317874602042139, 4.5394524931907654e-05, -0.0007555877673439682, -0.00037394484388642013, 0.0009830608032643795, 0.00019884265202563256]], [[-3.6139019357506186e-05, 0.00017586621106602252, 9.618642798159271e-05, -0.00010275589738739654, -0.0004269240307621658, 0.00021249515702947974, 0.00017833037418313324, -0.0001789330126484856, 0.0001598161761648953, -7.915640890132636e-05, 0.0002201460301876068, 0.0001820993929868564, -2.9649112548213452e-05, 0.0006737759103998542, 0.0004724981263279915, 2.9040547815384343e-05, 1.856201015471015e-05, -0.00041198768303729594, -9.887656779028475e-05, -7.472439028788358e-05, -0.00035609951009973884, 0.00014805945102125406, 0.00022224854910746217, 0.00043098063906654716, -7.276472024386749e-05, -6.159342592582107e-05, -0.000237664848100394, -3.813201328739524e-05, -0.00016993432654999197, 0.00044417812023311853, -0.00012666471593547612, -0.0004238742985762656, -0.00023409351706504822, 0.000270189659204334, -0.000156973852426745, -0.00016468227840960026, 0.00047924669343046844, 0.0008003655821084976, -2.7526082703843713e-05, 0.0005180445732548833, -4.293468373361975e-05, -0.00020367774413898587, -0.00050571613246575, -0.0003576186718419194, 0.0006001766887493432, -2.9329756216611713e-05, -0.00015076274576131254, 0.00032591589842922986, 0.0002766494872048497, -0.0001191541668958962, 0.00020996374951209873, -0.0001649846090003848, -0.0005686822114512324, 2.549400960560888e-06, -0.0008422051323577762, -0.0001768114452715963, -0.0007688986952416599, 0.00011204103066120297, -0.00010353711695643142, -0.00012662123481277376, -0.0008817304624244571, 0.00012570524995680898, 0.00028584085521288216, 0.00010630937322275713], [6.807115315865531e-09, 1.33320909867507e-08, 2.5440639817020383e-08, 2.6035277045366456e-08, -5.5535917198312745e-08, 4.078164028697984e-09, -5.021857929499163e-10, 3.4832867701339865e-09, 9.64197433006575e-09, -1.1269296606997159e-08, 2.539070997897852e-08, -3.536723269803588e-08, -2.7661091195341214e-09, -2.9368145249009103e-08, 1.1531083643490092e-08, -1.3468687498630061e-08, -5.075560860490214e-09, -3.027850470349591e-10, 1.3473980153833054e-08, -1.4867129749518426e-09, 9.1181755479397e-09, 2.9288632630297684e-10, 6.60276882058497e-08, -1.3885424365867038e-08, 2.0682918489001167e-08, -7.346621089254768e-09, -8.353005398475943e-09, -2.1278903972188346e-08, -1.5300262390383068e-08, -2.805651044823776e-09, -1.996176912655301e-08, 2.09171857612489e-09, -1.2302419083454197e-09, 2.8600160462133317e-08, -1.523533121883247e-08, -6.526329343614634e-08, 1.5250208207362448e-08, 2.2893372531029854e-08, 2.902248041891653e-08, -6.4353553597129576e-09, -1.7585174982848173e-10, -9.038213732992517e-09, -5.296002747456896e-09, 2.6318080159626334e-08, -9.377557574907769e-08, -1.126189772548969e-06, -6.039229560883541e-09, 1.0981055176273458e-08, 2.565014201039162e-09, 3.555211236516698e-08, -4.52955806196087e-09, 1.297412310918844e-08, -1.013295891638677e-09, 1.4680517246290492e-08, 4.391974783857222e-08, -4.6852449031575816e-08, -2.6255788654339085e-09, 1.962536444466423e-08, 2.5513682833100404e-10, -4.133605813194663e-08, -1.4884411925208951e-08, -2.803936283157782e-08, -3.124886305272412e-08, -2.4956159805356037e-08], [1.8533656884756056e-06, -8.138508746924344e-07, -1.1554034244909417e-06, 4.035636266053189e-06, -7.432056463585468e-07, 5.610315838566748e-07, 1.3356344652493135e-06, 3.4888498703367077e-06, -3.664061409835995e-08, 2.0162069631624036e-06, -4.175918547844049e-06, -2.537385626055766e-06, 1.2960356343683088e-07, -2.0697154923254857e-06, 9.728386203278205e-07, -1.3279858421810786e-06, 2.959465348340018e-07, 4.2090346141776536e-07, -1.3632161426357925e-06, -1.4243828445614781e-06, 1.8361851061854395e-06, 5.742489861404465e-07, -2.900074377976125e-06, 3.45866794759786e-07, 1.4706897673022468e-06, 5.1489013230821e-07, 7.746118626528187e-07, -9.29300085772411e-07, 1.0000828751799418e-06, -8.732843070902163e-08, -1.6682998875694466e-06, -1.5939530157993431e-06, -1.8121997982234461e-06, -1.0880247600653092e-06, -1.5476747421416803e-06, -2.439932359266095e-06, -3.588021854739054e-06, 2.0655514276768372e-07, 8.347955144927255e-07, -8.422773589700228e-07, 6.658142410742585e-07, -1.7972923842535238e-06, -3.505687402594049e-07, -2.4273253984574694e-07, -3.660063612187514e-06, -1.1948977771680802e-05, 3.0758978937228676e-06, -9.314999260823242e-07, -1.467542233513086e-06, 1.5988293853297364e-06, -1.5715360177637194e-06, -2.442974178507029e-08, -2.266170895381947e-06, -3.4669807291720645e-07, 1.5884979802649468e-06, -1.8508593484511948e-06, -6.092339503993571e-07, -1.4248038269215613e-06, -7.412413651763927e-07, 1.2523453278845409e-06, -9.008876986627001e-07, 1.4624699815612985e-06, -1.6890833194338484e-06, -2.171277856177767e-06], [-1.7109181271734997e-06, 4.383553459774703e-06, -2.9397962862276472e-05, -4.1904299905581865e-06, 5.428048098110594e-06, -2.0643736206693575e-05, -4.1408526158193126e-05, -4.215531816953444e-07, 1.2922088899358641e-05, 1.5994569366739597e-06, 3.3414871722925454e-06, 3.154832302243449e-05, 1.2450794883989147e-06, 6.088333066145424e-06, -1.682312176853884e-05, 2.1984707927913405e-05, -1.4843469671177445e-06, -7.607085535710212e-06, 1.424896254320629e-06, 1.8932323655462824e-05, -1.3793599464406725e-05, 1.9583876564865932e-07, 6.3683742155262735e-06, -7.297050615306944e-06, 8.507318852934986e-06, 1.0057165127363987e-06, -2.140822834917344e-05, -5.684419193130452e-06, -2.7261397917754948e-05, -8.094953955151141e-05, 4.859504770138301e-06, -3.4347067412454635e-05, -2.1929136551079864e-07, -3.77551514247898e-05, -1.8481678125681356e-05, -5.737535047956044e-06, -8.723291102796793e-07, -5.350218998501077e-06, 2.1359839593060315e-05, 6.299760570982471e-06, -1.454047469451325e-05, 3.0362343750311993e-05, -6.027355539117707e-06, 1.4041000213182997e-05, 1.8604830984259024e-05, -0.00013934672460891306, 1.8520002413424663e-05, -8.132569746521767e-07, -4.912423264613608e-06, 1.3417248737823684e-05, 2.2614045519731008e-05, -1.4861282579659019e-05, -3.498850855976343e-05, 1.4483332051895559e-05, 1.1215787708351854e-05, -2.8837588615715504e-05, 3.976972038799431e-06, 1.2449192581698298e-05, 5.92036803936935e-06, 3.3088272175518796e-05, 5.525846518139588e-06, -1.2099882042093668e-05, -3.2882926461752504e-05, 3.194135160811129e-06], [6.567312084371224e-06, -8.489945321343839e-05, -0.00015252456068992615, -4.6182667574612424e-05, -0.0001075915788533166, -4.377818186185323e-05, 6.916429265402257e-05, -0.00014201877638697624, -6.711322203045711e-05, 9.035311086336151e-05, 7.861923222662881e-05, -5.38325184606947e-05, -3.572012792574242e-05, -0.00011075798101956025, 2.0792191207874566e-05, 3.566747545846738e-05, -0.00017817661864683032, 4.8322806833311915e-05, -0.00019454363791737705, -2.710590706556104e-05, -2.1445324819069356e-05, 0.00028994149761274457, 0.00010216474765911698, -2.3112261260394007e-05, -3.14652243105229e-05, 4.771103704115376e-05, -3.7742072890978307e-05, -3.022659439011477e-05, -0.0002953938383143395, 9.465228504268453e-05, 0.00015098365838639438, -2.105812200170476e-05, -1.5020968930912204e-05, -3.814955925918184e-05, -0.00012507846986409277, -8.275473373942077e-05, 7.982148417795543e-06, 7.15742789907381e-05, -7.2426191763952374e-06, 2.0168019545963034e-05, 6.318273517536e-05, -4.257217369740829e-05, 2.756838694040198e-05, 8.715142030268908e-06, 1.5469400750589557e-05, 0.0001728738279780373, 7.657113746972755e-05, 2.7646396119962446e-05, 1.772395808075089e-05, -2.1593566998490132e-05, -0.00021296336490195245, 1.8189166439697146e-06, -5.4945816373219714e-05, 9.077681897906587e-05, -8.644899935461581e-05, -0.00016937982582021505, 3.911994645022787e-05, 0.00012017803965136409, 6.140223558759317e-05, 5.4164313041837886e-05, -0.0001873197907116264, 4.380216705612838e-05, 8.257118315668777e-05, -1.5246369002852589e-06], [8.309528493555263e-05, 0.00016593605687376112, -0.00010039782500825822, -9.267109999200329e-05, 0.00010365243360865861, 0.00038449408020824194, 2.7914682505070232e-05, 0.00015391419583465904, -2.0165243768133223e-06, -0.00015319653903134167, -8.17087129689753e-06, -0.0001626847661100328, 0.0004101747181266546, 0.00014966094749979675, 0.0001208079993375577, -6.27628032816574e-05, -0.00025434052804484963, -4.920676292385906e-05, 0.00013528844283428043, 0.00019642440020106733, 0.00013835527352057397, 8.643631008453667e-05, -4.1954670450650156e-05, 7.126741547835991e-05, 9.628015686757863e-05, 6.557878805324435e-05, 