{"momentum": 0.8999999761581421, "init_weights": [7686, [[[[-4.987308057025075e-05, 0.00041017518378794193, -0.0007983550312928855, -0.0010658404789865017, 0.0005829120636917651, -0.0004589361196849495, 0.0009064346668310463, 0.0007864512735977769, -0.0005120999412611127, -0.0018095092382282019, -5.450005119200796e-05, 5.897135997656733e-05, 0.0008138808771036565, -0.0004214730579406023, 0.00031400550506077707, -0.0013138188514858484, 0.001648964243941009, 0.0009718542569316924, -0.0016856162110343575, 0.0001331998937530443, -0.00014322303468361497, 0.00017147421021945775, 0.0012921264860779047, 0.0024051882792264223, -0.0007349966326728463, -0.0017366353422403336, -0.0005463401321321726, 6.674387259408832e-05, -0.002066088607534766, 0.00040932450792752206, -0.0018426799215376377, 1.0149446097784676e-05, -0.00209348788484931, -0.0003842705045826733, -0.0004640831029973924, -0.00023165697348304093, 0.0011935129296034575, -0.0005253429990261793, 0.0004734453686978668, -0.001070709666237235, -0.001059620059095323, 0.0013000890612602234, -0.0009984525386244059, -0.0003409947967156768, -0.0015401968266814947, 0.0001596470974618569, -0.0005071787745691836, 0.00011907813313882798, -0.00147133762948215, 0.00032728572841733694, 0.0030151400715112686, 0.00010211254993919283, 0.00015611207345500588, 5.4231335525400937e-05, -0.0007814973359927535, -0.0016335927648469806, -0.00013288590707816184, 8.45582690089941e-07, 0.0014844461111351848, -0.0007002622005529702, -2.717826282605529e-05, -0.0025881726760417223, 0.0011776672909036279, -0.00031101860804483294], [6.985526852076873e-06, -5.680847152689239e-07, 7.648820428585168e-06, 6.254564368646243e-07, -9.860805221251212e-06, 6.31494958724943e-06, 4.5821866478945594e-06, -4.5863239392929245e-06, -7.838895726308692e-06, -2.981318175443448e-06, -6.613330469917855e-07, -3.3086880648625083e-06, 6.713895800203318e-06, 1.0633258398229373e-06, -2.8853107778559206e-06, 8.072722266661003e-06, -9.679086360847577e-06, -8.85193730937317e-06, 3.387509082131146e-07, -3.4639917885215255e-06, -4.113034606234578e-07, 3.535244786689873e-06, 2.7287165949019254e-07, 4.563614311337005e-06, 1.3675464742846088e-06, 4.447000719665084e-06, 3.377375833224505e-06, -8.391831443077535e-07, -8.393204552703537e-06, 3.5857397051586304e-06, 7.37858317734208e-06, 2.571260438344325e-06, -1.8790373133015237e-06, -1.989508064070833e-06, 6.010912329657003e-06, -6.2931421780376695e-06, -3.881028533214703e-06, 6.990837846387876e-06, 4.891669959761202e-06, -4.29654392064549e-06, -7.306947736651637e-06, -9.303813385486137e-06, -8.741368219489232e-06, -8.4248886196292e-06, -2.844787331923726e-06, 2.47761659011303e-06, 6.569436663994566e-06, -7.038046533125453e-06, 6.798033155064331e-06, -8.004373057701741e-07, -3.763829681702191e-06, -5.87228032600251e-06, 5.254079496808117e-06, 1.8027793657893199e-06, -4.052450094604865e-06, -3.2076322895591147e-06, -1.5541929769824492e-06, 2.2176084257807815e-06, -9.847196480450293e-08, 5.139292625244707e-06, 6.6929851527675055e-06, 2.0597249204001855e-06, 3.290937911515357e-06, 5.445724127639551e-06], [3.0568069178116275e-06, 1.0790977285068948e-05, -1.1743582945200615e-05, -2.5787041977309855e-06, -1.5326633729273453e-05, 6.829368430771865e-06, 1.2912521924590692e-05, 6.282936055868049e-07, 1.749654984450899e-06, 5.900768883293495e-06, 6.770378149667522e-06, -8.796547263045795e-06, 6.016065526637249e-06, 3.307980023237178e-07, 1.4905573152645957e-05, -1.727651761029847e-05, 1.0440078312967671e-06, -2.0365168893476948e-05, 6.121006208559265e-06, -1.360084115731297e-05, -1.1582535535126226e-06, -6.587141342606628e-06, 8.92081402525946e-07, -1.0958333405142184e-05, 1.8330308648728533e-06, -7.546127562818583e-07, 2.8736278636642965e-06, 5.540636720979819e-06, -1.0296020036548725e-07, -5.856317329744343e-06, 1.7085294530261308e-05, -1.5872394214966334e-05, -1.1704507414833643e-05, 1.1964075383730233e-05, -9.165788128484564e-07, 7.6197279668122064e-06, -1.0898485015786719e-05, 9.626655810279772e-06, 5.473678811540594e-06, -5.155484814167721e-06, 3.147991264995653e-06, -9.121752555074636e-06, 9.266385859518778e-06, 3.114098490186734e-06, 2.1080033548059873e-05, -1.499719019193435e-06, -1.2171054777354584e-06, 7.825765351299196e-06, -8.319409062096383e-06, -1.7394117094227113e-05, 1.0524052413529716e-05, -5.497951178767835e-07, -5.081312792754034e-06, -2.456272795825498e-06, -1.0088087947224267e-05, 1.2231554137542844e-05, -4.935858214594191e-06, 4.928675025439588e-06, 4.439154508872889e-06, -9.70995915849926e-06, 4.1422258618695196e-06, 1.1958085451624356e-05, -8.594375685788691e-06, 1.1904584425792564e-05], [-1.2848500773543492e-05, 7.171554898377508e-06, 1.2521031749201939e-06, -1.8457083569956012e-05, -3.97385774704162e-05, -4.426101440913044e-05, 3.98541014874354e-05, -8.501203410560265e-06, -5.699976463802159e-05, -0.0007292468217201531, 5.352500011213124e-05, 4.750031075673178e-05, -6.804481381550431e-05, 3.087286313530058e-05, -9.405317541677505e-05, -1.013584369502496e-05, 5.7119705161312595e-05, -2.8748525437549688e-05, -2.97579936159309e-05, 3.1433981348527595e-05, -4.898007682641037e-05, -5.749799311161041e-05, -3.385163290658966e-05, -1.2778704331140034e-05, 0.00021041513537056744, -5.5930649978108704e-05, -1.3510965800378472e-05, 5.682796472683549e-05, -4.1705054172780365e-05, -1.718365638225805e-05, 6.966318323975429e-06, -1.0031438250734936e-05, 5.311860149959102e-06, -3.0222949135350063e-05, 1.909288766910322e-05, 2.3390151909552515e-05, -3.274840855738148e-05, 1.7738646420184523e-05, -3.46635133610107e-05, 2.2097883629612625e-05, -5.113647421239875e-05, 9.392297215526924e-06, 2.5947621907107532e-05, 6.925535672053229e-06, -5.29854696651455e-05, 6.331499753287062e-05, 3.624849341576919e-06, 2.3170414351625368e-05, -8.970116323325783e-05, -2.8357040719129145e-05, 3.909939550794661e-05, -1.3258264516480267e-05, 2.861660141206812e-05, 1.7772752471501008e-05, -2.9697916033910587e-05, -1.0371983989898581e-05, -2.3590437194798142e-05, 7.482926775992382e-07, -3.5039953218074515e-05, 1.9472918211249635e-05, 2.4934986868174747e-05, 4.128486034460366e-05, -1.7454985936637968e-05, -6.422321348509286e-06], [8.868862641975284e-05, -3.552850103005767e-06, -0.0011482912814244628, -0.00045948504703119397, -0.0009979322785511613, 0.00020360483904369175, 0.0010555798653513193, -0.0002655280695762485, -0.00015618914039805532, -0.0021628669928759336, -0.00020402035443112254, -0.00019321416039019823, 0.00015001423889771104, 0.00025863139308057725, 0.00014642238966189325, 0.00011596898548305035, 0.00030495101236738265, -0.0007593250484205782, 0.0002693293208722025, -0.0003620077623054385, -0.00029222352895885706, 0.0002218837762484327, -0.00013296787801664323, -0.000497524393722415, 0.00018403644207865, -0.00018540717428550124, -0.0005529576446861029, 4.409651955938898e-05, -0.0002341522485949099, 0.0004193621571175754, -0.0004983200924471021, -0.0002598042774479836, -0.00024469400523230433, 0.00019047940440941602, -0.0010288491612300277, -0.00022952505969442427, 6.02902437094599e-05, -2.8846639906987548e-05, 0.0003805664600804448, -0.0010150143643841147, -0.0003581312485039234, 4.842489943257533e-05, 0.00039777412894181907, -2.9944392736069858e-05, -0.0012364170979708433, 0.0002992286463268101, -0.0002752433647401631, -0.00044522632379084826, 0.0001262156292796135, 0.0006243103416636586, 0.0006293002516031265, -8.076940139289945e-05, -0.00015257061750162393, 4.4752841859008186e-06, 6.453407695516944e-05, -0.0009532127878628671, -3.095737338298932e-05, -8.075240475591272e-05, -0.0007633408531546593, -0.00015540450112894177, -0.0005976579850539565, 8.124468149617314e-05, -0.0007410931866616011, 7.942687079776078e-05], [0.0011579325655475259, 0.0005743682850152254, -9.075937850866467e-05, 0.0016180105740204453, 0.0002520015696063638, 0.0004791581886820495, -0.0010109638096764684, 2.5136945623671636e-05, 0.00020458584185689688, -0.0024128735531121492, -0.0004442696226760745, -0.00019232285558246076, -0.00201586214825511, -0.0004961329977959394, 0.0010048721451312304, 8.169734792318195e-05, -0.0010910432320088148, 0.0009503972833044827, 0.0004675404052250087, -5.5082586186472327e-05, -0.00028058901079930365, 0.0004731490043923259, -8.501023694407195e-05, -0.000553105550352484, -0.001782516948878765, -0.0010757182026281953, 0.0016171794850379229, 0.0001441835192963481, -5.3710213251179084e-05, -0.0002538161352276802, -0.0002523405710235238, 0.0009714658372104168, -0.0008138562552630901, 0.00020131445489823818, -0.0012904421892017126, 0.0005491685587912798, -0.0002698474272619933, -0.0007670433260500431, 0.000900237588211894, 0.0006107103545218706, 0.0008977451943792403, -0.00026757310843095183, -0.0011717445449903607, -0.0009201807552017272, -0.00018232417642138898, 0.0004341592430137098, -7.475486199837178e-06, -0.00032731291139498353, -9.032498928718269e-05, -0.0010144917760044336, -0.0006788126192986965, 0.0003626436518970877, 0.000318114529363811, 0.0001855827431427315, 0.0011052786139771342, 0.0011411654995754361, 0.00012752418115269393, -0.001003063633106649, 0.0005900489049963653, -0.0006410800269804895, 0.0006110536633059382, 0.0012018298730254173, 0.0005454003694467247, -1.8530212400946766e-05], [-0.0002480137918610126, 0.00034025192144326866, -0.0006245563854463398, -5.294627044349909e-05, -0.0006174745503813028, -0.00015883156447671354, -0.00011815509060397744, 0.001435704529285431, 0.002020383020862937, -0.0042823562398552895, -4.197699672658928e-05, 0.0017633228562772274, 0.0008131313952617347, 0.0005956674576736987, 0.0004308524075895548, -0.00030925485771149397, 0.0038496353663504124, -0.0002898843085858971, -0.0016618567751720548, -2.8289767215028405e-05, -0.0003945734060835093, -0.0007118755602277815, -0.0018482806626707315, 0.00032808183459565043, 0.0024615430738776922, -0.0007482370128855109, -0.0010792495450004935, 0.0005659108865074813, 0.0012657896149903536, 0.0006198340561240911, -0.0015498943394050002, -0.0007553579052910209, 0.0017167398473247886, 0.0001905728131532669, 0.0016600012313574553, 0.0017585780005902052, 0.0005099176778458059, 0.0005861795507371426, -0.0016125771217048168, -0.0007482190849259496, -0.00048295731539838016, 0.0009661761578172445, 0.0003414805687498301, -0.00030234563746489584, 0.0006455667898990214, 3.8860191125422716e-05, 0.0003419114800635725, 0.0009460896253585815, 0.00020259286975488067, 0.00042162282625213265, -6.720434612361714e-05, -7.028269465081394e-05, 0.00152054603677243, -0.00044338899897411466, -0.0014546747552230954, -0.0001064753087121062, -0.00014257075963541865, 0.0005740647320635617, 0.0007458784384652972, 0.0017315407749265432, -0.0008352065342478454, -0.00027900474378839135, 0.00065818359144032, -9.470732038607821e-05], [-0.0006527025252580643, 0.0015176029410213232, 0.0007822904735803604, 0.0007358553120866418, 0.0004512135637924075, -0.0021524247713387012, -0.00014763569924980402, -0.00039771912270225585, 0.0008731060661375523, -0.006374502554535866, -9.347189916297793e-05, 0.0005105462041683495, 0.0011737348977476358, 0.0006654037861153483, -0.00017443994875065982, -0.0004601590917445719, 0.00020660285372287035, -0.0003700423694681376, -0.0026860490906983614, 0.0002912211057264358, -0.0007891078712418675, 5.396683991421014e-05, 0.00016211942420341074, 0.0005920180701650679, -0.00011893966438947245, 0.001209759502671659, -0.00045902555575594306, -9.771719487616792e-05, -0.0025864429771900177, -0.0007839748868718743, -0.0010801053140312433, -0.0007054655579850078, 0.0014770117122679949, -0.00036764409742318094, 0.002577295061200857, -0.0005983070004731417, -0.0009603970684111118, -5.318460171110928e-05, -0.002025787951424718, -0.0010971938027068973, -0.0004681800783146173, 0.00015165172226261348, -0.000469506107037887, -0.0002694114809855819, 0.005890851840376854, 0.0018204825464636087, 0.0002723377547226846, 0.0012648571282625198, 0.0025330421049147844, 0.0009899989236146212, -0.0002710699336603284, 0.0018563406774774194, 0.0011932196794077754, -0.00026123609859496355, -0.0006540623726323247, 0.00019835561397485435, -0.0007576231146231294, 0.0023180947173386812, -0.00047896557953208685, 0.0005062980344519019, -0.0012890457874163985, -0.0009696776978671551, 0.00017251640383619815, -1.6756384866312146e-05], [-1.8291379092261195e-05, 3.375872620381415e-05, -8.4505891209119e-06, 2.738390685408376e-05, 3.247190761612728e-05, 1.6148889699252322e-05, -1.1908946362382267e-06, -2.1170893887756392e-05, 5.477982995216735e-05, 0.0011111441999673843, -6.165241211419925e-05, -2.9048274882370606e-05, 6.715556537528755e-07, -8.658650767756626e-05, 2.4498714992660098e-05, 3.106009171460755e-05, 7.387176447082311e-05, -8.2071237557102e-06, 6.675060285488144e-05, -1.84406617336208e-05, 5.599650648946408e-06, -1.1103998986072838e-05, 6.521206523757428e-05, 2.605434383440297e-05, -1.3133230822859332e-05, -3.5796336305793375e-05, 1.4972652934375219e-05, -2.60882152360864e-05, 3.573540016077459e-05, 6.75429982948117e-05, 4.417718810145743e-05, -1.4571178326150402e-05, -3.7291174521669745e-06, 3.3071773941628635e-05, 5.114149462315254e-05, 3.0368828447535634e-06, -1.8895357243309263e-06, -7.280510908458382e-05, 3.1450104870600626e-05, 4.17202244307191e-07, 1.5328867448261008e-05, 4.519234153121943e-06, -1.2713670002995059e-05, 1.714846985123586e-05, -4.676324351748917e-06, 6.18105405010283e-05, 4.626785994332749e-06, 1.4012512110639364e-05, 0.00014023033145349473, -5.464869900606573e-06, 2.8692593332380056e-05, 4.176290531177074e-05, 3.9910722989588976e-05, 2.0257570213289e-05, -2.509068144718185e-05, 6.16351462667808e-05, 8.01369606051594e-05, -1.2055291335855145e-05, -4.606402580975555e-05, -8.87558053364046e-06, -1.256011728401063e-05, -1.0344483598601073e-05, -1.8304106561117806e-05, -9.687229976407252e-06], [-2.3742653866065666e-05, -5.380934453569353e-07, 3.182787258992903e-05, 3.0412966225412674e-06, 1.4943492715246975e-05, 1.3899449186283164e-05, -2.0283570847823285e-05, -6.556278094649315e-05, 7.632782217115164e-05, 0.00023937050718814135, -7.726948388153687e-05, 1.7127133105532266e-05, 2.15420459426241e-05, -9.957524889614433e-05, 1.382235041091917e-05, 1.2719094229396433e-05, 6.639368075411767e-05, 4.2512860090937465e-05, 0.00011000897211488336, -3.7158693885430694e-05, 1.0882091373787262e-05, 1.8265109247295186e-05, 0.00012673473975155503, 2.1579031454166397e-05, -5.86056848987937e-05, -3.28739988617599e-05, 1.7353828297927976e-05, 3.869710781145841e-06, 1.4804452803218737e-05, -6.3148472690954804e-06, 3.097985245403834e-05, 2.121528268617112e-06, -3.620213101385161e-05, 3.373983781784773e-05, -1.69029226526618e-06, 3.687979915412143e-05, -5.5380391131620854e-05, -5.7347795518580824e-05, 0.00010634310456225649, 1.2506147868407425e-05, 4.461307980818674e-05, -4.854532744502649e-05, -1.7105308870668523e-05, 3.144674701616168e-05, -3.0814237106824294e-05, 2.5259689209633507e-05, 6.375583325279877e-05, -1.1427861863921862e-05, 9.399830014444888e-05, -3.523871782817878e-05, 3.715140337590128e-06, 5.5022970627760515e-05, -1.400826295139268e-05, 6.822297291364521e-05, 2.377336932113394e-05, -2.2411844838643447e-05, 3.654722968349233e-05, -4.110288864467293e-05, -1.4969808034948073e-05, -2.30136101890821e-05, 1.2490462722780649e-05, -1.5289750081137754e-05, -3.159113475703634e-05, -1.3921492609370034e-05], [0.00014496984658762813, -0.00024428850156255066, 2.450134343234822e-05, 0.00026611925568431616, 0.0003018812567461282, 0.00030009806505404413, -9.424888412468135e-05, -0.00025762326549738646, -9.149177640210837e-05, 0.00037943717325106263, -0.0001741186570143327, -0.00012749171582981944, -0.00014743681822437793, -5.7257417211076245e-05, -9.539719758322462e-05, 0.00032997498055920005, 0.0004679940757341683, -6.621581269428134e-05, -0.0001279978605452925, -0.00011237797298235819, 0.000141577998874709, -8.088444883469492e-05, -0.00043213984463363886, -0.00019039970356971025, -0.0001390643883496523, -0.0005436334176920354, 0.0002982931036967784, 0.00047016271855682135, 0.0001900720817502588, 0.0007666509482078254, -0.0001322057651123032, -0.00041985168354585767, -7.813946285750717e-05, -6.466486229328439e-05, -0.00033459049882367253, -0.0002940565173048526, -8.625342161394656e-05, 6.76476993248798e-05, 4.003479261882603e-05, -0.00014540906704496592, -0.000133642039145343, -5.426776624517515e-05, 0.00021145948267076164, -7.444112270604819e-05, -0.00023837473418097943, 0.00013482446956913918, -7.066282705636695e-05, -0.00029319836176000535, 0.00024506874615326524, -4.277663538232446e-05, -5.905501893721521e-05, -0.0005446437280625105, 0.0001074591709766537, 4.9476475396659225e-05, 0.0001324283075518906, -0.0004060965438839048, 0.00028298835968598723, 0.00016166185378096998, -9.34462805162184e-05, -0.00023385995882563293, -0.0001444850058760494, 0.00014119280967861414, -3.6225581425242126e-05, 5.8717520005302504e-05], [2.5106201064772904e-05, 0.00021895108511671424, -0.00020487770962063223, 0.00020477024372667074, 0.00021537492284551263, 0.0002678066666703671, 0.00023913804034236819, -8.613363024778664e-05, 0.00047419744078069925, -0.001933499239385128, -0.0001900494535220787, 0.00010114792530657724, -0.0002605086483526975, -0.0008451614412479103, 1.0861069313250482e-05, 0.0002505696611478925, 0.00018576202273834497, -7.082392403390259e-05, 0.0013262362917885184, 0.0001953661849256605, -0.00021299235231708735, -0.0005399180809035897, -0.00044007471296936274, -0.0004343508917372674, -0.00020961702102795243, -0.0007125367992557585, -9.614369628252462e-05, -0.00020358918118290603, 0.00032071606256067753, 0.00030227506067603827, 0.00015543997869826853, -0.00036607214133255184, 0.0005609972286038101, 0.0002404230908723548, -0.0006844428135082126, 0.00048598062130622566, -0.00019318332488182932, -0.00011500441178213805, -0.0003004915197379887, 9.208596020471305e-05, 0.00011953695502597839, -0.00016462475468870252, -0.00042332656448706985, -0.00013009969552513212, -0.000697688665241003, 0.000504743424244225, 0.0002322336076758802, -0.00010837956506293267, 0.00022272116621024907, 0.00024717944324947894, -0.0007786463247612119, -0.0003449836513027549, -8.878338849171996e-05, -6.826488970546052e-05, 7.15952628524974e-05, 0.0007683622534386814, 2.16048356378451e-05, -0.0003039388975594193, -4.8023881390690804e-05, -3.667805503937416e-05, 1.0173046575800981e-05, 8.941641135606915e-05, -0.0001477446494391188, -0.00017650550580583513], [0.0012326657306402922, 0.0006107782246544957, 0.00031538389157503843, 0.0015449513448402286, -0.00010901251516770571, 0.0004978303331881762, 0.00012228138803038746, -0.0009569093817844987, -0.0015028122579678893, -0.0005094611551612616, -0.001079454319551587, -0.00029077313956804574, -0.0012881513684988022, -1.3772223610430956e-06, -0.0003116303705610335, 0.0009112861007452011, -0.00041298920405097306, 0.0007176579092629254, -0.0007646730518899858, 0.00044636870734393597, -0.000170370185514912, 0.0002904109423980117, -0.00016342941671609879, -0.0012806429294869304, 0.000774352578446269, -0.0010320162400603294, 0.000482940609799698, -8.65883775986731e-05, -6.645619578193873e-06, 9.629741543903947e-05, 0.00123753328807652, -0.0006393897929228842, 0.0006112453411333263, 0.0005233019473962486, -0.0009057176066562533, -0.00016560626681894064, -0.0005262026097625494, -0.0003259223885834217, 0.0006499412702396512, -0.00022216426441445947, 0.00017350725829601288, -0.0002523314906284213, -0.0013145918492227793, -0.0006760267424397171, -0.0020216824486851692, -0.00035852944711223245, -0.0009209862328134477, -4.75201231893152e-05, 0.0008700654143467546, -0.0005107394536025822, -0.00011278485908405855, -6.67464773869142e-05, -0.0014167465269565582, 0.0007964171818457544, 0.0013556774938479066, -0.0008735568262636662, 7.264508167281747e-05, -2.6409048587083817e-05, -5.6283915910171345e-05, -0.0007054227171465755, -0.00042462997953407466, 6.310560274869204e-05, 0.00024460937129333615, -0.00016434797726105899], [7.71914201322943e-05, -0.0001403644710080698, -4.564796108752489e-05, 0.0005682458868250251, 8.196571434382349e-05, -0.0008997670374810696, -0.0012482840102165937, 0.00046511334949173033, 0.0005619307048618793, 0.001536886440590024, 0.0004083653911948204, 0.0006093599367886782, 0.00014707198715768754, 0.000525783107150346, 0.00044759418233297765, -0.0011012689210474491, 0.00022422662004828453, 0.00019653230265248567, -0.00013879571633879095, 0.00020818183838855475, 0.00025933250435627997, -0.00013936933828517795, 0.0004539060464594513, 0.00048252716078422964, -7.618715608259663e-05, 0.001945469412021339, 0.00019052837160415947, -8.957518730312586e-06, -0.0014240862801671028, 8.26582545414567e-05, -0.0005354307359084487, -0.0006951328832656145, -8.369112038053572e-05, -0.0009857917902991176, 0.0010474590817466378, 0.0006034803227521479, 0.00031861625029705465, 0.00012554308341350406, -0.0009500629385001957, -0.00011849839938804507, 0.0005628791986964643, 0.00046132015995681286, 0.00040292413905262947, -0.0005590177024714649, 0.0036365515552461147, -0.00014605664182454348, -0.001352428924292326, 0.00014952447963878512, -0.0012496423441916704, -0.0005170386284589767, 0.0007234773365780711, 0.000701730081345886, 0.0006266659474931657, 6.0470156313385814e-05, -0.00046893832040950656, -0.0003171299467794597, -0.00040336596430279315, -0.000310662406263873, -0.00023427215637639165, 0.001495287986472249, 0.00016271410277113318, -0.0011158977868035436, 0.0009759792592376471, -0.000230990641284734], [-0.0010870981495827436, -0.0030795084312558174, -0.0007028086110949516, 0.00023318247986026108, -0.0008912209304980934, -0.001281771925278008, -0.0014488169690594077, 0.00045669631799682975, 0.0025479255709797144, -0.00681011937558651, 0.0032267291098833084, -0.0001856069138739258, 0.0018955348059535027, 0.0007216528756543994, -0.0005833902978338301, -0.0026228304486721754, 0.0021876993123441935, 0.0009259345242753625, -0.0012790976325049996, 0.00036300704232417047, 0.00016163420514203608, 4.869165422860533e-06, -0.0010899784974753857, 0.0001476022880524397, -0.002198250964283943, -0.002905789064243436, 0.0001746094785630703, 9.420429705642164e-05, -0.0010819167364388704, 0.0015781379770487547, -0.0025267296005040407, 9.794352808967233e-05, -0.0004891877179034054, -0.0003558001189958304, -0.0013968213461339474, 0.0028338751289993525, 0.0006812980282120407, -0.002031289506703615, 0.0006098046433180571, -0.0012145214714109898, -0.00021963361359667033, 6.269215373322368e-05, -0.001997958868741989, 0.0001106005220208317, -0.0023884063120931387, -0.00026932748733088374, 0.0014194651739671826, 0.0013362629106268287, -0.0013668409083038568, 0.0019052716670557857, 0.0006072863470762968, -0.0005375231266953051, 0.0010619196109473705, -7.720586290815845e-05, -0.0016850101528689265, -0.0020096590742468834, -0.0009226249530911446, -2.8382637538015842e-05, 0.004387694876641035, -0.00019336606783326715, 0.0009312160545960069, -0.0009039262076839805, 0.0003054924891330302, 5.1680974138434976e-05]], [[0.0009286064887419343, -8.33884987514466e-05, 0.001321496907621622, -0.0004713761154562235, 0.0008648834773339331, 9.127346856985241e-06, -0.0005670565296895802, 0.0001835767470765859, 0.00041266228072345257, 0.003780207596719265, 0.0007865357911214232, -0.0004697275871876627, -0.0005017946241423488, 6.456479604821652e-05, 0.001223424100317061, -0.0005538332043215632, 0.00109052041079849, 0.0001867598621174693, 0.0004824725619982928, -0.0004758620634675026, -0.0005723530775867403, 0.00047030887799337506, 0.0007092811865732074, 0.00023980517289601266, -0.0022145132534205914, -0.0005035526701249182, 0.0007938992348499596, 0.0017502910923212767, 0.0003861782024614513, -2.5000837922561914e-05, -0.0012916323030367494, -0.0005829543806612492, -0.0002778425405267626, 6.468893843702972e-06, -0.0008367623668164015, -9.126064833253622e-05, 0.00010582836694084108, -0.00038018831401132047, 0.0013717386173084378, -0.0002590572112239897, -7.639711111551151e-05, 0.00032012106385082006, -0.0015570460818707943, -0.00024244654923677444, -3.9812817703932524e-05, 0.0011518592946231365, -0.0008365759276784956, -0.00022437154257204384, 0.0009323652484454215, 0.00034118987969122827, -2.5361659936606884e-05, -0.0002724381920415908, -0.0014951287303119898, 0.0005280349287204444, 0.00014086818555369973, -0.0013944465899839997, -0.0003827211621683091, 0.0002883633424062282, 0.0019105643732473254, -0.0001427616225555539, -0.00015006278408691287, -0.0013578505022451282, -0.00021930137882009149, 0.0002907168527599424], [-3.9819292396714445e-06, 1.929569862113567e-06, 1.0673536053218413e-05, 2.5283086415583966e-06, -5.523364166037936e-07, 4.4449880078900605e-06, 1.4650147477368591e-06, -7.219020517368335e-06, 4.953878487867769e-06, 5.559158580581425e-06, 2.6391892333776923e-06, -1.5820036196600995e-06, -2.8957394988538e-06, -3.776193352678092e-06, 6.424119419534691e-06, -4.021676431875676e-06, 3.049714678127202e-06, 8.807232916296925e-06, 1.881548769233632e-06, 6.307457624643575e-06, -8.193303074222058e-06, 6.640183528361376e-06, -1.4194203004080919e-06, 7.28504983271705e-06, 1.4280602727012592e-06, 1.4793758964515291e-06, 4.1961992991446095e-08, -6.596270196723708e-08, 3.7014021927461727e-06, 4.299904503568541e-06, 2.2802266812504968e-06, -1.0684017070161644e-05, 2.791034603433218e-07, -8.128914487315342e-06, 6.4574123825877905e-06, -5.309918833518168e-06, 2.2674494175589643e-06, -5.401233465818223e-06, -2.747645567069412e-06, 9.578774552210234e-06, 1.575106239215529e-06, 3.829043180303415e-06, -9.305833373218775e-06, 2.3377635827159793e-08, 5.409266123024281e-06, -7.708114026172552e-06, -3.4708366456470685e-06, 4.827732936973916e-06, 7.294906936294865e-06, -2.887920118155307e-06, 2.9645282211276935e-06, 3.460926620846294e-07, 6.668583864666289e-06, 5.268681434245082e-06, -1.1593801900744438e-06, 1.1879990324814571e-06, 3.186877393090981e-06, -3.7407178865578317e-07, 3.27293605550949e-06, -2.536476131353993e-07, 4.0316272134077735e-06, 1.429310032108333e-06, -2.355543529120041e-06, 7.252053364936728e-06], [-2.3963689272932243e-06, 9.419520665687742e-07, 1.2750184396281838e-05, 1.3955203712612274e-06, -3.288311518190312e-06, -1.9623897173914884e-07, -1.5674277165089734e-05, 4.918492209071701e-07, -1.0753050446510315e-05, -9.525336645310745e-05, 7.108190857252339e-06, -3.87418367608916e-06, -1.2382319255266339e-05, 1.1787253242800944e-05, -3.7002314456913155e-06, -8.24520884634694e-06, -8.584886927565094e-06, -1.1887390428455546e-05, -9.699298971099779e-06, 6.114830284786876e-06, 2.76436799140356e-06, 3.0251230782596394e-06, -5.901850272493903e-06, -1.9705112208612263e-07, -2.056406174233416e-07, -1.71526462509064e-05, 2.050469265668653e-05, -2.3304262413148535e-06, -2.7387464797357097e-05, -2.9550003546319203e-06, 1.1191152225364931e-05, -4.568867097987095e-06, -8.198268915293738e-06, 9.247153684555087e-06, 9.976872661354719e-08, -6.846116775705013e-07, -4.966749656887259e-06, 8.489141691825353e-06, 3.704559276229702e-06, 8.676790457684547e-06, 7.05690263202996e-06, -9.099923772737384e-06, -1.1354812158970162e-05, 3.0513836009049555e-06, -1.3402906006376725e-05, -1.9560382042982383e-06, 9.984725693357177e-06, -7.626465048815589e-06, -2.0693803890026174e-05, -2.767463229247369e-05, 8.934658580983523e-06, 5.217440047999844e-06, 5.577532647293992e-06, 1.1887957953149453e-05, 9.481575034442358e-06, -2.349752321606502e-05, -1.2770226931024808e-05, -1.2212552064738702e-05, 3.1523127290711273e-06, -3.5739635677600745e-06, 7.664119948458392e-06, 1.4124487279332243e-05, 2.803080633384525e-06, 3.9006931729090866e-06], [4.219437687424943e-05, -7.237015233840793e-05, -6.078665319364518e-05, 6.510146340588108e-05, -3.478413418633863e-05, 2.3235486878547817e-05, 5.7040524552576244e-05, -8.309155236929655e-05, -0.00012375201913528144, -0.001295749330893159, -2.399247750872746e-05, 3.364044823683798e-05, -0.00015193961735349149, 8.44370970298769e-06, 4.9199326895177364e-05, -5.9067606343887746e-05, -0.0001454954908695072, -0.00013873651914764196, 0.00011406770499888808, -1.2382457498461008e-05, -7.250294402183499e-06, 3.0309500289149582e-05, 6.879752618260682e-05, -6.275028135860339e-05, -4.334625555202365e-05, -0.00019200453243684024, 2.703201971598901e-05, 0.00010178113734582439, -9.240457438863814e-05, -3.232601739000529e-05, 9.00582381291315e-05, 5.545650310523342e-06, -3.20209983328823e-06, -1.2076086932211183e-05, -0.00017845595721155405, 1.5767953300382942e-05, -1.2012067600153387e-05, -3.219330756110139e-05, 3.1387586204800755e-05, 1.1463847840786912e-05, -9.209735253534745e-06, -1.8641799215401988e-06, -5.217559191805776e-06, -2.298247636645101e-07, -0.00016100710490718484, -2.688902895897627e-07, 2.464005592628382e-05, -3.551196641637944e-05, -4.965495827491395e-05, -4.4778440496884286e-05, -3.254173861932941e-05, -0.0001164376299129799, -0.00011817111226264387, 0.00011035293573513627, 2.9442888262565248e-05, -4.642946441890672e-05, 7.682165232836269e-07, -2.7067440896644257e-05, -7.972623279783875e-06, -0.00011706806981237605, -5.4692404773959424e-06, 5.244090789346956e-05, -1.511741902504582e-05, 3.5784926240012283e-06], [0.00029120396357029676, 0.0003791243943851441, 7.331828237511218e-05, -0.0007907917606644332, -2.843148831743747e-05, -2.1409578039310873e-06, 0.00031933182617649436, -0.00015915237599983811, 0.00025918419123627245, 0.002558863488957286, 6.0713118728017434e-06, -0.00033179644378833473, 4.6018358261790127e-05, 0.0003814928059000522, -0.0014255179557949305, -0.0014170465292409062, 0.0002995700342580676, -0.0010121689410880208, -0.002111766254529357, -0.0002914612996391952, -3.575121809262782e-05, 0.0002136317198164761, 0.00023425635299645364, -0.0005649462691508234, 0.0017551695927977562, -0.00030514426180161536, -0.0005344479577615857, -3.550079418346286e-05, 0.0005518206162378192, 0.00040070299291983247, -0.00023627116752322763, 0.00038222072180360556, 0.00046084399218671024, 9.815905650611967e-05, 0.00020491567556746304, -0.00016250718908850104, -0.0004187751328572631, 0.0001226237218361348, 0.0001098997745430097, -0.0008428950095549226, -0.0009433606755919755, 0.0003343128482811153, 0.000801487360149622, 0.00015725765842944384, 0.0008756775059737265, 0.0005314734880812466, -9.912889800034463e-05, 0.00013460821355693042, 0.0004718009731732309, 0.0001433147699572146, 0.000501821399666369, 0.00010191863111685961, -0.00023147724277805537, -0.00012737927318084985, -0.0004874492879025638, -0.00016955961473286152, 7.672339415876195e-05, 0.0011656805872917175, 4.460065974853933e-05, -0.0003430638462305069, -0.0004572110192384571, 0.0003289012238383293, -0.0009615040034987032, 8.075941150309518e-05], [0.0009563246858306229, -0.0004762236785609275, -0.00048273667925968766, 0.0011605874169617891, -0.00021301816741470248, 4.7153778723441064e-05, 0.00021769369777757674, 0.0004228242323733866, 0.0010337433777749538, -0.001464567962102592, 0.00016210880130529404, -0.0006348214228637516, -0.0006140985060483217, -0.000199165238882415, 8.478498784825206e-05, 0.0003798180550802499, -0.0008497156668454409, 0.0002708428946789354, -0.0006752651534043252, 0.0008043012348935008, 0.00034637251519598067, 1.928749043145217e-05, -9.656499605625868e-05, 0.0003801430284511298, 0.0005471447948366404, 0.00036503569572232664, -0.00027297146152704954, -3.769113391172141e-06, -0.0003968068049289286, -0.00023083385895006359, -6.75466435495764e-05, 8.769967826083302e-05, 9.209092240780592e-05, -5.093571962788701e-05, -8.650805102661252e-05, 0.000367717380868271, -0.00041721027810126543, -0.00031846039928495884, 0.0009215873433277011, -0.00020552301430143416, 0.0004677216347772628, 0.0005176557460799813, -0.0012087664799764752, 4.8689096729503945e-05, -0.0006974376738071442, 4.191407060716301e-05, 0.0006433974485844374, -0.0003154464066028595, -0.0004026265232823789, -0.0003666021511889994, 0.0003630581486504525, 0.0003709302982315421, 0.0007589728338643909, 7.999928493518382e-05, 0.0005909906467422843, 0.0010238874237984419, -2.4225751985795796e-05, 0.0006314415950328112, 0.0008066000882536173, -4.090933362022042e-05, -0.00014004560944158584, -0.001195110846310854, -0.0008876684587448835, -0.0001227726461365819], [0.0011352213332429528, 0.0003079907619394362, -0.0005641250754706562, 0.00011456804350018501, 0.0002841072855517268, 0.0003182232612743974, -0.0002956997195724398, -0.0001283733727177605, 0.0027582470793277025, -0.0018841336714103818, 6.01540959905833e-05, 0.001040796167217195, -0.00010592124453978613, 0.0013660596450790763, 0.0005376534536480904, -0.0014775029849261045, 0.002373750787228346, 0.00018863726290874183, 0.0011702422052621841, -0.0004549714212771505, -0.0004490523715503514, 0.0004473635053727776, -0.00032287411158904433, 0.00027424213476479053, 0.0004426250234246254, -0.0014504280406981707, -0.00024123532057274133, 0.00016951991710811853, 0.0007937790942378342, -0.00014834621106274426, 0.0008874151390045881, -5.695405707228929e-05, 0.0004445043159648776, 0.0006507422658614814, -0.0007358316797763109, 0.002458505565300584, 9.778938692761585e-05, -0.0005216188146732748, -0.0008275817381218076, -0.00019644355052150786, -0.0007366393110714853, 0.0010663672583177686, -0.0009835973614826798, 0.0005916018271818757, -0.0013748402707278728, -0.00010442612983752042, 0.000463552976725623, -0.00044862550566904247, 0.0007170726312324405, 0.00019992757006548345, -0.0008073667995631695, -0.0006652455776929855, 0.0016846833750605583, 0.0004379375895950943, -0.0005140049615874887, 8.292229904327542e-05, 0.00041328539373353124, 0.0002596698759589344, 0.0013855349970981479, -0.0010124495020136237, -0.0008764180820435286, -0.00018893815285991877, -0.00025137775810435414, 0.0005113545921631157], [0.000320153048960492, 0.0002986329491250217, -0.0007398317102342844, 1.4471355825662613e-05, 0.0003864583559334278, -0.0005262012709863484, -0.000851424818392843, 0.00048342603258788586, -0.0013757598353549838, -0.005502515472471714, 0.0013943301746621728, -0.00024104822659865022, -0.0028963517397642136, -0.0007618336821906269, 0.0008921244298107922, 0.0004205719451420009, -0.0012818615650758147, -0.0001991621684283018, -0.0006205057725310326, 0.00026652924134396017, -0.000776091474108398, 0.0002625136112328619, -0.0003157421015202999, 0.00044087652349844575, -0.0025679306127130985, -0.0007927252445369959, 0.0007434762665070593, -0.00038288638461381197, -0.0011380476644262671, 0.00045547416084446013, 0.0012831828789785504, 0.0004033051955047995, -0.00012712104944512248, 0.0005158438580110669, -0.00047702790470793843, -0.00022322511358652264, 1.0303134331479669e-05, -0.0005875781062059104, 0.00023712567053735256, -0.00042905271402560174, 0.001291181892156601, 0.00023939624952618033, -0.001641076640225947, -0.0007456570747308433, -0.00033603078918531537, 0.00012829224579036236, 0.00028050097171217203, 0.00017341630882583559, 0.00039970356738194823, 0.0007566404528915882, -0.001383456983603537, -0.00018533598631620407, -0.0005249168607406318, 0.00012487023195717484, 0.000955205294303596, 0.0014861507806926966, 0.0011974459048360586, -0.000529332144651562, -0.00024539680453017354, -0.0009199231280945241, 0.0011431187158450484, -0.0007957365014590323, -0.0007085698889568448, -8.360305218957365e-05], [3.0226465241867118e-05, 3.9926810131873935e-05, 2.707208477659151e-05, 1.2286665878491476e-05, 1.5987583310561604e-06, 2.700768891372718e-05, -3.8341629988281056e-05, -8.24892777018249e-06, -8.568346856918652e-06, 0.0014016448985785246, -2.641085120558273e-05, -9.346545084554236e-06, 6.093852061894722e-05, -5.198215148993768e-05, -9.497623977949843e-06, 0.00010569728328846395, -3.943793126381934e-05, -2.7772955945692956e-05, -0.00010015076986746863, 1.7015398043440655e-05, -4.886614988208748e-06, -2.3361797502730042e-05, -7.375729182967916e-05, -1.0014312010753201e-06, -3.1084418878890574e-06, -4.140489181736484e-05, 1.2829431398131419e-05, -6.103246414568275e-05, 7.263815496116877e-05, -4.0571536374045536e-05, 3.792004645220004e-05, 5.3579401537717786e-06, 5.747484465246089e-05, 7.811287650838494e-05, 9.043717727763578e-05, -3.798794932663441e-05, -2.9183924198150635e-05, -1.1754689694498666e-05, 2.067024979623966e-05, -2.1573875983449398e-06, 4.734754838864319e-05, -1.4721694242325611e-05, -1.2463743587431964e-05, -4.656551027437672e-05, 5.881440301891416e-05, -9.498346480540931e-05, 0.00012247655831743032, 1.1912115951417945e-05, 9.688126010587439e-05, -8.833757601678371e-05, -1.2153427633165848e-05, 0.00011833319149445742, 2.9475446353899315e-05, 1.3479700101015624e-05, 3.502821709844284e-05, 3.433735037106089e-05, -7.688096957281232e-06, 2.7044561647926457e-05, -2.3670469090575352e-05, 2.08997316804016e-05, -4.476895014704496e-07, 1.3628555279865395e-05, 5.496252924785949e-06, 1.0018104148912244e-05], [5.900067844777368e-05, 4.802127295988612e-05, 6.5487856772961095e-06, 2.3295306164072827e-05, 1.2147010238550138e-05, -4.33280183642637e-05, -5.615656482405029e-05, -2.314944504178129e-05, 1.1814770005003083e-05, 0.0015952562680467963, -5.435893399408087e-06, -4.652533789339941e-06, 2.8172384190838784e-05, -5.109031917527318e-05, -1.3633932212542277e-05, 6.744154961779714e-05, -2.262714406242594e-05, 1.9037332094740123e-05, -0.00014508748427033424, 3.974110950366594e-05, -1.891777355922386e-05, 6.205091722222278e-06, -6.679282523691654e-05, 1.73645621543983e-05, 2.6597470423439518e-05, -2.8083992219762877e-05, -3.586554157664068e-05, -1.724423054838553e-05, 0.00011273128620814532, -8.914821955841035e-05, 2.5343586457893252e-05, 2.1614812794723548e-05, 9.290541493101045e-05, 7.829295645933598e-05, 0.00010940606443909928, 2.6974279535352252e-05, -2.7011266865883954e-05, -5.101775604998693e-05, 0.00011357928451616317, 4.128029104322195e-06, 6.522261537611485e-05, -4.000722401542589e-05, -5.236924334894866e-05, 6.358758400892839e-05, 4.936737605021335e-05, -8.364132372662425e-05, 9.372922067996114e-05, 3.82150974473916e-05, 9.043552563525736e-05, -0.00012842648720834404, 1.7234646293218248e-05, 0.00010557931091170758, 6.969825335545465e-06, 6.748859595973045e-05, 3.5768265661317855e-05, 2.9258224458317272e-05, 6.608315743505955e-07, 5.464861897053197e-05, -5.736362800234929e-05, 2.1289673895807937e-05, -5.66062044526916e-06, -6.771368589397753e-06, -2.5081793864956126e-05, -4.6627148549305275e-05], [-0.00020650852820836008, -0.00011946527956752107, 5.1107752369716763e-05, 1.9260329281678423e-05, 0.00011677378643071279, 0.0002709391410462558, 0.00011915903451154009, -7.832777919247746e-05, 2.9596179956570268e-05, -0.00042894401121884584, -0.00022270972840487957, -0.00014945221482776105, 0.00013921062054578215, -0.00024376944929827005, -0.00020483422849792987, 0.0002574295795056969, 8.864518167683855e-05, 0.00012450468784663826, 4.373888805275783e-05, 6.269621371757239e-05, -4.2539479181868955e-05, -6.729012966388837e-05, -0.00037431230884976685, 0.00018515728879719973, 0.00013199317618273199, -0.00022915960289537907, -4.9691167077980936e-05, 0.00017241323075722903, 0.0006104629137553275, 0.0002838000073097646, -4.150032327743247e-05, 0.0002853361365851015, 0.00020099770335946232, 8.896473445929587e-05, -3.543218917911872e-05, -0.00017544528236612678, 1.3877273886464536e-05, -0.00011142154107801616, -2.1379950339905918e-05, 7.805952918715775e-05, -6.696450873278081e-05, 0.00011649523366941139, -0.00018344441195949912, 0.0003688358119688928, -7.877633470343426e-05, 2.7932073862757534e-05, 5.9599202359095216e-05, -8.238350710598752e-05, 0.0004572265315800905, 0.00014904813724569976, -0.00042592582758516073, -9.639945346862078e-05, 6.198451592354104e-05, -6.643404776696116e-05, 0.00013706603203900158, -6.46943153697066e-05, -0.00020344015501905233, -2.1900352294323966e-05, 1.5988447557901964e-05, -7.592457404825836e-05, -7.76936358306557e-05, -5.3691248467657715e-05, 0.0002744812227319926, -8.525988960172981e-06], [-0.0006312898476608098, 0.00046117790043354034, 0.0002601072774268687, 0.0005755675374530256, -0.0004757323767989874, 2.5082495994865894e-05, -0.0002864952839445323, 7.574443588964641e-05, 0.0002974630333483219, -0.0026382524520158768, -0.0005501822452060878, 0.00017092659254558384, 0.0012492351233959198, 4.4317173887975514e-05, 3.484714397927746e-05, 0.00022260243713390082, 0.0022898963652551174, -0.00011722380440915003, 0.0004389135865494609, 8.54486643220298e-05, -0.00025993771851062775, -0.0002469160535838455, -0.00037168661947362125, 6.961787585169077e-05, -0.00020773435244336724, -0.00012839764531236142, 6.962822226341814e-05, 0.0006881479639559984, 0.0001314957335125655, -0.00039793970063328743, 0.000487303186673671, -0.0006121756741777062, 0.0003172481374349445, 5.158094427315518e-05, 0.0005247214576229453, 0.00013504092930816114, 0.0001564759004395455, -0.0002872565819416195, -0.0005530563066713512, 0.0001463668595533818, -7.658555841771886e-05, 0.00023327674716711044, -0.0003119874745607376, -0.0007214249926619232, 0.0016493928851559758, 0.0002871086762752384, 0.00018361971888225526, 0.0006170156411826611, 0.0002449700841680169, 0.0003220003272872418, -9.512103861197829e-05, 0.00029122905107215047, 0.001231629983521998, -0.0005787633126601577, -0.0004365980566944927, -7.659729453735054e-05, -0.0005220907041803002, -0.00013684012810699642, -0.00028216640930622816, 0.0005416620406322181, -0.00015147046360652894, -0.0006197449984028935, 5.788616181234829e-05, 0.00023712709662504494], [0.0002146210172213614, 0.0001484687381889671, -0.00018346290744375437, 0.00033455490483902395, 3.6498804547591135e-05, -0.0005133802187629044, -0.0006408984772861004, -3.115058643743396e-05, -0.0005327473627403378, -0.0012827825266867876, -0.0006282693357206881, -0.0003212438605260104, -4.1547966247890145e-05, 0.00036795533378608525, 0.00020045420387759805, -0.0006336114602163434, 0.00032374716829508543, -0.0001850525295594707, -0.0008036514627747238, 0.0002019038365688175, 0.0007590796449221671, -0.0001868347462732345, 0.00040535503649152815, -0.00011581166472751647, 0.00042404045234434307, -8.248475205618888e-05, -0.00022358640853781253, -0.0007752280216664076, -0.002563790651038289, 0.0004861070483457297, 0.00018730667943600565, 1.4381512301042676e-06, -0.00045549756032414734, -0.0011705601355060935, 0.0003136161540169269, -0.00023320523905567825, -0.0003050230734515935, -0.0006055772537365556, 1.3075143215246499e-05, -0.0004364707856439054, -0.0002963352599181235, 0.0004447302781045437, -0.00045491327182389796, 7.365958299487829e-05, 0.0010619625682011247, -0.00035637221299111843, 0.0006870049401186407, -6.988400127738714e-05, 0.0009534867131151259, -0.0005943066207692027, 0.00019771784718614072, -0.00041551439790055156, -0.00029108207672834396, 0.0003537487064022571, -0.0001291728112846613, 0.00021026309696026146, -0.0010198953095823526, 8.426660497207195e-05, 0.00027949060313403606, 0.0002571224176790565, 0.00014208674838300794, -0.00013091856089886278, -0.0006623828085139394, -0.0005640147137455642], [0.00044231757055968046, 0.00012750294990837574, -0.0006274486077018082, 0.0015050710644572973, -0.0002888874150812626, -0.0010874110739678144, -0.00044170505134388804, 0.0010204011341556907, 0.001265459111891687, 0.0029032588936388493, -0.00025388842914253473, 0.00046970898984000087, 0.0007217103848233819, -0.00018398651445750147, 0.0003369358601048589, -0.000303112727124244, -0.00030525727197527885, 0.0011985223973169923, 0.00032478454522788525, 0.00042331498116254807, 9.187843534164131e-05, -3.634105087257922e-05, -8.472349145449698e-05, -5.408335709944367e-06, -0.0010643403511494398, 0.000991765409708023, 0.0005220089224167168, -0.0001709073258098215, -0.00035924548865295947, -0.00022455518774222583, -0.0007423736387863755, -0.0007658001850359142, 0.0007177891675382853, -0.00015540575259365141, 0.0004776153655257076, 0.00010074346209876239, -0.00045430383761413395, 0.0003109589742962271, -8.16634637885727e-05, -0.00045931932982057333, 0.0005874024936929345, 0.0004938145284540951, -0.00023712545225862414, -0.0014375864993780851, 0.0011508077150210738, 0.00045521368156187236, 0.0006458561401814222, 7.156095671234652e-05, -0.0007906631799414754, -2.8749309421982616e-07, -2.2571204681298696e-05, 0.0006567992968484759, 0.0005901904660277069, -0.0005185606423765421, -0.0005456987419165671, 0.0003056960995309055, 1.6960260836640373e-05, -0.0001702871813904494, 0.0007211444899439812, 0.0010434668511152267, -0.0001900071802083403, -0.0003925157361663878, 0.00014002459647599608, 0.00018565014761406928], [-0.0010554533218964934, -0.0022503994405269623, -0.0006196987815201283, 0.00040802021976560354, -0.0007384312921203673, -0.0012550908140838146, -0.0014508068561553955, 0.00032733124680817127, 0.0019123211968690157, -0.007491250056773424, 0.0021653769072145224, -0.0002074663934763521, 0.0021954025141894817, 0.0008307176176458597, -0.000652823131531477, -0.002355916891247034, 0.001855252543464303, 0.0012335327919572592, -0.0011150746140629053, 0.00018532926333136857, 6.806381861679256e-06, 4.0468286897521466e-05, -0.0007086317637003958, 0.00012064795009791851, -0.0010489849373698235, -0.0027792584151029587, 0.0003381112474016845, 8.563874871470034e-05, -0.001071253209374845, 0.0015560180181637406, -0.0019413484260439873, 8.096458623185754e-05, -0.0005118067492730916, -0.0003776689700316638, -0.0014693133998662233, 0.002852136269211769, 0.0005843277322128415, -0.0021824282594025135, 0.0006457916460931301, -0.0005031230393797159, -0.0001764254120644182, -0.0005135589744895697, -0.001286326558329165, 0.00020502932602539659, -0.002315912628546357, -0.0005767510156147182, 0.0013883644714951515, 0.0014615659601986408, -0.0012023828458040953, 0.0018809337634593248, 0.0008181434823200107, -0.0006390810012817383, 0.00046172598376870155, 1.742747554089874e-05, -0.001626101671718061, -0.0020088169258087873, -0.0009439731948077679, 0.00010395635035820305, 0.00423472560942173, -0.0002965541207231581, 0.0008026031428016722, 0.0002624040935188532, 0.0005961653077974916, 2.093281364068389e-05]], [[-7.964934775372967e-05, 1.8747523427009583e-06, 4.944324609823525e-05, -7.747783820377663e-05, 0.0008100630366243422, -0.0005967485485598445, -0.0008125454187393188, 0.0007803899934515357, 0.0006118826568126678, -0.002453051507472992, 0.0019445664947852492, 0.00012234540190547705, -0.0007062757504172623, 0.00030899947159923613, 0.0015274828765541315, -0.00015706816338934004, 0.0019153000321239233, 0.0015783031703904271, -0.0014397224877029657, -0.0006324775749817491, -0.0002004150446737185, 0.00021375008509494364, 0.00017783918883651495, 0.00022860673198010772, 0.0004423299105837941, 0.000993584282696247, 0.00016354552644770592, 0.0012410556664690375, -0.0005135451210662723, 0.0013382937759160995, -0.0004241872811689973, 0.0008448381558991969, 0.0005625301855616271, -0.0005990465870127082, 0.0020049293525516987, 0.0014795782044529915, -0.00015786607400514185, 0.0011045539285987616, -0.0005302282515913248, -0.00040687713772058487, -0.0004882001085206866, 0.0009873887756839395, 3.451593511272222e-05, 0.0011844654800370336, 0.0037195589393377304, 0.0006693060859106481, 0.0009107715450227261, 0.0006552234408445656, 0.0005279809120111167, 0.000633257266599685, 0.0006564137293025851, -4.114638431929052e-05, 0.0012989494716748595, -0.0006024233880452812, -0.0007873026188462973, 0.0005533376825042069, -0.0006648994749411941, 0.001399485394358635, 0.0006706088897772133, -0.00022383384930435568, -0.0021294113248586655, -0.00023573188809677958, -0.00017932966875378042, 0.00010891466808971018], [2.4785845198493917e-06, -3.7201657505647745e-06, -2.0791185306734405e-06, -8.694415555510204e-06, -5.517965746548725e-07, 6.555390882567735e-06, 3.1684141958976397e-06, 5.153663664714259e-07, 4.796521807293175e-06, -2.641864682573214e-07, -2.4820610633469187e-06, -1.1761644600483123e-06, -2.0617014797608135e-06, 4.805996468348894e-06, 9.889265584206441e-07, 3.663030767597775e-08, 2.2592535060539376e-06, -3.7131603676243685e-06, -1.7057436707546003e-06, -2.979333885377855e-06, 1.6197743661905406e-06, -3.1008214591565775e-06, -1.6646681615384296e-06, 4.406447260407731e-07, -1.0283387382514775e-05, -6.078100341255777e-06, 9.091701940633357e-06, 4.93201014251099e-06, -3.4259921903867507e-06, -9.893942660710309e-06, -1.1972292668360751e-06, 5.509838501893682e-06, -2.0600034531526035e-06, 1.3945656291980413e-06, -4.953451480105286e-07, -3.5253563055448467e-06, 8.725430234335363e-06, 1.2330391427894938e-06, 1.0488742191228084e-05, 4.830631041841116e-06, 1.589581756888947e-06, 4.482414624362718e-06, -8.548433356736496e-07, 1.97708459381829e-06, -5.466181391966529e-06, 6.667344678135123e-06, -3.830149580608122e-06, 3.156940692861099e-06, 1.0988361509589595e-06, 4.4266175791563e-06, 1.214381313729973e-06, 5.7867737268679775e-06, 7.882217687438242e-06, -1.125518792832736e-06, -2.1082100829517003e-06, 2.4211187792388955e-06, -4.364980213722447e-06, 4.13216639572056e-06, -4.465633992367657e-06, -8.342429282492958e-06, -9.13025246518373e-07, 4.280311259208247e-06, -8.366259862668812e-06, 1.1008332876372151e-05], [-4.5980832510394976e-06, 2.6051325221487787e-06, 8.219336450565606e-06, -1.8105254639522173e-05, -1.5274797988240607e-05, -8.383542990486603e-06, 2.2385849661077373e-05, -6.5622875808912795e-06, -7.715996616752818e-06, -0.00015573838027194142, -3.953547093260568e-06, 2.0476695681281853e-06, 7.3865021477104165e-06, 3.063265239688917e-06, 9.393469326823833e-07, 1.1966067177127115e-05, -1.5299820006475784e-06, 2.2253821953199804e-05, -1.3536702681449242e-05, 8.821018127491698e-06, 3.1767615382705117e-06, -3.902351863871445e-07, -2.6240961688017705e-06, -1.4636374316978618e-06, 2.516443419153802e-05, -6.336850674415473e-06, -1.078555578715168e-05, 2.0411741843417985e-06, -1.4390539945452474e-05, -9.445802788832225e-06, -1.1048593478335533e-05, -1.122120238505886e-06, -1.664383671595715e-05, -4.370318038127152e-06, 1.8702631905398448e-06, 2.9661832741112448e-05, 2.9443137918860884e-06, 1.5549319869023748e-05, -2.5313233891210984e-06, 3.05874482364743e-06, 7.227456990221981e-06, 3.1914346436678898e-06, 1.480363880546065e-05, -3.0977219012129353e-07, -1.0175299394177273e-06, -1.3904016668675467e-05, -2.083917206618935e-05, 3.0440160116995685e-06, -1.71657793544e-05, 6.756401944585377e-07, 1.1005952728737611e-05, 1.8854163499781862e-05, 4.7601588448742405e-06, 3.1267509257304482e-06, -1.0017157364927698e-05, -1.3107532140566036e-05, -4.850754521612544e-06, 9.653644156060182e-06, 9.046643754118122e-06, 3.021879820153117e-06, -3.191012183378916e-07, 3.5177936297259293e-06, 2.660272912180517e-05, -8.557993169233669e-06], [-5.246397995506413e-05, 3.337163889227668e-06, -4.838630047743209e-07, 1.9389030057936907e-05, -1.5844385416130535e-05, -3.7454465200426057e-06, -6.71335292281583e-05, -2.4537680474168155e-06, -4.40545154560823e-05, -0.0004013716534245759, 3.754481440410018e-05, 3.054130502277985e-05, 3.963803465012461e-05, 5.561066700465744e-07, -4.9236288759857416e-05, -9.096370195038617e-05, 4.0634193283040076e-05, 2.40448225667933e-05, -2.405055784038268e-05, -2.7867843073181575e-06, -3.1544524972559884e-05, -2.3452448658645153e-05, -5.57603343622759e-05, -1.787434666766785e-05, 0.00011655192793114111, -0.00011899033415829763, -1.5975709175108932e-05, -4.9017148739949334e-06, -5.280834739096463e-05, 3.546251173247583e-05, -6.144009239505976e-05, -4.939366044709459e-05, -4.7178182285279036e-06, -1.801059079298284e-05, 3.2164782169274986e-05, 4.203098069410771e-05, -2.0288753148633987e-06, -1.6926510397752281e-06, -6.43604071228765e-05, -1.4032164472155273e-05, -5.2882591262459755e-05, 5.793420132249594e-05, 8.875835192156956e-05, -4.1020724893314764e-05, 7.160500535974279e-05, -1.701570909062866e-05, -6.515088898595423e-05, 5.7818258937913924e-05, -6.439771823352203e-05, 4.307527342461981e-05, -7.358862785622478e-05, -2.6031215384136885e-05, -2.45637638727203e-05, 9.266412234865129e-06, -5.598050120170228e-05, -0.00010219315299764276, -1.5520021406700835e-05, 9.01223611435853e-05, -2.0570041669998318e-07, -3.1873050829744898e-06, -4.769449333252851e-07, -4.846700903726742e-05, 0.000110563327325508, 1.4883324183756486e-05], [0.0010659901890903711, -0.00027772632893174887, -0.00033539949799887836, -0.0003205533139407635, -0.00012244060053490102, -0.00023448598221875727, 0.0002180974988732487, 4.5120439608581364e-05, 0.00047577760415151715, -0.0009598660981282592, 0.0010342431487515569, 6.391775968950242e-06, -0.000624637643340975, -0.00010071241558762267, 0.0003344075521454215, -0.0002733502769842744, 0.0001277799892704934, 7.1361137088388205e-06, 0.00015531014651060104, -3.610130806919187e-05, -0.00033071159850806, -0.0002976194955408573, -0.0001725045294733718, 0.0002625823253765702, 0.0005221289466135204, -0.0003574189031496644, 0.0002939443220384419, -0.0003772015334106982, -0.00012897579290438443, 0.00023140055418480188, -0.0009125128854066133, 0.00028283160645514727, -0.0003037962014786899, -1.1187104973942041e-05, -2.5286630261689425e-05, 5.03873779962305e-05, -0.0002450456377118826, 0.00035457045305520296, 0.00017267678049392998, -0.00027017653337679803, -7.653850479982793e-05, 0.00016031127597671002, 0.00020282823243178427, 0.0001333804684691131, 0.0004707438638433814, -0.0007577017531730235, -0.00043633265886455774, 0.0003804842126555741, 5.593150854110718e-05, 0.00012439534475561231, -0.00012161969789303839, -5.289256296236999e-05, -0.00030637014424428344, -0.00014413727330975235, -0.0002701950434129685, -0.00014600723807234317, 0.00011978174734394997, 0.00028188122087158263, -0.0003446197952143848, 6.039642539690249e-05, -8.071169577306136e-05, 0.0009343356941826642, 1.6050049453042448e-05, -8.288809476653114e-05], [-8.462896221317351e-05, -0.0001879524497780949, 0.0010933064622804523, 7.28207960492e-05, 0.0011647781357169151, 0.0005062496056780219, -0.0004238756373524666, 0.00024489208590239286, -0.0004895984893664718, -0.0008678998565301299, -0.0006663836538791656, -0.001045659533701837, -0.000129159729112871, -0.001855868031270802, 0.0010134837357327342, 0.000667524232994765, -0.0007438467582687736, 0.000674696930218488, 0.0017942794365808368, -0.00019100795907434076, -0.00015316861390601844, 0.0004433225258253515, 8.412972238147631e-05, 0.00022184327826835215, -0.0014412496238946915, 0.00029643630841746926, 0.0004881404747720808, -0.0010094091994687915, 0.0015189992263913155, -0.00018029031343758106, 9.959421004168689e-05, 0.0008491668268106878, 6.330889300443232e-05, 0.00019317535043228418, -0.0007214771467261016, -0.0017016237834468484, 0.0008254381828010082, -0.001232631504535675, 0.0006389999762177467, 0.0006373124197125435, 0.0012189005501568317, -9.816284000407904e-05, -0.0011149868369102478, -0.0011072135530412197, -0.0013051057467237115, -8.288785465992987e-06, -0.00024647044483572245, 0.00012685704859904945, -0.0003573326102923602, 0.0004452037683222443, -0.0003293865011073649, 0.0006983320927247405, 0.0004641750128939748, -0.0006913275574333966, 0.000628440931905061, 0.0008560254937037826, -5.594353569904342e-05, -1.4078555977903306e-05, 0.0004412881680764258, -0.0006633062730543315, 0.0007715972606092691, 1.6101374058052897e-05, 0.00031457163277082145, -1.8698894564295188e-05], [-0.0003490836243145168, -0.00017360731726512313, -0.00031015340937301517, 0.000342164101311937, 0.00033546509803272784, 8.07526521384716e-05, -0.0010487750405445695, 0.000830885604955256, -0.00010608807497192174, -0.004095881711691618, 0.0004964885301887989, 0.0009957024594768882, 0.0014602325391024351, 0.0012989237438887358, 0.0005361782386898994, -0.0012971482938155532, 0.0005978697445243597, -0.00014252135588321835, -0.0004072217270731926, 0.0006840048008598387, 0.0007925163954496384, -0.0006662927917204797, -0.000663451966829598, -0.00016321236034855247, 0.00021409528562799096, 6.855203537270427e-06, -0.00011600139259826392, 0.0007002275669947267, -3.231098526157439e-05, 0.0010085473768413067, -5.102132854517549e-05, 0.0002651516115292907, 0.000272420234978199, -2.2510328562930226e-05, -0.00089140550699085, 0.0009354925132356584, -4.1225357563234866e-05, -0.0005345137906260788, -0.0008037025691010058, 0.0007325340993702412, -0.000542485504411161, 0.0017615307588130236, -0.0010275808162987232, 0.0008580152643844485, 0.0006578887696377933, -0.00023408634297084063, 0.0006215912289917469, 0.00040136510506272316, -0.0015683635137975216, -0.00018706376431509852, 0.0008603022433817387, 1.4919278328306973e-06, 0.0005879357922822237, -0.00038308423245325685, -0.0011952081695199013, -0.001598909730091691, -0.00021735261543653905, -0.0011005555279552937, 0.0009768592426553369, 0.00019184171105735004, 0.0006733702030032873, -0.0009312772890552878, 0.0005656012217514217, 9.839675476541743e-05], [-9.194726590067148e-05, 5.073935608379543e-05, -0.0006996704614721239, -0.0011807791888713837, -7.276107498910278e-05, -0.00024597099400125444, 0.0001022469368763268, -0.000746442936360836, 0.0008020465611480176, -0.0035375107545405626, 0.0005706172669306397, 0.00022672547493129969, 0.0011788199190050364, 0.0003226454427931458, -0.0004498283378779888, 1.8136517610400915e-05, 0.004474980756640434, -0.0012843977892771363, -5.2993156714364886e-05, -0.0002958480909001082, 0.0001720644359011203, 0.0006330922478809953, 0.0002607994247227907, -0.00040694180643185973, -0.0011091443011537194, 0.00044462515506893396, -0.0014350754208862782, -0.0005430892924778163, -0.0001281170261790976, 0.0010813375702127814, -0.0012227927800267935, -0.0016066048992797732, 0.00018087791977450252, 0.00015240852371789515, -0.00012740708189085126, -0.0008181952289305627, -0.00011270446702837944, 0.0029472517780959606, -0.0013029142282903194, -0.0022964330855757, -0.00036260485649108887, 0.0004224091535434127, -0.0007765106274746358, -0.0017770124832168221, -0.0013900496996939182, 0.0010976223275065422, 0.0010308868950232863, -0.0003226670087315142, 0.0007380894385278225, 0.00025283105787821114, -0.0008123637526296079, -0.0011542417341843247, -0.0006944326451048255, 0.00010015731095336378, -0.0005958009278401732, -0.001453428529202938, 0.0005134878447279334, 5.635212437482551e-05, 0.0009695014450699091, -0.00024269867572002113, -0.0013249543262645602, -0.0026032389141619205, -0.0006714381743222475, 0.0006458014831878245], [4.397643351694569e-06, 2.242943082819693e-06, -1.008817162073683e-05, -2.452869011904113e-05, -2.166570811823476e-05, 1.5973644622135907e-05, 1.3561309060605709e-05, -6.771183689124882e-05, 1.477903060731478e-05, -2.38028201238194e-06, 3.762943379115313e-05, 3.4736385714495555e-05, -3.8970785681158304e-05, 7.165644638007507e-05, -2.9258784707053564e-05, -8.539170266885776e-06, 8.975443779490888e-05, 8.444182640232611e-06, -0.00010673456563381478, 1.8299157090950757e-05, 1.4797983567405026e-05, -6.329012194328243e-06, 4.643197462428361e-05, 1.506339594925521e-05, -2.1648813344654627e-05, 4.900595376966521e-05, -3.5571504213294247e-06, -2.5134015231742524e-05, -0.0001249510532943532, -3.232435119571164e-05, -5.047268496127799e-05, -4.6947105147410184e-05, -3.8066455090302043e-06, -3.121934423688799e-05, 4.797126166522503e-05, -1.5388754036393948e-05, -5.401363523560576e-06, 9.231855801772326e-05, -3.831411595456302e-05, -1.8137990991817787e-05, -9.808572212932631e-05, 3.16709338221699e-05, -1.626771700102836e-05, 3.1539733754470944e-05, -2.7219273761147633e-05, -5.031458931625821e-05, 7.063528755679727e-06, -2.2443085981649347e-05, -2.02870160137536e-05, 1.4249602827476338e-05, 0.00015034421812742949, 1.7174976392198005e-06, -5.432448597275652e-05, 3.434532118262723e-05, -2.8256643417989835e-05, 7.85780357546173e-05, 2.4788285372778773e-05, 1.40366159939731e-06, 6.569164543179795e-05, -1.5297409845516086e-05, 8.000092748261523e-06, -1.4805150385654997e-05, -5.786982910649385e-06, 1.901344512589276e-05], [1.3026695341977756e-05, 5.047962986282073e-06, -3.1929499527905136e-05, -3.513969568302855e-05, -2.8922309866175056e-05, -2.240060712210834e-05, -9.404179581906646e-05, -7.86559539847076e-05, -2.4789896997390315e-05, 3.9896174712339416e-05, 4.711671135737561e-05, 6.53426832286641e-06, -0.0002511110797058791, 9.662911907071248e-06, 9.047469211509451e-05, 1.5455560060217977e-05, 7.183205161709338e-05, 4.658764737541787e-05, 4.4341792090563104e-05, 3.07658156089019e-05, -7.463731890311465e-05, 3.2686266422388144e-06, 5.361012154025957e-05, 1.89958191185724e-05, -7.808017107890919e-05, 1.5081150195328519e-05, -9.746673640620429e-06, -3.668600766104646e-05, -6.0342263168422505e-05, 4.2748779378598556e-05, -3.8477544876514e-05, 6.0121892602182925e-05, -3.061828465433791e-05, -2.53147300099954e-05, -1.6796955605968833e-05, 5.419952685770113e-06, -4.229429578117561e-06, 2.2632475520367734e-05, 2.5292592908954248e-06, 3.2248558454739396e-06, -5.761193824582733e-05, 2.7948342903982848e-05, -5.729714757762849e-05, -1.271873406949453e-05, -5.09454112034291e-05, 1.1946038284804672e-05, 0.00012782363046426326, -2.7597890948527493e-05, 2.2753556550014764e-05, -4.595409336616285e-05, 5.101210263092071e-05, -4.707933840109035e-06, -2.2691445337841287e-05, 4.178060044068843e-05, 9.885934559861198e-06, 9.114127897191793e-05, 4.846952288062312e-05, -2.217352084699087e-05, 7.580508827231824e-05, -4.6709237722097896e-07, -7.974943400768097e-06, -3.562020356184803e-05, -4.083600651938468e-05, 1.837828676798381e-06], [0.00014550899504683912, 3.698573709698394e-05, 0.00020879002113360912, 0.00011386723053874448, -0.00012546026846393943, 0.00013520705397240818, 2.4572149413870648e-05, -3.530212416080758e-05, 8.19997803773731e-05, -0.0006958593148738146, 5.0916176405735314e-05, -0.00010993549221893772, -0.00043854559771716595, 0.00040442252065986395, -4.88241967104841e-05, -3.719608503160998e-05, 0.0005315848393365741, 0.0003224440442863852, -8.26269097160548e-05, 2.6746445655589923e-05, 5.643306576530449e-05, -9.398983092978597e-05, -7.741140143480152e-05, -3.7462734326254576e-05, -0.00023839037748984993, 0.0002223069459432736, 1.1538057151483372e-05, -0.00020655382832046598, -0.00012666420661844313, 3.574669790396001e-06, 0.0001255368406418711, 8.110798080451787e-05, -0.00021572390687651932, -1.5392219211207703e-05, 0.00043735100189223886, 0.00013913362636230886, 0.0001361590257147327, 0.0001692811056273058, 0.00012476096162572503, 0.00011071095650549978, 0.0001912355364765972, 9.702247189125046e-05, -0.0001297286944463849, 0.00025158238713629544, 0.00011108994658570737, 1.1633213944151066e-05, 8.195292321033776e-05, -0.0002702685887925327, -9.260038495995104e-07, 4.6885998017387465e-05, -8.65654947119765e-05, 0.00016870231775101274, -4.211216582916677e-05, -0.00010186905274167657, 6.303841655608267e-05, 0.0004104668041691184, -0.00016322870214935392, 0.00016104683163575828, 0.00018178598838858306, 0.00022709561744704843, -0.00017997932445723563, -0.00021514065156225115, -3.838581687887199e-05, -7.243100844789296e-05], [0.00023765303194522858, -0.000207021992537193, 0.00010609265154926106, 0.0006287588039413095, 0.0007392273982986808, 0.0007163389818742871, -0.0002244358038296923, 6.127196684246883e-05, -0.00031121631036512554, 0.0021018669940531254, -0.000836257531773299, -9.541776671539992e-05, -0.0009662589291110635, -0.0008432029280811548, 0.00020620718714781106, 0.0003541938494890928, -0.00023607979528605938, 0.0004433771246112883, 0.0004124533443246037, 0.0002665251959115267, -0.00028478357126004994, -0.00013712883810512722, -0.0006568018579855561, 0.0006228271522559226, -0.0002914724173024297, -0.0003707844007294625, 0.00019716349197551608, 0.0008608273928985, -0.0005101797869428992, 0.00034493638668209314, 0.00038028377457521856, 0.0007161867106333375, -0.0003960243775509298, -3.595487214624882e-05, -0.0010856727603822947, 0.00017956149531528354, 0.00032577538513578475, -0.0005235425196588039, 0.00030919795972295105, 0.00024434441002085805, 8.037802763283253e-05, 0.0008047373266890645, -0.0009320409735664725, 0.0003208255220670253, -0.000531627971213311, 0.0004999354714527726, 0.0010197021765634418, -4.708762571681291e-05, 0.0008320145425386727, -2.9439126592478715e-05, -0.00025513602304272354, 0.00017739273607730865, -0.00012261036317795515, 3.939065572922118e-05, 0.000467669713543728, 0.00013099255738779902, -0.0002503391297068447, -0.0002255816652905196, -0.0011736153392121196, -0.0003140982589684427, 0.0001418096653651446, 0.00011844767141155899, -0.0004922618390992284, -4.006593371741474e-05], [-0.00039144870243035257, 0.0003784463042393327, -0.0003758977400138974, 0.00028788691270165145, -0.0005370465223677456, -0.0008519181865267456, 0.0006577015738002956, 3.660412039607763e-05, -0.00108845136128366, 0.0015318379737436771, -0.000939965364523232, 0.00020440027583390474, -0.0012299102963879704, 0.00020869163563475013, -0.0008958065300248563, -0.00030172287370078266, -0.0019251496996730566, -0.0005135089159011841, -0.0006067005451768637, 0.00038938617217354476, -0.000454517372418195, 0.0005579359130933881, 0.0002892975171562284, -0.00036441360134631395, -0.00030443695141002536, -0.0001729280047584325, 0.00020955700892955065, -0.0014179893769323826, -0.00027698284247890115, -0.0008135838434100151, 0.0006297237705439329, 0.000624538806732744, -0.0005783032975159585, -0.000123900143080391, -0.0010298356646671891, 0.0003664180403575301, 0.0001573176123201847, -0.00020742558990605175, 0.0008903901907615364, 8.135477401083335e-05, 0.00026676166453398764, -0.00043634496978484094, -0.0011500697582960129, -0.0006376139353960752, -0.0007647029124200344, 0.0004406559746712446, -0.0003072182007599622, -1.153470657300204e-05, -0.00042506991303525865, -0.0004607350565493107, 0.0003193192242179066, 0.0011444158153608441, 0.0004999684169888496, 0.0004169408930465579, 0.0007082385709509254, 0.001167119829915464, -0.0003853724629152566, 3.0276423785835505e-06, -0.0005521269049495459, 0.00010375498823123053, 0.00029201520374044776, 0.00023116933880373836, -0.0006083566695451736, -0.0002357743214815855], [-2.103624865412712e-07, 5.593015521299094e-05, -0.0007099896902218461, 0.0010381208267062902, 0.00029633461963385344, 0.0006177938194014132, 0.00017020716040860862, 0.0005904698045924306, 0.0001498976635048166, 0.0007536601624451578, -0.0001513464085292071, -0.00048430380411446095, 0.0011418628273531795, 0.0008177458075806499, -0.0005543599836528301, 0.0011346767423674464, 0.0011090307962149382, 0.00019684305880218744, -7.206220470834523e-05, 0.000355250493157655, 0.0007795198471285403, -2.9522656404878944e-05, -0.0005341274663805962, -0.0006032307865098119, 0.0003926929784938693, 0.00020927697187289596, 0.00037577591137960553, -0.0005597633426077664, 0.0007938042981550097, 0.0008158014388754964, -2.9780843760818243e-05, -0.0009248177520930767, 0.0018760623643174767, 4.26027545472607e-05, 0.000625221582595259, -0.001829891582019627, 9.382498683407903e-05, -0.0007471308927051723, 0.0004513549793045968, 2.6072668333654292e-05, 4.645719673135318e-05, -0.00012929970398545265, 0.00011520408588694409, -0.0010159448720514774, 0.001116632716730237, -0.0010203893762081861, 0.00017054102499969304, 0.00026321300538256764, 0.001422757632099092, 0.000532474194187671, 0.0001056753026205115, -0.00014352190191857517, 0.0014005540870130062, -0.0006319372914731503, 0.00013931671855971217, -0.00012730078015010804, -1.5958001313265413e-05, -0.00023551634512841702, -0.0008300659828819335, -0.000167005680850707, 0.00029896319028921425, -0.0012010838836431503, -0.00023942929692566395, -0.00025399442529305816], [-0.0005902133416384459, -0.002472441643476486, -0.0005347030237317085, 0.0010733840754255652, -0.0006917243590578437, -0.0012486930936574936, -0.001247047446668148, 0.00034857410355471075, 0.0019655548967421055, -0.00810677744448185, 0.002469920553267002, -0.00021900406864006072, 0.002217630622908473, 0.001241067424416542, -0.0008997886907309294, -0.0022604733239859343, 0.0022616819478571415, 0.0014083851128816605, -0.0012908317148685455, 0.0001928918354678899, 5.773451994173229e-05, 1.3415483408607543e-06, -0.000761577975936234, -0.0005023063858971, -0.0010930337011814117, -0.002471226966008544, 0.00035589977051131427, 0.000298358645522967, -0.001036988920532167, 0.0015344705898314714, -0.002683042548596859, 0.0001099655928555876, -0.0005264859646558762, -0.00031107236281968653, -0.0017130192136391997, 0.0027258843183517456, 0.0006688082357868552, -0.0020935963839292526, 0.0006550553953275084, -0.0009705754346214235, -0.0001528994325781241, -0.0002614905242808163, -0.0014544930309057236, 0.00017219225992448628, -0.0022638789378106594, -0.0005370528670027852, 0.001346776494756341, 0.0013868077658116817, -0.001751986681483686, 0.0018004726152867079, 0.0007383211050182581, -0.0006508704973384738, 0.00034731661435216665, 3.3444142900407314e-05, -0.0017032778123393655, -0.0023125018924474716, -0.0011286092922091484, 0.00017769131227396429, 0.004493872169405222, -0.0007674710941500962, 0.0007981131784617901, -5.8859470300376415e-05, 0.0006385291926562786, 1.6176818462554365e-05]]], [[[0.0004593491612467915, 0.00014658874715678394, -0.0006259369547478855, 0.0005447682924568653, -0.00021120632300153375, -0.00041879081982187927, 0.00020925651188008487, 0.00012831768253818154, 0.00023241422604769468, 0.0033176119904965162, 0.0004287385963834822, 2.9701950552407652e-05, -0.000656355987302959, -0.00030906248139217496, 0.001079399953596294, -0.0012097841827198863, -0.001138993538916111, -0.0010919385822489858, -0.0007692296640016139, 0.00016568075807299465, -0.0006051450618542731, -8.009195153135806e-05, 0.0002638945879880339, 0.0008951998315751553, -0.0008497505914419889, -0.0013300925493240356, 0.0012260661460459232, 0.0008410399314016104, -0.00035881486837752163, -0.0006672004237771034, -0.000888006470631808, 9.424571180716157e-05, -0.00040496306610293686, 0.00017897218640428036, -0.0006910601514391601, 0.00010783226025523618, -0.00010716976248659194, -3.692613972816616e-05, 0.0009536257712170482, -0.00031046668300405145, 4.254012310411781e-06, 0.0001997051585931331, -0.0012542936019599438, -0.001103991293348372, 0.00010496827599126846, 0.0002312163996975869, -0.0009379886323586106, -0.0003635121101979166, -0.0003916211426258087, 0.00037732350756414235, 0.0008590276702307165, 0.00046112676500342786, 0.00031344901071861386, 0.0004006431845482439, -0.0005091010243631899, -0.0007682039868086576, 0.0001480466453358531, -0.00017926334112416953, 3.752429620362818e-05, 0.0002318384067621082, 3.84886225219816e-05, -0.0009116459405049682, 0.00010548024874879047, -7.7724369475618e-05], [5.3659093168789695e-08, 2.1490056951734005e-06, -9.665962352300994e-06, 4.331554009695537e-06, -1.031727788358694e-05, -3.6644399870056077e-07, 6.199715244292747e-06, 8.886344403435942e-06, 1.7198010482388781e-06, -6.207415026437957e-07, -5.6761077757983e-06, -7.183287209500122e-08, -3.871029548463412e-06, 1.2780717497662408e-06, -7.397482477244921e-06, -3.304748588561779e-06, -5.581006917054765e-06, -2.7654023142531514e-06, 5.7211827879655175e-06, 7.341610626099282e-07, 1.0220421245321631e-05, -1.5568288063150248e-06, 8.756547686061822e-06, 2.83738427242497e-06, -4.3613372326944955e-06, -3.439691681705881e-06, -1.919034957609256e-06, 6.740287062712014e-06, 2.155897391276085e-06, -1.0480524906597566e-05, -5.458620762510691e-06, 5.394930667534936e-06, -6.283342827373417e-06, -3.4141883133997908e-06, 5.388733939071244e-07, -1.5664854799979366e-06, -2.7725627660402097e-07, 2.438499357992896e-08, -9.017586307891179e-06, -6.091448085498996e-06, 4.677333890867885e-06, -3.326701403238985e-07, 2.620576196932234e-06, 1.8837520201486768e-06, 4.586064733302919e-06, 5.563508238992654e-06, 1.6143628727149917e-06, 7.447833922924474e-07, 4.088195964868646e-06, 2.1672853733889497e-07, 3.866290171572473e-06, -1.0559377187746577e-05, -5.188518116483465e-06, 1.9884023458871525e-06, -5.088924353913171e-06, 5.320006494002882e-06, 3.6960213947168086e-06, 8.886938189789362e-07, -4.6669404696331185e-07, -4.752989752887515e-06, 4.1974353734985925e-06, -8.854950124259631e-07, 1.514386894996278e-06, -1.981523382710293e-06], [-1.5573963537462987e-05, -8.614932085038163e-06, 2.0741604203067254e-06, -2.385827883699676e-06, 1.07488358480623e-05, -1.54958934217575e-06, 5.4384954637498595e-06, 2.7208475330553483e-06, 7.845148502383381e-06, 0.00011811241711257026, -9.507207323622424e-06, 3.861040113406489e-06, 7.454675596818561e-07, -2.1754415229224833e-06, -9.019979188451543e-06, -6.060662599338684e-06, -1.0545605618972331e-05, -4.0438753785565495e-06, 3.539005092534353e-06, -6.882838988531148e-06, 1.0210148502665106e-05, -3.843849299300928e-06, 4.246095613780199e-06, 7.5229431786283385e-06, 1.016171427181689e-05, -1.9329543192725396e-06, -1.1695753528329078e-05, 8.017676691451925e-07, 1.3792061963613378e-06, -5.489892828336451e-06, -3.2757185408627265e-07, 1.4332302271213848e-05, -4.990257366443984e-06, -1.3468228416968486e-06, -1.2259419236215763e-05, 1.0819417184393387e-05, -3.947552158933831e-06, -8.975458513305057e-06, 1.5430941857630387e-05, 8.84192377270665e-06, -1.4699468010803685e-05, 9.98836912913248e-06, 1.2487866115407087e-05, -8.087548849289306e-06, -4.591365268424852e-06, -1.4519562682835385e-05, -9.993409548769705e-06, 5.071857231087051e-06, -1.961322959687095e-05, -1.8932625607703812e-05, 1.569497908349149e-05, -1.3639919416164048e-07, 6.833985480625415e-06, -4.32019760410185e-06, -2.245918494736543e-06, -9.1011115728179e-06, -1.5837642308724753e-07, -7.676187010474678e-07, 2.325239165656967e-06, -4.5074111767462455e-06, 5.164724257156195e-07, 1.0112170457432512e-05, 8.334959602507297e-06, -7.946046025608666e-06], [5.6975488405441865e-05, 7.426042429869995e-07, -4.5764078095089644e-05, -5.524670268641785e-05, -4.26606202381663e-05, 1.235568561241962e-05, 2.0002826204290614e-05, 9.098052942135837e-06, -3.321743497508578e-05, -0.00030964190955273807, -7.4197860158164985e-06, 8.351533324457705e-06, -5.123480150359683e-05, 3.965174619224854e-05, 7.490249117836356e-06, 1.247272393811727e-05, 1.912824882310815e-05, -0.00010640121763572097, 3.746324000530876e-05, -1.6330603102687746e-05, 6.516687790281139e-06, -7.102609379217029e-05, 6.763358396710828e-05, -4.0612343582324684e-05, 3.11674339172896e-05, -2.6083489501615986e-06, 7.977563655003905e-06, 0.00010486938117537647, -2.627372850838583e-05, 3.9462025597458705e-05, 8.199812145903707e-05, -0.00010588623263174668, -1.2272464118723292e-05, 7.753791578579694e-06, -2.25137519009877e-05, -4.304266985855065e-05, 4.3533484131330624e-05, 6.388804467860609e-05, -5.373563544708304e-05, -6.096160359447822e-05, -3.250935333198868e-05, -1.6398531442973763e-05, 6.157471216283739e-05, 7.865062798373401e-05, -0.00011836500925710425, -1.7051675968104973e-05, -2.0998191757826135e-05, -8.258035450126044e-06, -0.0001886242680484429, 2.6774625439429656e-05, 4.926883048028685e-05, -7.210576586658135e-05, -4.868552787229419e-05, 5.220309321884997e-05, -2.3309170501306653e-05, -7.326577906496823e-05, 1.7016946003423072e-05, 2.0513489289442077e-06, -2.517610482755117e-05, -1.937519118655473e-05, 8.795823669061065e-05, 5.202895772526972e-05, 2.9647933843079954e-05, 1.601542862772476e-07], [-0.00014611001824960113, -0.0004820534959435463, 0.0005921070696786046, 0.00047767817159183323, -0.000599581515416503, -0.00023459631484001875, 2.9379705665633082e-05, 0.00014666459173895419, -0.00068478292087093, 0.0010506693506613374, -0.000929221510887146, 9.427714394405484e-05, 0.00048745039384812117, 0.00029714053380303085, -0.0013239511754363775, -0.0009147691307589412, 0.0007964252727106214, -0.0004939038772135973, -0.00010655316873453557, -0.0004309341893531382, -6.948657392058522e-05, 0.0001933455205289647, -0.0003689815348479897, 0.00018250910216011107, 7.264374289661646e-05, 0.0006279674707911909, 0.00046963710337877274, -0.000227705342695117, -5.115659587318078e-05, 3.456095146248117e-05, -0.0002364225365454331, -0.00033216847805306315, 0.0001570643507875502, -0.00010718622797867283, 0.00034461822360754013, -0.0004808339290320873, 6.965555076021701e-05, -0.00019208135199733078, 0.00022261406411416829, 0.00021329702576622367, -0.0003412156365811825, 0.0011267033405601978, 5.195566336624324e-05, -0.0001424298679921776, 1.180733488581609e-05, -0.00014323178038466722, 0.0006872964440844953, -0.00013235316146165133, 0.00020067012519575655, 0.0003688818251248449, 0.0007106944103725255, -0.0001696654799161479, -0.000446316204033792, -2.179092371079605e-05, -0.000248700991505757, -0.000463841890450567, -0.00021069867943879217, -9.05592751223594e-05, -9.751238394528627e-05, -0.0008613065001554787, -0.00013768846110906452, 0.0003034912224393338, 0.000775726162828505, 5.163181049283594e-05], [-0.0002167552156606689, -0.001130774151533842, -0.0001174791541416198, -0.00012254063040018082, -0.0003746715374290943, 0.00044239539420232177, 0.001123654656112194, -0.000647923385258764, 0.000141988173709251, -0.0007047110702842474, 0.0005511976196430624, -0.00019344079191796482, -0.001710787182673812, -0.00024410427431575954, 0.0008788432460278273, 0.000359389407094568, -0.0005820050719194114, 0.00023679812147747725, -3.421475412324071e-05, 8.064911526162177e-06, 0.0005771327414549887, 0.0006141273770481348, -0.00014666287461295724, 0.00044477084884420037, -0.0008954918012022972, -0.0017529070610180497, -0.0003185310051776469, 0.0005727661773562431, -0.0012564589269459248, -0.00012350582983344793, -0.00021488178754225373, -0.00020284084894228727, -0.0011643521720543504, -0.0002692993148230016, -0.0009924935875460505, -0.0002111858339048922, 0.0005004543927498162, -6.661983934463933e-05, 0.0011176812695339322, -8.172908565029502e-06, 4.089924186700955e-05, 0.00028222534456290305, -0.0008271795813925564, -0.00016992328164633363, -0.0018498210702091455, 0.0005132852820679545, -0.0003727881412487477, -0.0007728602504357696, -0.0014743059873580933, -0.00019743168377317488, 0.0006442650337703526, -0.0002061767445411533, -0.0017495498759672046, 0.0002624136977829039, 0.0006372677162289619, -0.0008660280145704746, 0.0006778897950425744, 0.00047760034794919193, 0.0002017770748352632, -0.0007111150771379471, -0.00032546755392104387, -0.0006181414937600493, 0.0003335548681207001, 1.2362603229121305e-05], [0.0004371827526483685, 6.509121885756031e-05, 0.0006995774456299841, -0.000773907988332212, -5.35388317075558e-05, 0.0011408888967707753, 0.0002087830362142995, 0.0006800472619943321, 0.0007100481307134032, 0.001173779834061861, -5.9474550653249025e-06, 0.0002634662960190326, -0.000821331050246954, -3.6462151911109686e-05, 0.0010369719238951802, -7.044376980047673e-05, 0.0025135318282991648, 0.00034827040508389473, 0.0016117224004119635, -0.0003064821648877114, -0.0003206780238542706, -0.000223072012886405, -0.0010700360871851444, 0.0009611878776922822, -0.00027977090212516487, -0.00011238241859246045, -0.00042121336446143687, -0.00020408206910360605, 0.0019890295807272196, 0.0013946931576356292, 0.00022855930728837848, 0.00039386082789860666, 0.00014190863294061273, 0.0004385749052744359, 0.0005755422753281891, 0.0030326752457767725, 0.0007169441087171435, -9.097676957026124e-05, -0.0006867835763841867, -0.00033176387660205364, 0.00016134876932483166, -0.00020853210298810154, -0.0006616298342123628, -0.00023029532167129219, 0.00021173723507672548, -0.0005024856072850525, -0.00023386048269458115, 0.0009408008772879839, 0.0007074642926454544, 0.000618042191490531, -0.00026033195899799466, -4.703409649664536e-05, 0.0006623403169214725, -0.00040591173456050456, -0.0012781561817973852, 0.0006669571157544851, 0.0007442340720444918, -0.00010597656364552677, 0.00038222139119170606, 0.0004834666906390339, -0.00022219703532755375, 0.0003025898477062583, -0.0003992257406935096, 1.877452086773701e-05], [0.0012787851737812161, 0.00011415527842473239, -0.0008062958950176835, -0.001167002017609775, 0.0005740690976381302, -0.0010662374552339315, 0.0008325203089043498, -0.0005754940211772919, -0.0008728534448891878, -0.006083701737225056, -0.000304036628222093, 0.00030103899189271033, 0.0003570147673599422, 0.0013802186585962772, 0.00015812832862138748, 0.00015414360677823424, -0.0014317668974399567, -7.398982415907085e-05, -0.0014724837383255363, 0.0005374051397666335, -0.00043862106394954026, 0.0007228497415781021, -0.0001686385367065668, -0.0003531697147991508, 0.0002058798709185794, -0.0015164762735366821, -1.83367810677737e-05, 0.0011982796713709831, -0.0018369839526712894, -0.00010781086166389287, -0.0027771296445280313, -0.0012999329483136535, -0.0007711340440437198, 1.4735247532371432e-05, -0.001060019014403224, -0.00010241387644782662, 0.0007367940852418542, 0.0009233335731551051, -1.0848452802747488e-05, -0.0015605944208800793, 5.587187115452252e-05, 0.00171332445461303, 0.00042660959297791123, 0.0007635861402377486, -0.000821830122731626, 5.857185897184536e-05, -0.001917051151394844, -0.00015605331282131374, -0.0011836992343887687, 0.0004221913986839354, 0.001165206078439951, -0.00035649555502459407, -0.0025075513403862715, 7.846010703360662e-05, 0.0013252466451376677, -0.0010368616785854101, 0.0005115685053169727, -0.00043474033009260893, 0.0015155308647081256, -0.00017445159028284252, 0.0005299351178109646, -0.0016047348035499454, -0.00010241157724522054, 3.125733928754926e-05], [3.337033558636904e-05, -1.760693521646317e-05, 1.674792292760685e-05, 1.7962085621547885e-05, 6.779642717447132e-06, -1.2179643817944452e-05, 1.5671441360609606e-05, -3.841750185529236e-06, -2.6084385353897233e-06, 8.016878382477444e-06, -5.348435661289841e-05, -4.534145045909099e-05, -2.4403318093391135e-05, 2.9040493245702237e-06, 3.6889123293804005e-05, 4.3842279410455376e-05, 6.342690903693438e-05, 3.7686586438212544e-05, -1.1884257219207939e-05, -2.8209469746798277e-05, 1.5264415196725167e-05, -3.1082854548003525e-05, -0.00010559438669588417, 4.349587834440172e-05, 1.3931487046647817e-05, 7.169951277319342e-05, -3.147564711980522e-05, -3.865679900627583e-05, 1.2757434888044372e-05, -3.546796506270766e-05, 1.5414747394970618e-05, 3.832969014183618e-05, 1.6177258657990023e-05, -1.601578878762666e-05, 0.00010517746704863384, -9.758481610333547e-06, 4.5861438593419734e-06, -2.2769732822780497e-05, -3.3614400308579206e-05, 6.28810994385276e-08, 3.8873666198924184e-05, -2.9078407806082396e-06, 1.1513408026075922e-05, 6.713069524266757e-06, 9.857851546257734e-05, 8.230155071942136e-05, 2.6967330995830707e-05, 3.820076017291285e-06, 0.00022740130953025073, -4.5492717617889866e-05, 2.853180376405362e-05, 9.502461762167513e-05, 5.240115683591284e-07, -3.491732059046626e-05, 4.995454219169915e-07, 9.853672963799909e-05, -1.2155571312177926e-05, 2.825828232744243e-05, 3.603392087825341e-06, 0.00014316310989670455, -3.074101186939515e-06, 5.4538290896744e-06, -3.1919080356601626e-05, -6.994804425630718e-05], [3.805152118729893e-06, 9.565150321577676e-06, -5.0078648200724274e-05, -1.2419395716278814e-05, -2.510838385205716e-05, -5.5565571528859437e-05, -8.198934665415436e-06, -4.367555084172636e-05, 1.7958629541681148e-05, -0.00012871029321104288, 7.294384704437107e-05, -7.78393296059221e-05, -4.395241558086127e-05, -2.235638203273993e-05, 4.594504389388021e-06, 7.378382724709809e-05, 1.7392907466273755e-05, 4.4082004023948684e-05, -4.318442734074779e-06, 6.545984433614649e-06, 4.2497744288994e-05, -2.2902420823811553e-05, -9.779528772924095e-05, 5.360231443773955e-05, -2.9160793928895146e-05, 0.00010766301420517266, -3.213500531273894e-05, -6.842111906735227e-05, 6.556011067004874e-05, -8.550009806640446e-05, 5.844717816216871e-05, 4.017007813672535e-05, -2.4123219191096723e-06, -1.6110894648591056e-05, 3.316074798931368e-05, -8.430441084783524e-06, 7.563298277091235e-05, -8.730185072636232e-05, 4.029973933938891e-05, -3.7257977965055034e-06, 4.4543172407429665e-05, 0.00010675653902580962, -5.6322343880310655e-05, 2.1014693629695103e-06, 6.779055547667667e-05, 0.0001434876030543819, 2.266685987706296e-05, 1.337102639809018e-05, 0.0001541211677249521, -8.882844122126698e-05, 4.5137574488762766e-05, 0.00015781370166223496, 1.35223690449493e-05, 1.7569735064171255e-05, 2.0738938474096358e-05, 0.0001202475032187067, 1.2856831745011732e-05, -3.3563213946763426e-05, 0.00010276294779032469, 0.00015654962044209242, 4.1188919567503035e-05, -7.844771607778966e-05, 5.8806945162359625e-06, -4.6638870117021725e-05], [0.00014237852883525193, 3.666376869659871e-06, 2.2543568775290623e-05, -0.0001635392109164968, 4.4079126382712275e-05, 7.02277829986997e-05, -0.00031012968975119293, -0.00027737466734834015, -4.887479008175433e-07, -0.001239208853803575, 4.798882582690567e-05, 0.00014883308904245496, 0.00026331155095249414, 4.12219887948595e-05, -0.00019149563740938902, -4.197637827019207e-05, 0.00037707897718064487, -0.00026689781225286424, 0.00012207444524392486, 0.00012659412459470332, -0.00012097811850253493, -0.00012897940177936107, -7.868246757425368e-05, -0.00028901276527903974, 6.718543590977788e-05, 9.713749750517309e-05, -0.00013080304779578, 2.2227701265364885e-05, 0.00036525388713926077, 0.00028031409601680934, 0.00012508734653238207, 2.6626556064002216e-05, -5.129303826834075e-05, 5.807590423501097e-05, 0.0001552640605950728, 0.0001451716379960999, 5.8949572121491656e-05, -9.346060687676072e-05, -3.1093262805370614e-05, -1.3599541489384137e-05, -8.352630175068043e-06, 1.2047734344378114e-05, 9.194269659928977e-05, -0.00020045663404744118, 9.007006883621216e-05, 2.524297269701492e-05, 0.00018626271048560739, -1.1980213457718492e-05, 0.0006510433740913868, -2.175195186282508e-05, -0.000182133968337439, 0.00016331642109435052, -0.00019253918435424566, -2.2092553990660235e-05, 0.00021784381533507258, 1.6936362953856587e-05, 0.0002178285940317437, 0.00013321057485882193, -0.00014557727263309062, 0.00016893759311642498, -7.358836592175066e-05, 9.697438144939952e-06, -8.960271952673793e-05, -8.402677485719323e-05], [-0.0003481098101474345, 0.0006489915540441871, 0.0005926020094193518, 0.00063860829686746, 0.0001701387227512896, 0.00016055733431130648, 4.65486737084575e-05, 0.0004296272527426481, 0.0002782644296530634, -8.527413592673838e-05, -0.00043384352466091514, 5.2733823395101354e-05, 0.0004153595073148608, -3.127429590676911e-05, 0.0005029946332797408, 0.0006751571781933308, 0.002203254960477352, 5.129107739776373e-05, 0.0002743364602793008, -0.00019247930322308093, 5.0287722842767835e-05, -0.00025475455913692713, -0.0005813433090224862, 0.000418952782638371, -0.00040493719279766083, 2.4529799702577293e-05, 0.0003754665667656809, -0.0001263178128283471, 0.00016130936273839325, 0.00033845420693978667, -0.0003537066513672471, -0.00036923904553987086, 0.00044265342876315117, -7.457582978531718e-05, 0.0018115801503881812, -0.00045146304182708263, -0.0005239966558292508, 0.00025342602748423815, -0.0006468892097473145, 0.00039859459502622485, -0.00024281113292090595, 0.0005616518319584429, -0.0009929274674504995, -0.0005458061350509524, 0.0014346865937113762, 0.00047127861762419343, 0.0009813278447836637, 0.0004128092550672591, 0.0012202139478176832, 0.0007690719794481993, -8.715120202396065e-05, 0.00036095676477998495, 0.0027303919196128845, -0.0006293956539593637, -0.00041279871948063374, 0.00011650948727037758, -0.00022235744108911604, 0.00023995610536076128, -9.074917761608958e-05, 0.0005491581978276372, -0.0003871193912345916, -0.0005262590129859746, 0.00010057153122033924, 0.00013209928874857724], [0.0003055845445487648, -8.721803897060454e-05, 0.0006064431509003043, -0.0006784741417504847, -0.0005619258736260235, -0.00036016840022057295, 0.0015747224679216743, 0.0004101741942577064, -0.0003243073006160557, 0.001985755283385515, -0.00021764321718364954, -0.0009961542673408985, -0.0006200562347657979, 7.93212529970333e-05, 0.0006000880966894329, -4.391639959067106e-05, -0.0006645232206210494, 0.000482736446429044, -0.0016894551226869226, -0.00018549263768363744, -0.0006191339925862849, -0.00027621176559478045, 0.0003809108166024089, 0.0009964043274521828, -0.0005666533834300935, -0.00035681432927958667, 7.01514509273693e-05, -0.0013322322629392147, -0.0010417653247714043, -0.00011188378994120285, 0.0004527425626292825, 5.424411210697144e-05, -0.0004979269579052925, -0.0004010942648164928, -0.0007777752471156418, 0.00025965002714656293, 4.1622170101618394e-05, -0.0005236775032244623, 0.00042657568701542914, -0.0005970901693217456, -0.00019905148656107485, 0.0002941690618172288, -0.00046385879977606237, 0.0006271854508668184, 0.0005049072788096964, -0.0001820644538383931, -0.0010185667779296637, 0.000143617537105456, -0.00013280095299705863, 0.0003268595028202981, -0.0001432639401173219, 0.0002165858168154955, -0.0006047221249900758, -9.917196439346299e-05, 0.00019309858907945454, -0.000497251923661679, -0.000979656702838838, -0.0003238018834963441, 0.0003743231645785272, 0.0007342470344156027, 0.0003111847036052495, 9.239980136044323e-05, -0.0007565664127469063, -0.0007583127007819712], [-3.541429396136664e-05, 0.0011023316765204072, 0.0022292472422122955, 0.002363719744607806, 0.0004764046461787075, -0.0010046398965641856, -0.0006154368165880442, 0.001018002862110734, -0.0003961213515140116, -0.0008335745660588145, -0.001632771803997457, -0.00013641601253766567, -0.00019748297927435488, -0.0011977084213867784, 0.0008688702946528792, 0.0003407177864573896, -0.00032383689540438354, 0.0004726386396214366, -0.001004407531581819, 0.0004925839602947235, -3.405359893804416e-05, -0.0003275762137491256, -0.0006487425998784602, 4.2323248635511845e-05, -0.0008382368832826614, 0.0005914084031246603, 0.0006046330672688782, -7.535860640928149e-05, -0.0002983560843858868, -0.0003326933365315199, -0.00010328560165362433, -9.560898615745828e-05, 0.0010111576411873102, -0.00021072625531814992, 0.0009308338048867881, 0.0007518089842051268, 6.115267751738429e-05, -0.0006525651551783085, -0.0002667513908818364, -0.0001879447081591934, 0.00030292465817183256, 0.0007677735411562026, -0.0002739210322033614, -0.0005996095133014023, 0.0036448403261601925, 0.0005450346507132053, 0.0010581229580566287, 0.0008907894371077418, -0.00012471532681956887, -0.0001941072550835088, 0.0004392667906358838, 0.0007324423058889806, 0.0004921790678054094, -0.00024225977540481836, -0.0011936253868043423, 0.0015330018941313028, 2.327305992366746e-05, 0.000384348415536806, 0.0003404538438189775, 0.00016986957052722573, -0.0006903166649863124, 0.0006132642738521099, 0.0015502546448260546, -0.0002761377254500985], [-0.0012725950218737125, -0.00322739384137094, -0.0008549762424081564, 0.0008770257118158042, -0.0006306101568043232, -0.0011904805433005095, -0.0014655481791123748, 0.0006100883474573493, 0.0025258720852434635, -0.0022959571797400713, 0.0024953694082796574, -0.00019687005260493606, 0.002031231066212058, -0.0004808255471289158, -0.0007531216251663864, -0.0027494567912071943, 0.001865374855697155, 0.001114551443606615, -0.0008884168928489089, 0.0007608369924128056, 0.00022326668840833008, 9.97869938146323e-05, -0.0009474266553297639, 0.0002852205070666969, -0.0019990575965493917, -0.0029253154061734676, 0.0005428533768281341, -0.0007722072768956423, -0.0008110341150313616, 0.001628917409107089, -0.0023007558193057775, 8.507675374858081e-05, -0.0005827023996971548, -0.0003813045332208276, -0.001754593919031322, 0.002813873114064336, 0.0005083642317913473, -0.0021456824615597725, 0.0006458074785768986, -0.0009419901762157679, -0.00023302821500692517, -1.607649028301239e-05, -0.0023617050610482693, 0.0003694506303872913, -0.0028459341265261173, -0.0005649208324030042, 0.001421670545823872, 0.0012390364427119493, -0.0010584092233330011, 0.0018669815035536885, -0.00028926623053848743, -0.0007003217469900846, 0.0009664656827226281, -5.132817750563845e-05, -0.0016578611684963107, -0.001576474285684526, -0.0008903723210096359, -3.207777626812458e-05, 0.004133881535381079, 4.0247716242447495e-05, 0.0009057847782969475, -0.0012812904315069318, 0.00027914135716855526, 5.0958016799995676e-05]], [[0.00025976431788876653, -0.0004571753670461476, 0.0007338755531236529, 0.0002410400047665462, 0.0001892153377411887, -0.0005978165427222848, -0.0005511048948392272, 0.0012574577704071999, 0.00018585279758553952, -0.0019250799668952823, -0.0007877833559177816, -0.0002699668111745268, 0.0002989509957842529, 0.001066490076482296, 1.2642689398489892e-05, -0.0009555522119626403, 0.00038178282557055354, 0.0004063400556333363, -0.001564747653901577, 7.752017700113356e-05, -0.000743463693652302, 0.0002859194646589458, 0.0005769004346802831, 0.0007782909669913352, 0.0005513587384484708, 7.510458817705512e-05, 8.492282358929515e-05, 0.00037825130857527256, -0.0009494965197518468, 0.0006383511354215443, -0.001511276699602604, -0.0004472699074540287, 9.751456673257053e-07, 0.0004915965837426484, 0.0016360196750611067, -0.00037248333683237433, -0.0010841202456504107, 0.0005462199333123863, -0.0002964844461530447, -0.0018337643705308437, -0.000386613275622949, 0.0015117231523618102, -6.524802302010357e-05, 0.000997520750388503, 0.0009595387382432818, 0.000919663580134511, 0.0007599620730616152, 0.001256754738278687, 0.00047543359687551856, 7.629109313711524e-05, -0.0005742735229432583, 0.000420606869738549, 0.0005258396849967539, 0.00022995412291493267, -0.0002279246982652694, 0.00016137468628585339, 0.000487258133944124, 0.001260060234926641, 0.0004533450701273978, -3.7790508940815926e-05, -0.0005171946249902248, -0.0010076772887259722, 0.001029968960210681, 1.9847251678584144e-05], [-6.007359388604527e-06, -2.1945766093267594e-06, -5.601692919299239e-06, -1.8039694396065897e-06, -5.232768671703525e-06, -6.813002528360812e-06, 7.125005140551366e-06, 8.39025597088039e-06, -5.086914711682766e-07, 1.0657086932042148e-05, -1.6829959577080444e-06, 8.779350082477322e-07, -2.619432279971079e-06, 6.8159401962475386e-06, 1.1075076145061757e-05, 5.324914127413649e-06, 4.69297219751752e-06, -7.2007555900199804e-06, -6.792695785406977e-06, 3.689739060064312e-06, 6.844900326541392e-06, -5.462085027829744e-06, 3.848330834443914e-06, 1.7306447261944413e-06, 3.181219199177576e-07, 4.517591605690541e-06, 2.5727970296429703e-06, 5.272723683447111e-06, 2.184686081818654e-06, 8.483704732498154e-06, -1.6973840502032544e-06, 1.8958104419652955e-06, -2.9457964956236538e-06, 2.2708588858222356e-06, -1.1057736628572457e-05, 3.0331041216413723e-06, 1.5751627415738767e-06, -1.5660060626032646e-06, 3.008231175272158e-08, -1.4347415344673209e-06, -3.610247176766279e-06, 8.745735613047145e-06, -1.6099390620638587e-07, 3.5219684377807425e-06, -9.26920893107308e-06, 2.2643525880994275e-06, -2.6124650958081475e-06, 3.360354185133474e-06, -2.677835254871752e-06, 3.3495821298856754e-06, 9.94493439065991e-06, 4.670916950999526e-06, -6.203089014888974e-06, 5.0421172090864275e-06, -3.4450399652996566e-06, -6.739656782883685e-06, -8.699034879100509e-06, -2.2214787804841762e-06, -1.0012155144067947e-05, 3.1420361210621195e-06, 5.95891378907254e-06, -5.119457455293741e-06, 6.747101224391372e-07, -3.140973376503098e-06], [1.4430315786739811e-06, 2.296477759955451e-06, -2.583550667623058e-06, -1.4960635326133342e-06, 2.945627784356475e-06, 1.1308404737064848e-06, 7.1053568717616145e-06, -1.7356675016344525e-05, 2.370557194808498e-05, 0.00012424541637301445, -1.3182193470129278e-05, 6.651303465332603e-06, -2.2839758457848802e-05, -1.647701765250531e-06, -1.4721331353939604e-06, 1.67479483934585e-05, -9.201715329254512e-06, 3.1815230613574386e-05, 3.35473487211857e-06, 1.1333148904668633e-05, -6.986132916608767e-07, 3.612047748902114e-06, 8.851040547597222e-06, -1.1107742921012687e-06, -6.006850981066236e-06, -1.2979880921193399e-05, 5.341203632269753e-06, -1.1434055522840936e-05, 2.9120637918822467e-06, -4.048566552228294e-06, 1.7503574781585485e-05, 9.067113751370925e-06, -7.958124115248211e-08, 9.390509148943238e-06, -1.1453812476247549e-05, -3.4186700759164523e-06, -2.225337811978534e-05, 1.7014465356623987e-06, 2.4769853553152643e-05, 2.931706330855377e-05, -7.749338692519814e-06, 8.110300768748857e-07, 3.03480476304685e-07, 1.4280165487434715e-05, 1.225022515427554e-05, -1.3195094652473927e-05, -9.458069143875036e-06, -1.0979811122524552e-05, 2.2892478227731772e-05, -4.1075789340538904e-05, -6.045507689123042e-06, -6.225690185601707e-07, 2.0194049284327775e-05, 1.860278985077457e-06, 1.5194456864264794e-05, 2.0761806808877736e-05, -4.235851520206779e-06, 1.1721497230610112e-06, -1.6796686395537108e-05, 5.811027676827507e-06, 1.1159421774209477e-05, 1.975303894141689e-05, -6.050798901924281e-07, -3.486343075564946e-06], [-4.968987923348323e-07, -3.788639514823444e-05, 8.261989569291472e-05, 1.1936304872506298e-05, 6.47768547423766e-06, 7.166247542045312e-06, 0.00014846250996924937, -2.4953493266366422e-05, -4.9634978495305404e-05, -0.0013730449136346579, -0.0001928942947415635, 4.933101081405766e-05, 8.88319918885827e-05, -3.580554039217532e-05, 8.325066119141411e-06, 5.0885038945125416e-05, 4.2151012166868895e-05, 1.2852295185439289e-05, 7.060097414068878e-05, -1.3302617844601627e-05, 1.965369847312104e-06, 1.0510061656532343e-05, -0.00010495354945305735, -5.13595987285953e-05, 8.1320118624717e-05, 6.434889655793086e-05, -2.0531115296762437e-05, 3.568214742699638e-05, -6.645298708463088e-05, 1.70543571584858e-05, 4.8508278268855065e-05, -5.248373417998664e-05, 1.2594581676239613e-05, -2.959449375339318e-05, -3.2553762139286846e-05, 0.00010460292105562985, 2.799128560582176e-05, -3.189687413396314e-05, -6.495595152955502e-05, 3.79889206669759e-05, -6.725545244989917e-05, 5.081030849396484e-06, 1.827365304052364e-05, 2.422363468213007e-05, -2.3464996047550812e-05, -1.5854213415877894e-05, -9.234764002030715e-05, -3.5547556763049215e-05, 0.00010812975961016491, 0.00011081175762228668, 2.099615812767297e-05, -4.502350930124521e-05, -0.00016164456610567868, 6.304860289674252e-05, -5.1227962103439495e-05, 2.6514053388382308e-05, -6.096788274589926e-05, -2.7233381842961535e-05, 5.918676106375642e-05, -2.585246147646103e-05, 2.6949292077915743e-05, -6.3355946622323245e-06, -2.0257239157217555e-05, 5.090675585961435e-06], [0.0010671888012439013, -0.001226617256179452, -0.0013519835192710161, -0.0009555277647450566, 0.0006849163910374045, -0.00017560648848302662, 0.00027403642889112234, -0.00021516223205253482, -9.728361328598112e-05, 0.0027942433953285217, 6.296200444921851e-05, -0.00031524529913440347, 0.000253985432209447, 0.00024464476155117154, -0.00018571031978353858, 7.284837920451537e-05, 0.00016608237638138235, -0.001032838597893715, 0.00027586400392465293, 0.0005898604285903275, -0.00019067141693085432, 0.00018932524835690856, 0.00043038948206231, -0.0003947537043131888, 0.00043616711627691984, 0.00038414436858147383, -0.000531149678863585, -0.0002009484451264143, -0.00081042101373896, 0.00045868539018556476, -0.000160907773533836, -0.00022047408856451511, 4.499172791838646e-05, 0.00013583098188973963, -0.000316162477247417, 0.00023868386051617563, 0.00024887503241188824, -0.00025865001953206956, 0.0005403782124631107, -5.0320595619268715e-05, -0.0002764827513601631, 0.0004922327934764326, 0.0002683047205209732, -0.00013973197201266885, -0.0007036339375190437, 0.0002477321831975132, 0.0006884703761897981, -0.0001333887776127085, 0.0006750866305083036, -0.00033701935899443924, 0.00027268644771538675, -0.000642863567918539, -0.0005694917635992169, 0.00048335676547139883, -4.969072324456647e-05, -0.002149902982637286, 0.0003216952318325639, 0.0004890221753157675, -1.2822187272831798e-05, -0.0008150048670358956, 0.0006582105997949839, 0.00048744314699433744, -0.0009512988617643714, 2.6472078388906084e-05], [0.00013627375301439315, 0.0020040853414684534, 0.0027595902793109417, 6.713646871503443e-05, -0.00038377041346393526, -0.0002490848710294813, 0.0018445828463882208, 8.187111234292388e-05, 0.000611695519182831, -0.003248515073210001, -4.9627997213974595e-05, 1.425236951035913e-05, 0.0011856799246743321, -0.0006843096343800426, 0.00046732998453080654, 6.313957419479266e-05, 0.0004100453807041049, 0.0004169020103290677, -0.002679460449144244, -0.0011323983781039715, 0.00025714628282003105, 0.00019467111269477755, -0.00014729259419254959, -0.0004571157624013722, 1.2697835700237192e-05, 0.000425360951339826, -0.00011696234287228435, 0.000267540366621688, -0.0009724308038130403, -0.0002789014542941004, -0.00014470971655100584, 0.0007166486466303468, 0.0007800129824317992, -0.0004382666083984077, 0.0026327238883823156, -3.1338138796854764e-05, -0.0004201401025056839, 0.0013584347907453775, 0.00020401635265443474, -0.0013248453615233302, -8.157054980983958e-05, -0.0006428267224691808, -4.313788303988986e-05, -0.0001514974283054471, 