{"nesterov": true, "init_weights": [28280, [[[[0.0009414232335984707, -0.00011752023419830948, 0.0014670221135020256, 0.001056924695149064, -0.0010440782643854618, 0.000134990579681471, 0.000852541474159807, -0.00019754507229663432, -0.00014748901594430208, 2.4173466954380274e-05, 1.0443705832585692e-05, 0.00016978279745671898, -6.726203719154e-05, 0.0006645913817919791, 0.0010392669355496764, 0.00022593495668843389, 0.0010016094893217087, 0.00011757192987715825, -0.0005921850679442286, -0.0005049803294241428, 0.0005229830858297646, 0.00033092210651375353, -0.0005850413581356406, -0.0013465574011206627, -0.0005017198855057359, -0.00035054198815487325, 0.0005450362805277109, 0.0011925935978069901, 0.0009229168063029647, -7.401115726679564e-05, -0.0007995022460818291, -7.398668822133914e-05, 0.00042231054976582527, 0.00016749207861721516, 0.0005741220666095614, 0.0005387374549172819, -0.000460668932646513, 0.00013320735888555646, -0.0003506395732983947, 0.0008529974147677422, -3.301544347777963e-05, 8.319626795127988e-05, -3.502250910969451e-05, -0.0010313282255083323, 0.0010724811581894755, 2.6004097890108824e-05, -6.421320722438395e-05, -0.00011505713337101042, -0.0004520380753092468, -0.000997096300125122, -0.0006880643777549267, 0.0005284832441248, 0.000746130826883018, -0.00017732993001118302, -0.0007839330355636775, 0.001043145777657628, -0.00038896375917829573, 0.0010630639735609293, 0.0009488039650022984, -6.571225821971893e-05, 0.002108845394104719, 0.0009670192957855761, -6.003316957503557e-05, -0.0005186276976019144], [1.738159880915191e-05, 6.280002935454831e-07, -5.474419594975188e-06, -6.954876425879775e-06, -4.4375036623023334e-07, -8.524824579581036e-07, -1.3736694199906196e-05, 3.5026239402213832e-06, -6.762617488220712e-08, 8.935180630942341e-06, -6.33354557066923e-06, 1.418693227606127e-05, 1.9584209098866268e-07, 2.6076563131027797e-07, -8.280352403744473e-07, 7.530947641498642e-06, 6.226366053851962e-07, 1.1234914154556463e-06, -9.412289614374458e-08, 2.401136953267269e-06, -2.0615387256839313e-05, 1.1071425433328841e-05, -9.30127043829998e-06, -7.1242779995372985e-06, -2.818484745148453e-06, 1.3927824511483777e-06, 2.0614814388864033e-07, 4.853815880778711e-06, 1.4024320080352481e-05, -3.949434130845475e-07, 3.377475650268025e-07, -4.037219696328975e-06, 5.844752308803436e-07, 1.947496173215768e-07, -1.2139558748458512e-05, 7.935262260616582e-07, 5.348996410248219e-07, -3.2007045547288726e-07, -5.283615678308706e-07, -3.784333785006311e-06, -6.579001592399436e-07, -1.4502221574730356e-06, 4.1805554928942e-07, 3.7656895983673166e-06, -3.696623252835707e-06, -4.906675258098403e-06, 1.1695707144099288e-05, 1.0068214351122151e-06, 1.0715757525758818e-06, -2.785155857054633e-06, -3.282107400082168e-06, 1.3050749885223922e-06, 2.8067872790416004e-06, 2.1165149064472644e-06, -4.502893716562539e-06, -1.3504672097042203e-05, 2.0552700163989357e-07, 9.10835569811752e-06, 5.524904054254876e-07, -3.1435365599463694e-06, 1.1039187484129798e-06, -1.956853793672053e-06, 6.093609385970922e-07, 8.279849680548068e-06], [-4.657647150452249e-05, -2.312931428605225e-07, -1.3943747944722418e-05, -1.4505818398902193e-05, 1.9964788862125715e-06, -1.1711866136465687e-05, -2.6303556296625175e-05, 8.196851013053674e-06, -2.4967421268229373e-06, 1.3020735423197038e-05, -1.0069456948258448e-05, 1.0571749953669496e-05, 4.335898211138556e-06, -4.288845957489684e-06, 4.3670606828527525e-06, 5.954967491561547e-06, -4.3702812035917304e-06, -1.0476001989445649e-05, -1.8049531718133949e-06, 3.5086886782664806e-06, -1.30099942907691e-05, 1.0608734555717092e-05, -8.124156920530368e-06, -6.618292445637053e-06, -6.759636107744882e-06, -2.2911771679900994e-07, 3.6842595818598056e-07, 5.723247795685893e-06, 3.494564225547947e-06, -1.141401980930823e-06, 2.910168859671103e-06, -1.4044931958778761e-05, -2.562690042395843e-07, -2.522138629501569e-06, -2.2873531634104438e-05, 2.6100744889845373e-06, -2.958793174911989e-06, -7.192221005425381e-07, -4.033030108985258e-06, -6.423280410672305e-06, -1.7892925825435668e-06, -2.3298748601519037e-06, -6.534841077154852e-07, 4.405823347042315e-06, -1.274083388125291e-06, -1.0163252227357589e-05, 1.2640629392990377e-05, 2.322993168490939e-06, -1.7063871382561047e-06, -2.254552100566798e-06, -4.910112238576403e-06, 4.01301940655685e-06, 5.946412784396671e-06, -1.3498803355105338e-06, -1.3694510926143266e-05, -6.746564849891001e-06, -7.272285529325018e-07, 1.0845493306987919e-05, -6.2193003032007255e-06, -8.421217899012845e-06, -4.9529103307577316e-06, -5.197064183448674e-06, 4.632307991414564e-06, 7.867665772209875e-06], [-0.0003073255647905171, -1.9894012439181097e-05, 1.6224430510192178e-05, -5.730314660468139e-05, 9.899316864903085e-06, -4.4173604692332447e-05, -2.787184712360613e-06, 1.8925697077065706e-05, -1.5706840713392012e-05, 2.7546100682229735e-05, 2.8327744075795636e-05, -2.6414489184389822e-05, 4.295251710573211e-05, -1.52193397298106e-05, 2.6323541533201933e-05, -2.7149224479217082e-05, -3.820280653599184e-06, 1.6162299289135262e-05, -7.4427684921829496e-06, 2.658079938555602e-05, 3.1492656944465125e-06, 7.699114576098509e-06, -2.6684112526709214e-05, 1.1765113413275685e-05, 3.2395387279393617e-06, -1.5715286281192675e-06, 5.5691438319627196e-05, 1.3638634300150443e-05, 3.285446291556582e-05, -3.6334395190351643e-06, -2.6984585929312743e-05, 2.5847579308901913e-05, 3.006065344379749e-05, -1.017116346702096e-06, -1.0958121492876671e-05, 2.514566767786164e-05, -2.7593174309004098e-05, -1.009893367154291e-06, -1.5496510968660004e-05, -1.8450315110385418e-05, 2.5090535928029567e-05, -1.2359564607322682e-05, 1.7686605133349076e-05, 4.1272243834100664e-05, -6.840667992946692e-06, -6.056620804884005e-06, 4.3792359065264463e-05, 2.3910046365926974e-05, 1.1613141396082938e-05, -1.0723701052484103e-05, -2.7789169507741462e-06, -3.172985543642426e-06, 3.232821654819418e-08, -6.384293556038756e-06, 2.7515388865140267e-05, -5.086289093014784e-06, 9.665492143540177e-06, 5.6272183428518474e-05, -1.5248117051669396e-05, -8.378119673579931e-06, -2.0023351680720225e-05, -1.4326780728879385e-05, 1.8495825315767433e-08, 2.357285120524466e-05], [-0.0005578653072007, -9.832988143898547e-05, 0.00034801510628312826, 0.0002865548012778163, -2.4751694581937045e-05, -4.4170417822897434e-05, 0.00034622702514752746, 7.826465298421681e-05, -2.4055952962953597e-05, 8.455764327663928e-05, 0.0004531886079348624, -6.756281072739512e-05, 3.815768286585808e-05, -2.5869101591524668e-05, -0.00014051442849449813, 9.927803330356255e-05, -4.3782976717920974e-05, 4.548287688521668e-05, 6.871899677207693e-05, -5.291827255859971e-05, -0.000375777599401772, -3.1956646125763655e-05, 0.00025870013632811606, 0.00029899284709244967, 0.00012229041021782905, 0.0002347848640056327, -0.0001200155311380513, -0.0004655297670979053, -0.00019759511633310467, 0.0003272306057624519, -0.00021699322678614408, 7.0071269874461e-05, 0.00016419999883510172, 1.0102916348841973e-05, 0.0003416817053221166, -0.00021847066818736494, 0.0001857034076238051, -7.734479004284367e-05, -0.00010810634557856247, 1.3383302757574711e-05, 0.00017233671678695828, -3.5895383916795254e-05, 0.0001307083002757281, 3.8293808756861836e-05, 0.0001571760803926736, 0.00015484167670365423, 1.538000287837349e-05, 0.0001767804060364142, -0.00033905907184816897, 9.172363206744194e-06, 0.0003008328494615853, -0.00029275554697960615, 5.1211311074439436e-05, 0.0002042081905528903, 0.0004270153003744781, 0.00026720770983956754, 0.00016173985204659402, -0.0003901204909197986, -4.7098576033022255e-05, -0.0002118957054335624, 0.0003431320656090975, 6.371504423441365e-05, -0.0002897131198551506, 9.114831482293084e-05], [0.0007446472882293165, -0.0002530957281123847, -0.0004642618587240577, 0.0005837475182488561, 0.0007232294883579016, 0.00032197710243053734, -0.0004238250548951328, 4.3161166104255244e-05, -0.00042267731623724103, -0.0003368518373463303, -0.00032951877801679075, 0.0003373603685759008, 8.16655665403232e-06, 0.0003659348585642874, 0.00012956409773323685, 0.0005518219550140202, -0.0002801120572257787, -0.00022870665998198092, 0.0007857469609007239, -0.0005800231592729688, 0.00023981518461368978, -0.00032549616298638284, 0.00040071940748021007, 0.00042633689008653164, 7.984328476595692e-06, 0.00025413581170141697, -0.00032223714515566826, 0.0003499142767395824, -0.000420193187892437, 0.0002583589812275022, 0.00015178437752183527, -0.00012503388279583305, 0.0003302079567220062, 0.00021157432638574392, -0.0007392786210402846, -3.579752228688449e-05, -0.00038008432602509856, -0.0001748321228660643, 0.0010480511700734496, 0.0002615078410599381, 0.0008504587458446622, 0.00046284199925139546, -4.66179262730293e-05, -1.443760993424803e-05, 6.976049917284399e-05, 0.0006110091926530004, 0.0008647948270663619, 0.00013236705854069442, -0.00029341442859731615, 4.76724817417562e-05, -0.0008816781919449568, -0.0004144162521697581, -0.0003825245948974043, 0.00020432553719729185, -0.00021728278079535812, 0.0002330020652152598, -0.0003901747113559395, -7.187131996033713e-05, -0.00021301856031641364, 0.0002958997501991689, -0.00018402637215331197, -0.00012308353325352073, 9.852582297753543e-05, 0.000908947316929698], [0.0014566942118108273, -0.0007298095151782036, -0.000993470661342144, 0.0011526388116180897, 0.00105559965595603, -0.0008908433374017477, 0.0007307201158255339, -0.0001084909017663449, -0.0001814325514715165, 0.00023493499611504376, -1.3818520528730005e-05, -0.0019247625023126602, -0.0002810042933560908, -3.608699262258597e-05, 0.00017285949434153736, -0.001122349756769836, 0.00012797692033927888, 0.0003254364419262856, 0.00013571530871558934, 0.0003552605921868235, 4.0971688576973975e-05, -0.0004971022717654705, -0.0003536585718393326, -0.001094367355108261, -0.00010245425801258534, -0.0015089497901499271, 0.0005559253040701151, -0.00011520765838213265, -0.0008396882913075387, 5.2914627303835005e-05, -0.0008469207095913589, -0.0002880110405385494, -7.584849663544446e-05, 0.000269757816568017, -0.0006339806132018566, -7.307182386284694e-05, -0.0007907390827313066, -0.0006761495023965836, 1.1839510989375412e-05, -0.00024715124163776636, 0.0003465910558588803, -0.0004288177296984941, 0.00019867064838763326, 0.0001379417080897838, -0.00022938840265851468, 0.0006491704843938351, -0.00139459571801126, 0.00015578608145006, -0.0001953945029526949, -5.166501796338707e-05, 2.3416125259245746e-05, 0.00012194227747386321, -0.0005231251125223935, -0.002291974378749728, -0.000845370173919946, -0.0003792464849539101, 0.0004891221760772169, -0.00015205131785478443, -4.711201472673565e-05, -0.00012755019997712225, 0.0003858636482618749, -0.0001875076995929703, 0.00019658246310427785, 0.0007264919113367796], [0.0002806326956488192, 0.00036856334190815687, -0.0003775091900024563, -0.0009768401505425572, 0.0009559419704601169, -0.00041272310772910714, -0.00016640956164337695, -0.00011884112609550357, -3.1503383070230484e-05, 0.000773880397900939, -0.0001239741686731577, -0.0001639581169001758, 1.38829491334036e-05, 0.0005982032744213939, -4.304700996726751e-05, 0.0010219205869361758, -4.102432285435498e-05, -0.00013002414198126644, -0.0010800114832818508, 0.0009102046024054289, -0.000627756176982075, 0.0005945711745880544, -0.0003958866000175476, -0.00017370673594996333, -0.0005864024860784411, 0.0006446265615522861, -0.0011754478327929974, 0.0003294039343018085, 0.0006933941622264683, -0.00011631503002718091, 0.0008830788428895175, 3.210501745343208e-05, -0.0001122084358939901, -0.00025503779761493206, 7.194932550191879e-05, 0.000980917364358902, -0.00020129211770836264, 0.0002984072780236602, -0.0004886174574494362, 0.0007316790288314223, -0.0009472724050283432, -0.0001935429754666984, 0.0002545561292208731, 0.00022867498046252877, 0.0008332241559401155, -0.0014035534113645554, 0.0010755980620160699, 0.00040139342308975756, 0.0014924665447324514, 5.8654986787587404e-05, -0.0010737915290519595, 0.00018472813826519996, 0.0005007268628105521, 0.0006790547631680965, -0.0005383378593251109, -0.00045040686381980777, -0.0003618209739215672, 1.8952894606627524e-05, -0.0009819858241826296, 0.0008655318524688482, -0.000876297359354794, -0.00013367109932005405, -0.0004173284978605807, -0.0004279945860616863], [-0.0004055925237480551, 6.741533070453443e-06, -2.0123256945225876e-06, 0.00010719196143327281, -4.385000283946283e-05, -1.9073709154326934e-06, 8.831499144434929e-06, -8.515324225299992e-06, 2.4044831661740318e-05, -3.417387051740661e-05, 2.816345613609883e-06, 4.50382249255199e-05, 7.765283953631297e-06, -1.1735224688891321e-05, -3.447135168244131e-05, 3.4191543818451464e-05, -3.9718710468150675e-05, -2.3650267394259572e-05, -3.135235601803288e-05, -4.865844402957009e-07, 2.875394966395106e-05, 2.3270249585038982e-05, 7.103037205524743e-05, -2.1620428469759645e-06, 2.7985338419966865e-06, 5.148655691300519e-05, 2.8049133106833324e-05, 2.247847442049533e-05, 2.096402386086993e-05, -9.12704854272306e-06, -6.188814950291999e-06, 7.834489679225953e-07, 1.362760394840734e-05, 1.3767009477305692e-05, 1.6513005903107114e-05, 1.55524248839356e-05, 4.763675678987056e-05, -2.8763668069586856e-06, -1.1936029295611661e-05, -4.289235675969394e-06, -1.0325827588530956e-06, -3.234711039112881e-05, -1.7505595678812824e-05, 9.589891305950005e-06, -4.45471414423082e-07, -8.015740604605526e-06, -2.177012720494531e-05, 5.896290531381965e-06, 3.227097295166459e-06, -6.922452485014219e-06, 3.3076021281885915e-06, -1.4791561625315808e-05, 2.247983320557978e-05, 3.588315303204581e-05, -6.481234777311329e-06, -2.4444407245027833e-05, 3.389782796148211e-05, -8.360653737327084e-06, 2.9033586542936973e-05, -3.788132016779855e-05, -9.284743100579362e-06, -1.5685234757256694e-05, -8.436742064077407e-06, 5.069239705335349e-06], [-8.38975902297534e-05, -4.929149508825503e-05, -1.0472825124452356e-05, 3.403647133382037e-05, -0.00011720281327143312, -0.000141704294946976, 5.236742435954511e-05, 1.4094125617702957e-05, -3.147664392599836e-05, -8.883249392965809e-06, -1.3959079296910204e-05, 4.810925747733563e-05, -2.0399716959218495e-05, -8.259537571575493e-05, -4.047433776577236e-06, 5.2060924645047635e-05, -0.00013819994637742639, -8.891485776985064e-05, -7.403679774142802e-05, -4.0634506149217486e-05, 1.2637195140996482e-05, 6.621213833568618e-05, 7.22269614925608e-05, -3.817592732957564e-05, 1.5742014511488378e-05, 8.957601676229388e-05, 4.320516381994821e-05, 5.613489065581234e-06, 7.424256909871474e-05, -1.2287665413168725e-05, 1.8827473468263634e-05, -3.932354957214557e-06, 9.91697652352741e-06, 6.880204637127463e-06, 1.9178904040018097e-05, -1.9694085494847968e-05, 4.5676300942432135e-05, -1.9464336219243705e-05, -5.487815724336542e-05, 8.630832780909259e-06, 1.67630805663066e-05, 7.332629365919274e-07, -3.8538273656740785e-05, 3.3870848710648715e-05, 4.587518560583703e-06, 8.157310730894096e-06, -1.4774742339795921e-05, 3.2447460398543626e-05, -6.118960300227627e-06, 1.3293963093019556e-05, -6.044151632522698e-07, -5.166600021766499e-05, 4.6192384616006166e-05, 2.593553472252097e-05, -1.551885907247197e-05, -8.736343261261936e-06, 3.7406643969006836e-05, 1.9276218154118396e-05, 2.0548442989820614e-05, -0.00013883659266866744, 2.126962863258086e-05, -0.00010537379421293736, -8.543447620468214e-06, 1.0340083463233896e-05], [9.509356459602714e-05, 0.00010667672177078202, 0.0002510468475520611, 0.0004441849305294454, -7.427544915117323e-05, 0.0003369371115695685, -7.886305684223771e-05, -0.00018471282965037972, -9.800917177926749e-05, 7.729407661827281e-05, 6.611354183405638e-05, 0.0003260590019635856, -7.920190546428785e-05, 7.203769200714305e-05, -7.225513400044292e-05, -2.0928206140524708e-05, 5.822294042445719e-06, 8.808732673060149e-05, 1.8851191271096468e-05, 9.678911010269076e-05, -0.00019693576905410737, -3.197935438947752e-05, 0.00011431243910919875, -0.00013835958088748157, -5.186606722418219e-05, 4.3355354137020186e-05, 5.658588634105399e-05, 0.00014233827823773026, 6.53441165923141e-05, 0.0001128003787016496, -7.937929331092164e-05, -5.402854367275722e-05, -6.843524897703901e-05, 0.00010558273061178625, 0.00011098327377112582, -8.304563380079344e-06, 0.00017488868616055697, -0.00013295061944518238, 7.140538218664005e-05, 2.751855026872363e-05, 0.00018077237473335117, 4.718410491477698e-05, 0.00017105659935623407, -0.00017697078874334693, 0.00010534121247474104, 6.233554449863732e-05, -0.00017602855223231018, 1.6299767594318837e-05, 0.0001426155649824068, 2.2296051611192524e-05, 0.00012113433331251144, -0.0001325598277617246, -9.650093852542341e-05, -4.9677633796818554e-05, 0.00011411152081564069, -0.0001992267498280853, 0.00015913727111183107, -0.00014800768985878676, -5.6251217756653205e-05, -9.850066271610558e-05, 0.00011369564163032919, 7.194376667030156e-05, 1.183586755360011e-05, 0.00014500692486763], [-0.0011412512976676226, -0.0006970636313781142, 0.0002371211303398013, 0.00024417799431830645, -0.0003621086070779711, -5.3227500757202506e-05, -0.00013098775525577366, -0.00010429355461383238, -0.0006466073682531714, 0.0006818636902607977, 0.0003802872379310429, 0.0006907894276082516, -0.0006392818759195507, -0.00013776347623206675, -0.00030325286206789315, 0.0003394478699192405, -0.0005653515108861029, -0.00021937019482720643, -0.00013609403686132282, 0.00019692856585606933, 0.0004591805627569556, 2.6504378183744848e-05, 7.821557665010914e-05, -0.0001267357001779601, -9.543276974000037e-05, 0.0001926528348121792, 0.00034670502645894885, 0.0002713730209507048, -0.00018107732466887683, 0.00010807656508404762, -0.00015624977822881192, -1.5837002138141543e-05, -0.0001133054174715653, -7.447614189004526e-05, 0.00018259434727951884, -3.741319596883841e-05, 0.00015035847900435328, -0.00015381252160295844, -5.017353396397084e-05, 6.482893513748422e-05, 0.00016678321117069572, -0.0001975691702682525, 0.00034330354537814856, -4.44503384642303e-05, 0.0002593511017039418, 0.00014610950893256813, -0.00012551923282444477, 0.00023010990116745234, 0.00016394203703384846, 8.839324436848983e-05, 0.0002340265054954216, -0.0004903380176983774, -8.018271182663739e-05, -0.0002372903109062463, 0.00015170202823355794, -0.00027127956855110824, 2.206162753282115e-05, -4.695075040217489e-05, -3.076160282944329e-05, -0.0006886542541906238, -0.00012312916805967689, -0.00048409844748675823, -4.588012598105706e-05, 0.0001645199954509735], [-0.0004614997887983918, -0.00046116270823404193, -0.0006273636245168746, 0.0005359388887882233, 7.458723848685622e-05, 0.0008969396003521979, 0.00019692114437930286, -0.00025823706528171897, 0.0005185148911550641, -0.00048477324889972806, 0.00046725719585083425, 0.0021801660768687725, -7.442283094860613e-05, 0.0010299441637471318, 0.0001431936107110232, 0.0006948502850718796, 0.001043009338900447, 0.00047374825226143, 0.00015807573799975216, -0.0003514772397466004, 0.0006770043983124197, 0.00018122239271178842, 3.7476409488590434e-05, -0.0002991406654473394, 0.00037235944182612, 0.000380656128982082, -3.5318254958838224e-05, 0.00031565764220431447, 0.0005797629710286856, -8.880427049007267e-05, -0.00012524578778538853, 0.00012699882790911943, 0.000383620586944744, -0.0002985420869663358, 0.00016245283768512309, 0.0003427090705372393, 0.0006146450759842992, -0.00021843810100108385, 0.00037041847826913, 0.0009562814375385642, 0.0002632752002682537, -0.00021880217536818236, 0.0001231455389643088, -0.00046856558765284717, 0.00030360370874404907, 0.00028674889472313225, 0.0003364082658663392, 3.9772639865987e-05, 0.0003839278651867062, 2.8167582058813423e-05, -0.00019711640197783709, -7.457745959982276e-05, 0.00040814612293615937, -0.00011965628800680861, -0.000547075760550797, 0.0007413241546601057, 0.00019857949519064277, -0.0005163647583685815, -0.0010967968264594674, 0.0003652499581221491, -0.0003451982047408819, 0.0007145540439523757, -0.0003795675584115088, 0.00021789816673845053], [0.0007619803072884679, 0.00043494964484125376, -0.00014113304496277124, 0.00044982414692640305, -0.00012043793685734272, 0.0005933435168117285, -0.0006389680784195662, -0.0003767941379919648, 0.0004966715932823718, 0.0009554558200761676, -0.00037944596260786057, 0.0007583514670841396, 0.0004968274151906371, 0.000833291735034436, 0.00024473023950122297, 0.00022450400865636766, 0.0006724665872752666, -0.0005604404723271728, -0.0003287641447968781, -0.00019845974748022854, -0.0012583661591634154, -0.0004956604680046439, -0.0002037210506387055, -0.0009428588673472404, 0.0001382507907692343, -0.0003735387872438878, -0.000211221951758489, 0.0007465168600901961, 0.0006156594026833773, -0.00026037427596747875, -0.0005545711028389633, -2.6450114091858268e-05, 0.00014524627476930618, 0.0005002195248380303, -0.0006581842317245901, -0.00040637399069964886, -0.0003432373923715204, -0.00014140010171104223, 0.00113260792568326, 5.440793393063359e-05, 0.00030730589060112834, 0.0001552650792291388, -0.0002634644624777138, -0.0006652880110777915, 0.00031513095018453896, 9.084570046979934e-05, 0.0003186932881362736, -0.00014910675236023962, 0.0003152889257762581, 0.000307395908748731, -0.000935663003474474, -0.00012129180686315522, -0.0003427818592172116, -0.00011419261863920838, -0.0015965214697644114, -0.0015147961676120758, -0.00077179039362818, 3.2164622098207474e-05, 0.0005199573352001607, -0.00038877673796378076, -0.0007064543897286057, 0.0006283230613917112, 0.0003529607492964715, 0.00012253038585186005], [0.0021471879445016384, -0.0005603921599686146, 0.0015018396079540253, 0.0015601194463670254, 0.004072141833603382, 0.0003258328652009368, -0.00011593996896408498, 3.252898750361055e-05, -0.0016645188443362713, -0.0007949351565912366, -0.0002374862233409658, -0.001522315782494843, -0.0006465031183324754, 0.0020205541513860226, 0.0003457030397839844, -0.00439777597784996, 0.004783357959240675, 0.0019256937084719539, -0.0012701618252322078, 0.0018744252156466246, 0.0017132717184722424, 0.0005985732423141599, -0.0002320192288607359, -0.0031038825400173664, 0.00015872760559432209, -0.0034019635058939457, 0.00041188858449459076, -0.001215110532939434, -0.0017589614726603031, -0.0033596009016036987, -0.0022777519188821316, 0.0001665028976276517, -0.0011999009875580668, -3.770690818782896e-05, 0.0007014693110249937, 0.0009816503152251244, -0.0012493995018303394, 0.0003289059968665242, 0.0007622919511049986, 0.0008056228398345411, -0.0007691991049796343, 0.0007236839737743139, 0.00139210547786206, 0.0013816896826028824, -0.0010215867077931762, 0.0008036835351958871, -0.0015113137196749449, 0.0015242041554301977, 0.0006924306508153677, -0.0011246741050854325, -0.0007341083837673068, -0.00018375890795141459, 0.00011383718810975552, -0.0034360000863671303, -8.16896790638566e-05, 0.0016033933497965336, 0.00016062826034612954, 0.0015124257188290358, -0.0012880242429673672, 0.0006930954405106604, 0.00037001160671934485, 0.002251207362860441, 0.0009349900647066534, 0.0016582399839535356]], [[-0.0020551318302750587, 0.0014714818680658937, 0.0006427051848731935, 0.0002484929282218218, 0.00013934697199147195, 0.00044018932385370135, -0.000626823864877224, -0.0007615064387209713, 0.0007982186507433653, 0.0006628500996157527, -0.00128067284822464, 0.0009672235464677215, 0.0011909094173461199, 0.001322341850027442, 0.00124831753782928, 2.642729668878019e-05, -0.00019779542344622314, 2.3366643290501088e-05, -5.986043834127486e-05, -0.0001148614683188498, -0.00038111215690150857, -0.0003704151604324579, -0.0006045175832696259, -0.0009705061092972755, -3.6675512092188e-05, -0.0007054173620417714, -0.0028578005731105804, -9.243273234460503e-05, -8.03941220510751e-05, 0.000250382290687412, -0.00036354613257572055, 0.00019761428120546043, -0.00025394855765625834, 0.00014338191249407828, 6.38792262179777e-05, 0.00139023014344275, -8.660610183142126e-05, 0.00020191349904052913, 0.0003865686885546893, 0.0006540479371324182, -0.0004029537958558649, 0.0011893101036548615, 0.0005272839334793389, -0.00016799636068753898, 0.0006279941881075501, 0.0004188843595329672, 0.0012006735196337104, 0.0010230548214167356, 0.0005777138867415488, 0.0010868568206205964, -0.0008530495688319206, -0.0004556475905701518, -0.0008533055079169571, 0.0003957021690439433, -0.00021923816530033946, -0.00034104828955605626, 0.00023490960302297026, -0.00027344468981027603, -0.00015939849254209548, -0.0013546610716730356, -0.0010078451596200466, 0.0007156449719332159, 0.00017416203627362847, 0.0005477201193571091], [7.50824183342047e-05, 1.368653556710342e-06, -7.759210802760208e-07, 5.609397248917958e-06, -6.108986781327985e-06, 1.2599841170413129e-07, 7.675585038668942e-06, -2.1569633190665627e-06, -3.4161319035774795e-06, -4.6478058379761933e-07, 1.393224283674499e-05, 1.1868085493915714e-05, 3.4284769299119944e-06, 7.476507448700431e-07, -3.586929508969661e-08, 4.024968802696094e-06, 4.100071237189695e-06, 9.958358759831754e-07, 1.021614207274979e-05, 7.432391839756747e-07, -1.5838661056477576e-05, 4.185621094165981e-07, -1.0051448953163344e-05, 1.2125705325161107e-05, 1.2859406524512451e-05, -5.00069472764153e-06, -3.728786396095529e-06, 1.2127505897296942e-06, 9.560097851135652e-07, -1.5496017340410617e-06, 4.447534138307674e-06, 2.9623654427268775e-06, 3.3829064705059864e-07, 8.467156476399396e-06, 1.3224071153672412e-05, 2.714373437129325e-08, -1.4528411611536285e-06, 5.134015168550832e-07, 8.254294698417652e-06, 6.551333626703126e-06, 5.671462986356346e-06, 8.544417141820304e-06, -2.654661273027159e-07, 7.112328148650704e-06, 4.8027313823695295e-06, 6.968215075175976e-06, 2.0042307369294576e-05, -6.71893985781935e-07, 2.43669023802795e-06, 1.2270319530216511e-05, 1.1335793715261389e-05, 6.16339832504309e-07, 2.298684194101952e-06, -4.3096843000967056e-06, 1.1926762454095297e-05, 1.6212894138334377e-07, -5.4165091967206536e-08, -9.81238827080233e-07, -2.9645302674907725e-06, 7.809736644048826e-07, -3.6301543104855227e-07, -1.091440594791493e-06, -3.600160596306523e-07, 7.968553177306603e-07], [-4.3731550249503925e-05, 1.387896872984129e-07, -6.3036322899279185e-06, 1.2556827641674317e-05, -1.208536559715867e-08, -5.497853180713719e-06, 1.091950252884999e-05, -7.543564606748987e-06, -8.391618393943645e-06, 1.7409524843969848e-06, 7.992712198756635e-06, 2.7478215997689404e-05, -4.1447185594734037e-07, -7.484485422537546e-07, -7.712574188190047e-07, 4.366485882201232e-06, -2.621514113343437e-06, -3.4212541777378647e-06, 1.1271266885160003e-05, -6.638173317696783e-07, -1.197345136461081e-05, -9.24921732803341e-06, -5.1546908252930734e-06, 5.5602849897695705e-06, 7.562101927760523e-06, -2.5182334866258316e-06, -3.351262421347201e-06, 1.4788247426622547e-07, -1.3065155144431628e-05, -4.138883014093153e-06, 2.3155039343691897e-06, 3.238164026697632e-06, 5.343852080841316e-06, 3.4763911571644712e-06, 1.424527999915881e-05, -2.8808985916839447e-06, -4.500130216911202e-06, -1.6157815707629197e-06, 1.3497364307113457e-05, 1.0229907275061123e-05, -1.1889765119121876e-06, 7.778317012707703e-06, 1.953185346792452e-08, 5.023500762035837e-06, 7.669016667932738e-06, 4.435941718838876e-06, 1.89597049029544e-05, 6.265454885578947e-06, 2.113976506734616e-06, 6.805711564084049e-06, 8.411815542785916e-06, 6.1953764998179395e-06, -1.376730097035761e-06, -5.119085471960716e-06, 1.1084797733929008e-05, -1.0631755685608368e-05, -8.377763833777863e-07, 1.4745520502401632e-06, -1.2018624602205819e-06, 1.7546894923725631e-06, 4.329407602199353e-06, -4.39546874986263e-06, -1.8933747014671098e-06, 1.3643726788359345e-06], [0.00024434318765997887, 1.540918310638517e-05, 4.3166932300664485e-05, -1.8085658666677773e-05, 2.0797819161089137e-05, 1.1122897376480978e-05, 5.6773242249619216e-06, 6.304256385192275e-05, 2.6407909899717197e-05, -2.218570443801582e-06, 7.895049748185556e-06, 2.796281478367746e-05, 5.3600284445565194e-05, -3.336317604407668e-06, 1.995693673961796e-05, 3.3022315619746223e-06, 5.303783837007359e-06, -1.1110932973679155e-05, 1.0980496881529689e-05, -2.883462684621918e-06, -4.217225796310231e-05, 4.645538865588605e-06, -3.19698010571301e-05, -1.4139119230094366e-05, -5.9905846683250275e-06, 3.365321026649326e-05, -5.058846727479249e-05, -1.437686114513781e-05, 2.6539102691458538e-05, 2.4912573280744255e-05, 5.0665657909121364e-06, 3.57992212229874e-05, 5.509138190973317e-06, -3.084206582570914e-06, 1.8899590941146016e-06, 2.303035398654174e-05, -2.983639433296048e-07, 1.1964373697992414e-05, 6.333893452392658e-06, 5.0234033551532775e-05, 8.041579712880775e-05, 8.270572834589984e-06, 2.080051308439579e-05, 1.9583258108468726e-05, -2.2784495740779676e-05, -3.471285890555009e-05, 3.2179355912376195e-05, -2.637972829688806e-05, 1.2148871064709965e-06, -2.670161302376073e-05, 2.531685822759755e-05, 2.649802263476886e-05, -1.3143056094122585e-05, 7.3692390287760645e-06, 2.574605605332181e-05, 4.2658415623009205e-05, 2.2722069843439385e-05, -3.5269757063360885e-05, 1.9825854906230234e-05, -3.406859468668699e-05, -2.4944583856267855e-05, -5.667690493282862e-05, -1.2575120308611076e-05, 7.954705506563187e-05], [0.0009964908240363002, 1.1966694728471339e-06, -0.00039848574670031667, 0.0003607278922572732, -0.0002772020234260708, -0.00011290960537735373, 0.0003287767176516354, -7.660470146220177e-06, 9.943095938069746e-05, -2.49679487751564e-05, -0.00013407543883658946, 0.00016311672516167164, 5.510957271326333e-05, -3.721092434716411e-05, -6.804363511037081e-05, 1.5380581317003816e-05, -0.0002932650095317513, -0.00012634786253329366, 0.00023352616699412465, -0.000188421894563362, -0.00038084256811998785, -0.00025551384896971285, 6.866301555419341e-05, 9.250979928765446e-06, 0.0002726266684476286, 2.4341245079995133e-05, 0.0002513567160349339, -0.00013951974688097835, -0.00024317580391652882, -5.949772094027139e-05, 8.165289182215929e-05, -0.0005175965488888323, 2.827635034918785e-05, 2.9253187676658854e-05, 0.00011024731065845117, 3.897224451065995e-05, 0.00022412603721022606, -0.00025976516189984977, -0.00015937395801302046, 0.00038010370917618275, -0.00032237410778179765, 0.00014257333532441407, -0.0001690576900728047, 0.00025079629267565906, -2.3287742806132883e-05, -0.0003093557897955179, 0.00024935801047831774, -0.00014526043378282338, -0.00028984801610931754, -0.0001204999498440884, -9.177199899568222e-06, -0.00017054309137165546, 0.00011927812738576904, 2.1691172150895e-05, 9.088055958272889e-05, -0.0002447173756081611, 4.60454830317758e-05, -0.00028245162684470415, -0.0002033893542829901, -0.0004217023670207709, -2.937046519946307e-05, 9.827696339925751e-05, 9.633986337576061e-07, 0.0002124626626027748], [-0.0011028563603758812, 0.00010831742838490754, 0.0001720407308312133, 0.0020740972831845284, -0.0008589805802330375, -0.000971680274233222, -3.045500852749683e-05, -0.0001386720105074346, 0.0004068808048032224, 0.0001719649590086192, -0.00013380366726778448, -0.00016099060303531587, -3.932073013857007e-06, 0.0002487161254975945, -0.0003547650121618062, 0.0006548560922965407, 8.065353176789358e-05, -0.0009009919012896717, 0.00022979146160650998, -0.00025942843058146536, 0.00029701157473027706, 0.0005249368259683251, 0.0005774992168880999, -0.00047921043005771935, -1.3913522707298398e-05, 0.0002580824075266719, 0.00029259826987981796, 0.0009077229187823832, 0.0013127659913152456, 8.944596629589796e-06, -0.0003351885825395584, -0.0002892061311285943, 0.000477916793897748, 0.0004882781649939716, 0.0002146383048966527, -2.381566446274519e-06, 0.00010978410864481702, -0.00013727523037232459, 0.0004696451360359788, -6.731223402312025e-05, -0.0006060671876184642, -0.00017836396000348032, 0.00016424735076725483, -0.0005255944561213255, 0.00010201479744864628, 0.0004602789122145623, -0.0010278007248416543, -0.0006756965885870159, 0.0008415699703618884, -0.0006191014545038342, -0.00034263121779076755, -2.0980580302421004e-05, 0.00031919515458866954, 2.904390566982329e-05, -0.00027501076692715287, 0.0006968723610043526, -0.0004874359583482146, 0.00038029716233722866, -0.0010521530639380217, 0.00016517387120984495, -0.00011184579489054158, -0.0014436559285968542, -0.0006869005737826228, -0.0005895920330658555], [0.0009676060290075839, 0.00046762244892306626, -0.00018671536236070096, 5.315407179296017e-05, 0.0006462398450821638, 0.0006734456983394921, 0.00011569105117814615, 0.00013559417857322842, 0.0005433035548776388, -0.000639300444163382, -0.0006454106187447906, -2.1084313630126417e-05, 0.0011821540538221598, 0.000635066069662571, 0.0003659239155240357, -0.0006317086517810822, 0.0002687474770937115, 0.0018880916759371758, 0.0009361368720419705, -0.0004401524201966822, 0.0007357388385571539, -6.677754572592676e-05, 3.6940447898814455e-05, -0.0002121562574757263, -0.0004536377964541316, -0.0015190233243629336, 0.0010615771170705557, -0.00013295840471982956, -0.0003388607583474368, -0.00028776199906133115, -3.4922231861855835e-05, 0.0007233198266476393, 3.7414429243654013e-06, 0.00011272036499576643, -0.00042085041059181094, 0.0008078145910985768, -0.0006151979323476553, 5.161781518836506e-05, 0.0004226153832860291, -0.0005665516364388168, 0.001548159052617848, 0.0002560658613219857, -3.8266953197307885e-05, 0.0009032104862853885, -0.00016830956155899912, 0.00029134529177099466, 9.907581261359155e-05, 0.00010112921881955117, -0.000437841285020113, -2.2555250325240195e-06, 0.0006573174614459276, 0.00031900149770081043, -0.0002659866295289248, -0.0009293227922171354, 0.0005971937207505107, 0.0010139429941773415, 0.0011821703519672155, 0.0006191196152940392, 0.00117586855776608, -0.0005117691471241415, 0.0011545668821781874, 0.0013009175891056657, 0.0003794669755734503, 0.0004475262830965221], [-0.0032618395052850246, -0.0008315728046000004, -0.00012884724128525704, 0.000487322366097942, -0.000803562521468848, -0.0004065217508468777, 0.0006213740562088788, 1.3007214874960482e-05, -0.0009406581521034241, -0.00019724669982679188, 0.0008599908323958516, 0.0005528023466467857, -0.0009405394084751606, -0.0009937117574736476, -0.0006354538490995765, 9.133870480582118e-05, -0.0007617900264449418, -0.0007456652820110321, -0.00038445129757747054, -0.0003871772496495396, 0.0005112396902404726, -0.0002932782517746091, -0.0010455178562551737, 0.0009228008566424251, 0.0001472430012654513, 0.00025557278422638774, 0.000901557388715446, 0.00012192202848382294, 0.0012634750455617905, 0.0009249602444469929, -0.00016492497525177896, -0.00031333311926573515, -9.868752385955304e-06, 0.00011691743566188961, -0.00028684549033641815, -0.0011450938181951642, -0.000507222255691886, -0.0006841500871814787, -0.00034455646527931094, 5.007227446185425e-05, 0.0006616678438149393, -0.00014235038543120027, 0.0008376716286875308, -0.00012164251529611647, 8.068844908848405e-05, 0.0004033732693642378, -0.0005230114329606295, 0.0011486444855108857, 0.0005959552945569158, 0.00021221008501015604, 0.0011959447292611003, -0.00010767132334876806, 0.0007836849545128644, -0.0002193254476878792, 0.00019518205954227597, 0.0003858673735521734, -0.0004983150865882635, 0.0005931722698733211, -0.0008673637639731169, 0.0008732094429433346, 0.0009738318622112274, 0.0001014356967061758, -0.00014643333270214498, -0.0004540211521089077], [-0.0004024715453851968, -1.330996019532904e-05, -1.9561337467166595e-05, 5.152304220246151e-05, -1.4508584172290284e-05, -4.39864425061387e-06, -2.1959585865261033e-05, 4.298356543586124e-06, -2.2692127458867617e-05, -7.078703674778808e-06, 5.8819328842218965e-05, 2.6103336494998075e-05, -6.162197678349912e-06, -8.376137884624768e-06, -4.5840770326321945e-06, 1.8503054889151827e-05, 2.529410267015919e-05, 4.568417716654949e-05, 8.331974640896078e-06, 4.459880983631592e-06, -2.6483852707315236e-05, -3.514594027365092e-06, -1.1714000720530748e-06, 8.271874321508221e-06, 2.6553050702204928e-05, 2.0651707018259913e-05, 9.639032214181498e-06, 6.206820216902997e-06, -7.734753125987481e-06, 3.182297950843349e-05, -2.5008241209434345e-05, 2.5932070002454566e-06, -1.145091937360121e-05, -5.584098107647151e-05, -2.4895920432754792e-05, -4.6811455831630155e-06, 1.5065756997501012e-05, 4.613217242876999e-06, -7.431967333104694e-06, 4.658245870814426e-06, -4.366113898868207e-06, 1.2874001185991801e-05, -4.8223014346149284e-06, -1.3437623238132801e-05, -1.276321472687414e-05, -3.463236862444319e-05, 2.7356472855899483e-06, 2.407199099252466e-05, -1.4843427379673813e-05, -8.722934580873698e-05, 2.219368252553977e-05, 2.1536719941650517e-05, 3.03578835882945e-05, 9.755640348885208e-06, -2.588300412753597e-05, -2.3478810362576041e-07, -2.317881808266975e-06, 1.4224861843104009e-05, -1.5843263099668548e-05, -1.2194059308967553e-05, 1.4429724615183659e-06, -2.5153192837024108e-05, -1.7205287804245017e-05, -1.5985058780643158e-05], [0.00014059327077120543, -6.738028605468571e-05, -3.128364551230334e-05, 8.362418157048523e-05, -0.00013656655210070312, -6.772376946173608e-05, -6.4302485043299384e-06, 8.630342563265003e-06, -3.6038258258486167e-05, -1.5397254173876718e-05, 8.318752225022763e-05, 8.217590220738202e-05, -1.941311711561866e-05, -6.713694892823696e-05, 3.620567440520972e-06, 2.5129764253506437e-05, -3.95473325625062e-05, 1.5061612430145033e-05, 4.924365839542588e-06, 5.617306669591926e-06, 2.334064629394561e-05, 1.7558922991156578e-06, -6.985879736021161e-06, 2.297474566148594e-05, 1.9391085515962914e-05, 7.627107152075041e-06, 3.638585621956736e-05, 1.9100589270237833e-06, 2.611999661894515e-05, 5.77913669985719e-05, -7.1100948844105005e-06, 6.138915068731876e-06, -2.90448351734085e-05, -1.8117589206667617e-05, -6.936352747288765e-06, -3.126396768493578e-05, 3.747007576748729e-05, -7.355778961937176e-06, -3.621978248702362e-05, 2.6033862013719045e-05, -1.1477170119178481e-05, 4.8440793761983514e-05, 1.9641254766611382e-05, -1.1911765795957763e-05, -2.4180324544431642e-05, -3.5273733374197036e-05, -4.631877345673274e-06, 3.9472506614401937e-05, 1.576999420649372e-05, -8.522033749613911e-05, 3.2752843253547326e-05, 1.3522531844500918e-05, 5.686976510332897e-05, 9.010447683976963e-06, -3.0459372283075936e-05, -3.289976666565053e-05, -8.995439202408306e-06, -1.7421536540496163e-05, -0.00010406732326373458, -4.496007750276476e-05, -5.218418300501071e-05, -3.841528086923063e-05, -1.2941692148160655e-05, 6.326556103886105e-06], [0.0001715520629659295, 0.00017343636136502028, 9.296200005337596e-05, 5.7273427955806255e-06, 0.00010374103294452652, 7.943592936499044e-05, -6.477301940321922e-05, 1.4983219443820417e-05, 4.703615195467137e-05, 1.2172673450550064e-05, 0.00022542342776432633, 7.03982004779391e-05, 0.00015793074271641672, 0.00010882598871830851, -9.114103158935905e-05, 4.3526390072656795e-05, 5.216820500208996e-05, 4.293176971259527e-05, -2.3799480914021842e-05, -5.569935456151143e-05, 1.1870055459439754e-05, -1.3878961908631027e-05, 0.00010150427260668948, -0.00021285680122673512, 3.5208940971642733e-06, 7.172540063038468e-05, 9.247589332517236e-05, -2.5626774004194885e-05, 8.641058229841292e-05, 1.0880912668653764e-05, -5.907184458919801e-05, 0.00016107190458569676, 2.020059218921233e-05, -6.996642332524061e-05, 2.5292887585237622e-05, -6.0683196352329105e-05, 2.8114118322264403e-05, 3.8476355257444084e-05, -5.670202517649159e-05, 6.699957884848118e-05, 0.0003610297862906009, 5.4972959333099425e-05, -3.211240255041048e-06, 0.0001742884487612173, -3.053851833101362e-05, -0.00017521929112263024, 0.00011202500172657892, -0.00013685677549801767, -9.748352022143081e-05, -0.0002802160452120006, 0.00012616868480108678, 5.975765088805929e-05, -1.588557643117383e-05, 0.00013108480197843164, -3.217214543838054e-05, 7.253396324813366e-05, 7.945571269374341e-05, 2.135623071808368e-05, 0.00031358152045868337, 7.743050082353875e-05, 5.079096808913164e-05, 5.350130231818184e-05, 0.00010877012391574681, 9.99435578705743e-05], [0.002841551322489977, -0.00016082412912510335, -0.00046625357936136425, 9.566443623043597e-05, -8.668238297104836e-05, -1.9825893105007708e-05, 0.0008038559462875128, 7.41322073736228e-05, -0.00013480361667461693, -0.00043717282824218273, 0.0005057509406469762, 0.0004865313821937889, -9.353476343676448e-06, -2.5479428586550057e-05, -6.286611460382119e-05, 0.00010887985990848392, -0.00020703102927654982, 4.693262599175796e-05, -9.224817040376365e-05, -0.0001700989669188857, 0.0005037797964178026, -0.0001542229438200593, 0.0003411522484384477, 6.92496178089641e-05, -8.236253052018583e-05, 1.6706249880371615e-05, 0.0004993135225959122, -2.66801034740638e-05, -3.853136149700731e-05, 4.437466850504279e-05, -7.675126835238189e-05, 4.4197986426297575e-06, 2.8445045245462097e-05, 0.0001305521873291582, -7.709470082772896e-05, -4.2107894842047244e-05, 6.664115790044889e-05, 5.191346281208098e-05, -0.00019115445320494473, 0.00030277748010121286, 0.0001197420060634613, -0.0002649385714903474, 2.322144791833125e-05, 0.00045847301953472197, 0.00018001339049078524, -0.00019984098616987467, 0.00035131757613271475, -0.00025930997799150646, 3.113692218903452e-05, -0.0005302398931235075, 0.0001753675314830616, 0.00029847101541236043, 0.000631931412499398, 0.0001403415808454156, -0.00039103743620216846, -9.434162348043174e-05, 0.00022216180514078587, -0.00036433173227123916, -0.00020297427545301616, 4.7526256821583956e-05, -0.00012572185369208455, -0.0007164694252423942, 0.00011728386743925512, 0.0002108028274960816], [-0.0017037808429449797, -0.0002154944813810289, -0.0002106250321958214, 0.0009220279171131551, 8.982875442598015e-05, -0.0008300684276036918, 0.0014196077827364206, 0.00029753302806057036, -5.19676978001371e-05, -0.0005754186422564089, 0.000991613371297717, 0.00020136302919127047, -0.00034813868114724755, -0.0004483419470489025, -0.0002005496498895809, 0.0003178940969519317, -0.0003143552166875452, 0.0002979425189550966, 3.460981315583922e-05, 0.00016880164912436157, -0.00047685796744190156, 3.302015829831362e-05, 0.0005737537867389619, 0.00029649431235156953, -0.00010299859422957525, 0.0005541557911783457, 0.0006480293814092875, 0.00016142067033797503, 0.000969475309830159, 0.00023600939312018454, 0.0006880246219225228, 0.00021504625328816473, -0.00034518615575507283, -1.5326819266192615e-05, 0.0006154924631118774, -0.00032043649116531014, 0.0007143375696614385, -9.115114517044276e-05, -0.0004240862908773124, 0.00016451426199637353, 0.0001153969278675504, 0.00020145576854702085, 4.528032150119543e-05, -0.00044563901610672474, -9.2140726337675e-05, -0.00013585264969151467, 0.0005463940324261785, -3.412068326724693e-05, 0.00023904338013380766, 3.7569261621683836e-06, -0.000334521580953151, -0.00017926530563272536, -0.00010223740537185222, 0.000393702503060922, 0.0008444318664260209, 0.0001507745764683932, 0.0004419682372827083, 2.4766308342805132e-05, 0.00013878985191695392, 0.00040847185300663114, -0.00019177596550434828, 5.149617209099233e-05, -5.209918163018301e-05, -0.000277664337772876], [0.0017982844728976488, 0.0008150943322107196, 0.00019149389117956161, 3.241371814510785e-05, -0.0006166602252051234, -0.0007466896204277873, -0.0008203107281588018, -0.0003162279026582837, 0.0005371241131797433, 0.000869750278070569, 0.0001306829508394003, 0.0007364126504398882, 0.000479435664601624, 7.817633741069585e-05, 0.00020835455507040024, 0.00023466191487386823, -0.000523860624525696, 0.0002624774060677737, -0.00020867117564193904, 0.00038138992385938764, -0.000637283839751035, -1.8149556126445532e-05, 0.000489764497615397, -0.0009254186879843473, -0.00030063834856264293, -0.0006296847714111209, -0.0007489796262234449, 9.735314233694226e-05, -2.2350126528181136e-05, 0.00014789791021030396, 0.00021733270841650665, 0.000415473070461303, 0.0009330084430985153, 3.6094625102123246e-06, -0.0004192180058453232, 0.0004113568284083158, -0.00017370347632095218, -0.00020286437938921154, 0.0005678349989466369, -5.4436972277471796e-05, -0.0001188125170301646, -9.631190914660692e-05, -0.0006417960394173861, 0.00015290295414160937, 2.1044459572294727e-05, -2.7186744773644023e-05, 6.0772348660975695e-05, 0.00015611614799126983, 0.0003754248027689755, -0.0005907458253204823, -0.00023911436437629163, -0.00029802543576806784, -4.941999213770032e-05, 0.0004884899826720357, -0.00032604357693344355, -0.0007978539215400815, -0.0005110045894980431, 0.00022070447448641062, 9.825092274695635e-05, -4.33294553658925e-05, -0.0010269050253555179, 0.0007744195754639804, -0.00012344858259893954, 0.0008537042886018753], [0.0016158907674252987, -0.00014798191841691732, 0.0016112212324514985, 0.001145506976172328, 0.004278920125216246, 0.00021793670020997524, 2.1033178200013936e-05, 6.713590119034052e-05, -0.0016927658580243587, -0.0009223951492458582, -4.751088272314519e-05, -0.0017455199267715216, -0.00029956537764519453, 0.002093337709084153, -3.718084190040827e-05, -0.004575119353830814, 0.004821736365556717, 0.0020792889408767223, -0.0011421821545809507, 0.00186379614751786, 0.0018221798818558455, 0.00065312918741256, -0.00046103057684376836, -0.0028275519143790007, 0.00011315096344333142, -0.0036201782058924437, 0.0004895302699878812, -0.001100282184779644, -0.0019255282822996378, -0.0032619445119053125, -0.0024741431698203087, 0.00030254205921664834, -0.001135147293098271, -8.883478585630655e-06, 0.0006884093163534999, 0.0009153630235232413, -0.0013352835085242987, 0.00044226169120520353, 0.0005238308222033083, 0.0007113608880899847, -0.0004990926245227456, 0.0003658884088508785, 0.0014743026113137603, 0.0013466078089550138, -0.0012016048422083259, 0.0009237243793904781, -0.001801827223971486, 0.0012912412639707327, 0.0006360211991705, -0.0011303899809718132, 2.118060365319252e-06, -0.00024461705470457673, 7.840327452868223e-05, -0.003511688206344843, 0.0005817461060360074, 0.0017760366899892688, 0.0002281779597979039, 0.002021665684878826, -0.0012959177838638425, 0.0005107579636387527, 0.0004401484038680792, 0.0020818491466343403, 0.0007260430138558149, 0.0016513809096068144]], [[0.0012209939304739237, -0.0005448096198961139, -0.00031296577071771026, 0.0011600161669775844, -3.1467028748011217e-05, -0.00010237788228550926, 0.0004618284583557397, 8.50496071507223e-05, -0.0014394540339708328, 0.000674799841362983, -0.0009497584542259574, 0.0005334420711733401, -0.0006811691564507782, 0.00022637893562205136, -6.217719055712223e-05, 0.00013367524661589414, -0.00027532290550880134, 0.00040284573333337903, 0.000316707999445498, 0.00033799055381678045, 0.0006571905687451363, 0.0005623851320706308, -8.852480095811188e-05, 0.0010330330114811659, -0.00048805930418893695, -0.0009800693951547146, 0.002337327226996422, 1.537479693070054e-05, -0.0005878149531781673, 0.0008814283064566553, 0.0007877644966356456, 0.00036552062374539673, 0.00021075787662994117, 3.0420855182455853e-05, -0.00045271730050444603, 0.0009779043029993773, 0.00027345833950676024, -0.00013534215395338833, 0.0005530655034817755, -0.0005769144627265632, 0.0008048357558436692, 0.001264704274944961, -0.00028622779063880444, 0.0006189047126099467, 0.0005225286004133523, 0.0006857960834167898, -0.000677978212479502, 0.00048138730926439166, 0.0014508886961266398, 0.0010930265998467803, 0.0005779141210950911, -0.0010020039044320583, 0.00027340915403328836, 0.0005477893282659352, 9.672925807535648e-05, -0.001040258095599711, 0.0005284028011374176, 0.0003876378177665174, -0.00010195310460403562, -0.0010540520306676626, 0.0007234246004372835, 0.0010288741905242205, -0.0006587784737348557, 0.0006465729675255716], [-0.00026827651890926063, -6.161318651720649e-06, 2.835373322795931e-07, 2.6881019948632456e-05, -1.3746756621912937e-06, 5.005656475987053e-07, 1.3018542631471064e-05, 2.954174306069035e-06, 5.474700628838036e-06, -8.397665851589409e-07, 1.1524633919179905e-05, -3.8059541111579165e-05, 9.781724656932056e-07, -2.720762267927057e-06, -4.984967745258473e-07, -6.506137424366898e-07, -2.4013584152271505e-06, 1.369173787679756e-05, -6.112277333159e-07, 4.4594855808099965e-07, -1.6422462067566812e-05, -1.5086194252944551e-05, -9.324583515990525e-06, 3.499459126032889e-06, -8.474723927065497e-07, -9.290191883337684e-06, 2.6250174300912477e-07, -4.166573035035981e-06, -1.8443010048940778e-05, -1.137177960686131e-07, -1.8977601939695887e-05, -4.468101337806729e-07, 1.507638387465704e-07, -4.4680705286737066e-06, -6.05745435677818e-06, -3.480025043245405e-06, -1.5968091247486882e-05, -7.0646906351612415e-06, 7.1642921284365e-06, -1.605749457667116e-05, 6.396933258656645e-06, -3.2765251489763614e-06, 2.7781859444075963e-06, 1.4867968047838076e-06, -4.009999884146964e-06, 6.770664526811743e-07, -1.0031261808762792e-05, 2.919983010940541e-08, -1.0066624867022256e-07, -8.602974617133441e-07, 8.010932106117252e-06, 6.868926448078128e-06, 2.104291752402787e-06, -1.552839603391476e-05, -1.566074206493795e-05, 7.910683734735358e-07, 4.99513362228754e-07, -1.199978100885346e-06, 7.93977415014524e-06, 3.0478198823402636e-05, -1.6018961446206958e-07, 5.321382559486665e-06, -1.7259235818301022e-08, -5.712889787901076e-07], [-0.0002342909574508667, -6.958518042665673e-06, -4.779769824381219e-06, 1.0788185136334505e-05, -3.581945520636509e-06, -2.2544762146026187e-07, 8.920059372030664e-06, 9.143087481788825e-06, 7.463398105755914e-06, 1.52331654135196e-06, 9.608694199414458e-06, -3.580192060326226e-05, 1.639652964513516e-06, -6.352585842250846e-06, 1.3342970532903564e-06, 3.4040831451420672e-06, -8.939604413171764e-06, 5.448972842714284e-06, 3.761102561838925e-06, 1.4392375078386976e-06, -2.3358023099717684e-05, -1.173451073555043e-05, -5.229487669566879e-06, 8.762296602071729e-06, -3.6104834180150647e-06, -3.70675388694508e-06, 1.3554345969168935e-05, -5.281004632706754e-06, -1.652645005378872e-05, 4.665531832870329e-06, -9.801513442653231e-06, 3.916395598935196e-06, 4.841256668441929e-06, -3.899084731529001e-06, -5.942852567386581e-06, -5.755332495027687e-06, -1.3679151379619725e-05, -7.222947715490591e-06, 3.2489324439666234e-06, -2.1333660697564483e-05, 7.249288501043338e-06, -7.160569566622144e-06, -1.5534026260866085e-06, 9.183878319163341e-06, -6.9132775024627335e-06, -2.532304961277987e-06, -3.0329410947160795e-06, 8.987482033262495e-06, -3.7392845797512564e-07, 4.0485738281859085e-06, 5.907480954192579e-06, 4.364762844488723e-07, 5.589189640886616e-06, -1.1319448276481126e-05, -1.6354568288079463e-05, -2.486915036570281e-06, 7.874476068536751e-06, 1.0553462743700948e-06, 1.2218582924106158e-05, 1.162849639513297e-05, -6.339180799841415e-06, 5.209669780015247e-07, -3.4069535104208626e-07, 1.1725902027137636e-07], [0.0004288002091925591, 8.903557500161696e-07, 3.916665809811093e-05, -8.424466068390757e-05, -3.5352677514310926e-05, -4.3707173063012306e-06, -5.361660441849381e-06, -1.710420474410057e-05, 4.181204985798104e-06, 4.47656748292502e-05, -6.721491809003055e-05, 2.891945041483268e-05, -2.1553714759647846e-06, -8.617631465313025e-06, 2.8836984711233526e-05, 6.532141560455784e-05, 1.9335113393026404e-05, 1.3762484741164371e-05, -1.713195706543047e-05, 5.7557459513191134e-05, 1.54297176777618e-05, 6.289411976467818e-05, -3.245937841711566e-05, 4.197812813799828e-05, 2.9333682505239267e-06, 4.3208787246840075e-05, 4.1743769543245435e-05, -4.227836598147405e-06, -3.133058635285124e-05, 3.5512643080437556e-05, 3.957879380322993e-05, 5.66825383430114e-06, -3.2298098631144967e-06, 1.7624743122723885e-06, 2.2754793462809175e-05, 1.696770777925849e-05, 2.5919969630194828e-05, 1.8074384570354596e-05, 1.9258150132372975e-05, -1.7429150830139406e-05, 2.315695019206032e-05, 3.849547647405416e-05, -3.648619167506695e-05, -2.495938679203391e-05, -2.3595352104166523e-05, -1.1527099559316412e-06, 3.096457294304855e-05, -3.5167722671758384e-05, 5.465389403980225e-05, 5.8906731283059344e-05, 5.91784919379279e-06, 5.880072876607301e-06, 1.1466618161648512e-06, 5.4693544370820746e-05, 8.307440293719992e-05, -4.144540071138181e-06, 5.670572863891721e-05, -2.3787755708326586e-05, 3.23092990583973e-07, -6.891313387313858e-05, -4.339163297117921e-06, 4.104055551579222e-05, -2.3467742721550167e-05, 6.044347901479341e-05], [0.0006374904769472778, 0.00013729161582887173, -2.8261172701604664e-05, 0.00013191344623919576, -0.00032620824640616775, -0.0004942601663060486, -5.0234884838573635e-06, -8.068356692092493e-05, 0.0003468214999884367, 3.0088311177678406e-05, 0.00017112934438046068, 0.00040059603634290397, 0.00024211109848693013, -0.0002327078254893422, 0.0002860442618839443, 0.00024305791885126382, -0.00015471887309104204, 4.7039433411555365e-05, 0.0001445290254196152, -0.00010214955545961857, -0.00014321465278044343, 0.0002900219988077879, -0.00015958336007315665, -0.00010964310786221176, -3.0474941013380885e-05, 0.0003331863845232874, -0.0003936846915166825, -0.0001674746017670259, 4.8838090151548386e-05, -2.4166351067833602e-05, -8.35787650430575e-05, -0.00016015279106795788, 9.66714505921118e-05, 0.00013749455683864653, 0.0003844917519018054, 1.8488135538063943e-05, 5.5546661315020174e-05, -0.00015146934310905635, -0.00015645955863874406, 0.00022801707382313907, 0.0001117898355005309, 0.0002785840770229697, 4.603188244800549e-06, 0.00016538739146199077, -5.253417475614697e-05, -9.624506492400542e-05, 0.0005308968247845769, -0.0003291124594397843, 1.782589970389381e-05, -0.00026664321194402874, -1.099924702430144e-06, -0.00030759285436943173, 5.077767855254933e-05, 0.000291606382234022, 0.000271259224973619, -0.0003593034343793988, 1.1335556337144226e-05, -0.0005126582109369338, 0.0005502566345967352, -3.088718221988529e-05, -0.0001931276055984199, 0.0005448248120956123, -0.00013469450641423464, -1.2006261385977268e-05], [0.0001755253761075437, 0.0005614124238491058, 0.0005225244094617665, 0.0012282115640118718, -0.00044751743553206325, -0.00016763838357292116, -0.00014510007167700678, 0.0006156304734759033, -0.0003523682535160333, -5.2573832363123074e-05, -0.00041913538007065654, 0.00019416940631344914, 0.000248903437750414, -0.0001395474246237427, 0.00046242543612606823, 0.0006387090543285012, -0.0002339654602110386, -0.0005567140178754926, 0.00031093996949493885, 0.00022478520986624062, -9.597581083653495e-05, 0.0006647280533798039, 0.0002642238396219909, -0.0002953917719423771, 8.895611972548068e-05, -0.0001341487222816795, -0.0009268578141927719, 8.888199226930737e-05, 0.0003028536157216877, 0.0003196079924236983, 0.00041493153548799455, 7.611812907271087e-05, -0.000146489983308129, -0.0004764884361065924, 1.3904820661991835e-05, -2.4418841348960996e-07, -0.00033788959262892604, 7.321666635107249e-05, 0.00022864091442897916, 6.6506327129900455e-06, 0.0006307412986643612, 0.00042655650759115815, -6.122322520241141e-05, -0.00023108976893126965, 5.344322562450543e-05, 0.00032008305424824357, -0.0002339661295991391, 0.0004473126900848001, 0.00037584337405860424, 0.0003423317975830287, -0.000587359128985554, -0.000394373171729967, -6.285056588239968e-05, 0.0004138450894970447, -8.614476246293634e-05, 0.00010882294736802578, 8.946385787567124e-05, 6.014305108692497e-05, -0.0006733833579346538, 3.5323057090863585e-05, -0.00022421171888709068, -0.0005922832642681897, 0.0002629474620334804, 0.00021195565932430327], [0.001923500094562769, -0.00012209094711579382, 0.0014773544389754534, -0.0007657762034796178, 0.0009321261313743889, -0.0010128184221684933, -0.00017806896357797086, -0.00026930851163342595, 9.628693806007504e-05, 0.00043898026342503726, -0.0007243812433443964, -0.00018725346308201551, 0.00018949882360175252, 6.305155693553388e-05, 0.0002920134284067899, 3.705017297761515e-05, 0.0005877132643945515, 0.00028345632017590106, 0.0004752031818497926, 3.705967537825927e-05, -3.499581362120807e-05, -8.398942736675963e-05, 0.00017995855887420475, 0.0005238349549472332, -0.0006858095293864608, -0.0006270337617024779, -0.001238434575498104, 0.00024493143428117037, 9.080988820642233e-05, -0.000343711901223287, -3.9034581277519464e-05, 6.247861892916262e-05, 0.0005734010483138263, 0.0003953144187107682, -0.0004149552551098168, 0.00016841315664350986, -0.0006370499613694847, 5.112487269798294e-05, 0.00016809921362437308, -0.0002546278992667794, -0.00025112132425419986, -0.0005260000471025705, -6.166024832054973e-05, -0.00030625754152424634, 0.0003580054617486894, 0.00026320377946831286, 0.0007192965713329613, 0.0003020659787580371, 0.0007825618959031999, -0.00014391898002941161, -0.0004627656890079379, 0.0001824890059651807, 2.4743480025790632e-05, -6.0643156757578254e-05, -0.00046841701259836555, -0.00012161702034063637, -0.0008678017184138298, 8.400631486438215e-05, 5.308684194460511e-05, 0.0001602475967956707, -0.0005812491872347891, 0.00012798586976714432, -6.811277125962079e-05, 0.00017368909902870655], [-0.000459040398709476, -0.0006873627426102757, -0.00016302033327519894, 9.016727562993765e-05, -0.0017012362368404865, -0.0012358961394056678, -0.0017139411065727472, -0.0006903085159137845, -0.00036293594166636467, -0.0005076476954855025, 0.002191781997680664, 0.0010116631165146828, -0.0004994581104256213, 6.150317494757473e-05, -0.0002971465000882745, -0.0001300157600780949, -0.0005163479363545775, -5.5945034546311945e-05, -0.0006100835162214935, 0.0003362383577041328, 0.0012841714778915048, -0.0006602126522921026, -0.0005857715150341392, -0.0006514006527140737, 0.00023300872999243438, -7.474451558664441e-05, 0.0005406944546848536, -0.0005251316470094025, 6.282899994403124e-05, 0.0007556889322586358, -1.548207364976406e-06, -0.0003416581603232771, 6.758712697774172e-05, -0.00030603347113355994, -0.0001108520882553421, -0.0004793674743268639, 0.00024005045997910202, -0.0009384698932990432, -0.0005697074811905622, 0.0003348159370943904, 0.00019382972095627338, -0.0005913225468248129, 0.0007683276198804379, -0.0006323108682408929, 2.279444015584886e-05, -6.358503014780581e-06, -0.00012792216148227453, 0.0011437665671110153, -0.0005549927009269595, 0.00035346587537787855, -0.00045535736717283726, 0.00028920729528181255, -0.0004615927464328706, 0.0002447587321512401, -0.0005411789170466363, 6.0478487284854054e-05, 6.565480725839734e-05, 0.0011840242659673095, 0.0003356493543833494, 0.0005418186774477363, -0.000565268041100353, 0.002219386864453554, 0.0007665430312044919, 0.00014999353152234107], [0.0002569445932749659, 4.291624918550951e-06, 2.3156326278694905e-05, -2.0112656784476712e-05, -1.093442097044317e-05, -1.6523179510841146e-05, 4.38640417996794e-05, 3.5643475712276995e-05, 3.3867338515847223e-06, -2.065536318696104e-05, 2.3717066142125987e-05, 6.164218120829901e-06, 1.5463710951735266e-05, -1.8632845240063034e-05, -1.1623425962170586e-05, 1.3978099559608381e-05, -4.014659680251498e-06, -3.401145659154281e-05, -4.153815552854212e-06, -2.3364595108432695e-05, -1.915206121338997e-05, -7.1525355451740324e-06, -3.1470084650209174e-05, 3.771646515815519e-05, -8.101295861706603e-06, 4.86956414533779e-05, 6.193542958499165e-06, -1.3372783541854005e-05, 3.646446202765219e-05, 7.009217370068654e-06, 1.7218712855537888e-06, 8.281021109723952e-06, 4.921303116134368e-07, -1.9673603674164042e-05, 2.5557059416314587e-05, 8.393301868636627e-06, -6.8967356128268875e-06, 1.9269395124865696e-05, -4.617774175130762e-05, -8.249216989497654e-06, 1.3930776731285732e-05, -9.97579081740696e-06, -8.07014566817088e-06, 2.4321809178218246e-05, -2.781186776701361e-05, -2.1013413061155006e-05, 6.789864528400358e-06, 7.177919542300515e-06, -2.1715735783800483e-05, -1.243008910023491e-06, 1.5474637621082366e-05, 1.198205973196309e-05, 2.2953121515456587e-05, 0.0001017110189422965, 3.038834620383568e-05, 4.644563887268305e-06, -9.141502232523635e-06, -1.5589002941851504e-05, -8.145189895003568e-06, 3.6123583413427696e-06, 1.726843765936792e-05, 3.452310193097219e-05, -2.8348104024189524e-06, 7.5589268817566335e-06], [0.00020530153415165842, -5.684557618224062e-05, 2.0561272322083823e-05, 4.911155338049866e-05, 7.859801371523645e-06, 1.0896433195739519e-05, 5.060255352873355e-05, 7.888268009992316e-05, -4.4931366574019194e-05, -3.882291275658645e-05, 2.935138763859868e-05, -1.6294943634420633e-05, -1.2363614587229677e-05, 1.5413303117384203e-05, -1.672962389420718e-05, 1.6716310710762627e-05, -1.7352585928165354e-05, 6.207640399225056e-05, -1.2941832210344728e-05, 5.8727719078888185e-06, 2.6357774913776666e-06, -1.3652122106577735e-05, -6.836425745859742e-05, 5.6377382861683145e-05, -9.302561920776498e-06, 6.975981523282826e-05, 9.738544758874923e-05, 3.4372737900412176e-06, 2.919453982030973e-05, 2.6930338208330795e-05, -1.238031472894363e-06, 9.240062354365364e-06, -2.3627871996723115e-05, 2.161940028599929e-05, 5.1494316721800715e-05, -2.4831637347233482e-05, -9.029248758452013e-06, 2.941661841759924e-05, -4.241778515279293e-05, 1.0508960258448496e-05, -3.5541779652703553e-07, -5.5487791541963816e-05, -1.7106467566918582e-06, -1.9683706341311336e-05, -5.633255932480097e-05, 1.1761248970287852e-05, 3.25728724419605e-05, 4.965341940987855e-05, -3.199789716745727e-05, 6.957250661798753e-06, 1.5613315554219298e-05, -2.144367499568034e-05, 3.4029253583867103e-06, 9.843235602602363e-05, 7.489330982934916e-06, 1.8519485820434056e-05, 1.461032297811471e-06, -7.699748493905645e-06, 3.577989264158532e-05, -5.876432169316104e-06, -1.6461082850582898e-05, 6.848557677585632e-05, 1.5102661564014852e-05, 1.2362249435682315e-05], [-0.0011652352986857295, 5.939801849308424e-05, -8.438207441940904e-05, -0.00024166089133359492, 2.6002482627518475e-05, 0.0002467031590640545, 1.9054306903854012e-05, -0.00021508533973246813, 0.00010289269266650081, -0.0001447182585252449, -0.0002777152694761753, -1.4065328286960721e-05, 4.05966020480264e-05, 0.00016737787518650293, 4.13905072491616e-05, -5.064665310783312e-05, -5.441397661343217e-07, 5.299181793816388e-06, -8.816631634545047e-06, 8.263203199021518e-05, -0.00015260280633810908, -8.594938844908029e-05, 9.609576954971999e-05, -0.0002395723422523588, -1.66176996572176e-05, 5.172298551769927e-05, -1.9236125808674842e-05, -3.579074837034568e-05, -0.0002010251919273287, 2.037660487985704e-05, -3.443561581661925e-05, -6.636015314143151e-05, 5.3016825404483825e-05, -7.190777250798419e-05, -9.50009998632595e-05, -5.416971544036642e-05, -0.00022493085998576134, 2.663486884557642e-05, 6.107404624344781e-05, -1.3516062608687207e-05, 4.8581219743937254e-05, -2.5544541131239384e-05, -2.4328795916517265e-05, -0.0002707261883188039, 0.00018482661107555032, 2.5522182113491e-05, -0.0002128063642885536, -0.00027639081235975027, -6.241465598577634e-05, -0.00013401567412074655, -9.141261398326606e-05, -3.307809674879536e-05, 8.100412378553301e-05, -2.71671888185665e-06, 1.986602001124993e-06, -0.00028828391805291176, 2.152571323676966e-05, -0.00011256706056883559, 0.00011563707084860653, -5.35503204446286e-06, -5.84765148232691e-05, 0.00014311561244539917, 8.858073124429211e-05, -0.00013956503244116902], [-0.001769284368492663, 0.00020163417502772063, 0.0001294424437219277, -0.0004014653677586466, -0.00012787416926585138, 0.00025190404267050326, 0.00024838338140398264, -0.0001740817097015679, 0.0002446151338517666, -0.0004347129724919796, 0.0004077623307239264, 6.688459689030424e-05, 0.00018936562992166728, -3.742690387298353e-05, -0.00034216526546515524, -1.5186880773399025e-05, -9.361030242871493e-05, -3.1270275940187275e-05, -4.606484071700834e-05, 0.00029192291549406946, 0.0003997204184997827, -0.00017064482381101698, -0.0002328823320567608, 3.99741402361542e-05, 2.796036278596148e-05, -4.6389166527660564e-05, -2.2758380509912968e-05, -0.00036825117422267795, -0.000341711362125352, -1.68033002410084e-05, 2.990372377098538e-05, 1.1290341717540286e-05, -1.654667721595615e-05, 7.752742385491729e-05, 0.00017466997087467462, -4.8897294618654996e-05, -0.0003193843294866383, 7.758122228551656e-05, -8.683769556228071e-05, -9.269395377486944e-06, 0.00029339836328290403, -2.6220764993922785e-05, 0.00011748554970836267, 8.642511966172606e-05, 0.00021443437435664237, -0.00018826295854523778, 0.00022270450426731259, -0.00033445260487496853, 2.2515192540595308e-05, 5.421812238637358e-05, 0.0002122462901752442, -0.00014341811765916646, 0.00013822638720739633, -4.731466469820589e-05, 0.00032496091444045305, -0.0005990545614622533, -0.00020710713579319417, -0.0006558504537679255, 0.00022009163512848318, 0.0005277774180285633, -0.0002257096639368683, -2.1874322555959225e-05, 0.00013343019236344844, 8.022547990549356e-05], [-0.0015986189246177673, -0.0008498342358507216, -0.00019045161025132984, 0.00029205766622908413, -0.0004538976645562798, 0.0005263085477054119, -0.00014741111954208463, -0.0001835675211623311, -0.0004908913979306817, -0.00011879355588462204, 0.0004881002241745591, 0.000531656201928854, -0.0003985209041275084, -0.000272713863523677, -0.0004322135355323553, 0.00044875353341922164, -0.0004059679340571165, -0.0005635244306176901, 0.000500059686601162, 0.00016180012607946992, -0.00036958776763640344, -0.00020880148804280907, 0.00028450210811570287, 0.0001266078616026789, 0.00011697378067765385, 0.0003321798867546022, 0.0007934897439554334, 0.0002547047915868461, 0.00027654829318635166, 0.0002356432960368693, 0.00018261403602082282, 0.00030751392478123307, 0.00019054277800023556, 0.00023052000324241817, 0.00019142410019412637, 0.00041607883758842945, -3.862840458168648e-05, -0.0005784301902167499, 0.0003512557887006551, -3.554639988578856e-05, 0.00011147448094561696, 0.00010768626816570759, 1.040185452438891e-06, 6.701111851725727e-05, -0.00015949999215081334, 0.00023201534349936992, 0.0008365552639588714, -9.283284452976659e-05, -0.00026147719472646713, 0.00027484085876494646, -0.00040241965325549245, -8.450107998214662e-06, 7.674694643355906e-05, 0.00033114291727542877, 5.427903670351952e-05, -0.00019576941849663854, 7.261169230332598e-06, -5.900172982364893e-05, -0.000636703975033015, 0.00037084060022607446, 0.00010828851372934878, -0.0010261484421789646, -0.00011571362119866535, 0.0007924463716335595], [0.00045083212899044156, 0.0006145193474367261, -8.364678069483489e-05, 0.00015759930829517543, -0.00021792796906083822, -0.0015732406172901392, -5.631418025586754e-05, -0.0001343949988950044, 0.0004953517345711589, 0.0007619161624461412, -2.3401400540024042e-05, -0.00010818740702234209, 7.894768350524828e-05, 0.0002057187375612557, 0.0005287689855322242, -2.4319706426467746e-05, -0.0006827939650975168, -0.0008041325490921736, -0.0004896660684607923, -0.0006232591113075614, -0.0010359103325754404, -0.0005762302316725254, -9.948776278179139e-05, -0.0007200972177088261, 9.044197213370353e-05, -0.00029671244556084275, -0.0014136130921542645, 0.00016301147115882486, 0.00013011673581786454, 0.0001838760799728334, -0.0001267526240553707, -8.198263822123408e-05, 0.0004577551153488457, -0.0011942546116188169, -0.00013413195847533643, -0.0002819420478772372, -0.0007155315252020955, 9.290907473769039e-05, 2.3449247237294912e-05, 0.00035488547291606665, 0.0003415960818529129, 6.678041245322675e-05, -0.00023360393242910504, -0.0002797131601255387, 0.00022642614203505218, -0.0001372935512335971, -0.0004107417771592736, 0.00028403045143932104, -0.0005353089654818177, -0.0004322365566622466, -0.00046919818851165473, -1.1509109754115343e-05, 0.0008652687538415194, -8.64958856254816e-05, -0.0004954985924996436, -0.000531758414581418, -0.0009731281315907836, 0.00047607580199837685, 0.00043144955998286605, 1.8409904441796243e-05, -0.0008470683824270964, 0.0006849502678960562, -0.0005159064894542098, 0.00037261235411278903], [0.001067581120878458, -0.0002378709614276886, 0.001656832522712648, 0.0011682049371302128, 0.0032770331017673016, 0.00011975661618635058, -0.0003390677447896451, 2.8829954317188822e-05, -0.0016124926041811705, -0.0010221058037132025, 1.0122792446054518e-05, -0.001702836831100285, -0.00021854284568689764, 0.0015716939233243465, 1.3093347661197186e-05, -0.00432874308899045, 0.004042567685246468, 0.0019318022532388568, -0.0011429055593907833, 0.001931789331138134, 0.0017330506816506386, 0.0005675557185895741, -0.0010249016340821981, -0.0020900305826216936, 0.00022736089886166155, -0.003280072007328272, 0.0005288763204589486, -0.0011833703611046076, -0.0020408183336257935, -0.0029217717237770557, -0.0016950536519289017, 0.0003005628241226077, -0.0008261497132480145, 4.8628789954818785e-05, 0.000517664011567831, 0.0009314115159213543, -0.0014280697796493769, -2.3189932107925415e-07, 0.00011061591794714332, 0.0007013576687313616, -0.0004409969551488757, 0.00047939291107468307, 0.0012529544765129685, 0.0013367299688979983, -0.0012617353349924088, 0.0008583954768255353, -0.001466579269617796, 0.0010701693827286363, 0.0007637633243575692, -0.001188350492157042, 5.9891724959015846e-05, -0.00033868959872052073, 2.9294751584529877e-06, -0.0028465446084737778, 0.0009197104373015463, 0.001854017609730363, 0.0003663889074232429, 0.0018885722383856773, -0.0012802649289369583, 0.0005775255267508328, -0.00012149359099566936, 0.002391549525782466, 0.0007403605268336833, 0.0017526792362332344]]], [[[0.0009227362461388111, -0.0016296937828883529, -0.00039910338819026947, -7.755908882245421e-06, -0.0008544968441128731, -0.000842312176246196, 0.0006065607303753495, 5.04592499055434e-05, -0.0008902721456252038, 0.0010125234257429838, 0.00034566764952614903, 0.000680411932989955, 9.276584023609757e-05, -7.969745638547465e-05, 0.0007577907526865602, 0.0005060468101873994, 0.00012442798470146954, -0.000684796366840601, -0.00038799812318757176, 5.434139893623069e-05, 0.0007191863842308521, 0.0003477585269138217, 0.00027349276933819056, 0.0005571527290157974, 0.0006709439912810922, 0.0006207365076988935, -0.0007330991211347282, 0.00015607173554599285, 0.00025390932569280267, -0.0007309658685699105, 0.0002984044549521059, -0.0005530546186491847, 0.00022017814626451582, 2.850001328624785e-05, -0.00020584183221217245, 0.0004333406686782837, -0.00016954465536400676, 0.0008749737171456218, -0.00044755093404091895, 0.0004585642891470343, -0.0003292481414973736, 0.0005317136528901756, 0.00016860422329045832, 3.5553137422539294e-05, 0.0010684903245419264, -0.0004192147171124816, 7.02256802469492e-05, 0.00026709819212555885, 0.00037573702866211534, 0.00047605857253074646, -0.00022258711396716535, -0.00016422735643573105, 0.0006896047270856798, 0.0005799127975478768, -0.000799076515249908, -0.0001350793318124488, -6.444229802582413e-05, 0.0004597496590577066, -0.0006520178867504001, -0.0015666469698771834, -0.0005083159194327891, 0.00013769464567303658, -8.205999620258808e-05, 0.0004994587507098913], [4.8001627874327824e-05, 6.863558041914075e-07, 2.8352828849165235e-06, 2.796222702272644e-07, -6.602440407732502e-07, -5.860377427779895e-07, -4.584697308018804e-06, -3.030973402928794e-06, 1.1754648312489735e-06, -1.4942680763851968e-06, -5.9063809203507844e-06, -2.757005859166384e-07, 3.548203153513896e-08, 3.319540837765089e-07, -1.4053060795049532e-06, 3.1100381647775066e-07, -4.003378535344382e-07, -3.105195105490566e-07, 7.628397042935831e-07, 1.2800384865840897e-05, 6.3151151152851526e-06, -1.3366716302698478e-06, -7.906001883384306e-06, 5.278630396787776e-06, 2.4089270027616294e-06, 8.426403610428679e-07, 4.443757006811211e-06, 1.4498848486255156e-06, -4.832964606293899e-08, -1.3389085324888583e-06, 4.424930466484511e-06, 7.84899020800367e-06, 4.768891415096732e-08, -3.419093985712607e-08, 5.291373781801667e-06, 1.08179470714731e-07, -2.6734294351626886e-06, 4.018586707843497e-08, -2.3745256783058721e-07, 8.986617103801109e-07, 3.3078165415645344e-06, 3.827580030701938e-08, -2.010343678193749e-07, -5.54206224023801e-07, -6.326437187453848e-07, -1.127736709349847e-06, 1.2607024473254569e-06, 5.766020194641897e-07, 4.252677001659322e-07, 1.308447554038139e-05, -7.281961416083504e-07, 2.820830786731676e-07, -3.7260224416968413e-06, -1.3512064924725564e-06, 6.620079147978686e-06, 7.582957550766878e-07, 5.05249636262306e-06, -1.4541117820954241e-07, 1.1958486538787838e-06, -1.5708025102867396e-06, 5.767430479863833e-07, -4.794982828570937e-07, 7.208671490843699e-07, 1.150747721112566e-06], [3.0867860914440826e-05, -5.550771220441675e-07, 6.477176611952018e-06, 5.647102625516709e-06, 1.7818283026826975e-07, -1.2969130693818443e-06, -1.383227663609432e-05, -2.5083877517317887e-06, -3.6061533137399238e-06, -2.8626432140299585e-06, -2.4199666768254247e-06, 1.3503040463547222e-06, -7.026058483461384e-06, -4.727791292680195e-06, 2.3107789104415133e-07, 7.4978297561756335e-06, -6.313766334642423e-06, -3.713311343744863e-06, 1.586998337188561e-06, 1.3094409951008856e-05, 4.684879968408495e-07, 4.371554211957118e-07, -3.888135324814357e-06, 4.4276154653744015e-07, 1.2436897804946057e-06, -2.26770362132811e-06, 3.2352863854612224e-06, 1.4954655398469185e-06, 9.354992471344303e-06, -5.7312804528919514e-06, 5.408758624980692e-06, 1.099330711440416e-05, 3.966863459936576e-06, -3.542852027749177e-06, 6.890953045513015e-06, -4.832668309973087e-07, 8.62938668433344e-06, 1.7170235651065013e-06, 5.05365551362047e-06, -2.4230405415437417e-06, -1.1933025234611705e-08, -1.9808871911664028e-06, 1.3889743968320545e-06, 2.2871181499795057e-06, -1.8293030734639615e-07, 9.209769586959737e-07, 5.174529633222846e-06, 2.224469881184632e-06, 4.381432518130168e-06, 2.7186347324459348e-06, -3.197978458047146e-06, 2.0790835151274223e-06, -8.082173735601828e-06, -2.1741220734838862e-07, -3.975728759542108e-06, 2.064316504402086e-06, -2.0555112314468715e-06, -8.548699952370953e-06, 2.7260196020506555e-06, 4.7082380660867784e-07, 6.141622179711703e-07, -1.937024535436649e-05, -8.624703582427173e-07, 3.2070533961814363e-06], [0.0004629419418051839, -2.3176635295385495e-06, 1.4911148355167825e-05, -2.461753501847852e-05, 3.62051505362615e-05, -3.2140917028300464e-05, -6.66526539134793e-05, 9.306450920121279e-06, -5.519705155165866e-05, -5.41792996955337e-06, -2.1872141587664373e-05, -9.435098036192358e-08, -3.0601793696405366e-05, -1.1673990229610354e-05, -1.2951568351127207e-05, 2.9694960176129825e-05, -2.3843618691898882e-05, -5.967500328551978e-05, 3.7788231566082686e-05, -4.2811640014406294e-05, -3.813674993580207e-05, 3.82661928597372e-05, 1.2705264452961273e-05, -3.3014108339557424e-05, -2.8156523512734566e-06, 1.8448408809490502e-05, 8.82219410414109e-07, 1.557187169964891e-05, 5.760534986620769e-05, -8.624329893791582e-06, 7.473041478078812e-06, 1.551215973449871e-05, 2.678657983778976e-05, -1.1575777534744702e-05, -3.60780322807841e-05, -1.5763891497044824e-05, -5.778725608251989e-06, 3.1547833714284934e-06, 2.0755756850121543e-05, -1.5254411664500367e-05, 4.878957770415582e-05, -1.3013741408940405e-05, 7.516084679082269e-06, 7.137564352888148e-06, -3.9016016671666875e-05, 3.3275287023570854e-06, 5.881653123651631e-05, 2.3670399968978018e-06, 1.3989258150104433e-05, 2.682710146473255e-06, 1.1101246855105273e-05, -4.6502784243784845e-05, -5.3845684305997565e-05, -3.480623854557052e-05, -1.509604771854356e-06, 3.082191324210726e-05, -4.109228484594496e-06, -5.264651917968877e-06, -1.9397170035517775e-05, -2.3753194909659214e-05, -2.6643059754860587e-05, -0.00012742461694870144, -2.767460682662204e-05, 2.223211049567908e-05], [0.0012559329625219107, -0.0001696035615168512, -0.0004704661841969937, 0.00019892840646207333, 7.572994218207896e-05, -0.0003050002851523459, 0.0003039154107682407, 0.0003061690367758274, -0.00027171752299182117, 0.0003159275802318007, 9.768347081262618e-05, -0.0001104245675378479, -0.0002478799724485725, -3.326717342133634e-05, -4.762271055369638e-05, 0.00044943223474547267, -0.0002617119753267616, -0.00023023411631584167, -9.277800563722849e-05, -0.00027203495847061276, -0.00022732692013960332, -0.00012503260222729295, 2.7932936063734815e-05, 0.00022996176267042756, 0.00010539514187257737, 0.0003352242929395288, 0.0002151886437786743, 0.0003355908556841314, 0.0004275341925676912, 0.00020526857406366616, 1.8823935533873737e-05, 0.00014298631867859513, 0.0002457680820953101, -3.378813562449068e-05, -0.0002554884413257241, -5.939916445640847e-05, -0.00019528192933648825, -9.698275971459225e-05, -0.0001848254178185016, 4.630976400221698e-05, 3.722198016475886e-06, -0.00024272444716189057, -0.0002425694838166237, 0.00016325012256857008, 2.7321391826262698e-05, -5.6330747611355036e-05, -0.00015625193191226572, 8.872942999005318e-05, 3.5460518120089546e-05, 0.0002712664718274027, 0.0001185530491056852, 7.229020411614329e-05, 0.0005017108051106334, 0.00027164744096808136, -0.00024793887860141695, -4.94292689836584e-05, 1.4599856513086706e-05, 0.00029224419267848134, -0.0002646452921908349, -0.0002808574354276061, 5.3836527513340116e-05, -0.000272558128926903, -4.374792115413584e-05, -0.00015833934594411403], [0.0011993420775979757, 0.00012400209379848093, 0.0002267465170007199, -0.0006150875124149024, -0.0003679445362649858, -8.390200673602521e-05, 0.00012989614333491772, -0.00041735259583219886, -0.00018898071721196175, 0.0009533056290820241, 0.0001202495041070506, 0.00032389911939390004, 0.0008312002755701542, 0.000128805564600043, 0.00029145690496079624, 0.0009937556460499763, -0.0006644051754847169, -0.0004800328752025962, 0.000533569254912436, -0.0001678618136793375, -0.0004901899956166744, 0.0003800021659117192, 8.73797107487917e-05, 0.0006529074744321406, -0.0002304299414390698, 0.0005316815222613513, -0.0001423877984052524, -4.125331179238856e-05, -0.0005754753947257996, 8.248422091128305e-05, 0.00011739296314772218, -0.0001743147731758654, 0.0003461474261712283, 0.000663919432554394, 0.00038400781340897083, -6.818545807618648e-05, -9.30621026782319e-05, 0.00013921930803917348, 0.000299720442853868, 0.0004129316075704992, 3.119406756013632e-06, 0.0003858799464069307, -0.0002938094548881054, 8.960326522355899e-05, -0.0002708355023059994, 0.0004985310952179134, 0.0013242713175714016, -0.0003390363708604127, 0.0005478810053318739, -1.6768941350164823e-05, 0.0008029437158256769, -0.0009390903869643807, -0.0003165599482599646, 0.0004536168125923723, 0.00018541990721132606, 0.0005533838993869722, -0.00020028717699460685, -0.0008882855763658881, 0.00020320803741924465, -0.000341660575941205, -0.0015744197880849242, 2.6636826078174636e-05, -0.0001520893129054457, 0.00025988195557147264], [0.00027230303385294974, 0.0002855120110325515, 0.001051939558237791, -0.00017228037177119404, -0.00039992350502870977, -1.7666632629698142e-05, 0.0005798484198749065, -0.00030309660360217094, 0.00023958027304615825, 5.628273356705904e-05, -0.000308559974655509, 0.00043562171049416065, 0.0003796728269662708, 0.000867803581058979, 0.0003902106254827231, -0.0002339591010240838, 0.0009342172415927052, -0.000512346567120403, -0.00025048627867363393, -0.00032700225710868835, -0.0002536721876822412, -0.0002803498355206102, -0.00042985606705769897, -0.0008516855887137353, 0.0002659979509189725, -0.0005511385970748961, 0.0008259883616119623, -0.0004960295627824962, -0.0004018539621029049, 0.0001178189049824141, 4.567210271488875e-05, 0.00044403650099411607, -0.00013404188212007284, 0.0005750071723014116, -3.764781286008656e-05, 0.00046537184971384704, -4.854844883084297e-05, 0.00016533258894924074, -1.4811885193921626e-05, 3.569188993424177e-05, 0.000351707567460835, -4.801624163519591e-05, -0.00037270953180268407, -0.00025408552028238773, -0.00034066743683069944, -2.984770981129259e-05, 0.0006217233603820205, 0.00034431685344316065, -0.00043905514758080244, 0.0006411923095583916, 5.7882680266629905e-05, 0.0002244075876660645, -0.00014494643255602568, -0.0005881704855710268, 0.0005701238987967372, 8.17056861706078e-05, 0.0004088398418389261, 0.00048021291149780154, -0.00031008332734927535, -0.0005139627610333264, 0.0006895239930599928, 0.0015642420621588826, 0.00013779295841231942, 6.601525819860399e-05], [-0.002502431394532323, 0.00033019878901541233, -0.0007217067759484053, 0.0012075029080733657, 0.0008516946109011769, -0.000880630686879158, -0.0005812767776660621, -0.0003746387956198305, 0.00010966073023155332, -0.0011421774979680777, -0.0005464049754664302, 0.0005280778859741986, 0.0003053619875572622, 0.0005707012605853379, 0.0004977553035132587, 0.00022760461433790624, 8.829895523376763e-05, 0.0007453670259565115, -0.0004151639877818525, 0.0014644772745668888, 0.0006401269929483533, 0.000299256294965744, -0.0005524991429410875, -0.0017161683645099401, -0.00023310547112487257, -0.0007401271723210812, 0.0009097110014408827, 0.0005375292967073619, -0.0007383081829175353, 0.0006546952063217759, -0.00012022844748571515, 0.0004142794059589505, 4.7318120778072625e-05, 5.409571895143017e-05, 0.0002905958390329033, 0.00032074956106953323, 0.00010910647688433528, 0.0005120008136145771, -9.521165338810533e-05, 0.0007095775217749178, 0.00010397640289738774, -0.00012144112406531349, -4.9005262553691864e-05, 8.814058674033731e-05, 0.0006253489991649985, -0.0005293828435242176, 0.0005125424941070378, 0.0011310072150081396, 0.0008558671688660979, 0.0006106151267886162, -0.00193751510232687, 0.00018587516387924552, -0.0009649782441556454, -0.0003690614830702543, -0.0006611661519855261, -0.00027138114091940224, 0.000633692485280335, 0.00044443225488066673, 0.0014815786853432655, 0.0009347305749543011, -0.00048542063450440764, 0.0002053661155514419, 0.00038975680945441127, -0.0009583916398696601], [-0.00023218011483550072, 3.2089192245621234e-05, 2.261709960293956e-05, -5.390569276642054e-05, -3.036591806448996e-05, -1.36174767249031e-05, 8.05360177764669e-05, -5.006387709727278e-06, 1.3380451491684653e-05, -9.416589819011278e-08, -2.4615215806989e-05, -3.221388851670781e-06, -2.096875505230855e-06, -3.6054108932148665e-05, -1.932842133101076e-05, 9.143463103100657e-06, -3.4615710319485515e-05, -2.3546368538518436e-05, -3.555787043296732e-05, 1.3203557500673924e-05, 2.55665054282872e-06, 1.636685283301631e-06, 2.3328634597419295e-06, -1.7115826267399825e-05, 6.12032135904883e-06, 4.3162217480130494e-05, -7.070503670547623e-06, -5.687989869329613e-06, 1.7876633137348108e-05, -1.93541945918696e-05, -1.8023330994765274e-05, 7.134158295230009e-07, 9.71922418102622e-06, -9.143299394054338e-06, 1.1093544344475958e-05, 8.756878742133267e-07, -7.488418305001687e-06, 2.265299372083973e-05, -3.348221434862353e-05, -2.7778023650171235e-05, 2.5355602701893076e-05, -1.9720209820661694e-06, 1.9013290511793457e-05, -2.7237556423642673e-05, -1.475734643463511e-05, -2.0763962311320938e-05, -7.709911733400077e-05, 4.403378170536598e-06, -9.200050044455566e-06, 2.632398172863759e-05, 4.912418808089569e-05, 1.4321277376438957e-05, -4.664598236558959e-06, 1.446094574930612e-05, 3.528108572936617e-05, 8.903276466298848e-06, 1.0728138477134053e-05, -1.632882049307227e-05, 4.766357960761525e-05, 1.9644858184619807e-06, 3.3514181268401444e-05, 1.3603413208329584e-05, -2.126707840943709e-05, 2.9985405490151607e-05], [0.00020797726756427437, 6.576558371307328e-05, 1.8016253306996077e-06, -9.209108247887343e-05, -9.15056953090243e-05, -3.751010081032291e-05, 9.253340249415487e-05, 4.877399533143034e-07, 5.3022002248326316e-05, 1.2389487892505713e-05, -1.9489441910991445e-05, 8.624647307442501e-07, 6.092264084145427e-05, -1.6404361304012127e-05, -3.2742245821282268e-06, 2.871382275770884e-05, -1.80419665412046e-05, -4.726662882603705e-05, -2.9465300031006336e-05, 1.2295392480154987e-05, -1.8061600712826476e-06, 4.0148381231119856e-05, -2.7692360617947998e-06, 9.79666492639808e-06, 2.1124593331478536e-05, 3.055592969758436e-05, -4.390817048260942e-05, 4.497720510698855e-06, 1.480158152844524e-05, -2.036247224168619e-06, 3.0314840842038393e-06, 8.814859938865993e-06, 1.872605389507953e-05, -5.569081986322999e-05, -1.561851831866079e-06, 1.0505596037546638e-05, -1.7691108951112255e-05, 2.715279879339505e-05, -5.563264130614698e-05, -5.450507887871936e-05, 2.6524701752350666e-05, 4.0775434172246605e-05, 4.3551721319090575e-05, 3.6023222492076457e-05, -2.34987965086475e-05, -4.986427666153759e-05, -5.6569020671304315e-05, -7.161089797591558e-06, -1.1378595445421524e-05, 3.0797462386544794e-05, 6.986024527577683e-05, 1.9658378732856363e-05, 3.9589343941770494e-05, 2.6961497496813536e-05, 4.164811616647057e-05, 7.745512448309455e-06, -6.909287549206056e-06, -1.5332489056163467e-05, 2.6506337235332467e-05, -2.8838403522968292e-05, 5.205902198213153e-07, 7.268945410032757e-06, -1.5861611245782115e-05, 7.72123530623503e-05], [-0.00020386457617860287, 0.00035885925171896815, -4.297231498640031e-06, -0.000680887489579618, 4.5317116018850356e-05, -8.943554712459445e-05, 9.41654434427619e-08, 7.025925879133865e-05, -3.3038912079064175e-05, -8.931975753512233e-05, 2.5812434614636004e-05, -2.8465430659707636e-05, 4.1176099330186844e-07, -0.00011573833035072312, 1.1479765817057341e-05, 0.0001148160663433373, 7.549090514658019e-05, -0.000109316453745123, 3.46276538039092e-05, 0.00017740290786605328, 0.00012586532102432102, -5.119276465848088e-06, -9.800687621464022e-06, 2.7212940040044487e-05, -6.9760913902428e-05, 7.372444815700874e-05, -3.9252136048162356e-05, -2.842400317604188e-05, 0.00030186184449121356, 0.00012201773643027991, -6.921532622072846e-05, 2.4868411856004968e-05, -1.5146456462389324e-05, 0.00010180690151173621, 0.0001847209787229076, 0.00016066136595327407, 0.00018242764053866267, 0.00010863024363061413, -0.0001395242434227839, -0.00013638855307362974, 0.00024658479378558695, 0.00015805577277205884, 0.00014288107922766358, 6.724122795276344e-05, -0.00030116888228803873, -0.00014624657342210412, 0.00012778662494383752, -0.0001727104972815141, 0.00014386857219506055, 0.00021850867778994143, -1.904965756693855e-06, 1.7229598597623408e-05, -0.00016822160978335887, 5.44697541045025e-05, 0.000285015266854316, 1.444964436814189e-05, 6.807244062656537e-06, -0.00013224323629401624, -0.00011559050471987575, -3.627268597483635e-06, 0.00010180872050113976, -9.151854465017095e-05, -8.507242455380037e-05, 4.917196565656923e-05], [-0.0006953211268410087, 0.00031331900390796363, -0.0002830353332683444, 1.5104043995961547e-05, 0.00039321149233728647, 2.8597911295946687e-05, 0.0003027290222235024, -7.85492011345923e-06, -0.0001342632167506963, -2.538428634579759e-05, 3.671694139484316e-05, 6.984466745052487e-05, -0.0004413894785102457, -8.335236634593457e-05, 0.0002301159402122721, 0.00016915117157623172, -0.0005627309437841177, -0.00028881229809485376, -0.00010155852942261845, 0.00014188289060257375, -0.0001589896419318393, -5.716769373975694e-05, -0.00023326463997364044, -0.00032263045432046056, -0.00027027324540540576, -7.20974785508588e-05, -0.00011679794988594949, -6.471548840636387e-05, 0.00016869780665729195, 0.00018045195611193776, 0.00010975936311297119, -3.213389572920278e-05, 1.9048336980631575e-05, 2.8225080313859507e-05, -0.000171902691363357, 7.996452040970325e-05, 0.00038473287713713944, -0.00012085790513083339, 0.0002482002309989184, -0.0003842127334792167, 0.00022586640261579305, 5.172486271476373e-05, 0.00014420924708247185, 0.00010915159509750083, -0.000396919233025983, 0.00016187140136025846, 5.00759415444918e-05, -0.000302779400954023, 0.00011949728650506586, -4.163445555604994e-05, 6.726657738909125e-05, -0.00022752418590243906, 5.896962102269754e-05, 7.241088314913213e-05, -6.507085345219821e-05, 0.0004390608810354024, -5.489894829224795e-05, -7.722886221017689e-05, 0.0001196586454170756, 0.00041966454591602087, 0.00015792336489539593, -0.0009293921175412834, -0.00027838791720569134, -0.00011599450226640329], [0.0005531057831831276, 0.0005165215115994215, -2.015233621932566e-05, 0.0005796064506284893, 0.0002663389313966036, -0.0009592956630513072, 0.0007498364429920912, 0.0003318166418466717, 6.77029529470019e-05, 0.00032244177418760955, 7.685855962336063e-05, 0.0009813264477998018, 0.000357597426045686, 5.7082477724179626e-05, -0.0004093044553883374, 0.000892502604983747, -0.00018007861217483878, -0.0008240453316830099, 7.830318645574152e-05, 0.00018924352480098605, -0.0009314451599493623, 0.0007650015177205205, -5.1582406740635633e-05, -3.402457514312118e-05, -0.00023167187464423478, 5.7080476835835725e-05, 0.0009565859800204635, 0.00017131687491200864, 0.0005843659746460617, 0.0014650237280875444, -0.0002356325276196003, -0.00014890565944369882, -0.00053238938562572, 0.00010591985483188182, 0.0003652605228126049, -0.0002177529240725562, 0.0006294146296568215, -1.4364923117682338e-05, 0.0010526940459385514, 1.973428879864514e-06, 0.00015279413491953164, 0.0013264722656458616, -0.00015808602620381862, -0.00021074347023386508, -0.000436806702055037, -0.00011792313307523727, 0.001079177251085639, 0.0009026273619383574, 0.000348964094882831, 0.000333345087710768, 0.00013058295007795095, -0.001025000005029142, -0.00029135955264791846, 0.001281537814065814, 0.0012117865262553096, 0.00068311532959342, 0.0007256479002535343, 0.0002701763005461544, -0.00028156195185147226, -0.0004478617338463664, -0.0005708805401809514, -0.00024206856323871762, -0.00024904950987547636, 0.0003551808185875416], [-0.0007616360671818256, 0.0007673727814108133, -0.00037957256427034736, -0.0004094115283805877, -0.0006615582969971001, 0.0006720024975948036, -0.0020005451515316963, 0.00033043016446754336, 0.0008932315395213664, -0.0005303391953930259, -0.00042537422268651426, 0.00015755489584989846, 0.00041544053237885237, 0.0010779646690934896, -0.00022079715563450009, 0.0005269769462756813, 0.0007453174330294132, 0.0010178599040955305, -0.0001613367348909378, 0.00029958970844745636, -0.0003809337504208088, 0.0002741737407632172, -0.0008966841851361096, -0.00022203837579581887, 0.0005549592315219343, 0.0002730866544879973, -0.0011049382155761123, -5.2798568503931165e-06, 0.0010874882573261857, -0.0005352658336050808, -0.00038499708171002567, -0.0006225386168807745, -0.0005348121630959213, 0.0006761298282071948, 0.0004178530361969024, 0.0002176507841795683, -1.4394725440070033e-05, 0.00046010431833565235, 0.0003396994434297085, 0.00023340556072071195, -0.000737430527806282, 0.0008434015326201916, 0.00037524811341427267, -7.09695159457624e-05, -0.0001732033269945532, 0.00010243229917250574, 0.0001138258958235383, -0.0001764865155564621, 0.0008459837408736348, -0.0007232184871099889, -4.549372897599824e-05, 0.00025337692932225764, -0.00034856199636124074, 0.0005318576004356146, -0.0010615615174174309, 0.0003419832210056484, -0.0009653432643972337, -0.0009608523105271161, 0.0007847780943848193, -5.585033795796335e-05, -0.0005149801727384329, 0.0021518380381166935, 0.000188388759852387, -0.0005651776446029544], [0.0024370518513023853, -0.00015455111861228943, 0.0016031512059271336, 0.001283760997466743, 0.004343684297055006, 0.00022532447474077344, -0.0003054279077332467, 7.285250467248261e-05, -0.0016615118365734816, -0.0005859661614522338, -0.00029903705581091344, -0.0014772014692425728, -0.0007680298294872046, 0.002250316087156534, 0.000344014260917902, -0.004519091919064522, 0.005323750898241997, 0.0019269493641331792, -0.0012309306766837835, 0.0019095692550763488, 0.0017244491027668118, 0.0007062730146571994, -8.842255920171738e-05, -0.003279813565313816, 8.382355736102909e-05, -0.003381038084626198, 0.0003210963914170861, -0.0012227424886077642, -0.001693412777967751, -0.0035562370903789997, -0.002311564749106765, 0.00018445687601342797, -0.0015957083087414503, -0.00012298217916395515, 0.0006842641159892082, 0.0008079811814241111, -0.0012969900853931904, 0.0004973612958565354, 0.0008134758681990206, 0.0006539608002640307, -0.000894455355592072, 0.0007713290397077799, 0.0014878514921292663, 0.0012651801807805896, -0.0010061245411634445, 0.0005572825320996344, -0.0014632116071879864, 0.0011411748128011823, 0.0008711967966519296, -0.0011847587302327156, -0.0008912093471735716, -0.0001099251676350832, 6.132968701422215e-05, -0.0035813769791275263, -0.00011219014413654804, 0.0015590976690873504, 6.150436820462346e-05, 0.0011866346467286348, -0.0012544619385153055, 0.0007014150032773614, 0.0003922434407286346, 0.0018727730493992567, 0.0009284524712711573, 0.0015762292314320803]], [[-0.001951445359736681, -0.00017258066509384662, -0.0024863281287252903, 0.0005131247453391552, 2.5993678718805313e-05, 0.0002205086057074368, -0.00034076927113346756, -0.00025365696637891233, -0.00037584861274808645, -9.793372009880841e-05, 0.00014730467228218913, -0.0007906040409579873, 0.00012471996888052672, 0.00023031911405269057, 0.00013869625399820507, -0.0001979469961952418, -0.0002842879039235413, 7.179174281191081e-05, -0.0001653342042118311, -0.00010465920786373317, -0.0009443653980270028, 7.570319576188922e-05, -0.00031456456054002047, -0.0004419716424308717, -0.000969829794485122, -0.0017008071299642324, 0.0006584804505109787, 0.0006161493365652859, -0.0010823595803231, 0.0006723346887156367, -0.0013520076172426343, -0.0003253876930102706, 0.00018150621326640248, 0.0003980063775088638, -0.00036575522972270846, 0.0004514687752816826, -2.8624097467400134e-05, -0.0004152410547249019, 0.00023646758927498013, 0.00034679530654102564, 8.638280996819958e-05, 0.0002459486713632941, -0.0002860356471501291, 0.0007052264991216362, 0.0003741286927834153, 0.00031963977380655706, 0.0008738769683986902, 0.0011465069837868214, -0.00014895378262735903, 0.0007380751194432378, -0.0008949823095463216, 0.00018165112123824656, -0.0004972751485183835, -0.00020515432697720826, -0.0012195305898785591, 0.0012223561061546206, -4.7190755140036345e-05, -0.00010662659769877791, 0.00012608464749064296, 0.001496719429269433, -0.00031680293614044785, 0.0010861962800845504, 0.00013088947162032127, -0.0006604972295463085], [-5.814457472297363e-05, -1.3410704013949726e-06, -1.171109761344269e-05, 1.313725164209245e-07, 4.959525767844752e-07, -6.613338427996496e-07, -7.464931428557975e-08, -3.4795061765180435e-07, 4.585560020586854e-07, -2.4336981141459546e-07, 1.5907866327324882e-05, 2.1925858163740486e-05, -3.324753361511057e-09, 1.0422486411698628e-05, 1.9787494238698855e-06, -1.6561509255552664e-05, -3.976483640144579e-06, 1.6359330402337946e-05, 3.630358378359233e-07, -1.2618143330200837e-07, -4.800931492354721e-06, 2.3661204977543093e-05, 7.54375207634439e-07, -9.67180858424399e-06, -4.327773694967618e-07, -1.0113201653894066e-07, -1.3386055570663302e-06, -6.511208994197659e-06, -1.2346234143478796e-05, 4.306767095840769e-06, 1.7716425645630807e-05, -1.9779654394369572e-05, 1.0164442301174859e-06, 9.695447715785122e-07, 2.442117875034455e-06, -4.3947217420736706e-08, 5.091713774163509e-06, -8.613288287051546e-07, 1.8238786651636474e-05, -2.2081760562286945e-06, -1.4399430256162304e-05, 6.489071893156506e-06, -1.140392441811855e-06, 2.02198134502396e-06, 8.782184522715397e-06, 4.101719241589308e-06, -4.4013278966303915e-05, -1.7037708630596171e-06, -1.46771608342533e-05, -1.9578021237975918e-05, -1.2451690054149367e-05, 1.5164443539106287e-05, -7.65800905355718e-06, -1.3927517102274578e-05, -5.977064120088471e-06, 3.2942705274763284e-07, -6.870114930279669e-07, -3.6357835142553085e-06, -1.3568354916060343e-05, 3.107759403064847e-05, 3.5938680298386316e-07, 5.572659119934542e-06, -5.860576379745908e-07, -4.931941475661006e-06], [-0.00018732156604528427, -1.8171019746660022e-06, -9.212116310663987e-06, 3.4747922654787544e-06, 1.4624608866142808e-06, -5.985063125990564e-06, 3.4806291751010576e-06, 1.4346612715598894e-06, -1.1097637980128638e-05, 4.060715582454577e-06, 2.5581708541722037e-05, 3.061551251448691e-05, -9.900430995912757e-06, 5.118468834552914e-06, 2.938942998298444e-06, -1.6569742001593113e-05, -5.0286553232581355e-06, 1.196941957459785e-05, 1.1012411960109603e-06, 9.258883437723853e-09, -7.525420642195968e-06, 2.9185217499616556e-05, 4.426420673553366e-06, -8.084944056463428e-07, -1.24992232031218e-06, -4.728416342913988e-07, 7.4826857598964125e-06, -1.722079650789965e-05, -1.9477078240015544e-05, 9.813638826017268e-06, 1.699159838608466e-05, -1.2219033123983536e-05, 2.257754204038065e-06, -1.5891384919086704e-07, 6.509514605568256e-06, -1.2151316695963033e-05, 9.675103683548514e-06, -3.3102986662925105e-07, 1.4735917829966638e-05, -4.962860657542478e-06, -1.6744794265832752e-05, -8.33532567412476e-08, -1.2166361784693436e-06, -1.9253625396231655e-06, 1.588226768944878e-05, 3.0819849143881584e-06, -5.6044395023491234e-05, -7.086079676810186e-06, -1.8298997019883245e-05, -2.241179572592955e-05, -9.728072654979769e-06, 2.5300085326307453e-05, -6.137552190921269e-06, -1.4093748177401721e-05, -4.2448741623957176e-06, 2.7754504117183387e-06, 6.525153821712593e-06, -4.56089765066281e-06, -1.656749918765854e-05, 3.1472234695684165e-05, 4.772125066665467e-06, 2.306986516487086e-06, -3.0564974622393493e-06, -1.033553053275682e-05], [0.00012808697647415102, -2.2944332158658653e-05, 6.549649697262794e-05, 1.6111402146634646e-05, -6.987119559198618e-05, -4.391820039018057e-05, 8.273877028841525e-06, 2.6136389351449907e-05, 1.7405400285497308e-05, 2.337581645406317e-05, -2.105730163748376e-05, 4.117113803658867e-06, -1.682611218711827e-05, -1.1094523415522417e-06, -5.492112904903479e-05, 4.470866406336427e-05, 9.467560630582739e-06, -3.139615728287026e-05, 2.3294587663258426e-05, -3.3591033570701256e-05, 7.5819853009306826e-06, 2.335736013492351e-07, 1.7698735973681323e-05, 6.402646977221593e-05, -5.178267201699782e-06, 8.168569365807343e-06, 0.00011339684715494514, -2.057893834717106e-05, -1.5355752111645415e-05, 6.893678801134229e-05, 5.177176717552356e-06, 4.0631242882227525e-05, 2.6868639906751923e-05, -1.2679317933361745e-06, 4.166746293776669e-06, -2.8969570848857984e-05, -1.0394974196969997e-05, 5.568221240537241e-05, 1.4996460322436178e-06, -8.082360182015691e-06, 0.00016135661280713975, 4.402206832310185e-05, -1.609569699212443e-05, 5.810332368128002e-06, -1.1477774023660459e-05, 2.1197873138589785e-05, 3.1659419619245455e-06, -2.8644212761719245e-06, -2.379522629780695e-05, 0.00014178594574332237, 9.51723923208192e-05, 2.231739927083254e-06, 4.986040949006565e-06, -6.140120967756957e-05, 0.00011364997044438496, 1.9185572455171496e-05, 9.020519792102277e-05, -1.8732562239165418e-05, -6.441984442062676e-05, 9.313928785559256e-06, 6.1526275203505065e-06, 6.429788481909782e-05, -3.969978934037499e-05, -2.155426591343712e-05], [0.0004709142376668751, 0.00015720794908702374, 6.4010193455033e-05, 0.00028658934752456844, -0.0005383032839745283, -0.0001717612612992525, 0.00011049737076973543, -2.237754233647138e-05, 8.350289863301441e-05, -8.018843072932214e-05, -2.984933234984055e-05, 0.00020849608699791133, -3.710934106493369e-05, 9.193457663059235e-05, -0.0002532755897846073, 8.399914804613218e-05, -2.9299435482244007e-05, -6.67512504151091e-05, 0.00018878912669606507, -0.000386415864340961, -0.00018394418293610215, -0.0002528310869820416, 0.00011759999324567616, 0.000674750073812902, 0.00017136103997472674, 6.298512016655877e-05, -0.0006323555135168135, -0.0002594988327473402, 0.0002662702463567257, -1.6706122551113367e-05, 3.586830280255526e-05, 0.00013294859672896564, -0.00019843709014821798, 0.0002098892000503838, 0.0003017363487742841, 2.069060064968653e-05, 4.483921657083556e-05, 0.0002054334618151188, -0.00010146870772587135, 6.234925240278244e-05, -0.00020308677630964667, 4.2636438593035564e-05, 1.6048361430875957e-06, 0.00024319111253134906, 2.624782791826874e-05, -0.00011810784781118855, 0.0005513644427992404, -0.0004433857975527644, 2.581773151177913e-05, 0.00017423549434170127, -9.139905159827322e-05, 9.721248352434486e-05, 0.00024474423844367266, 0.0004815212159883231, 0.0005141850560903549, 0.00020344156655482948, 1.9867165974574164e-05, -0.0005022889818064868, -0.0004288673517294228, -0.00044056971091777086, -9.975497960112989e-05, 0.0003075941640418023, -1.3947104889666662e-05, 0.0001807462831493467], [-0.0011246667709201574, -0.0004098910721950233, 0.0006742615369148552, 0.0014197080163285136, 0.00032434624154120684, -0.00025110572460107505, 0.00032349268440157175, 0.00038645771564915776, -0.0003998637548647821, 0.0011279841419309378, -0.0007470950367860496, 0.00013643802958540618, -7.1610425038670655e-06, -4.108203575015068e-05, 3.73196744476445e-05, 0.0005829759174957871, -0.0004433342255651951, -0.0011196373961865902, 0.0001331189414486289, 0.0001078329878509976, -0.0006357242818921804, -4.857347812503576e-05, -0.00041516023338772357, -1.0208430467173457e-05, 0.00013069281703792512, 0.00035010918509215117, 2.833315375028178e-05, 8.147244807332754e-05, 0.00028547499096021056, 0.0002707064268179238, -0.00010875630687223747, -0.0002663908526301384, 0.00039609905797988176, -0.0008259500609710813, -0.00039198988815769553, 0.0003820172278210521, -0.0006969220703467727, -6.59999786876142e-05, 0.00033777623320929706, -0.0002177122951252386, 0.00024244564701803029, 