{"nesterov": true, "init_weights": [17744, [[[[-0.00035106108407489955, 0.0008866031421348453, -0.0010263295844197273, -0.0002871638862416148, 0.0011229717638343573, -0.0008626679191365838, 0.0003354726650286466, -0.0003474552067928016, 0.0012850568164139986, -0.00012739744852297008, -1.004677324090153e-05, -0.0007819350576028228, -0.0007272454095073044, -0.0017944457940757275, 7.79922993388027e-05, -0.00032533775083720684, -0.0006379556725732982, 0.00041978107765316963, -1.9515833628247492e-05, 0.0002845649723894894, -0.001205296372063458, -1.2376549420878291e-05, 0.0009501387248747051, 0.000811505364254117, 0.00032674300018697977, 0.00022346602054312825, 0.0011095894733443856, 0.0004466426034923643, 0.00026846572291105986, 0.0006503149052150548, 0.00038812635466456413, 2.170863444916904e-05, -0.0002538912813179195, -0.00044192816130816936, -0.00010548189311521128, 0.0012811986962333322, 0.00017573709192220122, 0.0004641248960979283, -0.0012565301731228828, 2.6918103685602546e-05, 0.0006432716036215425, 0.0003990919212810695, 0.0005997853586450219, 9.115607826970518e-05, -1.7706392100080848e-05, 0.00017052820476237684, 0.0002906136214733124, 0.000401223951485008, -0.00014976300008129328, 0.0007510344730690122, -0.0005761234788224101, -0.0003540588659234345, -0.00044618186075240374, -0.0005275496514514089, -0.0008102278807200491, -3.873879541060887e-05, -5.1724258810281754e-05, 0.002663234481588006, 0.0009427755139768124, 0.0006551630212925375, -0.000863183755427599, 0.00024726701667532325, -0.0006923890323378146, 4.749074287246913e-05], [-2.443301809762488e-06, 1.0236036587230046e-06, -3.846565959975123e-06, -3.7520317164307926e-06, -2.450365627737483e-06, 1.331750127064879e-06, 4.4138440102869936e-07, -8.854109410094679e-07, -1.9307376533106435e-06, 1.7214026115652814e-07, 1.2626976513274712e-06, 3.16118047294367e-07, 2.9419859401969006e-06, 1.7063109680748312e-06, -3.559470769687323e-06, 1.7999991541728377e-06, 8.119185395116801e-07, -2.0757740060162178e-07, -2.0839570424868725e-06, 9.61993464443367e-07, 1.4736200455445214e-06, 8.000806701602414e-07, 4.022037956019631e-06, 2.1378573933361622e-07, -2.744219727901509e-06, -2.7932840112043777e-06, -4.027353384117305e-07, -2.288029918418033e-06, -2.4825760647217976e-06, -1.5100949894986115e-06, 1.8404898582957685e-06, 2.593708359199809e-06, -3.502138042676961e-06, 1.4469062534772092e-06, 1.6957370689851814e-06, 5.626729944196995e-07, 4.03008652938297e-06, -6.712319873258821e-07, 2.6515558602113742e-06, -8.289840138786531e-07, 1.5944175402182736e-06, -1.3937840321887052e-06, 1.947005785041256e-06, 7.627798481735226e-07, -6.911477612447925e-09, -1.5520357692366815e-06, -3.4867770182245295e-07, -4.231976163282525e-06, -1.587018346072e-06, 4.2562868429740774e-07, -6.980779403420456e-07, 1.1593265298870392e-06, 5.456030862660555e-07, 1.6171527477126801e-06, -1.2306155667829444e-06, -2.2350798190018395e-06, 1.5595245486110798e-06, 1.360401370220643e-06, -5.91782622905157e-07, 4.116859145142371e-06, 1.3764129107585177e-06, -5.720771696360316e-07, -1.864756882241636e-06, 9.873344879451906e-07], [-2.7794039851869456e-06, 1.0847289786397596e-06, -4.449578341336746e-07, -1.070050757334684e-06, -4.147133495280286e-06, 1.747007445374038e-06, 9.470529221289326e-06, -1.0757252312032506e-05, -1.0509276080483687e-06, 2.231688768006279e-06, -3.519424467413046e-07, -3.0445310130744474e-06, 5.520661829905293e-07, -1.0724447747634258e-06, 1.4220297543943161e-06, -4.964686922903638e-06, 1.218095121657825e-06, 1.4848443470327766e-06, 3.8511598177137785e-06, -1.8341539771427051e-06, 1.8393888012724346e-06, -7.673942832298053e-07, 4.223478526910185e-07, -1.7859967726963077e-07, 5.123034043208463e-06, -4.760021511174273e-06, -1.4329152975278703e-07, 3.048716735065682e-06, -1.57538761413889e-06, 1.5799591892573517e-06, 4.810077371075749e-06, 2.817173481162172e-07, 2.174368773921742e-07, -8.906855555324e-07, 2.400881157882395e-06, -1.6991958773360238e-06, -1.4676155615234165e-06, -6.230329177014937e-07, 3.790415803450742e-06, 1.4266133803175762e-06, 8.836623237584718e-07, -1.4128924021861167e-06, -1.3663527170137968e-05, 1.6346938309652614e-06, 7.972628850438923e-07, -3.972940703533823e-06, 3.1973697787179844e-06, 5.017148396291304e-06, -9.502587090537418e-06, -6.359158760460559e-06, -4.028924195154104e-06, 4.344994522398338e-06, -2.4571568246756215e-06, -3.234063797208364e-06, -8.923266250349116e-06, -6.150033186713699e-06, 3.7461104511749e-06, 2.0022037006128812e-06, -2.452414378240064e-07, -1.4386123439180665e-06, -9.37254128530185e-07, -9.142743238044204e-07, -1.4563541981260641e-06, 4.989427907275967e-06], [-6.156924428069033e-07, 9.191660865326412e-06, -2.046968074864708e-05, -3.7394684113678522e-06, 9.684415090305265e-06, 7.288182678166777e-05, -2.8327624022495e-05, -1.9943832739954814e-05, 3.614565457610297e-06, 2.909097747760825e-05, 9.00525992619805e-06, 1.9739436538657174e-05, 3.023591125383973e-05, 5.1081406127195805e-05, 1.4282944903243333e-05, 1.2191240784886759e-05, 2.050526290986454e-06, -2.6013756723841652e-05, -1.755415905790869e-05, 3.2166281016543508e-06, 1.3336519259610213e-05, 1.1641699529718608e-05, 2.9241968150017783e-05, -1.9600087398430333e-05, 1.1280029866611585e-05, 1.8235052266390994e-05, -5.599914402409922e-06, -5.6900935305748135e-06, 1.5072539099492133e-05, 3.8931881135795265e-05, 2.8624825063161552e-05, 1.8908720448962413e-05, -9.928498911904171e-07, 4.159469244768843e-05, 3.1247582228388637e-06, -9.244563261745498e-05, 1.5612946299370378e-05, 1.80653069037362e-06, 7.387191726593301e-05, -4.289485332265031e-06, -2.5865861971396953e-05, -2.224431455033482e-06, -2.508599209249951e-05, -1.3175136700738221e-05, 1.9987579435110092e-05, 5.303891612129519e-06, 2.3723425329080783e-05, -8.267608791356906e-06, -1.3693490473087877e-05, -2.333895827177912e-05, 2.0306923033786006e-05, 1.4506968000205234e-06, 4.248370896675624e-05, 1.8881452206187532e-06, 4.7222489229170606e-05, -9.01488328963751e-06, 9.859602869255468e-06, -4.298931344237644e-06, 2.8245716748642735e-05, 6.737009243806824e-06, 1.1176176485605538e-05, 1.794144554878585e-05, 5.965221134829335e-06, -2.0377490727696568e-05], [-2.8348262276267633e-05, -0.00010004418436437845, 0.0002320405765203759, -0.0002519648114684969, -0.00023801610223017633, 0.0004479141207411885, 0.0002605857443995774, 0.00031023897463455796, 0.00010875464067794383, 0.00016192563634831458, -7.745406765025109e-05, -1.5064389117469545e-05, -0.00020927630248479545, -2.1560379536822438e-05, -0.0001624556607566774, -0.000134135116240941, -9.469599899603054e-05, -0.0003707295982167125, 0.0001540661178296432, 6.765095895389095e-05, 0.00010026194649981335, 8.36934705148451e-05, -0.0001404558279318735, 1.5941441233735532e-06, -0.0002763390075415373, -0.0002698945172596723, -2.1964271581964567e-05, 0.00025809305952861905, -0.0003079063899349421, -4.431043635122478e-06, 2.3133688955567777e-05, 5.608155333902687e-05, -0.00021131039829924703, 1.7517773812869564e-05, 1.0890385055972729e-05, 0.00011492973135318607, -6.329652387648821e-05, 4.547514981823042e-05, 0.00012506480561569333, 1.1699943570420146e-05, 0.0002679884491953999, 9.106494690058753e-05, 6.929272058187053e-05, -0.0001464008237235248, 0.00015847044414840639, -0.00031121575739234686, 0.00011032280599465594, 0.0002462268457747996, 0.00037199072539806366, 0.0005253468407317996, 2.505593147361651e-05, -0.00011555425589904189, -0.0002414781483821571, -6.729827873641625e-05, 4.186143632978201e-05, 2.108565968228504e-05, -0.00017645428306423128, 0.0005423839902505279, -3.7708774470956996e-05, 0.00019592905300669372, -4.463733057491481e-05, 1.282268567592837e-05, 4.653663927456364e-05, 0.0002869765448849648], [0.000624155392870307, 0.00011346495011821389, -7.176779035944492e-05, -0.00030605174833908677, 0.0013438882306218147, 0.00043534510768949986, -0.0005226762732490897, 0.0007316006231121719, 0.00023414801398757845, -8.609827636973932e-05, -0.0003266916028223932, -0.000654379022307694, -0.0006259874207898974, -0.00017205123731400818, -0.0009097234578803182, -0.00031696719815954566, 0.00017560372361913323, -1.809833338484168e-05, 0.00026647993945516646, -0.0007488377741537988, -1.2618605978786945e-05, -0.0003933197003789246, -0.0002540697169024497, -7.01213939464651e-05, -0.0007885161321610212, 0.00028765221941284835, 0.000644570158328861, 0.0007614043424837291, -0.0003193023439962417, -0.0006932246033102274, -0.00027994398260489106, 4.744449688587338e-05, 0.00036412524059414864, -0.0005243096966296434, 0.00018741295207291842, 0.0010962884407490492, -0.0005784697714261711, -1.6145988411153667e-05, -0.0008175447001121938, 5.430354212876409e-05, 0.0003060945891775191, 0.00044234347296878695, 0.00012301736569497734, -0.00012491624511312693, -0.00015715821064077318, -0.00014100845146458596, 1.7167201804113574e-05, 0.0004452356952242553, 0.00023107479501049966, 0.00039281247882172465, -3.6980814911657944e-05, -0.00013412232510745525, 7.517373887822032e-07, -0.0003749296593014151, -0.000656107731629163, -0.000190434351679869, -6.249530997592956e-05, 0.0018874806119129062, -0.00041754060657694936, 0.000388915475923568, 6.392892828444019e-05, -0.0002624439657665789, 0.00045151423546485603, -0.0003268893633503467], [0.0010714780073612928, -0.0004331989912316203, -0.00048380641965195537, -0.00042828809819184244, 0.0015792188933119178, 0.000791795551776886, -0.0009414669475518167, 0.00023822803632356226, 0.00034452107502147555, 0.0005459621897898614, 0.00010125411063199863, 0.00015489032375626266, 0.001399823697283864, 0.0015037967823445797, 0.00038592173950746655, -0.0007635102374479175, 0.0010524886893108487, 0.0003893939428962767, -0.0003028099308721721, -0.0014196439879015088, 0.0005940389237366617, -0.0007149502635002136, -0.0010549025610089302, -0.0005461836117319763, -0.00015453671221621335, 0.0011270693503320217, 0.0009655155008658767, 0.0010912504512816668, -0.0001798757293727249, -0.0004546543350443244, 0.00123744981829077, 0.0001866122183855623, 8.152892405632883e-05, -0.0005409360164776444, 0.0003936772409360856, 0.0009373336797580123, -0.0006485216435976326, 0.0009664288954809308, -0.0013706968165934086, -0.0003581582277547568, -0.001229032757692039, 0.0004884683294221759, 0.0001770323287928477, -0.0007304652244783938, 0.0013548374408856034, 0.0005697510787285864, -0.0004991861642338336, 0.0010714525124058127, -0.0015863485168665648, -0.0002240188478026539, 0.0005325655802153051, -0.0006576419109478593, -0.00033365789568051696, -0.0009930720552802086, 0.0005882888799533248, 0.0003442206943873316, -0.00010844110511243343, -0.0013187580043449998, -0.0002875860081985593, 0.0010448603425174952, 0.0006619032355956733, -0.000612584815826267, 0.0009925483027473092, 0.00020106106239836663], [-0.000145452911965549, 0.0015222844667732716, 5.066340963821858e-05, -0.001111469930037856, -0.0017738831229507923, 0.0016445715446025133, -0.00029379429179243743, -0.00035486285923980176, 0.0005138646811246872, -0.000781784881837666, 0.0012240721844136715, -8.556256943847984e-06, 0.0001135739657911472, -0.0006848130142316222, 0.0003487811191007495, 0.0006430578650906682, 0.0002544234157539904, -0.00040648135473020375, 0.0005170541699044406, 0.0006202202057465911, -0.0001470767892897129, 0.00027506673359312117, 1.8686172552406788e-05, 0.000743456999771297, 0.0006046436028555036, -0.0011736805317923427, -0.0007334913243539631, -0.00024343925178982317, 0.0011317157186567783, -0.00011003185500157997, 0.00011643982725217938, -0.000610827119089663, -0.00020277265866752714, 0.0005707367090508342, -5.805792170576751e-06, -0.00047346652718260884, 7.974254549480975e-05, 0.0005299534532241523, -0.0007100836373865604, 0.0009621488861739635, -8.5506122559309e-05, 0.0001404006325174123, -0.00033628876553848386, 5.273791612125933e-05, -2.3505708668380976e-06, -0.0002925816806964576, -0.000549625838175416, 8.632280514575541e-05, 0.0006137460586614907, 0.00031082844361662865, -9.748007141752169e-05, 0.0004228324396535754, -0.00023021634842734784, -0.0007837623707018793, 7.082548108883202e-05, -0.0004218839749228209, -0.0012290461454540491, 0.00027739076176658273, 0.00022262969287112355, 0.0006239464273676276, -0.0011923904530704021, 0.00017859716899693012, -5.792415322503075e-05, 0.00015595383592881262], [3.174138328176923e-06, -9.066450729733333e-06, 3.6327651287137996e-07, -2.633909934957046e-05, 1.467547281208681e-05, -9.76698865997605e-05, -7.990075573616195e-06, -1.1499939319037367e-05, 6.907486749696545e-06, -2.316634163435083e-05, 3.58026341018558e-06, -4.3398897105362266e-05, 3.538622877385933e-06, -1.6521455108886585e-05, -5.2435448196774814e-06, 5.182669156056363e-07, 2.483438038325403e-06, 2.357637458771933e-05, -1.1084955531259766e-06, 1.5492525562876835e-05, 1.192278341477504e-05, 1.3577426216215827e-05, -1.3642933481605724e-05, -2.4669287085998803e-05, -1.1734735380741768e-05, -9.343349120172206e-06, -2.483438584022224e-05, -7.630646905454341e-06, 9.913756002788432e-07, -2.8397287678672e-05, 4.871500095759984e-06, 1.8847726096282713e-05, -7.304854989342857e-06, -2.875786231015809e-05, 8.222308679251e-06, -3.06121228277334e-06, 3.4304088330827653e-05, 1.478695139667252e-07, 2.0467869035201147e-06, 1.084320047084475e-05, 3.124954673694447e-05, -4.826371196031687e-07, 3.7198431073193206e-06, -1.7424097677576356e-05, -3.4947902349813376e-07, -2.1117220967425965e-05, 3.780197585001588e-05, 1.4290124454419129e-05, 7.2111292865884025e-06, -1.8559630916570313e-05, 2.1342555555747822e-05, -4.592676486936398e-05, -1.0735115210991353e-05, -5.28011514688842e-05, 3.1066203519003466e-05, 1.6559031791985035e-05, -5.0147871661465615e-05, -4.4689964852295816e-05, 5.195453923079185e-05, 9.035752555064391e-06, -8.153592716553248e-06, 1.3290848073665984e-05, 1.3699851479032077e-05, 3.832401125691831e-05], [-4.5729990233667195e-05, -3.351963096065447e-05, 1.9678449461935088e-05, -2.6656740374164656e-05, -1.0366275091655552e-06, 0.00034128513652831316, 5.456230610434432e-06, -0.00010688969632610679, -4.1117644286714494e-05, -3.2203366572503e-05, 1.3465805750456639e-05, -3.3378481020918116e-05, -3.0074774258537218e-05, -1.3192995538702235e-05, 2.9448328859871253e-06, 5.12329934281297e-05, 2.8968877813895233e-05, -2.1003505025873892e-05, 5.300458724377677e-06, -2.0318726456025615e-05, 6.92750109010376e-06, 4.5733380829915404e-05, 1.2005857570329681e-05, -1.5609293768648058e-05, -4.378452285891399e-05, -8.797746886557434e-06, -2.3318072635447606e-05, -1.9541970686987042e-05, 4.895684105576947e-05, -6.13333540968597e-05, -7.481705779355252e-06, 3.162855136906728e-06, 3.429337084526196e-05, 2.2414660634240136e-05, 1.3938484698883258e-05, -5.890313332201913e-05, 4.3504012865014374e-05, -2.776629844447598e-05, -1.7697433577268384e-05, 6.064798071747646e-05, 5.412261816672981e-05, -2.443355697323568e-06, -3.2079769880510867e-06, -1.0927522453130223e-05, -4.5017077354714274e-06, -6.370876508299261e-05, 3.4314958611503243e-05, 1.850270200520754e-05, 2.462747215759009e-05, -4.0753595385467634e-05, 4.05286336899735e-05, -1.0214823305432219e-05, -2.154421054001432e-05, -5.669983147527091e-05, 8.341438842762727e-06, -1.712381163088139e-05, -1.6432775737484917e-05, -3.231650043744594e-05, 4.473369335755706e-05, -8.26381983642932e-06, -2.0556210074573755e-05, 1.274894384550862e-05, 2.0231324015185237e-05, 1.306987542193383e-06], [-3.676638880278915e-05, -0.0001717516570352018, -9.940085146808997e-05, 8.355217141797766e-05, 0.00012798905663657933, -6.6300854086875916e-06, 1.6608406440354884e-05, -0.00024353347544092685, -0.0001423144422005862, 8.67955750436522e-05, 9.817941463552415e-05, 8.09805715107359e-06, 0.00010766787454485893, -4.552080645225942e-05, -8.358358172699809e-05, -0.0001832399284467101, -0.00012517953291535378, 5.336044341675006e-05, -0.00011776913743233308, 4.344178523751907e-05, 9.940014570020139e-05, -0.00016768946079537272, -1.5836561942705885e-05, 7.641858246643096e-06, 0.00030376389622688293, -0.00012520383461378515, -0.00023780131596140563, -8.988443005364388e-05, 0.00023686794156674296, -1.1716383596649393e-05, 0.0001104727343772538, 0.00017101560661103576, -7.661076233489439e-05, -0.00013027207751292735, 5.657842120854184e-05, -1.4864788681734353e-05, 6.516076973639429e-05, -1.3175231288187206e-05, -1.9830891687888652e-05, -0.00014491006731987, 1.7573367586010136e-05, 1.3489443517755717e-05, -9.660237992648035e-05, -0.0001818265882320702, 0.00013799159205518663, -8.915058424463496e-05, -2.022849366767332e-05, 0.00015099615848157555, 5.437660729512572e-05, -1.0323332389816642e-05, -2.988838605233468e-05, -0.00011627741332631558, -0.00020783583750016987, -0.00018274284957442433, -4.0473482840752695e-06, 4.5591565140057355e-05, 7.652459316886961e-06, -0.00017250506789423525, 9.880218567559496e-05, -0.00023477221839129925, -0.00015018659178167582, -3.374501102371141e-05, 0.00010318042041035369, 0.00017169537022709846], [-0.00013632293848786503, -0.000328373396769166, -0.00021905516041442752, 0.00022934825392439961, -0.0005784844979643822, 0.00047996704233810306, 0.00018486683256924152, -5.2457224228419363e-05, -0.0002208936493843794, -9.333842899650335e-05, 1.0523297532927245e-05, -5.999451968818903e-05, 0.00014071865007281303, 6.057138307369314e-05, -0.0003263143007643521, -0.00033208404784090817, -0.0003331152838654816, -0.00022206622816156596, 0.00013319557183422148, -4.536645792541094e-05, 0.00030732888262718916, -0.0001777916040737182, -8.651687676319852e-05, -6.49274661554955e-05, 0.000254348007729277, -0.0003947628429159522, 2.1409234250313602e-05, -3.1972267606761307e-05, 0.00011727157834684476, 2.3909575247671455e-05, -0.00018681248184293509, 2.142112862202339e-05, -0.00021139794262126088, -0.0004576971405185759, 0.0001898334885481745, 7.960713992360979e-05, 0.00013505273091141135, -0.000144068559166044, -0.0004626684240065515, -0.0002889384049922228, 0.00011356628237990662, 0.00029376300517469645, -7.27317965356633e-05, -0.00044282895396463573, 0.000290266762021929, -0.0002314276061952114, 0.0004043283697683364, 0.00018546811770647764, 0.00017794672749005258, -5.690497346222401e-06, -9.847716137301177e-05, -0.0005624824552796781, -0.0002193138498114422, -0.0006920458399690688, -0.00035023584496229887, 5.944705844740383e-05, -0.0003396682732272893, -9.061783202923834e-06, 8.694033022038639e-05, -0.00017820231732912362, -0.00021021495922468603, 2.3029802832752466e-05, 0.00016776617849245667, 0.0004725682665593922], [-1.2274591426830739e-05, 0.00039368990110233426, 0.000722368829883635, 0.0003037533024325967, 0.0005562696605920792, -0.0011146396864205599, 0.0004855782026425004, 0.0005502627464011312, -0.0005914708599448204, 0.0005027324659749866, -0.00019180671370122582, 6.15715398453176e-05, 3.650857979664579e-05, 0.00012340774992480874, -0.00012907663767691702, -0.00041884015081450343, 0.0001492665323894471, 0.0006399624398909509, 2.4328837753273547e-06, 0.0002146703191101551, -0.00017999325064010918, 0.0005478364764712751, 4.060125502292067e-05, -0.0004018074832856655, 9.822722495300695e-05, -0.00016723414591979235, -0.0013052963186055422, 2.0506820874288678e-05, -0.0003843693411909044, -4.1330509702675045e-05, -5.2112951379967853e-05, 0.00012973538832738996, 0.00033723204978741705, -0.0001805797073757276, -0.00048002408584579825, -0.0006434188690036535, 0.0001747806672938168, -5.695954314433038e-05, -0.0001635747030377388, -0.0003721531538758427, -0.0005077958339825273, -0.0002842741087079048, -0.0002398118085693568, -0.0006253108149394393, -0.0002425138372927904, 8.439261728199199e-05, -0.0011760164052248001, 0.0005671202670782804, 0.00026226293994113803, 0.0005118789267726243, -0.00041496328776702285, 0.0004598504165187478, -0.0009879418648779392, 3.882249438902363e-05, 7.359893061220646e-06, 0.00036186701618134975, 0.0007740618893876672, -0.00038575235521420836, 0.00043919016025029123, -0.00022109929705038667, 0.00021049089264124632, -6.0463426052592695e-05, -9.847818728303537e-05, -0.0009534711134620011], [0.000687774270772934, -0.0004191082844045013, 0.0012387707829475403, 0.0001199424805236049, 0.000657624623272568, -0.0007042912766337395, 0.0006858731503598392, 0.0015973319532349706, -0.0005350987776182592, 0.0004818919987883419, -0.0004777665017172694, 0.0011951198102906346, 0.0008261976763606071, 0.0008044858695939183, -0.001139103202149272, -0.000672897498589009, -0.0006603067158721387, 0.0009886887855827808, 0.000628888898063451, 0.0004856121086049825, 0.0017168609192594886, -0.00035800569457933307, -5.640584276989102e-06, -0.0008240813622251153, 0.0009690432343631983, 0.0005175506230443716, -0.0010258967522531748, 0.0002521217684261501, -0.0012402459979057312, -0.000539138971362263, 0.00043892563553527, 0.000214235347812064, 0.0003734289784915745, -0.00027599872555583715, -1.4604040188714862e-05, 0.0003959483583457768, -3.162332359352149e-05, -0.0002627306093927473, -0.0011298428289592266, -0.0008019968518055975, -0.0011681629111990333, 0.00036726894904859364, -0.000620405946392566, 0.0002784158568829298, 0.00039610156090930104, 9.788737952476367e-05, -0.001332914805971086, 0.00010873121209442616, 0.0004018303006887436, 0.0003339996328577399, -0.00018841432756744325, 0.00016453221905976534, -0.0008370738942176104, -5.2196846809238195e-05, -0.00043335070949979126, 0.0008542843861505389, 0.0006448078784160316, -0.0004484544333536178, 0.0003328406310174614, -0.00033394843921996653, 0.0003453998942859471, -0.00047288875794038177, 0.000616583158262074, -0.000731552776414901], [-0.0005618209834210575, -9.077670983970165e-05, -0.0007114732870832086, -0.0005931219202466309, 0.0009994946885854006, -0.00023814820451661944, 0.002099274192005396, -0.0012044907780364156, 0.0009190267883241177, -6.240553921088576e-05, 0.0009352105553261936, 6.812910578446463e-05, -0.00015743054973427206, -0.0004625918809324503, 0.001655353233218193, 0.0005976974498480558, 0.0004908339469693601, 0.0008181169396266341, 0.000656932417768985, -2.1388987079262733e-06, 1.1916679795831442e-05, 0.0002862505498342216, 0.0005300957709550858, -6.835753447376192e-05, 3.386929165571928e-06, -0.0006166083039715886, -0.0009488433715887368, 0.00017651301459409297, 0.0005071957129985094, 0.00034104910446330905, 0.0016292468644678593, -0.0007565012201666832, -0.0008849288569763303, -0.0001577365619596094, -0.0006646576221100986, -0.00011363718658685684, 0.00020237136050127447, 0.0012254839530214667, -0.0011467186268419027, 0.00017185695469379425, -0.00030215297010727227, -0.0007956104818731546, 0.001115797902457416, 0.0019158528884872794, 0.0015596866142004728, -7.281731814146042e-05, -0.0012142277555540204, -0.0005565698374994099, -0.00047198543325066566, -2.169510116800666e-05, 4.312198143452406e-05, 7.058176561258733e-05, 0.001223294180817902, -0.0007904873928055167, -0.0012820314150303602, -0.00024979986483231187, -0.00026054016780108213, 0.0005827332497574389, 0.00018655700841918588, -0.0018214458832517266, 7.287401240319014e-05, -4.6346220187842846e-05, -0.0006801881245337427, -0.0005979761481285095]], [[0.00041614079964347184, -0.0002728900290094316, -0.0011085516307502985, -0.0003516191791277379, -0.0010979900835081935, 0.001870903535746038, -0.0002012084296438843, -0.0009661391377449036, 0.0007584787672385573, 1.3505123206414282e-05, -0.00016219587996602058, 0.00047764083137735724, 0.00014289069804362953, -0.0008201175951398909, 0.00035368313547223806, -0.00027572037652134895, 8.212804095819592e-05, -1.2505624908953905e-05, 0.0005307419341988862, -0.00042365124681964517, -3.127104719169438e-05, 1.2471828085836023e-05, 0.0007862586062401533, -4.122358586755581e-05, 0.0010293355444446206, -0.0006097729783505201, 0.001330551691353321, -0.00039117434062063694, -0.001077073160558939, 0.00011623768659774214, -0.00030647864332422614, -0.0009518729057163, -0.0008447854197584093, 0.00028143596136942506, -0.00023270440578926355, 0.0006629721028730273, -0.0009533847332932055, -0.0003600487834773958, -0.0009234361932612956, -0.0008659991435706615, -0.0005787791451439261, 0.00040578137850388885, -0.0003241611993871629, -7.589127926621586e-05, 0.00023685232736170292, 0.00026590522611513734, -0.001753173186443746, 0.00047817238373681903, -0.0003349926264490932, 0.00027259468333795667, 0.0006300722598098218, 7.835391443222761e-05, -0.0007319030701182783, -4.76987479487434e-05, -0.0003163994406349957, 0.0005443814443424344, 0.0001818375167204067, 0.0002566601033322513, 4.358204023446888e-05, 0.0006820883136242628, -0.0006800217088311911, -0.00024832962662912905, 0.0006618129555135965, -0.00024607262457720935], [4.342455213190988e-06, -1.591030240888358e-06, -7.801403398843831e-07, -1.1316446091313992e-07, 2.043454742306494e-06, -6.338128514471464e-06, 2.5755718979780795e-07, 1.3136358347765054e-06, -2.789471977848734e-07, 5.050500817560533e-07, -1.8806402124482702e-07, 1.6701494587323396e-06, -1.7600302726350492e-06, -1.15059583549737e-06, -3.2563025342824403e-07, -2.5514664230286144e-06, -2.626933337523951e-06, -2.4437299543933477e-06, -6.852261549283867e-07, 3.6163706340630597e-07, -9.253486155103019e-07, 1.0898943401116412e-06, 1.83032955192175e-06, -1.1292780754956766e-06, -2.190472514485009e-06, -1.5422616570504033e-06, 1.2059692835464375e-06, 3.963968083553482e-06, -2.826121090038214e-06, -1.8244677448819857e-06, -2.8792128432542086e-06, 2.415999063032359e-07, 1.9584066990319116e-07, 4.011068597264966e-07, -9.445153636988834e-07, 7.747620145437395e-08, 3.0127512218314223e-06, -1.2965503515260934e-07, 8.652073688608652e-07, 2.6847289973375155e-06, 2.549052169342758e-06, -8.43608574996324e-07, 2.333960537725943e-06, -2.5089657356147654e-06, -1.1598818900893093e-06, 7.207480052784376e-07, -1.7539746295369696e-06, -7.30044234842353e-07, -2.1650848793797195e-06, 7.522539249293914e-07, -1.8491251694285893e-06, -3.21028710459359e-06, -2.5879271561279893e-06, -1.0616358849802054e-06, 2.144132622561301e-06, 5.829572842230846e-07, -2.0714495008178346e-08, 3.220152677840815e-07, 3.932559309305361e-07, -7.800788921485946e-07, 4.4399681087270437e-07, -9.66724996942503e-07, 1.0948608633043477e-06, 7.038869398456882e-07], [2.5772712888283422e-06, 1.1270866707491223e-05, 1.967420303117251e-06, 8.382536407225416e-07, 4.419763627083739e-06, 8.792916923994198e-05, 3.858442141790874e-06, -2.05177843781712e-06, 1.5580627632516553e-06, -3.1860179205978056e-06, -7.523229669459397e-06, 1.9145588225910615e-07, 3.077911514992593e-06, 7.74227032707131e-07, -4.299910415284103e-06, -6.848825250926893e-06, 4.700208592112176e-06, 5.805621640320169e-06, -2.4891139673854923e-06, 1.0408378329884727e-05, -6.699248842778616e-06, -1.2694902579823975e-05, -1.1115540701212012e-06, 4.292896846891381e-06, -8.754427653911989e-07, -4.3991198594994785e-07, -4.582835572364274e-06, 2.187536210840335e-06, -3.289693495389656e-06, 9.920390766637865e-06, 5.249035439192085e-06, 8.502154287270969e-07, -4.2553679691081925e-07, 1.9828655695164343e-06, -3.983919214078924e-06, -4.780531526193954e-06, 5.537940523936413e-06, 8.719101060705725e-06, -1.3543331988330465e-05, -9.88403030532936e-07, 5.302263616613345e-06, -6.057242671886343e-07, -7.826040018699132e-06, 3.570045009837486e-06, 3.6884086966892937e-06, -6.402774033631431e-06, 8.675337085151114e-06, 2.8556787583511323e-06, -7.979389920365065e-06, 1.485802613387932e-06, 2.547672238506493e-06, -1.4680296089863987e-06, 3.6713788631459465e-06, -1.597159666744119e-06, -7.173600806709146e-06, -4.874322712566936e-06, -6.264696821745019e-06, -1.336947752861306e-05, 2.913925527536776e-06, -8.980161965155276e-07, -7.541361355833942e-06, 1.6406274880864657e-06, -4.499739588936791e-06, -5.991498710500309e-06], [2.7097521524410695e-06, 1.316786165261874e-05, -1.740404695738107e-05, 2.4492828742950223e-06, -1.851865090429783e-05, 5.948296166025102e-05, 1.166538550023688e-05, -0.00010048648255178705, -1.094753770303214e-06, 2.6332447305321693e-05, 3.3484757295809686e-05, 8.81409869180061e-06, 1.2896152838948183e-05, 1.2369322575978003e-05, -7.910324711701833e-06, 2.2664788048132323e-05, -2.8804824978578836e-05, 5.1040238759014755e-05, 2.475407745805569e-05, -2.3764197976561263e-05, -2.8072121494915336e-05, -3.9375981941702776e-06, -1.7218366338056512e-05, -2.9383607397903688e-05, -1.4371846191352233e-05, 4.245274612912908e-05, -2.8808219667553203e-06, 3.7203535612206906e-05, -6.7164323809265625e-06, -7.614613423356786e-06, 6.2026019804761745e-06, -7.572110007458832e-06, -4.077248740941286e-05, 2.303724795638118e-05, 7.570761681563454e-06, 1.0940584616037086e-05, 1.8048300262307748e-05, 2.711916749831289e-05, 1.6324614762197598e-06, -1.7453654436394572e-05, -3.5979355743620545e-05, -1.3791474202662357e-06, -5.539217818295583e-05, 3.7337496905820444e-05, 5.11773350808653e-07, 2.1667499822797254e-05, 2.1231786377029493e-05, 2.9212082154117525e-05, -6.014074097038247e-05, -2.5247469238820486e-05, -5.652546860801522e-06, -5.716687610402005e-06, 6.858502456452698e-05, 1.3986762496642768e-05, 1.1567779438337311e-05, -1.9670782421599142e-05, 2.8137492336099967e-06, -1.2778270502167288e-05, -1.7189790014526807e-05, 1.2215577044116799e-05, 6.277399279497331e-06, -1.8508912035031244e-05, -6.441069854190573e-05, -1.3809069969283883e-05], [-0.00020048595615662634, -3.471873060334474e-05, -0.00029637233819812536, -5.0839571485994384e-05, -0.000275031547062099, 0.0002987199404742569, -0.0002027180016739294, 0.00043363479198887944, 0.0004098488134332001, -8.456130308331922e-05, -3.127981472061947e-05, -0.00015732042083982378, -6.158553878776729e-05, 0.0002079859987134114, -2.214658888988197e-05, 4.699996134149842e-05, -3.6401157558429986e-05, -2.4074077373370528e-05, 2.0907125872327015e-05, 0.0001112974714487791, 0.00043742210255004466, -0.0001517678756499663, 8.694087591720745e-05, 1.8074351828545332e-06, 0.00038741767639294267, 8.823569805826992e-05, 0.00028488095267675817, 0.000112791036372073, -2.579472493380308e-07, 0.00010650749027263373, 0.00012996324221603572, -0.00013821444008499384, 7.242480205604807e-05, -1.4576675312127918e-05, -2.631523966556415e-05, 0.00011197639832971618, -5.7811503211269155e-05, 0.00011582349543459713, -5.752687866333872e-05, -4.4346306822262704e-05, 0.00017231453966815025, -6.275051418924704e-05, -5.341678115655668e-05, 2.514648440410383e-05, 0.00018378945242147893, -5.428281656350009e-05, 0.0002667224034667015, 0.0003628158010542393, -0.0002839806256815791, 9.552855772199109e-05, -2.8068729079677723e-05, -4.751479718834162e-05, -7.5452408054843545e-06, -9.152160782832652e-05, 7.49776663724333e-05, 0.000298653612844646, -0.00010056085011456162, 0.00019629113376140594, 0.0002579018473625183, 0.00030855732620693743, -0.00015345569408964366, 2.0534604118438438e-05, 0.0001453964359825477, 5.947817408014089e-05], [-1.1198571883141994e-06, -1.184077700600028e-05, -0.00033069131313823164, 1.508372588432394e-05, 0.0003100228204857558, 0.0012708010617643595, -0.0005328984698280692, 0.00010376986756455153, -0.00045195870916359127, 0.0005917649250477552, 1.0250505511066876e-05, 7.987573917489499e-05, -7.985434785950929e-05, 0.00048741663340479136, -0.00016320525901392102, 0.0002742480137385428, 3.090917016379535e-05, -0.0007653714856132865, 5.0167524022981524e-05, -8.386493573198095e-05, 0.000709118670783937, 1.1723801435437053e-05, 8.921512926463038e-05, 0.0005855564959347248, -0.0003144527436234057, -0.0006562883500009775, -0.00018351040489505976, -4.591088872984983e-05, 0.00044225482270121574, -0.0007815001299604774, 0.00017104715516325086, 0.00036615488352254033, -4.0231956518255174e-05, 0.0005232923431321979, 0.0004988132859580219, 0.00024524377658963203, 0.0001023763616103679, -4.1705890907905996e-05, -0.00021116483549121767, 0.00012762341066263616, 0.0005219286540523171, -0.00023527244047727436, 0.0003192072035744786, 0.0004280450812075287, -0.00015128384984564036, 0.00011081402044510469, 7.664081931579858e-05, 0.0005058603128418326, 0.0008663238259032369, -0.00010794722766149789, 0.0006859544082544744, 0.0002899192622862756, 0.0005969812627881765, 0.0004629983159247786, 0.0003490369417704642, -0.00019802708993665874, 0.0007441111374646425, 0.0007024933001957834, -0.00029109418392181396, 1.3068325642962009e-05, -0.00027466873871162534, 0.0003664584073703736, 1.4309349353425205e-05, -0.0009842459112405777], [0.0005456386134028435, 0.0008083432912826538, -0.0002007268340094015, 9.215873433277011e-05, 0.0005008131265640259, -0.0004514633910730481, -0.001347806304693222, 0.00027003398281522095, -2.0287658117013052e-05, 0.0003373817598912865, -0.0002971527574118227, 0.000894107623025775, 0.0006738236406818032, 0.0017581976717337966, -0.0006646111141890287, 0.0006841747090220451, 0.0001768736692611128, -0.0005421699024736881, 0.0005115148378536105, -0.0005511982599273324, 0.0011807573027908802, -0.0006277519860304892, -0.0006156403105705976, 0.001357169123366475, -0.001027081860229373, 0.000916771125048399, -2.96822763630189e-05, -0.00018667365657165647, -0.0001427694078302011, -0.0005437535000964999, 0.0011475797509774566, 2.7277463232167065e-05, -0.0004382959450595081, 0.0009010211797431111, 0.00018312546308152378, 0.0009822535794228315, -0.00037694102502427995, -0.00026546246954239905, -0.0026116834487766027, 0.000736021320335567, -0.00038464105455204844, -4.9582115025259554e-05, 0.00028022771584801376, 0.0005521213752217591, 0.0011197114363312721, 0.0007281249854713678, 5.414284532889724e-05, 0.0008466076105833054, 0.0001850994594860822, -0.00020340229093562812, 0.0012468774802982807, 0.0012927610659971833, 0.0008782537188380957, 0.0002081697020912543, -0.0009852221701294184, -8.723639621166512e-05, 0.0008646529167890549, 0.0014018253423273563, -0.0008586528711020947, -2.2594926122110337e-05, -0.00011818468919955194, 0.00045097898691892624, 0.00018838435062207282, -0.0006292801117524505], [-1.4003016985952854e-05, -0.00032524741254746914, -0.0005905765574425459, -8.048780728131533e-05, 0.00017556885723024607, -0.0008273971034213901, 0.0017081701662391424, -0.00042055558878928423, -0.0004943337407894433, -0.0006449245847761631, -0.0005798839265480638, -0.0007424417999573052, 0.0005409884033724666, 8.910132601158693e-05, -0.00011404314136598259, -0.0003039999573957175, 9.618916374165565e-05, 0.0008331372519023716, -0.0004097035271115601, 0.0010004449868574739, 0.0003725406131707132, 0.0006133815040811896, 0.00011718129826476797, -0.0003559589968062937, 0.00038817638414911926, 0.00018967807409353554, -0.0013365480117499828, 0.0013382273027673364, -0.0005841866368427873, 0.0002915018703788519, 8.964909648057073e-05, -0.00020893686451017857, -0.00037907445221208036, -0.000144798745168373, 0.00012266608246136457, 0.0006618628976866603, -6.732919428031892e-05, 0.00014485238352790475, -0.000583816843573004, -0.00037879578303545713, 0.000288096081931144, -0.0003219933423679322, 3.690169251058251e-05, -0.000804062990937382, 0.0003481030580587685, 0.0007920478819869459, -0.00024363510601688176, 0.0001580439566168934, -0.0009410026832483709, -0.00016893645806703717, -0.0004098010831512511, -0.00048352251178584993, -2.4616743758087978e-05, -0.0011274191783741117, 0.00010618964734021574, -2.0928026060573757e-05, -0.0006874700193293393, -0.0011302402708679438, -7.203506538644433e-05, 0.0004039329360239208, 0.00024651517742313445, 0.0006899217842146754, -0.0003686474228743464, 0.00021988130174577236], [-1.0694222510210238e-05, -2.405753912171349e-05, 2.809474153764313e-06, -1.6417394363088533e-05, -2.137069168384187e-05, 0.0012123945634812117, -4.3756004743045196e-05, 5.33244528924115e-05, 2.5037310479092412e-05, -3.550556721165776e-05, 3.1477913580602035e-05, -7.934961104183458e-06, -2.1317780920071527e-05, -3.632525113062002e-05, 2.1401627236627974e-05, -1.4887720681144856e-05, 4.510785856837174e-06, 4.420929144544061e-06, 1.4066094081499614e-05, 1.835436705732718e-05, 1.3852690244675614e-05, -3.2045696571003646e-05, 1.5386427548946813e-05, -2.827347270795144e-05, 4.748177161673084e-05, 5.952921128482558e-06, -3.576606832211837e-05, -2.1855399609194137e-05, -5.386337579693645e-05, -1.024597258947324e-05, 1.1707461453625e-06, -1.8201471903012134e-05, -2.330946699657943e-06, -1.4581346476916224e-06, 4.187857939541573e-06, -2.9746319341938943e-05, -2.094422234222293e-05, -8.005520794540644e-05, -6.720897545164917e-06, 1.3624589882965665e-05, -7.765582267893478e-06, 1.0140114682144485e-05, 2.4675971417309484e-06, -4.898757651972119e-06, 3.2488780561834574e-05, -4.4174876165925525e-06, -3.673879518828471e-06, -2.3338556275120936e-05, -4.084647662239149e-05, 1.0628404197632335e-05, -7.011485286056995e-05, -2.380943260504864e-05, -1.652046194067225e-05, 6.0747120187443215e-06, 1.4935192666598596e-05, 8.493569112033583e-06, -4.93481638841331e-05, -1.9517938198987395e-05, 1.4569650375051424e-05, 1.2184345905552618e-05, -4.726369661511853e-05, -9.920338015945163e-06, -7.338573595916387e-06, 2.4079363356577232e-05], [-3.1196923373499885e-05, -1.0310269317415077e-05, 5.2623367082560435e-05, 1.010183223115746e-05, -2.9867493140045553e-05, 0.0015760704409331083, -7.321847806451842e-05, 7.615327922394499e-05, 7.3750188676058315e-06, -7.666461169719696e-05, -1.4074139471631497e-05, -1.2407125723257195e-05, -4.905533205601387e-05, -3.5161865525878966e-05, 2.3978685931069776e-05, -3.0329058063216507e-05, 3.335090514156036e-05, -1.5662000805605203e-05, 7.178247415140504e-06, 5.6489778216928244e-05, -3.886731974489521e-06, -2.7872813006979413e-05, 2.4305361876031384e-05, -4.3028783693443984e-05, 4.057319529238157e-05, -2.230565769423265e-06, -6.088403824833222e-05, -3.434399332036264e-05, -9.255992335965857e-05, 6.934047178219771e-06, -4.9100504838861525e-05, -5.287404201226309e-05, 1.6825426428113133e-05, 3.149695476167835e-05, -4.398565579322167e-06, -9.009562927531078e-05, -4.086548142367974e-05, -9.560215403325856e-05, 0.00015168474055826664, -1.537861862743739e-06, -2.910332113970071e-05, 2.1359635866247118e-05, 5.2770046750083566e-06, 1.5272726159309968e-06, 6.44450046820566e-05, -3.865383405354805e-05, -1.9186043573427014e-05, 1.8650560377864167e-05, -4.091206574230455e-05, 4.487803016672842e-05, -2.0764926375704817e-05, -2.139087882824242e-06, 2.7360329113435e-06, 4.572228135657497e-06, -4.457288014236838e-06, -1.2321825124672614e-06, -5.820175283588469e-05, -4.1525800043018535e-05, 2.3513317501056008e-05, 2.0272418623790145e-05, -0.00013483167276717722, -1.0890369594562799e-05, 4.587624061969109e-06, 6.458368716266705e-06], [7.744692993583158e-05, -4.817481749341823e-05, -8.855557098286226e-06, -4.035694291815162e-05, -0.00011228890070924535, 0.00015142436313908547, 0.000224692455958575, -9.700262307887897e-05, -0.00024047268379945308, 5.7729557738639414e-06, 0.00012235344911459833, 2.4316483177244663e-05, -5.0737620767904446e-05, 7.117735367501155e-05, 0.00033218797761946917, 3.2460822694702074e-05, 0.00019925844389945269, 7.85352494858671e-06, 4.746907507069409e-05, -9.398785186931491e-05, -0.0001321989402640611, 1.1327647371217608e-05, -8.649338269606233e-06, -0.00022116294712759554, 3.5888078855350614e-05, -1.4385897884494625e-05, -0.0001277011469937861, 0.00017491252219770104, 0.00013619568198919296, 4.188784077996388e-05, 0.00013572550960816443, -9.274094190914184e-05, 4.748276842292398e-05, 0.00011065031867474318, -5.0874106818810105e-05, -9.323293488705531e-05, 4.8590798542136326e-05, -0.00029547951999120414, -0.0010985062690451741, 1.436387810827e-05, -7.154326885938644e-05, -7.119537622202188e-05, 2.5045765141840093e-05, 3.4424861951265484e-05, -8.52264929562807e-06, 7.056216418277472e-05, -9.06869609025307e-05, 0.0001075192412827164, -0.0002996257971972227, -6.149734690552577e-05, -9.229341958416626e-05, -0.00018856626411434263, -0.00035506091080605984, -3.526193177094683e-05, -0.00024254708841908723, -5.467329538078047e-05, -0.00030642299680039287, 0.00017059259698726237, -5.1970848289784044e-05, 4.375383286969736e-05, -0.00020759378094226122, -5.218504520598799e-05, 2.6608067855704576e-06, 5.809481081087142e-06], [0.000258209794992581, -0.0005163127207197249, 0.00017384946113452315, 7.026623643469065e-05, -0.0004280603607185185, 0.0007262962753884494, 0.00043899609590880573, 4.8012094339355826e-05, -0.00018061812443193048, -0.0003832339425571263, 0.00020281404431443661, -1.6736676116124727e-05, -2.9686778361792676e-05, -0.0001585285790497437, 0.0003002735320478678, -0.00031983377994038165, -0.0002526576863601804, 5.855701965629123e-05, 0.00011821794032584876, 4.432426794664934e-05, -0.00018120805907528847, -0.0001194856085930951, 0.00017860447405837476, -0.0005163960158824921, 0.00025065147201530635, -3.609972191043198e-05, -4.564952541841194e-05, -0.0003004721365869045, 0.0002837117062881589, 0.00021659641060978174, 0.0002266155497636646, -0.00038018188206478953, -0.00010913789446931332, -0.00016835072892718017, -7.615626600454561e-06, -4.2269435652997345e-05, -0.00024239459889940917, -0.00017752780695445836, -0.0011998336995020509, -0.0005461876280605793, 6.0593756643356755e-05, 0.00010246347665088251, 5.035471258452162e-05, 1.0498515621293336e-05, -0.000363034283509478, 0.0002836104831658304, 1.9963434169767424e-05, 0.00013252724602352828, -8.698766760062426e-05, -0.00016033364227041602, -2.0557097741402686e-05, -0.0007370556122623384, -0.00038778758607804775, -0.000325565692037344, -0.0003001423610839993, -0.00010959705105051398, -0.0007537264027632773, -3.4292315831407905e-05, 8.607597555965185e-05, 5.127509211888537e-06, -0.00016209130990318954, -0.0001270462671527639, 1.0467621905263513e-05, 0.00023534224601462483], [0.0001359454618068412, 0.00024069941719062626, 0.001137053593993187, -0.00037047590012662113, 0.0005860311794094741, 0.0010133326286450028, -0.0008743830840103328, 0.00020520229008980095, -0.00010577285138424486, 0.0005417817155830562, 0.0007967365672811866, -1.0446092346683145e-06, -5.072749627288431e-05, 0.00010419334284961224, 0.00026983438874594867, 5.937124660704285e-05, 8.006321877473965e-05, -7.253134390339255e-05, 0.00020696296996902674, -8.354564488399774e-05, -0.0003414124948903918, 0.00046967979869805276, -0.0003637935733422637, 0.00045739125926047564, 0.00040113800787366927, 0.00010737228149082512, 0.0004954814212396741, -0.0002044960274361074, 0.00043832568917423487, 8.535337838111445e-05, 0.0007051676511764526, 0.0005854042246937752, 0.00027765289996750653, 0.00020704670168925077, -0.000497642788104713, -0.00033406351576559246, 4.3012856622226536e-05, 0.0002390473964624107, -0.0008915704675018787, 0.0006007782067172229, -0.000459505885373801, -0.0002887960581574589, -0.0003667812852654606, -0.000283219909761101, 0.00019577582133933902, -0.0003414310631342232, -0.0008310258854180574, -0.00013073490117676556, -0.0002430052263662219, 0.00045200512977316976, -1.2751028407365084e-05, -0.0001068634883267805, -0.0014323575887829065, 0.0001538702636025846, -0.0005090519553050399, 0.0002067163004539907, 0.00011699038441292942, 0.0010412530973553658, -6.339582614600658e-05, 0.0002918516402132809, 0.0007255857926793396, -0.00017689960077404976, 4.4312080717645586e-05, -0.0007115895859897137], [0.00024681660579517484, 0.0006675227195955813, 0.0007507974514737725, 0.00018920551519840956, -0.0005548489280045033, 0.0006303582340478897, -0.0006685385596938431, 0.001113179954700172, -1.2893106031697243e-05, 0.0011301650665700436, 0.0008004022529348731, 0.0005791429430246353, 0.0007117518107406795, 0.0006720098899677396, -6.09478447586298e-05, 0.000181141120265238, -0.00037993615842424333, -0.00042939026025123894, -0.0002685446524992585, -0.0007933727465569973, 0.0006126114167273045, 0.00013782473979517817, -0.00038947019493207335, -0.00038988370215520263, 0.00031075149308890104, 0.0006793937063775957, -0.00022143515525385737, -0.00019472488202154636, -0.0005900858086533844, 0.0003099249443039298, 0.0009842922445386648, 0.0004534015606623143, 0.0004892825963906944, 0.0004573820624500513, 0.0004071267612744123, 0.00015128881204873323, 0.0002045552246272564, 0.0007263899897225201, -0.002366375643759966, 0.0006361973937600851, 5.0350616220384836e-05, -0.0002419798547634855, -0.0005095442174933851, 0.00021313157049007714, -1.4392746379598975e-05, 3.931170795112848e-05, -0.0005191300297155976, -0.0008864570409059525, -0.0003244691470172256, 0.0004818179295398295, 0.0007673394866287708, -7.926567923277617e-05, -0.0008326148381456733, 0.00037179479841142893, -0.00012851765495724976, 0.00037428911309689283, -0.00018984705093316734, 0.0016577010974287987, -2.068821049761027e-05, 0.0001191379560623318, 0.0008227683720178902, -0.00038981769466772676, 1.5006517060101032e-05, 8.86854249984026e-05], [-0.0005459708627313375, 0.00012086000060662627, -0.0006652819574810565, -0.0004866844683419913, 0.000976841663941741, -0.0006445999024435878, 0.002133607165887952, -0.001221470651216805, 0.0006994297727942467, -0.00017498101806268096, 0.0006942200707271695, 9.641148790251464e-05, -9.984982170863077e-05, -0.00039408134762197733, 0.0015777379740029573, 0.0002222475886810571, 0.00023929603048600256, 0.0008253768901340663, 0.0006883800379000604, 4.165363498032093e-05, -0.00013982955715619028, -0.00016105803661048412, 0.0004824580391868949, -6.573967402800918e-05, -0.0002087182947434485, -0.0009231191361322999, -0.0010493703885003924, 0.00019120017532259226, 0.00044734886614605784, 0.0003774299402721226, 0.0014125221641734242, -0.0007032740395516157, -0.0011929826578125358, -0.00034555181628093123, -0.0006625118548981845, -0.00011330947745591402, 3.1070332624949515e-05, 0.001200903789140284, -0.0010123162064701319, -0.00018464075401425362, -0.00019716208043973893, -0.000889337039552629, 0.0009860994759947062, 0.001918698544614017, 0.0016707467148080468, -2.510391641408205e-05, -0.0010247979080304503, -0.00038466203841380775, -0.00019981813966296613, -7.1363290771842e-05, 0.00017670374654699117, -8.486608567181975e-05, 0.0012165956431999803, -0.001071242499165237, -0.0014177208067849278, -0.000334699812810868, -0.00029537585214711726, 0.0003986781812272966, 0.00024386978475376964, -0.0015952554531395435, -0.00011986546451225877, -0.00012167473323643208, -0.0007651018095202744, -0.00029498280491679907]], [[0.000496663386002183, -0.0013909513363614678, 8.522326970705763e-05, -0.0015124666970223188, 0.0010521102230995893, 0.0008417317876592278, 0.0022413544356822968, -0.00016928056720644236, -0.0008734642760828137, -0.0009330040775239468, -0.00010141381062567234, -0.0008427207358181477, 0.0015094520058482885, 4.8902162234298885e-05, 0.0006157829193398356, 0.00025437489966861904, -1.0775016562547535e-05, 0.0011610097717493773, 0.00032057936186902225, 0.0008001617970876396, 0.00011082820128649473, -4.855249426327646e-05, 0.0007781418389640749, -0.0001331909152213484, 0.0007189186871983111, -0.00042155198752880096, 0.00036806202842853963, -0.000614406366366893, -0.00044847177923657, 0.00045125302858650684, -4.3803815060527995e-05, -0.0008136654505506158, -0.0007170552853494883, 4.691866342909634e-05, 0.0002649996313266456, 2.9397779144346714e-06, -0.00017632475646678358, 0.0005545818712562323, -0.00018949262448586524, -0.0005261440528556705, -0.0005646098288707435, -0.00011836289195343852, -0.00019818058353848755, 9.38806842896156e-05, -0.0015684182289987803, 0.000938239973038435, -0.0015050831716507673, -0.0003860637662000954, -0.00027319040964357555, 0.0001149746822193265, 0.00040286697912961245, -0.0003775885852519423, -0.0006201902870088816, -0.0007411021506413817, -9.374533692607656e-05, 0.0002524771844036877, -4.8322195652872324e-05, -0.0015454042004421353, 0.0001425920781912282, 0.0008106396999210119, -0.0004908133414573967, 0.0010753704700618982, -0.0002150431537302211, -0.0009519044542685151], [9.630704198571038e-07, -8.678435960973729e-07, -3.275217295595212e-06, -7.010717126831878e-07, 3.900339038409584e-07, 5.661700470227515e-06, 1.7487759578216355e-06, 1.2646698905882658e-06, 1.2550227665997227e-06, 9.18550256301387e-07, 7.363523195635935e-07, 1.516712245575036e-06, 2.5980084501497913e-06, -1.331161683992832e-06, 1.906489387693e-06, -1.247179284291633e-06, 1.7002801087073749e-06, -1.5616744803992333e-06, 1.4696163361804793e-06, -3.2756245218479307e-06, -2.784404841804644e-06, 8.571443999016992e-08, 2.8319202556303935e-06, -8.88389649844612e-07, -4.2389885379634507e-08, -2.5851693408185383e-06, -3.371213779246318e-06, -8.427973057223426e-07, -4.485291071887332e-07, -5.129450642016309e-07, -3.649908876468544e-06, -3.272367621320882e-06, 8.928445254241524e-07, -6.655670290456328e-07, 4.1263851926487405e-06, -3.1412157568411203e-06, 4.353031727077905e-06, -7.734146123539176e-08, -9.1971372739863e-07, -1.8216799162473762e-06, 2.7945277452090522e-06, 3.6651276786869857e-06, -1.1147299119329546e-06, 1.4011883422426763e-06, -3.6536513903229206e-07, -1.5954580590005207e-07, 3.625821989317046e-07, 1.431376261962214e-07, -2.736172177719709e-07, 1.3517246770788915e-06, 6.209652951838507e-07, -1.305994317135628e-07, -2.2903211629454745e-06, -2.3141274141380563e-06, 2.1647672383551253e-06, 1.156829739556997e-06, 2.9687807909795083e-06, -1.7417821709386772e-06, -6.19299385107297e-07, -1.5680165006415336e-06, 4.470510930332239e-07, -1.7403804122295696e-06, -2.861528969333449e-07, -2.9634550173796015e-06], [-5.8730602177092806e-06, -2.9950085718155606e-06, -1.7651043435762404e-06, -1.1464945970374174e-07, -3.029434992640745e-06, 2.767362821032293e-05, -9.887286296361708e-07, -6.6231041273567826e-06, 1.714611016723211e-06, -2.3070779207046144e-06, -2.6833793072000844e-06, -4.45477553512319e-06, 6.788698101445334e-06, 4.879286279901862e-06, -6.4707701312727295e-06, -1.5766256638016785e-06, -3.830557488981867e-06, -4.927838745061308e-06, 1.8344396721658995e-06, -8.189173968276009e-06, 9.639612471801229e-06, 8.941304940890404e-07, -7.790587005729321e-06, 7.740511591691757e-07, -6.5749163695727475e-06, 6.455276434280677e-06, -1.2421869541867636e-05, -4.037228791275993e-07, 7.06338539657736e-07, -4.789782451553037e-06, -1.3332243042896152e-06, 1.1413800393711426e-06, -2.5846431981335627e-06, 2.3626691927347565e-06, 4.263960818207124e-06, 5.447682269732468e-06, -7.463621614078875e-07, 6.272734935919289e-07, 6.29655914963223e-07, 2.258003632960026e-06, 1.8403661670163274e-06, -1.066409254235623e-06, -8.551824066671543e-06, 2.754848765107454e-06, 1.6904623407754116e-05, -5.124137260281714e-06, 1.4374705870068283e-06, 1.1870628213728196e-06, 1.409015908393485e-06, -4.503695436142152e-06, -3.0718369998794515e-06, -3.225497721359716e-06, -1.1474360235297354e-06, -5.051174866821384e-06, -8.78243736224249e-06, -1.2766865893354407e-06, 2.1006014776503434e-06, 7.205702786450274e-06, -7.67910842114361e-06, -3.123558656170644e-08, 1.9510951005941024e-06, -2.2025537873560097e-06, 1.1859738151542842e-05, -7.1641866270510945e-06], [-5.324846824805718e-06, -2.228257289971225e-05, 2.3599692212883383e-05, -8.306412382808048e-06, 9.120334652834572e-06, -0.0011921741534024477, 3.141118577332236e-05, -2.4982242393889464e-05, -4.228755642543547e-06, -1.785961285349913e-05, -1.1547497706487775e-05, 1.267174411623273e-05, -3.005310645676218e-06, -3.27408270095475e-05, -4.6143111831042916e-05, 5.756094196840422e-06, 2.6179552151006646e-05, -3.5093580663669854e-06, -2.4715365725569427e-05, 1.7034459233400412e-05, -2.2984950192039832e-06, 7.451123383361846e-05, 6.19944985373877e-05, -3.381546775926836e-05, 2.2341713702189736e-05, -6.874949031043798e-05, -3.1572482839692384e-05, 1.3456598935590591e-05, -2.05640299100196e-06, -1.4130617273622192e-05, -1.061064722307492e-05, -1.646403870836366e-05, -2.3993194190552458e-05, -2.325851710338611e-05, -3.3388365409336984e-05, 2.652839248185046e-05, -5.052494088886306e-05, -2.8688000384136103e-05, -7.682535942876711e-05, -3.3006958801706787e-06, -1.4736848243046552e-05, 2.29800079978304e-05, 2.5352273951284587e-06, -1.1782631190726534e-05, -2.3968177629285492e-05, -3.648548954515718e-05, 1.3711666724702809e-05, 4.069714486831799e-05, -3.32449926645495e-05, 1.3207953088567592e-05, -3.248096982133575e-05, -5.1155789151380304e-06, 3.4393160603940487e-06, 5.23950166098075e-06, -6.73233880661428e-05, -7.816810830263421e-05, -1.7458842194173485e-05, 2.2647885998594575e-05, 2.3124895960791036e-05, 6.060985469957814e-06, 5.5386803978763055e-06, -7.569278750452213e-06, 6.964219210203737e-06, -3.254051989642903e-06], [-0.0002355364413233474, -6.296373612713069e-05, 0.0002068816829705611, -5.036849688622169e-05, -9.094012784771621e-05, -0.0019874980207532644, -5.622042226605117e-05, 0.0004597248916979879, 0.000272019999101758, 2.561507426435128e-05, 0.00010050860873889178, 0.0002134545793524012, -0.00030028275796212256, -4.276726394891739e-05, 0.0001990164164453745, -5.706129013560712e-05, -6.654791650362313e-05, 6.913935067132115e-05, 4.29686697316356e-05, 5.475044235936366e-05, -0.0002409113512840122, 2.8687351004919037e-05, 0.00025749224005267024, -1.7650676454650238e-05, 0.00043863715836778283, 0.0001886608952190727, 0.0003638208727352321, 0.00021548767108470201, -0.00045358831994235516, 0.0002728655526880175, -4.880849155597389e-05, -2.672593473107554e-05, -0.000109400280052796, -8.938205428421497e-05, -5.013732879888266e-05, 0.00018397578969597816, -0.0003437614068388939, -0.0001129570955527015, -0.0002909473259933293, 7.310385990422219e-05, -0.0002872468903660774, 0.00015705681289546192, 1.9658502424135804e-05, -0.00011200132576050237, -0.0004277776461094618, -7.750225631752983e-05, -0.0002723319339565933, 4.121237725485116e-05, -0.0005868522566743195, 0.00023316091392189264, -0.0002344761451240629, -2.3110365873435512e-05, -0.0002457135124132037, -5.809640424558893e-05, -0.0002372944145463407, -0.00020399209461174905, 7.185500726336613e-05, 0.00019574844918679446, -1.4636185369454324e-05, 0.0003538141609169543, -8.75560799613595e-05, -0.00012926181079819798, 0.00024766335263848305, 0.00013828063674736768], [-3.552849011612125e-05, 0.0002656009455677122, -0.0001786481007002294, -0.00024173094425350428, 0.00035831480636261404, -0.0010386914946138859, -0.0009753858903422952, 4.160676326137036e-05, 0.0005696176085621119, 0.0001722400775179267, 0.00019400593009777367, 0.00036084663588553667, 0.00012900122965220362, 0.001106185489334166, 0.00013751507503911853, -0.0001574385678395629, -0.00016392326506320387, 0.00016348049393855035, -0.00025416925200261176, 4.204652213957161e-06, 0.0006431612418964505, -5.393994797486812e-05, 4.733077366836369e-05, 0.00013253836368676275, -0.0005043708952143788, 0.0014753349823877215, 0.0007307464256882668, 0.0003774234210141003, 0.00040003933827392757, 8.557399269193411e-07, 0.0003835923853330314, 0.00014191288209985942, 1.252286892849952e-06, -0.00017373720766045153, 0.0002860535169020295, 0.00016589669394306839, -0.000487345561850816, 0.00019676756346598268, -0.00011853974137920886, -0.0002404836704954505, -0.0003849329659715295, 6.4488711359445e-05, -1.905339740915224e-05, 3.4185664844699204e-05, 0.0002268171519972384, 0.00042386146378703415, 0.0005364930257201195, 0.0003104215138591826, -0.00115700694732368, 0.0001253184163942933, 9.70740438788198e-06, -9.165701339952648e-05, 0.00027984511689282954, -4.560635716188699e-05, 0.0003967112279497087, 0.00029608767363242805, 2.7021378627978265e-06, -0.0007761617889627814, -7.407719385810196e-05, 0.00029748238739557564, 0.00018723866378422827, -3.536861186148599e-05, -0.00010442456550663337, 0.0002691398549359292], [-0.00014254968846216798, 0.0014733988791704178, 0.0006270546582527459, 0.00017261221364606172, 0.00031442742329090834, -0.0031412974931299686, -0.002376403659582138, -0.0003775026125367731, 0.00041107909055426717, 0.0004011268320027739, 0.0011054249480366707, 0.0009615388698875904, -7.009359251242131e-05, 0.000779977417550981, -0.0009746428113430738, 6.854993989691138e-05, 0.0004913360462523997, -0.0013533104211091995, 0.000676455907523632, -0.0007390009704977274, 0.0011947313323616982, -0.0002443848643451929, 0.00018608311074785888, 0.0012270364677533507, -0.0009690314764156938, 0.0003955878200940788, 0.0006886650226078928, 0.0005280425539240241, 0.0012035176623612642, -0.0006613930454477668, 0.0016097956104204059, 0.0007847474189475179, -0.00011732487473636866, 0.0006778278620913625, 0.0009125747019425035, 0.0014708569506183267, -0.0008533647051081061, -4.690431524068117e-05, -0.00024065816251095384, 0.0003250627196393907, -1.274776877835393e-05, 0.0005292471614666283, -0.0002152583620045334, -0.000588653318118304, 0.0007921762298792601, -2.3897453502286226e-05, 0.0005208094953559339, 0.0017103584250435233, 0.0001687679614406079, 0.0007838273304514587, 0.0001531299203634262, 0.0009469966753385961, -0.00017256438150070608, 0.0006460055010393262, 0.000957908050622791, 0.00042485372978262603, 0.0005714395665563643, 0.0017072160262614489, -0.00013931153807789087, 0.0005612923414446414, 8.034799975575879e-05, -1.2925465853186324e-05, 0.0003207951376680285, 0.0004625971778295934], [0.000884307490196079, -0.0006122090271674097, 8.070870535448194e-05, -0.0003282049437984824, -0.0013320038560777903, 0.00012886140029877424, 0.0009796894155442715, -7.021287456154823e-05, -9.274506737710908e-05, -0.00017321176710538566, -0.00011769453703891486, 0.0005560373538173735, 0.0005759263876825571, 0.00034656995558179915, 0.0003973953134845942, -0.001274759997613728, -0.0002306246169609949, 0.00016172415053006262, 0.0008012049365788698, 0.0002668992383405566, 0.0001981487439479679, -0.00031133979791775346, 4.3549720430746675e-05, -0.0007293553790077567, 0.001194722717627883, -0.00030995075940154493, 0.0007319683209061623, -9.682695963419974e-05, -0.0004299455904401839, 0.00046388371265493333, -0.00037219293881207705, -0.0009157955064438283, -0.0001054250169545412, 0.00021808716701343656, -0.00021782809926662594, -0.0002776926849037409, 0.00017484604904893786, -0.0003967413795180619, -0.001804901985451579, -0.000426240119850263, -0.0009151696576736867, 0.00023812090512365103, -0.0008031630422919989, -2.39144719671458e-06, 0.00013263846631161869, 0.0005744946538470685, -0.001300106756389141, -0.00040119062759913504, 0.0006535577122122049, 0.0005571130313910544, 0.0002927749592345208, -0.00042003675480373204, -0.0014593370724469423, -0.0005382795352488756, -0.00046648323768749833, 0.000251246674451977, -0.0021859018597751856, -0.0008124678861349821, -0.0005190929514355958, -0.00011555126548046246, -0.0017189523205161095, -0.00020686976495198905, -0.0005032993503846228, 3.094729618169367e-05], [-2.2158899810165167e-05, 3.1719787330075633e-06, -5.871261237189174e-06, 5.716460691473912e-07, 1.1475236533442512e-05, 0.000244319875491783, -5.524966763914563e-05, -1.4512372217723168e-05, 4.719169737654738e-06, -3.6059896046936046e-07, -1.0923193258349784e-05, -1.6168754882528447e-05, 2.032150405284483e-05, -4.4727104977937415e-05, -3.60365302185528e-05, 1.3460841728374362e-05, 1.241490554093616e-05, 6.53844381304225e-07, -1.0255598681396805e-05, 4.609902134689037e-06, 1.3427055819192901e-05, -1.0177828698942903e-05, -5.749894626205787e-06, 3.892746826750226e-05, -1.7161491996375844e-05, 1.7171951185446233e-05, -4.788738806382753e-05, 3.661222990558599e-06, 1.817322481656447e-05, -1.6278439716188586e-06, 2.9445938707794994e-05, 3.2696654670871794e-05, 2.0504194253589958e-05, 2.559607310104184e-06, -2.193152795371134e-06, -4.614610134012764e-06, 7.255655873450451e-06, 1.3158078218111768e-05, 1.9422004697844386e-06, -5.617553597403457e-06, 2.1616213416564278e-05, 5.791477178718196e-06, 1.8339082998863887e-06, 4.21055119659286e-06, 3.143283902318217e-05, 8.200781849154737e-06, 6.762711564078927e-07, -1.576927024871111e-05, 8.97525460459292e-05, 2.0865718397544697e-05, 1.6503439837833866e-05, 9.470807526668068e-06, 1.2810455700673629e-05, -1.3162965842639096e-05, 2.6463361791684292e-05, 2.3236389097291976e-06, -1.1268978596490342e-05, 1.3095713256916497e-05, 2.095952004310675e-05, 3.4991085158253554e-06, -1.559463817102369e-05, -6.763449164282065e-06, 1.0840382856258657e-05, 2.8063277568435296e-05], [-3.2054114853963256e-05, 1.9849097952828743e-05, -1.4172362170938868e-05, 1.9105624232906848e-05, 1.4704550267197192e-05, 0.00041071168379858136, -4.581733082886785e-05, -3.271710011176765e-05, 3.999522959929891e-06, 2.736665464908583e-06, -2.4614464564365335e-05, -4.452750727068633e-05, -1.9107013940811157e-05, -9.559693717164919e-05, -3.058287256862968e-05, 4.903333319816738e-06, 3.544838182278909e-05, -1.568285733810626e-05, -3.411418947507627e-05, -6.384732841979712e-06, -2.679216777323745e-06, -3.184965316904709e-05, -4.84182146465173e-06, 8.309209079016e-05, -3.258692231611349e-05, -7.815423487045337e-06, -0.00014531766646541655, 3.121621557511389e-05, -1.4000524970469996e-06, -3.604169251048006e-06, 3.145356822642498e-05, 2.1969506633467972e-05, 3.48147441400215e-05, 4.14586829720065e-05, 9.032733032654505e-06, 5.778181730420329e-06, -2.5543198717059568e-05, 2.063837382593192e-05, -2.3239086658577435e-05, 1.0827152436831966e-05, 1.07106188806938e-05, 5.649541435559513e-06, -1.1677319889713544e-05, -6.788278369640466e-06, 4.3004452891182154e-05, -6.07540368946502e-06, -4.595007794705452e-06, -3.4636112104635686e-05, 9.245363617083058e-05, 7.179986369010294e-06, -4.05673126806505e-05, 1.6233094356721267e-05, -2.918863538070582e-05, -1.1613712558755651e-05, 4.605667527357582e-06, 7.221922714961693e-06, 2.476188456057571e-05, 2.7618232707027346e-05, 3.577754250727594e-05, -4.583349436870776e-06, -1.931939914356917e-05, -2.480167722751503e-06, 4.676980461226776e-05, 4.256267857272178e-06], [2.8799880965379998e-05, 0.00013083199155516922, 8.085706213023514e-05, -9.068967483472079e-05, -5.086309101898223e-06, -0.000545390066690743, 0.00015434250235557556, -6.653206946793944e-05, -2.8748585464200005e-05, 0.00012706060078926384, -2.5086590540013276e-05, -9.30873429751955e-05, 9.297181350120809e-06, -0.00017427561397198588, 9.528281225357205e-06, -0.0002649097878020257, -0.00014799826021771878, 0.00012034300016239285, 3.4516942832851782e-06, -4.429282853379846e-06, 1.3136501365806907e-05, -8.990549395093694e-05, 5.4392552556237206e-05, -5.4886622820049524e-05, 4.4991196773480624e-05, 0.00013624143321067095, -0.00038779230089858174, 8.02630529506132e-06, 0.00023515525390394032, 9.216545731760561e-05, -6.322238186839968e-05, -0.00015689492283854634, -0.0002845367998816073, -0.0001812618866097182, -1.1892097973031923e-05, -1.2545104254968464e-05, 0.00018924465985037386, 0.00013253581710159779, -0.00010434677096782252, -0.00025163067039102316, 1.177734066004632e-05, 1.1490561519167386e-05, -1.8505665138945915e-05, 5.207666981732473e-05, 0.00020118150860071182, -1.2534155757748522e-06, -8.049947791732848e-05, -2.7929880161536857e-05, 0.00048525375314056873, 0.00011147824989166111, -0.0001350363454548642, -6.529450911330059e-05, -0.0004256636602804065, -0.00011331510177114978, 0.0001707739575067535, 0.00012770738976541907, -0.0002773883752524853, -6.5260755945928395e-06, 6.778440729249269e-05, 8.043357956921682e-05, -8.110279304673895e-05, -8.266542135970667e-05, -7.691376595175825e-06, 5.429588054539636e-05], [-0.00014431292947847396, 0.0003393824736122042, -4.614020144799724e-05, -0.00014979523257352412, 0.0002966169558931142, 0.00022655370412394404, 0.00019241958216298372, 8.178649295587093e-05, 0.0002831174060702324, -7.047438703011721e-05, -0.0001537295029265806, -0.0002348598063690588, -6.861188740003854e-05, -0.0004532323800958693, -0.0002089210320264101, -0.00016238940588664263, -0.0003676237538456917, -4.37428243458271e-05, -0.00016814861737657338, -8.759995398577303e-05, 0.00029991980409249663, 0.0002026549045694992, 0.00028198573272675276, 0.00017612596275284886, -4.381102917250246e-05, -4.801138857146725e-06, -0.00020040730305481702, 0.00014761828060727566, 0.00034698168747127056, 0.00014993084187153727, 0.00021207387908361852, 5.963463263469748e-05, -0.00030971947126090527, -0.0004971095477230847, -1.7672175090410747e-05, 0.00012272168532945216, 3.371831189724617e-05, 0.00033282017102465034, 0.0001537940261187032, -0.0004693394002970308, 0.00016780858277343214, -0.00010086775728268549, -9.884765313472599e-05, 8.437571523245424e-05, -0.00036240386543795466, -7.69937178120017e-05, 7.868588727433234e-05, 3.802794890361838e-05, 0.0005161517183296382, 0.0002737355825956911, -0.00019627442816272378, -0.00029884869582019746, -0.0006111978436820209, -0.0004713841190095991, 1.617094676475972e-05, 5.847865395480767e-06, -0.0003994994331151247, 0.0005546589964069426, 0.000258242100244388, 0.00034990013227798045, -7.184420246630907e-05, -7.410213584080338e-05, 0.00011178023123648018, 0.00020824765670113266], [-4.350201925262809e-05, 0.0005885795690119267, 0.00041239135316573083, -0.0004871658456977457, -0.0005422371323220432, 0.001119784195907414, 0.000645106250885874, 0.00028731784550473094, -0.000270877149887383, -7.750053191557527e-05, -0.00011456318316049874, 0.00024478553677909076, -1.89404672710225e-05, 3.376755557837896e-06, -0.0008142709848470986, -0.00024297833442687988, -0.0005197104765102267, -8.578563574701548e-05, -0.0002960848796647042, -5.933376087341458e-06, 7.657382229808718e-05, 0.0007206149166449904, 0.00029546997393481433, -0.0003082427429035306, 1.0829353414010257e-05, -0.00035794079303741455, -0.00026800186606124043, 0.0003658441419247538, -0.0007356875576078892, -9.902109741233289e-05, -0.00012434477685019374, 0.00014466636639554054, 4.1505147237330675e-05, -7.087099220370874e-05, 0.00010021027992479503, 4.373803676571697e-06, -9.799349936656654e-05, 7.805560017004609e-05, -0.0010979605140164495, 0.00023722296464256942, -0.00012280105147510767, 1.3277167454361916e-05, -0.00027582974871620536, -0.0007826561341062188, 0.0006927172071300447, 0.00010652259516064078, 9.562559716869146e-05, 0.0006581376073881984, -0.0008283365750685334, 5.7121229474432766e-05, -0.00032876760815270245, 0.00039409403689205647, -0.0005517762620002031, -0.0004435309092514217, -0.0009317429503425956, -0.00012256609625183046, -0.00024993892293423414, 9.201953071169555e-05, 0.0003158946637995541, 0.0003679197106976062, 0.00012632815924007446, -0.0001876117312349379, 0.00046936297439970076, 9.721488459035754e-05], [-9.555909491609782e-05, 0.002070126822218299, 0.00028065001242794096, 0.0008626831695437431, -0.00033584737684577703, 0.0005130863282829523, -0.0011598959099501371, 0.0009460111032240093, 0.0009860738646239042, 0.001159779611043632, 0.0004191428597550839, -0.00020547673921100795, -0.000490424339659512, 0.00037333634099923074, -0.0004772573593072593, 0.0010869379620999098, -0.0007528217975050211, -0.0005664267227984965, -0.0003845558676403016, -0.00036846360308118165, 0.0005776999751105905, 0.0005851378082297742, 0.00022189333685673773, 0.0009347567101940513, -0.00011218072177143767, 0.0012529136147350073, 0.00015221824287436903, 0.0003004426835104823, -0.0017427377169951797, -0.0006696039345115423, 0.0008659574668854475, 0.0016444046050310135, -9.28132503759116e-05, 0.0004147815052419901, 0.00025788889615796506, 0.00031146107357926667, 0.00013128940190654248, 0.0009188930271193385, -0.0005619611474685371, 0.0009117556037381291, -0.00045365715050138533, -0.0001532405149191618, -0.0001337850117124617, -0.0003392704820726067, 0.0008028660085983574, 0.00014503742568194866, 0.0004680044949054718, 0.0006398775149136782, -0.0015472166705876589, -0.00043992477003484964, -0.00045727071119472384, 0.0011427013669162989, -0.00017293394193984568, 0.0006670852308161557, -0.000409928266890347, 0.00010659413237590343, 0.0010579240042716265, 0.001852582674473524, 0.0006025665206834674, 1.8959486624225974e-05, 0.00016608033911325037, 0.0002956927928607911, 0.0007383460178971291, 0.0005789413116872311], [-0.0005604655016213655, 0.00017455959459766746, -0.000727094360627234, -0.0005856603966094553, 0.0009015736286528409, -0.0013233288191258907, 0.002163778292015195, -0.0012579952599480748, 0.0006570213008671999, -1.9651895854622126e-05, 0.0007605850696563721, 0.00011049235763493925, 2.0709343516500667e-05, -0.0004212890926282853, 0.0015727796126157045, 0.0002711850975174457, 0.00018773676129058003, 0.000798520166426897, 0.0006202260847203434, -1.8884893506765366e-05, -0.000186012068297714, -0.00020586303435266018, 0.0005451916949823499, -4.0181708754971623e-05, -0.00034278552629984915, -0.0008369933348149061, -0.0009632898145355284, 0.0001883989607449621, 0.0006699242512695491, 0.0005097522516734898, 0.0015156310983002186, -0.0007416614098474383, -0.0012193586444482207, -0.0003395300009287894, -0.0005879974341951311, -0.0001926189288496971, 0.00014256071881391108, 0.0013175836065784097, -0.000682980811689049, -0.000250614364631474, -7.0177484303712845e-06, -0.0012253735912963748, 0.001019621966406703, 0.0018966564675793052, 0.0016454579308629036, 1.769710797816515e-05, -0.0009544328786432743, -0.0006321522523649037, -0.0003155981539748609, -0.00017352716531604528, 0.00029466638807207346, -0.0004245888558216393, 0.001193527365103364, -0.001056320616044104, -0.0012942911125719547, -0.00040078250458464026, -0.0007574036717414856, 0.00035797193413600326, 0.00023522862466052175, -0.0015732935862615705, -0.0001178995007649064, 4.1601015254855156e-05, -0.0008340767817571759, -0.0002382659586146474]]], [[[0.00011872957838932052, 0.00031468624365516007, 0.0007760387961752713, -0.0011237087892368436, -0.0002644865890033543, 0.0012896222760900855, -0.00020816578762605786, -0.00020828176639042795, -0.0001233608927577734, -0.0007682193536311388, 0.00025801509036682546, 0.00022263432038016617, -0.00012260404764674604, -0.0004972013994120061, -0.00020290476095397025, 0.0005019066156819463, 0.00010924498201347888, -0.0005806395784020424, 0.00011716695735231042, 0.0007734326645731926, 0.00014790246495977044, 1.6940990462899208e-05, -0.0005398794892244041, -0.0001267429324798286, 0.00043978210305795074, -0.0002787108824122697, -0.0013808442745357752, 5.99436170887202e-05, 0.00014927444863133132, -0.0010812669061124325, -0.0006097096484154463, -9.058724390342832e-05, -0.0005295757437124848, 3.27638590533752e-05, -0.00025825880584307015, 0.0004749478539451957, 0.0005960217677056789, 0.001082050148397684, 0.00042075893725268543, -0.00014419868239201605, -0.0001368684897897765, 4.159947275184095e-05, -0.00011085391452070326, -7.307273335754871e-05, 0.0013077901676297188, -0.0006119052413851023, -0.00026565720327198505, -0.0003159392508678138, 0.0005659204907715321, -0.00012704319669865072, 0.0004590038151945919, -0.00023999072436708957, 0.0006043707253411412, 0.00040017004357650876, 0.00044710608199238777, 0.0004459046758711338, -3.063440090045333e-05, 0.0014190294314175844, 0.00011418083886383101, -0.00019536589388735592, 0.0012066735653206706, -2.5341243599541485e-05, 0.00046016788110136986, 0.0002721073688007891], [7.073761594256212e-07, 1.4289762475527823e-06, 2.510856347726076e-06, 1.1408956197556108e-06, -2.9904324350127354e-08, -2.2485085082735168e-06, -4.569043881019752e-07, 6.091978548283805e-07, 1.2215390654546354e-07, 8.476081347907893e-07, -1.9633725969470106e-06, -4.877649644186022e-07, 7.101039614099136e-07, -6.843111464149843e-07, -9.76914066086465e-07, -6.45327986603661e-07, -2.051533328994992e-06, 3.379782128831721e-06, 3.814953402070387e-07, 1.179136347673193e-06, 5.647095804306446e-07, -1.407575354051005e-07, 3.868492058245465e-06, 6.840780315542361e-07, -4.717961701317108e-07, -8.545035825591185e-07, -5.14993473643699e-07, 3.973937509726966e-06, -8.384604655020667e-08, -1.4478239052095887e-07, -3.3581686693651136e-06, 4.097074906894704e-06, -7.177823135862127e-07, 1.4395227481145412e-06, 3.38981067216082e-06, -8.026490263546293e-07, -1.3089806998323184e-06, -4.49073354502616e-07, -2.4499365736119216e-06, -5.137347329764452e-07, 1.520000068921945e-06, 7.520542908423522e-07, -3.2203611226577777e-06, -9.246780905414198e-07, -4.878384061157703e-07, -1.2313980732869823e-06, -4.56868122000742e-07, -2.0981710804335307e-06, -3.01200486774178e-08, -5.434833951767359e-07, 6.964849035284715e-07, 9.385399266648164e-07, -3.3576904456822376e-07, -2.8663537250395166e-06, -1.0882087053687428e-06, -1.322608568443684e-06, 1.302628902521974e-07, -1.4002054058437352e-06, -9.470761597185628e-07, -2.043273070739815e-06, -3.5085845411231276e-06, 1.453723029953835e-06, 1.4292036212282255e-06, -6.327564392449858e-07], [-9.426212272956036e-07, 4.0954282667371444e-06, 1.311233063461259e-06, 2.4945620680227876e-06, 8.467514476251381e-07, -6.696901095892827e-07, 6.825646892139048e-07, -1.1668890920191188e-06, 5.155565304448828e-06, -7.819186976121273e-06, 1.20454706120654e-06, 4.423192194735748e-07, -2.4949147245934e-06, 2.1846856270713033e-06, -1.3857392104910105e-06, -7.522551186411874e-06, 3.862679136545921e-07, -9.988818874262506e-07, -5.7072925301326904e-06, -6.054396521903982e-07, 1.087013743017451e-06, -6.3966795096348505e-06, 3.230281436117366e-06, 4.617238573700888e-06, -6.927860340510961e-06, -2.7156570467923302e-06, 3.0929462013773446e-07, 1.0527596714382526e-06, -2.967519094454474e-06, -3.55346469405049e-06, 8.110716862574918e-07, -3.1870786187937483e-06, 5.904386398469796e-06, 7.865579391364008e-06, 2.456693835029e-07, -5.0377193474560045e-06, -2.4378505258937366e-06, -8.391563142140512e-07, -3.788936510318308e-06, 1.6222262502196827e-06, 1.7647644199314527e-06, 3.114643732260447e-06, 1.0449515684740618e-05, 1.1960338497374323e-08, 4.141744284424931e-06, 3.2937105061137117e-06, -1.6397680724367092e-07, 3.2596576602372807e-06, -2.5768399609660264e-06, 1.4581584082407062e-06, -3.3132994303741725e-06, 1.4626774600401404e-06, -7.430206551362062e-06, -7.544982167928538e-07, -1.870776486612158e-06, -2.954233195850975e-06, -3.886608737957431e-06, 3.493881877147942e-06, -1.3684446003026096e-06, -9.294137157667137e-07, -4.705475930677494e-06, -2.171272853956907e-06, -1.2815015907108318e-05, -3.1030319860292366e-06], [-4.62977186543867e-05, -1.0058723091788124e-05, 1.917496047099121e-05, 1.3429022146738134e-05, -1.5789999451953918e-05, 0.0003982754424214363, -2.7750713343266398e-05, -1.7786062016966753e-05, 1.2208347470732406e-05, 1.0065281458082609e-05, 2.1025457499490585e-06, -3.972397735196864e-06, -3.916467176168226e-05, 8.088295544439461e-06, 1.848099782364443e-05, 9.338588824903127e-06, 1.6402364053647034e-05, -2.9950373573228717e-05, 4.345332854427397e-06, -1.7698053852654994e-05, 3.14469616569113e-06, 2.551897705416195e-05, -1.6115033076857799e-06, 3.150453630951233e-05, -4.343911859905347e-05, -1.0682309948606417e-05, 1.6826415958348662e-06, 1.9548333511920646e-05, 7.41979165468365e-05, -4.485202953219414e-05, -2.703056907193968e-06, 1.0006810953200329e-05, 2.696656338230241e-05, 1.3518533705791924e-05, 2.1423549696919508e-05, 4.650017217500135e-05, -3.0134186090435833e-05, -2.9136974262655713e-05, 2.2037573216948658e-05, 3.982139969593845e-05, 4.990108936908655e-05, -3.820958227152005e-06, 5.21490401297342e-05, 1.489584337832639e-05, 6.512670552183408e-06, 1.272190365853021e-05, 3.1713607313577086e-05, 2.6599083867040463e-05, 3.0262548534665257e-05, 9.922674507834017e-06, -1.080279798770789e-05, 3.907050268026069e-05, 5.095262167742476e-05, -6.1617156461579725e-06, -3.1823628887650557e-06, -1.781998435035348e-05, 4.2095347453141585e-05, 9.381731069879606e-05, -6.127886081230827e-06, 4.118739980185637e-07, -3.376933455001563e-05, -9.659297575126402e-06, -1.3428536476567388e-05, 3.7936042645014822e-06], [-0.000303277833154425, 6.790774932596833e-05, 0.0002907233138103038, -7.849997928133234e-05, -0.00040725403232499957, 0.0012211068533360958, 9.736174979479983e-05, 2.7296468033455312e-05, -0.0001817736483644694, -0.0002266764349769801, 8.462048572255298e-05, 0.00014359141641762108, 0.0003251788148190826, 5.698696622857824e-05, 0.0001469920971430838, 7.069621642585844e-05, -0.00014879234367981553, -1.3154880434740335e-05, 1.1228607036173344e-05, 2.3184380552265793e-05, 0.00015151890693232417, -5.906499063712545e-05, -0.00010734326497185975, 0.0002905394067056477, -0.00014361039211507887, -0.0003749385359697044, 0.0003577207389753312, -0.00024140032473951578, -1.6032274288590997e-05, 0.00010714043310144916, 1.5399433323182166e-05, 5.6937649787869304e-05, -0.00015772799088153988, -0.00018824114522431046, 7.63836651458405e-05, -6.150362605694681e-05, 5.738171239499934e-06, -1.1689033271977678e-05, -1.8105532944900915e-05, 5.03268456668593e-05, 0.0003023287281394005, 7.934289169497788e-05, -0.0003216766635887325, 1.4641793313785456e-05, 0.00010407816444057971, -0.00017209458746947348, 0.00011575291864573956, -0.0001086473639588803, 0.0002439254312776029, 3.0815099307801574e-06, 0.0002699837787076831, -0.00014835568435955793, 7.53176718717441e-05, -0.00012793642235919833, -0.0001647674507694319, -5.283525388222188e-05, 6.126444350229576e-05, 0.0002680183097254485, 5.881152901565656e-05, -0.00021085389016661793, 6.964450585655868e-05, -4.9218466301681474e-05, -0.0005149615462869406, -0.00014909240417182446], [1.8763421394396573e-05, 0.00020399352069944143, 7.129622827051207e-05, -0.00018199229089077562, 0.0006292472826316953, 0.0011634560069069266, -0.0004562481481116265, -0.00026954166241921484, -0.0002641664177644998, 0.00018425173766445369, -4.7232169890776277e-05, 0.0003295148489996791, 0.00039209367241710424, 1.5142388292588294e-05, 0.0006264043040573597, -5.813756797579117e-05, 0.00030708289705216885, 0.0001386269141221419, 5.527798202820122e-05, -0.0001388622185913846, -3.373695653863251e-05, 0.00028069622931070626, -5.3934872994432226e-05, 0.000305001565720886, 0.0005594674730673432, -0.00010518138878978789, 0.00028593066963367164, -0.0005370826693251729, 9.359297109767795e-06, -0.0003488436050247401, 0.00015117615112103522, -0.00013952051813248545, -0.00029385980451479554, -8.214807166950777e-05, 0.00019072010763920844, -0.00024749868316575885, -7.216753147076815e-05, 0.0006579591426998377, -0.0008355774916708469, 0.00038994778878986835, -0.0002742412907537073, -1.4878251022309996e-05, -0.0001874459849204868, 0.0001250158529728651, -0.0008715298608876765, -0.0004480608331505209, -0.00047388102393597364, 8.5667401435785e-05, 0.0005725452792830765, -7.457108586095273e-05, 0.0004662844876293093, 4.3927153456024826e-05, 0.00021402633865363896, 0.00033002698910422623, -0.00025157342315651476, -0.0006406940519809723, 8.777107723290101e-05, 0.0007400367176160216, -0.0001875854650279507, -0.0005965622258372605, 0.00030162520124576986, -7.666374585824087e-05, -0.0003940233145840466, -0.000526144343893975], [0.0010620603570714593, -0.0002430653403280303, -0.0003431817458476871, -0.00047146237920969725, 0.0007777402061037719, 0.00017231464153155684, -0.00021882954752072692, -0.000413755071349442, 0.0003533746930770576, -0.00013416135334409773, 0.001259931013919413, 0.00048712786519899964, 0.00012519743177108467, 0.0002721510536503047, 0.0004334815021138638, 0.0004453189321793616, 0.0005151648656465113, 0.00017546025628689677, -8.02672584541142e-05, -7.121960516087711e-05, 0.00029050777084194124, -0.00033601303584873676, 4.434111178852618e-05, 0.0002927640452980995, 0.0002789864665828645, 0.001494394731707871, 0.001113734906539321, -9.192779543809593e-05, -0.0009882078738883138, -0.0009838421829044819, 0.00010026810923591256, -0.0004384953936096281, -2.806606062222272e-05, -1.684989547356963e-05, 0.0001226781023433432, 0.00014149368507787585, -0.00021697809279430658, 0.0008807453559711576, -0.001273968955501914, 0.0006018553976900876, -0.0003718634834513068, -0.00042814784683287144, -0.0004833769053220749, 0.0001265989849343896, -0.0004839490575250238, 1.720356522127986e-05, -0.0005573579110205173, -6.470419612014666e-05, -0.0004694360541179776, -0.0004329770745243877, 0.0006169573171064258, 0.00025729837943799794, 0.00011652508692350239, 0.0003739463281817734, 0.0006845541065558791, 0.0002299413172295317, -0.0007350875530391932, 0.0005435806233435869, -0.00032655528048053384, -0.0008700008620508015, 0.0006594366859644651, -0.0005677459994331002, -0.00019818013242911547, -0.00031554384622722864], [-0.0009352628840133548, 0.00043806375470012426, -0.0009971843101084232, 0.0008202875615097582, -0.0001784479827620089, 0.0005377961206249893, -0.0005434497725218534, -0.00040236013592220843, 0.0011173657840117812, -0.00021453198860399425, 0.0009145271615125239, -0.000388775224564597, -0.0006500158924609423, -0.00022772810189053416, -9.124050120590255e-05, -0.0004765782505273819, 0.00020791128918062896, -0.0002733823494054377, 0.0001428905234206468, -0.00036377354990690947, -0.00010881496564252302, -0.0015135834692046046, 3.1199888326227665e-05, -3.62499849870801e-05, -0.0015311387833207846, 0.00031738856341689825, -0.0005874376511201262, 0.0005686425138264894, 0.0010853210696950555, -0.0009984913049265742, 0.0005989000201225281, 0.00048647448420524597, -0.0007507191621698439, 0.0006129612447693944, 0.0008233287371695042, 0.0012935595586895943, -6.692191527690738e-05, 0.0001078683853847906, -0.0010363826295360923, -0.0003148400573991239, 0.00010298905544914305, 0.0005998136475682259, 0.0008012107573449612, -0.0001922604424180463, 0.0010978106874972582, 0.0004885013913735747, 8.737051393836737e-05, 0.0005602746387012303, 0.00015497353160753846, -8.182058081729338e-05, 0.0001513653842266649, -0.00011428011930547655, 8.536907262168825e-05, -0.00035483064129948616, 0.0005242200568318367, 0.00041815999429672956, 0.00032312056282535195, 0.0008590686484239995, -0.0006408538902178407, 0.0006837251712568104, 0.000732224143575877, 0.0005408436409197748, 0.0005282654892653227, -7.450624252669513e-05], [-1.6985495676635765e-07, 1.768464244378265e-05, -4.516328772297129e-05, -2.5310469027317595e-06, 1.1416837878641672e-05, 0.00041035941103473306, 1.1852333955175709e-05, -6.687229870294686e-06, 2.580456930445507e-05, 2.1082736566313542e-05, -4.474852175917476e-06, -2.516802487662062e-05, -2.8735482828778913e-06, -1.4930825273040682e-05, 4.5061856326356065e-06, 4.904431079921778e-06, 2.6576637537800707e-05, 9.153238352155313e-06, -6.1164068938524e-06, -1.714639802230522e-05, 8.074487595877144e-06, 7.844679203117266e-06, -6.426397249015281e-06, 3.534913048497401e-06, 1.3088541891193017e-05, -1.2300874914217275e-05, -2.2805696062278003e-05, 1.06396209957893e-05, 3.086895594606176e-05, 1.3959454008727334e-05, 4.3698139052139595e-05, 8.666689609526657e-06, -2.002945802814793e-05, -1.0575771739240736e-05, 1.2615701052709483e-05, 3.253118848078884e-06, 2.938032594101969e-05, 4.3580248529906385e-06, -3.142949026369024e-06, 3.2829375413712114e-05, 1.713001802272629e-05, 2.2670508769806474e-05, 6.940907951502595e-06, 1.4856205780233722e-05, -1.1695373359543737e-05, -1.8938742869067937e-05, 1.6986932678264566e-05, 2.650166061357595e-05, -1.182701817015186e-05, -9.564728316036053e-06, -3.1375653634313494e-05, -1.7505717551102862e-05, 1.5633202565368265e-05, -1.5233681551762857e-05, 9.125951692112722e-06, -3.779182407015469e-06, -1.3552032214647625e-05, 9.260327715310268e-06, 2.5451476176385768e-05, 2.3668490030104294e-05, -1.7499060049885884e-05, 1.6236577721429057e-05, -2.098999175359495e-05, 3.3799378797993995e-06], [5.537872880267969e-07, 3.051318162761163e-05, -3.397980617592111e-05, -5.610861990135163e-06, -7.098204514477402e-05, 0.0005318192997947335, 4.897615872323513e-05, -5.393598257796839e-06, 7.429858214891283e-06, 0.00010369342635385692, 1.6403868357883766e-05, 4.3105137592647225e-06, -7.5072462095704395e-06, -1.0544689757807646e-05, 3.4891119867097586e-05, -5.7158276831614785e-06, 4.039114719489589e-05, 1.9823515685857274e-05, -3.67556931450963e-05, -3.4049764508381486e-05, 8.717525815882254e-06, 1.3512679288396612e-05, -1.7943793864105828e-05, -3.5780140024144202e-06, -5.995964329486014e-06, -2.3725739083602093e-05, -4.8200658056885004e-05, -2.445289101160597e-05, 2.8324782761046663e-05, 2.2551772417500615e-05, 3.810241832979955e-05, -2.0542476704576984e-05, -3.478958024061285e-05, -1.2792494999303017e-05, 1.5832141798455268e-05, -4.765488120028749e-05, -6.326714355964214e-06, -4.1832245187833905e-06, 1.9255374354543164e-05, 6.019942884449847e-05, 1.3374502486840356e-05, 1.51966401062964e-06, 1.5757070286781527e-05, 1.3095575013721827e-05, -3.697766805998981e-05, 4.621986590791494e-06, -1.5404377336381003e-05, 3.9418733649654314e-05, -1.162041644420242e-05, 6.901243978063576e-06, 1.1292962881270796e-05, -3.5126555303577334e-05, -3.851308792945929e-05, 4.283095768187195e-05, -2.049680915661156e-06, -6.95267863193294e-06, 1.4810437278356403e-05, 4.107005224796012e-07, 2.0972014681319706e-05, 1.0709858543123119e-05, -7.890236156526953e-05, 1.04598175312276e-05, -1.6284231605823152e-05, 1.0260919225402176e-07], [8.748842810746282e-05, 8.983363841252867e-06, -0.00016042249626480043, 2.6268764486303553e-05, 9.87190505838953e-05, 0.0006732026813551784, 2.5232766347471625e-05, 0.00010677087993826717, 5.459786189021543e-05, -0.00017892270989250392, 9.26042121136561e-05, -2.3833199520595372e-05, -2.920814586104825e-05, 6.397232937160879e-06, 4.3687607103493065e-05, 3.823314909823239e-05, -2.822350143105723e-05, 2.3515989596489817e-05, 7.674154767300934e-05, -2.942337960121222e-05, -5.0093818572349846e-05, -4.190745312371291e-05, 3.3528489439049736e-05, 2.0479634258663282e-05, 0.000146620484883897, -0.00015146096120588481, 3.0051451176404953e-05, 0.0002418971707811579, 0.00010775996634038165, 0.00014751552953384817, 6.725108687533066e-05, -2.4866531020961702e-05, -3.512881085043773e-05, -0.00011033154441975057, 1.583655466674827e-05, -4.833879938814789e-05, -0.00010001412738347426, -7.589169399579987e-05, -0.00012602524657268077, 3.395423118490726e-05, 0.00017525316798128188, -1.094732215278782e-05, 0.0001361077302135527, -3.0039514967938885e-05, -1.8980208551511168e-06, 8.09131161076948e-05, -2.256262450828217e-05, -0.00016674793732818216, 0.00010633985220920295, -3.552035195752978e-05, 3.382279828656465e-05, -0.00012578643509186804, 0.00010427147208247334, -4.262867150828242e-05, 0.00011508853640407324, 3.1026129363453947e-06, -7.207985618151724e-06, 1.4932762496755458e-05, 0.00027403084095567465, 0.00027920579304918647, 6.398640107363462e-05, -3.781294435611926e-05, 3.799986734520644e-05, -5.327383041731082e-05], [0.00021190856932662427, -0.0003546846564859152, -0.00014400406507775187, 8.573704690206796e-05, 5.9423444326967e-05, -0.001520755817182362, 0.00043127016397193074, 0.0002915343502536416, 5.191923992242664e-05, -0.000256720173638314, -0.00024197353923227638, 6.0304762882879004e-05, 0.00012654387683141977, -1.9854851416312158e-05, 8.447042637271807e-05, -0.00038585643051192164, -0.00019950303249061108, 4.897323378827423e-05, 0.0001968935102922842, -0.0001786696375347674, 0.00012172857532277703, -0.00026106523000635207, 7.838578312657773e-05, -0.0002305387461092323, 0.00032846536487340927, -0.00024404448049608618, -2.069526817649603e-05, 0.00027923312154598534, -7.59319300414063e-05, 0.000367772881872952, 9.47448643273674e-06, -0.00017410640430171043, -0.000328682828694582, -0.0003901157760992646, -3.7946738302707672e-06, 0.0001935812906594947, -0.00023922047694213688, -0.00018825015285983682, -0.000189390208106488, -0.0003584205696824938, 0.00013711603241972625, -8.439725206699222e-05, 0.0001978421350941062, -0.00012769860040862113, -0.00041273608803749084, 0.00046721569378860295, -0.00017952232155948877, -0.0003581691416911781, 0.00026074147899635136, 8.466790313832462e-05, 0.00011766879470087588, -0.000409817963372916, 5.6895543821156025e-05, -0.0003352013591211289, -2.9217258997960016e-05, -4.917060141451657e-05, -0.0002896089863497764, -0.00042543536983430386, 0.0004179986717645079, 0.0004387976950965822, 0.0002854390477295965, 4.319455547374673e-05, 0.00017692513938527554, 7.059599010972306e-05], [0.0005450964672490954, 0.0007088760612532496, -0.00023937245714478195, -0.00021110731177031994, 0.00039693276630714536, 0.0017385192913934588, -0.0009226201800629497, -0.0002805462572723627, 7.694895612075925e-05, -0.0004748515202663839, 0.0004186757141724229, 0.00021182902855798602, -0.00021683971863240004, 0.00031137350015342236, -0.00016939382476266474, 0.0003058357979170978, -0.0005160982836969197, 5.216671706875786e-05, 0.0003118828171864152, 0.00026509485905990005, 0.00014924387505743653, 9.59346434683539e-05, 7.454727892763913e-05, 8.040647662710398e-05, 0.00038466876139864326, -3.449112409725785e-05, 0.0003675583575386554, 0.0001891213614726439, -0.000920910737477243, 0.0003821579157374799, 0.0001254732778761536, -2.2058520698919892e-05, 0.00023902943939901888, -0.00023705032072030008, -0.00010618281521601602, -0.000527799769770354, -0.00019869754032697529, -0.00034142378717660904, 1.2380456610117108e-05, 0.0005143953021615744, -7.242828723974526e-05, 0.000263063091551885, -0.0004323876346461475, 0.00019407895160838962, 0.00047144590644165874, -0.00024006218882277608, -0.0001773666008375585, 0.0002273241989314556, -0.0005510398186743259, -1.363345654681325e-05, -0.00011688009544741362, 0.000283780915196985, -0.00015647421241737902, 2.8383044991642237e-05, -0.0007730901706963778, 5.683873314410448e-05, 0.0002938035468105227, -0.0003002823214046657, 0.0003613084554672241, 0.000399220414692536, -0.00016124173998832703, -4.7454868763452396e-05, -7.407035445794463e-05, -0.00017150281928479671], [0.0010078020859509706, -1.6461111954413354e-05, -0.0006289751618169248, 6.450718501582742e-06, 0.0008682075422257185, -0.0007076095207594335, 0.00014720304170623422, 0.0008630338124930859, 0.0006966383662074804, -0.0007880909834057093, 0.00024294518516398966, 0.0007531945593655109, 0.00013814451813232154, 0.0004980729427188635, 0.00011860534141305834, 0.0008154294919222593, -0.00023435828916262835, -0.0002701386110857129, 0.0005460506654344499, -0.0005484955618157983, 0.0022524921223521233, -0.0006789213512092829, 0.0009407963370904326, 0.00036789284786209464, 0.0009579233592376113, 0.0007214922807179391, 0.00023642799351364374, 0.0010704122250899673, -0.0015038682613521814, 0.0010964011307805777, 0.0005504711880348623, -6.0179358115419745e-05, -7.968033605720848e-05, -0.0003779648104682565, 0.000264990609139204, 0.000650478876195848, -0.0011595136020332575, -0.0006643582019023597, 0.0005250696558505297, -0.0010676707606762648, -0.000418488634750247, 0.0001405862276442349, -0.000748499296605587, 0.0005612003151327372, 0.0007407958619296551, 0.0004909535637125373, 0.00022031698608770967, -0.00044835719745606184, -0.0009408816695213318, 0.0005832042661495507, 0.0001970349985640496, 2.932341885752976e-05, -0.00021772668696939945, -0.0004389244713820517, -0.0004790831881109625, 0.00028884317725896835, 0.001112528727389872, -1.5476485714316368e-05, 0.0005837454227730632, 0.0009322843980044127, -0.0003760803956538439, 0.0003324818389955908, 0.0002980051503982395, -0.0007548748981207609], [-0.0006563536589965224, -7.39141833037138e-05, -0.0006308422889560461, -0.0004791852261405438, 0.0010688239708542824, -0.00024593251873739064, 0.002267832402139902, -0.0012157830642536283, 0.0009949072264134884, -0.0002752520958893001, 0.0008921403205022216, 1.6249154214165173e-05, -4.155152419116348e-05, -0.0005243037012405694, 0.0016152001917362213, 0.000660152465570718, 0.0004234827065374702, 0.0008060240652412176, 0.0007278108387254179, -1.6294652596116066e-05, 5.2471295930445194e-05, 0.00022374698892235756, 0.0005397554486989975, -0.00013237106031738222, 4.3877967982552946e-05, -0.0006007491028867662, -0.001038054469972849, 9.282445535063744e-05, 0.00033445635926909745, 0.0003619859053287655, 0.0015114108100533485, -0.0005181141896173358, -0.0008314960869029164, -0.000265151378698647, -0.0008860629168339074, -2.6858877390623093e-05, 3.3366872230544686e-05, 0.001293436624109745, -0.0010551727609708905, 8.681474719196558e-05, -0.0003291401662863791, -0.0008542551076970994, 0.0010981913655996323, 0.001885568955913186, 0.0016223563579842448, -9.147584205493331e-05, -0.001146913506090641, -0.0005323182558640838, -0.00043262087274342775, -0.00013088603736832738, -0.0001259868440683931, -1.5658210031688213e-05, 0.0012967319926247, -0.0008098764810711145, -0.0012370827607810497, -0.00015654927119612694, -0.00015236047329381108, 0.00046181422658264637, 0.00017748662503436208, -0.001654782798141241, 0.0001275001559406519, 0.00019671546760946512, -0.0007194377249106765, -0.0004888995317742229]], [[0.00047673186054453254, -0.0003095921711064875, -0.0004787454381585121, -0.00021381600527092814, -0.0001808350789360702, -7.793685654178262e-06, 0.00032814123551361263, -0.00011848482972709462, -0.0001235953823197633, -0.0008432735339738429, 0.00046128613757900894, -0.0004987072898074985, 0.00027019798289984465, -3.010525688296184e-06, 0.00043722361442632973, 6.111990660429001e-05, 0.0004049490671604872, -0.0007166427094489336, -0.00021834252402186394, 0.0011439025402069092, -0.000668296474032104, -0.0004055874014738947, 0.0005561876459978521, -0.0006559022003784776, 2.7581416361499578e-05, -0.0010830226819962263, 1.738531864248216e-05, 0.0007334579713642597, 0.0004432978748809546, -0.00036660462501458824, -0.0006090209353715181, -0.00035415866295807064, -0.000553392106667161, -0.00031257784576155245, 9.92353307083249e-07, -0.0012609054101631045, 0.0005212639225646853, 0.00029574756626971066, -0.0008550406782887876, -0.0001868273684522137, 0.0011034962953999639, -1.976693602045998e-05, 0.0004922182997688651, -0.000477630237583071, -0.00041449014679528773, -0.0001391647820128128, -9.983457857742906e-05, -0.0004283915041014552, 3.963774361182004e-05, 0.00020508101442828774, -0.0002340681676287204, -0.0004270067438483238, 0.0006319278618320823, -0.00020745645451825112, 1.1602707672864199e-05, -0.000243881979258731, -0.0009594782022759318, 0.00011046407598769292, 0.00015422077558469027, 0.0005368952406570315, -0.0010546483099460602, 0.000757381203584373, 4.7627418098272756e-06, 0.0015342967817559838], [2.407477381893841e-07, -3.690927087518503e-06, -1.8618748072185554e-06, 7.289948200650542e-09, 1.327447421317629e-06, 1.0124186928806012e-06, -7.13330848611804e-07, -1.8772698240354657e-06, -3.969817953475285e-06, -1.583268613103428e-06, 1.3626422514789738e-06, -9.532133304901436e-08, -1.9417865360082942e-07, -1.397894038746017e-06, 1.0267411880704458e-06, 4.049331892019836e-07, 1.858906443885644e-06, -2.1998098418407608e-06, 1.347411966889922e-06, -5.926979156356538e-07, -1.0883726986321562e-07, 1.0785599613427621e-07, -2.0623303953470895e-06, -9.184707892018196e-07, 1.3549852155847475e-06, 2.321156671314384e-06, -3.2228017516899854e-06, -2.1561302787631575e-07, -3.901755462720757e-06, 1.3187498097977368e-06, -2.2936833374842536e-06, 1.2399689239828149e-06, 2.0625557226594537e-06, -3.392845826510893e-07, -6.006130206515081e-07, 4.24777363150497e-06, -1.284506538468122e-06, -1.5699756659159902e-06, 4.326722660152882e-07, 2.013597644179299e-08, -1.9613789845607243e-06, -2.492781732144067e-06, -2.061701252387138e-06, -7.535572876804508e-07, -1.9800128825409047e-07, 1.1657117511276738e-06, -2.80469208746581e-07, 2.679136059668963e-06, 2.215108906966634e-06, 8.684237968736852e-07, 1.8230450677947374e-06, -1.3133801530784694e-06, -1.3245967238617595e-06, 4.204363790449861e-07, 2.3909774427011143e-06, 6.146937039375189e-07, -1.5040162679724745e-06, -3.056215291508124e-06, 8.51341269481054e-07, 2.349827809666749e-06, 1.8374706769463955e-06, -4.068598968842707e-07, 3.3115948099293746e-06, 1.7103452591982204e-06], [-4.097741111763753e-06, 4.0328984596271766e-07, 1.4997757489254582e-06, 1.7801332319322682e-07, 1.0948573390123784e-06, 0.00010455802839715034, -1.7211003751071985e-06, -3.781847794925852e-07, 9.201692591886967e-06, 9.476588047618861e-08, 5.4291108426696155e-06, -4.050487405038439e-06, 1.8261384866491426e-06, 3.960421679494175e-07, 2.5226538014067046e-07, 1.9467572656139964e-06, -8.718717253941577e-06, -3.744090918189613e-06, -1.9990925466117915e-06, -5.528966994461371e-06, 5.189563125895802e-06, 2.930237542386749e-06, -1.0050963282992598e-05, 2.2410927158489358e-06, -1.4576838793800562e-06, 1.5301019402613747e-06, -8.881504982127808e-06, -3.799083287958638e-06, 7.232980806293199e-06, -5.815165877720574e-06, -2.966368981560663e-07, -2.0340398805274162e-06, 3.989053766417783e-06, 7.941458761706599e-07, 3.2017262583394768e-06, 5.37774758413434e-06, -5.964115189271979e-06, 2.432659869100462e-07, -1.2135901670262683e-06, 4.184022657227615e-07, 6.874815426272107e-06, -3.1600711736246012e-06, -6.0650754676316865e-06, 2.2258823264564853e-06, 7.451666533597745e-06, 1.0374236580901197e-06, 6.693107934552245e-06, -2.670467210919014e-06, 1.533109980300651e-06, -3.6715136957354844e-06, -1.4445763554249424e-06, -6.604390364373103e-06, -6.334154022624716e-06, 8.213789897126844e-07, 2.053313892247388e-06, 4.160172466072254e-06, -3.350918859723606e-06, 1.02613421404385e-05, 2.1188839127717074e-06, 1.1252536751271691e-06, 1.2223123349031084e-06, -1.8204548268840881e-06, 1.2670246860579937e-06, 3.50997606801684e-06], [9.085704732569866e-06, -2.9804677978972904e-05, -1.7930527974385768e-05, 7.27302540326491e-05, -5.977669388812501e-06, 0.00013752735685557127, -9.991321348934434e-06, 6.57499476801604e-05, 2.858174775610678e-05, 1.4110123629507143e-06, -1.3820781532558613e-05, -5.622809112537652e-06, -2.6930250896839425e-05, 5.716663508792408e-06, 4.466658538149204e-06, -5.479807441588491e-05, -2.1788318917970173e-06, 2.433326699247118e-05, 2.7960191800957546e-05, -1.366525157209253e-05, 3.682069291244261e-05, -2.266272895212751e-05, 3.94409398722928e-05, 4.88703117298428e-05, 6.253490028029773e-06, 4.799327143700793e-06, 4.2153638787567616e-05, 2.964876694022678e-05, -5.19863169756718e-05, 5.255570067674853e-05, -5.52532446818077e-06, 1.4787283362238668e-06, -4.3959869799437e-05, 1.4434966942644678e-05, -1.1796821127063595e-05, 6.028590723872185e-05, 1.3730310456594452e-05, 3.2050020308815874e-06, 0.00012764275015797466, -3.3242460631299764e-05, -5.663153569912538e-05, -1.2236248949193396e-05, -1.0276897228322923e-05, 2.2147714844322763e-05, 1.6062585928011686e-06, -3.164586814818904e-07, -5.4363019444281235e-05, -1.5473544408450834e-05, -9.557123121339828e-06, 1.3493122423824389e-06, -2.824526745826006e-07, 1.730922122078482e-05, 2.71723683908931e-06, 1.9399449229240417e-06, 5.523561776499264e-05, 3.056659988942556e-05, 2.1786599972983822e-05, -4.8006702854763716e-05, -4.887121758656576e-05, 2.0181336367386393e-05, 2.821243651851546e-05, -1.7159291019197553e-05, 4.4182950659887865e-05, -7.004355575190857e-05], [-1.7761485651135445e-05, -0.00021658519108314067, -0.0003617119218688458, 0.00011693967826431617, 4.8928894102573395e-05, 0.0006748536834493279, -2.0184241293463856e-05, -0.00041518075158819556, 0.00020996744569856673, -4.596669168677181e-05, 8.742049976717681e-05, 9.242229134542868e-05, 0.00027819169918075204, 5.4769210692029446e-05, -0.0001905526441987604, 0.00012571756087709218, -0.00026719734887592494, 6.020374712534249e-05, 5.8567711676005274e-05, -0.00011510135664138943, 8.663097105454654e-06, 0.00013446476077660918, -0.00025361630832776427, 0.0001250589994015172, 2.487724123056978e-05, 0.00016351269732695073, 0.00027495360700413585, -0.0001341753959422931, 0.0005396917695179582, -8.724188955966383e-05, 2.7947098715230823e-06, 0.0002833673497661948, 0.00021943027968518436, -2.397083881078288e-05, 0.00011711312981788069, -8.945306035457179e-05, -2.1398045646492392e-05, 4.3326072045601904e-05, -0.0002979709825012833, -8.314644219353795e-05, 0.0004285212780814618, 5.573940143221989e-05, -0.00019820683519355953, -5.505798981175758e-05, 0.0003075845306739211, -0.00024380224931519479, 0.00048716471064835787, 0.0002920629340223968, -0.0002147811756003648, -0.0002142746525350958, 2.0954295905539766e-05, -0.00021174542780499905, -6.896569539094344e-05, 1.3608958397526294e-05, -8.871083991834894e-05, 3.611157808336429e-05, -5.3812360420124605e-05, 0.0006391335627995431, 0.0001532117312308401, 2.9331276891753078e-06, -4.045094101456925e-05, -0.0001810143730835989, -8.268802048405632e-05, -9.115759166888893e-05], [0.00014077768719289452, 0.00022049457766115665, -0.0005337068578228354, 0.00012031069491058588, -0.0002667006920091808, 0.0004707037005573511, -0.0014882247196510434, 0.000713323534000665, 0.00015282336971722543, -2.5428882509004325e-05, -2.4315304472111166e-05, 0.00016850436804816127, -0.0004196795343887061, 0.00018079920846503228, -7.125825504772365e-05, 0.0001935985346790403, 0.0005293436115607619, -0.0007245426531881094, 4.238865221850574e-05, -0.00034194340696558356, 7.747398922219872e-05, 2.107903128489852e-05, -2.6871635782299563e-05, 0.0006544050411321223, -0.000603811233304441, -0.00029977556550875306, 4.084417741978541e-05, 0.0005664224736392498, 0.0009978075977414846, -0.0006102225743234158, 0.0003049250226467848, 0.00028861925238743424, 0.0002731027198024094, 0.0005936085944995284, 