{"nesterov": true, "init_weights": [3843, [[[[0.0011287628440186381, 0.0012751801405102015, -0.00019114118185825646, 0.00028974757879041135, -0.0002892847696784884, -0.0006553074344992638, -8.921809785533696e-05, 0.0006025725742802024, -0.0013196580111980438, -0.0014335564337670803, 0.002198326401412487, 0.0007965806871652603, 0.0006397193064913154, 0.0018136826111003757, 0.001858640112914145, -0.0007444547372870147, -0.0008104988373816013, 0.0035437466576695442, -0.0014718377497047186, -0.0016871849074959755, 0.0017204269533976912, -0.0005674203857779503, 0.000272111501544714, -0.0009635839378461242, -0.00043951731640845537, -0.0004598629311658442, 0.00018413913494441658, 0.00014436844503507018, -2.949190093204379e-05, 0.0016733617521822453, 0.0006776792579330504, -0.0013580358354374766, -0.0006548385717906058, 0.0012013070518150926, 0.0013219168176874518, 0.0005788851412944496, 0.0024428325705230236, 0.001461647916585207, -0.0003310894244350493, -0.0011718695750460029, -0.0010324991308152676, 0.0002640868478920311, 0.0008295247098430991, 0.0003127987729385495, 7.485650712624192e-05, 0.001981185982003808, 0.0002452327171340585, -6.31962320767343e-05, 0.0016473211580887437, 0.0003274953633081168, 4.6558910980820656e-05, 0.0011498893145471811, -0.0007850817055441439, -0.0014096840750426054, -0.00028933881549164653, 0.001068553188815713, -0.0007562298560515046, -0.0005362934898585081, 4.544379044091329e-05, -0.00014565745368599892, 0.0010366641217842698, -0.00024150172248482704, -0.000909481372218579, -0.0012667581904679537], [-5.413916369434446e-06, -1.6600532035226934e-05, 2.005970372920274e-06, -2.3128329473820486e-07, 2.7961714295088314e-06, -7.489941253879806e-06, -1.3250148640508996e-06, -3.624889359343797e-06, 5.5937935030669905e-06, 5.196335223445203e-06, -5.886749931960367e-06, -1.0944940186163876e-05, 1.0927908533631125e-06, 9.463084097660612e-06, 7.544672826043097e-06, 2.239597506559221e-06, 1.6265012163785286e-05, -5.1306224122527055e-06, -1.567574486216472e-06, 3.39374014401983e-06, 1.6600532035226934e-05, 7.064779765642015e-06, -3.8081450384197524e-06, -2.7261473860562546e-06, -5.353739197744289e-06, 1.6600532035226934e-05, -9.325059181719553e-06, -8.075052392086945e-06, -3.5565337839216227e-06, -3.596352826207294e-06, -3.28881560562877e-06, 8.382894520764239e-06, -4.776375135406852e-07, -4.836005246033892e-06, -6.666074114036746e-06, -7.869410183047876e-06, 1.6600532035226934e-05, 5.201603926252574e-06, -4.6453783397737425e-06, -5.498237442225218e-06, 8.770193744567223e-06, 2.33000378102588e-06, 7.77125205786433e-06, 9.626432984077837e-06, 5.878142474102788e-06, 2.0702877918665763e-06, -9.718422688820283e-07, 7.24531355444924e-06, 9.57995780481724e-07, -2.996899183926871e-06, -8.809486644167919e-06, 2.7982989649899537e-06, 1.2100211961296736e-06, -3.892078893841244e-06, 1.317310989179532e-06, -1.5919336874503642e-05, -2.1105925043229945e-06, 1.1644068763416726e-05, -6.436297894651943e-07, -1.477252794757078e-06, -3.210445584045374e-06, -3.537722705004853e-06, -7.85941392678069e-06, 5.131202215125086e-06], [-5.900836913497187e-05, -4.598554369295016e-05, -1.9185037672286853e-05, 8.425369742326438e-05, -4.5602810132550076e-06, -1.5812360288691707e-05, -3.34272590407636e-06, 1.1411964806029573e-05, 1.0522117008804344e-05, -1.1304273357382044e-05, 2.366126500419341e-05, 2.0101786503801122e-05, 3.990626282757148e-05, -1.087924374587601e-05, 1.2701586456387304e-05, 1.1456246284069493e-05, -1.013636210700497e-05, 5.884822166990489e-05, 1.283828623854788e-05, 9.758143278304487e-06, 5.611990491161123e-05, -6.519199814647436e-06, 4.8732367758930195e-06, 1.3638445125252474e-05, 2.555803177983762e-07, 1.3211161785875447e-05, 3.456892955000512e-05, 2.551669967942871e-05, 1.0283371011610143e-05, 1.1615347830229439e-06, 1.1649772204691544e-05, -3.991412540926831e-06, 1.6840508578752633e-06, 2.8133857995271683e-05, 1.0075171303469688e-05, -2.8259817554499023e-05, 4.614240606315434e-05, 4.9138405302073807e-05, -2.3509473976446316e-06, -2.6088055165018886e-05, 8.810727013042197e-05, -2.9354287107707933e-05, 1.2191398127470165e-05, -3.17400845233351e-05, -1.8158692910219543e-05, -5.118329227116192e-06, 1.4197703421814367e-05, 9.878818673314527e-06, -1.852396053436678e-05, -1.65449073392665e-05, 7.528179139626445e-06, 2.6903297111857682e-05, -2.8055314942321274e-06, -4.4118431105744094e-05, -1.1441191418271046e-05, 7.497847036574967e-07, -2.975585448439233e-05, -9.38424182095332e-06, 1.4896036191203166e-06, 4.094380528840702e-06, 1.2797002455045003e-05, -7.380923489108682e-05, -2.3520133254351094e-05, -5.1001850806642324e-05], [-9.893187780107837e-06, -6.969957757974043e-05, 1.0297561857441906e-05, -0.00011637282295851037, -3.244840627303347e-07, 1.5660811186535284e-05, -1.0797275535878725e-05, -1.1102985808975063e-05, 2.24233117478434e-05, 2.6990470360033214e-05, -9.616337774787098e-05, -0.00013349579239729792, -7.49629398342222e-05, 1.9922132196370512e-05, -4.387411172501743e-05, -8.665145287523046e-06, 3.99172495235689e-05, 5.7142635341733694e-05, 6.098559242673218e-05, -8.541204442735761e-05, -2.6292385882698e-05, 7.017678399279248e-06, -1.420612807123689e-05, 9.156384294328745e-06, 9.900122677208856e-08, -1.6591508028795943e-05, 2.403036705800332e-05, 3.0141867682687007e-05, -7.916918548289686e-06, -2.6007852284237742e-05, -5.5121090554166585e-05, -4.648494359571487e-05, 3.806548920692876e-05, 2.3288212105398998e-05, 4.5323573431232944e-05, 2.3652830350329168e-05, -4.411340341903269e-05, -1.969468212337233e-05, -5.5468342907261103e-05, 7.2722705226624385e-06, -1.3698074326384813e-05, -3.5335480788489804e-05, -3.2035868571256287e-06, 1.98431262106169e-05, 1.6773732568253763e-05, 5.92784726904938e-06, -1.3340326404431835e-05, -1.6485188098158687e-05, -4.763403921970166e-06, 3.775082586798817e-05, -1.272193003387656e-05, -4.45771511294879e-05, 7.3185719884349965e-06, 1.0333727914257906e-05, -5.4558146075578406e-05, -1.1967154932790436e-05, -3.049454971915111e-05, 7.442006608471274e-05, -2.2754880774300545e-05, 1.2408854672685266e-05, -5.511262861546129e-05, 0.00029568123864009976, 2.6156534659094177e-05, 2.0016483176732436e-05], [-0.00033240363700315356, -0.0009372115018777549, 1.3614913768833503e-05, 0.0005250294925644994, 0.00017675130220595747, 0.0002305966627318412, -0.00025856311549432576, 6.814534572185948e-05, 0.0004590554744936526, 0.0002805599942803383, -0.0005171085940673947, -0.0007266575703397393, 7.202828419394791e-05, 0.00017548020696267486, -0.00044943077955394983, -0.0001489608985139057, 0.0004196465015411377, 0.0005074700457043946, -3.0410810722969472e-05, 0.0005974574596621096, -0.00026602030266076326, -0.0002741829084698111, -0.00025427230866625905, 0.0002574028039816767, -9.854633390204981e-05, 3.467815986368805e-06, -0.00010696102981455624, 5.22386071679648e-05, -2.7017074899049476e-05, 2.4997492801048793e-05, 0.0006405730382539332, -0.0002128313935827464, 0.00021996356372255832, 0.0001866800885181874, -0.00025475231814198196, 3.3174022973980755e-05, -0.0003677693894132972, 9.283743565902114e-06, -5.78118851990439e-05, 2.9917267966084182e-05, 0.00053820526227355, 6.108220986789092e-05, -0.00016969763964880258, 5.9894802689086646e-05, -0.0009606382809579372, 0.0005289452383294702, 6.546814984176308e-05, -1.609530590940267e-05, 0.00042066158493980765, -7.4041454354301095e-06, -6.568439130205661e-05, 0.00025291898055002093, -7.880164048401639e-05, 5.650983075611293e-05, -5.469533789437264e-05, 0.00012327716103754938, 0.000374795199604705, -3.5261051380075514e-05, 0.00047594623174518347, -6.4152563936659135e-06, -0.0003160437918268144, 0.0002445342543069273, -0.00010492824367247522, -0.00015629104746039957], [0.0004258302797097713, -0.0014817924238741398, 0.00015291088493540883, 0.0025186357088387012, 0.00021577953884843737, 0.000395913899410516, -0.00019203951524104923, 0.0005483137210831046, 0.0006716340431012213, -3.0490453355014324e-05, 0.00013521657092496753, -9.367606253363192e-05, 0.0006704760598950088, -0.0006681692902930081, -0.00015309278387576342, 0.0003277453361079097, -0.000302320986520499, 0.001051653060130775, -0.00030220605549402535, 0.0008184245089069009, 0.0008011317695491016, -0.0003467103815637529, -2.1369967726059258e-05, -0.0005669777747243643, 0.0003999779582954943, 0.00024085806217044592, 0.0003350537735968828, 0.00015438059926964343, -0.00018064775213133544, 0.00013904979277867824, -0.0014113703509792686, 0.0003955149732064456, 0.00027391346520744264, 0.0007529688300564885, -0.00042390127782709897, 0.0007035653688944876, 0.001096532680094242, -0.0011866753920912743, 8.751841960474849e-05, 0.0003181004722137004, 0.0001846651139203459, -6.875039252918214e-05, 6.243353709578514e-06, -0.0001405425718985498, -0.0011021909303963184, 0.0006551032420247793, 3.359239417477511e-05, -0.00011156806431245059, 0.00020569084153976291, -0.0004744938632939011, -0.0003040356677956879, 0.0004757863353006542, 0.0007386473007500172, -0.00015374808572232723, 0.0002606092893984169, 0.002430276945233345, -8.139201236190274e-05, 0.00044676841935142875, 0.0003005950420629233, 0.0003731324686668813, 0.0002196683781221509, -0.0020446251146495342, -0.0003532332484610379, 1.4092573110247031e-05], [0.0001816831063479185, 0.0007177349762059748, -0.0006998864701017737, 0.00017929536988958716, 0.0007332143140956759, 0.0002903809945564717, -0.0007152052130550146, -0.0001071771839633584, 0.00014886437566019595, 0.000447903701569885, -0.0004953483585268259, 0.0016631409525871277, -0.00044831540435552597, -0.0004120629164390266, -0.0003828805929515511, 0.0002652771945577115, -0.0001687478506937623, -0.00012751083704642951, 0.0019129998981952667, 0.00015088339569047093, -0.001191506627947092, -0.0008337906328961253, -2.4506356567144394e-05, -1.863340730778873e-05, -0.00024196863523684442, 0.0006147612002678216, -0.0006167384563013911, -0.00041479661012999713, -0.0001532379974378273, -0.0005782248917967081, 0.0010207138257101178, 0.00047255022218450904, 0.001735541969537735, -0.0011887314030900598, 0.0007550718728452921, 0.00010068266419693828, -0.000737152062356472, 0.000765775388572365, -0.00019775709370151162, 0.0016238372772932053, -0.000518695218488574, -0.00019042233179789037, -0.0015541049651801586, 0.0002899090468417853, -0.0001726719638099894, -0.0025023738853633404, -0.00021604448556900024, -0.0012307234574109316, -0.00014657298743259162, 0.000606548332143575, 0.0010336573468521237, -0.0006451458320952952, -0.0006232437444850802, -0.0003704384434968233, 0.0009145552176050842, -0.00019732225337065756, 0.0014958130195736885, 0.0008941994747146964, -0.0015865511959418654, -0.0004513867315836251, -0.0004446181410457939, -0.000769466336350888, 0.0001903866505017504, -0.00013605695858132094], [0.0012789687607437372, 0.0018140857573598623, -0.0002919213438872248, 0.0009815952507779002, -0.0006078685401007533, -0.001247216248884797, 0.0006561136688105762, 0.0019004528876394033, -0.001704614027403295, -0.0016426502261310816, 0.0011664108606055379, 0.001762213883921504, 0.0016629673773422837, -0.0005048565217293799, 0.0004982594400644302, -0.0005929619073867798, -0.0011871779570356011, 0.0008160588331520557, -0.0015041918959468603, 0.0007513822056353092, 0.0016660765977576375, 0.0009573878487572074, 0.0004774986591655761, -0.00026512742624618113, 3.205615939805284e-06, 0.000616177567280829, -6.971138645894825e-05, 0.0006647793343290687, 0.0001947223936440423, 0.001538797514513135, -0.0008087334572337568, -0.0007381853647530079, -0.000727545004338026, -0.0002856680075637996, 0.0008100190898403525, -0.0001313051616307348, 0.0006916745333001018, -0.0012522359611466527, 0.0007850790861994028, -0.00013884593499824405, 0.00011319760233163834, -0.0003631140280049294, 0.001858256757259369, -0.00029885981348343194, 0.001552083995193243, 0.0012435391545295715, 0.0007451622514054179, -0.00020430977747309953, 0.0005059746326878667, 0.00037312597851268947, -0.00018790822650771588, 0.0003990979166701436, -0.00018310999439563602, -0.00048031177720986307, -0.0003191769355908036, 0.0022515766322612762, -0.0003858372801914811, 0.0006055176490917802, 0.00018640229245647788, 0.0004324292531237006, 0.001913122134283185, -0.007139129564166069, -0.0006000993889756501, 0.00027830101316794753], [-4.5889404987065063e-07, 1.1739039109670557e-05, 8.023501152365498e-08, -1.7329508409602568e-05, -2.1954594558337703e-05, 6.133869646873791e-06, -1.891383908514399e-05, 2.6521342078922316e-05, -5.972749931970611e-06, 1.8708964489633217e-05, -4.915842055197572e-06, 2.969443994516041e-05, -6.472779432442621e-07, 4.613522378349444e-06, -2.335171666345559e-05, 1.0927617040579207e-05, 9.513956683804281e-06, 2.9947448638267815e-05, -2.121908255503513e-05, 0.000200934344320558, 1.671316204010509e-05, -2.3651602532481775e-05, -1.1811357580882031e-06, 9.682933523436077e-06, -3.6741141684615286e-07, -2.3878114006947726e-05, -3.36587959282042e-06, 2.9861103030270897e-05, 7.3338242145837285e-06, -1.1186876690771896e-05, 2.9225877369754016e-05, -5.5639036872889847e-05, 2.6003264792962e-05, -7.794116640980064e-07, 1.0726518667070195e-05, -5.351201707526343e-06, -5.652157142321812e-06, -1.7934116840478964e-05, 2.0944778952980414e-05, 8.312165846291464e-06, -1.1656939022941515e-05, -3.5978539472125703e-06, 5.47571835340932e-06, 9.188625881506596e-06, 1.2792239431291819e-05, 5.758629413321614e-06, -2.128055530192796e-05, 7.449208169418853e-06, -5.1086772145936266e-08, 1.4879641412335332e-06, 6.244935775612248e-06, -9.493857760389801e-06, -1.1950286534556653e-05, 4.805411663255654e-06, -4.1876064642565325e-05, 5.820241312903818e-06, 2.137019873771351e-05, 2.1946350443613483e-06, 3.7023578443040606e-06, 1.0899271728703752e-05, 8.792294829618186e-05, 0.0006429172353819013, -4.93864317832049e-05, 2.0688580661953893e-06], [7.353638648055494e-05, 2.3258420696947724e-05, -3.310146712465212e-05, 3.141203706036322e-05, -2.200399831053801e-05, -2.4181055778171867e-05, -7.421662303386256e-06, 3.1980787753127515e-05, -3.608800034271553e-05, -5.43458154425025e-05, -1.0612258847686462e-05, 6.396017852239311e-06, 4.536035703495145e-05, -7.576823918498121e-06, -2.8562673833221197e-05, -3.890242078341544e-05, -5.739726475439966e-05, 1.526784762972966e-05, 4.3061128963017836e-05, 0.0003269636945333332, 5.196998608880676e-05, -3.428417767281644e-05, 8.102066203719005e-06, 3.22983214573469e-05, -2.1813293642480858e-06, -4.449208518053638e-06, -4.5930314627185e-06, 2.786771256069187e-05, -1.6142560070875334e-06, 3.0726710974704474e-05, 1.9329005226609297e-05, -7.375692803179845e-05, 2.983918420795817e-05, 1.244055420102086e-05, 3.6094974348088726e-05, 1.160851024906151e-05, 1.151362721429905e-05, 3.170329364365898e-05, 6.455156835727394e-05, -1.1927211744477972e-05, -2.039539504039567e-05, -1.825832441681996e-05, -5.033157503930852e-05, -4.829398312722333e-05, 5.2378090913407505e-05, 2.5591700250515714e-05, -2.0566152670653537e-05, -3.1560812203679234e-06, 1.2614291335921735e-05, -4.3803065636893734e-06, 7.187245500972494e-05, 1.68956885318039e-05, -4.509961581788957e-05, -3.979235407314263e-05, -3.5830784327117726e-05, 2.7656628844852094e-06, -2.097120159305632e-05, -0.00010428642417537048, 3.845927494694479e-05, 1.3596894859801978e-05, 9.06129862414673e-05, 0.001038416288793087, -5.288478860165924e-05, -1.2036616681143641e-07], [3.348508244016557e-06, -5.301406781654805e-05, 2.979742248498951e-06, -2.7165631763637066e-05, 5.929666804149747e-05, 9.234703611582518e-06, -3.3004511351464316e-05, 0.0005060215480625629, 0.0001675771054578945, 6.744512938894331e-05, -4.988753789803013e-05, 0.0003230274305678904, -0.00013140556984581053, -4.835485015064478e-06, -3.761733023566194e-05, 5.30530815012753e-06, -0.0001708379277260974, 2.5065712179639377e-05, -0.0002901242405641824, 0.00039849261520430446, -3.647398261819035e-05, 0.00012410804629325867, 0.0005759584018960595, -3.4854620025726035e-05, -2.615187258925289e-05, -1.3560755178332329e-05, 7.17134025762789e-05, -3.6161436582915485e-06, -0.00016493385192006826, 0.00024639308685436845, -0.0003866248589474708, -4.983067628927529e-05, 0.0001805327774491161, -0.0001338494912488386, -0.0001372834958601743, 5.2090021199546754e-05, 5.2870545914629474e-05, -0.00023060217790771276, 0.00015901788719929755, 1.083903043763712e-05, -0.00020565988961607218, -6.675951590295881e-05, -0.00016168810543604195, 2.405397390248254e-05, -0.00013714184751734138, 1.3090786524116993e-05, -2.044003485934809e-05, 0.0003051279636565596, 7.255402306327596e-05, -6.198570190463215e-05, 7.785465277265757e-05, 7.017672032816336e-05, 0.0003512386465445161, -2.130749635398388e-06, -0.0001552147587062791, 2.973471964651253e-05, -0.00015245546819642186, -0.00025045659276656806, 0.00012839697592426091, 0.0001437603496015072, 0.00044565543066710234, 0.0003588861145544797, -9.467780182603747e-05, -9.516681893728673e-05], [0.00011199281289009377, 9.463681635679677e-06, -3.5579643736127764e-05, 0.00033282587537541986, 0.000317446596454829, 0.00013513692829292268, -8.72621894814074e-05, 0.0003195489989593625, -0.0005041342228651047, -0.0003472360549494624, -4.4472708395915106e-05, 0.00016255921218544245, -0.00016064374358393252, -0.0005417172214947641, 2.627487265272066e-05, 9.638177289161831e-05, -0.0004947488196194172, 0.0001936023181769997, 0.00015923450700938702, 0.0009501252789050341, -0.00010348201612941921, 7.643333810847253e-05, 0.0012995126890018582, 0.00011769535194616765, -2.8715123335132375e-05, -1.1544143490027636e-05, 2.425523052806966e-05, -0.00026765846996568143, -0.0002017441438511014, -3.091222606599331e-05, -0.001251836190931499, -7.500698120566085e-05, -0.00021597507293336093, 4.0781553252600133e-05, -8.129538764478639e-05, -0.0006212073494680226, 0.00016127980779856443, -0.00048157951096072793, 0.00030302259256131947, -0.00020743186178151518, -0.00019455200526863337, -0.00014415568148251623, -0.00035867534461431205, 9.054638212546706e-07, 1.0676763849915005e-05, 0.00032111970358528197, -0.00019684864673763514, 0.0005013670888729393, 0.0004526372067630291, 6.565824151039124e-05, 0.00016320303257089108, 0.00021601334447041154, 0.00013539465726353228, -0.00034255615901201963, -0.0003278791264165193, 4.124824044993147e-05, -0.0009285913547500968, -0.0004985764971934259, 0.00035861265496350825, 0.0002549328200984746, 0.00016778339340817183, 0.0029460538644343615, -0.00039769316208548844, -0.00015877351688686758], [-0.0012526665814220905, 0.0004143627593293786, -0.00037228662404231727, 0.00014614456449635327, -0.0004285526229068637, 7.987315620994195e-05, -0.0005128976772539318, -4.115028423257172e-05, -4.0230224840343e-07, 0.00026142955175600946, 0.0008632705430500209, 0.00196664035320282, -0.00043880537850782275, -0.0001069642894435674, -0.0004510962753556669, -0.00019236718071624637, -0.000589922012295574, -0.0017747069941833615, -0.0009597805328667164, 0.0008269983227364719, 0.00010973501775879413, -0.00038143713027238846, -7.492253644159064e-05, -0.0002722814097069204, -1.0984651453327388e-05, -0.000385666498914361, -0.0003595825983211398, 0.00010148077853955328, -4.1266863263444975e-05, -0.0005876522045582533, -0.0005645419587381184, 0.0007016393938101828, 0.00037799804704263806, -0.00011749655823223293, 0.0004654185613617301, -0.000298808328807354, 0.0005056610098108649, -0.0002523438015487045, 0.0013445087242871523, 0.0008455798961222172, 0.0003480327723082155, 8.384240936720744e-05, -0.000282113382127136, -4.465697566047311e-05, -0.000418349402025342, -0.00029775156872346997, 0.00013139174552634358, 0.0015690529253333807, 0.0008903901325538754, 0.00040187148260883987, 0.00038854830199852586, 0.00022353840176947415, 8.236814755946398e-05, -0.00039059040136635303, -0.0007145178387872875, -6.829739140812308e-05, -0.00028310302877798676, -0.0012943386100232601, -3.218136407667771e-05, 1.5806443116161972e-05, -0.0009221535874530673, -0.0017849236028268933, 0.00014976123929955065, -0.0005436881328932941], [-0.0008835765765979886, 0.0013774820836260915, -0.0003197532205376774, -0.0005711379926651716, -0.0011750286212190986, -0.0005806798581033945, -0.0001870929991127923, 0.00194618571549654, -0.0023251776583492756, -0.001074224361218512, 0.0015502350870519876, -0.00017200183356180787, 0.0011033103801310062, 0.00023953108757268637, 0.0009363179560750723, -0.000796521722804755, -0.0006774859502911568, 0.001550086191855371, -0.00016297285037580878, -0.0009532638359814882, 0.0008026257273741066, 0.0003700622182805091, 0.0007214525248855352, 0.0007403937634080648, 4.186926526017487e-05, -0.0002233806881122291, -0.0004879326734226197, 0.0011189308715984225, 0.00020457987557165325, 0.000724022276699543, 3.0625211365986615e-05, -0.0007240864215418696, -0.0007955060573294759, -0.0005640398594550788, 0.0005592455854639411, -0.0008211138192564249, 0.0008992787916213274, -0.0014436935307458043, 0.0008596819825470448, -0.0006862595910206437, -0.0008447830914519727, 0.00043571789865382016, -0.0006207767874002457, -0.0011088320752605796, 0.0003597488976083696, 0.0004658654215745628, -0.00029570155311375856, 0.001330971485003829, 0.0005586344632320106, -0.0003160324413329363, -0.000548428506590426, 0.0005297514144331217, -0.0003719787346199155, -0.0007282719016075134, -0.0011929748579859734, 0.0005870123859494925, -0.0009250885341316462, -0.0010018169414252043, 7.617103983648121e-05, 0.0005083304131403565, -0.00041774794226512313, 0.0002446404832880944, -0.0014585433527827263, 9.600166231393814e-05], [0.0005540811689570546, -0.00036923354491591454, 0.00034960941411554813, -0.0006071141688153148, 0.002263532718643546, 0.00031585784745402634, 0.0010612602345645428, -0.000521378533449024, -0.0015054267132654786, 0.000537572312168777, 0.00039842340629547834, 0.0018312281463295221, -0.0002658198354765773, 0.0019011591793969274, 0.0012363132555037737, -0.00010752063826657832, 0.0011014139745384455, 0.0020877313800156116, -0.0003984002396464348, -0.0007713428349234164, 0.0018818529788404703, -0.0009758663363754749, 0.0023158628027886152, -0.0018920742440968752, 0.0004882817738689482, -0.0006609714473597705, 0.0010977232595905662, -0.001133748679421842, -9.884611063171178e-05, -0.0007138296496123075, 0.0036554692778736353, -0.0027857557870447636, 0.00024730555014684796, -0.0006679713260382414, 0.00045556662371382117, 0.0005960011621937156, 0.00021253703744150698, -0.0003724249545484781, 0.000655351672321558, 0.0010532137239351869, 0.0011776621686294675, -0.0004228953621350229, -0.0019966408144682646, 0.0018810158362612128, 0.0008135325042530894, 0.00012551841791719198, 0.0008887231233529747, -0.0012276200577616692, -0.0007904678350314498, 0.0016200109384953976, 0.0004205862933304161, -0.00037987949326634407, -0.00017171050421893597, 0.00032756890868768096, -0.0012695306213572621, -2.8009992092847824e-05, -0.001433870755136013, -0.002993813017383218, 0.002043388085439801, -0.0003307125298306346, -0.0013605125714093447, 0.0010765554616227746, -0.002465289318934083, -0.0005837616045027971]], [[0.0009048669598996639, 0.0008756003226153553, -0.0004703150480054319, 0.00286786537617445, -0.00013261043932288885, 0.00011688943777699023, -0.0009151944541372359, 0.0001991434837691486, -0.00034775413223542273, -0.0012808083556592464, 0.0016851491527631879, 0.0001562316610943526, 0.00015460207941941917, 0.000789790297858417, -0.0004354937991593033, -0.0001231572823598981, -0.0005929576582275331, 0.002604363253340125, -0.0002472935011610389, -0.00066499033709988, 0.0008269515819847584, 0.0010190318571403623, 0.00023718312149867415, -0.000320745661156252, -0.0007921509677544236, 0.00020836600742768496, -0.000532123725861311, 0.00015033251838758588, 0.0001738943683449179, 0.001325533026829362, 0.0008714428404346108, -0.0002601372543722391, 0.0002873339399229735, -0.0002868867595680058, 0.0008889279561117291, 0.0005576835246756673, -0.0004068966081831604, -0.00011460488894954324, -0.0005310254637151957, 0.0004306803166400641, 0.0002579470747150481, 0.0008318863692693412, 0.0009921928867697716, 0.0002917130768764764, -0.00035383595968596637, 0.0007884941878728569, 1.8716556951403618e-05, -0.00024637143360450864, 0.002285596216097474, 2.9401184292510152e-05, -0.00012988891103304923, 0.0015653972513973713, -0.001534577226266265, -0.0006050468073226511, -0.0004014497681055218, 0.000247313582804054, -0.001864599296823144, -0.0001672020589467138, -0.00013065288658253849, 5.338751361705363e-05, -0.0006376181845553219, -0.004003910347819328, -0.0014207289787009358, -0.00016320761642418802], [-8.40448137751082e-06, 1.0037413630925585e-05, -3.985320745414356e-06, -5.13206623509177e-06, 4.951368737238226e-07, -2.606999487397843e-06, 4.622714641300263e-06, 3.56555597136321e-06, 4.3950822714577953e-07, -5.728218184231082e-06, 9.324776328867301e-06, 3.3847677514131647e-06, 7.618984454893507e-06, 5.781585514341714e-06, -1.1967048521910328e-05, -2.8706879220408155e-06, 2.522598947507504e-07, 1.3553015378420241e-05, -1.1682092917908449e-05, -5.731217243010178e-07, -1.4905202078807633e-05, 6.706643944198731e-06, -1.2148552741564345e-05, -8.668946975376457e-06, -1.3993395441502798e-05, -1.0449569344928022e-05, 3.8693478927598335e-06, -7.0040100581536535e-06, -7.82873712523724e-07, 4.604715286404826e-06, 1.0873335668293294e-05, 6.6576944846019614e-06, 1.6260954680547002e-06, 2.5745550829014974e-06, -1.2335497103777016e-06, 9.83845097835001e-07, 6.89037051415653e-06, 9.059991498361342e-06, 1.2350194083410315e-05, -2.457622485962929e-06, -2.1990792902215617e-06, -8.717063792573754e-06, 7.5878651841776446e-06, 6.879067768750247e-06, -3.6986828035878716e-06, -5.761119155067718e-06, -4.6685331653861795e-06, 6.121181286289357e-06, 2.5646395442890935e-06, 5.750998752773739e-06, -4.602927674568491e-06, -5.203445994084177e-07, 8.996477845357731e-06, -1.6600532035226934e-05, -1.3679662515642121e-05, -1.6420479369116947e-05, 9.594816674507456e-07, 6.794884939154144e-06, -2.152882643713383e-06, 1.0711930372053757e-05, 9.885724239211413e-07, 1.156242342403857e-05, -1.3123471944709308e-05, -8.541367151337909e-07], [1.1920048564206809e-05, -4.206076482660137e-05, -1.2118673112126999e-05, -1.757883364916779e-05, -1.866250386228785e-06, 3.0754565614188323e-06, 2.926214165199781e-06, 3.305685822851956e-07, -1.7269721865886822e-05, -2.0409555872902274e-05, -2.4384051357628778e-05, 4.731034277938306e-05, 2.0029692677780986e-05, -1.8877217371482402e-06, 3.2644027669448406e-05, 3.302349796285853e-06, -3.3357642678311095e-05, 5.352598964236677e-05, 1.4265254321799148e-05, 2.692162524908781e-05, 3.990831464761868e-05, 1.353053085040301e-05, -1.6464682630612515e-05, -2.7546917408471927e-05, -2.5032119083334692e-05, 1.446873829991091e-05, 1.7244954506168142e-05, -3.5101752473565284e-06, -6.848059683761676e-07, 9.270715963793918e-06, -2.394274815742392e-05, -7.556234777439386e-06, -8.107144822133705e-06, 2.442775439703837e-05, -3.5486664273776114e-05, 7.406057193293236e-06, 2.14325227716472e-05, 4.036633617943153e-05, -1.3774772014585324e-05, 6.538304660352878e-06, 3.436559381952975e-06, -2.971261892525945e-05, 3.06313595501706e-05, 2.629547452670522e-05, 5.054962821304798e-05, 5.686851181962993e-06, 1.4783961887587793e-05, -4.369728412711993e-05, -1.4402145097847097e-05, 1.0245527846564073e-05, 9.339008101960644e-06, -2.659334313648287e-06, -3.0370527383638546e-05, -3.902451499016024e-05, 6.273483450058848e-06, -4.0827990233083256e-06, -1.833369242376648e-05, -4.421067842486082e-06, -9.820849300012924e-06, 7.498954801121727e-06, -5.146290277480148e-05, 3.486991408863105e-05, -6.33255558568635e-06, -1.829688153520692e-05], [-1.4239278243621811e-05, 6.133296847110614e-05, -4.804605123354122e-05, 1.761199746397324e-05, 5.996194886392914e-05, 4.7829274990363047e-05, -4.441032069735229e-05, 8.195933332899585e-06, -2.178705472033471e-06, 8.922158303903416e-05, -0.00010277351248078048, -4.520350557868369e-05, -3.463286702753976e-05, 2.2930837076273747e-05, 3.709461452672258e-06, -3.2455543987452984e-05, -5.725583105231635e-05, -6.25167231191881e-05, -1.8240223653265275e-05, -0.0003839998971670866, -4.210275074001402e-05, 5.086510282126255e-05, -4.574732156470418e-05, 3.9320548239629716e-06, 1.756697747623548e-05, 1.1463848750281613e-05, -2.608900103950873e-05, -1.799737583496608e-05, 3.124665090581402e-05, -1.0180270692217164e-05, 0.00010078202467411757, 5.093624349683523e-05, -3.7736885133199394e-05, 1.9233788407291286e-05, 8.577601693104953e-05, 4.283058297005482e-05, -5.081856215838343e-05, 2.770739229163155e-05, -4.718988202512264e-05, 1.9310609786771238e-05, -9.37791119213216e-05, 3.962402115575969e-05, -9.182884969050065e-05, -6.19855745753739e-06, 1.0748488421086222e-05, -5.733950820285827e-05, -2.457891241647303e-05, -0.00011339630145812407, 1.7107813619077206e-05, -9.964060154743493e-06, 4.724132304545492e-05, -2.8792943339794874e-05, 2.999604112119414e-05, -7.43664895708207e-06, -1.0978843420161866e-05, -0.00011846720008179545, 6.950116221560165e-05, -2.148802377632819e-05, -9.835553100856487e-06, -4.419535616762005e-05, -4.573824844555929e-05, -0.0010910230921581388, -7.765318514429964e-06, 1.1369522326276638e-05], [-0.0002946489548776299, 0.0008146626641973853, 3.275348717579618e-06, -0.0004554183396976441, -0.00010398290760349482, 5.6835262512322515e-05, -0.00019008186063729227, 4.426297527970746e-05, 0.00016464394866488874, 0.0001650865888223052, -0.0001814747229218483, 0.0007023380603641272, -0.0004517285560723394, 0.0004571891622617841, 0.0003599926130846143, 2.9681792511837557e-05, -0.0001579985546413809, -0.00010667314927559346, 0.00013169819430913776, -0.0007615247741341591, -0.0006894318503327668, -0.0001780343591235578, -4.129422450205311e-05, -9.443974704481661e-05, -4.7934416215866804e-05, -0.00011424299736972898, -0.00018658462795428932, 1.9297251128591597e-05, 7.165063288994133e-05, 7.322679448407143e-05, 0.0007066935650072992, 0.000736757181584835, 0.00036693987203761935, 0.00020928255980834365, 5.998081178404391e-06, -0.0002935481898020953, -0.0004949326976202428, 0.0010242813732475042, -3.0681538191856816e-05, 0.00027912104269489646, 0.0003152289136778563, -0.00026365905068814754, -0.0003490744566079229, 0.0005923714488744736, 0.0004069274291396141, -0.00044618925312533975, -0.00040053020347841084, -0.0001858655596151948, 0.00013917655451223254, 0.00017084053251892328, 0.00012745734420605004, -0.0002906362060457468, -0.00019342669111210853, -0.0001366584183415398, 0.00013581797247752547, -0.000802644353825599, 0.00013045943342149258, -0.00039144238689914346, -0.0001597927330294624, -0.0001103538234019652, 9.905540355248377e-05, -0.0036113341338932514, -0.00034496659645810723, -0.0001154951096395962], [-4.80819508084096e-05, 0.0006980118341743946, -0.00019051214621867985, -0.0003130126860924065, 0.0007835631840862334, -0.00023537386732641608, -0.0005292237037792802, 0.000314887409331277, 0.00029960405663587153, 1.9834638806059957e-05, -0.0004634102515410632, 0.0005139305721968412, -0.0006380141130648553, 0.0007844644715078175, -0.0003310648608021438, 0.00015425501624122262, 0.00021550965902861208, 0.00041644799057394266, -1.4420045772567391e-05, 0.00017664532060734928, -0.0008175500552169979, 5.3017000027466565e-05, -0.00025425865896977484, -0.0003021804732270539, -0.0002482487470842898, 0.00022821749735157937, -0.0003770772600546479, -0.00035612459760159254, 4.910634379484691e-05, -0.00024023340665735304, -0.0008440850069746375, 0.0003981884219683707, 0.0008656084537506104, 2.359476638957858e-06, 0.0011385615216568112, -0.0007262660074047744, -0.00014674823614768684, -8.618657011538744e-05, -0.00035155939985997975, 0.0008315965533256531, 0.0002901692932937294, 3.047444624826312e-05, 0.0004074806929565966, 0.00034019388840533793, -0.0001973608013940975, -0.00039274973096325994, -0.00045015665818937123, -0.0004811955150216818, 0.00026528548914939165, 0.0005347774713300169, 2.368364584981464e-05, -0.000470833940198645, -0.00011375875328667462, -0.0002432843903079629, 0.0003496900899335742, 0.0011677623260766268, 8.835388871375471e-05, -0.00028502498753368855, -0.0006521694594994187, -0.0001783956540748477, -0.00034505504299886525, -0.0007934374734759331, -8.779072959441692e-05, 0.00031289272010326385], [0.0014654806582257152, 0.0002991021901834756, 0.00031654443591833115, -0.0002666464715730399, -0.0009512881515547633, 0.0002462323463987559, -0.0005341810174286366, 0.0010925770038738847, -0.00027267332188785076, 0.0008319009793922305, -0.0012832721695303917, 0.0003478681028354913, -0.0013532849261537194, -0.0003128611424472183, 0.001415501581504941, 0.00012604845687747002, 0.0001613654603715986, 0.002142376499250531, 0.0008280111360363662, -0.0004895442980341613, -0.0016777815762907267, -0.00020588483312167227, -0.0005436399951577187, 0.00043081396142952144, 0.00038641528226435184, 0.0001339147420367226, -0.000292138138320297, 6.961800681892782e-05, 3.7768782931379974e-05, 0.00030304869869723916, 0.00017327173554804176, 0.0002702139609027654, 0.0002467625599820167, 0.0006862296722829342, -0.0010387140791863203, 0.00033966382034122944, -0.000377964781364426, -0.0005926128360442817, -0.0017121669370681047, 0.0010776454582810402, -0.0015937834978103638, -0.0004321211017668247, 2.599343133624643e-05, 7.913747685961425e-05, -1.3312179362401366e-05, -0.001785284373909235, -0.0017373901791870594, -0.001042114570736885, 0.0015099210431799293, -0.0003618976043071598, 0.000147982471389696, 0.00017029925948008895, 0.001306775026023388, -0.00010260671842843294, 0.0007810593815520406, -0.0006602475186809897, 0.0004975509364157915, 0.0013912846334278584, -0.0003254245384596288, 0.00012272209278307855, 0.0003080041497014463, -0.0032742044422775507, -1.4503828424494714e-05, 0.0007331108208745718], [-4.316447302699089e-06, 0.00012612828868441284, -0.0002984674647450447, 0.0029455702751874924, 0.0005087448516860604, 0.00042208857485093176, -0.000301015010336414, 0.0018824825529009104, -0.0009754159837029874, -0.001436231890693307, 0.0002443007833790034, 0.0005949030164629221, 0.002222340553998947, -0.0002554930979385972, -6.979733007028699e-05, -0.0004387503140605986, -0.0008551115170121193, 0.0041015539318323135, 0.0002740407071541995, 0.001986522227525711, 0.00195019762031734, -0.0011447379365563393, 0.0018203570507466793, 0.0006295979837886989, -7.82641363912262e-05, 8.290969708468765e-05, 0.0010244306176900864, -0.00020261446479707956, -0.00014495992218144238, 0.0006591804558411241, 0.0009764280403032899, -0.0015987853985279799, -0.00038921574014239013, 0.0009489243384450674, 0.0008907180745154619, -0.00219647865742445, 0.002386170206591487, 8.043440175242722e-05, -0.0002699999895412475, 2.952112117782235e-05, -0.0010173360351473093, 0.00037450395757332444, -5.442049587145448e-05, -0.0010728018824011087, -0.001635196153074503, 0.0028524852823466063, 0.0005942947464063764, 0.0014034495688974857, 0.0018740298692137003, -0.000136746748466976, 0.0001568952575325966, 0.00177518290001899, 0.0007921620854176581, -0.000623891013674438, -0.0004371186951175332, 0.003590592183172703, 0.002480932045727968, 0.0009394357912242413, -0.00046907004434615374, 0.0005866970750503242, 0.0009688868303783238, -0.00032144750002771616, -0.00017555855447426438, -0.0016805403865873814], [-3.2756295695435256e-05, 1.4308166100818198e-06, 2.518276232876815e-05, 1.5855372112127952e-05, 2.0378773115226068e-05, 9.160585250356235e-06, 7.824330168659799e-06, -3.163356814184226e-05, 1.4879105037834961e-05, -9.345118996861856e-06, -5.939893526374362e-06, -5.698564928025007e-05, 1.8842654753825627e-05, 1.3294666132424027e-05, 1.8187856767326593e-06, -1.1332012945786119e-05, 4.217132300254889e-05, 0.00010699581616790965, 3.306482176412828e-05, 0.0002000099775614217, 1.0389480848971289e-05, -1.3608755580207799e-05, 1.1400885341572575e-05, 1.6606250937911682e-05, -2.5649320377851836e-05, 3.888006176566705e-06, -1.8276106175107998e-06, 5.410491212387569e-06, 4.1750695345399436e-06, -9.353314453619532e-06, 6.92190442350693e-05, -4.297456325730309e-05, 2.0960291294613853e-05, 5.4473548516398296e-05, -2.6834989057533676e-06, -1.2450243048078846e-05, 1.1460782843641937e-05, -6.54348696116358e-06, 5.900241376366466e-06, -5.318652711139293e-06, 6.0170750657562166e-05, -1.8580240066512488e-05, 2.8055826987838373e-05, 2.0195209799567237e-05, 1.2613271564987372e-06, 2.0597966795321554e-05, -5.644171778840246e-06, -5.2059626796108205e-06, 9.629258784116246e-06, -4.0269569581141695e-05, 2.278367674080073e-06, -3.32888021148392e-06, 2.5721947167767212e-05, -2.0334962755441666e-05, -5.204748595133424e-05, -1.089255056285765e-05, 6.07638357905671e-05, 2.856956962205004e-05, 1.015661473502405e-05, 2.4230901544797234e-05, 3.157179889967665e-06, 0.00044501092634163797, 2.4739336367929354e-05, -2.391882117080968e-05], [1.8143524357583374e-05, 5.150433935341425e-05, -1.1271059520367999e-05, 2.3382224753731862e-05, -2.86649137706263e-05, -1.096190430871502e-06, -5.911660991841927e-07, 7.940686191432178e-05, -8.032878395169973e-05, -5.754802987212315e-05, -2.1345245841075666e-05, -3.222061423002742e-05, 5.693999628419988e-05, 5.706297997676302e-06, 3.035253939742688e-06, -2.7759231670643203e-05, -2.097726974170655e-05, 0.00012573595449794084, 5.188625800656155e-05, 0.0004230430640745908, 3.356964225531556e-05, 1.5971928633007337e-06, 2.207093348260969e-05, 5.17554726684466e-05, -5.49033866263926e-05, 1.8028275007964112e-05, 9.74462182057323e-06, 8.619103937235195e-06, 1.8114038539351895e-05, 7.445775554515421e-05, 7.131844176910818e-05, -3.425867180339992e-05, -4.447160608833656e-05, 0.00011518932296894491, 5.1828130381181836e-05, -1.2211738066980615e-05, 5.835029514855705e-05, 8.676199649926275e-05, 4.74297339678742e-05, -2.223164301540237e-06, -3.6610199458664283e-06, -2.268036041641608e-05, -2.7375479476177134e-05, 1.1928748790523969e-05, 1.1683559932862408e-05, 7.262953295139596e-05, -1.2327154763625003e-05, -1.9832297766697593e-05, 3.3417170925531536e-05, -6.131943518994376e-05, -1.6206802683882415e-05, 1.769765185599681e-05, 3.0135141059872694e-05, -7.848493987694383e-05, -6.990502879489213e-05, -5.576556304731639e-06, 7.814093987690285e-05, -1.8106942661688663e-05, 1.3552667951444164e-05, 2.7072328521171585e-05, 2.2711579731549136e-05, 0.0010032551363110542, -3.58413381036371e-05, -1.1192194506293163e-05], [-0.00017871632007882, -0.0002260492619825527, 5.624094046652317e-05, -0.00028595677576959133, -1.9156814232701436e-05, 5.8935176639351994e-05, -1.0333897080272436e-05, 0.00023458538635168225, -0.00019452421111054718, 8.039845852181315e-05, 1.551915192976594e-05, 2.503249197616242e-05, 2.4954337277449667e-05, -2.4881635908968747e-05, -3.921374445781112e-05, 6.294959894148633e-05, -0.00012425451132003218, 3.600093623390421e-05, -0.00021834857761859894, -0.0004497545014601201, 4.8656336730346084e-05, 0.00020460161613300443, -8.890082244761288e-05, -0.00043704509153030813, -0.00021977670257911086, 7.52333871787414e-05, 4.4983913539908826e-05, -0.00017035016207955778, -8.402553794439882e-05, 0.00048528509796597064, -0.000260659318882972, 0.00020868988940492272, -0.000200796959688887, -0.0002007999282795936, -8.205448102671653e-05, 0.00032510358141735196, 7.652548083569854e-05, -6.735499482601881e-05, -3.210327849956229e-05, 2.302054053870961e-05, -0.000693326408509165, 4.56614579888992e-05, 0.00031982280779629946, -0.00012336406507529318, 9.169428085442632e-05, -0.00010414457938168198, 8.196600538212806e-05, 8.774469461059198e-05, -1.9194969354430214e-05, -7.943066884763539e-05, -0.0002971800568047911, -8.678770973347127e-05, -4.170657484792173e-05, -3.960044705308974e-05, -0.0001011628337437287, -0.00039040474803186953, -0.0002458444214425981, 0.00021696243493352085, -7.256832759594545e-05, 7.57848029024899e-05, 0.0005150937358848751, 0.0005732979625463486, -3.296685463283211e-05, -9.32311377255246e-05], [0.00020734431745950133, 0.00017870213196147233, -4.523533789324574e-05, -5.366084224078804e-05, 0.0003626339021138847, 0.0001356428547296673, -0.00013044335355516523, 7.534637552453205e-05, -0.00040772941429167986, -6.67306303512305e-05, -0.00023012715973891318, -0.0010066042887046933, -0.0003055962733924389, 4.799733142135665e-05, 1.9305436580907553e-05, 0.0001554131886223331, -0.0004891706630587578, 0.0004795670974999666, 0.0003355949302203953, -0.0014346205862239003, -5.8862297009909526e-05, 7.083678792696446e-05, -8.525143493898213e-05, -0.0006654999451711774, -6.655642937403172e-05, 7.376989378826693e-05, -0.0003380445414222777, -0.0006204618257470429, -0.00028622226091101766, 0.0005957074463367462, -0.0007500863284803927, -8.60586587805301e-05, -0.00017539813416078687, -4.3353240471333265e-05, 0.0004848153912462294, 0.0001537464268039912, -6.202483200468123e-05, -7.826161163393408e-05, 1.0472613212186843e-06, 0.00014474424824584275, -0.0009135350119322538, -9.171269630314782e-05, -0.0004361684259492904, -0.00013181951362639666, 0.0007162804249674082, 0.00025833980180323124, -0.0005859795492142439, -0.00010366491915192455, 0.00013495248276740313, 0.0001302506134379655, -0.00014422397362068295, -0.00016680770204402506, -8.17072723293677e-05, -9.82399214990437e-05, -0.00016616913489997387, -0.000762230425607413, -0.0009550277609378099, 0.00024658729671500623, 3.0418741516768932e-06, 4.8305468226317316e-05, 0.0003135832375846803, -0.0014765826053917408, -0.000185592652997002, 9.113951091421768e-05], [0.00021907954942435026, -0.0004603654961101711, -0.0002883013221435249, 0.00047777517465874553, 3.276654751971364e-07, 0.00015532363613601774, -0.00035515252966433764, 0.00047052232548594475, 0.0005542762228287756, -0.00017939097597263753, 0.0001696679537417367, -0.00022334649111144245, -0.00024323225079569966, 0.00041747026261873543, -0.00039518633275292814, -0.0001840343902586028, -0.0004240332345943898, 0.0002951436035800725, -0.0001898860209621489, 0.0012967013753950596, 0.00014286584337241948, 0.0004131316381972283, -5.1669216190930456e-05, -0.0003683252725750208, -5.999633140163496e-05, -0.000119019765406847, -1.352251274511218e-05, -0.00029710325179621577, 2.9253467801027e-05, 0.0007609616150148213, 0.00034783929004333913, -0.0002929598849732429, 0.0003822891740128398, -0.0001396991137880832, 4.781968891620636e-05, 0.0009068240178748965, 0.00018660296336747706, 0.00021482897864189, 0.0005990396603010595, 0.00044111828901804984, -0.00038633201620541513, 0.00014001206727698445, 0.0008206962957046926, -0.00023225604672916234, -0.0006707994034513831, -0.0005258435849100351, 0.0005314506706781685, 0.00015877102850936353, 0.0005511868512257934, -0.0002435070346109569, 0.00015135842841118574, 0.00034744138247333467, -0.0003351738560013473, -0.0006336716469377279, 0.0003670910664368421, 3.086257493123412e-05, -7.398091111099347e-05, 3.467980423010886e-05, -2.693943679332733e-05, -1.4373512385645881e-05, -0.0021671075373888016, 0.0011921738041564822, 0.00019379990408197045, -0.00021686966647394001], [9.957123984349892e-05, 0.0025270250625908375, -0.00032601310522295535, -0.0008705622749403119, -0.0005447744624689221, 0.00010451709385961294, -9.817680984269828e-05, 0.0014584866585209966, -0.0007004132494330406, 0.00010489954729564488, 2.708262763917446e-05, 0.000806001597084105, -0.0012210613349452615, 0.0021980302408337593, 0.001649337587878108, -0.00041990698082372546, 0.0005650788079947233, 0.0006007488118484616, -2.6655412511900067e-05, -0.0019950317218899727, -0.00036051784991286695, -0.0002522517170291394, 0.0007144934497773647, 0.00013891950948163867, 0.00016159898950718343, 0.00023000233341008425, -0.0004344720800872892, -0.00025071913842111826, -7.136859494494274e-05, 0.00044344973866827786, 0.00015597266610711813, 0.00041037832852452993, 0.0006290074670687318, -0.0010587903670966625, 0.0007154451450332999, -0.0021154743153601885, -0.0010209194151684642, -7.072053995216265e-05, -0.0009253912139683962, 0.0002394200419075787, -0.000983483623713255, -0.00018373294733464718, -0.0010458300821483135, 0.00011798948980867863, 0.0010011219419538975, -0.000703020952641964, -0.0014213931281119585, -0.0013918227050453424, 0.0023347276728600264, 0.0011505000293254852, 0.00106397969648242, 0.00042000366374850273, -6.0703961935359985e-05, -0.000518443644978106, 1.4899225789122283e-05, 6.992783164605498e-05, 0.0008792930748313665, -0.00010216975351795554, -0.00020392859005369246, 0.00026667388738133013, -0.000888772017788142, -0.003085845150053501, -0.00021041015861555934, 0.0001792281400412321], [0.0005759897758252919, -0.0004944974789395928, 0.0003303001867607236, -0.0006188444094732404, 0.0013533055316656828, -5.6534845498390496e-05, 0.0010237372480332851, -0.0007630807813256979, -0.0023985509760677814, 0.0006965676438994706, 0.0005689475801773369, 0.0017050543101504445, -0.00036995369009673595, 0.0016575761837884784, 0.001338348025456071, 1.1670432286337018e-05, 0.0010045507224276662, 0.0015765952412039042, -0.00033657648600637913, -0.00016611593309789896, 0.0023085009306669235, -0.0009924881160259247, 0.00223195250146091, -0.0018820088589563966, 0.000454892055131495, -0.0007327724597416818, 0.0010683602886274457, -0.0011736962478607893, -7.14768684701994e-05, -0.00101468653883785, 0.004312275443226099, -0.002662896178662777, 6.597506580874324e-05, 0.00010397919686511159, 0.0007748635252937675, 0.0007114202016964555, 0.0003718219231814146, -0.00014271039981395006, 0.0007221992127597332, 0.0009661461808718741, 0.0011182507732883096, -0.0003516130964271724, -0.0021711818408221006, 0.001968272030353546, 0.001300192205235362, -0.000635913573205471, 0.0010765043552964926, -0.0013643153943121433, -0.000775834487285465, 0.0012133773416280746, 0.0002367248962400481, -0.0004503917880356312, 0.0006855615647509694, -0.00015622009232174605, -0.0012129240203648806, -0.00012834457447752357, -0.0012629488483071327, -0.0030307387933135033, 0.002019802574068308, -0.00036989356158301234, -0.0008978021796792746, 0.001319252303801477, -0.002533957129344344, -0.0003553800634108484]], [[0.0017645939951762557, -0.00019838777370750904, 0.00019954344315920025, 0.0009929351508617401, -0.0004739119904115796, 6.281089736148715e-05, -0.00024719361681491137, 0.0002392925671301782, -0.0004690972273238003, -0.0003075515851378441, -0.0008096563396975398, 0.0003362298011779785, 4.0289160097017884e-05, 0.001375196035951376, 8.028338197618723e-05, -0.0002194182452512905, -0.00041757107828743756, 0.003018831368535757, 0.0013817206490784883, -0.0002583697787486017, -0.00015714613255113363, -0.0013338818680495024, 0.0005464850692078471, -0.000650386034976691, 0.00026133217033930123, 0.0012051977682858706, 0.00041052757296711206, -0.0007380772149190307, -0.0004926538676954806, -0.00022567273117601871, 0.0016805637860670686, -0.0005419974331744015, 0.001025203731842339, 0.00018291290325578302, 0.0007904577068984509, -0.002205486176535487, 0.0001898024493129924, 0.0005016595823690295, -0.0005126824835315347, 0.001080394722521305, -0.0001282469747820869, 0.000610805640462786, 0.00021502806339412928, -0.0002610122610349208, -0.00037350598722696304, 0.0004091886803507805, -0.001601367723196745, -8.824799442663789e-05, 0.0023620291613042355, -0.0003227156412322074, 7.0409027102869e-05, 0.0010986808920279145, 0.0003034897381439805, -0.0005025090067647398, 0.0004186921869404614, 0.0014963122084736824, 0.0021315489429980516, -0.00048455066280439496, -0.0004707623738795519, 0.00010818168084369972, -0.0009152529528364539, -0.006471858359873295, -0.0006068287184461951, -0.0012434248346835375], [8.6220306911855e-06, 1.1217651262995787e-05, -1.2810913858629647e-06, 4.357426860224223e-06, -8.323795555043034e-06, 2.564187298048637e-06, -2.940142394436407e-06, 1.4042175280337688e-05, -4.799367161467671e-06, 1.1473365702840965e-05, 3.908169674105011e-06, -1.2634612176043447e-05, -6.658433903794503e-06, 3.727967623490258e-06, -1.1823584827652667e-05, 6.349162049446022e-06, -1.5331831946241437e-06, 3.423553152970271e-06, -1.1321173587930389e-05, 4.35329093306791e-06, -4.032406650367193e-06, -1.2200000128359534e-05, 4.493473625188926e-06, -6.614229732804233e-07, -5.14024304720806e-06, 5.268203949526651e-06, -8.493014320265502e-06, -1.0225328878732398e-05, -1.9038118352909805e-06, 5.190591309656156e-06, -2.7369344479666324e-06, -6.089721864555031e-06, 1.516587144578807e-05, -4.8861097639019135e-06, 1.118654472520575e-05, 6.4282417042704765e-06, -5.347767910279799e-06, 2.83229667275009e-07, 3.1577874324284494e-06, 3.517617415127461e-06, -3.292332849014201e-06, 1.5102442375791725e-05, 6.995380772423232e-06, -5.619502871923032e-07, -6.567581294802949e-06, -4.962021193932742e-08, -5.189326657273341e-06, -1.5020364116935525e-06, 3.3767148579499917e-06, 5.361309376894496e-06, -9.337893970950972e-06, 1.0640930668159854e-05, 4.0543136492487974e-06, 8.478951713186689e-06, 6.567543096025474e-06, -2.25816211241181e-06, -8.353615157830063e-06, 8.597501619078685e-06, -5.013316695112735e-06, -2.2582109977520304e-06, 6.540193453474785e-07, 6.2834651544108056e-06, -4.7938874558894895e-06, -3.243319042667281e-06], [-2.34326716963551e-06, -8.49957450554939e-06, -2.7137309643876506e-06, 8.379038263228722e-06, -5.320696345734177e-07, 2.1041370928287506e-05, -1.261547367903404e-05, -1.699725180515088e-05, -1.8880814423027914e-06, -1.2416076970112044e-05, -9.440970643481705e-06, -1.2122390216973145e-05, 6.188084626046475e-06, -4.789215017808601e-05, -9.401219358551316e-06, 6.9470543166971765e-06, 1.3789413060294464e-06, 1.38950563268736e-05, -6.932568794582039e-06, -6.735572242178023e-06, 2.7815491193905473e-05, 1.2167863133072387e-05, -1.0458968972670846e-05, 1.4391853255801834e-05, -1.9885836081812158e-05, 1.6195614080061205e-05, -1.0990388545906171e-05, -1.2473872629925609e-05, -1.6965808754321188e-05, -4.416262527229264e-06, -2.144561403838452e-05, -1.1669845662254374e-05, -3.7411475204862654e-05, -2.0761781343026087e-06, 6.910391221026657e-06, -4.125196210225113e-05, 6.788076007069321e-06, 4.318866922403686e-05, 1.2260758921911474e-05, -6.314758138614707e-08, 1.2024561328871641e-06, -9.99180156213697e-06, -2.7034317099605687e-05, 1.9181432435289025e-05, -2.4340544769074768e-05, 5.702993075828999e-05, 7.621430995641276e-06, -2.5050629119505174e-05, -1.8116312276106328e-05, -2.02470546355471e-05, 6.396400749508757e-06, 1.1271175026195124e-05, -7.70079786889255e-05, 3.976615971623687e-06, -4.6232207751017995e-07, -1.096022970159538e-06, -6.436201147153042e-06, -2.6291163521818817e-05, 2.752103864622768e-05, -6.6493671511125285e-06, -6.645887333434075e-05, -7.82314600655809e-07, -2.0752755517605692e-05, 1.3819437299389392e-05], [0.00011484696005936712, -4.0594091842649505e-05, 4.26859078288544e-05, 1.7375152310705744e-05, 8.36513481772272e-06, 1.3628523447550833e-05, 1.1996993634966202e-05, -5.139938002685085e-05, -1.2521968528744765e-05, -3.0123946999083273e-05, -0.00010478335025254637, -2.323537046322599e-05, -2.6020046789199114e-05, -2.3905784473754466e-05, -1.0847888916032389e-06, -1.314959445153363e-05, 3.395469320821576e-05, 2.6226269255857915e-05, 8.674387936480343e-05, 0.0001820469624362886, 2.6345718652009964e-05, 1.3665563528775238e-05, -9.323809354100376e-05, 5.8345725847175345e-05, 4.2968313209712505e-06, 2.308648981852457e-05, -2.0318771930760704e-05, 8.622182213002816e-05, 1.8188658941653557e-05, -4.9386559112463146e-05, -3.421270230319351e-05, 3.5005778045160696e-05, 8.687557419762015e-05, -5.9421676269266754e-05, -9.500882879365236e-05, 0.00013261317508295178, 5.548972694668919e-05, -4.82204050058499e-05, 2.347102235944476e-05, 4.486320540308952e-05, 6.48339482722804e-05, -1.3323521670827176e-05, 1.4499441022053361e-05, 1.6233343558269553e-05, -9.951589163392782e-05, 9.620656783226877e-05, -1.0270499842590652e-05, -5.2513576520141214e-05, -6.79722725180909e-05, 0.0001783143525244668, 4.169699241174385e-05, -6.752483022864908e-05, -8.597977284807712e-05, -1.1043915037589613e-05, -9.46653563005384e-06, 6.889020005473867e-05, -2.5815348635660484e-05, -1.0143925464944914e-05, 7.800172897987068e-05, 1.1302575330773834e-05, 6.905096233822405e-05, 9.555507858749479e-05, -2.5449386157561094e-05, 2.7800882890005596e-05], [0.00030344800325110555, -0.0003537214361131191, 0.00014657183783128858, 0.0006586910458281636, -0.0001533045433461666, 0.0001298190763918683, -3.598912735469639e-05, -2.0073603081982583e-05, 0.00040804228046908975, -0.0002029130992013961, -0.0002751676656771451, -0.0004633708158507943, 0.00018189272668678313, 0.00016592592874076217, 0.0003410475910641253, 0.00014611234655603766, 0.00043518305756151676, 0.0012195686576887965, 0.00020722407498396933, -0.0007896102033555508, 0.0006181961507536471, -3.6360041121952236e-05, -0.00034234527265653014, 0.0004084521788172424, -0.0001820031029637903, 0.00015728706785012037, 4.3022853787988424e-05, -6.003665475873277e-08, 3.4123670047847554e-05, 0.0001276248221984133, 0.0007117579807527363, -0.0006996328593231738, 0.00012007694749627262, 0.00030689893173985183, -0.0006604880327358842, -0.0003079255111515522, 0.0004585321294143796, -7.123103569028899e-05, -0.00019074715964961797, 9.584162762621418e-05, 0.0007662509451620281, 0.00023459663498215377, -0.0002883193374145776, -0.00023375690216198564, -0.0003866161860059947, 3.211165312677622e-05, -7.370661478489637e-06, -6.787578604416922e-05, 0.0003486947389319539, 0.0001673758088145405, 0.0002034810750046745, -0.00022602544049732387, 0.00028212254983372986, -0.0001807197113521397, 0.0002867875446099788, 0.0004661428974941373, -0.0002678096934687346, 0.0001495055912528187, 0.00044258215348236263, -5.8334953791927546e-05, 0.0001126461720559746, -0.0017794596496969461, -6.171346467453986e-05, -8.909177267923951e-05], [-0.00042341614607721567, 0.000759301648940891, -0.00022250252368394285, -0.0009501676540821791, 0.0001394363061990589, 0.00017575742094777524, -0.00026687284116633236, -0.00019890451221726835, 0.0006921876920387149, 0.00024014100199565291, -0.0012862272560596466, 3.2253796234726906e-05, 0.00011043983977288008, 0.0011323094367980957, 9.980411414289847e-05, 2.8338856282061897e-05, 0.0003793258510995656, 0.00011100323172286153, -0.0007366478093899786, -0.0005591294029727578, -0.0007843401399441063, 0.0004206591402180493, -0.0003997972817160189, -5.0015951273962855e-05, 0.00022711600468028337, -8.15701496321708e-05, 0.00017878596554510295, 0.0001355774002149701, 5.558275734074414e-05, 0.000292403157800436, -4.1137944208458066e-05, -0.0004475500318221748, 0.0013458839384838939, 0.0010299201821908355, 0.0010137041099369526, -1.1695869034156203e-05, -0.0006201553042046726, -0.0009569747489877045, -0.0009438176639378071, 0.0007804877241142094, 0.00018129624368157238, 0.00021872018987778574, 0.0005021816468797624, -0.00017123507859651, -0.0007097047637216747, -0.001453889417462051, -0.0009461184381507337, -0.0001190778857562691, 0.0011019184021279216, 0.0007621225668117404, 0.0002168802748201415, -0.0007153742481023073, 4.779319715453312e-05, 0.00012062612222507596, -0.00020296509319450706, -0.0002490340266376734, -0.000130287793581374, -0.0002397279313299805, 0.00013374449918046594, -9.069191582966596e-05, 0.0008012870093807578, -0.0032874862663447857, -0.0004942352534271777, -0.0005249016103334725], [0.00037352097569964826, 0.0007885021041147411, -0.00030139583395794034, -0.0009706822456791997, 0.00016046750533860177, -9.750215394888073e-05, -6.782218406442553e-05, 0.00025835848646238446, -0.0010466247331351042, -0.0006739055970683694, -0.0008772213477641344, -0.0003937106521334499, -0.00017804664094001055, -0.00117265444714576, 6.510160164907575e-05, -0.000549541087821126, 8.836431516101584e-05, 0.0003741675172932446, -0.001457707490772009, 0.0001432853750884533, 0.0003417553089093417, -0.0008849946316331625, 0.0015694017056375742, 0.0005202895263209939, 0.0012641814537346363, 0.00029236459522508085, -0.0007313027745112777, 0.0008669898379594088, -0.00025483171339146793, 0.0005259839817881584, 0.00019744792371056974, 0.0002583783061709255, -0.00011709870886988938, 0.00042116903932765126, 0.0002097979304380715, -0.00237120408564806, 0.0005168085335753858, -0.001063570030964911, -0.0005980803980492055, 0.0001506416592746973, -0.0005294093280099332, 0.000385143852327019, -0.0005166039918549359, -0.0006526001961901784, -0.0003687584539875388, -0.00035362254129722714, 0.0004386749060358852, -0.0007972386083565652, 0.0006780442199669778, -0.0007979633519425988, -0.00025605616974644363, -0.0004434682778082788, -0.0003668599820230156, -0.0003174604498781264, -0.00028996425680816174, 0.0013238340616226196, -0.0008759892079979181, 0.000319409416988492, 0.0010707369074225426, 0.00019930019334424287, 0.0013876564335078, -6.137415766716003e-06, -0.0005976586835458875, -0.0004099331854376942], [0.00041459169005975127, 0.0007965997792780399, -0.00029004475800320506, 0.0007371262181550264, 0.00037215743213891983, 0.0005624435725621879, -0.00047517422353848815, -0.0007850648835301399, -0.0004700864665210247, 0.000643621664494276, 0.00044133307528682053, -3.6767509300261736e-05, -0.0019355547847226262, -0.0009184751543216407, 0.00027266202960163355, 0.00021983322221785784, -0.00041769546805880964, 0.0018209345871582627, 0.0009342054254375398, -0.0031607835553586483, -0.00047253674711100757, 0.0007516479818150401, -0.00016938117914833128, -0.0016442807391285896, -0.00047627330059185624, -0.0008031047182157636, -0.0007250031922012568, 0.0002465321449562907, -3.208867565263063e-05, 0.0009517228463664651, -0.0021942879538983107, 0.003418294247239828, 0.0008362128864973783, -0.0012138743186369538, 0.0011416904162615538, 0.0005148786003701389, -0.00019047970999963582, 0.0003695785126183182, -0.0006217681802809238, 0.0008574719540774822, -0.0009517929283902049, -0.00038201131974346936, -0.000290428230073303, 9.335303911939263e-05, 0.0012128197122365236, -0.000230624049436301, -0.0003687752177938819, 0.00014568727056030184, -6.506964564323425e-05, 0.0018393949139863253, -0.0002208964724559337, 0.00019224388233851641, -0.0012043672613799572, 0.0011203944450244308, 3.288127845735289e-05, -2.5661345716798678e-05, -0.0007352178217843175, -3.0058756237849593e-05, 9.884116298053414e-05, 0.0004198737151455134, -0.0014855052577331662, -0.0026044941041618586, 0.0001672361249802634, -4.375952994450927e-05], [5.2080937166465446e-05, 3.2942054531304166e-05, 5.096751010569278e-06, 6.273350300034508e-05, 1.3733996638620738e-05, -9.234801154889283e-07, -5.105889158585342e-06, -7.204246503533795e-05, -2.2170810552779585e-05, 0.00010090613068314269, 2.015924110310152e-06, 1.708633681118954e-05, -3.324762474221643e-06, -6.606263923458755e-05, 5.90694298807648e-07, 1.5541325410595164e-05, -3.258285141782835e-05, -0.0001498500641901046, -4.428041211212985e-05, -0.0005174386315047741, 7.1718586696079e-06, -1.548707405163441e-05, -6.901824963279068e-05, -0.00015197627362795174, 4.488339618546888e-05, -2.903589847846888e-05, -2.5719184122863226e-05, 8.380789222428575e-05, 1.8555512724560685e-05, 3.058404035982676e-05, 1.534541297587566e-05, 7.159689994296059e-05, -4.8191952373599634e-05, -2.4289765860885382e-05, -1.086147312889807e-05, 1.6737223631935194e-05, -2.557151674409397e-05, -8.446942956652492e-05, 1.1632316272880416e-05, 2.0643450625357218e-05, -7.256487879203632e-05, 4.7040884965099394e-08, 1.7945434592547826e-05, -2.573501660663169e-05, 2.067285095108673e-05, 1.2478331882448401e-05, 1.4113405200077977e-07, -4.906561298412271e-05, -1.6547134009670117e-06, -7.220040060929023e-06, -2.8866502361779567e-06, 7.064536475809291e-07, 3.115458821412176e-05, 1.610275467101019e-05, 1.8791273760143667e-05, -4.6857963752700016e-05, -6.952783587621525e-05, -3.242746515752515e-06, -8.188313586288132e-06, -6.535065040225163e-06, -2.210455568274483e-05, -0.0016135164769366384, 2.91774949801038e-06, 6.134573141025612e-06], [1.5114128473214805e-05, 4.167172301094979e-05, -1.304445686400868e-05, 0.00014034351625014096, 3.087458389927633e-05, 1.4421695595956407e-05, 2.2925629309611395e-05, 0.00012108751252526417, 9.632163710193709e-06, 0.00010455310984980315, 8.626811904832721e-05, 3.570310946088284e-05, 3.000791184604168e-05, -8.968320616986603e-05, 1.7252908946829848e-05, 2.1886366084800102e-05, -5.865169077878818e-05, -0.00017880531959235668, -8.450268069282174e-05, -0.000401042343582958, -2.129656058968976e-05, 3.882000601151958e-05, -6.181372737046331e-05, -0.00014202458260115236, 5.719270120607689e-05, -4.27217673859559e-05, -6.216365000000224e-05, 9.738138760440052e-05, 2.8127171390224248e-05, 9.420810238225386e-05, 3.4970478736795485e-05, 4.504451862885617e-05, -0.00010235982335871086, 8.536003406334203e-06, 8.484253339702263e-05, 8.92023672349751e-05, -1.082095786841819e-05, 1.620692273718305e-05, 2.510262311261613e-05, 9.28028930502478e-06, -9.935129492077976e-05, -1.4475937859970145e-05, -1.5081581295817159e-05, -6.228441634448245e-06, 0.0001526211854070425, 2.9770981200272217e-05, 1.5511504898313433e-05, -3.702857065945864e-05, 6.843838491477072e-07, -2.7646237867884338e-05, 2.7841999326483347e-05, 3.6732886655954644e-05, 1.721058833936695e-05, -2.3719014279777184e-05, 1.0929924428637605e-05, -2.944626976386644e-05, -3.3713135053403676e-05, -1.8294287656317465e-05, -4.536732376436703e-05, -1.3636756193591282e-05, 7.12511464371346e-05, -0.0012345227878540754, 1.0716423275880516e-05, -1.6870908439159393e-05], [-0.00020955904619768262, -0.0009134665597230196, 0.00014306354569271207, 0.00036956032272428274, 0.0001230111374752596, 3.139469481538981e-05, 6.646929250564426e-05, 0.00029873207677155733, 0.0004683221341110766, -9.42474725889042e-05, -1.1998199624940753e-05, 0.0004307595663703978, 0.000138565301313065, 0.00021585103240795434, -0.00049022794701159, -2.1795389329781756e-05, 0.00022639858070760965, -9.896417759591714e-05, -0.00015354828792624176, -0.0009837921243160963, 0.00015081455057952553, 0.0001422658679075539, 0.0005011684843339026, -8.751591667532921e-05, 0.0004365398781374097, 9.292625327361748e-05, 0.0003783698775805533, -4.271633588359691e-05, -8.330427954206243e-05, 2.426642458885908e-05, 7.869419641792774e-05, -0.0005535336676985025, 8.412918396061286e-05, 6.729787855874747e-06, -0.0003250600420869887, -9.290978778153658e-05, 0.0002938113466370851, -4.7846049710642546e-05, 0.0002433303016005084, -0.00011065380385844037, -0.00043598489719443023, 6.234095781110227e-05, 0.0005603496683761477, -7.694093801546842e-05, -0.00023411921574734151, 0.0004341062158346176, 9.793395292945206e-05, 0.00025977869518101215, -8.068454917520285e-06, -0.00015718693612143397, 0.00019786071788985282, -1.063180752680637e-05, 6.789786857552826e-05, -3.7676116335205734e-05, 4.5342789235292e-05, -0.00017430895240977407, -0.00021401545382104814, 0.0002103989536408335, 0.0001896824105642736, 1.665444506215863e-05, 0.0005538143450394273, -0.001312874024733901, 8.625363261671737e-05, 1.7300444596912712e-05], [-0.0006424400489777327, -0.0007893454167060554, -0.00010055848542833701, 0.0010392877738922834, 0.000308552582282573, -1.3304248568601906e-05, 6.774965004296973e-05, -1.0910312994383276e-05, 0.00011604479368543252, 0.00022294028894975781, -0.00017394826863892376, -0.00038177912938408554, -8.54500976856798e-05, -0.0004093472089152783, -0.0005996288964524865, -7.70257247495465e-05, 4.4159896788187325e-05, -0.00020340322225820273, 0.0002813627361319959, -0.0016193112824112177, -0.00014881719835102558, 2.7865447918884456e-05, 8.542790601495653e-05, -0.00019196353969164193, 0.00036331216688267887, 0.00015410780906677246, 2.6417928893351927e-05, -0.00014916415966581553, 5.903819328523241e-05, -0.00028612007736228406, -0.0010479619959369302, -0.0004916732432320714, 0.00011219106818316504, -0.00021503691095858812, -3.324701901874505e-05, 0.00042650962132029235, -0.00011052799527533352, -0.0003698131476994604, 0.0005557195981964469, -3.519497477100231e-05, -0.00010567964636720717, -0.00020540723926387727, -3.335144720040262e-05, 3.090233076363802e-05, 7.959398499224335e-05, 0.0003587199025787413, 1.8570106476545334e-05, -0.00016618696099612862, -0.0006601696368306875, 0.00012246625556144863, 0.0001705550093902275, -0.00036225822987034917, -0.0004905656678602099, -1.9953573428210802e-05, -2.0033960026921704e-05, -0.0007083513191901147, -0.0007718843407928944, 8.000753587111831e-05, 0.00015608567628078163, -2.6012192392954603e-05, -0.00015422585420310497, -0.0012446824694052339, -4.861386332777329e-05, -5.1362829253776e-05], [-0.00020259249140508473, 0.0004942523082718253, -0.0003491800744086504, 0.0008339291671290994, 8.401731611229479e-05, -4.36548434663564e-05, -0.0003200843930244446, 0.0010175523348152637, -0.0001170081231975928, -0.00034799068816937506, -0.00027959939325228333, -0.0004989319131709635, -3.8975151255726814e-05, -0.0007147679571062326, 0.0002861780521925539, 8.075200457824394e-05, -0.00042866088915616274, -0.00030001316918060184, 0.0004112519382033497, 0.0022741109132766724, -0.00041593590867705643, -9.988469537347555e-05, 0.00030733441235497594, -4.2282044887542725e-06, -8.29688215162605e-05, -0.0006163758807815611, -0.0006251480081118643, 0.00031165796099230647, -0.00017980024858843535, -8.981439168564975e-05, -0.002158982213586569, -0.0005728700780309737, 0.00014568265760317445, 0.00041474291356280446, -0.00033232057467103004, 0.001255928073078394, -7.882245881773997e-06, -0.0005011237226426601, 0.0005706979427486658, 0.00026592754875309765, 0.0004612464108504355, 1.1966389138251543e-05, -0.00016462395433336496, -7.239494880195707e-05, -0.0002853910846170038, 0.0009141161572188139, -5.0648668548092246e-05, 0.0024172752164304256, 0.0008787797996774316, -0.00019512137805577368, -0.0007108775316737592, -0.0009010949870571494, -0.0005592357483692467, -0.00021668506087735295, -0.0004680026904679835, -0.00010374012344982475, -0.0001861492492025718, 0.00025400836602784693, 0.0011967072496190667, 0.0005003742990083992, 0.0004228738835081458, -0.002040516585111618, 0.00016487101675011218, 0.00010668498725863174], [-0.0010965574765577912, 0.0008642391767352819, -0.0006816261447966099, 0.002336102072149515, 0.0011564497835934162, -0.00029176886891946197, 3.4808210330083966e-05, -0.00024126353673636913, -0.0008114918018691242, 0.00041208131005987525, 0.0006942962645553052, 0.0007183814304880798, -0.00012902900925837457, -0.0013674276415258646, -0.00027320251683704555, -0.0003775522636715323, -0.0010516695911064744, -0.0010379122104495764, -0.00026399650960229337, -0.0003843392478302121, 0.0005935038789175451, 0.0010047261603176594, 0.0010854491265490651, -3.534540883265436e-05, 0.0001027325342874974, -0.0006032296223565936, -0.000633724732324481, 0.00010558249778114259, 7.214846846181899e-05, -0.00034434429835528135, -0.0020564382430166006, 0.0006825269083492458, 0.000368856533896178, -0.001493452349677682, -0.0002764082164503634, 4.309229552745819e-05, -0.0007866553496569395, -0.00021907835616730154, 0.001657506451010704, 0.0009209432173520327, -0.0007328735664486885, -0.0010911619756370783, -0.0012790148612111807, -0.0008983034058474004, 0.0003437589621171355, -0.0002470025501679629, 0.00038130045868456364, -0.0005155797698535025, -0.00026483944384381175, 0.0003453084791544825, 0.00023545659496448934, -0.0003184620290994644, -0.0004465213278308511, 0.00028689822647720575, -0.0009896146366372705, 6.59753568470478e-05, -0.0014333260478451848, -0.0005223791813477874, 0.0005786354886367917, 0.00011466025898698717, -0.0017684521153569221, -0.0016981401713564992, -0.0005755533929914236, 0.0012016526889055967], [0.0008078645332716405, -0.0006184360245242715, 0.0002747051476035267, -0.0008248077356256545, 0.0018596039153635502, -0.00010756847041193396, 0.0009541884064674377, -0.0005920043913647532, -0.0036204983480274677, 0.0006226358818821609, 0.0010929943528026342, 0.003688636003062129, -0.0003838991397060454, 0.0014974897494539618, 0.00164989591576159, -0.00010188973101321608, 0.0009328762535005808, 0.0017893046606332064, -0.0003006625920534134, -0.00024241989012807608, 0.002143782563507557, -0.0007777328719384968, 0.001967040356248617, -0.0018954139668494463, 0.00035557601950131357, -0.0005992494989186525, 0.0010982966050505638, -0.001378510845825076, -8.453296322841197e-05, -0.0009711593156680465, 0.004088736139237881, -0.002640949562191963, -2.420325472485274e-05, 3.570341505110264e-05, 0.002379373414441943, 0.0006962106563150883, 0.0003875991969835013, -0.00013302825391292572, 0.0014654910191893578, 0.001922262366861105, 0.0011144645977765322, -9.147694800049067e-05, -0.0022769784554839134, 0.0018302245298400521, 0.0020033877808600664, -0.0005778807681053877, 0.0009511232492513955, -0.002316257916390896, -0.00018389426986686885, 0.0012720682425424457, 0.0003625916433520615, -0.0002453831257298589, -0.0004366919747553766, -0.0002009629679378122, -0.0011222034227102995, -0.00020229039364494383, -0.001351154875010252, -0.003067709505558014, 0.002054915064945817, -0.00031961657805368304, -0.0010196875082328916, 0.0010417343582957983, -0.0036591417156159878, -0.0012341203400865197]]], [[[-0.000811758276540786, 0.0025270557962358, -0.0005517378449440002, 0.0015480563743039966, -0.00017029211448971182, 0.00017027238209266216, -0.0012920902809128165, 0.002227112650871277, -0.00020458438666537404, -0.001356528839096427, 0.0018759218510240316, 0.0024519891012459993, -0.0006189905689097941, 0.0013254034565761685, -0.00027956857229582965, -0.0006580220651812851, -0.0005284193903207779, 0.0015229170676320791, -0.0005054021021351218, 0.00198199856095016, 0.0006409123889170587, -2.0246603526175022e-05, 0.0009261919185519218, -8.864823030307889e-05, 5.101831629872322e-05, -0.00011131187784485519, 3.3568619983270764e-05, -1.5875091776251793e-05, -0.0005120360874570906, 0.0018029253697022796, 0.0007292193477042019, 0.00021279951033648103, 0.0002329336857656017, 0.0001969848817680031, 0.0017682203324511647, -0.002198448171839118, 0.001666239695623517, -0.0002231561520602554, -0.0013918951153755188, 0.000445179408416152, -0.00011076300870627165, 0.0009794248035177588, 3.064857082790695e-05, -0.0009264808613806963, -0.0017191206570714712, 0.001087720855139196, -0.00037156970938667655, -0.00021257103071548045, 0.001088423072360456, 0.00018848171748686582, 0.0006353257922455668, 0.0012129840906709433, -0.00033849821193143725, -0.0013574231415987015, -0.0007127349963411689, 0.0015794155187904835, 0.0014208316570147872, 0.0017813032027333975, 0.0020176419056952, 0.0010223515564575791, 0.0009890571236610413, -0.0012289105216041207, -0.0003188982664141804, -0.0013949177227914333], [-6.4671289692341816e-06, -1.0633058991516009e-05, -4.8483198042958975e-06, 2.2451856693805894e-06, -5.438742846308742e-06, 3.808970859608962e-06, -5.848456112289568e-06, -4.658280886360444e-06, -1.2209053238620982e-05, -3.040658498321136e-07, 8.177166819223203e-06, 6.929274150024867e-06, 5.12060864821251e-07, 3.8310690797516145e-06, 1.3532055163523182e-05, 8.408733265241608e-06, 1.4504357750411145e-05, -6.339426363410894e-06, -3.9463379835069645e-06, 5.410167887021089e-07, 1.1543771506694611e-05, 8.308959991154552e-07, -1.028301085170824e-05, -6.871223376947455e-07, 2.270076720378711e-06, -2.2305866878014058e-06, -3.052372449019458e-06, -1.1128182677566656e-06, -5.950496870354982e-06, -5.1327210712770466e-06, 1.1724560863513034e-05, 1.4101669876254164e-05, 1.0777731404232327e-05, 1.3670912267116364e-05, 1.042264102579793e-06, -4.919148068438517e-06, -2.8922356705152197e-06, 4.7649609768996015e-06, 3.3520921078888932e-06, 1.6148429438089806e-07, 8.415263437200338e-07, -1.1113113032479305e-05, -1.6600532035226934e-05, 7.932761036499869e-06, -5.668268840963719e-06, 4.077031007909682e-06, -2.1202458810876124e-06, -3.224714419047814e-06, -3.2324301173503045e-06, -1.394933588017011e-05, 7.906805876700673e-06, 7.340811407630099e-06, -1.6600532035226934e-05, -1.0115900295204483e-05, 3.577594270609552e-06, -4.498757334658876e-06, 4.501925104705151e-06, -5.660122042172588e-06, -1.1242673281230964e-05, -3.45884359376214e-06, -2.909706836362602e-06, 5.045760190114379e-06, -1.4277104583015898e-06, -5.363687250792282e-06], [2.0021023374283686e-05, -4.811319740838371e-05, -7.840576472517569e-06, 1.1535613339219708e-05, 5.203516593610402e-06, -1.3940952158009168e-05, 4.45185651187785e-06, 1.0978181308018975e-05, -2.148727844542009e-06, -1.737624734232668e-05, -1.4114511941443197e-05, -4.2666997615015134e-05, 2.2753358280169778e-05, -2.5700413971208036e-05, 3.2690309126337525e-06, 3.300088110336219e-06, 4.5791131242367555e-07, 3.412945443415083e-05, 6.76203562761657e-05, -1.7552591089042835e-05, -5.833497652929509e-06, 1.0667949936760124e-05, 1.068513847712893e-05, 3.5575149013311602e-06, -3.3009523576765787e-06, -7.102473773556994e-06, 1.055304346664343e-05, -4.490877108764835e-05, -2.6377708763902774e-06, 7.096341960277641e-06, 2.084477500829962e-06, -4.415454532136209e-05, 8.32211571832886e-06, 7.062494660203811e-07, 2.26885526899423e-06, -9.644108104112092e-06, 1.7332979041384533e-05, 3.719153755810112e-05, 7.91377829045814e-07, -5.983807113807416e-06, 1.7398138879798353e-05, -4.718080163002014e-06, 9.97107690636767e-06, 3.585543890949339e-05, 2.777552253974136e-05, 5.635590059682727e-05, 1.954720210051164e-05, -2.977262374770362e-05, -1.122388039220823e-05, -1.1835792065539863e-05, 1.0564568583504297e-05, -5.896886705158977e-06, -3.883447334374068e-06, -1.7803073205868714e-05, -2.1211508283158764e-06, 3.4659693483263254e-05, 5.018533101974754e-06, -1.3272370779304765e-05, -1.3939438758825418e-06, 1.2479222277761437e-05, -1.2902766684419475e-05, 5.04883337271167e-06, -2.5107841793214902e-05, -1.2236757811479038e-06], [-0.00017130575724877417, -9.86361555987969e-05, 2.9909937438787892e-05, -4.364091364550404e-05, 1.1494144928292371e-05, -5.4331758292391896e-05, 3.094752537435852e-05, -4.6826004108879715e-05, -9.113867417909205e-05, 1.0067333278129809e-06, 6.563669739989564e-05, -7.772388198645785e-05, 5.960613998468034e-05, -6.527265213662758e-05, -0.0001091630692826584, -7.798131264280528e-06, -2.2338506823871285e-05, -9.120076720137149e-05, 6.669716822216287e-05, -2.3847800548537634e-05, 2.720020347624086e-05, 1.334776698058704e-07, -3.219358404749073e-06, 1.8390477634966373e-05, -6.0711878177244216e-05, 1.3808828953187913e-05, -3.415181708987802e-05, -4.395740234031109e-06, -1.092192906071432e-05, -1.1829773939098231e-05, -9.74531503743492e-05, -7.369791092060041e-06, -5.181581946089864e-05, -0.00010578566434560344, -3.6770925362361595e-05, -1.3847408808942419e-05, 3.930693128495477e-05, -0.00011404178076190874, 2.6815114324563183e-05, -6.261650560190901e-05, 8.497780072502792e-06, 2.109195884258952e-05, 2.7124619009555317e-05, -5.586451152339578e-05, -4.6313834900502115e-05, 8.461421384708956e-05, 1.3881505765311886e-05, -4.435401933733374e-05, 2.2596945200348273e-05, 6.720656529068947e-07, -2.745370875345543e-05, 1.5213402548397426e-05, 2.903859240177553e-05, 6.50874208076857e-05, 2.2128569980850443e-05, 8.82895546965301e-05, -6.696477066725492e-05, 3.125719740637578e-05, 1.916548535518814e-05, 9.046820196090266e-06, -0.00013577553909271955, -0.0003432960365898907, 3.6669138353317976e-05, -1.3209246390033513e-06], [-8.709373651072383e-05, 0.00041865106322802603, -0.00019720796262845397, -0.0003531273396220058, 0.00011372502194717526, 9.307696018368006e-05, -0.00013954708992969245, -0.00010048996773548424, -0.0003719821688719094, 0.00018300331430509686, -5.728515679948032e-05, 0.000424754194682464, -0.00015866999456193298, -0.00012275660992600024, -5.789533315692097e-05, 2.092088652716484e-05, -0.0002733191358856857, -6.59059951431118e-05, 0.0002484228753019124, -0.0005965476739220321, -0.0007361438474617898, -0.0001484005624661222, -0.0001442149223294109, -5.208056609262712e-05, -0.00010658492828952149, -0.00014241489407140762, -0.00027152273105457425, 0.0002078784309560433, -4.57388159702532e-05, -0.00028103843214921653, -0.0005677606677636504, 0.0003724947455339134, 0.00017530456534586847, -0.00014128937618806958, 0.0002073749783448875, 3.118607128271833e-05, -0.000566694769077003, -0.00020354795560706407, -6.199440394993871e-05, 0.0003137416788376868, 0.00011550667113624513, -0.0004270942881703377, -0.0003117391897831112, 2.0173269149381667e-05, 0.0004429207183420658, -6.31162538411445e-06, -0.00020913028856739402, -8.000440720934421e-05, 0.0002157767303287983, 0.0003290105378255248, 0.00024503067834302783, -0.00048304093070328236, -5.780564242741093e-05, -4.851724952459335e-05, 3.876004120684229e-05, -0.0004229667247273028, -0.00015121459728106856, -0.00033344345865771174, 0.0003763018758036196, -8.119929589156527e-06, -0.0005427693831734359, -4.301025182940066e-05, 9.998759196605533e-05, 0.00013684405712410808], [0.0002247767406515777, -0.00018839840777218342, 0.00017753045540302992, -9.184745431412011e-05, 0.0003022142918780446, 7.231795461848378e-05, -0.00020335055887699127, -9.401352144777775e-05, 0.00049153424333781, 0.00026442119269631803, 0.0008592296508140862, -0.0007074339664541185, 0.0009186813258565962, 0.0024238296318799257, 0.001561262528412044, -0.00015943018661346287, 0.0006350813200697303, 0.0017832391895353794, -0.0014407343696802855, 0.0003728523151949048, -0.0002566757320892066, -0.0004685822641476989, 2.591341035440564e-05, 0.00042893545469269156, 0.00011729382822522894, 0.00041242019506171346, 0.0005341762444004416, 8.038875967031345e-05, 0.00014364870730787516, -0.0003110865072812885, 0.0007848138338886201, -0.0002855227212421596, -0.00026975726359523833, 0.0014970265328884125, 0.00048319960478693247, 0.0001806297223083675, 0.0007906829123385251, 0.0015349637251347303, -0.0006220078794285655, 0.0005899906391277909, -5.047503509558737e-05, -0.00033029119367711246, 0.0004193490603938699, 0.0002692800771910697, 0.0001550160814076662, -0.0009779578540474176, -7.598208321724087e-05, -0.0003101691254414618, 0.0012232123408466578, -0.00036793388426303864, 0.000954886490944773, 0.0002492438070476055, 0.001242714119143784, -1.4097517123445868e-05, 3.194829696440138e-05, 0.0005287485546432436, 0.0007428794051520526, -8.754225564189255e-05, -0.0003127100644633174, -6.474801921285689e-07, 0.0012388017494231462, -0.0003126267110928893, -0.0008401826489716768, -0.0015665681567043066], [0.0005097007961012423, -0.0013493587030097842, -0.00015027084737084806, 0.0014941305853426456, 0.00015809072647243738, 0.00031944221700541675, -0.0007418892928399146, 0.0009311037138104439, 0.002208614256232977, 0.0010510142892599106, -0.00022661761613562703, -0.0008370839641429484, -0.00020857210620306432, -0.0014085122384130955, -0.0009132000850513577, 0.0007190041360445321, 0.00047409895341843367, 6.501309690065682e-05, 0.00195705471560359, 0.0009676883346401155, 0.00020296663569752127, -0.0006421513389796019, 0.001218598335981369, -0.0008278843597508967, 0.0009779317770153284, 0.00013014169235248119, 5.97074867982883e-05, 0.00043294791248627007, -0.0002496347005944699, -0.00017813850718084723, -0.0024771892931312323, -0.0012095976853743196, 0.0011410010047256947, -0.0001661108690313995, 0.0015140423784032464, -0.00014674177509732544, -0.0004056423786096275, -0.0001525051484350115, -0.00010713572555687279, 0.0016042795032262802, -0.00167520297691226, -0.0003749556781258434, -0.0012259508948773146, -0.0005581607110798359, -0.0009641725919209421, -0.0015540197491645813, -0.000535166182089597, 0.0006564049981534481, -0.0009765858994796872, 0.00023893981415312737, 0.0011603435268625617, -0.0002837684587575495, 0.00037459033774212003, -1.7130805645138025e-06, 5.017798685003072e-05, -0.00012556006549857557, -0.0004561005625873804, 0.0016319756396114826, 0.000253495731158182, 0.00015805548173375428, 0.0003092665283475071, -0.0024517427664250135, -7.102062227204442e-06, 2.8997601475566626e-05], [0.0015224565286189318, 0.00041963395779021084, 0.0003276538336649537, 0.00070744170807302, 0.0003673892351798713, -2.295357990078628e-05, 0.00010867022501770407, 0.0025085285305976868, 7.442690548487008e-05, -0.0012587178498506546, 0.0010429201647639275, 0.0006012074882164598, 0.00028447440126910806, 0.0009334898204542696, 0.0021309887524694204, -0.0005015959031879902, -9.793286153580993e-05, 0.0029014097526669502, -0.0020231204107403755, 0.0023623513989150524, 0.000573838478885591, -0.00018846197053790092, 0.0016717102844268084, 0.0007834406569600105, 0.0012105489149689674, -9.835156379267573e-05, 0.0009303833940066397, -0.001041535404510796, -5.583569873124361e-07, 0.0016957768239080906, 0.0003616304602473974, -0.003776164725422859, 0.00026794421137310565, 0.00044268701458349824, -0.0003183593798894435, -0.0004288903728593141, 0.0011889080051332712, -0.0023805780801922083, -0.0011653153924271464, -0.0001072445884346962, 1.789437374100089e-05, 0.0006903958274051547, 0.003009597770869732, -0.0011257571168243885, 0.00016623170813545585, 0.0018680207431316376, -0.0003361000563018024, 0.0007782322936691344, 0.0036434063222259283, 0.0012584354262799025, -4.70254453830421e-05, 0.0014006709679961205, 0.0012657371116802096, -0.00035782885970547795, -0.0002832491882145405, 0.0015481733717024326, -0.0019494579173624516, -0.00021753634791821241, 0.0010243054712191224, 0.000616974662989378, 0.003119462402537465, -0.003855476388707757, -0.0003428600903134793, -0.0010509389685466886], [2.1206747078394983e-06, 1.435323338228045e-05, -2.442971344862599e-05, -4.344273838796653e-05, 4.70794657303486e-06, 1.0297000699210912e-05, 5.464150945044821e-06, -2.92884542432148e-05, -5.6598250921524595e-06, 5.142319878359558e-06, 1.3158068213670049e-05, 9.221870641340502e-06, -8.9486511569703e-06, 8.403639185416978e-06, -1.0478610420250334e-05, 7.252346222230699e-06, -6.036223112459993e-06, 4.282277132006129e-06, -6.577610292879399e-06, -6.659563950961456e-05, 1.7518971162644448e-07, -1.4466391803580336e-05, -9.269033398595639e-06, -4.382699898997089e-06, 1.3482975191436708e-05, -2.690965629881248e-05, -5.780122592113912e-06, -1.971916208276525e-05, 8.463905032840557e-06, 3.627513251558412e-06, 2.2458521925727837e-05, 3.243809987907298e-05, 7.17779903425253e-06, 3.716687569976784e-05, -3.981195277447114e-06, -7.333119356189854e-07, -7.59738895794726e-06, 2.6477773644728586e-05, 6.636666967096971e-06, -1.8751217112367158e-07, 1.7421363736502826e-05, -1.263444937649183e-05, -1.3239015970611945e-05, -1.2785916396751418e-06, -1.9170009181834757e-05, -2.044541179202497e-05, 4.28596604251652e-06, 9.080629752133973e-06, -1.0924180060101207e-05, -1.8556875147623941e-06, 2.7659085390041582e-05, -8.389598406211007e-06, 1.7491380276624113e-05, -7.93276649346808e-06, -2.086366293951869e-05, -3.431240656937007e-06, 2.9704049666179344e-05, -1.45299836731283e-05, 5.841072834300576e-06, -4.896210157312453e-06, 1.6016072095226264e-06, -0.00017571581702213734, -7.629117135365959e-06, 1.086048314391519e-06], [0.00012188254186185077, 1.4680119420518167e-05, -4.661100683733821e-05, 3.266650310251862e-06, 1.978101317945402e-05, -9.013360795506742e-06, -1.47087612276664e-05, 5.469953975989483e-05, -0.00014427900896407664, -4.609578536474146e-05, 7.195236685220152e-05, -1.5369803804787807e-05, -6.623014633078128e-05, 7.51233019400388e-05, 1.4225174709281418e-05, -4.579479355015792e-05, -6.69241271680221e-05, 1.5088966392795555e-05, 3.257870048400946e-05, -1.8974324120790698e-05, 3.070660022785887e-05, -3.855484101222828e-05, -1.3226894225226715e-05, -3.874121466651559e-05, 5.675234569935128e-05, 1.5083446669450495e-06, -6.125111394794658e-05, -4.845707371714525e-05, 1.2609330042323563e-06, -1.5663084923289716e-05, 3.662495510070585e-05, 3.389697667444125e-05, -1.9550216165953316e-05, 2.462909833411686e-06, 5.068412428954616e-05, 1.742435051710345e-05, -2.893883538490627e-05, 0.00010888822725974023, 8.425446867477149e-05, 1.232803515449632e-05, -8.914896898204461e-05, -7.087571430020034e-05, -0.00010571879101917148, 2.05012402147986e-05, -2.7709140340448357e-05, -3.2202788133872673e-06, -4.812052065972239e-05, 2.907279110786476e-07, 3.1619754736311734e-05, 3.218487472622655e-05, 2.158791176043451e-06, -2.425312231935095e-06, -2.3019336367724463e-05, -9.719263471197337e-05, -5.4583179007750005e-06, -2.6728979719337076e-05, 7.332735549425706e-06, -0.00011896149953827262, 1.591875661688391e-05, 1.7359297999064438e-05, -6.845753523521125e-05, -0.0008177008712664247, -0.00015998672461137176, 1.08120366348885e-06], [-0.00014141309657134116, 0.0005702672060579062, -8.102500578388572e-05, -0.00028303396538831294, -0.00012965667701791972, -0.00011703663767548278, -1.0478812328074127e-05, 0.0003286100400146097, -0.00010524643585085869, -1.444001100026071e-05, -0.00016520784993190318, 8.611124940216541e-06, -0.00010515951726119965, -3.6795427149627358e-06, -0.00012408300244715065, -3.914360422641039e-05, 7.437347085215151e-05, 0.0001592317275935784, 5.475529906107113e-05, 0.00021186500089243054, 9.51518741203472e-05, -0.00024251149443443865, 0.00019352967501617968, 0.00021639696205966175, 8.761646313359961e-05, 0.00014690999523736537, -0.00017208696226589382, 2.384184699621983e-05, 1.875944326457102e-05, -2.0325140212662518e-05, 0.0005183388711884618, -5.593072637566365e-05, 0.0002540837158448994, 3.906636266037822e-06, 5.475648504216224e-05, 0.00011012992035830393, -4.390152025735006e-05, -0.00033652104320935905, 0.0001127556461142376, -7.569618173874915e-05, -5.295830487739295e-05, 8.429768786299974e-05, -0.0001000449265120551, -0.00016458902973681688, 5.8374182117404416e-05, -3.679938890854828e-05, -5.7079851103480905e-05, 9.856579708866775e-05, -8.050192263908684e-06, -6.915321137057617e-05, 0.00012065932241966948, 4.914535384159535e-05, 6.568738899659365e-05, -0.00023884879192337394, 1.5207711840048432e-05, -5.094781590742059e-05, 0.00027331829187460244, -1.0670482879504561e-06, 0.00016000420146156102, 4.5313139708014205e-05, 0.00016012732521630824, 0.0011034843046218157, -3.9367558201774955e-05, -8.754336886340752e-05], [0.0002643158077262342, 0.0002382833044975996, -0.0001285196776734665, -1.3035081792622805e-05, -0.00010182513506151736, -0.00018460820137988776, -5.7404060498811305e-05, 0.0006451029912568629, -0.0005347030819393694, -0.00040507386438548565, 0.00026442212401889265, 0.00031274178763851523, 0.00029633319354616106, -0.00017681889585219324, 0.0002815276093315333, 0.00015237923071254045, -9.312627662438899e-05, 0.0003160338383167982, -0.0002870844618882984, -0.00030768965370953083, 0.0003035939298570156, -0.0001795723510440439, 0.00021853057842236012, 0.0004683454753831029, 0.00021090131485834718, 9.879716526484117e-05, -0.000313918455503881, -0.0003321370168123394, 8.803303353488445e-05, -0.00013995579502079636, 0.0014569406630471349, -0.0001482602528994903, -0.00022293635993264616, 0.00017073345952667296, 0.00021846525487489998, -0.0006192559376358986, 0.00025461940094828606, 0.0005630329833365977, 0.00047843880020081997, -0.0001633458596188575, -0.0002593854151200503, -0.00012397646787576377, -0.00021433515939861536, -9.170980774797499e-05, 6.122709601186216e-05, 0.0002998116542585194, -2.3953092750161886e-05, 6.23866799287498e-05, -8.17535474197939e-05, -6.097622826928273e-05, 6.851450598333031e-05, 0.00013490805577021092, -0.00023857677297201008, -0.00052349065663293, 0.00015269822324626148, -0.00026024357066489756, 0.0012011111248284578, -0.0006503798067569733, 0.00041378207970410585, 8.192476525437087e-05, -0.00020876068447250873, -0.00014492101036012173, -0.0006709267618134618, -7.269645720953122e-05], [0.0007418456370942295, 0.00037540128687396646, -0.00035454556928016245, 0.00010866009688470513, -0.00034436778514645994, -4.6493114496115595e-05, 6.177947216201574e-05, 0.00018320261733606458, 0.0005716640735045075, 0.0007471114513464272, -0.0002607286733109504, 0.00016532074369024485, -0.00014353153528645635, 0.0007031047716736794, 0.0002262311609229073, 0.0008914476493373513, -0.0005478370003402233, -0.0005052454071119428, -0.0003481636813376099, -0.0007522450177930295, 0.000157975111505948, -0.0003610019921325147, -0.00010603023110888898, -0.00020489122834987938, 0.0002189775841543451, -1.6913414583541453e-05, -0.0004985032137483358, -5.2927061915397644e-05, 6.554112042067572e-05, 0.00048689323011785746, -0.0005187502829357982, 0.0007718136766925454, 0.000531144323758781, 8.245244680438191e-05, 0.000618412799667567, 0.00014315283624455333, -0.0005066904705017805, 0.00038114527706056833, -0.0008312012068927288, 0.0005545367603190243, -4.4576823711395264e-05, -0.0005449000163935125, -0.0008986643515527248, -7.833319250494242e-05, 0.0011328511172905564, -0.0002735974849201739, -0.0005482149426825345, -0.0008357276674360037, 0.0010263165459036827, 0.0003806555178016424, 0.0012521403841674328, -0.0002453068154864013, -0.000313933560391888, -0.00019342461018823087, 0.0003617623879108578, -0.0008598052663728595, -0.0010852701961994171, 0.0005722056375816464, -0.00037223997060209513, 0.00013965554535388947, 0.00028475222643464804, -0.000563880312256515, 0.0001779293525032699, 0.0003055772394873202], [-0.000635687552858144, 0.0008140230784192681, -0.0006797023816034198, -0.00023928366135805845, -0.001508571789599955, -0.00016544836398679763, -0.0006607695249840617, 0.002111162059009075, -0.0009975212160497904, -0.0007571578025817871, 0.0007102421950548887, 0.00015582118066959083, 0.0022319527342915535, 0.0015279133804142475, 0.0004604779533110559, -0.0009954912820830941, 7.821561302989721e-05, -0.0004964644322171807, -0.0009066482889465988, 0.00022360989532899112, 0.0003549366956576705, 0.0012415425153449178, 0.0007285125320777297, 0.00027278310153633356, -0.0008342100773006678, 0.0005378068308345973, 0.00013372348621487617, 0.00033637048909440637, 0.0004941169172525406, 0.000533738755621016, 0.0026810746639966965, 0.00014561934222001582, 3.5368138924241066e-06, -0.0012047941563650966, 0.001027080463245511, -0.000902446685358882, 0.0007210177136585116, -3.883746103383601e-06, -0.00021083722822368145, 0.0011569620110094547, -0.002056475030258298, 0.0009525347268208861, -0.0018966766074299812, -0.00023653163225390017, 0.00034173225867561996, 0.0007280151476152241, -0.0007223911816254258, -0.00037537788739427924, 0.0018681862857192755, 0.0014460418606176972, 0.0005802387022413313, 0.0006187245016917586, -0.0004935378674417734, -0.0007638467359356582, -0.0002656640426721424, 0.00033472606446594, 0.0007327247294597328, -0.0004534189938567579, 4.647708556149155e-05, 0.00024300017685163766, 0.0004744500038214028, -0.0014175184769555926, -0.0011154955718666315, -0.0007383758202195168], [0.0006652630399912596, -0.00033520301803946495, 0.0003951478865928948, -0.0005239577731117606, 0.0017052250914275646, -3.03995911963284e-05, 0.0011794485617429018, -0.0005961640854366124, -0.0018924351315945387, 0.0006829024059697986, 0.000575165671762079, 0.0015395013615489006, 0.0004188513266853988, 0.0013981428928673267, 0.0014450129820033908, -0.00011358248593751341, 0.001015874557197094, 0.0016779236029833555, -0.0004228889010846615, -0.0008835173211991787, 0.0018876660615205765, -0.0009011787478812039, 0.0024160551838576794, -0.0010421504266560078, 0.0002534622326493263, -0.0010941578075289726, 0.000703653902746737, -0.0010722856968641281, -7.8992685303092e-05, -0.00027139714802615345, 0.00386007409542799, -0.0028804996982216835, 8.753185102250427e-05, 0.00027900212444365025, -0.0006988418172113597, -0.00014614802785217762, 0.0003763253625947982, -0.0003421060973778367, 0.0005336760077625513, -0.00019816150597762316, 0.001236028503626585, -0.00025198538787662983, -0.002232256345450878, 0.0019464107463136315, 0.0013515267055481672, 0.00014307544915936887, 0.0007699666894041002, -0.0011272192932665348, -0.0014695776626467705, 0.0007007966050878167, 0.0001814940187614411, -0.0005385541589930654, -0.00024811000912450254, 0.00044689266360364854, -0.0018178630853071809, -1.7651414964348078e-05, -0.001588755869306624, -0.002664747880771756, 0.0023795166052877903, -0.0003673212486319244, -0.001399311819113791, -0.0006319083040580153, -0.002358177909627557, -0.00045805121771991253]], [[0.0004187594458926469, 0.0006703540566377342, -0.00045149557990953326, 0.002061279956251383, -0.0004845182702410966, 0.0005095233209431171, -0.0005829610163345933, 0.0007969881407916546, 0.0009358271490782499, -0.0003766037116292864, -0.00040529255056753755, 0.0004113782779313624, 0.0011838882928714156, 0.0001143687404692173, 0.0007590901805087924, -0.00016023573698475957, -3.8570084143429995e-05, 0.0017682786565274, 0.0007745777838863432, -3.821792779490352e-05, -0.0007492032018490136, 0.0005910330801270902, 0.0011464308481663465, -0.0003893573011737317, -0.00015587874804623425, 0.000407534244004637, 0.00023527469602413476, -0.0016293143853545189, 0.00036480382550507784, 0.00020790174312423915, -0.00124885025434196, -0.0007663783617317677, 0.0005351897561922669, 0.0015281506348401308, 0.0004915730096399784, -0.0015390518819913268, -0.0002473061322234571, 0.00017839559586718678, 6.337041850201786e-05, 0.0006823135772719979, 0.0002006718423217535, -0.0008094294462352991, -0.0006864098832011223, -0.0003771398914977908, 0.0016016009030863643, -0.0006285480922088027, -0.0008299978799186647, -0.0004853037535212934, -1.0635354556143284e-05, 0.0011191659141331911, -0.00041366173536516726, -0.00045989244244992733, -0.00043616595212370157, 0.0002300096384715289, 0.0005536421667784452, 0.0010249295737594366, 0.0005649235681630671, 0.0017017100472003222, 0.0003768762690015137, 0.00025059268227778375, 6.05402747169137e-05, -0.0014860029332339764, -0.0005628930521197617, -0.0011150718200951815], [-3.91408411815064e-06, -5.976478405500529e-06, -1.661909323047439e-06, 1.1469673154351767e-05, 4.4687876652460545e-06, -3.120142991974717e-06, -4.922592779621482e-06, -2.4918247163441265e-06, -2.693845090107061e-06, -2.250841134809889e-06, -4.099888428754639e-07, 1.942118160513928e-06, 3.732825462066103e-07, 1.8027421901933849e-06, 6.880539331177715e-06, -9.600390512787271e-06, -1.2877557082902058e-06, -1.3412820408120751e-05, -4.503227046370739e-06, 2.0442489585548174e-06, -1.6330868675140664e-05, -7.140056368371006e-06, 2.0805784970434615e-06, -2.28189810513868e-06, 4.055333192809485e-06, 9.886582574836211e-07, 1.0433577699586749e-05, -1.862647650341387e-06, -5.104086540086428e-06, 2.464733370288741e-06, 4.235315827827435e-06, 1.3042916862104903e-06, -5.2630466598202474e-06, 3.198153990524588e-07, 6.999141987762414e-06, 1.0397056939837057e-05, 6.48640116196475e-06, -1.2619959306903183e-05, -7.91663842392154e-06, 5.883613994228654e-06, 9.100338047574041e-07, 1.7297059002885362e-06, -9.51259153225692e-06, 1.7434365418012021e-06, -1.6600532035226934e-05, -4.415574494487373e-06, 3.913636192010017e-06, -4.165471182204783e-06, -1.0161700174649013e-06, 7.440715307893697e-06, 9.094384836316749e-07, -1.208099456562195e-05, 2.9285235996212577e-06, 7.163586360547924e-06, -5.118058652442414e-06, -4.304559297452215e-06, 7.505499070248334e-06, 1.0723262676037848e-05, 5.753382993134437e-06, -1.869158836598217e-06, -4.828899591302616e-07, -1.5289091379599995e-06, -6.407030923583079e-06, -2.774544100248022e-06], [7.139101944630966e-05, 0.00010800261225085706, -2.0948753444827162e-05, -8.555052772862837e-06, -5.249517926131375e-06, -4.830290890822653e-06, -2.2978540528129088e-06, 7.737226042081602e-06, -5.548992339754477e-05, -3.207272311556153e-05, -6.481657237600302e-06, -1.8010845451499335e-05, -2.1386498701758683e-05, -1.6273151004497777e-06, 5.87968279432971e-05, 2.7204705475014634e-05, -1.5491581507376395e-05, 1.8513153918320313e-05, 7.41203530196799e-06, -9.142776252701879e-05, -8.957261343311984e-06, -3.1132527510635555e-05, 4.6382529035327025e-06, -1.0062112778541632e-05, -1.0289726560586132e-05, 6.635354111494962e-06, -1.8550781533122063e-05, 2.5800884031923488e-05, -1.382480945721909e-06, 5.269780558592174e-06, 6.080877028580289e-06, -1.4346291209221818e-05, -9.278413926949725e-06, 1.2506256098276936e-05, -1.436985439795535e-05, -7.752147212158889e-06, 1.0095196557813324e-05, 8.110966882668436e-05, -1.2053075806761626e-05, 8.012691068870481e-06, -6.26327619102085e-07, -2.3565498850075528e-05, 1.9160695956088603e-05, -6.547368684550747e-06, 6.918896542629227e-05, -5.4854294830875006e-06, 8.903329216991551e-06, 3.7137974686629605e-06, 1.0336873856431339e-05, -3.772029231186025e-06, 1.2260999938007444e-05, 4.167392489762278e-06, -6.843711162218824e-06, -3.450674921623431e-05, 1.3040586054557934e-05, -1.4314380678115413e-05, 2.3348611648543738e-06, 8.345673450094182e-06, 8.330296736858145e-07, 4.251083737472072e-06, -2.201992720074486e-05, 5.044427325628931e-06, -3.3671141864033416e-05, -6.198521077749319e-06], [-4.9919206503545865e-05, -0.000376287818653509, 2.183197830163408e-05, -0.00014318594185169786, 6.4376381487818435e-06, -6.356417725328356e-05, 3.477619611658156e-05, -6.270666926866397e-05, -0.00019120803335681558, -1.3549288269132376e-05, -4.075771721545607e-05, 6.113066774560139e-05, 3.516417564242147e-06, -1.3432047580863582e-06, -0.0001361165486741811, -5.722817877540365e-05, -0.00011072971392422915, 5.406871059676632e-05, 0.00013287863112054765, -0.00030327169224619865, -4.90818683829275e-06, -4.135035851504654e-06, -2.2561549485544674e-05, -9.359883551951498e-05, 3.68744476872962e-05, 3.2495907362317666e-05, 4.655263910535723e-05, 2.1487860067281872e-05, 7.74590489527327e-07, 8.584373426856473e-05, -6.596928142243996e-05, 3.862471203319728e-06, -0.00013479040353558958, 8.67308845045045e-05, 6.720282544847578e-05, 4.7364028432639316e-05, 1.2381612577883061e-05, -6.305029819486663e-05, -4.598332452587783e-06, 2.917239544331096e-05, -1.5076555428095162e-05, 2.1740965166827664e-05, 4.830338730243966e-05, 1.944645009643864e-05, 4.5243665226735175e-05, -1.7560218111611903e-05, 7.716298568993807e-05, -0.0002646061184350401, -4.290901415515691e-05, -2.407586362096481e-05, 8.785865247773472e-06, 0.00011487132724141702, -6.128859695309075e-07, 1.3918033801019192e-05, -5.058798706158996e-06, -6.061756721464917e-05, -0.00013800965098198503, -2.8049778848071583e-05, -8.47055998747237e-05, -2.7142516046296805e-05, -5.901236363570206e-05, -0.0002991648798342794, -4.483307202463038e-05, -5.707750460715033e-05], [0.000606428598985076, 0.0016764325555413961, -0.0002020529645960778, -0.000165587363881059, 0.00029515629285015166, -0.000586311100050807, 0.0003022922028321773, 0.00011270678805885836, -0.000704912468791008, -0.00015672804147470742, 0.0006407659384422004, 0.0009825960732996464, -0.0003568627289496362, -0.0005375207401812077, 0.0006954259588383138, 0.00037966587115079165, -0.0009457342675887048, -3.948396260966547e-05, -0.00033502053702250123, 0.000573995872400701, 0.0001192493800772354, 0.0001880783966043964, 0.00012349420285318047, -9.736908396007493e-05, 0.00017013392061926425, -0.00014170062786433846, -9.30770329432562e-05, 0.0003393408842384815, 9.957521251635626e-05, 0.00033769506262615323, -0.00010044797090813518, 0.0007351055392064154, 5.826302003697492e-05, 0.0001397330197505653, -5.1081595302093774e-05, 0.0006571969715878367, -9.622657671570778e-05, -0.0003432234807405621, -0.00016339942521881312, 3.0246315873228014e-05, 0.0003360136179253459, -0.00012885838805232197, -0.0002256473817396909, -0.0002829741861205548, 0.0012952475808560848, -0.0001644951553316787, -0.00011101525888079777, -0.00040493288543075323, -0.000362703314749524, 5.935897206654772e-05, -0.00012693311145994812, -0.0005351232830435038, 0.0005062597338110209, -0.00022967289260122925, 0.00019548370619304478, 0.00031213939655572176, -0.00040893579716794193, -0.00031164538813754916, -0.0003137383027933538, -4.5451288315234706e-05, 0.00047833111602813005, -0.0010053908918052912, -0.00043755403021350503, 8.349785639438778e-05], [-0.0005012161564081907, -0.0023560519330203533, 3.459937943262048e-05, 0.0010485023958608508, 0.0013796918792650104, 0.0007877051830291748, 7.85349402576685e-06, -0.00021125623607076705, 0.000268922041868791, -0.0012427499750629067, -1.606543082743883e-05, -0.0007680405396968126, 0.0011007762514054775, -0.003960121888667345, -0.0010580148082226515, 0.00018968262884300202, -0.0009223533561453223, 0.000571688637137413, 0.0008371149306185544, 0.000264368747593835, 0.0013039683690294623, 0.0007020984776318073, 0.00016309609054587781, -0.0005856527714058757, -0.000687259656842798, -9.738293010741472e-05, 0.000621776795014739, 0.00022299021657090634, -0.00034202265669591725, -0.0009916118578985333, -0.002469531027600169, 0.00011490585166029632, -4.081998486071825e-05, -1.0869320249184966e-05, -0.0006451781955547631, 0.0005443228874355555, 0.002037366619333625, -0.0018204385414719582, 0.0010236689122393727, -0.0010444577783346176, -0.00019120561773888767, 0.00012525780766736716, 0.0010843341005966067, -0.0005072177154943347, -0.002536334563046694, 