{"nesterov": true, "init_weights": [2218, [[[[-1.979525404749438e-05, -0.0009497822029516101, 2.7552850951906294e-05, -6.017123814672232e-05, 0.0005903853452764452, 0.0002034048520727083, 0.0005002784891985357, 0.00012579881877172738, -0.0008202595636248589, -0.0006170212873257697, 0.000847881892696023, -0.0005523884319700301, 2.734256850089878e-05, -0.0008079475956037641, -4.689150955528021e-06, 0.0003529503010213375, -0.0006654160679318011, 0.0002715246519073844, -0.00021373825438786298, 0.00016797434363979846, 0.0003270831366535276, 0.00019366410560905933, 0.0005482416017912328, 0.00014760879275854677, 0.000498143199365586, 0.0008384883403778076, -0.00025073374854400754, 6.519316229969263e-05, -0.0013929028064012527, 0.00010535880574025214, 0.0008001240203157067, 0.00035882738302461803, -0.0007524183019995689, -0.00033941995934583247, -0.0006127589149400592, -0.0013413724955171347, -0.00031095888698473573, 0.0007974717882461846, -0.0001112929021473974, -0.000903000240214169, -0.0004825587384402752, -3.409436612855643e-05, -0.0008960248669609427, -0.0008270768448710442, -0.00036505283787846565, -7.665266457479447e-05, 4.2394764022901654e-05, 3.392375947441906e-05, -0.002554723061621189, -9.88463289104402e-05, 0.0003349755425006151, -0.0006167704705148935, -0.0018219880294054747, 0.00034194887848570943, 0.0003295036149211228, 0.000630726688541472, 0.0008650129893794656, -0.001571729313582182, 8.5647297964897e-05, -0.0008052032790146768, -0.0002983702579513192, 8.671131217852235e-05, -0.00016550335567444563, 0.0021060900762677193], [0.0002994793467223644, -0.0003398155968170613, -1.816130316001363e-05, -0.00020494963973760605, 0.0002555423998273909, -0.0003290943568572402, -0.002005423652008176, -0.00041094148764386773, -0.00025867606746032834, -2.1615036530420184e-05, -0.00022891744447406381, -0.0002067973546218127, 4.8901187255978584e-05, -0.0002534358645789325, 0.0005962614668533206, 0.0006611678982153535, -0.0001209201873280108, -0.0002993858070112765, 9.328177839051932e-05, -0.00027052348013967276, -0.0005453937919810414, -0.0005057634552940726, 0.0005193809629417956, -0.0013116953196004033, 0.0009482958703301847, -0.00028457556618377566, -0.0015138017479330301, -0.0001556503411848098, -0.0005049718311056495, -0.0018065613694489002, 0.0009086278732866049, 0.00020149079500697553, -0.0013985452242195606, -0.00017871454474516213, -0.000456508802017197, -0.0015432252548635006, -0.00036227534292265773, 0.00039542801096104085, 0.0001273743255296722, 0.00043799361446872354, -0.0003027219499927014, -0.00012572410923894495, -0.0004140055098105222, -0.000464397860923782, 0.000492160557769239, 4.306029950384982e-05, -0.0005486964946612716, -5.300345947034657e-06, -0.0017654268303886056, -0.0004226654127705842, -0.0002663939376361668, 0.000943671097047627, -0.0010536115150898695, 0.00023956035147421062, 0.0013778000138700008, 0.00012569865793921053, 0.00010866169759538025, -0.0009526788489893079, -0.0003547555534169078, 0.00045960769057273865, -0.0009639605996198952, 0.0001071330116246827, -0.0015244267415255308, 0.0007783905020914972], [0.0007636597147211432, 0.0014942320995032787, 2.356779805268161e-05, -2.1865944290766492e-05, 0.0017126635648310184, 0.0006529312813654542, 0.0024407426826655865, 0.0009588777320459485, -0.0002081006532534957, 0.0008696970762684941, 0.0020847388077527285, -0.00035439501516520977, -8.509548206347972e-05, -0.0002054970245808363, 0.0006671238224953413, -0.001601954223588109, 0.0011923302663490176, -0.0005373418680392206, 0.0007607737788930535, 0.00096744520124048, -0.001897717360407114, 0.00034675118513405323, 0.000433244276791811, 6.826349999755621e-05, -0.00010906135139521211, -0.001075831474736333, 0.0016904505901038647, 0.000809917866718024, 0.001035152468830347, 0.00027077237609773874, 0.0010674715740606189, -0.0018135153222829103, 0.0005695597501471639, 0.0018495861440896988, 0.00028121680952608585, 0.0011809287825599313, -7.721059955656528e-05, -0.00032320746686309576, 0.0001580592943355441, -0.001064651645720005, 0.0008328414405696094, 0.0003864577447529882, -0.0011574332602322102, -0.0006688240682706237, -0.0007556712371297181, -9.292603863286786e-06, 0.0007721568690612912, -6.22851075604558e-07, 0.0001294806133955717, 0.0023041684180498123, -0.00017282764019910246, 0.00047377735609188676, 0.0008636078564450145, 0.0002786696422845125, 0.0003511920804157853, 0.0019822060130536556, 0.0011306164087727666, 0.0008657231228426099, 0.00041615654481574893, 0.0015889927744865417, 0.0011125203454867005, 0.0002274962462252006, 0.001337169436737895, -5.741656059399247e-05]], [[0.0001095441184588708, -0.0008122276049107313, -4.229057958582416e-05, 0.0001759556180331856, -0.0008379345526918769, -0.00041172097553499043, -0.0008412721799686551, -0.0012661817017942667, -0.0004269228666089475, 0.0006296378560364246, -0.00021176045993342996, 0.000886951049324125, 0.00024251970171462744, 0.00036897428799420595, 0.0016284859739243984, -0.0012781483819708228, -0.0011801401851698756, 0.0007759038708172739, 4.3331048800610006e-05, -0.00013700014096684754, 0.001780332182534039, 0.0006127351080067456, 0.0010538379428908229, -0.00042474374640733004, -0.00014775825547985733, -0.0002316414611414075, -0.0008320283959619701, 0.0001062913506757468, -0.0007620624965056777, -0.001071192673407495, 0.0005387371638789773, 0.0018980884924530983, -0.0013823340414091945, -7.341989839915186e-05, 0.0006291554309427738, 0.00032333575654774904, 0.002357334131374955, 0.0016074728919193149, 6.640892934228759e-06, 0.0005133865051902831, -0.000799861503764987, -0.0001345066266367212, -0.0003045439370907843, 0.0003526831860654056, -0.0004480247152969241, 0.00018627091776579618, -0.0009696909692138433, -4.5241737097967416e-05, 0.00041735090781003237, 0.0005921643460169435, 0.0007200769614428282, -0.0004263920127414167, 0.00024211966956499964, 0.00040834263199940324, 0.0011236171703785658, 0.001008660183288157, 0.0007110639708116651, -3.955361898988485e-05, 9.721620881464332e-05, -0.00043248687870800495, -0.0002765661047305912, 0.00024249593843705952, -0.0005876324721612036, 0.0009657092159613967], [0.0003406366740819067, -0.0003562183992471546, -0.00011748768883990124, -2.0037750800838694e-05, -0.0009242859086953104, 0.0003892809327226132, -0.0005591982044279575, 0.00010186292638536543, -0.00044724508188664913, 0.0007123626419343054, -0.0006299500819295645, -0.0014337078901007771, 0.0001248982734978199, 0.0010090488940477371, 0.0019578549545258284, 0.00010728946654126048, -9.997306915465742e-05, 0.0003777689125854522, 1.0430506335978862e-05, -0.0005487771122716367, -0.0002492735511623323, 8.944899309426546e-05, -0.0008107980247586966, 0.0002531441568862647, -2.4168897652998567e-05, -0.0005097647663205862, 6.0835329350084066e-05, 8.695983706275001e-05, -0.0007248717010952532, 0.00035530480090528727, -0.00031830728403292596, 0.0013142320094630122, 0.00024476542603224516, -0.00042026693699881434, -0.0009195019374601543, -0.0003797454119194299, -1.6067613614723086e-05, -0.00019716621318366379, -0.00033305727993138134, -0.0002915948280133307, -0.001483515021391213, 6.28702764515765e-05, 7.214891957119107e-05, -0.0009300154633820057, 0.0003240225196350366, -1.5828369214432314e-05, 0.00023629565839655697, -0.00021107110660523176, -0.003390718251466751, 0.00010578494402579963, 0.0003841772850137204, -0.0007653803331777453, -0.0008443068945780396, 0.0001759600854711607, 0.00031409855000674725, 9.188526746584103e-05, 0.0001849661930464208, -0.0007341332966461778, -0.00029080198146402836, -0.0003276335191912949, -0.0007140469970181584, 0.00024204960209317505, 0.0009409280028194189, -0.001098842709325254], [0.0006429979111999273, 0.0015939431032165885, 4.6754990762565285e-05, 1.3248580216895789e-05, 0.001622952171601355, 0.0005738511681556702, 0.0025033156853169203, 0.0008364836103282869, -0.00026238185819238424, 0.0012108880328014493, 0.0021706789266318083, -0.0005320445634424686, -4.583719783113338e-05, -6.682751700282097e-05, 0.0007391198305413127, -0.0013122992822900414, 0.001389227109029889, -0.00042680848855525255, 0.0007748239440843463, 0.0009783138521015644, -0.0021208766847848892, 0.00041276984848082066, 0.0002577171544544399, 0.0002537293476052582, -7.277332042576745e-05, -0.0008842062088660896, 0.0016097344923764467, 0.0007753646932542324, 0.0006122241029515862, 0.0002186003839597106, 0.0011772762518376112, -0.0016744958702474833, 0.0006214274326339364, 0.0016847383230924606, 0.00029504287522286177, 0.0010356234852224588, 0.00010727363405749202, -0.00024281337391585112, 0.00012704060645774007, -0.0010225006844848394, 0.0006055673584342003, 0.00025137580814771354, -0.001089712604880333, -0.0007746245828457177, -0.000745543627999723, 7.604598067700863e-06, 0.0008099543629214168, 1.2111726391594857e-05, 0.0002023833803832531, 0.0022761530708521605, -0.00017310332623310387, 0.0003043258038815111, 0.000862389337271452, 0.00015323320985771716, -0.00024721986846998334, 0.0018480824073776603, 0.0010505695827305317, 0.0008124328451231122, 0.00041985331336036325, 0.0014081242261454463, 0.001153188175521791, 0.00015201958012767136, 0.0013646113220602274, -4.8222311306744814e-05]], [[0.00023070375027600676, -0.0002507304889149964, 7.761410233797505e-05, -0.00014200780424289405, 0.0005335999885573983, -0.0010459194891154766, -0.0005706780357286334, -9.47845182963647e-05, -0.0004532518214546144, 0.0014277605805546045, -0.0013105483958497643, -0.0004840236506424844, 0.00021797955560032278, 0.0004642099665943533, 0.0009762861300259829, -0.00029212216031737626, -0.000524398114066571, 0.00014498423843178898, 3.935467248084024e-06, -0.001713746227324009, 0.0002916181110776961, -2.3897620849311352e-05, -0.0005735158338211477, 0.00037837150739505887, 0.0016687556635588408, 0.0004653829673770815, -0.00033591192914173007, 0.00042175225098617375, -0.0012387509923428297, -0.00031266160658560693, -0.00019786308985203505, 0.0013804619666188955, 0.00033648815588094294, -4.2504980228841305e-06, -0.0006005081231705844, -0.0013288035988807678, -0.0002719182230066508, -9.38103039516136e-05, -0.0006679407088086009, -3.85149905923754e-05, -0.00030071628862060606, 0.0004132137692067772, -9.133320418186486e-06, 0.00047797022853046656, 3.0476971005555242e-05, 8.024712769838516e-07, -9.287821740144864e-05, -0.00015591175178997219, -0.0012933798134326935, -0.0004985184059478343, 0.00023295432038139552, 0.00019802141468971968, 8.44972237246111e-05, 0.0003859464777633548, 0.0018161138286814094, 0.0009758422384038568, -0.0007393304840661585, -0.0007284925086423755, 0.0002559776185080409, -0.0010610534809529781, -0.00021285866387188435, 4.564666596706957e-06, -0.0015383195132017136, 0.0008967232424765825], [0.00013485015369951725, -0.0007771270466037095, -2.2825684936833568e-05, -0.0002874112396966666, -0.00028055283473804593, 0.0001367246441077441, -0.00045958737609907985, 4.928719863528386e-05, 0.0002102055004797876, -0.0005068479222245514, 0.00043116763117723167, 0.00016598508227616549, 0.0001633799693081528, -0.00044649397023022175, 0.0011869564186781645, -0.0010350915836170316, -0.0007234818767756224, -0.0008476360235363245, 9.175161540042609e-05, -0.00030226178932935, 5.0064612878486514e-05, -5.790944123873487e-05, 0.0005315684247761965, -0.0016307942569255829, -0.0001806103391572833, -0.0009294485207647085, -0.00040308781899511814, -0.0004278488049749285, 0.0003836083924397826, -0.0008907465962693095, -0.00023753574350848794, -0.0008065416477620602, -0.0008697022567503154, -0.0001883523364085704, 0.00093876663595438, 4.577769141178578e-05, 5.3941330406814814e-05, -0.0003622077638283372, -0.00017239860608242452, 2.9444985557347536e-05, -0.0005703828064724803, 9.169318218482658e-05, -0.0003415615647099912, 0.000762296374887228, 0.0005820863880217075, 7.298211130546406e-05, 2.9344948416110128e-05, -3.701125388033688e-05, -0.0007910861750133336, 0.0002617788559291512, 0.0003167481627315283, -0.00031995936296880245, -6.250687874853611e-05, 0.0008807345875538886, 0.002005180111154914, -0.00042884968570433557, -0.0003596239839680493, -0.000281251355772838, -8.056928345467895e-05, -0.0009659279603511095, 0.00010879450564971194, 5.1158360292902216e-05, -0.001963312504813075, 0.0001222961291205138], [0.0005591427907347679, 0.0014747822424396873, -7.690359780099243e-06, 2.741738353506662e-05, 0.0015687637496739626, 0.0005338831106200814, 0.002494148211553693, 0.0010711230570450425, -0.0003150493430439383, 0.001351325074210763, 0.0020712451077997684, -0.0007570934249088168, -6.37298944639042e-05, -6.9674220867455e-05, 0.0008385378168895841, -0.0012944950722157955, 0.0014613993698731065, -0.0003478017169982195, 0.0011557817924767733, 0.00108183769043535, -0.0022448142990469933, 0.0005038087256252766, 0.0001947246491909027, 0.00017209129873663187, 0.00034419962321408093, -0.0008184544858522713, 0.0015744995325803757, 0.0007770025404170156, 0.000630474416539073, 0.00022496574092656374, 0.0011888905428349972, -0.0016177035868167877, 0.0005675809225067496, 0.0017114405054599047, 0.00022387609351426363, 0.0005330853164196014, -3.66238527931273e-05, -0.000173465465195477, 0.00010571020538918674, -0.001148570328950882, 0.0006686676060780883, 0.0003882411983795464, -0.0010735129471868277, -0.0006936341524124146, -0.00043978338362649083, -8.898605301510543e-06, 0.0008366071851924062, -7.701488357270136e-06, 0.0006129108369350433, 0.002321947831660509, -0.00016071187565103173, 0.00024632670101709664, 0.0006497337017208338, 5.1112991059198976e-05, -0.00011308945249766111, 0.0017246764618903399, 0.0009740990935824811, 0.0009266699198633432, 0.0004914693417958915, 0.0010582448448985815, 0.0010002687340602279, 0.0001564404519740492, 0.001432228134945035, 7.152592297643423e-05]]], [[[0.0003852008958347142, -0.000612362870015204, 2.6001645892392844e-05, 8.760944911045954e-05, 0.000343207037076354, -0.0009340501856058836, -0.00032039740472100675, -0.0006400460260920227, -3.7984322261763737e-05, 0.000946743122767657, -0.000429262756370008, 6.740358367096633e-05, 0.0001853137946454808, 0.00023975054500624537, -0.00031334508094005287, -0.0005924114375375211, -0.0006041810847818851, 0.0010490394197404385, -0.00029484485276043415, -0.00013913121074438095, 0.0014851813903078437, -4.615868965629488e-05, -0.00043671572348102927, -0.0009756252984516323, 0.0002670797985047102, -0.0009513339027762413, -0.0004616316291503608, 0.0003989321121480316, -0.0007076612673699856, -0.0003172025899402797, 0.00024161147302947938, 0.001871046843007207, -0.0009901531739160419, -0.00031533814035356045, 0.00019576307386159897, -0.0008841776289045811, 0.001350591890513897, 0.0009321346879005432, -2.134106762241572e-05, 0.0005636861314997077, -0.0001164934947155416, -0.00021085735352244228, -0.000247642194153741, -0.00155636016279459, 0.000466994009912014, 7.377965812338516e-05, -0.0003871249791700393, -0.00018926167103927583, -0.0009298659861087799, 0.00016537884948775172, 0.00032539304811507463, 0.00034654000774025917, -0.0011824076063930988, 0.0002802995149977505, 0.0002002631372306496, 0.00027690795832313597, -0.0005403390387073159, -0.00023750975378789008, 6.0710677644237876e-05, -0.0006393274525180459, -0.0007173348567448556, -1.2728385627269745e-05, 0.0015545636415481567, -0.0006544559728354216], [-0.00010601071699056774, -0.0006270474987104535, 8.073107892414555e-06, 0.00018897558038588613, -0.0011543355649337173, 0.00044004974188283086, -0.0005791198927909136, 6.295641651377082e-05, -0.0009257587371394038, -0.00022155215265229344, 0.00011713270214386284, 0.0004626348672900349, 6.705079431412742e-05, -0.00044633905054070055, 0.000571345561183989, -0.0010050552664324641, 0.00011327795800752938, 0.0001717453560559079, -0.0002285181835759431, -7.110019214451313e-05, -2.8597802156582475e-05, -0.0006148985703475773, 3.2026146072894335e-05, -0.00035682437010109425, 0.000185564233106561, -0.0005532625946216285, 0.0003022311138920486, -0.0004222830175422132, -0.00027150590904057026, -0.00018679627100937068, -0.00022637523943558335, -0.0010939233470708132, 9.651543223299086e-05, -0.0006037051789462566, -0.0007944803219288588, -0.00035505436244420707, 0.00031083403155207634, 0.0013336555566638708, 0.00012456157128326595, 1.7959304386749864e-05, -0.0011763055808842182, 0.00013978686183691025, -0.0009670610306784511, 0.00010553584434092045, -0.0013109808787703514, 6.256173946894705e-06, -0.0005034931236878037, -0.00011385927064111456, -0.003585954662412405, -0.00019248868920840323, 0.00011600519064813852, 0.0007587687578052282, -0.0012451766524463892, 0.00021644835942424834, 0.0006396188400685787, 0.0006608858238905668, 0.00012378237443044782, 0.00033733563032001257, 8.812492887955159e-05, 0.0004157047369517386, -6.060948362573981e-05, 0.00022893404820933938, -0.0010633529163897038, 7.41350231692195e-05], [0.000771234801504761, 0.0014924670103937387, 4.7010649723233655e-05, 1.543055441288743e-05, 0.001609021332114935, 0.0006949062226340175, 0.0024810275062918663, 0.0009834811789914966, -0.0002179589937441051, 0.0006727329455316067, 0.0020156523678451777, -0.0005891951732337475, -5.125278403284028e-05, -0.0002301451750099659, 0.0005938532995060086, -0.001912429928779602, 0.0012490313965827227, -0.0007409096579067409, 0.0007535782642662525, 0.0009737751679494977, -0.0020960383117198944, 0.0004194291541352868, 0.0002252879785373807, 0.00027389981551095843, -0.0002208034275099635, -0.0014748243847861886, 0.0017003240063786507, 0.0006976741715334356, 0.0009714025072753429, 0.0003819132689386606, 0.0011438862420618534, -0.0015869475901126862, 0.0006994893774390221, 0.0018493502866476774, 0.00017318385653197765, 0.0011055560316890478, -0.00011820078361779451, -0.0006862122099846601, 0.0003473705146461725, -0.0010563721880316734, 0.0008013372425921261, 0.00040072007686831057, -0.0011450601741671562, -0.0008412558818235993, -0.0007362908218055964, -1.9532486476236954e-05, 0.0008945988956838846, -2.7875394152943045e-06, 0.0001227566972374916, 0.002390938811004162, -0.00014436501078307629, 0.0004738169664051384, 0.0006653832970187068, 0.00041389360558241606, -0.0002941591083072126, 0.001970377517864108, 0.0011630209628492594, 0.0007646445883437991, 0.00045404615229927003, 0.001872470835223794, 0.001341968192718923, 0.00015451193030457944, 0.0013183285482227802, -0.00021206133533269167]], [[0.00019788654753938317, 0.0003985761140938848, 0.00021892788936384022, 3.058234142372385e-05, 0.0010558089707046747, 0.00022308016195893288, 0.0008443330298177898, -0.0002532833022996783, -0.0008295340812765062, 0.0002674338174983859, -0.0002889634051825851, -0.0015037384582683444, 8.954432269092649e-05, -0.00044226451427675784, 0.0003037767601199448, 0.00017621947336010635, 0.0002797557390294969, -0.0005992244696244597, -0.0002655076386872679, -7.140869274735451e-05, -0.0009056819253601134, -0.000648761575575918, -0.00033105118200182915, 0.0006227275007404387, 0.00016564902034588158, -0.0005675978609360754, 0.00033887894824147224, -0.0005600895965471864, -0.001900650910101831, -3.165863745380193e-05, -9.856719407252967e-05, 0.0008033803896978498, 0.00028179757646285, -0.0013185739517211914, -0.0002489762846380472, 0.00021447021572384983, 6.062575994292274e-05, -0.0003763811837416142, -0.000556792423594743, -9.681547817308456e-05, -0.0009967366931959987, -0.0005937932291999459, -0.0006839272100478411, -0.0003112182021141052, 0.0006860829889774323, -0.00015309793525375426, -0.0006049939547665417, -0.00011311429261695594, -0.0013907871907576919, -8.305639494210482e-05, 1.6531488654436544e-05, 0.00036032430944032967, -0.00017918954836204648, 0.0007764814072288573, -0.00012008027988485992, 0.0009701383532956243, 0.00027911827783100307, -0.0013439212925732136, -2.6803383661899716e-05, 0.0012283993419259787, -0.001054434571415186, 0.0003430525539442897, -0.000679791672155261, -9.325696737505496e-05], [-0.0001467442634748295, -0.0012739889789372683, -0.00010342083987779915, -0.00010395811113994569, -0.0002868357696570456, -0.00044116040226072073, -0.0011513701174408197, -0.0008329340489581227, -0.0005683951894752681, 0.0005088616744615138, 0.001105350675061345, 0.001896595349535346, -4.2770570871653035e-05, -0.0006942598847672343, 0.0001164425048045814, 0.0001366185606457293, -0.0014145482564345002, 0.0006395993405021727, -0.000706711143720895, -0.0005619183648377657, 0.00035844475496560335, -0.0001468957489123568, 0.00030955325928516686, -0.0006251606391742826, -0.00037533536669798195, 0.0009637984912842512, 0.00013614229101222008, -0.0006268324214033782, -0.0003323458950035274, 0.0009070112137123942, 8.518566028214991e-05, -0.0005533290095627308, -0.0004430805565789342, -0.00020495321950875223, -0.00027735039475373924, -0.00017115118680521846, 0.00020738434977829456, 0.0006304554408416152, 0.00028973905136808753, 0.00037225568667054176, 0.0003814645460806787, 3.0329123546835035e-05, -0.0002702790661714971, -0.0006916935672052205, -7.042783545330167e-05, 8.26666655484587e-06, 0.00011175334657309577, 7.324988837353885e-05, -0.0017492143670096993, -0.000977441668510437, 0.0003883659082930535, -0.0013969369465485215, -0.0012387908063828945, 0.0007483296794816852, -0.000387354230042547, 0.0006026765913702548, 0.0005193616379983723, -0.00022239526151679456, -0.00027948172646574676, -8.569622877985239e-05, 0.00012035135296173394, 5.122812581248581e-06, -0.0007584044942632318, -0.0006946305511519313], [0.0006238973001018167, 0.0015793408965691924, 2.223685623903293e-05, 3.593009751057252e-05, 0.001520815771073103, 0.0005266334628686309, 0.002520754002034664, 0.0009381132549606264, -0.0002959522826131433, 0.000987173174507916, 0.002183058764785528, -0.0007566353306174278, -9.214989404426888e-05, -5.7697645388543606e-05, 0.0006987614324316382, -0.0016124321846291423, 0.001420970307663083, -0.000628013105597347, 0.00078708550427109, 0.0010405698558315635, -0.0023369549307972193, 0.00046226067934185266, 0.00010505592217668891, 0.0003896480775438249, -0.00014373613521456718, -0.0013094140449538827, 0.0015686522237956524, 0.0006607327377423644, 0.000561059801839292, 0.0003113767597824335, 0.001252359477803111, -0.0014197370037436485, 0.0007256681565195322, 0.0016477464232593775, 0.00013422081246972084, 0.0009288120782002807, 0.00018446927424520254, -0.000629465444944799, 0.0003083392803091556, -0.0010153844486922026, 0.0005846177227795124, 0.00033089477801695466, -0.0010834528366103768, -0.0009899784345179796, -0.0007599195814691484, -2.0324403521954082e-05, 0.0008397467900067568, -2.8386539270286448e-05, 0.00030398741364479065, 0.002338217105716467, -0.00013221160043030977, 0.00035557535011321306, 0.0006350291077978909, 0.0003920710296370089, -0.0008295124862343073, 0.0018497301498427987, 0.0011275517754256725, 0.000659134064335376, 0.0005066260928288102, 0.0017046519787982106, 0.0013358485884964466, 0.00011980239651165903, 0.0013947460101917386, -0.00020974245853722095]], [[0.0004085061082150787, 0.0004091955197509378, -7.878299220465124e-05, -0.00011455414642114192, -0.0005733885336667299, 6.055827543605119e-05, -0.0008474145433865488, -0.0012308098375797272, -7.078911585267633e-05, 0.0012094510020688176, 0.00132172170560807, 0.0003294826310593635, 0.00016989893629215658, 0.000862767337821424, 0.0009893558453768492, -0.0013585749547928572, -0.0006011016666889191, 0.0007276536198332906, -0.00016095497994683683, -0.001690277480520308, -0.0010638441890478134, 0.000344379193847999, -0.000391114444937557, -0.001492179580964148, 0.0005810150178149343, 0.0005622124881483614, 0.0005409562727436423, -0.00028702354757115245, -0.00044726842315867543, 0.00022788353089708835, -4.484577220864594e-05, 0.0009802088607102633, -0.0002743838122114539, -0.00031887623481452465, -0.0002971460926346481, -0.0014098407700657845, -0.0006521463510580361, 0.0008849175064824522, 0.00019171157327946275, -0.0009813904762268066, -6.268196739256382e-05, 0.00043958635069429874, 5.240773316472769e-05, -0.0006981518235988915, -0.0001079386129276827, -6.941783067304641e-05, 0.0001397958112647757, -0.0001424961374141276, -0.001253762049600482, -0.0011117663234472275, 3.4194483305327594e-05, -0.0005035717622376978, 3.5803241189569235e-05, -0.00033731438452377915, -0.0001225867890752852, -0.0006232226733118296, 0.0003116373554803431, -0.0009865177562460303, 2.2791944502387196e-05, -0.0007312374655157328, -0.0006533493869937956, -3.0432485800702125e-05, 0.0001754295954015106, 0.0014126787427812815], [0.00034788920311257243, 0.0003545764193404466, 0.00015640282072126865, 0.00018981858738698065, -0.0003217332996428013, -0.0009580134646967053, -0.0008930695476010442, 0.0005027787992730737, -0.00017482689872849733, -0.0006159415934234858, 1.8556980649009347e-05, -0.00013180049427319318, 8.513552165823057e-05, 0.0007369499071501195, 0.0011409627040848136, 0.00011485378490760922, -0.0008920140098780394, -3.950836980948225e-05, -0.00025448721135035157, 0.0003481924068182707, 0.0027237071190029383, 0.0014190708752721548, 0.0006023458554409444, -0.0008238713489845395, 0.00034319201949983835, -0.00120713678188622, 0.0003314534842502326, 0.0012718969956040382, 0.0003424691967666149, -0.0003620722272899002, 5.994076491333544e-05, 0.0009835758246481419, -0.00035142357228323817, -0.0011892467737197876, 0.0008710833499208093, -0.0005045025609433651, 0.00272188289090991, -0.0007032309658825397, -0.001321404823102057, 0.001486324705183506, -0.001473200973123312, 0.00026352115673944354, -0.00022926957171875983, -0.0006473745452240109, -0.0018566495273262262, -1.954518666025251e-06, -7.299512799363583e-05, 1.2135613360442221e-05, 0.0007928916020318866, -0.0012774060014635324, 0.0007233695359900594, -0.0005275654257275164, -0.0008433182956650853, 0.0010790347587317228, 0.0016321117291226983, 0.0011211367091163993, -0.001072644256055355, -0.000492710736580193, 0.00047292077215388417, -0.0009667167323641479, 5.724876245949417e-06, 0.00017770797421690077, 0.00016379321459680796, -0.0004625174042303115], [0.0006611034041270614, 0.00154845358338207, 1.0268891855957918e-05, 1.3903545550419949e-05, 0.001477284706197679, 0.0004843534261453897, 0.002526917727664113, 0.0011988802580162883, -0.0003395731037016958, 0.0011310286354273558, 0.002044077031314373, -0.001037714770063758, -3.605286838137545e-05, -1.1732685379683971e-05, 0.0007740319706499577, -0.0015792972408235073, 0.0015092367539182305, -0.0005443345871753991, 0.0011749817058444023, 0.0011045486899092793, -0.0023519182577729225, 0.0005422361427918077, -1.6272941138595343e-05, 0.00036355643533170223, 0.00030448928009718657, -0.0013210515026003122, 0.0015244086971506476, 0.0006934341508895159, 0.0005345591343939304, 0.00032605952583253384, 0.0012443176237866282, -0.001372925820760429, 0.0006274692714214325, 0.001650878693908453, 9.98442992568016e-05, 0.0004301860462874174, 2.1221989300101995e-05, -0.0005034496425651014, 0.0002580715517979115, -0.0011119352420791984, 0.0006333013297989964, 0.00040893309051170945, -0.0010612420737743378, -0.0008793654851615429, -0.00046657060738652945, -4.9271166062681004e-06, 0.0009060584125109017, -1.4864543118164875e-05, 0.0005631155800074339, 0.002368456218391657, -0.00012396647071000189, 0.00028936611488461494, 0.0004998454824090004, 0.0002662568003870547, -0.000754118780605495, 0.001781746163032949, 0.0010481778299435973, 0.0007909666164778173, 0.0005414162878878415, 0.0013274031225591898, 0.0011772753205150366, 0.00012260123912710696, 0.001465596491470933, -4.86989738419652e-05]]], [[[0.00039174454286694527, -0.000196363907889463, -2.0091583792236634e-05, -4.0626979171065614e-05, 0.00046144670341163874, -0.0002831725578289479, 0.0002808945719152689, -0.00010186665167566389, -0.0004349676601123065, -2.984760794788599e-05, -0.0006068911170586944, 0.0005575460381805897, 0.0002346950932405889, 0.0008786938269622624, 0.0006515220738947392, -0.0012794791255146265, -0.00039320666110143065, 0.0015427290927618742, -0.0007522627711296082, 0.00033841223921626806, 0.0006038292776793242, -0.000754693930502981, 0.0001265417376998812, -2.6624231395544484e-05, 0.00024695126921869814, -0.0009057181305252016, -0.0005989032797515392, -0.00039491080678999424, -0.00019684602739289403, -0.00012967755901627243, -0.0006273390608839691, 0.00013555474288295954, -0.0005493945209309459, -0.0004041436477564275, 0.0008614595863036811, -0.0004586769500747323, -8.312900899909437e-05, 0.001031063380651176, 3.313297202112153e-05, 0.00018827672465704381, -0.00022096835891716182, -0.0003242164384573698, -3.476311394479126e-05, 0.0002695399452932179, -0.00023763856734149158, -5.2331644837977365e-05, -0.00041588133899495006, -2.269838296342641e-05, -0.0006145603838376701, -0.0002506757155060768, 0.00018760886450763792, 0.0004161755496170372, -0.00016289394989144057, -0.0004224930889904499, 0.0023627420887351036, 0.0019191561732441187, 0.0006147453677840531, -0.0005086900200694799, -8.06548778200522e-05, -0.0006096756551414728, -2.2036911104805768e-05, 6.872760422993451e-05, 0.0009591209818609059, 0.00037400118890218437], [-0.00020389140991028398, -0.0010363495675846934, -9.406328172190115e-05, -0.0001953802420757711, -0.00015530051314271986, -0.0002721376367844641, 0.00031466633663512766, -0.00042110541835427284, -0.0005541169084608555, 0.00016129249706864357, 0.0005736398161388934, -0.0011503323912620544, 9.958484588423744e-05, -0.0007370935054495931, -0.0007777748396620154, -0.0007726801559329033, -0.0008129492052830756, 0.0002147977938875556, 0.0006472230888903141, -0.00013431691331788898, 0.0005204463959671557, -0.00023266406788025051, -0.0010971957817673683, -0.0008685645880177617, 0.00014929621829651296, -0.000452954089269042, 0.00021635909797623754, -0.00046093310811556876, -0.0012655884493142366, -7.059570634737611e-05, 0.0006231467705219984, 0.001052542240358889, 0.00014395809557754546, -0.00034708931343629956, -0.0009596918825991452, -0.0006249741418287158, 0.0008004665724001825, 0.0003918283327948302, -0.0002737478644121438, 6.915925769135356e-05, -0.00012024317402392626, -0.00028320433921180665, -6.133889110060409e-05, -0.0008698386372998357, 0.0007925124373286963, -8.13354563433677e-05, 0.00016868344391696155, -0.0002964655577670783, -0.0005637253634631634, 6.835568638052791e-05, 0.0006006202893331647, 0.0002545393072068691, -0.0007486874237656593, -0.0004542740061879158, -0.0013839969178661704, -0.0003859888529404998, 0.0001598382368683815, -0.0001843051431933418, 5.934933142270893e-06, -0.0010611931793391705, -0.0001889718696475029, -5.3745701734442264e-05, -0.000122703961096704, 0.0005799612263217568], [0.0007916878676041961, 0.0013288076734170318, 4.249808989698067e-05, 7.152693797252141e-06, 0.0016272602370008826, 0.0007345566409640014, 0.0023631383664906025, 0.0012841965071856976, -0.0003199512721039355, 0.0006468392093665898, 0.001858630683273077, -0.0005788177950307727, -5.673097257385962e-05, -0.0001229745103046298, 0.0006442476296797395, -0.0016802323516458273, 0.0009688618592917919, -0.0007268023327924311, 0.0007098442874848843, 0.0008524487493559718, -0.0021888609044253826, 0.00029320153407752514, 0.00022842653561383486, 4.501227522268891e-05, -0.00022089476988185197, -0.001305614598095417, 0.0015983660705387592, 0.0006494111730717123, 0.0011252170661464334, 0.0006123408675193787, 0.0011666526552289724, -0.0013135673943907022, 0.0005844018887728453, 0.001870219362899661, 3.4244731068611145e-06, 0.0008145618485286832, -0.00019537986372597516, -0.0005435096099972725, 0.0004187151207588613, -0.001219801139086485, 0.0007602770929224789, 0.00045529482304118574, -0.0012532620457932353, -0.0009286659769713879, -0.0007093741442076862, 8.683335181558505e-06, 0.000825209659524262, 2.2761088985134847e-05, -0.0002677943557500839, 0.0026050005108118057, -0.00021166822989471257, 0.0004487772239372134, 0.0004605640424415469, 0.00042182725155726075, -8.424615953117609e-05, 0.0018661441281437874, 0.0010713787050917745, 0.0008193114772439003, 0.00034830847289413214, 0.0018538583535701036, 0.0013091959990561008, 0.00019027147209271789, 0.001073502004146576, 6.222521187737584e-05]], [[0.00010694170487113297, -0.0010654228972271085, -0.00016651087207719684, 4.832472404814325e-05, -0.0003058036381844431, 8.821632945910096e-06, -0.00013793556718155742, 0.0003320298274047673, -0.0006795921362936497, 0.0005473035853356123, -0.0003881279844790697, 0.0006442073499783874, 0.0002278428291901946, -0.00026053166948258877, 0.00011826734407804906, -0.0009293485200032592, 0.00038713900721631944, 0.0008649948285892606, -4.741043085232377e-05, -3.3344607800245285e-05, 0.00038614781806245446, 0.000489296275191009, -6.259651854634285e-06, 0.0007894975715316832, 0.0005723879439756274, 0.00046314368955790997, -0.00018427619943395257, -0.000641063554212451, -0.0007451435667462647, 0.00026793708093464375, 0.00032688365899957716, 0.0001166943329735659, -0.0005544847808778286, -0.0006020859582349658, -0.0005795118631795049, -0.00024503597524017096, -0.0004238407709635794, 0.0014504725113511086, -3.1654628401156515e-05, -0.0005243276827968657, -0.0006838381523266435, -0.00014967742026783526, -0.0001411027042195201, -0.0014043233823031187, -0.0005370703875087202, 0.00013865719665773213, -6.471990491263568e-05, 2.252708509331569e-05, 0.00011532625649124384, -0.0009974209824576974, 0.00032943100086413324, -0.000539336004294455, -0.001188663300126791, -0.0006421948783099651, -0.0002035102224908769, 0.0009645590907894075, 0.0007410003454424441, 0.00027735880576074123, -3.2338120945496485e-05, 0.0006504894117824733, -0.0005242788465693593, -0.00019201863324269652, 0.0002177550341002643, -0.000538456893991679], [0.00021219074551481754, 0.0003966579388361424, 7.192161137936637e-05, 0.00012174627045169473, -0.00018046103650704026, -0.0006920170271769166, 0.0006191653665155172, -2.402951940894127e-05, -0.00013743402087129653, 0.002246957505121827, -0.0008169521461240947, 0.001430753618478775, 0.00028163602109998465, 0.00031823315657675266, 0.0010445857187733054, -0.0010309014469385147, -0.0008379369974136353, 0.0011094682849943638, 0.0012317668879404664, 0.0015831124037504196, 0.0012998132733628154, -0.0009037451236508787, -0.00046400976134464145, -0.0002184058103011921, -0.0005806758417747915, 0.00024594023125246167, -0.00011447048018453643, -0.00021504626784007996, -0.00013973958266433328, -0.000252473953878507, 0.0001820391626097262, 0.0007448557880707085, -0.0004880489141214639, 3.621405630838126e-05, -0.0005709070828743279, 0.00017302343621850014, 0.0023067262955009937, 0.0006968991365283728, -0.00031148060224950314, 0.0015798087697476149, -6.409733032342046e-05, 0.00011020460078725591, -0.00024501053849235177, 0.00024058151757344604, 0.0008268984383903444, 3.2049174478743225e-05, -0.000483150128275156, -0.00011707952216966078, -0.00263498118147254, 0.0003860040451399982, 0.0002727310929913074, 4.2998173739761114e-05, -0.00043990917038172483, 0.00012152088311268017, 0.0013917621690779924, 0.0003633198793977499, -0.0009093807893805206, -0.00019741144205909222, 0.0002238921879325062, -0.00033203919883817434, 0.00022124311362858862, 9.141243936028332e-05, 0.00045279457117430866, -0.0011119863484054804], [0.0006257666973397136, 0.0014108793111518025, -1.8863938748836517e-05, 1.5512381651205942e-05, 0.0015927492640912533, 0.0006448848871514201, 0.002391956513747573, 0.0011746336240321398, -0.000398696749471128, 0.0009002385195344687, 0.0019718485418707132, -0.0007439982146024704, -5.9700425481423736e-05, -4.683423321694136e-05, 0.0006681339582428336, -0.0014916795771569014, 0.0011607108172029257, -0.0006812966312281787, 0.0007463808869943023, 0.0008988157496787608, -0.0023213077802211046, 0.00031738088000565767, 9.849388152360916e-05, 0.00020045210840180516, -0.00016965896065812558, -0.0011332717258483171, 0.0015269918367266655, 0.0006276305066421628, 0.0007602549158036709, 0.0005477266386151314, 0.0012641176581382751, -0.0011516063241288066, 0.0006507473881356418, 0.0017176398541778326, 1.6081728972494602e-05, 0.0006599075277335942, 4.356354475021362e-05, -0.000465736782643944, 0.0003753120545297861, -0.0010586838470771909, 0.0005214548436924815, 0.0003521466569509357, -0.0011075088987126946, -0.0010311875957995653, -0.0007407662342302501, 2.2841704776510596e-06, 0.0008346573449671268, -2.1596511942334473e-05, -0.0001516249030828476, 0.0024661982897669077, -0.0001343347248621285, 0.00031775073148310184, 0.00047363099292851985, 0.00030961661832407117, -0.0006398212863132358, 0.0017932611517608166, 0.0009750471799634397, 0.0007370945531874895, 0.0003795461670961231, 0.0017125480808317661, 0.00136861321516335, 9.602202044334263e-05, 0.0011155277024954557, 0.00017861579544842243]], [[0.0004965995904058218, 0.0002970730420202017, 2.72231554845348e-05, 3.0658309697173536e-05, -0.0008348989649675786, 0.00038464245153591037, 0.000875096651725471, 0.0007888867403380573, -0.0008372583542950451, 0.0026108191814273596, 0.00019979251374024898, -0.0006296400679275393, -6.714067421853542e-05, -0.0004997242940589786, -0.0003468366339802742, 0.0003355942899361253, -0.0001781433093128726, 0.0003542726335581392, 0.00044586777221411467, 0.0015639077173545957, 0.0023865827824920416, 5.491834599524736e-06, -0.0002477116649970412, -0.0008425532723776996, -0.0009214961901307106, -0.0006494302651844919, -0.00022963940864428878, -0.000741555995773524, -0.0005161322187632322, -0.000950672896578908, 9.151155245490372e-05, 0.001194379641674459, -7.568529690615833e-05, 0.00028573558665812016, -0.00016583202523179352, 0.0009444954921491444, 0.0021947657223790884, 0.00014177332923281938, -0.00034800125285983086, 0.0012349379248917103, -0.002047841902822256, 0.0004767763311974704, 0.00041980776586569846, 0.0006764450808987021, 0.0006216843612492085, 0.00016325758770108223, -0.000434558663982898, 0.00016045814845710993, 0.00051630794769153, -0.0008886180003173649, 0.00018963293405249715, -0.0003636798355728388, 0.00018365206778980792, 0.00026034278562292457, -0.0004182948323432356, 0.000601314241066575, -0.0017241318710148335, -0.0004627483431249857, -0.00013243213470559567, -0.001816202886402607, 0.0011617622803896666, 1.3644890714203939e-05, 0.00047001714119687676, -0.0005450897151604295], [-8.89475122676231e-05, 0.00016086656250990927, 0.00018630368867889047, 0.00016664795111864805, 0.0009474041871726513, 0.001109168864786625, -0.0007694417145103216, -0.0008529967162758112, -0.0004455842718016356, 3.832136280834675e-05, 0.0007621539407409728, -0.0011437144130468369, 0.0001088110075215809, 0.0017690255772322416, 0.0015917550772428513, -0.0014576928224414587, -4.093584720976651e-06, 0.00045205969945527613, -0.00041738947038538754, -0.0014883133117109537, -0.00043123308569192886, 0.00030858482932671905, -0.00043230585288256407, -0.00019328517373651266, -0.00020341662457212806, 0.0008473002817481756, 0.0011992987710982561, 0.0007818289450369775, -0.00046079521416686475, 0.0007460204069502652, 0.0008662358159199357, 0.0014629187062382698, -0.0001323249307461083, -0.0006845275056548417, -0.000519368564710021, -0.0009658847120590508, 3.96947143599391e-06, 0.0006594432052224874, -0.00022667170560453087, -0.00019137062190566212, -0.0010575421620160341, 0.00028280512196943164, -0.0001555800117785111, 0.0003641363000497222, -0.0004165117861703038, 3.087031655013561e-05, 0.0008274089777842164, -0.000307302747387439, -0.000920529302675277, -3.362860297784209e-05, 0.00033771467860788107, 0.00038498526555486023, 0.00030541213345713913, -2.2919150069355965e-05, 0.0011706255609169602, -0.0012756937649101019, -0.0011466265423223376, -0.0006156783783808351, -2.172921085730195e-06, 4.9637215852271765e-05, -0.0011781181674450636, 9.897069685393944e-05, 0.0013310667127370834, 0.0002666502841748297], [0.0006301214452832937, 0.0013575494522228837, 8.415538104600273e-06, 1.2341095498413779e-05, 0.0015354666393250227, 0.0006061288295313716, 0.0024041885044425726, 0.0014153412776067853, -0.0004135941562708467, 0.0011104402365162969, 0.0018995529972016811, -0.0009701286326162517, -6.43194725853391e-05, 8.67689959704876e-06, 0.0007720752619206905, -0.0014388440176844597, 0.001225750893354416, -0.0005688905948773026, 0.0011130827479064465, 0.0009580133482813835, -0.002427275525406003, 0.0004438105970621109, -6.482138996943831e-05, 0.00015166954835876822, 0.0002552056685090065, -0.0011883015977218747, 0.0014712843112647533, 0.0006105464999563992, 0.0006941738538444042, 0.0005359097267501056, 0.0012474271934479475, -0.0010590670863166451, 0.000541429384611547, 0.001711834454908967, -1.4630262739956379e-05, 0.00020917371148243546, -0.00011056271614506841, -0.0004240503767505288, 0.00032509511220268905, -0.001173931173980236, 0.0005786319961771369, 0.00046520837349817157, -0.001107848365791142, -0.000925805710721761, -0.00045288458932191133, 1.850338048825506e-05, 0.0008994326926767826, -4.908101982437074e-05, 0.00014348048716783524, 0.0025917193852365017, -0.00018855705275200307, 0.000228652119403705, 0.0003472748794592917, 0.00021245115203782916, -0.0005615492118522525, 0.0017285384237766266, 0.0009625690872780979, 0.0008059326792135835, 0.0004301811568439007, 0.0012920856242999434, 0.0012058463180437684, 6.1200131312944e-05, 0.0011971746571362019, 0.00016405771020799875]]]], [-4.075770831946102e-09, -5.826705784528485e-09, 3.673710224916249e-09, -3.6784857382343716e-09, -3.49119844145207e-10, -1.4531665870620714e-09, 1.3070928339686816e-08, -2.1464847677066246e-09, -7.342953356470616e-09, -3.0343669799037798e-09, -4.653264440435123e-10, 1.9414430063591226e-09, -1.342527200520749e-09, -1.957527695495287e-09, -4.2624911600341875e-08, 1.0826832763655148e-09, 2.388610642611866e-09, -3.659189218296888e-08, -3.934587766707409e-09, -3.0883207102760935e-09, -1.8736141527142536e-08, -2.4638280748945363e-08, 6.953969844403218e-09, 7.982356997615625e-10, -1.4318279895064734e-09, -2.2864959703383647e-08, 3.2536224825463478e-09, 9.74735847592001e-10, -2.8438691401788674e-09, 5.290294868842693e-10, -3.432438688832917e-08, 7.619235020683846e-09, 8.701590559212491e-09, 2.2005886002318675e-09, -2.434805690398889e-09, 2.0276168299915298e-08, 1.3578178581497014e-08, 2.2777419061981163e-08, 4.6333004100063135e-09, 1.292614015824256e-08, -1.5412373599588136e-09, 5.694260618582803e-09, -1.3356250327944963e-08, -5.369633182539246e-09, -3.0737816736348123e-09, 2.981938918011906e-09, -2.109199481736823e-09, 1.755155049076862e-10, 1.1104302366504726e-08, 2.6048759593777504e-08, 4.2187897619783143e-10, 2.9869489104328295e-09, -6.987154188564659e-10, -1.1613829009604615e-08, -5.469782404787793e-09, 3.6197107533553208e-09, -7.416200098475656e-09, 1.3057064318644507e-09, -4.748777482355138e-10, 2.5226350786056173e-08, 3.8435965521443904e-10, -6.513010131214969e-10, -1.1061048743599144e-09, 8.611990232054723e-09], [0.0003038836002815515, 0.00035040362854488194, 2.2502514184452593e-05, 0.0002479271497577429, 0.001594999572262168, -6.762670818716288e-05, 0.000733246561139822, -0.0023933565244078636, 6.993934221100062e-05, 0.0014128773473203182, 0.0004189524333924055, -0.0014688140945509076, -0.00023299589520320296, -0.0004927900154143572, 0.00023485138081014156, -0.0018425213638693094, -0.0017286920920014381, 0.0018439323175698519, 0.0006375357042998075, 0.001811117515899241, 0.0012093465775251389, 0.00037598254857584834, 0.0005935579538345337, 0.0008518164977431297, 0.0011663151672109962, 0.0008532624342478812, 0.0004363197658676654, -0.0003957879380322993, -0.00035903541720472276, -0.0016634424682706594, 0.0008173920214176178, 0.002148733241483569, -0.0007656920934095979, -0.0006431784713640809, -0.0007491817814297974, -0.0017197546549141407, 6.51039881631732e-05, 0.0003875797847285867, -0.0006534377462230623, -0.0001703340094536543, -0.0006682307575829327, -0.0002814491745084524, -0.0007658954709768295, -0.0002736316528171301, 0.0007534616743214428, -0.00014042772818356752, -0.0003703160327859223, 1.419347245246172e-05, -0.002423429861664772, -0.00041885150130838156, 0.00026583290309645236, 0.00014031975297257304, -0.0010812871623784304, -0.0004758996074087918, 0.0012642701622098684, 0.0009069793159142137, -0.0005747744580730796, -0.00038184321601875126, -0.0003459581348579377, -0.0025620730593800545, -0.0004881122149527073, -3.292219480499625e-05, -0.001135943690314889, 0.00273511721752584], [-5.2899529691785574e-05, -6.932368705747649e-06, 1.8721253582043573e-05, 0.0002482614654581994, 0.0003303640987724066, 0.00048797178897075355, 1.8517952412366867e-05, -1.076556509360671e-05, -0.00033136611455120146, 0.0003208712150808424, 0.0004766854690387845, -0.00015046936459839344, -7.425631338264793e-05, -0.000417382107116282, 0.0005466321017593145, -0.00011624155740719289, -0.0012760516256093979, 0.0014067370211705565, 0.00025213000481016934, 0.0008085697772912681, 0.00013417121954262257, -0.0007827954832464457, 0.00024761672830209136, -0.0008786945836618543, 0.0008729459950700402, 0.0003429017378948629, 0.00027602206682786345, -6.998356548137963e-05, 0.0005124393501318991, 0.0010498928604647517, -0.0001763190666679293, 0.000978354481048882, 8.22454021545127e-05, -0.00015471948427148163, -0.0011212092358618975, -0.0002687345549929887, -0.00033433528733439744, 0.0008770438143983483, -5.005601269658655e-05, -0.0007398152956739068, 0.0005825680564157665, 0.0006331190816126764, -0.000508020690176636, 0.000958238379098475, 0.0008903602138161659, -9.485661576036364e-05, -0.0006342272972688079, -6.0512509662657976e-05, -0.0020099214743822813, 0.000271914410404861, 0.00019366196647752076, 0.0005772096337750554, -0.0001834177819546312, 8.576655818615109e-05, -0.00021966133499518037, 0.0003800296108238399, -0.0004493717569857836, 0.0008789926650933921, -0.0007576379575766623, -0.0010137667413800955, -0.0007522862288169563, 0.0001740496081765741, -0.0007557962089776993, 0.0015018085250630975], [[[[-0.00045623729238286614, -0.00022080010967329144, -0.0010060606291517615, -0.0002839010558091104, 0.0005542447906918824, -9.109215898206457e-05, -0.00019527578842826188, -0.0005723100621253252, -5.79032493988052e-05, 0.0009603643557056785, 0.00014617991109844297, 0.0004118947545066476, 0.0006625442765653133, -0.00048274340224452317, -0.0005928354221396148, -0.0010913892183452845], [0.00040946024819277227, 3.0724171665497124e-05, 6.163538637338206e-05, 0.0014794230228289962, -0.0012241919757798314, -0.0010351429227739573, -0.0012409186456352472, 0.00011329313565511256, 0.0005616440903395414, -0.0013820584863424301, -0.0002888598246499896, 0.0004351638490334153, -0.000680014316458255, 3.1173607567325234e-05, 0.00022885696671437472, -0.0001483742380514741], [0.00013238703832030296, -0.00018245092360302806, 0.00032488294527865946, -0.00018360084504820406, 0.0003597807080950588, -0.00029809781699441373, 0.00022202190302778035, -0.00011993448424618691, -3.127907984890044e-05, 0.00010850193211808801, 0.0003443170862738043, 7.29504827177152e-05, 0.0005776056786999106, -0.0001473099982831627, 0.00013566539564635605, -0.0007444756338372827], [0.000342134153470397, -0.0005993100348860025, 0.00043023951002396643, 1.1258947779424489e-05, -0.0005254644202068448, -0.00034469363163225353, 2.7292189770378172e-05, 4.335862467996776e-05, 0.00028986023971810937, 0.00019017828162759542, 0.00033300661016255617, 0.0004933549207635224, 0.00031561730429530144, 0.0002597129496280104, -0.00011829698632936925, -0.0002581611042842269], [-0.0006742457044310868, 0.0003964364295825362, -0.0023086753208190203, -0.0024361000396311283, 0.0013103876262903214, 0.0004154176567681134, 0.0004416177689563483, -0.0012589303078129888, -0.00013548752758651972, 0.0027823871932923794, 0.002533795777708292, 0.0024124409537762403, 0.00016782624879851937, -0.0017254172125831246, -0.00040078297024592757, -0.0011511568445712328], [0.0003016351256519556, 0.00043640314834192395, -3.9442937122657895e-05, 0.00014898898371029645, 1.5603640349581838e-05, 0.000134710076963529, -0.0003496227727737278, 2.030446194112301e-05, -4.777003778144717e-05, -0.0006203593220561743, -0.0010350624797865748, 0.0001399673637934029, -0.00013246102025732398, 0.0003006051410920918, 0.0010177596705034375, -0.0010412657866254449], [-0.002894108649343252, -0.00031627443968318403, -0.0017643346218392253, -0.0012909045908600092, 0.004205276723951101, 0.002164141507819295, 0.0014703848864883184, -0.0005343361990526319, -0.0007731633959338069, 0.002180236391723156, 0.0008669685339555144, -0.0006076641730032861, -0.0001639191759750247, -0.001371185528114438, -0.0004279116401448846, 0.0001538845826871693], [-0.0016270887572318316, -0.0011618807911872864, -0.0017127395840361714, -0.0008847048156894743, 0.0017464859411120415, 0.0007773927645757794, 0.001026150886900723, -0.0017736676381900907, -0.0010575175983831286, 0.002513191197067499, 0.001545486506074667, 0.001056753913871944, 9.741514804773033e-05, -0.0012546972138807178, -0.0017383049707859755, -0.0001529794535599649], [0.00011307092063361779, 0.0008055506623350084, -9.411678911419585e-05, 0.0007213291246443987, 5.8375058870296925e-05, 0.0006501564639620483, -0.0004869883705396205, -3.2735406421124935e-06, -0.000612294243182987, -0.0004038245533592999, -0.000519254244863987, -0.0005160673754289746, -0.0005142990848980844, -0.0005707383388653398, -0.00019220815738663077, 0.0008692674455232918], [-6.468198262155056e-05, -0.0006818746333010495, -0.00019626485300250351, 0.001294866087846458, -8.488266030326486e-05, 0.00025008979719132185, -0.0008163677412085235, -0.0006686965934932232, -0.0006371127092279494, -3.6594399716705084e-05, 0.00024394372303504497, 0.0007495801546610892, -8.485469152219594e-05, 7.344613550230861e-05, -0.001833426533266902, 0.000570146890822798], [0.0005382366944104433, 0.0002502148854546249, -0.001996678300201893, -0.001609784783795476, 0.0016836065333336592, 0.0007181385299190879, 0.001025633653625846, -0.00032346235821023583, -0.00032115212525241077, 0.0008131391368806362, 0.0017605243483558297, -0.00042837922228500247, 0.0006161805358715355, -0.00031036126893013716, -0.0007405001088045537, -0.0001538363576401025], [-0.00019212189363315701, 4.177918890491128e-05, 0.00011342862853780389, 0.0007891893619671464, -8.440829697065055e-05, -0.00021461251890286803, -0.0007281380239874125, 0.0004674773954320699, -0.0021153432317078114, -0.0014771344140172005, 0.0010531055741012096, 4.0177139453589916e-05, -0.0010328238131478429, 0.0005927832098677754, -0.0001672416547080502, 0.00029955210629850626], [0.0003561260236892849, -8.589928620494902e-05, 0.0002537865366321057, -0.00018358053057454526, 0.0001265690370928496, -0.0003765310684684664, 5.497710662893951e-05, -0.00025664467830210924, 0.0001556976931169629, 0.000165207136888057, 0.00021252865553833544, 0.00028093619039282203, 0.0006994576542638242, 0.00018648011609911919, 9.272283932659775e-05, -0.00020316401787567884], [-0.0002128252963302657, -0.0006976729491725564, -0.00018513330724090338, -0.00018828465545084327, -0.0005161815788596869, -0.0007396333385258913, -0.0010391465621069074, -0.0001950861478690058, -0.00043400234426371753, 0.00030625498038716614, 0.0011038929224014282, 0.0014296767767518759, -0.0001319346483796835, 0.0008118283003568649, -0.0005567689659073949, -0.0008576496038585901], [0.00016798875003587455, 0.00034652589238248765, -0.00015365370200015604, -0.0003969081153627485, -5.9359881561249495e-06, -0.001114606624469161, 4.2268773540854454e-05, -0.00023815163876861334, -0.0008833287283778191, -0.0002524390583857894, 0.0016511417925357819, 0.0003077327855862677, -0.00037929287645965815, 3.593061410356313e-05, -0.0007650500629097223, -0.0004914668388664722], [-0.0006544801872223616, -0.001080124988220632, -5.243514897301793e-05, 0.000884525419678539, 4.37274866271764e-06, 0.0005927460733801126, -0.0009424793533980846, -0.0011602062731981277, -0.0004331695381551981, 0.002464598510414362, -1.6722871805541217e-05, 0.0013847085647284985, -0.0003175110905431211, -0.0013875982258468866, -0.0010573524050414562, 0.0009785048896446824], [-0.001032693893648684, 0.0006514544365927577, -0.001646021963097155, -0.0017964978469535708, 0.0014660472515970469, 0.0008603456662967801, 0.0008498110109940171, -0.00035449175629764795, -0.0004255505627952516, 0.00019533318118192255, 0.0009038456482812762, -0.0005284945946186781, 1.5647421605535783e-05, -0.0003774711803998798, 0.00028857929282821715, -0.00044483307283371687], [-0.0010994750773534179, 0.0005979361012578011, -0.0016406774520874023, -0.001552686677314341, 0.002388733671978116, 0.000884370063431561, 0.0019154896726831794, -0.00022782626911066473, -0.0010498925112187862, 0.00019953201990574598, 0.0008233601693063974, -0.0016977200284600258, 0.0004961819504387677, 0.0003125369839835912, 0.000412284629419446, -0.001038712915033102], [-0.00048497473471798003, -0.000638555153273046, -5.683251947630197e-05, -0.0003652061568573117, 0.00077764259185642, 0.0007227914175018668, -0.0003921129391528666, 0.0002675173163879663, -9.268612484447658e-05, 0.0005497465608641505, -0.0011026498395949602, 3.279739757999778e-05, 0.001175222685560584, 3.642314550234005e-05, -0.00015757637447677553, 0.0003499167214613408], [-0.00162616022862494, 0.0004898537299595773, -0.0014134643133729696, 0.00017610768554732203, 0.00214548222720623, 0.001275388291105628, 0.0007602790137752891, -0.0007348173530772328, -0.0009256114717572927, 0.0006675873883068562, 0.001435529557056725, -0.0004097787896171212, -0.0006708292057737708, -0.0007695220992900431, -0.0011936286464333534, 0.0005496999947354198], [-0.0010567492572590709, 0.0012357636587694287, -0.0011095167137682438, -0.00044609708129428327, 0.001140802283771336, 0.00014363095397129655, 0.0011960535775870085, 0.00036961634759791195, -0.0013280402636155486, -0.001457673846744001, 0.001452720258384943, -0.0019063851796090603, -0.00018597347661852837, 0.0009022199083119631, -0.0008337252074852586, 0.0006851449143141508], [-0.0002370737201999873, 0.0006050602532923222, -0.00033420432009734213, -0.00046219280920922756, -0.00014749952242709696, 0.00013641879195347428, 0.0005098063847981393, -2.577280974946916e-05, 0.00030313170282170177, -0.0005068182945251465, 0.0006843941519036889, 0.00020661347662098706, 0.000823663198389113, 0.0005684403004124761, -0.00010760461736936122, -0.0013520654756575823], [-0.001514968927949667, 0.000542174035217613, -0.0013128069695085287, -0.00032724146149121225, 0.0007649956969544291, -0.00022160439402796328, 0.0005756583414040506, -0.0005201996536925435, -0.0012686214176937938, -0.00033276726026088, 0.0013351156376302242, 0.00038242925074882805, -0.0002751067513599992, 1.877373142633587e-05, -0.0009291958995163441, -0.0009299131343141198], [-0.0005422118119895458, -9.055074770003557e-07, -0.00039617932634428144, -0.0006030799122527242, 0.0027504931204020977, 0.0007328391657210886, -0.0007747880881652236, -0.000581786036491394, -3.2508978620171547e-06, 0.0011716645676642656, -0.00016737896658014506, -2.5128829292953014e-06, 0.0008413134492002428, -0.0009722660761326551, 0.00022867490770295262, 0.0004383642808534205], [-0.0008958214893937111, 0.0004037912003695965, -0.0015686159022152424, -0.0017503813141956925, 0.0018010013736784458, 0.0003827614418696612, 0.0004661104758270085, -0.00028108461992815137, 0.0002663182676769793, 0.002374595496803522, 0.0008859452791512012, -0.000159447590704076, 0.0016596999485045671, -0.001515381271019578, -0.0007136226631700993, -0.001162208616733551], [-0.0005217115976847708, -0.0006293414626270533, -0.000891773437615484, -0.0002780243521556258, 0.002013747114688158, 0.00036211550468578935, -0.0004089707799721509, -0.0010790711967274547, 0.00010779588774312288, 0.000493711035232991, 0.0013403627090156078, 0.001285290694795549, 0.0010465254308655858, -0.0010451392736285925, -0.00046748603926971555, -0.0018442629370838404], [0.0003686395357362926, 0.0005341855576261878, -0.00027387274894863367, 0.00033586646895855665, -0.0005206722998991609, -0.0007436221931129694, -0.0001526981359347701, 8.027882722672075e-05, 0.0008168002823367715, -0.00014709588140249252, -0.00022608510334976017, 0.00036276900209486485, -0.00024191182455979288, 0.000344666390446946, -0.00020829681307077408, -0.0002961027785204351], [0.000977377058006823, -0.0005036245565861464, -8.774391608312726e-05, -0.0003803660802077502, -0.0009856880642473698, -0.0009534888085909188, 0.0001638219109736383, -0.00016225827857851982, 0.00020204813336022198, 0.0007355816196650267, 0.0008914507925510406, 0.00010103271051775664, 0.0007112183375284076, -0.000390514760510996, -0.00019765862089116126, -0.0003075334825553], [0.000952609465457499, 0.0005859261145815253, -0.0006132894777692854, -0.000514557003043592, -0.00031823597964830697, -0.0009863475570455194, 0.00012612881255336106, -0.00046153462608344853, -0.0002016548824030906, -0.00016442654305137694, 0.0005546496831811965, -3.515098069328815e-05, 2.02938390430063e-05, -0.0003372490464244038, -0.0002037246013060212, -0.0008668765076436102], [0.0016502400394529104, -0.00018600968178361654, -0.0027510912623256445, -0.0022343520540744066, 0.0009798043174669147, -0.0008647973299957812, 4.0732033085078e-05, -0.002050579059869051, 0.00021348832524381578, 0.002448584884405136, 0.004208242520689964, 0.002105441875755787, 0.00020095764193683863, -0.001721407170407474, -0.0012886497424915433, -0.001791870454326272], [-0.0010083391098305583, -0.0013077131006866693, -0.0009928292129188776, 0.0008007287979125977, 0.0017921378603205085, 0.001774430274963379, 0.00018344420823268592, -0.0004534333129413426, -0.0008018417283892632, 0.0009011789807118475, 0.0010579443769529462, -0.0008389077847823501, 0.00029659568099305034, -0.00093540467787534, -0.00222226046025753, 0.0010836221044883132], [-0.0002892448101192713, 0.0006206894177012146, -0.0015058862045407295, -0.0015384675934910774, 0.0010885305237025023, -0.0009575242293067276, 0.00028337392723187804, -0.000563742418307811, -0.00026229640934616327, 9.380729170516133e-05, 0.003496704390272498, 0.0008007645374163985, -0.0003937686560675502, -0.0006596014718525112, -0.002025481779128313, -0.0001461366773582995], [0.0003632268635556102, 0.00018026717589236796, -0.0005246256478130817, 0.00041204580338671803, -0.00022098369663581252, -0.00037808946217410266, -0.0005998031701892614, -0.0012479661963880062, 0.0008821059018373489, 0.0013151132734492421, 0.0015452365623787045, 0.001088890596292913, 2.9794617148581892e-05, -0.0016751434886828065, -0.0011640922166407108, -2.4042004952207208e-05], [-0.0006316187791526318, -0.0003912104293704033, -0.00019868824165314436, -4.381686449050903e-05, 0.0001692354417173192, 4.1672217776067555e-05, 0.00027290740399621427, -0.0005305044469423592, -0.0007634459179826081, 0.0017915137577801943, 0.0005308995023369789, 0.0013230509357526898, 0.0001830713590607047, 0.00023471051827073097, -0.00045165789197199047, 0.00044334918493404984], [-0.0009747711010277271, 0.00042267440585419536, 0.0003705781709868461, -0.0007398257730528712, -0.00020669508376158774, 0.0005706321680918336, 5.589931970462203e-05, 0.0008027662988752127, -0.0011176373809576035, -0.00028643602854572237, -0.0004345140769146383, 0.0007849889807403088, -0.00020719526219181716, 0.0012998271267861128, 0.0004812088736798614, 0.0003984045179095119], [-0.0001997916551772505, 0.0011258207960054278, -0.0016507365508005023, -0.00035954875056631863, 0.00018393370555713773, -0.00043048852239735425, 0.0010271792998537421, -0.0003139277105219662, -0.0007550920709036291, -0.0005039384705014527, 0.0009997354354709387, -0.0005816321354359388, -0.0008190763765014708, -0.0002042332198470831, -0.0007699803682044148, -0.00024511071387678385], [-0.0007928043487481773, 0.0001381399342790246, -0.0002171355881728232, 0.00020650109217967838, -0.0002499984111636877, -8.934471406973898e-05, 0.0005152603844180703, -0.00033034489024430513, -0.0004592220648191869, -0.00040340976556763053, 0.0002385544212302193, -0.00045709137339144945, 0.0004024928202852607, 0.0005127873737365007, -0.0008699491154402494, 0.00047016001190058887], [-0.00038262439193204045, -7.370705134235322e-05, -0.0013366156490519643, -0.0008353889570571482, 0.0018166594672948122, 0.0011292246636003256, 0.00016064467490650713, -8.690607501193881e-05, -0.001181899686343968, 0.00034170394064858556, 0.0012078584404662251, -0.00025059684412553906, -0.00010332977399230003, -0.00023893786419648677, -0.000836424995213747, -0.00026582181453704834], [-0.0005119909765198827, 0.0005632088286802173, -0.0006363831926137209, -0.0006261016824282706, 0.001963676419109106, 0.00112421705853194, 0.0008151051006279886, -0.0001887986873043701, -1.650865306146443e-05, 0.0006520854658447206, 0.0005640659364871681, -0.0007684648735448718, 0.00014336445019580424, -0.0011697134468704462, 0.0001258111442439258, -0.0003081161994487047], [-0.0007526666158810258, 0.00013598996156360954, 0.0006491668173111975, -3.732304321601987e-06, 0.0006787459133192897, 0.0005181211745366454, 6.989826215431094e-05, -0.00014428672147914767, -0.0002903933054767549, -0.0006352603086270392, 0.00037628281279467046, -0.00012228512787260115, 0.0005315939197316766, 2.358862548135221e-05, -0.0007802924956195056, 0.0004469584964681417], [0.0003541552578099072, 0.0008588128839619458, -0.003006226848810911, -0.0011847007554024458, 0.0010616385843604803, 0.00036645078216679394, -0.0007326541817747056, -0.0015222277725115418, -9.279494406655431e-05, 0.0013109489809721708, 0.0013549663126468658, 0.0005596858682110906, 0.0001323038013651967, -0.0017178906127810478, -0.0004631082993000746, -0.001912666019052267], [0.00010422099148854613, 0.00040493503911420703, -0.0002582572342362255, -0.0003418215783312917, 0.00032929639564827085, 0.0003286966239102185, 0.00036772844032384455, 0.00019954403978772461, -7.694203668506816e-05, 0.0008171972585842013, 0.0007696122047491372, -6.586851668544114e-05, -0.0005274534341879189, -0.00013409586972557008, -7.187636219896376e-05, 0.00082871486665681], [-0.0006892597302794456, 0.0004999676020815969, -0.0005513807409442961, -0.00010457033931743354, 0.0009542923653498292, 0.0007502663065679371, -0.0006463979952968657, 0.0001380349713144824, -0.0006172842695377767, -0.001413792255334556, -0.00030895855161361396, 2.3658729332964867e-05, 0.00012462718586903065, 0.0009435694664716721, -9.043054888024926e-06, 2.9252587410155684e-06], [0.0001849948603194207, 5.597987910732627e-05, 0.0011637886054813862, -0.0003674229665193707, -0.0003109081299044192, 0.00017478817608207464, 0.00011339053162373602, -0.00056688510812819, 0.0008677622536197305, 0.00030058735865168273, 0.00022433564299717546, 0.0013081185752525926, 9.066780330613256e-05, -0.0004584989510476589, 0.0001730067451717332, 0.0008458989905193448], [-0.0006271895254030824, -0.0008822560776025057, -0.0015101998578757048, 0.000364212115528062, 0.002403371501713991, 0.001251012785360217, -0.00040506201912648976, -6.991276313783601e-05, -0.00043363822624087334, 0.00028835347620770335, 0.0005441604880616069, -0.0005471286713145673, -0.00017859379295259714, -0.0004910197458229959, -0.00042467773891985416, 0.00016881246119737625], [-0.0001181062834803015, -7.091762381605804e-05, -2.183998003602028e-05, -0.00017606292385607958, 0.0003130741242785007, -0.00013474356092046946, 0.0001607669546501711, -0.00031902530463412404, 0.00012303257244639099, 0.0003074926498811692, 0.0003170087293256074, 0.0005697806482203305, 0.0003136379236821085, 0.00030810129828751087, 6.902666063979268e-05, -0.00041784060886129737], [0.0007570342859253287, 0.00030722093652002513, 0.0003335980582050979, 0.0004984848783351481, -0.0009484489564783871, -0.00015498870925512165, -0.00043136748718097806, 0.0004933970631100237, -0.00035232718801125884, -0.0002779477508738637, -0.00048551929648965597, -8.202440949389711e-05, -0.0007445804076269269, 0.00024389722966589034, 5.453504854813218e-06, 0.0005801079678349197], [-0.0002476249646861106, 0.00018952626851387322, -0.00031260662944987416, -0.0003548261011019349, 0.0011198633583262563, -7.352161446760874e-06, -7.664423901587725e-05, -0.00031233832123689353, -0.00030641601188108325, 0.000573153723962605, 0.0002274811122333631, 0.0003931155661121011, 0.0004066365654580295, 0.00023838136985432357, 0.0002961570571642369, -0.0006165949162095785], [-0.0009845035383477807, 0.0013309078058227897, 0.0003265055420342833, -0.0019494483713060617, 0.00012179605255369097, 0.00028303387807682157, 0.0009117471054196358, 0.001428208313882351, -0.0010494693415239453, -0.000754574139136821, 0.0009660507785156369, 0.0006823419826105237, 0.0010102043161168694, 0.001461505307815969, 9.843717270996422e-05, -5.1849208830390126e-05], [-0.00036557618295773864, -0.00046709980233572423, -0.001462768530473113, -0.001060738693922758, 3.515783464536071e-05, -7.732415542704985e-05, 0.0007667520549148321, -0.001692328485660255, -0.0011288681998848915, 0.0011335780145600438, 0.0014388975687325, 0.0004177783557679504, -0.0007589358137920499, 0.0002329318376723677, -0.0011096145026385784, 0.0008156457915902138], [-0.00016331608640030026, 0.0002440950192976743, 0.00020232061797287315, -0.00031937670428305864, 0.00032045546686276793, -0.0005368751590140164, 0.00040103838546201587, -9.865760512184352e-05, -0.0002935253723990172, 0.00011210681986995041, 0.0003521224716678262, 0.00013529739226214588, 0.0005843170220032334, 0.00035501926322467625, -4.6855264372425154e-05, -0.0005165230832062662], [-0.00021105652558617294, -4.0509716200176626e-05, -0.0016284972662106156, -0.0020455808844417334, 0.0011967187747359276, 0.00016755532124079764, 0.00040297870873473585, -0.0007568814908154309, -0.00019495427841320634, 0.0015133536653593183, 0.0013941519428044558, 0.0007395483553409576, 0.00010414153803139925, -0.0006966987857595086, -0.00025666900910437107, -0.0007140401285141706], [0.00021405448205769062, 0.0006542698829434812, -0.001257099211215973, -0.001320655457675457, -6.526999641209841e-06, -0.0005140172434039414, 0.00011626163905020803, -0.0009995491709560156, 0.00024916185066103935, 0.001213830546475947, 0.0017182364827021956, 0.001803864142857492, -0.0003999047039542347, -0.0012083608889952302, -0.0008021743269637227, 0.0007610422908328474], [-0.0018309553852304816, -0.00048544612945988774, -0.0016856363508850336, -0.0012478423304855824, 0.0016192171024158597, 0.0005795236211270094, 0.0007394208805635571, -0.0010720044374465942, -0.00028072670102119446, 0.0022200578823685646, 0.0013087925035506487, 0.0009599723853170872, 3.1025498174130917e-05, -0.001297235256060958, -0.0010652248747646809, -4.1851308196783066e-08], [-0.001962432637810707, 0.0003007901832461357, -0.0008027605363167822, -0.0013909995323047042, 0.0011987020261585712, -0.000423841062001884, 2.0051375031471252e-06, -0.0003603775112424046, -0.0008148749475367367, -0.00039432960329577327, 0.000792752776760608, 0.000979381031356752, 0.0006270399317145348, 0.0012549480888992548, 0.0005959630943834782, -0.002056469675153494], [-0.0022438333835452795, 0.00014768505934625864, -0.0020637575071305037, -0.001954916398972273, 0.0034668766893446445, 0.0015886536566540599, 0.001398842316120863, -0.0004925224930047989, -0.000749954953789711, 0.0013076032046228647, 0.0022797551937401295, 1.6962250811047852e-05, 0.00031033018603920937, -0.001100136898458004, -0.0005343582597561181, -0.000845915696118027], [0.0005883774138055742, -0.00014618507702834904, -0.0015398432733491063, -0.00017980349366553128, 0.0019343894673511386, 0.0022988063283264637, -4.645437002182007e-06, -0.0006211713189259171, -0.0005726688541471958, 0.0013071708381175995, 0.0021599656902253628, 4.005181835964322e-05, -0.0008334132144227624, -0.001181646017357707, -0.00047308445209637284, 0.00106281868647784], [0.0008445776766166091, 9.543058695271611e-05, -0.0003668329445645213, -0.0003441301523707807, -0.0005294628208503127, -0.00044457585318014026, 0.0003631074505392462, -0.00020571000641211867, -0.0001171724870800972, 0.0006528239464387298, 0.000159520233864896, -5.495377263287082e-05, -6.82565150782466e-05, -3.254372859373689e-05, 4.2404455598443747e-05, -0.00018547038780525327], [0.0002798110363073647, -0.00017008282884489745, 0.000570166390389204, 0.00027818031958304346, -0.00037685775896534324, 0.00025917644961737096, 1.6651923942845315e-05, 0.000527737254742533, 0.0002732345019467175, -0.0009188870317302644, -0.00047756644198670983, -4.339461156632751e-05, -0.00042889907490462065, 0.0006537908921018243, 0.00043501213076524436, 0.00017119798576459289], [0.000811023055575788, -0.0013105188263580203, -0.002714758273214102, -0.0007743560709059238, 0.0019487468525767326, 0.001061059650965035, 0.0011343430960550904, -0.0013238454703241587, -0.0010579737136140466, 0.0007517163176089525, 0.003214768599718809, 0.00041493010940030217, -0.0005030777538195252, -0.0007987493881955743, -0.0011178116546943784, -0.0013157648500055075], [-0.0009074052213691175, 0.0001357056462438777, -0.0016849115490913391, -0.001467305002734065, 0.0021719106007367373, -0.00012481072917580605, 0.0016445760848000646, -0.0006534113199450076, -0.0005119467969052494, 0.0018058752175420523, 0.001548130065202713, -0.0007550371810793877, -0.00022994051687419415, -0.0008986416505649686, -0.0007743821479380131, 8.072593482211232e-05], [-8.380270446650684e-05, 0.0006041254964657128, -0.00020456640049815178, 0.00042277935426682234, -0.0001841667981352657, 0.0005888405139558017, -0.0002498279791325331, 3.67140892194584e-05, 6.282177491812035e-05, -0.00031219483935274184, -0.00021220592316240072, -0.00016208001761697233, -0.0004714375827461481, -4.911090945824981e-05, 0.000264613947365433, 0.000525229552295059], [0.0009995162254199386, 0.002259054221212864, -0.0013046922395005822, -0.00018195415032096207, -0.0017484035342931747, -0.0017586639150977135, -0.0003374548105057329, -3.899383591488004e-05, 0.0007798861479386687, -0.0019966978579759598, 0.0004821200272999704, -0.0011264280183240771, -0.0001394348801113665, -0.00043094929424114525, -0.00034079147735610604, -0.0014105928130447865], [-0.0006656042532995343, 0.0010076349135488272, -0.0019158940995112062, -0.0013499766355380416, 0.0022477952297776937, -0.000920412945561111, -0.0003208679845556617, -0.0008747561369091272, -0.000647100736387074, -0.0001315893605351448, 0.0029707136563956738, 0.0009218213963322341, 0.000688453670591116, -0.001597756752744317, -0.0010590475285425782, -0.002885407768189907]]]], [0.00010822293552337214, -7.689175254199654e-05, 6.235412001842633e-05, 0.00014467432629317045, -0.0001310944790020585, 6.938845035620034e-05, -0.00016683530702721328, 3.8716250855941325e-05, -0.00016718755068723112, -0.0002644831547513604, -5.7938668760471046e-05, -2.2959378839004785e-05, -3.7441794120240957e-05, 0.00014101916167419404, 0.00013044524530414492, -3.383148577995598e-05], [[[[0.0013405452482402325, -0.0017490272875875235, -0.00015983678167685866, 0.0004702406586147845, 9.486677299719304e-05, -0.00035555262002162635, 0.0007043915102258325, 3.359206311870366e-05, 0.00012852453801315278, -0.0012988465605303645, -0.0018845073645934463, 0.0004108132270630449, 2.9699658625759184e-06, -0.0008997096447274089, 7.560537778772414e-05, -0.00035815543378703296], [0.00025535098393447697, 5.84775407332927e-05, 0.000276127306278795, 0.0005564934690482914, 0.00011549703776836395, 0.00014747098612133414, -0.0006147579988464713, -7.368469960056245e-05, 3.428987110964954e-05, -0.0001702765584923327, 0.0014499614480882883, 0.00011610929504968226, 0.00046815298264846206, 0.00016916700406000018, 0.0004807304358109832, 0.0004881397762801498], [-0.0013685296289622784, 0.0009153333958238363, -0.00036517230910249054, -0.0006182534852996469, 0.0013154721818864346, -0.0010839923052117229, 0.0010795735288411379, -0.0010104695102199912, 0.0012202963698655367, 0.0007736778352409601, -0.0006608072435483336, -0.0018008602783083916, -0.0007002285565249622, -0.0001233021612279117, -0.0008462201803922653, -0.0007740011205896735], [6.176895112730563e-05, -0.0011222735047340393, -0.00035017941263504326, -0.00010671290510799736, 0.0007419748581014574, 0.00020044745178893209, 0.0008997459663078189, -0.0006498214788734913, 8.202745812013745e-05, 6.959294114494696e-05, -0.0011562509462237358, -0.000635716540273279, -0.00046145246597006917, -0.001571084838360548, -0.00043763426947407424, -0.0007867645472288132], [4.203782737022266e-06, 0.0006897785933688283, -0.00016510323621332645, 0.00028382864547893405, -0.0006749620661139488, 0.00010037894389824942, -0.0014153069350868464, 0.0001468051632400602, 0.0004977624048478901, 0.0006715766503475606, 0.0017617933917790651, 0.00017126265447586775, 0.000413701927755028, 0.001417467137798667, 0.0004311518860049546, -0.0006440321449190378], [0.0010293945670127869, -0.0009313792688772082, -0.00027736712945625186, -9.642017539590597e-05, -0.0007894421578384936, -4.3929030653089285e-05, -0.0001217774988617748, 0.0007499203202314675, -0.0005988198681734502, 0.0003965762734878808, -6.08460686635226e-05, 0.0006738945376127958, 7.68668542150408e-05, -0.0015840277774259448, 0.0005622619646601379, 0.0005251826951280236], [-0.0003831746871583164, 0.0006864300230517983, -4.5245004002936184e-05, -0.0007187285809777677, -0.00011036370415240526, -0.0006579608889296651, -0.0003276359639130533, 0.0009511741227470338, -0.0004308131756260991, 0.0007810886017978191, 0.0012209985870867968, 0.00013924852828495204, -7.445341907441616e-07, -0.0008299030596390367, 0.0003133458667434752, 0.00026706920471042395], [-0.0001542955287732184, -0.0003899380099028349, -0.000652589020319283, -0.000219571273191832, -0.0008764533558860421, 0.00046257919166237116, 0.00021204074437264353, -0.00011943709978368133, -0.0004135768976993859, 0.0007047060644254088, -0.00012101104948669672, 0.00027316174237057567, 0.00020527682499960065, -0.002079295227304101, 0.0007356784190051258, 0.00047294999239966273], [0.0004899690975435078, -0.00039473563083447516, 0.0003001899167429656, 0.0006506649660877883, -0.0009166409145109355, 0.0002270766708534211, -0.00023332287673838437, -0.0002624818589538336, 0.00023531161423306912, -0.0007332341629080474, -0.0012098813895136118, 0.0003575857263058424, -0.000351741851773113, -7.290110806934536e-05, -0.0001915958127938211, 0.0004304936155676842], [-0.00014111684868112206, 0.0007623021956533194, 0.0013597299112007022, 0.0007786835776641965, 0.00037733284989371896, 0.0001937110791914165, 4.848640674026683e-05, -6.734969792887568e-05, -0.0002752085274551064, -0.0004514464526437223, 0.0012829408515244722, 0.00017300722538493574, -0.0007991134189069271, 0.0017181126167997718, -0.00019061860803049058, 3.271555760875344e-05], [-0.000129861815366894, 0.0003358910616952926, -0.0008400091319344938, 0.0008702427730895579, 0.0005024969577789307, -0.00032334894058294594, 0.0002505982993170619, -0.00037907614023424685, 0.0011525165755301714, -0.0007834986317902803, -0.0005358508788049221, -0.0003465031331870705, 4.567636642605066e-05, 0.001822364516556263, -0.0013310203794389963, -0.0014749205438420177], [-0.0006682645762339234, 0.0003794220683630556, -1.2203148799017072e-05, 0.0018402913119643927, 0.00020350603153929114, -0.0004344108165241778, 0.00047241977881640196, -3.944357740692794e-05, 0.00023731394321657717, -0.0003834697126876563, 0.0006998350727371871, -0.0004466638492885977, 7.125225965864956e-05, 0.0005546826287172735, -0.00016434556164313108, -0.0008458740194328129], [-0.000831644400022924, 0.00023834049352444708, 0.000126789411297068, -0.00020138506079092622, 0.0007340481970459223, -3.4703785786405206e-05, 0.0002919359249062836, -0.0012115922290831804, 0.0007174179190769792, 0.00038260172004811466, -0.00048042437992990017, -0.0007422927301377058, -0.0008562344592064619, -0.0004556068452075124, 0.00022675475338473916, 0.00020727558876387775], [-0.00012868375051766634, 0.0003634904860518873, -0.0005528292385861278, -4.0825281757861376e-05, 0.0009698851499706507, -0.0008234108099713922, 0.0012914149556308985, 0.001671280013397336, -0.0008842851966619492, 0.0007329153595492244, 0.001280279248021543, 7.313140667974949e-05, 0.0003201081417500973, -0.0022296220995485783, 0.00039905443554744124, -0.0004852497368119657], [0.00038442196091637015, -0.0004732815723400563, 0.00011867683497257531, 0.00010670523624867201, -0.0008951372583396733, 8.716581214684993e-05, -0.0003404014278203249, 0.0007042608922347426, -0.0014584457967430353, 0.0009053796529769897, 0.0009481494198553264, -0.00029522806289605796, 0.00030374739435501397, -0.0016961488872766495, 0.0013984792167320848, 0.0011780885979533195], [0.0002651643590070307, 0.0006635193713009357, -0.00010622554691508412, 0.0004952437593601644, 0.00144279096275568, -0.00014204211765900254, 0.000798418652266264, -8.056969090830535e-05, 0.0011980602284893394, -0.0009576475713402033, -0.0008320399792864919, 0.0013641491532325745, -0.00047728794743306935, 0.00020706895156763494, -0.0015473063103854656, -0.0008534601656720042]], [[-0.0005006274441257119, 0.000651238951832056, -7.693392399232835e-05, -0.0005604087491519749, 0.0007516884943470359, -0.0012276843190193176, 0.0023616855032742023, 3.5183984437026083e-06, -0.0012306419666856527, 0.0003190225106664002, -0.0006739109521731734, 0.00036942696897313, -0.00042313517769798636, -0.0020244275219738483, -0.0002161212032660842, -0.0006734838825650513], [-0.0006983987404964864, 0.0005686499644070864, 0.000461891817394644, -0.001232285751029849, 9.113323903875425e-05, 0.0002665685606189072, -0.00016481438069604337, 0.0007992966566234827, 0.00020076916553080082, 0.0009243814274668694, 0.0008562231087125838, -0.000798574008513242, 0.000784153351560235, -0.0011473397025838494, -0.0011915703071281314, 0.0009593299473635852], [-0.00046796855167485774, 0.0008093646029010415, -0.0009685047552920878, -0.00029702321626245975, -4.402361810207367e-05, -0.0012365671573206782, -0.0003378154360689223, -0.0006017757696099579, -0.0005359224742278457, 0.0013160130474716425, 0.0004235674859955907, -0.0018297918140888214, -0.0007779679726809263, -0.001012355787679553, 0.0001040822098730132, -0.00015094532864168286], [-0.00029902561800554395, 0.00025391424424014986, -0.0001662784197833389, 0.00025836180429905653, -0.0009854628005996346, -0.0006593713769689202, 0.0010893959552049637, -0.0003609341802075505, -0.0020998974796384573, 0.0013343335594981909, -3.250256122555584e-05, 0.0005074971704743803, -0.0004561922687571496, -0.0019371947273612022, -0.00010789776570163667, 0.00022780375729780644], [-0.0009213487501256168, 0.0003921306924894452, 0.0003927666984964162, -0.0017688258085399866, -0.0008122997242026031, 0.0009819582337513566, -0.0009497547871433198, -0.0003748899616766721, -0.0005534442607313395, 0.0003510165843181312, 0.00048239692114293575, -0.0015472520608454943, 0.000701801385730505, 0.0016067326068878174, 0.0007960590301081538, 0.000550060358364135], [-0.00018962225294671953, 0.0008336821338161826, 0.0003047581121791154, -0.0007148854783736169, -0.000523273425642401, 6.89400767441839e-05, -0.0004794179112650454, 0.0006034121615812182, -0.0006580745684914291, 0.00020476258941926062, 0.00046339479740709066, 0.00020853953901678324, -0.00030516355764120817, 0.0012756455689668655, 0.00018252612790092826, 0.0003428481868468225], [-2.3191270884126425e-05, 0.0002884381974581629, -5.065852019470185e-05, -3.389972698641941e-05, -0.0002247110242024064, 0.0004377419827505946, -0.001958043547347188, -0.00020053453044965863, 0.0009167264215648174, -0.0008185646729543805, 0.0014650209341198206, -0.0004852911224588752, -0.00042285333620384336, 0.0028398591093719006, 0.0009279310470446944, 0.0004859659820795059], [3.477546852082014e-05, -0.00011546141467988491, -0.0011384114623069763, 8.265423821285367e-05, -0.0009197157924063504, -0.00033986425842158496, -0.0006623648223467171, -0.0004636305384337902, -0.0006869320059195161, -0.0001525313127785921, -6.6992302890867e-05, -0.00020943218260072172, -0.00011974996596109122, -0.0003210142895113677, 0.001229737652465701, 0.0002239496388938278], [0.00016134267207235098, 0.0005971033242531121, 0.00044839485781267285, -0.0002852263569366187, 0.0008954248623922467, -0.0003040041192434728, 0.0006630811840295792, -0.0005151479272171855, -0.00047111831372603774, 0.0001909241109387949, 3.679453220684081e-05, 0.0007088945130817592, -0.0004161030810791999, 0.0003677123168017715, 0.00028123013908043504, 1.6324062016792595e-05], [0.00018285715486854315, -0.0008814188186079264, 0.0004473220615182072, 0.001364424591884017, -0.0013790095690637827, 0.00074483931530267, -0.0005608866340480745, 6.876744737382978e-05, -0.000375308096408844, -0.00041501555824652314, 0.0014014758635312319, -0.0008964760927483439, 0.000835656188428402, 0.0004088326822966337, 0.001411707024089992, -0.0007363037439063191], [-0.0002667750813998282, 0.00040785616147331893, 0.00020657514687627554, 0.0007890921551734209, 7.357353752013296e-06, -0.0006143179489299655, 0.001877902657724917, -0.0009196118917316198, -0.00016024510841816664, -0.0010067393304780126, -0.0005726579111069441, -0.0005806555855087936, -0.0004998949589207768, -0.0006750010652467608, -0.0003092060796916485, -0.0007290932117030025], [0.0009157920721918344, -0.0010842739138752222, 5.331433203537017e-05, 0.0015555995050817728, 0.0007499034982174635, -0.0002852767356671393, 0.0005854830960743129, -0.0003147315001115203, 0.0005932919448241591, -0.00024952596868388355, -0.001163578126579523, -0.00011312284914311022, -4.920357605442405e-05, -0.0017424083780497313, -0.00028614100301638246, -0.0006995322182774544], [6.013754318701103e-05, 0.0007078871130943298, 0.0006924955523572862, -0.00036751898005604744, 8.531683124601841e-05, -6.200719508342445e-05, -0.0012891084188595414, 1.4930297766113654e-05, 0.0010753008536994457, 0.0006394392694346607, 0.0009860082063823938, -0.0004197858215775341, 0.0001515562180429697, 0.0010411525145173073, -0.0002727746614255011, 0.0006449870998039842], [0.0007923126686364412, -0.001055413857102394, -0.00034284309367649257, 0.001353977364487946, 0.00018344253476243466, -0.0008399601792916656, 0.0001339721493422985, 5.6655957450857386e-05, 0.0006925175548531115, -0.0006978812161833048, -0.0007994355401024222, 0.0003506754292175174, -9.239740029443055e-05, -0.0009188455296680331, -0.00031728827161714435, -0.0003846937615890056], [-4.2881350964307785e-05, 6.22758234385401e-05, -0.0006448880303651094, -0.0003629097482189536, 0.0001857917377492413, 1.5431854990310967e-05, -0.00037431486998684704, 0.000590828713029623, 0.0002065887674689293, 0.0003323449054732919, 0.0003522283222991973, -0.0013354076072573662, 0.0001167863083537668, -0.00040279398672282696, 5.726047675125301e-06, -5.265681829769164e-05], [-0.0005925175501033664, 0.0002476413210388273, -0.0002596335543785244, -9.759474778547883e-06, 0.0003012214438058436, -0.00042312860023230314, 0.0015705761034041643, -0.001140874344855547, -0.0009884668979793787, -0.0003335412184242159, -0.00046033761464059353, 0.0007642435957677662, -0.0012462777085602283, 0.00016442024207208306, -0.0004947719280607998, -0.000627801869995892]], [[8.56208789627999e-05, -0.0011216766433790326, 0.0005650982493534684, -0.00014059868408367038, 0.00047070372966118157, -0.0010550494771450758, 0.0004658784018829465, -0.0010294010862708092, 0.001392517238855362, -0.0004989071167074144, -0.0007674577063880861, -8.87835631147027e-06, -0.0014627856435254216, 0.00021130903041921556, -0.00012277887435629964, -9.616602619644254e-05], [-0.0007042289944365621, 0.0021595112048089504, 0.0011329780099913478, -0.0017207269556820393, 0.000256458850344643, 0.00017583035514689982, 0.0001776742428774014, 0.0007755105034448206, 0.000297426333418116, 0.0007243881118483841, 0.00044539154623635113, -0.0004472139698918909, -0.0005243307678028941, 0.0003513852134346962, -0.0013781617162749171, 0.0007351066451519728], [0.00024409705656580627, -0.00021553109399974346, 0.0012990388786420226, 0.00013507119729183614, -0.0007569497684016824, -0.0013782007154077291, -0.0010697265388444066, 0.0006818067631684244, -4.044604429509491e-05, 0.00010905803355854005, 0.00017259518790524453, -0.00041811418486759067, -0.0001281018485315144, 0.00031568476697430015, 0.00036135007394477725, 0.0008530947961844504], [0.0009211739525198936, -0.0005475846119225025, 0.00010353626566939056, 0.001084508839994669, 0.00043853436363860965, -0.0005113923107273877, -0.0005824422114528716, 0.0005846922285854816, 0.0008729673572815955, -0.001228802022524178, 0.0006411075592041016, 0.0001438469043932855, -0.0006766241858713329, 0.001086390228010714, 0.00034551770659163594, 1.442496431991458e-05], [-0.0004954152973368764, -0.0007241163402795792, -0.0007447885582223535, 0.0009893360547721386, -0.0012912664096802473, 0.0022673129569739103, -0.0016003415221348405, 0.0005672684055753052, -0.0013594862539321184, -0.00014028404257260263, 0.0001340171875199303, 8.607475319877267e-05, 0.002738357987254858, 0.0009349394822493196, 0.00019900136976502836, -0.0003320358518976718], [0.000135409805807285, -0.0002315440506208688, -0.0008695346768945456, 0.0003017782582901418, -0.0005431268364191055, 0.0009467683848924935, -0.0006515145651064813, -0.0008281899499706924, -0.0008212293614633381, -0.00022537237964570522, 0.0007880354532971978, -0.00021365673455875367, 0.000871869851835072, 0.001624133437871933, 0.00015303812688216567, 0.00016450346447527409], [-0.0002383469691267237, -0.0005936591187492013, 0.00020919559756293893, -7.721729343757033e-05, -0.0007955952896736562, 0.0010177340591326356, -0.0009603978833183646, -0.0010917657054960728, -0.00016651663463562727, 0.0005523943109437823, -6.358633982017636e-05, -0.0007866463856771588, 0.0017342378851026297, -0.0002085149462800473, 0.0007563350955024362, 0.0007565043051727116], [0.0004435499431565404, -0.0009583705104887486, -0.001058274181559682, 3.854412352666259e-05, -0.0005406285054050386, 0.0002731093263719231, -0.0007246683235280216, -0.0004387874505482614, -0.0004173066990915686, 0.0004829694807995111, -0.0004992942558601499, 0.0005272054695524275, 0.001312767155468464, -0.0007695159292779863, 0.0009185194503515959, -0.00016781187150627375], [-3.9844802813604474e-05, -0.00019888523092959076, 0.0002799179346766323, -0.000345130218192935, -0.00042571217636577785, 5.1866460125893354e-05, -0.0008119186968542635, 0.00023816965403966606, 0.0002469508908689022, 0.0003912316169589758, 0.0005472807679325342, 0.0002556658582761884, 0.00017767785175237805, -4.7792302211746573e-05, 0.0002939427795354277, 0.0007139561348594725], [0.00025037681916728616, -0.000950185873080045, -0.0005600505392067134, -0.00035827752435579896, -0.0001358641020487994, 0.001796754659153521, 0.0005479901446960866, 0.00023361975036095828, -0.0013911256100982428, -0.0001076776534318924, -0.0006732902838848531, 0.0001012049033306539, 0.0006781953852623701, -0.001212617033161223, 0.0021142407786101103, -0.0004316407139413059], [0.0005221835453994572, -0.001233073533512652, 7.027761603239924e-05, 0.002119101583957672, -0.00034573173616081476, -0.0007911034626886249, 0.00010313141683582217, -0.00015707637066952884, 0.0001224141160491854, -0.0007556572672910988, -0.0010984860127791762, 0.0007006564410403371, -0.00042782200034707785, 8.798429917078465e-05, 0.0003049523220397532, -0.0005046776495873928], [-0.0001576162758283317, 0.0004161107644904405, 0.00017485255375504494, 0.00022923608776181936, -0.000462404073914513, 0.0005279346369206905, 0.001317861140705645, 0.0008808086276985705, -0.0010895999148488045, 0.0004830574616789818, 0.0007696112734265625, 0.00161799939814955, -0.0005217717844061553, -0.0014902862021699548, 0.00044936826452612877, 3.145280061289668e-06], [0.00029293500119820237, 0.0001698771957308054, -0.00011689864913932979, -0.0009553098352625966, -0.000872603734023869, 0.0005067642778158188, -0.001147527596913278, 0.000994604779407382, -0.0003664340474642813, 0.0005514287622645497, 0.0006291814497672021, 0.0005064429715275764, 0.00032239133724942803, 9.74508875515312e-05, 0.0008026143768802285, 0.000995355425402522], [0.00016211805632337928, 8.28662741696462e-05, 0.00010572207975201309, 0.001113084377720952, 0.0005283431382849813, -0.0005761462962254882, 0.0015142550691962242, -0.0005397114437073469, 0.00038458534982055426, -0.00025725524756126106, 0.00036203936906531453, 6.261025555431843e-05, -0.0002016652433667332, -0.0010793928522616625, 0.0006965441862121224, -5.089404294267297e-05], [-0.0008712134440429509, 0.0016996844206005335, 0.00030462670838460326, -0.0015823820140212774, 0.00042907107854261994, -0.00022851224639452994, 0.0009460800793021917, -0.0006873112288303673, -0.0009677429916337132, 0.0015819896943867207, 0.0006442753947339952, -0.0012031011283397675, -0.00016965034592431039, -0.0003182610380463302, -0.001015560352243483, 0.0004461653297767043], [0.0010883272625505924, -0.0017761301714926958, 0.0005459764506667852, 0.0024298904463648796, 0.00013305236643645912, 0.00020963820861652493, -5.141278961673379e-05, -0.001051668543368578, 0.00010749229113571346, -0.001126746996305883, -0.0007700908463448286, 0.0007284792372956872, -0.0001625418954063207, -0.0009796398226171732, 0.0001015191082842648, -0.0002249921963084489]]], [[[-0.0003517666191328317, -0.00035714026307687163, -0.000745649915188551, -0.0008833970059640706, 0.00045006099389865994, -0.0001593959896126762, 0.0007584181730635464, -0.00014608200581278652, -0.00018878364062402397, 0.00030301703372970223, -0.0007593441987410188, -0.00021853494399692863, -0.000933801056817174, -0.001351311570033431, -0.0010631241602823138, 0.00012989409151487052], [-0.000955027062445879, 0.001287399441935122, -0.00040371331851929426, -0.0006970218964852393, 0.00035746197681874037, -0.000699588330462575, -0.00021624728105962276, 0.0012361278058961034, 0.00021903352171648294, 0.0017394921742379665, 0.0007555849151685834, -0.0006453150417655706, 0.0013661172706633806, -0.00018823804566636682, 0.0008725025691092014, -0.00011663118493743241], [0.00039388006553053856, -0.00027297346969135106, 0.0005261300248093903, -0.000990358181297779, -0.0006370717310346663, 0.0005079735419712961, 0.0005176347913220525, -0.0006084525375626981, -0.0012998970923945308, -0.00021773987100459635, -0.0014047669246792793, 0.0012289502192288637, 9.563197090756148e-05, -0.0008504363941028714, -0.0005446721916086972, 0.0009339253883808851], [-0.0002364415122428909, -0.0006363089196383953, -8.436905045527965e-05, -0.0009702718234620988, 0.0004883329384028912, 0.00019839761080220342, 0.0005499365506693721, 0.0002731845888774842, -0.0005839484510943294, -0.00015947027713991702, -0.0010333777172490954, 0.0010870075784623623, -0.0002637854777276516, -0.000719219446182251, -0.00047737511340528727, 0.0003273081383667886], [-6.096961442381144e-07, 0.002071306575089693, 0.0005167710478417575, 0.0003901307936757803, -8.379367500310764e-05, 8.171156514436007e-05, -0.001204627100378275, 0.0013760954607278109, -0.00012997124576941133, 0.0002836256753653288, 0.0019793743267655373, 0.0005841819802299142, 0.00042343157110735774, 0.0022427337244153023, 5.1868963055312634e-05, 0.0004620470863301307], [-7.730105426162481e-05, 0.0006474842084571719, 0.00015065274783410132, 6.383773870766163e-05, -3.41235909218085e-06, 0.0006856543477624655, -0.0005128250340931118, -7.676787208765745e-05, 0.0003165028465446085, -0.00040129985427483916, 0.00042614457197487354, -0.00028299677069298923, -0.00037601502845063806, 0.0017738856840878725, -0.00013243846478872, 0.00044350718962959945], [0.00010337855201214552, -0.00016194563067983836, 0.000791745784226805, 0.0004997150390408933, -0.0008464530110359192, 7.589833694510162e-05, 0.0007180285756476223, -0.0019217344233766198, -0.00013415832654573023, -7.767925853841007e-05, 8.82139356690459e-05, -0.0010264203883707523, -0.00041966669959947467, -0.0003392897779121995, 0.0007962794043123722, 0.00010273979569319636], [0.00019941915525123477, -0.0005791504518128932, 3.720333916135132e-05, -0.00025448104133829474, -0.0017101364210247993, 0.001009009312838316, -0.00026565504958853126, -0.0013731798389926553, -0.0012637026375159621, -0.0001962713140528649, -0.0005861849058419466, -8.389967842958868e-05, -0.0005888037267141044, 0.00017264968482777476, 0.0003239679499529302, 0.0017739890608936548], [-6.366518937284127e-05, 0.00033676455495879054, 0.0003594770678319037, 6.227037374628708e-05, 0.0006665622349828482, -0.0005377887864597142, 0.0008080470142886043, 0.00047768521471880376, -0.00032882936648093164, -0.0003479579754639417, 0.0012733486946672201, 0.00033449544571340084, -0.0006372140487655997, -0.0011691390536725521, -0.00042822968680411577, -4.3839041609317064e-05], [-0.00010596227366477251, 0.0006864254828542471, 0.0012948981020599604, 0.0013082892401143909, 0.0007562061655335128, -0.0008246564539149404, 0.0002651223330758512, 0.0009420603164471686, 0.0005685267969965935, -0.00031853647669777274, 0.0015707113780081272, -0.00042133661918342113, 0.0005984827876091003, -6.301223766058683e-05, -0.00010378928709542379, -0.0006138344178907573], [0.0006272728787735105, -0.00041354558197781444, 0.0006099488819018006, -0.00043488715891726315, 0.0004265698662493378, -0.0003902125754393637, 0.000932713330257684, -0.0003408088523428887, -0.00036466107121668756, -0.0007873729337006807, -0.0009492049575783312, 0.0007801857427693903, -0.0008813643362373114, 3.0189345125108957e-05, -0.000918945181183517, -0.0005602934397757053], [-0.00028470251709222794, 0.0007675816887058318, 2.6806083042174578e-06, 0.0010830010287463665, 0.0004866467497777194, 5.507483729161322e-05, 0.0002303129294887185, 0.0015663679223507643, -0.0005655219429172575, -0.00018047759658657014, -0.0001778619916876778, 0.0016080907080322504, 0.0008309778058901429, -0.00010287208715453744, -0.00037563242949545383, -0.00017881154781207442], [-0.00015017420810181648, 0.0005621288437396288, 0.0007754478720016778, -0.00022599325166083872, -0.00018463260494172573, -0.00032676736009307206, -0.00020915979985147715, 0.0004241323913447559, -6.9642104790546e-05, 0.00034926505759358406, 0.0008992883376777172, 0.0002541740832384676, 0.0006476985872723162, 6.067303183954209e-05, 0.00037075794534757733, -0.00044457134208641946], [0.0001878841721918434, -0.0006858211709186435, -0.00021368099260143936, 0.0006441138684749603, -0.0005882875411771238, 0.0007780871819704771, -0.000413312460295856, -0.0007522833184339106, -0.0003828007902484387, 0.00010917248437181115, -0.0018648316618055105, 0.0011181834852322936, -0.00012131679250160232, -0.0007072972366586328, -0.00027096510166302323, 0.0005018701776862144], [-0.0008301857160404325, 0.0003215804463252425, -0.0006159679032862186, 0.000287697184830904, -0.0008646585047245026, 0.00046313219354487956, 8.266937220469117e-05, -0.0009413436055183411, -0.00017143087461590767, 0.001202217536047101, -0.0013417333830147982, -0.001033877837471664, 0.0007015558076091111, -0.00036636143340729177, 0.0013190694153308868, 0.001271478133276105], [0.0009444878669455647, -0.0005876666400581598, 0.0006853833911009133, -0.00017709549865685403, 0.0009475030237808824, 0.00010352717799833044, 0.0015756008215248585, -0.0009304824052378535, -0.00013519471394829452, -0.0018785253632813692, -0.0004954527830705047, 0.0015502988826483488, -0.000762858078815043, 0.0002606252674013376, -0.00142114725895226, -0.0001992036704905331]], [[0.0004156043578404933, -0.001098543405532837, -0.0007435815641656518, 0.0003044071781914681, -0.00018305036064703017, 0.000831775541882962, -0.0003435505786910653, -0.000631407368928194, -0.0011156612308695912, 5.292752757668495e-05, -0.00014778843615204096, 0.0011631881352514029, -0.0008259440073743463, -0.0005743876681663096, -0.0018171831034123898, -0.000706532213371247], [-0.00048429175512865186, -0.00037696294020861387, 0.0002997535339090973, -0.000718655763193965, -0.0006727503496222198, -5.5375247029587626e-05, -0.0005984364543110132, -0.00026568915927782655, 0.001138993538916111, 0.0003936018329113722, -0.0007056330214254558, -0.0014184953179210424, 0.0005955736851319671, 0.0006038685096427798, -0.00041030545253306627, 0.0004294883692637086], [-5.297347161103971e-05, 0.0019160328665748239, 0.00046860569273121655, -0.00022272212663665414, 0.0010089232819154859, -0.0004546311974991113, 0.0007264076266437769, 0.0011221416061744094, -0.00022439546592067927, 0.001239814329892397, 3.8614103686995804e-05, 0.0008710440015420318, -0.00021605096117127687, -0.00024018672411330044, -0.00024983787443488836, 3.070480306632817e-05], [0.0001418015017407015, 0.0010850272374227643, -0.0008125536842271686, 0.0009159687906503677, -0.0001277578849112615, 0.00010611332254484296, 0.0005115408566780388, -0.0014492584159597754, -0.0005688758683390915, 0.000393033871660009, -0.00044327788054943085, 0.0013386765494942665, -0.0010748229688033462, 0.00017223616305273026, -0.0001335545239271596, 0.0001870454871095717], [-0.0003243565442971885, 0.0008950663032010198, 0.0006433463422581553, 0.0001850344124250114, -8.856941713020205e-05, 8.056971273617819e-05, -0.000718720955774188, 0.0003138936881441623, 0.001354097854346037, 0.00032196767278946936, -0.00021488359197974205, -0.0017482070252299309, 0.0009129241807386279, 0.0002479807590134442, -0.0003001757722813636, -0.0004574568010866642], [-0.0005860377568751574, 7.736840780125931e-05, 0.00021262727386783808, -0.0006574171129614115, -0.0002876801008824259, 0.00028213905170559883, -4.002428613603115e-05, -0.0014308503596112132, -0.0006986421067267656, 0.00031614844920113683, 0.0004393552371766418, -0.0008767178514972329, -0.00048561193398199975, -0.000771805876865983, 0.0002395821502432227, 0.00017130107153207064], [0.00018847982573788613, -0.00028811790980398655, -8.053152123466134e-05, 0.00026327845989726484, -2.9597882530651987e-05, -0.00020107999444007874, -0.0008205712656490505, 0.0011731286067515612, -0.00033840673859231174, 0.0006963524501770735, 0.0018652131548151374, -0.0014051073230803013, 0.0010544521501287818, -0.0007775968406349421, 0.0016449326649308205, 0.00020800973288714886], [0.00021402284619398415, -0.0005520028062164783, -0.0006856388645246625, -0.0008530818158760667, -0.00019252634956501424, 0.0004307819181121886, 0.00027688778936862946, -0.00024173056590370834, -0.0013961257645860314, 0.0005145885515958071, -0.00047492230078205466, 0.00029802334029227495, -4.819687455892563e-05, -0.0011096332455053926, 0.0012831940548494458, 0.00018316239584237337], [-0.00019770581275224686, 0.0003432750527281314, -3.1299874535761774e-05, -0.0005359608912840486, -0.0002834743354469538, 0.00044811959378421307, -0.0009731008321978152, 0.0009569805697537959, -0.0007281900034286082, -9.09454538486898e-05, 0.0017978023970499635, -0.00023635468096472323, -0.0004952321178279817, 0.001394507009536028, -0.0001738801074679941, -0.0005353020969778299], [0.001409554504789412, -0.0009664807002991438, 0.00011406154953874648, 0.0033212201669812202, -0.0008449121378362179, -0.00037652708124369383, -0.0011280446778982878, 0.0015072408132255077, 0.0018142594490200281, -0.0009440550347790122, 0.0004999502561986446, 0.00028363493038341403, 0.0007578597287647426, -0.00010792259126901627, 0.0016272950451821089, 0.00036633259151130915], [0.00019147219427395612, 7.585712592117488e-05, -0.0006625227397307754, 0.0014321517664939165, 0.0006907179486006498, -3.4895398130174726e-05, 0.0002776271430775523, 0.00044221998541615903, -0.00021235313033685088, -0.00012051383237121627, -0.0006134017603471875, 0.001736452104523778, -0.0004147732979618013, 0.0005187733913771808, -0.000777467037551105, -0.0002656702999956906], [-7.589560118503869e-05, 0.000173820139025338, 0.00011260660539846867, -0.0007583198603242636, 0.00016159290680661798, -0.0006133235292509198, 0.0008632960962131619, 3.630394348874688e-05, 0.0006631388678215444, -0.000564324320293963, -0.0012845686869695783, 0.0009523983462713659, -0.0011129311751574278, 0.0007728078635409474, 0.00014988554175943136, -0.00048802391393110156], [-0.00016291928477585316, 0.00018664344679564238, 0.00024880701676011086, -9.221570508088917e-05, 0.00011058908421546221, -0.00021239282796159387, -0.0010897187748923898, 0.0013387121725827456, 0.000910709029994905, -0.00010929096606560051, 0.0015008215559646487, -0.0002395219635218382, 0.0011649829102680087, 0.0008573819068260491, 0.000803621718659997, -0.00020501110702753067], [9.247256093658507e-05, -0.00032929849112406373, -0.0003879976866301149, -5.262505146674812e-05, 0.0002894829376600683, -0.00036931189242750406, 0.0008449938031844795, -0.00047188441385515034, -0.00021351943723857403, 0.00012047274503856897, -0.001460141153074801, 0.0014761718921363354, -0.00026817331672646105, -0.001592220738530159, 0.00021031557116657495, 8.961996354628354e-05], [-0.0005622967146337032, -0.0004535035986918956, 5.838970537297428e-06, -0.0013858124148100615, 