{"nesterov": true, "init_weights": [28834, [[[[-0.0003807821194641292, 9.236286859959364e-05, -6.555883737746626e-05, 0.0004036187310703099, -0.00018408145115245134, 0.002265383256599307, 0.001148424344137311, 0.00010691178613342345, -0.0008437379729002714, 7.609586464241147e-05, 0.0003619873896241188, -0.0007025320664979517, 0.0010325912153348327, 0.00024780130479484797, -0.0001877457252703607, 0.00011303731298539788, 3.402354195713997e-05, 0.0001599435490788892, 0.0007320415461435914, 0.0007580947130918503, -0.0013744072057306767, 0.0007052118889987469, -0.0002002808905672282, 0.0004776527639478445, -0.0013057282194495201, -0.000488168589072302, -0.0007516287732869387, -0.00023037727805785835, -0.00011960140545852482, 0.00031979099730961025, -2.60240922216326e-05, 0.00042248168028891087, -0.0004855571314692497, -0.0006830696947872639, -0.0005747969262301922, -0.0011558752739802003, -0.00018964269838761538, 9.742914699018002e-06, -0.0011241098400205374, 0.00037225399864837527, 0.0003495215787552297, -0.00022062461357563734, 0.0008088382892310619, -0.00023124921426642686, 2.5875313440337777e-05, 0.0001331391977146268, -0.00037993135629221797, -0.00016848061932250857, -9.262593812309206e-05, -0.0001839052711147815, -9.253817552234977e-06, 0.0005788533017039299, -0.0009488088544458151, 1.5731933672213927e-05, 0.0008677806472405791, -0.00034112625871784985, -2.5435001589357853e-06, 0.0004476394387893379, 0.000130333355627954, 5.5574055295437574e-06, -0.0003775529330596328, 0.00019921665079891682, -0.0007778269937261939, 0.00046832807129248977], [-6.668021228506404e-07, 2.8934229590049654e-07, -1.3364466440179967e-06, -1.3327753549674526e-06, -4.27050366624826e-07, -1.3117933406192606e-07, 1.0955573515047945e-07, -3.0872419642946625e-07, -6.185173901940288e-07, -8.315646482515149e-08, 4.0340108853342826e-07, -3.356747768634705e-08, 7.863540076868958e-07, 5.783429628536396e-07, -1.1829904451587936e-06, 6.10912024967547e-07, 2.603964901481959e-07, -6.169518940168928e-08, -7.649648523511132e-07, 3.9356930869871576e-07, 5.618785507977009e-07, 2.4021034050747403e-07, 1.2673987157540978e-06, 6.011617870171904e-08, -8.558149033888185e-07, -9.876960120891454e-07, -1.1704793223543675e-07, -7.006833584455308e-07, -8.260155937023228e-07, -7.625899343111087e-07, 6.157806069495564e-07, 8.109566351777175e-07, -1.2130628874729155e-06, 4.4353444650369056e-07, 5.496290782502911e-07, 3.1651248377784214e-07, 1.3186167961976025e-06, -2.1244777315132524e-07, 8.861316018737853e-07, -2.8969489562769013e-07, 4.999370162295236e-07, -5.477378408613731e-07, 6.540056460835331e-07, 2.0736537464927096e-07, -9.815610013674814e-08, -4.076720472312445e-07, -5.757843624110137e-08, -1.2981022337044124e-06, -5.364630624171696e-07, 1.442529367068346e-07, -2.1059649668586644e-07, 3.2873182931325573e-07, 2.0330446659500012e-07, 4.239406905526266e-07, -2.3377843660910003e-07, -7.961315304783056e-07, 3.8752617115278554e-07, 2.503458063074504e-07, -2.851978990747739e-07, 1.4014144653629046e-06, 4.6200125325412955e-07, -2.094805040542269e-07, -5.247243279882241e-07, 3.1128359978538356e-07], [3.3518456348247128e-06, 2.815631432895316e-06, 2.0248876353434753e-06, 1.0870969902043726e-07, 2.7959765702689765e-06, 6.783736353099812e-06, 4.869130862061866e-06, -1.0869027391890995e-05, -2.5865720090223476e-06, 5.694565174962918e-07, 5.3485000535147265e-06, -4.296268343750853e-06, 5.242703991825692e-06, -5.12636688654311e-06, 2.246379608550342e-06, -9.64011633186601e-07, -2.6269751742802327e-06, 4.665181450036471e-07, -3.3698427159833955e-06, 6.080744583414344e-07, -1.9198125755792717e-08, 5.930116913077654e-06, -7.063475095492322e-06, -1.846414875217306e-06, -2.3074771604569833e-07, 1.3313851923157927e-06, -4.669853481686914e-08, 1.886184691102244e-06, 2.714460151764797e-06, 1.0452335118316114e-05, -6.318434316199273e-06, 8.112876912491629e-07, 3.096697355431388e-06, -9.787096360014402e-07, 6.016341103531886e-06, -6.861009296699194e-06, -3.2080611163110007e-06, 9.219252206094097e-07, 5.222354957368225e-07, 2.9759632980130846e-06, -1.3799744920106605e-06, 3.0790656637691427e-06, -2.9440875550790224e-06, -2.4403204861300765e-06, 8.3323448052397e-06, -1.619511635908566e-06, 4.189375886198832e-06, 1.6427989066869486e-06, -1.9082790458924137e-06, -3.7346130739024375e-06, -5.885918199055595e-06, 3.250278268751572e-06, -8.246082074947481e-07, 1.227121174451895e-06, -4.603980869433144e-06, 6.277605280047283e-08, -4.637567485588079e-07, -8.176812116289511e-06, 5.162665956959245e-07, 1.7714024806991802e-06, 1.173549321720202e-06, -3.070343836952816e-07, 8.991751201392617e-07, 1.3611954727821285e-06], [4.222479765303433e-05, 1.727252879391017e-06, 2.763136762951035e-05, 3.921313236787682e-06, 1.5539053492830135e-05, -0.0002934489748440683, -4.137766518397257e-05, -2.2725438611814752e-05, -2.195558772655204e-05, -1.2348635209491476e-05, 1.562088255013805e-05, 1.3973042769066524e-05, 1.849548971222248e-05, -1.408592925145058e-05, -8.613065801910125e-06, 5.015675924369134e-06, -2.8827918868046254e-05, -1.498332403571112e-05, 2.4181814296753146e-05, 1.1476146028144285e-05, 2.5394938347744755e-06, -4.165099198871758e-06, 1.0341664165025577e-05, -3.0957940907683223e-05, -1.8791950424201787e-05, -2.333491102035623e-05, 1.07158512037131e-05, -2.9609725970658474e-05, 3.779782673518639e-06, -8.456901014142204e-06, 3.990794357378036e-05, -5.327230610419065e-06, -1.068686196958879e-05, -1.1252873264311347e-05, 2.0570943888742477e-05, 5.8790847106138244e-05, -3.1676019716542214e-05, 7.629521860508248e-06, -0.00010483832011232153, 2.366666194575373e-06, 2.0797013348783366e-05, 1.3918538570578676e-05, 2.4974297048174776e-06, -1.207226887345314e-05, -1.3737642802880146e-05, 8.401699233218096e-06, 4.403462662594393e-05, 3.624922828748822e-05, 7.205178008007351e-06, 1.5434494343935512e-05, 9.927873179549351e-06, 1.9375282136024907e-05, 5.2579285693354905e-05, 8.828999852994457e-06, -3.882661258103326e-05, -1.13926389531116e-05, -5.777409342044848e-07, 5.2861152653349563e-05, -3.6444340366870165e-05, 1.057198824128136e-05, -1.404081740474794e-05, 1.197398523800075e-05, 2.3819982743589208e-05, 4.475593414099421e-06], [-0.00019059299665968865, -1.4172284863889217e-05, 9.782515553524718e-05, -8.796296606305987e-05, -0.00015332837938331068, 0.0011304592480883002, -0.00034367895568720996, -0.00024137766740750521, -0.0002046596200671047, 3.8300626329146326e-05, 8.611481462139636e-05, 0.00021315603225957602, -0.00044943057582713664, -0.0002065645530819893, -0.000175912122358568, -0.00030181295005604625, -8.885057468432933e-06, -5.395754851633683e-05, 5.612029053736478e-05, -4.259467823430896e-05, 0.00028491803095676005, 0.00017815268074627966, -0.00013179884990677238, -0.00010912542347796261, -0.0001609299797564745, 0.00016738532576709986, -0.0005011901957914233, -0.0001305638434132561, -0.0003036335692740977, -0.0001437007449567318, -0.00015009462367743254, -2.4373155611101538e-05, -0.00016234704526141286, 0.0003902669413946569, -0.00013354783004615456, -0.00019005346985068172, -0.00044188680476509035, 0.00019250244076829404, 4.7590969188604504e-05, -0.00010731368092820048, -0.0004715014365501702, 0.00020646664779633284, -0.00024042147560976446, 2.3926651920191944e-05, 0.00031110725831240416, 5.350063474907074e-06, -0.0003765608125831932, 3.86260035156738e-05, 3.8486097764689475e-05, 0.0003129939141217619, 1.7438353097531945e-05, 3.5610126360552385e-05, -0.00012570097169373184, 0.00013565215340349823, -0.00015346304280683398, 3.5539364034775645e-05, -5.3142626711633056e-05, -0.00036277720937505364, -0.00014781208301428705, -0.00017737291636876762, -0.00024182433844543993, -4.80792296002619e-05, -0.00014595726679544896, -0.0004466330574359745], [0.0007262779399752617, 0.0001590470492374152, 0.00027594121638685465, -0.0002564692113082856, 0.0004401726182550192, -0.00023004217655397952, -0.00047299754805862904, 0.0008579135173931718, 0.0006837633554823697, 2.3734071874059737e-05, -0.00040924453060142696, -0.00010355555423302576, -0.0007155279163271189, -8.971329953055829e-05, -7.221605483209714e-05, -0.0010584284318611026, -0.00011251632531639189, -8.095044904621318e-05, 0.0009495478007011116, -0.00022766468464396894, -0.0001768891524989158, -0.0005701895570382476, -0.00011625717161223292, -0.00039066674071364105, 0.0006234926404431462, 0.0008353378507308662, -0.00041428685653954744, 0.0004285994218662381, -0.0010498363990336657, -0.0004381452745292336, -0.00016549088468309492, -0.00037624535616487265, -0.0003874105750583112, -0.0005505246808752418, -0.00022920839546713978, 0.0015653605805709958, -0.0005173967801965773, 0.00114002067130059, -6.663108069915324e-05, -0.0006037108250893652, -0.00044576553045772016, 0.0001154237543232739, -6.882852176204324e-05, 1.94402746274136e-05, 7.601044490002096e-05, -0.000525240320712328, -0.0005136205581948161, -0.0003838481497950852, 0.0006534550338983536, 0.0007508862181566656, -3.6419045500224456e-05, -0.00020182543084956706, 0.0008741283090785146, -0.0004772536049131304, 7.355819980148226e-05, 0.00041234534000977874, -0.00027938763378188014, 0.0007256727549247444, -6.626664253417403e-05, 0.0004723885213024914, 0.0004107804852537811, -0.00017869455041363835, 0.0005394865293055773, 0.0004099973011761904], [-0.0004894763696938753, 0.000729674007743597, -0.0007915193564258516, -0.00015328606241382658, -0.0008987769833765924, 0.0015059482539072633, -0.0005651133833453059, 0.0007135841296985745, 2.4444423615932465e-05, 0.0006993929855525494, 0.00034593004966154695, 8.609040378360078e-05, -0.0006902604945935309, -0.00020783561922144145, 0.0004957099445164204, 0.0005570071516558528, 0.0005141154397279024, -0.0003299446252640337, 0.0002197657449869439, -9.407004836248234e-05, -0.00014613116218242794, -6.026137270964682e-05, -0.0002632340183481574, -0.00028036246658302844, 0.000425894366344437, -0.0001658795663388446, -0.0006125710206106305, 0.0004352737159933895, -0.0003187572001479566, -0.0004576927749440074, -8.68879069457762e-05, -0.0003321837284602225, -2.8827518690377474e-05, 0.0004912363365292549, 0.0004559899098239839, 0.0002768765843939036, -0.0009312770562246442, 0.001115189865231514, 0.0009202747023664415, 0.00015275135228876024, -0.00036461203126236796, -0.00029534747591242194, -0.0007245365995913744, 0.000950125977396965, 0.0009562082123011351, -0.00022392545361071825, -0.0008146586478687823, -0.0007769970688968897, -0.0005166185437701643, -0.0004855353618040681, -0.0010338036809116602, 0.0006199331255629659, 0.0008199294679798186, 0.0009187406394630671, -0.00010868212120840326, 0.00027646907255984843, 0.0005243915948085487, 0.0007499521598219872, 0.0006423153099603951, -0.0008245967328548431, 0.00047130120219662786, -0.00011285794607829303, -0.0002358949277549982, -0.0006787701859138906], [-0.0004579964734148234, 0.0003089877718593925, 0.00033350809826515615, -0.00020991702331230044, -0.0005772984586656094, 0.001157246297225356, -0.0007673000218346715, 0.0005920090479776263, 9.291796595789492e-05, -5.039354437030852e-05, 0.00022679952962789685, -0.0001467184629291296, -0.0011220950400456786, -0.00026301847537979484, -0.0010849992977455258, -0.00013678705727215856, 0.0007542144157923758, 0.00028426459175534546, 0.0003073267871513963, -1.625905861146748e-05, -0.00014111166819930077, 0.00028692372143268585, 0.00018763396656140685, 0.0003788458416238427, -4.102359525859356e-06, -5.677778972312808e-06, 0.0002646272478159517, -0.0008184870821423829, -0.00027014294755645096, 0.0001637612731428817, -6.420322461053729e-05, 0.0014917869120836258, 0.0003075923305004835, 0.0001710102951619774, 0.00022983201779425144, -0.0002623081672936678, -0.00011540820560185239, -0.0007093459716998041, -0.0009673546301200986, 0.0005195154808461666, 0.00014775848831050098, 0.0006451894878409803, 0.0003716956125572324, 0.00027251517167314887, -0.0013082190416753292, -0.0006358956452459097, 0.000993902562186122, 0.0010787425562739372, 0.0009995969012379646, 0.00023010533186607063, -0.0002905688597820699, 0.000944176281336695, 0.0005923502030782402, 0.0006905284826643765, -0.001196722500026226, -0.0006640347419306636, 0.0001840480836108327, -9.19598969630897e-05, -0.0003511206014081836, -0.00010500589269213378, -0.0005827265558764338, -0.0009475951665081084, -0.0004583600093610585, 0.0005677390145137906], [1.1657059076242149e-05, 1.8428638213663362e-05, 1.9246049305365887e-06, -4.564553819363937e-06, -4.243503281031735e-05, 0.00013163438416086137, 3.3169581001857296e-05, -5.337536276783794e-05, 9.804352885112166e-07, 7.29264729670831e-06, 3.621640644269064e-05, -2.1079589714645408e-05, -1.3446473531075753e-05, 1.9612098185461946e-06, 1.816656549635809e-06, 1.7733487766236067e-05, -1.0833863598236348e-05, -1.0705798558774404e-05, -5.028682789998129e-05, -1.9267445168225095e-05, 1.2212518413434736e-05, 1.4522589481202886e-05, 2.0680456145782955e-05, 2.3049302399158478e-05, 3.615024979808368e-06, -1.4061235560802743e-05, 2.092258000629954e-05, 2.904905613831943e-06, 1.2763168342644349e-05, -2.7148143999511376e-05, 1.0124249456566758e-05, 2.476131157891359e-06, 1.697682819212787e-05, 1.217508724948857e-05, -1.358317376798368e-06, -1.506313947174931e-05, 2.1973401089780964e-05, -1.0531337466090918e-05, -3.688113338284893e-06, -1.588373925187625e-05, 2.0405047962412937e-06, -5.474839326780057e-06, -9.781791732166312e-07, 4.687848559115082e-06, 1.7343161744065583e-05, -1.1341921890561935e-05, 5.185823283682112e-06, -2.355364995310083e-05, 2.014984784182161e-05, -7.50821072870167e-06, -2.150074578821659e-06, 1.9122844605590217e-05, 1.6329402569681406e-05, 1.3560316801886074e-05, -8.377997801289894e-06, 4.481124506128253e-06, 2.1543630282394588e-05, 1.3455590305966325e-05, 3.674211257020943e-05, 8.634703590360004e-06, -5.411777237895876e-06, -6.866484000056516e-06, -2.6467067073099315e-05, -9.514152225165162e-06], [2.549944110796787e-05, -4.339861334301531e-06, -3.220413054805249e-05, 2.3566688469145447e-05, -6.183153891470283e-05, 0.00014459110388997942, 4.4409352994989604e-05, -7.88471515988931e-05, -5.469729785545496e-06, -1.763733962434344e-05, 2.048410169663839e-05, -9.515235433354974e-06, -1.4970828488003463e-05, -1.741583037073724e-05, -2.3755550500936806e-05, 7.680302951484919e-05, -1.3834008314006496e-05, -1.613373024156317e-05, -3.739866224350408e-05, -2.160621079383418e-05, 2.068770299956668e-05, 5.578964646701934e-06, 1.2246955520822667e-05, 3.8282887544482946e-05, -3.869035026582424e-06, -2.58266427408671e-05, 4.1823164792731404e-05, -1.9518180124578066e-05, 2.162281089113094e-05, -3.491522875265218e-05, -1.972706741071306e-06, -9.308170774602331e-06, 1.1801931577792857e-05, 1.9030052499147132e-05, 3.989986907981802e-06, 8.090559276752174e-06, 3.0694638553541154e-05, -2.524225965316873e-05, 2.7816857254947536e-05, -2.146893530152738e-05, 7.946931873448193e-06, -1.064268872141838e-05, -1.6381167142753839e-06, 1.1348048246873077e-05, 2.5510310024401406e-06, 1.596757283550687e-05, 1.055767006619135e-05, -1.8211598217021674e-05, 3.5110027965856716e-05, 9.626161045162007e-06, -2.410421075182967e-06, 2.8403204851201735e-05, 4.06564176955726e-05, 4.245407762937248e-05, -7.950298822834156e-06, -1.0015291991294362e-05, 1.8474922399036586e-05, 2.1698557247873396e-05, 6.600359483854845e-05, -1.87960613402538e-05, -1.644655640120618e-05, -7.407800694636535e-06, -3.8177164242370054e-05, -3.565661609172821e-05], [-6.837979890406132e-05, -7.397723493340891e-06, -0.00013255310477688909, 2.676045914995484e-05, -4.950803122483194e-05, 0.00016064499504864216, 7.248667679959908e-05, -4.954462383466307e-06, -4.698331395047717e-06, -1.4126049791229889e-05, 1.54542376549216e-05, -7.381357136182487e-05, -3.7729529140051454e-05, 2.4252123694168404e-05, 9.249983122572303e-05, 0.00016419599705841392, -1.7607846530154347e-05, -3.9230770198628306e-05, 0.00012562880874611437, 0.0001376834261463955, -7.546727283624932e-05, 3.9542544982396066e-05, -0.0001078462228178978, -0.00015788275049999356, -5.69559597352054e-05, 1.4749653928447515e-05, 0.00014466405264101923, 2.6829537091543898e-05, -8.984061423689127e-06, -7.307209307327867e-05, 2.19276607822394e-05, -6.126407242845744e-06, 4.817065928364173e-06, 8.877046639099717e-05, 1.5178164176177233e-05, 0.00010842576739378273, -0.00022297032410278916, -2.5462746634730138e-05, -2.459854840708431e-05, 6.616493919864297e-05, -4.938690835842863e-06, -3.037318674614653e-05, -6.484989717137069e-05, 2.9282156901899725e-05, -1.6640391550026834e-05, -4.0887764043873176e-05, -7.789549272274598e-05, -7.752099190838635e-05, -0.00013642615522257984, -0.0001032565560308285, -5.198855433263816e-05, 5.578509080805816e-05, 0.00036443170392885804, 0.0001691923098405823, -0.00024090136867016554, -5.115468411531765e-06, 0.00017866073176264763, 0.000107354368083179, 0.00011520717816893011, -5.342074655345641e-05, 0.0001154176497948356, -7.135418127290905e-05, -7.642107811989263e-05, -0.0001752127573126927], [-3.6595385608961806e-05, -0.0002173603279516101, 8.173059177352116e-05, -0.00023610895732417703, -0.0002916122321039438, -3.983697388321161e-05, 0.0005750892451032996, 3.195557655999437e-05, -0.0002049240138148889, -0.00023335631703957915, -0.0003408287884667516, -0.00017274233687203377, 2.21416285057785e-05, -0.00013461169146467, 0.00025139166973531246, -0.00031193497125059366, -0.00021972213289700449, 0.0001867297396529466, 0.00019045424414798617, 0.00020737090380862355, -0.00017291991389356554, -0.00014526519225910306, -0.00023320072796195745, -0.0006094074924476445, 0.0001280110445804894, -0.0001569143933011219, -5.2309740567579865e-05, 0.00017560651758685708, -0.00022261423873715103, -0.00024242745712399483, -9.867147309705615e-05, -9.344986756332219e-05, -0.0003600842319428921, -0.00011239505693083629, 0.00015417937538586557, 0.00013980813673697412, -0.0003630340797826648, -6.864104216219857e-05, 0.00035185637534596026, -0.00041925819823518395, -0.0002336911711608991, 3.619840572355315e-05, -0.00018477189587429166, -7.297503907466307e-05, -0.00029137564706616104, 9.713645704323426e-05, -0.00031594024039804935, -2.0311277694418095e-05, -8.50344222271815e-05, 0.0004114647163078189, -0.00017019634833559394, -0.0003507958026602864, -0.00030172881088219583, -0.00019158753275405616, -0.00014329480472952127, -1.8285365513293073e-05, -0.0005713746650144458, 0.0002195709676016122, 0.0003720417444128543, 1.3559656508732587e-05, 0.00029510038439184427, -4.194432403892279e-05, -5.402623355621472e-05, -0.00034103449434041977], [-0.0008205638150684536, 0.00030431366758421063, 0.0004192973719909787, -0.00010367421782575548, -0.0001906900288304314, 0.00032943091355264187, -4.817673470824957e-06, 0.00044712505768984556, -3.33192729158327e-05, -3.881620068568736e-05, 0.00010455006849952042, -1.4834257854090538e-05, 0.0005060755065642297, -0.000140034913783893, -9.332666377304122e-05, -0.0004657914105337113, -0.0006088607478886843, 8.433553739450872e-05, -0.00023401498037856072, -0.0005381088121794164, -5.6146891438402236e-06, 6.844189192634076e-05, 9.627410327084363e-05, -0.00013250419578980654, -0.0002548366319388151, 5.147562478668988e-05, -0.0002095559029839933, -2.3735046852380037e-06, -0.0001605880679562688, -0.00043967567034997046, -0.0003928408841602504, -1.620110560907051e-05, -2.9669463401660323e-05, -0.0001950080768438056, -0.0006068283692002296, -4.115262709092349e-05, -0.000113824920845218, 0.0004118872166145593, 0.000530566496308893, -0.00017133512301370502, -0.00027366913855075836, -0.000567684299312532, -0.00024348883016500622, 0.00019383837934583426, 0.0005135252722539008, -9.325957216788083e-05, -0.00032763887429609895, -0.00043842638842761517, 0.00017611071234568954, -0.0003455498954281211, 0.00024283668608404696, -0.0006064752815291286, 0.0005497486563399434, 0.00012349696771707386, -4.035807796753943e-05, -2.4256269171019085e-06, -0.0006613915902562439, -0.0005851265741512179, -0.00021904434834141284, -0.0002939041587524116, 5.9633301134454086e-05, 0.00020704109920188785, -0.00019888352835550904, 0.00026955094654113054], [-0.0008962431456893682, 0.0006701271049678326, 0.0006379119004122913, 0.00013200752437114716, 0.00011629576329141855, -0.0026961131952703, 0.0003436962142586708, -0.0001784406485967338, 0.0005021216929890215, -0.0008689322276040912, 0.0007661468116566539, -9.250640869140625e-05, -0.0002858772058971226, -0.0003698880900628865, 3.8548569136764854e-05, -0.00041436325409449637, -0.0011067322921007872, 0.0003948495432268828, -1.1007374268956482e-05, -0.0005743899382650852, -0.00020837901683989912, 0.0004876030725426972, -0.0009463982423767447, -0.000682813348248601, -0.0006272736936807632, 0.0005843794206157327, -0.0004157338698860258, 0.0004057082114741206, -0.0007745362818241119, -0.0007394975982606411, -0.0015618782490491867, 0.001202415325678885, -0.0004313326789997518, -9.137224697042257e-05, -0.00022152095334604383, 0.00014867902791593224, -0.0005441816756501794, 0.00013570580631494522, 0.001536128344014287, 0.0007259770063683391, -0.0006690562586300075, 0.00019662488193716854, -0.00020103686256334186, -0.0001735206024022773, 0.0011562759755179286, -0.00022694666404277086, -0.0003525323118083179, -0.0007235257653519511, -0.00019482459174469113, -0.0004972591414116323, -0.00023600718122906983, -0.0001259658019989729, 0.001178863225504756, -3.0953262466937304e-05, -9.788846364244819e-05, 9.817055251915008e-05, -0.0005973035003989935, -0.0010653745848685503, -0.0003197960904799402, 0.000278106628684327, 0.0005213483236730099, -0.00017435287008993328, 0.00010533520253375173, -0.0014659095322713256], [-0.0013674856163561344, 0.0003993757418356836, 0.0008600930450484157, 0.0007265128660947084, -0.0011717014713212848, 0.0021583475172519684, 0.000447402591817081, -0.0011743797222152352, -0.00011735910084098577, 0.0011882823891937733, -0.0010054883314296603, 0.0005725287483073771, 0.0004902544897049665, 0.0002233781706308946, 0.0006383899599313736, 0.0011540190316736698, -8.198840077966452e-06, -0.0012404790613800287, -0.0006144812796264887, 6.773252971470356e-05, 0.00010197347728535533, -0.0007384491036646068, 0.0002040357794612646, -0.0006715758936479688, -0.0008936282247304916, 0.00028020780882798135, -0.0008567182230763137, -0.001067536068148911, 0.000512286031153053, -0.0008744757506065071, 0.00022743496811017394, -0.00021086970809847116, 0.001828109030611813, 0.0004667382745537907, 0.0005748171824961901, -0.001781883300282061, -0.0011749791447073221, -0.0004368912195786834, 0.00010002228373195976, 0.0006122575141489506, 0.0006891987286508083, 0.0003325079451315105, -0.000885958899743855, -0.0010292393853887916, 0.0005709831602871418, 0.0009741236572153866, 0.0010891074780374765, 0.0015358886448666453, -0.0016895018052309752, 0.0009225825197063386, 0.00057840725639835, 0.0006589380791410804, 0.0008445119601674378, 0.0012056451523676515, -0.0006744652637280524, 0.00011658438597805798, 5.813664756715298e-05, -0.000949750654399395, -0.0017868370050564408, -0.0005883026169613004, -0.0014086117735132575, -0.0012225466780364513, -0.000677582633215934, -5.6953635066747665e-05]], [[0.00039714304148219526, 0.000722242402844131, 0.00018944093608297408, 0.0001902847143355757, 0.00028554978780448437, 0.0012341990368440747, 4.93998741148971e-05, 0.0005023807752877474, -0.000564627698622644, -0.0005922532873228192, -0.0003052314277738333, -0.0007686011376790702, -0.00024284566461574286, 0.00023712091206107289, -0.0004380001628305763, 0.0003093457780778408, -8.450234599877149e-05, 0.0009739724919199944, 0.0007875867886468768, -0.00031394357210956514, -0.0007567285792902112, 0.001049021608196199, -0.0002405973064014688, 0.0007865360821597278, -0.0006560155306942761, 0.0003135420265607536, -0.000653814640827477, -4.6113702410366386e-05, -0.001151845557615161, 0.0008587576448917389, -0.00010537626803852618, 0.00014195805124472827, -4.001508932560682e-05, 0.0005848822183907032, -0.0012962911278009415, -0.00019412914116401225, -0.0005978484987281263, -0.00032445427495986223, -0.00021045608446002007, 0.00023476040223613381, -0.0008898313390091062, -3.744794230442494e-05, -0.0006095575517974794, 0.0009505164925940335, 0.0007125854026526213, 0.0010445265797898173, -0.0005384292453527451, 0.0003881049051415175, -0.000648423214443028, 0.00013451374252326787, -0.0009007430635392666, 0.0004509609134402126, 0.000339031801559031, 0.000695056514814496, -0.0005765578825958073, 0.0002034852805081755, 0.0011176001280546188, 5.445140413939953e-05, -0.0011621539015322924, -0.00032285222550854087, -0.0008691039402037859, 1.3300988939590752e-05, 0.0001269007771043107, -0.0003923990298062563], [1.3444288242681068e-06, -5.863081469215103e-07, -2.6970531052938895e-07, -3.469959253266097e-08, 6.845536404398445e-07, 1.570936319694738e-06, 4.117760799005055e-09, 5.548706027980188e-08, -9.38441502285059e-08, 1.0887012535931717e-07, -7.402445589832496e-08, 5.338066557669663e-07, -5.398875373430201e-07, -4.0861556271920563e-07, -7.885546438046731e-08, -8.245594358413655e-07, -8.214514650717319e-07, -1.0287953955412377e-06, -9.665738787134615e-08, -1.5335476177824603e-07, -3.544167839208967e-07, 1.5883273363215267e-07, 6.046532803338778e-07, -3.3225921924895374e-07, -6.796022944399738e-07, -4.976113814336713e-07, 4.1418670093662513e-07, 1.3755554846284213e-06, -7.09786888819508e-07, -6.330211590466206e-07, -9.152134339274198e-07, 9.032036984990555e-08, -3.5558551658709803e-09, 1.409593721746205e-07, -1.4893009847583016e-07, 9.583604310137162e-08, 1.1214661981284735e-06, -3.779240387302707e-08, -5.472963948705001e-07, 8.69532243541471e-07, 1.0695493983803317e-06, -2.387977531270735e-07, 7.492971008105087e-07, -8.267672342299193e-07, -4.772215334014618e-07, 2.3081011590875278e-07, -5.372630198507977e-07, -8.278866658883999e-08, -6.002741770316788e-07, 1.6003770042516408e-07, -6.54649284115294e-07, -1.0614911616357858e-06, -7.08465393017832e-07, -3.588483821204136e-07, 7.444981520166039e-07, 8.62969358195187e-08, 8.468058609878426e-08, 3.5117952279506426e-07, 6.464863133714971e-08, -3.646692050551792e-07, 1.2993959330742655e-07, -2.235977660802746e-07, 3.4149468319810694e-07, 2.6753770043796976e-07], [3.4865859106503194e-06, -4.929705028189346e-06, 2.715261416597059e-06, -1.059289752447512e-05, -3.279827524238499e-06, -0.00021123449550941586, 7.41378471502685e-06, 1.3379551091929898e-05, -1.1316903965052916e-06, 8.341527291122475e-07, -5.059582690591924e-06, 7.384107902907999e-06, -4.165013706369791e-06, 4.688674835051643e-06, -2.263140686409315e-06, 2.54537758337392e-06, 2.889244115067413e-06, 3.1616932574252132e-06, -2.0052561922057066e-06, 2.8776225917681586e-06, -2.2214567252376582e-06, -1.1371143045835197e-05, -7.2186189754575025e-06, 8.8585193225299e-06, 2.750331987044774e-06, -5.188807108424953e-07, 1.4876058003210346e-06, -1.5519319731538417e-06, 3.1869567465037107e-06, 8.492258530168328e-06, -1.663551665842533e-05, 2.7784487883764086e-06, -6.334931185847381e-06, -4.567979885905515e-06, -1.0882425158342812e-05, 4.679659014072968e-06, 1.095900279324269e-05, -2.9070019991195295e-06, -8.081209671217948e-06, 5.382705694501055e-07, -4.220212304062443e-06, -4.7558205551467836e-07, -1.8137041024601785e-06, -4.849501920034527e-07, 2.2396006897906773e-06, -1.851382421591552e-06, -8.15222392702708e-06, 1.0234391083940864e-05, 8.029449418245349e-06, -1.5763311012051417e-06, -3.8299893390103534e-07, 1.9388444343348965e-06, 2.9541215553763323e-06, -5.670534051205323e-07, -1.0381081665400416e-06, -1.8940535255751456e-06, -6.479444436990889e-06, -8.87223086465383e-06, -2.6041823275591014e-06, 1.0539079084992409e-05, -3.971001206082292e-06, 7.359923074545804e-06, -4.984960469300859e-06, -1.068264509740402e-06], [-3.874629328493029e-08, 3.818116238107905e-05, -3.382450086064637e-05, -5.874150247109355e-06, 4.941110091749579e-05, 0.0006296780193224549, -4.119727964280173e-05, 0.00012304168194532394, 4.647232344723307e-06, 8.977018296718597e-06, -1.2650149074033834e-05, -1.0648884199326858e-05, -2.301307540619746e-05, -4.3381274736020714e-05, -7.777231803629547e-05, -3.938025656680111e-06, 1.1005517080775462e-05, -1.8207747416454367e-05, 3.2611555070616305e-05, 1.902570147649385e-05, 2.0293886336730793e-05, 1.1752700629585888e-05, -2.4722536181798205e-05, 2.2476517187897116e-05, -1.662167051108554e-05, -2.7324484108248726e-05, 2.0661274902522564e-05, -4.349009759607725e-05, 2.378232056798879e-05, -5.138608321431093e-05, -1.767838875821326e-05, 2.979333294206299e-05, 3.469970033620484e-05, 6.359539383993251e-06, 5.1336253818590194e-05, -1.060479371517431e-05, -3.0969786166679114e-06, 5.014455382479355e-05, 8.6240514065139e-05, 2.260158180433791e-05, 3.9447317249141634e-05, 1.489499209128553e-05, 4.893333880318096e-06, 2.500718619558029e-05, 3.0290386348497123e-05, -5.313137808116153e-05, -1.693750346021261e-05, -2.6477896426513325e-06, 9.221650543622673e-05, 5.306845196173526e-06, -9.711973689263687e-06, 2.2687079763272777e-05, 4.6051558456383646e-05, 8.188349966076203e-06, -2.7421356207923964e-05, -5.332592081686016e-06, 5.0484824896557257e-05, -4.130866273044376e-06, -1.050948503689142e-05, -5.231603608990554e-06, 3.675011612358503e-06, -2.566671719250735e-05, -4.6730310714337975e-06, 1.8635313608683646e-05], [3.362648203619756e-05, -0.00012903808965347707, -7.579551311209798e-05, -8.352506119990721e-05, 0.00022827305656392127, 0.0006939675658941269, 0.0002253154816571623, -0.00020687514916062355, -0.00022294164227787405, -5.734951628255658e-05, -5.355669782147743e-05, 0.0001212901552207768, -0.0004701612051576376, -0.00014973286306485534, 0.00019889100803993642, 0.00011756658932426944, 0.0001877718896139413, 0.00018413648649584502, 0.0004990822053514421, -0.00016626181604806334, -0.00031926087103784084, 5.694885476259515e-05, -3.5422868677414954e-05, 9.924940241035074e-05, 0.00017549411859363317, -6.037023922544904e-06, 6.3671686802990735e-06, 6.576587111339904e-06, -0.0002308231923962012, 0.00012084724585292861, 0.00012271848390810192, 2.7954010874964297e-06, -0.0002582398010417819, 0.0001799384190235287, -0.00011121977877337486, 0.00020918264635838568, -0.00022553716553375125, 0.00032324192579835653, 8.333470032084733e-05, -6.604928057640791e-05, -0.0001193557254737243, 0.00010040534834843129, 2.6094645363627933e-05, 7.622539123985916e-05, -0.001050944672897458, -8.581628208048642e-05, -0.000553582445718348, -9.469826181884855e-05, 0.00017445500998292118, -0.0002234238781966269, -4.819913738174364e-05, 0.0002401853125775233, -6.223373929969966e-06, -5.432100442703813e-05, 9.422940638614818e-05, -0.00012043547758366913, 0.00031901762122288346, 0.00016611999308224767, -0.00022583389363717288, -0.00039060780545696616, 3.0119190341793e-05, 1.3903834769735113e-05, 9.903735190164298e-05, -0.00011543851724127308], [-0.00013765796029474586, -0.0001110414887079969, -0.00025108124827966094, -0.00014108805044088513, -0.00031485865474678576, -0.0009781377157196403, -0.00022585428087040782, 0.0007164174458011985, 3.2170060876524076e-05, -0.00034799028071574867, -0.0003933575935661793, -0.0001656252716202289, 0.00034005395718850195, 0.00016600213712081313, 0.00010004722571466118, 0.00038595616933889687, 0.00020495819626376033, -0.0006828432669863105, 6.877128180349246e-05, 0.0002677931042853743, 7.575721247121692e-05, 3.9515904063591734e-05, -0.00014468574954662472, 0.00038385504740290344, 0.00015205246745608747, -0.0006412511575035751, 0.0005348181584849954, 0.00019730502390302718, 0.000954183517023921, 0.000485889584524557, -7.31164327589795e-05, -0.0002839307126123458, 0.0001446316164219752, -0.00027798497467301786, 0.0006050849333405495, 7.276696123881266e-05, -0.00022964668460190296, 0.00026435533072799444, 0.00041249123751185834, -1.530371082480997e-05, 0.0008648258517496288, -5.811760638607666e-05, 4.779161827173084e-05, -6.438247510232031e-06, -0.0003336682275403291, -5.641148891299963e-05, 4.276413528714329e-05, -0.00019188591977581382, 0.00013888950343243778, -7.804756751284003e-05, 0.0003020553267560899, -0.00016296951798722148, -0.00012463427265174687, 5.8969111705664545e-05, 0.00015412131324410439, 4.093423194717616e-05, -0.0006822633440606296, 0.0005523575819097459, 0.00013411740656010807, -0.0005575160612352192, 0.0001527841086499393, 0.00027155387215316296, -0.000273255369393155, 0.00046258477959781885], [-0.001002540928311646, -0.00030099504510872066, 0.0014496208168566227, -0.00027162395417690277, -0.00022904117940925062, 0.001751171424984932, 8.935348887462169e-05, 0.0006537905428558588, 0.0002689564134925604, 0.00049542763736099, -0.0002740458876360208, 0.0001459242484997958, -0.0007191284094005823, 8.720546611584723e-05, -0.00016569439321756363, -0.0001148041628766805, 0.0004574880294967443, 9.647083061281592e-05, 0.0005401583039201796, 0.0008254346903413534, 0.00023372161376755685, -0.00018112274119630456, -0.0003762809792533517, 0.0002849211450666189, -2.0170904463157058e-05, -8.795080066192895e-05, 0.00030674587469547987, 4.645812441594899e-05, -0.0007843282073736191, 0.0005067373858764768, 0.00042392261093482375, 0.0002341379877179861, -0.0004616995865944773, -5.344495002645999e-05, 0.00014732807176187634, 0.0004740806180052459, -0.0012122985208407044, 0.0005428949953056872, -0.0012667765840888023, -0.000744430348277092, -0.00041446893010288477, 0.00013650198525283486, 0.0006404824671335518, -0.00010640588880050927, -0.0009993998100981116, 6.447202758863568e-05, -0.0006356483791023493, 0.000915773562155664, -0.00027969697839580476, 9.05376800801605e-05, 0.00023726990912109613, 0.0006178227486088872, 0.0006421497091650963, 8.478145173285156e-05, 0.000578981009311974, 0.00017575825040694326, -0.00011776300380006433, 0.0005058238748461008, -0.00017783216026145965, -0.0006540800095535815, -0.0003496917197480798, -0.0005264683277346194, 0.00019658383098430932, -0.0010208155727013946], [-0.0011103268479928374, 0.0006974023999646306, -0.0006939119193702936, 0.00044359941966831684, -0.00048024236457422376, -0.00025969435228034854, 0.002513895509764552, 0.00016731432697270066, -0.0004343788023106754, 7.135688792914152e-05, 0.0004740594304166734, -0.00035833357833325863, 0.00011120390263386071, -0.0008906720904633403, 0.0008041558903641999, -0.00071723508881405, -0.0008550990023650229, 0.0011493772035464644, 0.0008028694428503513, 0.00022105433163233101, -0.0012159314937889576, 0.0008569692727178335, 0.0010932476725429296, -0.0006357559468597174, -0.0001337371504632756, -0.00017539688269607723, -0.0013214985374361277, -0.0006281649693846703, -0.00043854344403371215, -0.0002244482166133821, 7.072291919030249e-05, 0.0005812270101159811, -0.000187810102943331, -0.0003498708247207105, 0.000210883779800497, -0.00011668911611195654, -0.00033800367964431643, 0.0006832260987721384, 0.0004649802576750517, 0.0002474942011758685, -0.00012242633965797722, -0.0005043521523475647, -0.00012688168499153107, 0.0004883827059529722, -0.000824879331048578, -0.0003546142834238708, -0.00019788875943049788, 0.00010546469275141135, 0.0012742821127176285, -0.00037217256613075733, -0.00015207538672257215, 0.0006626322865486145, -0.00128550932276994, -1.3356999261304736e-05, 0.0003051093372050673, -0.00026198875275440514, -0.0008757293689996004, -0.0008695906726643443, 0.00023928798327688128, -0.0007295357063412666, 0.000491131329908967, 9.590608533471823e-05, -0.0004646791494451463, -0.0003736152721103281], [2.2551668735104613e-05, -1.4973300494602881e-05, -8.080789484665729e-06, 1.3140233022568282e-05, -2.400730227236636e-05, -3.0270888601080514e-05, 1.2197944670333527e-05, -3.712842590175569e-05, -4.6231874875957146e-05, 3.054326953133568e-06, 1.1273423297097906e-05, 9.946534191840328e-06, 1.2318603694438934e-05, 2.432541259622667e-05, -2.2605145204579458e-05, 1.1345379789418075e-05, -1.082929884432815e-05, -1.3661536286235787e-05, 5.067879556008847e-07, 3.1321589631261304e-05, 1.0860558177228086e-06, 1.345673717878526e-05, -7.042145625746343e-06, -2.7266807592241094e-05, -5.423062248155475e-07, 2.222699549747631e-05, 6.001716883474728e-06, -8.045240974752232e-06, 8.168381100404076e-06, -2.3425505787599832e-05, -1.370316658722004e-05, -2.7794028937933035e-05, 1.5155686014622916e-05, 2.582598608569242e-05, -1.7252528778044507e-05, -9.401423085364513e-06, 3.625824547270895e-07, 2.9680955776711926e-05, -0.00014297028246801347, -1.0170113455387764e-05, 8.79787876328919e-06, -2.6927418730338104e-05, -3.1414831482834416e-06, -3.22720552503597e-06, 1.2902330126962624e-05, 4.4268199417274445e-07, -2.8003596526104957e-05, 6.522411240439396e-06, -5.9141307247045916e-06, 1.7377265976392664e-05, 2.763777956715785e-05, 2.0240602680132724e-05, -4.874075330008054e-06, 2.625715933390893e-05, -4.0037625694822054e-06, 2.3449540549336234e-06, 2.182334355893545e-05, -1.4890967577230185e-05, 4.201951924187597e-06, -1.0295574611518532e-05, 4.332866410550196e-06, 1.4491919500869699e-05, -1.3919263437855989e-05, 9.628846783016343e-06], [3.7130434066057205e-05, -2.8960046620341018e-05, -7.645554433111101e-06, 2.791790757328272e-05, -7.256147000589408e-06, 0.00040934947901405394, -1.3230475815362297e-05, -1.0983225365635008e-05, -4.928061753162183e-05, 5.615958434646018e-05, 2.2801506929681636e-05, 2.7034491722588427e-05, -1.0271065548295155e-05, 1.9123264792142436e-05, -4.626458394341171e-05, 3.7136189348530024e-05, -1.0878831744776107e-05, -1.888442420749925e-05, -1.405011789756827e-05, 7.799088780302554e-05, -1.1742633887479315e-06, -8.001339665497653e-06, -1.8219418052467518e-05, -2.2443453417508863e-05, -1.6081161447800696e-05, 2.8786460461560637e-05, 1.5808069292688742e-05, -2.5603627364034764e-05, -2.1189223843975924e-05, -8.40181382955052e-06, -2.297307764820289e-05, 1.7552350982441567e-05, 1.999970481847413e-05, 6.22095976723358e-05, -1.2506588973337784e-05, -1.1742433343897574e-05, 1.17362906166818e-05, 2.9445707696140744e-05, -9.0764784545172e-05, -4.5086126192472875e-05, 1.2738101759168785e-05, -1.1827120033558458e-05, -1.6902630477488856e-06, -1.3397457223618403e-05, 5.577867341344245e-06, -1.1253730917815119e-05, -4.113058093935251e-05, 6.759308234904893e-06, 3.978923359682085e-06, 5.090248305350542e-05, 5.084977965452708e-05, 6.0235350247239694e-05, 3.323459532111883e-05, 7.720805297140032e-05, -1.433706893294584e-05, -1.250626337423455e-05, 0.00012251627049408853, -3.0162813345668837e-05, 4.0482973417965695e-06, 6.770133040845394e-07, -3.7895009882049635e-05, 1.658551445871126e-05, -2.6586569219944067e-05, 1.2800455806427635e-05], [-7.68621830502525e-05, -0.00013204429706092924, -2.0672945538535714e-05, -1.3952407243777998e-05, 5.20198154845275e-05, -0.00029404120869003236, -0.00011743915092665702, -7.775201083859429e-06, -0.00011549533519428223, 0.00020995218073949218, 7.378723239526153e-05, 4.480174084164901e-06, -5.3650495829060674e-05, -2.419378506601788e-05, -0.000236227540881373, 4.038878614665009e-05, -3.2516036299057305e-05, 7.3712617449928075e-06, 3.545929939718917e-05, 0.00024598732125014067, -4.322391760069877e-05, 6.0582762671401724e-05, -1.9048746253247373e-05, -6.83990292600356e-05, -0.00012239797797519714, 2.460178620822262e-05, -0.000156458088895306, 0.00010455584560986608, 0.0002696349984034896, -4.402256308821961e-05, -0.00012580479960888624, 8.111359784379601e-05, 2.9893722967244685e-05, 5.107957258587703e-05, -3.874952199112158e-06, 1.4258264855016023e-05, 2.7926858820137568e-05, 3.606903919717297e-05, -0.0005129523342475295, 4.1897779738064855e-05, 3.108637611148879e-05, -0.0001084644318325445, -3.789387483266182e-05, 8.823251846479252e-06, -2.7304555260343477e-05, -0.00010091945296153426, 8.097709360299632e-05, 3.39893922500778e-05, 4.026994065498002e-05, -2.5535737222526222e-06, 1.2559950846480206e-05, 0.00015829477342776954, 6.54665200272575e-05, 0.00012108329974580556, 3.739092426258139e-05, -9.089596278499812e-05, 4.710954090114683e-05, 0.00022305603488348424, -0.0001216124146594666, -3.434384416323155e-05, -0.00016046554083004594, -6.487018981715664e-05, 0.00011521972191985697, -7.377307338174433e-05], [-1.023008553602267e-05, -0.0005167593481019139, 7.842339255148545e-05, -0.0001623460848350078, -0.0003345509758219123, 0.0005513096693903208, 9.05209089978598e-05, 0.0001106985509977676, -0.0002961490536108613, 0.0002437927178107202, 0.0001805473875720054, 6.63536338834092e-05, -0.00020245557243470103, 4.929929127683863e-05, -0.00010601841495372355, -0.00042544095776975155, -8.691336552146822e-05, 0.00045237457379698753, -8.76621652423637e-06, 0.00024050656065810472, -0.00010806548380060121, -7.975519838510081e-05, 5.824894105899148e-05, -0.0003101448528468609, -3.723152622114867e-05, -6.993301212787628e-06, -0.0003154234145767987, 0.0001809962559491396, -0.00017418058996554464, 4.955544136464596e-05, -0.0003275756607763469, -0.00011335511953802779, -0.0001848115207394585, -6.793069042032585e-05, 1.556939969304949e-05, -0.00025283676222898066, -0.0003595160960685462, -0.00028599213692359626, -0.00028730861959047616, -0.00017954841314349324, -0.00017563579604029655, -0.00014604235184378922, -0.00019244667782913893, -0.0001504590909462422, -3.427634510444477e-05, 0.00021241606737021357, -7.095906767062843e-05, 4.6328685129992664e-05, 2.9445287509588525e-05, -9.859104466158897e-06, 8.688707021065056e-05, 0.00010072963777929544, -0.0007997954962775111, -0.00011394693137845024, 0.00022572337184101343, -0.00011471787001937628, -0.0005362235242500901, -0.00010051990102510899, -5.3971751185599715e-05, -1.317670103162527e-05, -0.0004681897989939898, -0.00010628416202962399, 2.1620493498630822e-05, -0.000136685703182593], [-0.00046156320604495704, 0.00034077322925440967, 0.0005949005135335028, 0.0001844051294028759, 0.00018477649427950382, 0.0011425190605223179, -0.0004887607065029442, 0.0004271422512829304, 0.0004024683148600161, -0.0005533029907383025, 2.4974520783871412e-05, -0.0006829029880464077, 0.00020733106066472828, 2.664334897417575e-05, -0.00027503323508426547, -2.536616739234887e-05, 0.00044427585089579225, -0.00020520391990430653, 0.00021360105893108994, 0.00021193835709709674, 0.00011024143896065652, -0.0004440520715434104, -0.000285584683297202, -8.123325824271888e-05, -0.00019901640189345926, 3.5511184250935912e-06, -0.0006130210240371525, -9.701208182377741e-05, -2.2236246877582744e-05, -0.0005274339928291738, -0.0006432548398151994, 4.554427505354397e-05, 0.00017083676357287914, -0.00030159062589518726, -0.000350287213223055, -0.0005476108053699136, 1.2639156921068206e-06, 0.00024490285431966186, -0.00015159128815867007, 0.0003464383480604738, 5.965109448879957e-05, 4.168296800344251e-05, 0.00022500380873680115, -0.00046350102638825774, -0.0005355772445909679, -0.000220746936975047, 0.000348731002304703, -0.00010726263280957937, 0.000600323430262506, 0.00022453143901657313, -0.00021145562641322613, 3.8516296626767144e-05, 0.0010974196484312415, -0.00020337758178357035, 0.00017364343511871994, -4.241822534822859e-05, -0.0008536176756024361, 6.346177542582154e-06, 0.0008815383189357817, 7.862607890274376e-05, 0.0005572818918153644, 6.605713861063123e-05, 0.0005909090978093445, -0.0003562229685485363], [-9.816185774980113e-05, 0.0008246606448665261, 0.0006894991965964437, 0.00026843693922273815, 0.0011156720574945211, 0.0004507903940975666, -0.0009594590519554913, 0.00014647323405370116, 0.0004812490660697222, -0.000604019733145833, 0.0019356331322342157, -0.000505473930388689, 0.0008315083105117083, 0.0002243567432742566, -5.220075399847701e-05, 0.0008276083972305059, 0.0008650685776956379, 0.00011272433766862378, 0.0003808230394497514, 8.704876381671056e-05, -4.931489092996344e-05, -0.00023418630007654428, -9.370280895382166e-05, -0.00020034231420140713, -0.00016802953905425966, -3.3021351555362344e-05, -0.0007448066025972366, 0.0006521242903545499, -0.00015367878950200975, 0.0002857349463738501, -0.0014699515886604786, 0.0005276646697893739, 0.0008590819197706878, -0.0004095754702575505, 0.00023505042190663517, -0.0002844280970748514, -0.0002623283944558352, -3.1071831472218037e-06, -0.0006196286412887275, 0.0014829793944954872, 0.0005321790231391788, 0.00010106746049132198, 0.0005815591430291533, -0.0002773461164906621, -0.00015574158169329166, -0.0006087872316129506, 0.00039230071706697345, -0.00017115040100179613, 0.00038386404048651457, -0.0002369531721342355, -0.0006205677054822445, 0.00017399706121068448, 0.0015895265387371182, 8.671806426718831e-06, 0.0005194278201088309, 0.000166453086421825, -0.0016375939594581723, -0.0007777024875395, 0.0008427072316408157, -0.000365405750926584, -0.00022510229609906673, -0.00033002987038344145, -5.794984463136643e-05, -0.0007532129529863596], [-0.0013407458318397403, 0.00023301152396015823, 0.0008222004398703575, 0.0008222800679504871, -0.0012755244970321655, 0.0034123368095606565, 0.00040881894528865814, -0.0011564610758796334, -0.00031674071215093136, 0.0012463477905839682, -0.0010681870626285672, 0.000688703905325383, 0.0005632261745631695, 0.00031356565887108445, 0.0007280785357579589, 0.0013708099722862244, 1.986330607905984e-05, -0.0015075787669047713, -0.0006190382409840822, 0.00011298881145194173, 8.102820720523596e-05, -0.0009313187329098582, 0.00022250770416576415, -0.0007087537669576705, -0.0006758439703844488, -9.223385131917894e-05, -0.000847676070407033, -0.0009699756046757102, 0.0007386751240119338, -0.0008802044903859496, 0.0002185329212807119, -0.00026060419622808695, 0.0019029747927561402, 0.0005530033376999199, 0.0006104669300839305, -0.0017610944341868162, -0.0010700987186282873, -0.00011032784823328257, 0.00021965356427244842, 0.0006468470674008131, 0.0008185353362932801, 5.090053673484363e-05, -0.0009322877740487456, -0.0011199249420315027, 0.000580247666221112, 0.0010015062289312482, 0.0007885682862251997, 0.0015636960742995143, -0.0016732120420783758, 0.0009298846707679331, 0.0007067630649544299, 0.0005712517304345965, 0.0007548496942035854, 0.001238444005139172, -0.00041004735976457596, -2.9475282644852996e-05, 0.0001244344748556614, -0.0008687166264280677, -0.0019627087749540806, -0.0009222278604283929, -0.0013795610284432769, -0.0005712003912776709, -0.0005457663792185485, -0.00011184625327587128]], [[-0.00027880739071406424, -0.00047960091615095735, -0.0002613486722111702, 0.0006096595898270607, -0.0001829396205721423, 0.0017390670254826546, 0.0007412466802634299, 0.0006005699979141355, -0.0011495400685817003, -0.001062014838680625, 0.0006534545100294054, -3.742872650036588e-05, 0.000964420847594738, 0.00036540202563628554, 0.0008350436110049486, 1.6259116819128394e-05, 0.00010461510100867599, 0.0005027411971241236, 0.0004917457117699087, -0.0004376361903268844, -0.0003476698184385896, -0.00011569606431294233, 0.0003414867096580565, 0.00012428354239091277, 0.0009341234108433127, -7.32326734578237e-05, -0.0005199016304686666, 9.853552910499275e-05, -0.00017406520782969892, 0.0012813664507120848, 0.00025877810548990965, 0.001215508789755404, -0.0009254120523110032, -3.2912270398810506e-05, -0.00013735299580730498, -9.798828978091478e-05, 0.00038002393557690084, -0.0003922437026631087, -0.0005811986629851162, -0.00015925453044474125, -3.4396762202959508e-06, 0.0004927536938339472, 0.0005738424952141941, 0.0002816819178406149, -0.0007140611996874213, 0.0018661583308130503, -0.0005628634244203568, -0.0009367914171889424, -0.0005546074826270342, 0.00017643938190303743, 0.0005805062246508896, 0.0002084779116557911, 0.0005111569771543145, 0.00034552591387182474, 0.0002736099995672703, 0.0001662244030740112, 0.0001175388169940561, -0.0006262948154471815, -0.00042660540202632546, -0.00013674986257683486, -0.0004997865180484951, -3.121996996924281e-05, 0.00027616944862529635, 0.0002311049320269376], [3.773956223085406e-07, -2.886465608753497e-07, -9.506425726613088e-07, -2.957415574655897e-07, 1.7836333654486225e-07, -8.050751603150275e-07, 3.3215133043995593e-07, 4.6659582153552037e-07, 5.654233063978609e-07, 3.3286329426118755e-07, 1.1941915545321535e-07, 3.93561663258879e-07, 7.750348345325619e-07, -3.265514010308834e-07, 5.67951133234601e-07, -5.230767783359624e-07, 6.228588631529419e-07, -4.743004069496237e-07, 2.369788063560918e-07, -1.1219480029467377e-06, -7.15872999990097e-07, -6.248479955672792e-09, 8.295956490655954e-07, -2.2188272907897044e-07, -4.6028823419419496e-08, -5.936136631135014e-07, -1.5823530929992558e-06, -2.963116685350542e-07, -1.8855340044865443e-07, -1.5199152869627142e-07, -1.2891247251900495e-06, -1.0398055110272253e-06, 2.3075971000707796e-07, -1.7707883159800986e-07, 1.3640095630762517e-06, -8.886835871635412e-07, 1.3976116406411165e-06, -1.850504638412076e-08, -5.307423975864367e-07, -7.131886263778142e-07, 8.397207693633391e-07, 1.3270413319332874e-06, -3.811808824139007e-07, 4.83160931707971e-07, 2.7748208708544553e-07, 1.0303411812628838e-07, 2.434970838294248e-07, 2.1537260863624397e-08, -3.0671634476675536e-07, 4.670487498970033e-07, 2.0669848765919596e-07, 3.8809716329524235e-08, -7.473822165593447e-07, -7.708893576818809e-07, 7.377618089776661e-07, 6.574574626938556e-07, 8.770348358666524e-07, -7.445229357472272e-07, -3.6715422879751713e-07, -4.7496320121354074e-07, 2.4237067464127904e-07, -5.37044400061859e-07, 5.212648446217827e-08, -8.613650379629689e-07], [2.436436943753506e-06, -1.1170128573212423e-06, 9.75987859419547e-06, -3.629175353125902e-06, -4.1859712496261636e-07, -6.747232419002103e-06, -6.517230303870747e-06, -5.283925474941498e-07, 6.009584922139766e-06, 2.7001874514098745e-07, 2.2208485006558476e-07, -4.731620265374659e-06, -5.898129074921599e-06, 2.4584032871644013e-06, -7.597396688652225e-06, 9.565289474267047e-06, -1.2545711797429249e-05, -5.813581992697436e-06, -1.4878984075039625e-05, 4.6204254431359e-06, 4.984110546502052e-06, -8.202362550946418e-06, -2.8036038202117197e-05, -1.093980699806707e-06, -8.633200195617974e-06, 1.9021257685380988e-05, 6.332176781143062e-06, -7.989990081114229e-06, -7.5337657108320855e-06, -9.059242984221783e-06, -1.6037565728765912e-06, 3.24424968312087e-06, -6.872041922179051e-06, -1.0848316378542222e-05, -3.5932089303969406e-06, 1.6208223314606585e-05, -4.0056929719867185e-06, -5.096919153402268e-07, -3.2458237910759635e-06, -1.5942305253702216e-05, 6.48881723464001e-07, 1.8407690731692128e-06, -3.6403002923179884e-07, 4.7620173972973134e-06, 2.4873910660971887e-05, -5.738458185078343e-06, 1.2169163710495923e-05, -7.931883374112658e-06, 3.2354978429793846e-06, 1.532877104182262e-05, -4.687012733484153e-06, -2.3918607894302113e-06, 4.113699560548412e-06, 1.0183453014178667e-06, -8.912104931368958e-06, 1.423519461241085e-05, 7.631299922650214e-06, -7.932839253044222e-06, 4.768654434883501e-06, -2.4341152311535552e-06, -3.639667056631879e-07, 1.8198273892267025e-06, 2.6632624212652445e-05, 1.1231173630221747e-05], [-4.357808575150557e-05, 1.4412778000405524e-05, -2.5758708943612874e-05, -2.6441700811119517e-06, -4.6640670916531235e-06, 0.0007575751515105367, 2.98857285088161e-05, 3.117662708973512e-05, 1.0376862519478891e-05, 2.7446232707006857e-05, 1.323167816735804e-05, 9.140388101513963e-06, -2.1958725483273156e-05, -8.047259143495467e-06, 2.7619231332209893e-05, 2.4685502921784064e-06, 6.753782508894801e-05, 2.2891623302712105e-05, -2.43216836679494e-05, 6.57319906167686e-05, -3.5672059311764315e-05, -2.2935144443181343e-05, 2.296688580827322e-05, 1.939053436217364e-05, -3.80791025236249e-05, 9.804162255022675e-05, -3.675790139823221e-05, -1.2044319191772956e-05, -3.157548053422943e-05, -2.157122435164638e-05, 2.454800960549619e-05, 1.7312449926976115e-05, -1.0044051123259123e-05, 4.130961315240711e-05, 3.958732486353256e-05, -4.322999302530661e-05, -5.372606665332569e-06, 2.5358408493048046e-06, -0.00011965820885961875, -2.1190533516346477e-05, -2.90089774352964e-05, 8.93242031452246e-06, -1.864256955741439e-05, 4.14903333876282e-05, 5.47785748494789e-05, -5.3951416703057475e-06, 4.9670714361127466e-05, 3.187201218679547e-05, -2.716736707952805e-05, -1.1049978638766333e-05, 9.483033863944001e-06, 3.0048297048779204e-05, 9.316327486885712e-05, 4.297577834222466e-05, -2.541857975302264e-05, -3.1479230528930202e-06, 3.271365130785853e-05, -2.6878551580011845e-06, 1.5666249964851886e-05, 2.667392254807055e-05, -3.187976835761219e-05, 5.676733962900471e-06, 1.0740470315795392e-05, -5.4216150601860136e-05], [-0.00022186333080753684, -6.875736289657652e-06, -3.212231968063861e-05, 6.357256643241271e-05, 8.394284668611363e-05, 0.00028560339706018567, 0.00029130824259482324, 0.00018563951016403735, -0.0001639398979023099, 0.0001330425584455952, -3.926004865206778e-05, 2.613594915601425e-05, -0.0002532809157855809, 7.834228745196015e-05, 9.356436930829659e-05, 1.764073567755986e-05, -0.0001322479802183807, 0.0003565225924830884, 0.00018805863510351628, 4.938664642395452e-05, -1.5515019185841084e-05, -6.485605263151228e-05, 4.354263001005165e-05, 0.0002547774347476661, -0.0004873366851825267, 0.00016503896040376276, -0.0006267912685871124, 0.0001529723813291639, 6.055357516743243e-06, 0.0002863562840502709, -0.0003012085217051208, 0.0001717201666906476, -0.00010218079114565626, 1.587529550306499e-05, -0.0001284779136767611, -0.00014293857384473085, -0.00010620835382724181, -2.9351394914556295e-05, 0.0001556815841468051, -7.21009200788103e-05, -0.0003579811891540885, 8.391420124098659e-05, 1.0591887985356152e-05, 1.9842609617626294e-05, 0.00031186698470264673, -0.00010168118024012074, -0.0003277925425209105, -0.0001346144126728177, -0.00017696330905891955, 8.828194950183388e-06, -0.0001339379814453423, -6.864970055175945e-05, 5.5220250942511484e-05, -9.720552043290809e-05, -6.348039460135624e-05, 2.8743597795255482e-06, 8.915748912841082e-05, -0.00042291474528610706, 2.811439298966434e-05, 4.5862921979278326e-05, -3.6966277548344806e-05, -5.0357048166915774e-05, -0.00041842617793008685, -0.00027084359317086637], [4.6513465349562466e-05, 0.00034724740544334054, -0.00016767317720223218, 0.00032407452818006277, -0.00019060724298469722, 0.001157203922048211, -0.0007235038792714477, 9.183763177134097e-05, 0.0006356061203405261, 1.844200596679002e-05, 0.0003897336428053677, -0.00030447536846622825, -6.454869435401633e-05, 0.00035913524334318936, -0.0001743698085192591, 0.00022522974177263677, -1.8973172700498253e-05, -0.00016307045007124543, 0.00020300070173107088, -0.00023434226750396192, 0.0005630770465359092, -0.00020619056886062026, 8.904247806640342e-05, 0.0003577169554773718, -0.0005565732135437429, 0.000378876575268805, 0.0003286082355771214, 0.00021481157455127686, -0.00013376641436479986, 0.00018521500169299543, -0.0005323949735611677, 0.00019310094648972154, 0.00032069190638139844, 0.00011775985331041738, 0.0004647675377782434, 0.000935609161388129, -0.00024926578043960035, 6.132195994723588e-05, 0.0006545406067743897, 0.0002460288815200329, -0.00018311073654331267, 0.00012114898709114641, 0.00024364695127587765, 4.474983143154532e-05, 0.0006300258100964129, -0.0005591752706095576, 0.0005337164620868862, 9.85003134701401e-05, -0.0008255470311269164, 0.0001314378750976175, -0.0004702204023487866, 0.00043893035035580397, 0.00011534077930264175, 0.00012068921932950616, -0.00020932887855451554, 0.0003974440332967788, 0.00011008595902239904, 0.0008987784385681152, -0.0003558616735972464, 0.0001276778057217598, -0.0001762027241056785, 0.00024040191783569753, 0.0002452325134072453, 0.0005185969057492912], [-0.00021746342827100307, -0.000393215159419924, -0.0004838843015022576, 0.0005058975657448173, 0.00018072512466460466, 0.0029236648697406054, -0.00016621677787043154, -0.0004947148263454437, 0.00015511081437580287, 0.0009392862557433546, 0.0003297539660707116, -0.0006149572436697781, 0.000112603695015423, -0.00028895173454657197, -0.0006933183176442981, -0.000144890887895599, -0.0003300893004052341, 0.00045761847286485136, 0.0006954240379855037, 7.177556835813448e-05, 5.250662798061967e-05, 0.0001913112646434456, -0.00015009904745966196, 0.0005115366075187922, -0.000890102528501302, 0.00048622480244375765, -0.0008641764288768172, -0.00023986774613149464, 4.922349762637168e-05, 0.00025178748182952404, -0.0005821984959766269, 0.00016572821186855435, 0.0002553712693043053, 0.0004104187828488648, 6.376742385327816e-05, 0.00013457416207529604, -0.0012539097806438804, 0.0002461630501784384, 0.0017877252539619803, -2.2185296984389424e-05, -0.0005191242671571672, -0.0004212766943965107, 0.00045762868830934167, -8.148766937665641e-05, 0.0014773675939068198, -3.596668830141425e-05, 7.245311280712485e-05, 0.00012635052553378046, 4.827757220482454e-05, -0.00011643192556221038, -0.001008391845971346, 0.0010045208036899567, 0.0010024996008723974, 0.00030802161199972034, 0.00016935986059252173, 0.0003310228348709643, 0.0008196623530238867, 0.000340401369612664, -0.00025265439762733877, 0.00012656065518967807, -0.0003592470893636346, 0.00012373643403407186, -0.0001664625306148082, -0.0005542977014556527], [-0.00046024550101719797, -3.989911056123674e-05, 0.00014606180775444955, -0.00041696595144458115, 0.00026169727789238095, 0.0016506440006196499, -0.0003734158235602081, 0.0004848719690926373, 0.00031316751847043633, -0.0008691534167155623, 0.00014142636791802943, -0.0005454173660837114, -0.0007860094774514437, -0.00033718853956088424, -0.0007171594770625234, 0.00026961712865158916, -0.00037680246168747544, 0.0004266395990271121, 0.0007632089545950294, 0.000240492750890553, 0.0005107704200781882, -0.000712076376657933, -1.679814886301756e-06, 0.0009976302972063422, -0.0004024462541565299, 0.0002830336452461779, 0.001623482326976955, 0.0005138017004355788, -0.0010532292071729898, 0.0001697177649475634, -0.00027927960036322474, 0.000294203229714185, -0.0003136448794975877, 0.00019672841881401837, -0.0006790059851482511, -0.0007928677368909121, -0.00116663274820894, -0.00024388806195929646, -0.0006737871444784105, -0.0006483129691332579, 0.00036671076668426394, -3.804117295658216e-05, -0.0005122721195220947, 1.9209393940400332e-05, -0.0009707633871585131, -0.0005326410173438489, -0.00012996344594284892, 0.0002710862609092146, -0.0002725417725741863, 0.0003824170562438667, 5.617624265141785e-05, -0.00016921147471293807, -0.0002352957963012159, -0.00012285550474189222, -0.00012390250049065799, 6.56507836538367e-05, -0.00028403650503605604, -0.0007449960103258491, 0.0001365610514767468, 0.0005108090117573738, -0.00102798524312675, -2.2118998458608985e-05, -0.0011309096589684486, -4.59875154774636e-05], [-1.9218337001802865e-06, 8.204777259379625e-06, -1.7109055079345126e-06, -1.79089474841021e-05, 1.6348452845704742e-05, 0.0007913964218460023, 4.882087523583323e-05, 3.352951171109453e-05, 1.3080512871965766e-05, -2.8169068855277146e-08, -8.488648745696992e-06, -1.4841833035461605e-05, -1.4155514236335875e-06, -4.3108579120598733e-05, 3.2583771826466545e-05, -6.899843356222846e-06, 8.825611075735651e-06, 3.2801408451632597e-06, -2.6703995899879374e-05, -1.7747901438269764e-05, -4.375385742605431e-06, 2.7194635549676605e-05, -6.738674983353121e-06, 4.307565905037336e-05, -1.7143007653430686e-06, 4.331631771492539e-06, -1.542673635412939e-05, 6.4492855926800985e-06, -5.088153557153419e-06, 2.520743328204844e-05, 2.7919109925278462e-05, 5.256032818579115e-05, 5.750925083702896e-06, -9.898087228066288e-06, -8.84380142451846e-07, -1.1028694189008093e-06, 4.768706639879383e-05, 1.0166644642595202e-05, 9.582918210071512e-06, 1.59849259944167e-05, 1.1776121027651243e-05, -1.1561808605620172e-05, 1.902038889056712e-06, 3.860097422148101e-06, -2.0031067833770066e-05, 5.899185907765059e-06, -2.1377572920755483e-05, 4.6262366595328785e-06, 7.810674287611619e-05, -1.0286174756402033e-06, -1.7864949768409133e-05, 1.0307621778338216e-05, -3.6626975088438485e-06, -5.465245521918405e-06, 1.8627746612764895e-05, -1.561971293995157e-05, -1.64183511515148e-05, -3.762612323043868e-06, 2.427570325380657e-05, -6.578509783139452e-06, 6.31658622296527e-07, -1.3692440916202031e-05, 4.035739038954489e-06, -1.9141545635648072e-05], [2.1133523659955245e-06, 4.8791407607495785e-05, -2.81732136500068e-05, -4.4738903852703515e-06, 4.240483758621849e-05, 0.0006313545745797455, 7.585155253764242e-05, -5.024190613767132e-06, 1.7713817214826122e-05, -4.7435846681764815e-06, 7.4139461503364146e-06, -1.3329166904441081e-05, -2.9740422178292647e-06, -1.5916646589175798e-05, 2.8183880203869194e-05, 2.9470802473952062e-05, -1.3863658750778995e-05, 2.0197523554088548e-05, -3.8258407585090026e-05, -2.203571239078883e-05, -2.2111231373855844e-05, 6.46488115307875e-05, -1.2600194168044254e-05, 2.5832225219346583e-05, -4.7488581913057715e-05, 2.1454980014823377e-05, -4.869105032412335e-05, -1.3551102711062413e-05, -9.549335118208546e-07, 2.907313682953827e-05, 5.215757482801564e-06, 5.854957998963073e-05, -1.5769888705108315e-05, -3.391296922927722e-05, 6.33528952675988e-06, -1.3367600331548601e-05, 2.4060482246568426e-05, 2.9245577024994418e-05, -8.697397424839437e-05, 4.3966894736513495e-05, 1.898663140309509e-05, -1.552494904899504e-05, 2.548299562477041e-06, 8.26255291030975e-06, -4.028765033581294e-06, -1.3336920346773695e-05, -1.3040477824688423e-05, -7.159683264035266e-06, 4.974787589162588e-05, -2.3711278117843904e-05, -2.88379978883313e-05, 3.441528679104522e-05, 3.620654752012342e-05, 7.987200660863891e-06, 3.758338789339177e-05, -8.1512080214452e-06, 2.017362385231536e-05, 3.4045506254187785e-06, 2.958987170131877e-05, -6.09020844422048e-06, 1.1010275557055138e-05, -1.620656439627055e-05, 1.5157338566496037e-05, -2.273477912240196e-05], [3.768496753764339e-05, 8.403248648392037e-05, 3.6300098145147786e-05, -6.279798253672197e-05, -7.136112253647298e-05, 0.0007844697684049606, -5.794907337985933e-06, 3.8070334994699806e-05, 0.00010763563477667049, 6.604797090403736e-05, -4.016122329630889e-05, 3.501380342640914e-05, -7.192318662418984e-06, -1.5419573173858225e-07, 6.637827027589083e-05, 0.00012810324551537633, 7.101811206666753e-05, 7.812086550984532e-05, -0.00012574071297422051, -5.428274744190276e-05, 0.00011738468310795724, 5.9429497923702e-05, 4.925495886709541e-05, 0.00013501553621608764, 8.67877242853865e-05, -5.993735248921439e-05, 6.204834789969027e-05, 4.174576315563172e-05, 6.473033863585442e-05, 9.296403732150793e-06, 7.5708267104346305e-06, 0.00010530873259995133, 1.9856322978739627e-05, -2.465758370817639e-05, -2.7330384909873828e-05, 0.00012686802074313164, 0.00022791142691858113, -5.2136965678073466e-05, 1.5851705029490404e-05, 3.468093564151786e-05, 7.42355186957866e-05, -6.710448360536247e-05, 5.263200364424847e-05, 0.0003292843757662922, 0.00018223843653686345, -0.0001496594923082739, -5.783398955827579e-05, 0.00010667674359865487, -4.665360756916925e-05, 6.359955295920372e-05, 6.330422911560163e-05, 5.7922759879147634e-05, 0.0001343040494248271, 0.00015845602320041507, 6.220614159246907e-05, -1.536304989713244e-05, 0.00019587381393648684, 1.0126022971235216e-05, -0.00014263928460422903, -0.00011080929834861308, -8.381275256397203e-05, 3.336331792525016e-05, -2.982419027830474e-05, -3.2454467145726085e-05], [0.00011292935232631862, -3.7796125980094075e-05, -0.0002142997836926952, -0.0002611572272144258, -1.9165381672792137e-05, 0.001928876736201346, 0.000536588893737644, 0.0002569204370956868, 8.241162868216634e-05, -9.246417903341353e-05, -0.0003024873440153897, -0.0001416883897036314, -0.00010340635344618931, -0.0003560901968739927, 0.0001744101900840178, -5.760008207289502e-05, 9.967079677153379e-05, 0.00037898620939813554, 2.5879677195916884e-05, -0.00010557406494626775, -8.046105358516797e-05, -0.00011794554302468896, -6.969145033508539e-06, -7.041484059300274e-05, 0.00046921282773837447, -0.00020872820459771901, -0.0004381892504170537, 0.0001548655127407983, -3.6883982829749584e-05, 0.00022357265697792172, -5.0097794883186e-05, -4.248206096235663e-06, 9.604550723452121e-05, -0.00029567640740424395, -4.640822589863092e-05, 9.786093141883612e-05, 2.8007390938000754e-05, 2.567721821833402e-05, -0.00016219017561525106, -1.5575446013826877e-05, -0.00012162287021055818, -0.00010544605902396142, 0.00012102161417715251, 0.0004481379291974008, 0.00023959259851835668, -0.0002562209265306592, -0.00012840157432947308, 0.00017146268510259688, 2.568786840129178e-05, 0.00022404195624403656, -0.00010126066626980901, -0.000225657073315233, -0.0002607397036626935, -5.7292018027510494e-05, -4.52857930213213e-05, 1.0588764780550264e-06, -7.561527309007943e-05, 0.00030964825418777764, 2.0290033717174083e-05, -5.495159712154418e-05, 6.89286389388144e-06, 2.8171190933790058e-05, -2.753308945102617e-05, -0.0001632734201848507], [-0.0002420781966065988, 0.0005058252718299627, -0.0004027405520901084, 0.00022507557878270745, 0.00047254853416234255, 0.0019036971498280764, 0.0001797322474885732, 0.00026318314485251904, 0.0002567555638961494, 8.2269252743572e-07, -0.00012654080637730658, -0.0003657899214886129, 0.0003292102483101189, -0.0011934417998418212, -0.00021580318571068347, -0.00042717429460026324, -3.2317781005986035e-05, -3.219084464944899e-05, 9.860858699539676e-05, -4.630447074305266e-05, 0.0001051290673785843, -0.00017304980428889394, 2.8855718483100645e-05, -0.00013071639114059508, -6.088263762649149e-05, -0.00043010327499359846, -0.0006649820134043694, -0.000245118688326329, -0.0001936281332746148, 0.0004086436820216477, 1.568264633533545e-05, 0.0001485990796936676, 3.4417542337905616e-05, -0.0002107496839016676, -0.00015370387700386345, -0.00038265978218987584, 5.32559170096647e-05, 0.0008233293192461133, -9.559224417898804e-05, -0.0001032439322443679, 0.00027526330086402595, 4.535926564130932e-05, -0.00014539850235451013, 5.2444462198764086e-05, 0.0007566765998490155, -0.00012288373545743525, -1.494603930041194e-05, -0.0002614101395010948, 0.001051146537065506, 0.00010022650531027466, -0.0002662352053448558, -0.00033496905234642327, -0.0010168656008318067, -7.791237294441089e-06, 0.0006622517830692232, 0.00013710223720408976, 0.00017699079762678593, 0.0004591482284013182, 5.541797509067692e-05, 0.00040927546797320247, 0.0002048816968454048, 0.00029566261218860745, -0.00038533707265742123, 0.00023577403044328094], [0.000618554709944874, 0.00022705169976688921, -4.5217922888696194e-05, 0.000737108348403126, 0.000489689118694514, 0.002398132346570492, 0.00040524391806684434, 3.310646570753306e-05, 0.0011389520950615406, -0.0007266496540978551, 0.0004433680442161858, -0.000716467562597245, 0.00040408503264188766, -0.0010373374680057168, -0.0008669268572703004, -0.0004153912886977196, 0.0007964374381117523, 0.0003625181852839887, 0.00010374319390393794, -9.573408169671893e-05, 0.0002497981768101454, -0.00017779234622139484, 0.00018195374286733568, 9.575823787599802e-05, 0.000499833608046174, 0.0005205924389883876, -0.0014351059217005968, -0.00016237431555055082, -0.0008904681308194995, 0.0005956864915788174, 0.00036799872759729624, -0.00014298129826784134, 0.000559199252165854, -0.00024386604491155595, -5.969617632217705e-06, 0.00047333844122476876, 7.344715413637459e-05, 0.0005608330247923732, -0.0008246556390076876, 0.0004275021783541888, -0.0006156442104838789, 0.0005540482816286385, 9.795559162739664e-05, 0.0006312751793302596, 0.0008985655731521547, -0.0008076038211584091, 0.00010380017920397222, 5.880968092242256e-05, 0.00031669047893956304, -0.00040228935540653765, -0.0004675000091083348, 0.00040598661871626973, -8.563196752220392e-05, 0.00018374150386080146, 0.0007137306383810937, 0.0007675555534660816, 0.0008635531412437558, 0.0005015624919906259, -0.00032447135890834033, 0.0006742603145539761, 0.0004795982385985553, -0.0002904071589000523, 1.3925149687565863e-05, 0.0005479191313497722], [-0.00134287029504776, 0.00036010745679959655, 0.0010596185456961393, 0.0006595863378606737, -0.001283921068534255, 0.00457069743424654, 0.0003559697070159018, -0.0010887589305639267, -0.0006060164305381477, 0.00111102603841573, -0.001024099881760776, 0.0005944087170064449, 0.0007488664705306292, 0.0003202639636583626, 0.0009648310951888561, 0.001178099773824215, -0.0002663500781636685, -0.0014137483667582273, -0.0005231322138570249, 9.670952567830682e-05, -0.00019474609871394932, -0.0009976399596780539, 0.0002517566317692399, -0.0005325240781530738, -0.0006393954390659928, 1.82838412001729e-05, -0.0009240441140718758, -0.001010407810099423, 0.000563896493986249, -0.0005135424435138702, 0.0002476687077432871, -0.0001975581399165094, 0.001554838614538312, 0.00031675671925768256, 0.0005275888834148645, -0.0015763231785967946, -0.0013736817054450512, 8.737511234357953e-05, 8.281847112812102e-05, 0.0006278457585722208, 0.0006412562797777355, -0.00016077575855888426, -0.0008346096728928387, -0.0008840897353366017, 0.0007188798626884818, 0.0010026078671216965, 0.00045336445327848196, 0.0013448877725750208, -0.00170181505382061, 0.0009500241721980274, 0.0005798002821393311, 0.000468849902972579, 0.0007190766045823693, 0.0009613777510821819, -0.0003812728973571211, -5.414069164544344e-06, -0.00022857903968542814, -0.0008812668384052813, -0.0019509994890540838, -0.0006512333056889474, -0.0013916457537561655, -0.0004796242865268141, -0.0006003922317177057, 0.00024232594296336174]]], [[[-0.0007527007255703211, 0.0006899005966261029, -0.0006548812962137163, 0.0002239332825411111, -0.001873266533948481, -2.364546526223421e-05, -0.0002663714694790542, 0.0017575217643752694, -0.0004112163442187011, 0.0007126909913495183, 0.0006974225398153067, 0.000640619546175003, 0.0006921426975168288, 0.00028125004610046744, 0.0004117919597774744, 0.0010363627225160599, 0.0007038594922050834, -0.0009071617969311774, 0.000868713017553091, 4.7234047087840736e-05, 5.090999184176326e-05, 0.0012018686393275857, 0.0005102749564684927, 0.0003632664738688618, -0.00026061906828545034, -0.0003731273172888905, -0.00019669561879709363, 0.00011007986176991835, -0.0006885455804876983, 0.0012222199002280831, 0.0009663647506386042, 0.0005103169823996723, -6.214238965185359e-05, 0.0009490692755207419, 0.000536576728336513, 0.0006797933019697666, 0.0007955415640026331, 0.0005779516068287194, 0.0002894878853112459, 0.0009572066483087838, -0.00019183038966730237, -0.0005002241232432425, -6.622372166020796e-05, 0.0005774138262495399, 0.0011976339155808091, 0.00019607921421993524, -0.00049289979506284, -0.000616413657553494, 0.0005486331647261977, -0.0004675100790336728, 4.087266279384494e-05, 0.0008544646552763879, 0.0017408671556040645, 0.0010104418033733964, 0.0006016796687617898, 0.0006190706044435501, 0.0004680075799115002, -0.0019761300645768642, -0.000668756605591625, -0.0004952033632434905, 0.0004296784463804215, -0.0003726996947079897, -0.0004109987639822066, 0.00023584681912325323], [3.4176417784692603e-07, 4.948060450260527e-07, 7.374007964244811e-07, 3.790414098148176e-07, -1.397986153506281e-07, -6.249067610042403e-07, -1.2332749577126378e-07, 1.500134629850436e-07, 1.9710154219865217e-07, 2.523557895983686e-07, -7.081983426360239e-07, -1.3414319255389273e-07, 2.3459455178453936e-07, -2.0117279575515568e-07, -2.9105075327606755e-07, -2.0463119199121138e-07, -6.760951691830996e-07, 1.1208512660232373e-06, 1.2664332871281658e-07, 4.102902266822639e-07, 1.823423758651188e-07, -3.873107612406557e-09, 1.278313447983237e-06, 2.9134622536730603e-07, -1.0305987530045968e-07, -1.9626673974926234e-07, -5.108234546469248e-08, 1.357362634735182e-06, -1.1043017877909733e-07, 9.432054071112361e-08, -1.0836122328328202e-06, 1.3689458455701242e-06, -2.5504277800791897e-07, 4.3682894101948477e-07, 1.0546068551775534e-06, -2.761273663054453e-07, -3.0732871891814284e-07, -1.4738250797563524e-07, -8.331255116900138e-07, -1.9060014722072083e-07, 4.7643982270528795e-07, 2.833069174812408e-07, -1.0731041584222112e-06, -2.2742749195003853e-07, -2.457815639900218e-07, -3.6972474504182173e-07, -4.946862119936668e-08, -6.215215648808226e-07, -9.18117137871377e-08, -1.8244216448692896e-07, 2.5786866331145575e-07, 3.283529110831296e-07, -5.386359092085513e-08, -9.269180623050488e-07, -3.068549006002286e-07, -3.117590949841542e-07, -5.2904031377920546e-08, -5.093639856568188e-07, -3.369648595707986e-07, -6.140560344647383e-07, -1.2055522802256746e-06, 4.441019996193063e-07, 6.498538027699396e-07, -1.0273152639683758e-07], [-8.095695193333086e-06, -8.819181402941467e-07, -4.3426484808151145e-06, 1.0007256605604198e-06, 1.4271761301642982e-06, 4.437877123564249e-06, 8.162211088347249e-06, -2.1214493699517334e-06, 1.8719440504355589e-06, 5.763827175542247e-07, 9.329920089840016e-07, -3.107997372353566e-06, 6.840226888016332e-06, -1.6909136775211664e-06, 8.162057383742649e-06, -1.1103206816187594e-05, -8.25573533802526e-06, 3.0118603717710357e-06, -9.317325748270378e-06, 4.714091573987389e-06, -1.2138914826209657e-05, 4.99241764373437e-07, -1.008078470476903e-06, -4.072618139616679e-06, 1.1573644769669045e-05, 3.924662451026961e-06, -3.5780572034127545e-06, 2.7068995223089587e-06, 1.752179628056183e-06, 4.377002824185183e-06, -4.909847120870836e-06, -2.902164169427124e-06, -2.996341663674684e-07, -8.480360520479735e-06, 4.0464567518938566e-07, 5.150968718226068e-06, -1.1136178272863617e-06, 1.2430130027496489e-06, -1.233114630849741e-06, -8.949197763286065e-06, -2.0361248971312307e-06, -1.468081336497562e-06, -4.504195203480776e-06, 4.281568180886097e-06, -2.8436681986931944e-06, -5.610479092865717e-06, -3.282791567471577e-06, -5.1231127145001665e-06, 6.638961167482194e-07, 2.714315996854566e-06, -6.551544174726587e-06, 3.3293215437879553e-06, 3.0928359251447546e-07, -1.1914772102272764e-07, -4.693291884905193e-06, 1.0599586630632984e-06, 2.5363628992636222e-06, 2.860534550563898e-06, 4.220454684400465e-06, 3.41272834702977e-06, 2.9858890115974646e-07, -2.72658871836029e-06, 1.6151743693626486e-05, -2.8015269890602212e-06], [1.90258815564448e-05, -2.7737472919397987e-05, -1.2156664524809457e-05, 1.0581333299342077e-05, 1.4155651115288492e-05, -7.930389983812347e-05, 2.8277778255869634e-05, 1.241586960532004e-05, -3.07623258777312e-06, -2.3829235942685045e-05, -2.633438452903647e-05, 3.966640360886231e-05, -2.223892806796357e-06, 1.8842033568944316e-06, 3.5799963370664045e-05, -5.706114279746544e-06, -4.096067641512491e-05, 1.405304192303447e-05, -7.367715170403244e-06, 2.9645143513334915e-05, -3.322505290270783e-05, 5.3973126341588795e-06, 2.8328648113529198e-05, -5.610984953818843e-05, 9.222241351380944e-05, 7.3064638854702935e-06, -1.2127638910897076e-06, -4.308032657718286e-05, -6.974745338084176e-05, 4.805385833606124e-05, -5.663632691721432e-06, -3.023196040885523e-05, -3.949066740460694e-05, -3.4286247682757676e-05, -6.465554179158062e-05, -8.32485529826954e-05, -2.1264884708216414e-05, 6.598957043024711e-06, -1.9616212739492767e-05, -5.569554923567921e-05, -4.054050805279985e-05, -6.280962679738877e-06, -3.370258855284192e-05, 1.3295986718731001e-05, -5.455373684526421e-05, -1.0404375643702224e-05, -2.8173004466225393e-05, -4.882468419964425e-05, -6.136636329756584e-06, -1.6916785170906223e-05, 6.822006980655715e-06, 2.8389124054228887e-05, 2.702902929740958e-05, -3.3625356081756763e-06, 5.89879164181184e-07, 2.4283417587867007e-07, 6.625668902415782e-05, -5.5243504903046414e-05, 4.228899342706427e-06, -9.840763596002944e-06, 2.500456503184978e-05, 3.955390639021061e-06, -1.0057456165668555e-06, 1.775592681951821e-05], [5.2381619752850384e-05, -0.00011399664799682796, 0.00032007720437832177, -0.00010478764306753874, -0.00017356142052449286, 0.0006338466773740947, 0.00015966137289069593, 2.0758467144332826e-05, -0.00023031489399727434, 0.00012134663120377809, -0.00021204994118306786, 0.00027683208463713527, -0.00048300682101398706, 8.583552698837593e-06, 0.00017549829499330372, -8.805010293144733e-05, 0.0001775508571881801, 0.00020966713782399893, -0.00011728816025424749, 0.0002097356045851484, -0.00038571504410356283, -2.880777174141258e-06, -9.452862286707386e-06, -9.996068547479808e-05, -0.00013949276763014495, 3.9878214010968804e-05, -2.0897532522212714e-05, -0.00026038382202386856, -0.0006786289159208536, 2.23536990233697e-05, -0.00020260833844076842, 2.002753535634838e-05, -4.478176560951397e-05, 4.7383582568727434e-05, -0.0003578785981517285, -0.00016889098333194852, -0.00042696023592725396, 9.344821592094377e-06, -0.0001402874622726813, -0.0003417400876060128, -0.00025677436497062445, 8.68531278683804e-05, -0.00018740266386885196, 0.0001764200278557837, -0.0006473750108852983, 9.814197255764157e-06, -0.0004510914150159806, -4.1423962102271616e-05, 7.795602141413838e-05, -0.00018408770847599953, 0.00011335677118040621, 0.00024003883299883455, -0.00041701324516907334, 4.304631147533655e-05, -0.00017562613356858492, -0.00015700650692451745, 0.00013860996114090085, 0.0002767512632999569, -9.505709749646485e-05, -9.86667291726917e-05, 1.743065513437614e-05, -3.960749745601788e-05, -0.00022240847465582192, -0.0003908232320100069], [0.0006514503620564938, 0.0001779875165084377, 0.00036080589052289724, -8.94565018825233e-05, 8.703899220563471e-05, -0.00019770170911215246, -0.00037878137663938105, -0.00015581012121401727, 0.0006360579282045364, 0.00040066291694529355, -6.157763709779829e-05, 0.00010526135883992538, -9.568523819325492e-05, 0.00016737382975406945, -0.00019424552738200873, 0.00010793663386721164, 0.00013205119466874748, -0.000495129032060504, 0.00024442176800221205, -0.0002648898516781628, 3.695789200719446e-05, -0.0007298296550288796, -0.0001142813271144405, 0.0005140203284099698, 0.00011739649926312268, 0.00027104001492261887, 0.00028682543779723346, -4.828130477108061e-05, -8.707639062777162e-05, 0.0002156846458092332, -0.00024136650608852506, 0.00026706806966103613, -0.0010223991703242064, -5.279856486595236e-05, -9.370876068715006e-05, -2.3417935153702274e-05, -0.00023629242787137628, 0.00030740455258637667, -0.0004475415626075119, -0.0004701405414380133, 0.00015476593398489058, 1.7992115317611024e-05, 0.0004988026921637356, 0.00026863545645028353, 0.0001872478605946526, -9.836194658419117e-05, 0.000465343618998304, 0.0005358020425774157, 0.0003184247179888189, 0.0006142303464002907, 0.00022549970890395343, 0.0002064603177132085, -0.00032047968124970794, -6.352760829031467e-05, -0.00010448869579704478, -2.284956644871272e-05, 0.00041886011604219675, 0.0011349396081641316, 3.71816277038306e-05, 0.00012120016617700458, -0.00030181490001268685, -0.00014327315147966146, 3.0685667297802866e-05, 0.0003058966831304133], [-0.00043060691677965224, 0.0003992556594312191, 0.00075651949737221, -0.00023132999194785953, -0.0007941754884086549, 0.0018393166828900576, -0.00044748926302418113, -0.0006754585192538798, -0.00033980468288064003, 0.001004849560558796, 0.00019132168381474912, 0.00013119258801452816, 6.525858771055937e-05, 0.0007424616487696767, 9.044973558047786e-05, 0.000626179447863251, -0.0005012013716623187, -0.00025025304057635367, -4.786328645423055e-05, -0.0001422081550117582, -0.00039381691021844745, -0.0012703093234449625, 0.00041412434075027704, 0.00043832833762280643, -0.0009849611669778824, -0.0004753896500915289, -0.00020489719463512301, 0.0003772375057451427, -0.0008232714608311653, -0.0001751042145770043, -0.0009000226855278015, 7.24530837032944e-05, -0.0007997910142876208, 0.0005400828085839748, -0.0010589940939098597, -0.0008457452058792114, -0.0007221192354336381, 0.0003380336274858564, -0.0009300422971136868, -0.0007287436164915562, 0.0004296693950891495, 0.0001621288975002244, 0.0005772449658252299, 0.0002864502603188157, -0.0001123181136790663, -0.00023199639690574259, -0.0004101647064089775, -0.0001489525311626494, 0.00028043752536177635, 0.00015023777086753398, 0.0002683333877939731, 0.0009758496307767928, 3.097717126365751e-05, -0.00013888011744711548, -0.00017118653340730816, -4.315398109611124e-05, 0.0011976746609434485, -0.00041307249921374023, 0.0002603691245894879, -7.578593795187771e-05, 0.00010520179057493806, -0.000391502573620528, -0.0005503084976226091, -0.0009431351791135967], [-0.0002663970226421952, 0.0015726882265880704, 0.000583534361794591, 0.00032759911846369505, 0.00030307593988254666, -0.0006565017392858863, -8.859910303726792e-05, 0.0006235303590074182, 0.00042863478302024305, 0.0006092906696721911, -4.058430204167962e-05, -0.0011060351971536875, -0.00012569109094329178, -0.0012896920088678598, 0.00031531008426100016, -0.0015634496230632067, 2.9446673579514027e-06, 0.0011011206079274416, 0.0011721741175279021, 0.0006905433256179094, -0.00138420972507447, 1.0610430763335899e-05, -0.0008050698670558631, -1.4981982531026006e-05, -0.0008846517303027213, -6.231933366507292e-05, -0.00028671210748143494, -0.00025796229601837695, -5.818182762595825e-05, -0.0021523924078792334, 0.0002273049030918628, 0.0004019056505057961, 0.0002172933309338987, -0.0006380965351127088, -0.00016302712901961058, 0.00021337289945222437, -0.0001678018452366814, 0.00019951457215938717, 0.0001650620106374845, -7.544024265371263e-05, 0.000507596239913255, 0.0003821166174020618, 0.00024750022566877306, 0.001041874405927956, -0.000937582110054791, -0.0004127649590373039, 1.392114154441515e-05, 0.0008087834576144814, 0.0011471114121377468, 0.0005206219502724707, 0.00022463548521045595, 0.000574450648855418, -0.00015941954916343093, 0.0007200442487373948, 0.0002575466060079634, -0.00021823853603564203, 0.0003940159222111106, 0.0018789633177220821, -0.0007621971890330315, -0.0003517383011057973, -0.0009025207255035639, 0.00040395191172137856, -0.0011156911496073008, 0.0004268222546670586], [1.5735522538307123e-06, -2.6804561912285862e-06, -9.108986887440551e-06, -1.0568162906565703e-05, -1.2348100426606834e-05, 0.00024065576144494116, -1.2967006114195101e-05, -2.3053056793287396e-05, 1.01669002106064e-06, 1.3903249055147171e-05, 3.496910721878521e-06, 1.2187066204205621e-05, 5.938272806815803e-07, 4.187798367638607e-06, 6.883476999064442e-06, -7.10941230863682e-06, -6.414781182684237e-06, 8.79534945852356e-06, -1.3255586964078248e-05, -6.681693776044995e-08, 9.753013728186488e-06, -2.046749614237342e-06, -3.0162926123011857e-05, 3.829528395726811e-06, -2.736129317781888e-05, 5.177167622605339e-06, -5.47437957720831e-06, -7.997264219739009e-06, 4.670832822739612e-06, 1.267086190637201e-06, 1.391756086377427e-05, 1.926986988110002e-05, 2.804737232509069e-05, 3.0138604415697046e-05, -1.9625260392786004e-05, -3.0214705475373194e-06, -2.6831919967662543e-05, 6.8599747464759275e-06, -2.5480992917437106e-05, -2.069123183900956e-05, -8.476903531118296e-06, -1.0498650226509199e-05, 1.4579509297618642e-05, -1.6564206816838123e-05, 1.2526873433671426e-05, 2.2147057734400732e-06, 3.5140976706315996e-06, 1.3650557775690686e-05, -1.2225912541907746e-05, 3.526008367771283e-05, -4.806475317309378e-06, 2.2980289941187948e-05, -9.171905730909202e-06, 1.2962159416929353e-05, -9.113923624681775e-06, -3.25031828651845e-06, 7.694845407968387e-06, 1.5810512195457704e-05, 1.5215937310131267e-05, 1.7608315829420462e-05, -3.2990552426781505e-05, -9.904248145176098e-06, 2.4733267309784424e-06, -1.7569376723258756e-05], [3.543273123796098e-07, -1.0873902283492498e-05, -9.292645700043067e-06, -2.6077013899339363e-05, 6.397437573468778e-06, 0.0007381560862995684, -5.830001464346424e-05, -1.3715275599679444e-05, -2.889547249651514e-05, 2.3243313989951275e-05, 1.5561121472273953e-05, 2.104034683725331e-05, -5.454946858662879e-06, 2.1097954231663607e-05, -2.095334457408171e-05, 3.137682142551057e-05, 1.2629336197278462e-05, -3.5282591852592304e-06, -3.053895852644928e-05, 1.9100954887107946e-05, 1.7439528164686635e-05, 7.579560588055756e-07, -2.9062257453915663e-05, 9.940798008756246e-06, -9.233770470018499e-06, -8.8681117631495e-06, 1.2634351151064038e-05, -4.273875674698502e-05, 1.2421980500221252e-05, -1.0451652997289784e-05, 1.6960861103143543e-05, 4.907121365249623e-06, 8.905993126973044e-06, 6.531500548589975e-05, -1.662781141931191e-05, -4.944398460793309e-05, -6.195996684255078e-05, 2.5237985028070398e-05, -8.895112841855735e-06, -2.452974149491638e-05, -1.0355690392316319e-05, 1.6894409782253206e-07, 3.21631487167906e-05, -1.778064324753359e-05, -1.4617462511523627e-05, -2.6636045731720515e-05, -9.755920473253354e-06, 6.813840172981145e-06, -3.8540125387953594e-05, 2.4755445338087156e-05, 2.0310391846578568e-05, 3.7587487895507365e-05, -1.828885797294788e-05, 1.2951988537679426e-05, -3.437360646785237e-05, -6.13748079558718e-06, 5.7400582591071725e-05, 3.180024214088917e-05, 7.625491889484692e-06, -7.583024853374809e-06, -3.096630098298192e-05, -2.7616955776466057e-05, 1.590102147019934e-05, -2.031342955888249e-05], [-1.9610419258242473e-05, -6.64465333102271e-05, 0.00014088861644268036, -0.00025796311092562973, 3.283252954133786e-05, 0.0003057202557101846, -0.0001063327508745715, 6.876823317725211e-05, 4.4976033677812666e-05, 3.5215503885410726e-05, 0.00010753322567325085, 2.9218223062343895e-05, 2.4313267203979194e-06, -4.689056004281156e-05, -4.515291948337108e-06, -0.00014885052223689854, -1.3769556971965358e-05, 2.385594416409731e-05, 6.430053872463759e-06, 0.00016603016410954297, 6.866042531328276e-05, -4.535955667961389e-06, -8.790481660980731e-05, 8.663250628160313e-05, 1.937685738084838e-06, 3.4198972571175545e-05, -5.264420178718865e-05, 4.1646086174296215e-05, -2.357531775487587e-05, 3.3926338801393285e-05, -9.650659194448963e-05, 7.007387466728687e-06, -4.229594560456462e-05, 1.0342555469833314e-05, -2.151749504264444e-05, -1.41632990562357e-05, -3.844929960905574e-05, 6.213422602741048e-05, -0.00010784872574731708, -0.00013886015221942216, -6.386055611073971e-05, -3.0100745789241046e-06, 1.2313070328673348e-05, -0.00011075417569372803, 0.00012615662126336247, 0.00012843140575569123, -4.94932355650235e-05, -1.9093193259323016e-05, 6.104237399995327e-07, 0.00021961898892186582, 2.5525780074531212e-05, -5.2023384341737255e-05, 0.00013880664482712746, -9.324372513219714e-06, 9.577711898600683e-05, 2.767300247796811e-05, -0.00011162653390783817, -9.049692016560584e-05, 2.588869392639026e-06, 5.417651482275687e-05, -5.177444108994678e-07, -1.8182116036769003e-05, -5.1692422857740894e-05, 6.142231723060831e-05], [0.00020491085888352245, -0.0004966511041857302, 8.896998770069331e-05, -7.536780321970582e-05, 7.543891842942685e-05, 0.0026712208054959774, -8.969675400294363e-05, -4.321758751757443e-05, -3.4943208447657526e-05, 0.00014061051479075104, -0.0001624159049242735, -0.00015954236732795835, -0.0003113140701316297, -0.00015624988009221852, 5.0581209507072344e-05, -0.000339478807291016, -0.0002290052070748061, -0.00013956319889985025, 0.00014310645929072052, 0.00010421819752082229, -9.330393368145451e-06, -0.0001959771034307778, -0.00011374433233868331, 0.0002910261391662061, 0.00037338328547775745, -0.00040903460467234254, -0.00016359900473617017, 0.0001766075729392469, 3.946101060137153e-06, 5.518794932868332e-05, -0.00023229069483932108, -0.00012174902076367289, -5.9795384004246444e-05, -8.55647012940608e-05, 0.00010245313751511276, 0.0001339386508334428, 8.726806117920205e-05, -0.00016507803229615092, 2.716988092288375e-07, -0.0005712662823498249, 5.524550215341151e-05, 0.00028506675153039396, 8.241385512519628e-05, -4.169267413089983e-05, 0.00022178675862960517, 0.00018293184984941036, 0.00018025586905423552, 0.0004651839844882488, 0.0003796166565734893, 0.0004411923582665622, -5.158736166777089e-05, -0.00023579390835948288, -0.00030920692370273173, -0.00020104322175029665, -0.00024214861332438886, 1.72738655237481e-05, -0.0004308330244384706, 0.00045468477765098214, -0.00012692471500486135, 0.0003355422231834382, -0.00022452595294453204, -0.00014617855777032673, 5.017319199396297e-05, 8.609944779891521e-05], [-0.0006976074655540287, 0.0003001225122716278, 0.0010536558693274856, -6.084813139750622e-05, 0.000564001384191215, 0.0008255090797320008, 0.00038914012839086354, -0.00026686227647587657, -0.0004923918750137091, -0.0008476091315969825, -8.449900633422658e-06, -0.00019894122669938952, 0.0003926233621314168, 9.992215200327337e-05, -0.00027223481447435915, -0.0006218493799678981, 0.00022719037951901555, 0.00021774724882561713, 0.00037113914731889963, -0.0001388138043694198, -0.0009223895031027496, 0.00028139722417108715, 0.0007976879714988172, -0.0005553800147026777, -0.0005122623988427222, -0.0004756079870276153, -0.00027996458811685443, -0.000486401142552495, 0.00031570112332701683, -0.0004976332420483232, -0.00042606829083524644, 0.00034453842090442777, 0.0007601693505421281, -0.0007016597082838416, -0.0004132421163376421, -0.0004944204119965434, -0.0009381690178997815, 0.00031048202072270215, -0.0011646489147096872, 0.0005467962473630905, 0.0003191079304087907, 0.0002526274765841663, 8.027553121792153e-05, -0.000319991959258914, -0.0003263878170400858, -0.00019393055117689073, 0.00017044879496097565, -3.145600203424692e-06, 0.0006017998093739152, -0.0003661781665869057, 6.809188926126808e-05, -0.0004093428433407098, -0.0005286646774038672, -0.00032382956123910844, -0.0002818763896357268, 4.739278301713057e-05, -0.0007751525263302028, -0.00021074390679132193, 0.00021016702521592379, -8.704327046871185e-05, 0.0003508493828121573, 0.00017221641610376537, 0.0003103702038060874, 2.0255105482647195e-05], [-0.0005953160580247641, -0.0010284411255270243, 0.001135721686296165, 0.00011645647464320064, 0.0009399685077369213, 0.0018644927768036723, 0.0008256590808741748, 0.00026176110259257257, 0.00037190955481491983, -0.0007941153598949313, 7.660000119358301e-05, -0.0002456556831020862, -0.0006836195243522525, 0.0001831133122323081, -0.0005246871733106673, -0.00134917045943439, 0.0006555217551067472, -0.00011956164962612092, 0.00015942161553539336, -0.00026224262546747923, -0.0009539428865537047, 0.0002140845317626372, 0.0010707208421081305, -0.0005166864139027894, -0.00012869977217633277, 0.0004137248615734279, -0.0011112600332126021, 5.583206075243652e-05, -0.0002266505907755345, -0.00026305095525458455, -0.00093090656446293, 0.00033401668770238757, 0.0008835814078338444, -0.0008540765848010778, -0.0009636853355914354, 4.12686204072088e-05, -0.0011002870742231607, -0.0004479191266000271, -0.00016912526916712523, 0.00011942131095565856, -0.0006115846335887909, 0.00038545680581592023, 0.0003905456978827715, -1.2656062608584762e-05, -0.0016175254713743925, 0.00016131045413203537, -0.0002497888053767383, 3.2713578548282385e-05, 0.0006723152473568916, -0.0001522903621662408, 0.0003984565264545381, -0.00047099459334276617, -0.0009655717294663191, -0.0005919220275245607, -3.939119778806344e-05, -0.00048058904940262437, -0.0011432284954935312, -0.0009167420212179422, 0.0006792634958401322, -3.339347313158214e-05, 1.0891249985434115e-05, 2.6099689421243966e-05, 0.00017115003720391542, -0.0007911358843557537], [-0.001427642535418272, 0.000342265993822366, 0.0009118811576627195, 0.0008813841268420219, -0.0011449480662122369, 0.002835372230038047, 0.0004885966191068292, -0.001223282772116363, -0.00015448679914698005, 0.0010558046633377671, -0.0009541462641209364, 0.000524756673257798, 0.0004446059465408325, 0.00013696691894438118, 0.0006505995988845825, 0.001440004794858396, -7.249179179780185e-05, -0.001357922563329339, -0.0005294150905683637, 7.218238897621632e-05, 7.706059841439128e-05, -0.0005345905665308237, 8.956441888585687e-06, -0.0007477256003767252, -0.0009942842880263925, 0.00031944000511430204, -0.0007840619655326009, -0.001023672055453062, 0.0004217674140818417, -0.0008304575458168983, 0.00021972681861370802, -0.00023965333821251988, 0.002028502058237791, 0.0004921931540593505, 0.0005276090232655406, -0.002136793453246355, -0.0010935313766822219, -0.00041108462028205395, 9.429077181266621e-05, 0.0006236198823899031, 0.0007713472587056458, 0.00041378263267688453, -0.0009173769503831863, -0.0010604588314890862, 0.00029692420503124595, 0.0009148917743004858, 0.000851233140565455, 0.0010584096889942884, -0.0015955409035086632, 0.0008309464901685715, 0.000639788806438446, 0.0007006025407463312, 0.0008577220723964274, 0.001227822620421648, -0.0005696937441825867, 0.00013014677097089589, 0.00014254008419811726, -0.0007872967980802059, -0.0017712609842419624, -0.0005692162085324526, -0.0013673199573531747, -0.001093888422474265, -0.0006161502096801996, -0.00023669819347560406]], [[-0.00018339097732678056, 0.0008103401632979512, 2.5772540539037436e-05, 0.00039885396836325526, -0.0003002092125825584, 0.0006325957947410643, -0.00014123404980637133, 0.0008599878055974841, 0.0007323388708755374, -1.0005169315263629e-05, -0.00017502317496109754, 0.0002004286361625418, 0.0002298124018125236, 0.0007493262528441846, -0.0004292277153581381, 0.0005241209291853011, 0.0007611940382048488, -0.0010329012293368578, 0.00022465651272796094, -6.586498057004064e-05, 0.0002965021994896233, 4.3355466914363205e-05, 2.656629658304155e-05, 0.0005199522129260004, -1.5214201994240284e-05, 9.5965267973952e-05, 0.0006191817810758948, 0.0004463891382329166, -0.001206075306981802, -0.00047986715799197555, 0.0003434437676332891, 0.000535022234544158, 0.0003070728562306613, 0.0003400977293495089, -0.0003253488102927804, 0.0021347934380173683, -0.00041777134174481034, -0.0003035981208086014, -0.0011388332350179553, 5.257247175904922e-05, -3.6139106668997556e-05, 7.6792057370767e-05, 8.303931099362671e-05, 0.0011561359278857708, -0.0009943387703970075, -0.0009617850882932544, 0.00014093781646806747, -1.1735741281881928e-05, -0.0003072231193073094, -0.00020317296730354428, -0.00012594240251928568, 0.0005118924891576171, 0.0007300496217794716, 0.0008664941415190697, 0.00023529064492322505, 0.0003557964810170233, 0.0007722601876594126, -0.0008537120884284377, -0.0008519780240021646, 0.000551680801436305, 0.00015375801012851298, 0.0005119710694998503, -0.0006547816446982324, -0.00021189500694163144], [1.4197013342709397e-07, -1.5384772495963261e-06, -6.753602406206483e-07, -6.538549257584236e-08, 3.339392264933849e-07, 7.486040658477577e-07, -1.480327256331293e-07, -6.305868964773254e-07, -1.1778231510106707e-06, -5.803050271424581e-07, 5.067832944405382e-07, -6.324526680145937e-08, 1.6087734877601179e-07, -4.7368430955430085e-07, 3.7139534470043145e-07, 3.8286498238448985e-07, 4.781966254086001e-07, -5.150930633135431e-07, 3.266999328843667e-07, -6.184888690086154e-08, -9.925016364320527e-09, -2.844336961516092e-07, -7.577139626846474e-07, -2.1390198412518657e-07, 4.239322777266352e-07, 7.875240157773078e-07, -9.379434118272911e-07, -6.720320300246385e-08, -1.3206010862631956e-06, 5.173405384084617e-07, -7.568901878585166e-07, 8.516478544606798e-08, 5.657867632180569e-07, -2.4620086946924857e-07, -2.958558695809188e-07, 1.4964081174184685e-06, -2.7442607120065077e-07, -5.244463636699948e-07, 4.088744560704072e-07, -6.541677777249788e-08, -1.9255595873346465e-07, -8.220748668463784e-07, -5.581724167313951e-07, -3.443808225256362e-07, -3.1103175501812075e-07, 2.9846398774679983e-07, -2.159524115086242e-08, 8.531877142559097e-07, 8.014424679458898e-07, 2.452795513363526e-07, 5.643489089379727e-07, -5.05746470480517e-07, -4.5575563945021713e-07, 6.258139961801135e-08, 9.824285598369897e-07, 2.1850453890692734e-07, -6.220523118827259e-07, -7.761605047562625e-07, 2.9648876420651504e-07, 8.173325340976589e-07, 6.539939931826666e-07, -9.24119873957352e-08, 1.0295979109287146e-06, 8.296933629026171e-07], [-4.415066996443784e-06, -3.398387889319565e-06, 3.237433702452108e-05, 5.1151273510186e-06, 6.303541510987998e-08, -0.00013671052874997258, 1.8967391952173784e-05, 1.193419757328229e-05, 6.618964789595339e-07, -7.074587301758584e-06, 6.984813808230683e-06, -9.272797797166277e-06, 2.5515100787742995e-06, -7.2375960371573456e-06, -1.7119335097959265e-05, 2.016739745158702e-05, 1.6784204490249977e-05, 2.195717752329074e-05, 1.2498294381657615e-05, -6.5871286096808035e-06, 1.5785124560352415e-05, 5.954786502115894e-06, -1.8993619960383512e-05, 1.4344914234243333e-05, -1.3236174254416255e-06, 3.054960870940704e-06, 1.0310084689990617e-05, 1.6650844827381661e-06, -1.036762296280358e-05, -2.458778681102558e-06, -1.7579163795744535e-06, -1.0772139830805827e-05, 1.0395171557320282e-05, -1.5588675523758866e-05, 2.8533371732919477e-05, -6.467816092481371e-06, -2.1326270598365227e-06, 3.7678000808227807e-06, -7.322970486711711e-05, -2.4770461095613427e-06, 7.1817503339843825e-06, -2.5194043473675265e-07, -4.123293365410063e-06, -2.816526603055536e-06, -5.315073394740466e-06, 8.171831723302603e-06, 1.194080505229067e-05, 2.000725089601474e-06, 2.0381853573780973e-06, -1.4754059520782903e-06, -1.5640814581274753e-06, 7.2923567131510936e-06, 3.800142621912528e-06, 1.7695281258056639e-06, 3.8036780551919946e-06, 4.823326889891177e-06, 1.7514203136670403e-06, 9.650625543144997e-06, -1.8397572603134904e-06, 5.648543265124317e-06, 1.2368097486614715e-05, 1.273597536055604e-05, -1.3711078281630762e-05, -1.158760596808861e-06], [-2.738014518399723e-05, -9.945400051947217e-06, -9.216480248142034e-05, 0.00014629756333306432, -4.641810392058687e-06, 0.0002964611630886793, -7.687666220590472e-05, 4.780122253578156e-08, 1.4314204236143269e-05, -1.593166780367028e-05, 2.6494208213989623e-05, -4.978776996722445e-05, 3.9373062463710085e-05, -1.9170920495525934e-06, -7.676610948692542e-06, 0.00014824251411482692, 2.835035957104992e-05, -2.602684253361076e-05, -6.211009804246714e-06, 5.6477569160051644e-05, 7.081708463374525e-05, 1.8649003322934732e-05, -5.612049426417798e-05, 9.637031325837597e-05, -2.0123188733123243e-05, -2.286288872710429e-05, 6.719484372297302e-05, 2.274684447911568e-06, 0.00018731370801106095, -8.03922739578411e-05, 1.7580019630258903e-05, 1.8518510842113756e-05, 0.00015265012916643173, 4.887261820840649e-05, 0.00014365010429173708, -6.466470949817449e-06, 2.9847888072254136e-06, -4.577567597152665e-05, 6.027953713783063e-05, 0.00011518824612721801, 8.187591447494924e-05, 4.35331639891956e-06, -6.855180254206061e-05, -5.620828233077191e-06, 7.946182449813932e-05, -5.968180994386785e-05, 0.00020954402862116694, 7.253720832522959e-05, -4.1608094761613756e-05, 1.1720928341674153e-05, -1.1921242730750237e-06, 9.139256872003898e-05, -2.619806764414534e-05, 1.821378100430593e-05, -1.846352097345516e-05, -1.5010073184384964e-05, -2.5385525077581406e-05, 6.955772551009431e-05, 9.239900464308448e-06, 4.4331707613309845e-05, -6.857964035589248e-05, -1.094958952307934e-05, 4.637713573174551e-06, 6.047077476978302e-05], [-4.8099434934556484e-05, -3.9178983570309356e-05, 0.00010124022082891315, 0.00037062622141093016, 1.6206075088120997e-05, -0.00014179803838487715, -0.00010593268962111324, 0.0004223876749165356, -0.0004876485327258706, -2.7090944058727473e-05, -0.00019768171478062868, 0.00010743152961367741, -0.00019953427545260638, -8.169500506483018e-05, 0.0003087245859205723, 9.839414997259155e-05, 2.593248791527003e-05, -7.595984061481431e-05, 0.00018052844097837806, 0.00017436480266042054, -0.00015259324572980404, 0.00023500833776779473, 0.0003193893644493073, 0.0001388613018207252, -6.75449482514523e-05, 9.870912617770955e-05, -0.0005158286076039076, -6.474601104855537e-05, 0.00037642783718183637, -9.165388473775238e-05, -6.004913302604109e-05, 0.00014762392675038427, 0.0004554089973680675, 0.0003259764052927494, -0.00013921488425694406, -0.0004193577915430069, -0.0001240976562257856, -8.818592323223129e-05, 0.0003645444812718779, 1.0958614439005032e-05, 2.8411843231879175e-05, -1.0001908776757773e-05, -0.00014556068344973028, 7.0835158112458885e-06, -0.0003396554966457188, 2.349159331060946e-05, -0.00034470122773200274, -5.144102397025563e-05, 0.00015857236576266587, 7.777306745992973e-05, 0.00026137783424928784, 0.00032077424111776054, -0.00029894470935687423, 0.00013551278971135616, -2.514584775781259e-05, -5.955946835456416e-05, -2.7388252419768833e-05, -0.0004010970878880471, 0.00016536151815671474, -0.0004105865373276174, -2.7366506401449442e-05, 7.457337051164359e-05, -0.00011239787272643298, -0.00018185997032560408], [0.000521024689078331, 0.00011262452608207241, 0.0002460875839460641, 6.752627086825669e-05, 0.0003245018015149981, 0.0003222344384994358, -0.0005665424396283925, 0.00021870314958505332, -4.4453860027715564e-05, 0.00038038892671465874, -0.0002960897982120514, -0.00020276510622352362, 4.814696148969233e-05, -0.0005329080740921199, -0.00044851854909211397, -0.00020113700884394348, -5.202316970098764e-06, -0.0002529553312342614, 0.00040345615707337856, 0.0002722770150285214, 0.00016046458040364087, -0.00029809956322424114, 0.0004064982058480382, 0.00035950043820776045, -0.00031273486092686653, -0.0008106069872155786, 0.0005788466660305858, 0.00017230659432243556, 0.0002628882648423314, 0.0005587146733887494, -0.0003265560953877866, -9.484107431489974e-05, 