{"nesterov": true, "init_weights": [8967, [[[[0.000785237003583461, 0.0003106393269263208, -0.0004450600827112794, -0.0012016987893730402, -0.0005888520972803235, 0.0007146333227865398, -0.0010914879385381937, 3.253684553783387e-06, -0.00033213727874681354, 0.00016791161033324897, 0.0023356375750154257, 0.0008418995421379805, -0.0002715644659474492, 8.492876077070832e-05, 0.0016414334531873465, -0.00052226847037673, 0.0015930935041978955, -0.002369222231209278, -0.00023128127213567495, 0.0006129969842731953, -7.788337825331837e-05, -3.5439516068436205e-05, -0.00031582661904394627, -0.0016624130075797439, -0.00041855458403006196, -0.0006247185519896448, 0.0006521542090922594, -0.0009265184635296464, -2.929364563897252e-05, 1.7543294234201312e-05, 0.000251436373218894, 0.0005017286166548729, 0.00022340810392051935, -0.0014372274745255709, -3.6355340853333473e-06, 0.0005735952290706336, 0.0016422803746536374, 0.002019826089963317, 0.00045914362999610603, 0.0013631662586703897, -0.00047593883937224746, -0.00014542245480697602, -0.0003522700280882418, 0.0020282352343201637, -0.0009084245539270341, -0.0006279381923377514, -8.957651152741164e-05, 0.00024573723203502595, 0.000824861170258373, 1.7105398001149297e-05, -0.0012239349307492375, 0.0007637166418135166, -0.0004763500764966011, 0.0001379921450279653, -0.0002963271108455956, 0.0010226801969110966, -0.0002096258831443265, -5.788810085505247e-06, -0.00021895153622608632, 0.0011135481763631105, -0.00044337601866573095, -0.0026345478836447, -0.0005456797080114484, -0.00075712357647717], [-3.2418049613625044e-06, -9.940260497387499e-06, 1.2011602166239754e-06, -1.384906340717862e-07, 1.6743222204240737e-06, -4.484921646508155e-06, -7.934093559924804e-07, -2.1705543531425064e-06, 3.3495227853563847e-06, 3.1115223464439623e-06, -3.524939302224084e-06, -6.553746061399579e-06, 6.54354437301663e-07, 5.666412562277401e-06, 4.517686647886876e-06, 1.3410538031166652e-06, 9.739351298776455e-06, -3.072170102313976e-06, -9.386507144881762e-07, 2.0321444935689215e-06, 9.940260497387499e-06, 4.2303313421143685e-06, -2.2802871626481647e-06, -1.6323963336617453e-06, -3.2057782846095506e-06, 9.940260497387499e-06, -5.5837681429693475e-06, -4.835279469261877e-06, -2.1296239083312685e-06, -2.153467448806623e-06, -1.9693170543177985e-06, 5.019609488954302e-06, -2.860057577436237e-07, -2.8957604172319407e-06, -3.991594894614536e-06, -4.712139798357384e-06, 9.940260497387499e-06, 3.114682158411597e-06, -2.7816165584226837e-06, -3.292298288215534e-06, 5.251525635685539e-06, 1.3951880646345671e-06, 4.653361429518554e-06, 5.764224624726921e-06, 3.5197763281757943e-06, 1.2396709507811465e-06, -5.819321131639299e-07, 4.33843433711445e-06, 5.736400794376095e-07, -1.7945208128367085e-06, -5.275045168673387e-06, 1.6756013110352797e-06, 7.24551512121252e-07, -2.330549023099593e-06, 7.887957735874807e-07, -9.532371223031078e-06, -1.2638070074899588e-06, 6.9723682827316225e-06, -3.854001988656819e-07, -8.845677825775056e-07, -1.9223898561904207e-06, -2.1183575427130563e-06, -4.706157596956473e-06, 3.072521622016211e-06], [-1.523008177173324e-05, 7.503042979806196e-06, -5.528075234906282e-06, 1.2107138900319114e-05, 9.304399100074079e-07, -1.3687051705346676e-06, 3.622682015702594e-06, 7.473634468624368e-06, 1.7193617168231867e-05, 2.5842091417871416e-06, -6.058108738216106e-06, 1.071376300387783e-05, -5.151691311766626e-06, 3.606204245443223e-06, -1.4821252989349887e-05, 1.7869376733870013e-06, -8.866481948643923e-06, 1.1743059076252393e-05, -1.220216290676035e-05, 7.911898865131661e-05, -5.245184411251103e-07, -1.2571123988891486e-05, 9.89201453194255e-07, 8.330685886903666e-06, -1.1301437297106531e-07, 8.784139936324209e-06, 1.7864207620732486e-05, 1.601648000360001e-05, 7.637549970240798e-06, 2.703618520172313e-07, 8.572546903451439e-06, -1.1692198313539848e-05, -6.862944246677216e-06, 1.964694274647627e-05, -1.16139945021132e-05, -2.2163367248140275e-05, 2.6462569167051697e-06, -4.471348347578896e-06, -3.710556256919517e-06, -7.194479621830396e-06, 2.271496668981854e-05, -1.4149946991892648e-06, 5.035755748394877e-06, -2.323735498066526e-05, -1.8186256056651473e-05, -1.5418188468174776e-06, 2.336150828341488e-09, -1.2581363080244046e-06, -1.022374249259883e-06, -4.8820647862157784e-06, 3.975354502472328e-06, -9.30449186853366e-06, 5.6716166909609456e-06, -1.7682150428299792e-05, -2.554781758590252e-06, 5.32435024069855e-06, -6.890036274853628e-06, -3.5230555113230366e-06, -3.100397407251876e-06, 5.671165581588866e-06, -4.037309736304451e-06, 8.621427696198225e-07, -1.043796964950161e-05, -1.3641206351167057e-05], [6.728624430252239e-05, 2.096691787301097e-05, -3.837178610410774e-06, -4.569695011014119e-05, -3.4066313673974946e-05, -1.1833721146103926e-05, 2.582099477876909e-05, -8.150960638886318e-05, -8.850677113514394e-05, 1.4562234355253167e-05, 2.6481324312044308e-05, 4.105466359760612e-05, 1.102547139453236e-05, -5.491683623404242e-07, -3.1922507332637906e-05, -3.2323121558874846e-05, -3.1137617042986676e-05, 3.9462702261516824e-05, 4.6520610339939594e-05, -0.00028902117628604174, 2.6346679078415036e-06, 3.981617555837147e-05, -2.6190440621576272e-05, -8.761589924688451e-06, -2.5027738956850953e-05, 2.7110832888865843e-05, 3.301559263491072e-05, 7.956088666105643e-06, 2.703616519283969e-05, -3.244781692046672e-05, 0.00018573517445474863, 1.2316990250837989e-05, 1.9195656932424754e-05, -2.1094885596539825e-05, 2.350071918044705e-05, 2.0000206859549507e-05, -1.3365151971811429e-05, 1.5661476936656982e-05, 4.277296829968691e-05, -1.457728649256751e-05, 5.747470822825562e-06, -4.144747435930185e-05, -0.00012067271745763719, 1.531857742520515e-05, -5.8602154240361415e-09, -0.00010907687828876078, 4.290758806746453e-05, -1.9870720279868692e-05, 1.9119477656204253e-05, -5.241277540335432e-05, 5.216737190494314e-05, 3.448188363108784e-05, 6.216617475729436e-05, 1.5349662135122344e-05, -1.4573857697541825e-05, -0.00010039212793344632, -2.3592074285261333e-06, -2.640979982970748e-05, -6.506426143459976e-05, -3.8870261050760746e-05, 4.80098242405802e-06, -0.00028347878833301365, -3.358195681357756e-05, 1.87062887562206e-05], [-0.0007978518842719495, -0.0001613764325156808, -0.00010902136273216456, 5.534191586775705e-05, 0.00015638346667401493, -2.7456320822238922e-05, 0.00011324186925776303, 0.0002882663975469768, 0.0002341436338610947, -1.2038628483423963e-05, 0.00024900934658944607, -0.00043983469367958605, 0.00043886189814656973, -0.0005306224338710308, -0.0004605082795023918, -4.4634201913140714e-05, -0.00020106107695028186, -0.00047384394565597177, 0.0005710101104341447, 0.0012293817708268762, 0.00034649402368813753, -0.00045336579205468297, -0.00012375357619021088, 0.00011026484571630135, -5.323726145434193e-05, -9.260571823688224e-05, -0.00010754115646705031, -8.921511471271515e-05, -0.00031898904126137495, 0.00024019714328460395, 0.0002642288454808295, 0.00026097908266820014, 0.00013968035636935383, -0.00023941099061630666, -0.000595917459577322, -0.0001770753733580932, 1.69905415532412e-05, -0.00016945376410149038, 0.0004372360126581043, -3.104825736954808e-05, -0.0005458893137983978, 3.5334855056134984e-05, 3.7465462810359895e-05, -0.00042169244261458516, -0.0005832649767398834, 0.0005434430786408484, 0.00016740926366765052, 6.825369200669229e-05, -0.00018297148926649243, 0.00016452130512334406, 8.473366324324161e-05, -3.592407301766798e-05, -0.00036402905243448913, 0.00011045763676520437, -0.00014148718037176877, -0.00014672591350972652, 0.0005647806101478636, 0.00011948934115935117, 0.00025696647935546935, -8.521355630364269e-05, -0.00015698363131377846, -0.00022303845616988838, 0.00039753885357640684, 5.290412809699774e-05], [-8.934427751228213e-05, 0.0008286383817903697, -0.000261351146036759, -0.00035778808523900807, -0.0003710814635269344, -0.0007325675687752664, 5.938754475209862e-05, 0.0007576793432235718, -0.0005781638901680708, 0.0003408293123356998, -0.0008652906399220228, 0.0006720478413626552, -0.00026962911942973733, -0.00018045850447379053, -0.0006157879834063351, -0.0002615549601614475, -0.0007288958877325058, 0.00023010323639027774, 0.0006425419705919921, -0.0014886318240314722, 8.088676258921623e-05, 0.000583035172894597, 1.9548147975001484e-05, -0.0011889056768268347, 0.00039544908213429153, 0.00031178799690678716, -9.551149560138583e-08, 0.0005240667960606515, 2.0717488951049745e-06, -0.00022641367104370147, -0.0009486572234891355, 7.85666488809511e-05, -0.00021916275727562606, -0.00024394068168476224, 0.00018903979798778892, 0.00013493298320099711, -0.0006955135613679886, -0.0010477036703377962, -3.0945753678679466e-05, -0.0004767006612382829, -0.002127042505890131, -0.00039008352905511856, -0.0006132471025921404, -0.0004695734241977334, -0.0008035716600716114, -0.0002298989420523867, -0.0003117407322861254, 0.000835971615742892, -0.0009912669192999601, 0.0008756835595704615, -3.98115225834772e-05, -0.00032383977668359876, -0.00035948597360402346, 0.00016214867355301976, 0.0004914532182738185, 0.0002653978590387851, 0.00014968137838877738, 0.0004520551592577249, -0.00014373254089150578, 0.0004698410048149526, -0.00018637737957760692, -0.0009902272140607238, -0.0005197073915041983, 0.0005248374654911458], [0.0017767585813999176, 0.0027346815913915634, -0.00044005189556628466, -0.0004176225047558546, 0.00016452796990051866, -0.0005702562630176544, 0.0004516045446507633, -0.0010101108346134424, -0.002413169015198946, -0.0007812335388734937, 0.0031386283226311207, 0.0013569594593718648, -0.00013409058738034219, 0.0012289624428376555, 0.002150565618649125, -0.0007107946439646184, -0.0025650174356997013, 0.001030564191751182, 0.0003723770205397159, -0.0010974041651934385, 0.0009411228820681572, -0.00029668689239770174, -0.0014231899986043572, -0.0019062563078477979, 8.231232641264796e-06, -0.00021801506227348, -6.656269397353753e-05, -0.00029672865639440715, 0.0026990799233317375, -0.0012829065090045333, 0.0009533684351481497, 0.0012978787999600172, -0.0020198829006403685, -0.0005613804678432643, 0.001831602305173874, -0.0009300593519583344, 0.0005679517635144293, 0.0005531491478905082, 0.00020105246221646667, 0.0002538099361117929, -0.0007296527037397027, -0.00047781775356270373, -0.001494507770985365, -0.0005874988855794072, 0.0027504125609993935, -0.0009454063838347793, -0.0002431904140394181, -0.00020232409588061273, 0.00012150200200267136, -0.0007952239247970283, -0.0007015569135546684, 0.0009662867523729801, -0.00121914257761091, -0.0006101982435211539, 0.001215609023347497, -0.0020788386464118958, 0.0005800558719784021, 0.000289726973278448, -0.0007873677532188594, -0.0008528290782123804, -0.0005968128680251539, 0.00025637459475547075, -8.421992970397696e-05, 0.00035045400727540255], [0.0024617244489490986, -0.0012958357110619545, 0.0006765645812265575, -0.0001057276240317151, 0.00016943574883043766, 0.0008174496470019221, -6.92183239152655e-05, -0.0007103290408849716, 0.0009793462231755257, 0.0007370352977886796, -0.0005174190155230463, -0.001454905141144991, 0.0012184674851596355, 0.00015945621998980641, 0.0009871614165604115, -0.0017541655106469989, 0.001767267007380724, -0.00046228303108364344, 0.0011763740330934525, 0.001723717199638486, -0.0009253614698536694, -0.0004686384054366499, 0.001406815485097468, -0.0017329163383692503, -0.00020658834546338767, 0.0007297734264284372, -0.0005035970825701952, -0.00042645729263313115, -0.0012341240653768182, 0.000872734235599637, -0.0007637094240635633, -0.0001369662641081959, 0.0003035249246750027, -5.116683314554393e-05, 0.00033617246663197875, 2.480421790096443e-05, -0.0019805151969194412, -4.801613977178931e-05, 0.00029825622914358974, 0.0010645344154909253, -0.0008955586235970259, -0.0001337141584372148, -0.0006525596836581826, -0.0003940547176171094, -0.00010912194557022303, 0.0011753663420677185, -0.0002549809869378805, 0.0001972610189113766, -0.0006111826514825225, -0.0006711034220643342, -0.000250838726060465, 0.000644332729279995, 0.00030613402486778796, 0.0008417453500442207, 0.0005399375804699957, -0.0009721210808493197, -0.0018545571947470307, -0.0003745903668459505, -0.0017257463186979294, -0.00045589389628730714, -0.00032313750125467777, -0.0009442945593036711, 0.0014518778771162033, -0.0005920553230680525], [-5.9947942645521834e-06, -3.006821862072684e-05, 4.662554601964075e-06, 5.008227890357375e-05, 2.6873965907725506e-05, -2.6299976525478996e-05, -1.1508254829095677e-06, 6.797673995606601e-05, -3.458269566181116e-05, 1.3862103514838964e-05, 9.398610927746631e-06, 3.348305472172797e-05, -2.6654262910597026e-05, 7.428458047797903e-06, -1.1149657439091243e-05, -6.978050350880949e-06, 1.881788921309635e-05, -8.259579772129655e-06, -1.3516193575924262e-05, -8.270794933196157e-05, -2.1746933271060698e-05, 5.376669287215918e-05, -5.2028652135049924e-05, -1.990846976696048e-05, -3.5874418244929984e-05, 5.376487024477683e-06, 6.632181793975178e-06, 4.485244971874636e-06, -3.657565684989095e-05, -3.612195359892212e-05, -9.34375129872933e-05, -1.2473838069126941e-05, -2.5134979750873754e-06, -0.0001080682995961979, 1.0811183528858237e-05, 2.605174813652411e-06, -1.2157554010627791e-05, -8.123115549096838e-06, -2.91917558570276e-06, -2.961460813821759e-05, -9.208523988490924e-05, 1.3107624909025617e-05, 1.142696783063002e-05, 1.8710923541220836e-05, 4.308756615500897e-06, -8.108094334602356e-06, -2.034275712503586e-05, -3.150851262034848e-05, 6.190296517161187e-06, -8.453297368760104e-07, -6.168200343381613e-05, -2.338193098694319e-06, -3.188258779118769e-05, -2.390195504631265e-06, 4.487574187805876e-05, -1.8071008526021615e-05, -6.417574695660733e-06, 4.4413540308596566e-05, -5.047393642598763e-05, 3.246514097554609e-05, 2.4523767933715135e-05, -0.0005587984342128038, -1.741569758451078e-05, -6.4651226239220705e-06], [3.3066546166082844e-05, 1.0079320418299176e-05, 5.172150849830359e-06, 0.00010922456567641348, 4.134260962018743e-05, 4.025795715278946e-05, 1.446499300072901e-05, 0.0001676124520599842, 4.677174729295075e-06, 1.4163767446007114e-05, 1.897744914458599e-05, 8.6867185018491e-06, -1.5956242350512184e-05, -7.375473614956718e-06, 3.478372718745959e-06, -2.3748518287902698e-05, 2.8219856176292524e-05, -8.41485962155275e-05, -5.93123804719653e-05, -0.00012812291970476508, -1.6107747796922922e-05, 8.773206354817376e-05, -4.4099979277234524e-05, 5.2623530791606754e-05, -4.835400977754034e-05, 3.24260545312427e-05, 3.9635564462514594e-05, -1.07411415228853e-05, 4.918361810268834e-06, -6.075706914998591e-05, -0.00010597369691822678, -4.4006224925396964e-05, 4.312208329793066e-05, -8.964539301814511e-05, 2.15540494536981e-05, 1.1870113667100668e-05, -1.7965272490982898e-05, -7.759672735119238e-05, -6.823507192166289e-06, -2.3524513380834833e-05, -3.752105840248987e-05, 1.7027370631694794e-05, 0.0001117635692935437, 7.827133231330663e-06, -5.982187758490909e-07, -1.726161463011522e-05, -6.419480996555649e-06, -8.942318527260795e-05, 2.7769934604293667e-05, -2.3749173124087974e-05, -3.950600512325764e-05, 8.96930941962637e-06, -3.296168506494723e-05, -2.467316880938597e-05, 5.318393959896639e-05, -2.1197000023676082e-05, -6.439666321966797e-06, 4.1737741412362084e-05, -4.4202410208527e-05, 3.13540076604113e-05, 6.367539754137397e-05, -0.0003300938114989549, 4.424538565217517e-05, -5.265454819891602e-05], [0.00010407339141238481, 0.0003860713914036751, -8.025331771932542e-05, 0.00027428477187640965, 0.00010579417721601203, -0.00023637288541067392, -0.00019068154506385326, 0.0001687142503215, -1.4139128325041384e-05, -0.0002036915539065376, 5.894958303542808e-05, 0.00015347696898970753, 9.362923447042704e-05, 0.0001248853513970971, 0.0002831066958606243, 3.2913561881287023e-05, -8.625772170489654e-05, 0.00017931839101947844, -0.00016576936468482018, -0.0014458586229011416, -8.364733366761357e-05, -8.91674862941727e-05, 9.478884021518752e-05, 0.0002050841139862314, -8.390854054596275e-05, -0.0001301206211792305, -0.00021227117395028472, -0.00016317059635184705, -8.246832294389606e-06, -4.645478475140408e-05, 0.00022770687064621598, 1.769319351296872e-05, 0.0002587767376098782, 0.00013166772259864956, -0.00013071384455543011, 8.441542740911245e-05, -0.00022466565133072436, -0.00012592010898515582, -4.0380360587732866e-05, 7.996401109267026e-05, 0.00012112950207665563, 2.4862789359758608e-05, -0.0003938479349017143, -0.00011701119365170598, -0.00022221266408450902, -9.824281733017415e-06, -0.0002683927014004439, -8.5806219431106e-05, 0.0002325426903553307, 0.0003747236914932728, -8.030564640648663e-05, -1.1717385859810747e-05, 0.0001414963189745322, -0.00010964041575789452, 0.00036448828177526593, 0.0001874441804829985, -7.131138409022242e-05, 5.8944169722963125e-06, 0.00013441414921544492, 0.00025569822173565626, -8.972629439085722e-05, -0.000457493937574327, -0.0001834665599744767, -8.204249752452597e-05], [0.00019130004511680454, 0.00048567293561063707, 0.00010828302765730768, 0.00011374615132808685, -5.383836105465889e-05, -0.0002125517639797181, -0.00018873874796554446, 0.0008072006748989224, 0.0005703545175492764, 0.00010325181938242167, -8.976100070867687e-05, 0.00045610000961460173, 5.037899245508015e-05, 0.0001992792240343988, 4.396414806251414e-05, 3.5477205528877676e-05, 0.0002282732748426497, 0.00042232993291690946, -0.0008446205174550414, -0.0017868462018668652, -0.00041895784670487046, 8.901223918655887e-05, 0.000621702172793448, 0.00011082911805715412, 2.3779735784046352e-05, 8.472135232295841e-05, -0.0001228035835083574, 0.000142998673254624, -0.0005591452936641872, 0.0002909001777879894, 0.00015351036563515663, 0.0003397181862965226, 0.00045076923561282456, 0.000545763410627842, -0.00015255477046594024, 0.0007046646205708385, -0.0005327912513166666, -0.0007702671573497355, 3.504125197650865e-05, 3.115585423074663e-05, 0.0002574635436758399, -7.806553912814707e-05, -0.0003242752864025533, -0.0007325878832489252, -0.0006115434807725251, 0.00012223172234371305, -0.00010259655391564593, -0.00022894947323948145, 0.0004047738329973072, 0.0006442520534619689, 0.0004934700555168092, -0.00013291527284309268, 0.00022454818827100098, 1.4408040442503989e-05, 0.00028053525602445006, 0.0005283227073960006, -0.0002632552932482213, -5.026548751629889e-05, 0.0004304360190872103, 0.0005908403545618057, 0.0008692901465110481, -0.0016166889108717442, 0.00013932798174209893, -0.00016509246779605746], [-0.0012436159886419773, -0.0005670487298630178, -0.0001837350137066096, -0.0003658777568489313, 0.00020896225760225207, 0.0012981162872165442, 0.00014076996012590826, 0.0006575743900611997, 0.00019324710592627525, 0.00045115628745406866, 0.0003084471100009978, 0.0005817734636366367, 0.00010650821786839515, -0.00039714202284812927, -0.0007676433888264, -0.0002929791226051748, 0.0003537819138728082, -0.00066179787972942, -0.0003649644204415381, 0.0008620201842859387, 0.000691424822434783, 0.0001963200920727104, 0.00036160266608931124, -0.0003840104036498815, -7.489655399695039e-05, 0.00026706032804213464, -0.0003335971850901842, 0.00016048300312831998, -0.00048668330418877304, -0.0003768157330341637, 0.00044833484571427107, 0.00010851898696273565, -9.877138654701412e-05, -0.00045704140211455524, -0.0003261076635681093, -0.000485556956846267, -0.00017520561232231557, -0.000742431147955358, 0.00022733546211384237, -0.0009779055835679173, -0.0005353110027499497, 0.00045809114817529917, 1.2385309673845768e-05, -0.000841377186588943, -3.856443800032139e-05, 0.000772405881434679, 8.163307211361825e-05, 0.0012843578588217497, -0.0001073530875146389, 0.00017213128739967942, 0.0012339077657088637, 0.00021305240807123482, -0.0005460550310090184, 0.00034530609264038503, 0.0008173829410225153, 0.00021219220070634037, 0.001233137329109013, -0.00036377590731717646, 0.0005778086488135159, 0.0002767713158391416, 0.00041222875006496906, 0.0010592839680612087, 4.95718268211931e-05, -0.000730171159375459], [-6.790796760469675e-06, -0.0015950349625200033, -1.0284617019351572e-05, 0.0013260848354548216, 0.00026487806462682784, 0.00020090003090444952, -0.00012312157195992768, 0.0009833048097789288, 3.7448662624228746e-05, -0.00082590855890885, -0.00022016518050804734, -0.0022778373677283525, 0.00015087725478224456, 8.062244160100818e-05, -0.0006563769420608878, -0.0008021626272238791, 0.0008266522781923413, 0.001532246358692646, -0.0014727885136380792, 4.2577681597322226e-05, -2.704236248973757e-05, -0.0008314337464980781, 0.000519645749591291, -0.00010936468606814742, -0.0001472828007536009, -0.0008047900628298521, -0.00027587515069171786, 0.0002182520693168044, -0.0011566116008907557, 0.0013027486857026815, -0.00047122922842390835, -0.0004296588012948632, 0.0004556016356218606, 0.0011621189769357443, 9.279034566134214e-05, 0.000351605995092541, -0.0005453695775941014, -0.0011103784199804068, 0.00031995572498999536, 0.00028331682551652193, 0.0003170451382175088, -0.0005590846412815154, 0.000503135786857456, 0.00024233348085545003, -0.0014254457782953978, -0.0003592920838855207, 0.00017503550043329597, 0.0005988402408547699, 0.0002983938029501587, 0.00039926651515997946, 0.0013758963905274868, 0.00011112954234704375, 0.0015443793963640928, -0.0006059756851755083, -0.0010848608799278736, -9.963185584638268e-05, 0.0015830527991056442, 0.00019417150178924203, -0.0005935490480624139, 0.0007821412291377783, 7.691212522331625e-05, 0.0024940650910139084, 0.00026388856349512935, -0.00019665839499793947], [0.0003321608528494835, 0.00036805306444875896, -0.0009376845555379987, 0.0030152194667607546, 0.001457946840673685, 0.00012040883302688599, -0.00034287129528820515, 0.000246796989813447, -0.0026281322352588177, -0.0005749364499934018, 0.0002602907479740679, -0.0017782343784347177, -0.001165009685792029, 0.0019232947379350662, 0.0007116390625014901, 7.904961239546537e-05, -0.0021994540002197027, -0.0009049890795722604, -0.0035586163867264986, -0.0027746872510761023, 0.000773073872551322, -0.0010451372945681214, -0.0006186641403473914, -0.0006532351253554225, 0.0010400426108390093, 0.00037068224628455937, -0.0009778657695278525, 0.00045535905519500375, 0.0008167836931534111, 0.0006000535213388503, 0.003481711260974407, -0.00011093041393905878, -0.001214795047417283, -0.00041905941907316446, 0.0012438941048458219, 0.0006324056885205209, -0.0003698997024912387, 0.00042389152804389596, 1.6518752090632915e-06, -0.0010192327899858356, 0.0002973254304379225, -0.001981328474357724, -0.0019596770871430635, 0.0010280660353600979, 0.0039029691834002733, 0.0014397103805094957, 0.0005974756786599755, -0.0002066373563138768, 0.0003429217031225562, 0.00035642122384160757, 0.00016337783017661422, -0.0020606042817234993, 0.0004206101002637297, -0.00025585066759958863, -0.0003750621690414846, -0.0016454511787742376, -0.0012451345100998878, -0.0009187658433802426, -0.0004065602261107415, 0.0005522207356989384, -0.00045688950922340155, -0.006952190771698952, -0.003158206818625331, 0.00017409365682397038]], [[0.0017633354291319847, 0.0029971005860716105, -7.510682917200029e-05, 0.0018259268254041672, 0.0007145741255953908, -0.00014670740347355604, 5.1542614528443664e-05, -0.00036601832835003734, -0.001146775553934276, 5.305945887812413e-05, 0.0024991403333842754, 0.001874134293757379, 0.0018916322151198983, 0.00038464361568912864, 0.0014314623549580574, -0.001690909848548472, -0.0007616993971168995, -5.758169572800398e-05, -0.00031011103419587016, 0.007275324780493975, 0.00037748279282823205, 0.0006560289766639471, -0.00021376517543103546, -0.002101727295666933, -0.00043592340080067515, 0.0009965114295482635, 0.0012602320639416575, 0.0007597468793392181, -0.0002818583161570132, 0.0005773823941126466, -0.0011483909329399467, 0.00010629332973621786, -0.001678133150562644, -0.0020904247649013996, -0.0002668777306098491, 0.0006372898351401091, 0.0007252359646372497, 0.0006188378902152181, 8.878346852725372e-05, 0.0008643628098070621, -0.003686807118356228, 0.0003445693291723728, -0.0010760314762592316, -7.084081880748272e-05, 0.0010981368832290173, 0.0012665742542594671, 0.00026453210739418864, -3.114671562798321e-05, -0.00042955536628142, -0.0007278014090843499, -0.0011194092221558094, 0.0011330695124343038, 0.0013209257740527391, -0.00045814638724550605, -0.0006994252325966954, -0.0013907457469031215, -0.0007049780688248575, 0.0013004275970160961, -0.0010097569320350885, -0.00029854942113161087, -0.00038584016147069633, -0.0027131508104503155, -0.0004007819516118616, 0.0008897912921383977], [-5.032537956140004e-06, 6.010329798300518e-06, -2.3863781279942486e-06, -3.0730395792488707e-06, 2.96484074624459e-07, -1.5610490891049267e-06, 2.76804598797753e-06, 2.1350278984755278e-06, 2.631739732805727e-07, -3.430009655858157e-06, 5.583599431702169e-06, 2.026772790486575e-06, 4.562187314149924e-06, 3.461968844931107e-06, -7.165782790252706e-06, -1.7189444179166458e-06, 1.5105123907233065e-07, 8.115431228361558e-06, -6.995147487032227e-06, -3.4318100006203167e-07, -8.925117072067223e-06, 4.015882950625382e-06, -7.274438758031465e-06, -5.1908987188653555e-06, -8.379131031688303e-06, -6.257124368858058e-06, 2.3169313863036223e-06, -4.193937911622925e-06, -4.6877886461516027e-07, 2.7572700673772488e-06, 6.510849289043108e-06, 3.986576302850153e-06, 9.736934316606494e-07, 1.5416204632856534e-06, -7.386384481833375e-07, 5.891185423934076e-07, 4.1259045246988535e-06, 5.425045856100041e-06, 7.395203283522278e-06, -1.4716063105879584e-06, -1.316789507654903e-06, -5.21971060152282e-06, 4.543549948721193e-06, 4.119133336644154e-06, -2.2147419258544687e-06, -3.449709311098559e-06, -2.795476120809326e-06, 3.665310941869393e-06, 1.5356874882854754e-06, 3.443651394263725e-06, -2.75620118372899e-06, -3.1157853186414286e-07, 5.3870189731242135e-06, -9.940260497387499e-06, -8.191263987100683e-06, -9.832441719481722e-06, 5.745300200032943e-07, 4.068722319061635e-06, -1.2891287042293698e-06, 6.414221388695296e-06, 5.919486056882306e-07, 6.923482487763977e-06, -7.858225217205472e-06, -5.114507075631991e-07], [-9.562479135638569e-06, -2.4977942302939482e-05, -5.733015768782934e-06, -7.475408438040176e-06, 3.982432644988876e-06, 4.909047675027978e-07, -7.438932243530871e-07, 4.220412392896833e-07, 1.9087661712546833e-05, 2.6692869141697884e-06, -3.204258609912358e-05, -1.1171961887157522e-05, 9.818546459428035e-06, -3.426566195230407e-07, -2.0817013137275353e-05, -6.109913215368579e-07, 1.3927901818533428e-06, -9.185203452943824e-06, -7.2751381594571285e-06, 0.00018177686433773488, 6.494863555417396e-06, 5.05911884829402e-06, -3.481386102066608e-06, 4.409864232002292e-06, -5.028381906413415e-07, 5.9712028814828955e-06, 8.798696399026085e-06, 4.131530658924021e-06, -1.386800818181655e-06, 2.0542570382531267e-06, 8.255818784164148e-07, -6.8317176555865444e-06, -4.2108331399504095e-06, 1.90485043276567e-05, -8.705897016625386e-06, 1.5414251492984476e-06, 5.831327143823728e-06, -2.6777497623697855e-06, -1.3945113096269779e-05, -5.363909622246865e-06, -5.146063813299406e-06, 4.108371740585426e-07, 4.312221790314652e-06, 1.780515958671458e-06, -1.8641057977220044e-05, 1.474073087592842e-06, 1.040455344991642e-06, 5.0635894695005845e-06, 1.3326010730452253e-06, 1.22871017538273e-06, 1.3585976375907194e-05, -1.3390995263762306e-06, -5.694799256161787e-06, -1.8322867617825978e-05, -1.5842733773752116e-05, -2.9796733542752918e-06, -4.1378990545126726e-07, 1.6255675291176885e-05, -2.619803126435727e-06, 1.0048468539025635e-05, -5.058320766693214e-07, 0.00011371859727660194, 7.590902441734215e-06, -8.81037976796506e-06], [7.64488650020212e-05, -0.00010302515875082463, 9.749230230227113e-06, 1.9027755115530454e-05, 4.722122321254574e-05, 9.308932931162417e-06, 1.3380178643274121e-05, -0.00012232153676450253, -5.056084773968905e-05, -2.5791108782868832e-05, -3.650194048532285e-05, 5.6513592426199466e-05, 4.043398075737059e-05, -1.764823537087068e-06, -4.680435813497752e-05, 5.862290345248766e-05, 2.9834425731678493e-05, 9.566570952301845e-05, 5.4216776334214956e-05, -0.00013532332377508283, 8.812578744255006e-05, 3.4942182537633926e-05, -0.00010896611638600007, -0.00010597265645628795, -3.182559157721698e-05, -1.7705086065689102e-05, -4.993904076400213e-05, -3.85585444746539e-05, 7.613146590301767e-05, 4.605314461514354e-05, 9.728259101393633e-06, 1.6100428183563054e-05, -4.341053863754496e-05, -2.205645796493627e-05, -7.493710290873423e-05, -2.3430276996805333e-05, 4.821024413104169e-05, 0.00012014141248073429, 2.1684645616915077e-05, -6.2959620663605165e-06, -1.0191470209974796e-06, 1.5775212887092493e-05, -3.236496195313521e-05, -4.2153100366704166e-05, -1.0640998880262487e-05, 0.0001335543638560921, 4.523154711932875e-05, -2.8743903385475278e-05, -1.7640595615375787e-05, -1.8875181240218808e-06, -2.030970972555224e-05, 6.93492402206175e-05, -2.8421662136679515e-05, 6.104316980781732e-07, 1.6581014278926887e-05, -6.11983414273709e-05, -2.4090695660561323e-08, -6.096666038502008e-05, 5.296375093166716e-06, -7.488895062124357e-05, -0.00018254652968607843, -0.0009264147374778986, -8.035422797547653e-05, -3.432545781834051e-05], [-2.7483320081955753e-05, -0.00047090044245123863, -0.00027046192553825676, 0.0002964515588246286, 8.586994954384863e-05, 0.00036564795300364494, -0.0005257140146568418, 0.00017172881052829325, 0.00027409777976572514, 0.0003391043865121901, -0.00022124683891888708, -0.0009728457080200315, -1.8442500731907785e-05, 0.0005979781271889806, 0.0003730481257662177, 9.119760943576694e-05, 0.00011784103116951883, 0.0002943923755083233, 0.00012481492012739182, -0.0009879565332084894, -0.0011654736008495092, -7.146492134779692e-05, -0.0002821226080413908, 0.00017211017257068306, -0.00015466977492906153, -0.00022377888672053814, -0.0002583205932751298, -0.0005644899792969227, -6.440684228437021e-05, 0.00018753287440631539, -8.889578748494387e-05, -0.00035744160413742065, 0.00033926061587408185, -0.0003829989582300186, 0.0002591507218312472, 0.00013680060510523617, -0.0004549253499135375, 0.0003397502296138555, -3.578404721338302e-05, 0.0005619461880996823, -0.00039912667125463486, -0.00012188595428597182, 0.0002356451004743576, 0.0006829609628766775, -6.689086148981005e-05, 0.00022926369274500757, -0.00022257663658820093, -0.0003886734484694898, 0.00019403551414143294, 0.00018699235806707293, -0.0002750350977294147, -0.00011612525850068778, -0.0002589347423054278, 0.00024378803209401667, 1.17214658530429e-05, -0.00027261569630354643, -0.00017052862676791847, 0.0007500892388634384, -0.0001912840234581381, -0.00010052625293610618, -0.0005381616647355258, -0.0009141858899965882, 0.0003741227264981717, -0.00023028504801914096], [-0.00015044293832033873, 0.00021855172235518694, -0.000518305751029402, -0.0010650625918060541, 0.0002847595897037536, -0.0009082406759262085, -0.00011528070172062144, 0.0007448402466252446, -0.0014031212776899338, 0.0007643982535228133, 0.0011089752661064267, 0.0014247954823076725, -0.00024564022896811366, 0.00013350960216484964, 0.00029539113165810704, -0.0009484004694968462, 0.0009216381586156785, -0.0012880736030638218, 0.00018580167670734227, -0.0007216446101665497, -0.001957413274794817, 0.00018283187819179147, 0.0013178361114114523, -0.00047002159408293664, 0.0003423347370699048, 0.00026408108533360064, -0.00020479127124417573, 0.0002516364911571145, 0.0005413270555436611, 0.001058484660461545, -0.0003126263909507543, 0.0005455107893794775, 0.00013791117817163467, 0.000442343793110922, 0.0008827979909256101, -7.839086902095005e-05, -0.0011576737742871046, -0.000637017423287034, -4.810848622582853e-06, -0.0007782872417010367, -0.0011933875503018498, 0.000206035518203862, -0.0009195246384479105, 0.001891971449367702, 0.00019261232228018343, -0.00039988107164390385, -0.000551845645532012, -0.00033087912015616894, -5.5931173847056925e-05, 0.00036642677150666714, 0.0015344556886702776, -0.0008988499757833779, 0.0005867952131666243, 0.0003139060572721064, 0.0008273442508652806, -0.0006336549995467067, -0.001325355377048254, 0.00015100915334187448, 0.00025152883608825505, 2.9237009584903717e-05, 0.00013302871957421303, -0.0004034929443150759, -0.0008811072912067175, -0.00018746202113106847], [-0.0008396796183660626, -0.0007413121638819575, -9.04444168554619e-05, -0.0012416442623361945, 0.00013781210873275995, -0.000649085792247206, 2.4316555936820805e-05, -0.0012446263572201133, -0.0018408119212836027, -0.00032696808921173215, 0.0013820016756653786, 0.000678821699693799, 0.0006701525999233127, 0.0012929952936246991, 0.00035223085433244705, 0.000359457015292719, -0.0005854167393408716, 0.0004900852218270302, -0.001017819275148213, -0.0011467657750472426, 0.00030900121782906353, -0.001580515643581748, -0.0006917808786965907, -0.001526525942608714, -0.0012148752575740218, -1.3840472092851996e-05, 5.72680146433413e-05, -2.0709892851300538e-05, 0.0014774505980312824, -0.00025705841835588217, 0.0010422985069453716, -0.0013863802887499332, -0.0009054853580892086, 0.0006696943310089409, 0.0008374179597012699, -0.001511434093117714, 0.0013145924312993884, 0.0006935047567822039, 0.0005224483902566135, -8.092750795185566e-05, 0.0015347333392128348, -0.00030764422263018787, -0.0013891318812966347, -0.0008766232058405876, -0.0004265936149749905, 0.0005935985827818513, 0.0003600976779125631, -0.0010782043682411313, 0.0007543907267972827, -0.00039286003448069096, 0.00022906021331436932, 0.0029978512320667505, 0.0003886896593030542, -0.0011963773285970092, -0.0006378582329489291, -0.00023435309412889183, 0.0006866164039820433, -0.0006377155659720302, 5.1082170102745295e-06, -0.0002506264136172831, -0.0005814096075482666, 0.0022253156639635563, 0.0002372641465626657, -0.0026612593792378902], [-4.0857994463294744e-06, -0.0015653778100386262, 0.00037368087214417756, 0.0009875213727355003, 0.0008105852175503969, 0.0017390596913173795, -0.0006551410770043731, 0.00030744471587240696, 0.002237515989691019, -0.00027959566796198487, 0.0007467633113265038, -0.004242371302098036, -0.0005049343453720212, -0.0003320018877275288, -0.00040862816968001425, -0.0020182570442557335, 0.0021145713981240988, 0.0007217066013254225, 3.2114447094500065e-05, -0.007088132668286562, 0.00029627809999510646, 0.00013810934615321457, 0.0015376931987702847, -0.0012935494305565953, -0.0004094507312402129, -0.00011598842684179544, -0.00043082100455649197, -0.00035630323691293597, -0.0018631953280419111, 0.0004921122454106808, -0.0015612441347911954, -0.001337673980742693, 0.0013516417238861322, 0.00019051690469495952, -0.0006135957664810121, 0.0001096221967600286, 0.0005165645852684975, 0.000685720588080585, -0.0003933410334866494, -0.0004081379156559706, -0.0012754274066537619, 0.00019824033370241523, 0.0008155677933245897, -0.001691452576778829, -0.0009255117038264871, -0.00023832668375689536, -0.0006438390119001269, 0.00040050892857834697, 0.0006931023672223091, 0.00027850313927046955, 9.402501746080816e-05, -0.0001639935653656721, -0.000715535890776664, 0.0013281325809657574, 0.000909895752556622, -6.181765638757497e-05, -0.00047382188495248556, -0.00032906094565987587, -0.0010169692104682326, 0.0005052778869867325, 0.00033961370354518294, -0.0030413554050028324, 0.0007685478194616735, -0.0011261708568781614], [-2.7698330086423084e-05, -5.967352990410291e-06, 5.2955667342757806e-05, 3.640717841335572e-05, -2.9544567951234058e-05, -2.438367300783284e-05, -2.1202053176239133e-05, 6.446582119679078e-05, -4.5867025619372725e-05, 2.024889545282349e-05, 3.5008224585908465e-06, -1.2910713849123567e-06, 2.5224406272172928e-05, 5.582976154983044e-05, 1.4142161489871796e-05, -6.660159124294296e-05, -2.12106024264358e-05, 5.3059608035255224e-05, 9.404460433870554e-05, -0.0002998434065375477, 3.263698090449907e-05, -3.45430125889834e-05, -2.7010806661564857e-05, 5.239841266302392e-05, 0.00010290355567121878, 4.182951670372859e-06, 1.756767596816644e-05, -9.08882575458847e-05, -4.824689312954433e-05, -1.5189281839411706e-05, 7.351084605033975e-06, -5.501884515979327e-06, 1.8052060113404877e-05, 5.972709186607972e-05, 2.3336515369010158e-05, 3.09447968902532e-05, -3.828330955002457e-05, -1.815868563426193e-05, 2.038299135165289e-05, -6.425977971957764e-06, -3.786305751418695e-05, -2.1400181140052155e-05, 5.3693838708568364e-05, -2.2711028577759862e-05, 7.041021035547601e-06, 4.046158937853761e-05, -1.4256952454161365e-05, -4.8134548706002533e-05, 0.00011901081597898155, 3.6368828659760766e-06, 9.301707905251533e-05, 2.8423667117749574e-06, -5.42642010259442e-05, -3.172226206515916e-05, -4.7317633288912475e-05, 2.3439568394678645e-05, 1.7840377040556632e-05, -3.151968849124387e-05, 5.283462814986706e-05, -4.093201641808264e-05, 5.405849515227601e-05, -0.00024496394325979054, 2.2223139239940792e-05, -4.383506893645972e-05], [-4.037952749058604e-05, -1.8994765923707746e-05, 6.201599899213761e-05, -9.134506399277598e-06, -7.071143772918731e-05, -3.853784437524155e-05, -6.1712325987173244e-06, 0.0002117341209668666, 3.0414499633479863e-05, 3.958935121772811e-05, 1.799458550522104e-05, 2.569744538050145e-06, 8.758185867918655e-05, 7.662249845452607e-05, 5.168744610273279e-05, -1.7811107682064176e-05, -1.7648597349761985e-05, 3.905910125467926e-05, -8.425428859482054e-06, 0.00036454101791605353, 4.476569301914424e-05, -5.681382754119113e-05, -6.772235792595893e-05, 3.975615982199088e-05, 0.00013862941705156118, 1.009784682537429e-06, 7.81931885285303e-05, -0.00010097844642587006, -1.6336569387931377e-05, -0.0001033405278576538, 3.1112751457840204e-05, -5.668495941790752e-05, -2.4878001568140462e-05, 0.0001546835119370371, 3.948964149458334e-06, 7.191835902631283e-05, -1.5587165762553923e-06, -8.455163333564997e-05, 2.3573064027004875e-05, -1.387062275171047e-05, -1.5358567907242104e-05, 8.961002095020376e-06, 7.619826646987349e-05, -1.5473615349037573e-05, -5.1034447096753865e-05, 0.00012397472164593637, -2.6820712264452595e-06, -8.771210559643805e-05, 0.00012093622353859246, -1.804395651561208e-06, 0.000169743099831976, 1.441401764168404e-05, -2.4926404876168817e-05, -6.069954906706698e-05, -8.038545638555661e-05, 8.936529775382951e-05, 8.3906103100162e-05, 6.376452802214772e-05, 4.981033634976484e-05, -3.356595698278397e-05, 0.00010956144251395017, 0.00021647194807883352, 8.630413503851742e-06, -5.565669198404066e-05], [-4.284891110728495e-05, 0.00019737805996555835, -2.487252641003579e-05, -5.210460949456319e-05, 9.926866187015548e-05, -0.00033749607973732054, -9.332204353995621e-05, 5.568530468735844e-05, 0.00019390314992051572, 5.9459191106725484e-05, -2.0251081878086552e-05, 5.884520578547381e-05, -1.2045245966874063e-05, -4.189250466879457e-05, -4.057498517795466e-05, 7.188391464296728e-06, -2.7008085453417152e-05, 3.482009924482554e-05, 1.5209712728392333e-05, -0.0006726477295160294, 8.73562166816555e-05, -7.29877720004879e-05, -0.0003341896808706224, 0.0001489625428803265, 0.0002209033991675824, -5.7228669902542606e-05, 4.858360625803471e-06, -1.8553440895630047e-05, 0.0001819155877456069, -0.00020991344354115427, 6.387379107763991e-05, 0.0001415473670931533, 3.155779995722696e-05, -0.00037894543493166566, -2.5136016120086424e-05, 0.0003117341548204422, -0.00017503216804470867, -0.00043210608419030905, 4.388724482851103e-05, 0.00015759089728817344, 0.0003429597709327936, 0.00013736302207689732, -0.0002621706807985902, 0.0002565630420576781, 0.00010159059456782416, -6.283808761509135e-05, -0.00016096443869173527, -7.890556298661977e-05, 0.0002325713139725849, 2.6496210921322927e-05, 6.582956848433241e-05, 8.35996397654526e-05, -3.632307198131457e-05, -3.792270945268683e-05, -4.4385094952303916e-05, 5.5449752835556865e-05, 4.609169263858348e-05, -5.270610563457012e-05, 0.0002462420961819589, 0.00012742196850012988, -9.766513539943844e-05, 0.00024045244208537042, -8.45331305754371e-05, 3.6053446820005774e-05], [0.00026875216281041503, -0.0002553063677623868, 0.00029363890644162893, 3.0112292733974755e-05, -4.6420424041571096e-05, -0.0004205917357467115, 4.24441386712715e-05, 0.0009875430259853601, 0.0004231808998156339, 0.0001983283436857164, -0.00011181212175870314, 0.0008586548501625657, -1.766508648870513e-05, 7.053546141833067e-05, -9.323307313024998e-05, -0.00036535150138661265, 0.00029191968496888876, 0.00017722421034704894, -0.00031762965954840183, -0.0013808030635118484, -0.0004993524635210633, 5.049838364357129e-05, -0.00047330878442153335, -7.359523442573845e-05, 0.0005250321701169014, -1.6529140339116566e-05, 0.00026773326680995524, 0.0001793661358533427, -0.00010709617345128208, 6.680382648482919e-05, 7.853089482523501e-05, 0.0003149928234051913, 0.00023651878291275352, 0.00011721588089130819, -0.00019904630607925355, 8.595414692535996e-05, -0.00027134057017974555, -0.0007070294232107699, -4.7160210669972e-05, 0.00011240869935136288, 3.306013240944594e-05, -7.923469092929736e-05, 0.0003769464383367449, 0.0006697708158753812, -0.0003925626224372536, 3.0442417482845485e-05, -0.00018631757120601833, 0.0005628302460536361, 0.00024987198412418365, -3.256156196584925e-05, 0.0003299747477285564, -0.00024112289247568697, 2.049044269369915e-05, 0.0001319970760960132, -0.0002557970001362264, 0.00036895915400236845, 3.981491317972541e-06, 0.0004800236492883414, 0.0006668301066383719, 0.00045081161078996956, 0.0008872251491993666, 0.0018909218488261104, 0.0002888001617975533, -0.0002753124572336674], [-0.0007522617233917117, -0.000322177103953436, 0.00023060374951455742, -0.0007255002856254578, -4.1410617996007204e-05, -0.0009826089954003692, -0.0003082158509641886, 0.001624442171305418, 7.920077769085765e-05, -0.00014144289889372885, 0.0009814755758270621, -0.0010162575636059046, 0.001213019248098135, 0.0017462774412706494, 0.00021391527843661606, -0.0006488538929261267, 0.00022847240325063467, 0.000655618729069829, -0.00020243803737685084, -0.0009820816339924932, -0.0005610229563899338, 0.0002451963082421571, 0.0005429519806057215, 0.0005553411901928484, 7.308222120627761e-05, -0.0003511591930873692, 0.00014654561528004706, -0.0002269698743475601, 0.0006861347355879843, 0.0003713137120939791, 0.0012997970916330814, -3.408786142244935e-05, -0.0006460152799263597, -0.00019027930102311075, 0.00047398495371453464, 4.735367838293314e-06, -0.0003701826499309391, -9.603085345588624e-06, -0.0002991266956087202, 0.0006894937250763178, -0.001264696242287755, -0.00044268532656133175, -0.00040498387534171343, 0.0009010891662910581, 4.5063323341310024e-05, 8.433131733909249e-05, -0.0006828327313996851, 0.00044079049257561564, 0.0002546027535572648, 0.0004095638869330287, 0.0010296455584466457, -9.412087820237502e-06, -0.00026520274695940316, -0.00013199096429161727, 0.000749656930565834, -0.0005448275478556752, 0.00035500447847880423, 0.00026033027097582817, 0.0007526755798608065, -0.00028911905246786773, 0.0014812463195994496, -0.0006079403101466596, -0.0004175752110313624, -0.000792585255112499], [-0.0008152237278409302, -3.868329804390669e-05, 8.574598177801818e-05, 0.0008476721122860909, 0.0009229015558958054, -0.0007500576903112233, 0.0009052091045305133, -0.0002935896045528352, 0.0008434863993898034, -0.00046932490658946335, -0.0010715082753449678, 0.0008665385539643466, -0.000586371636018157, -0.00014750423724763095, -0.0005492372438311577, -0.0005690616089850664, -0.00042499497067183256, -0.0002744700759649277, 0.00016545617836527526, 0.0008138625416904688, 0.0008646430214866996, -0.0004434503789525479, -0.000778615940362215, -0.0005551226204261184, -3.390450729057193e-05, -0.0008849696023389697, -0.00014534045476466417, 0.0006522071198560297, -0.00014466280117630959, 0.00046865889453329146, 0.0016425668727606535, -0.00034151101135648787, 0.0009196136379614472, 4.2506319005042315e-05, -9.631439752411097e-05, 0.0012456204276531935, -0.0017058863304555416, -0.000876412377692759, 0.0018103081965819001, 0.001973369624465704, 0.0013275293167680502, 0.00034873175900429487, 0.0002222858602181077, -0.000753479078412056, -0.0006786443991586566, -0.001605096273124218, 0.0009491158416494727, 0.00011131655628560111, -0.0009843555744737387, -0.00018903962336480618, 5.4743068176321685e-05, -8.588554192101583e-05, 4.316966806072742e-05, 0.0012049744836986065, -0.001240340294316411, 0.0005196355050429702, -0.0012731845490634441, 0.00013666832819581032, -0.00012645701644942164, 0.0004477448237594217, 0.000270803808234632, -0.00011999970593024045, 0.0012159744510427117, 0.0007048726547509432], [0.0002754583256319165, 0.00044406706001609564, -0.0010533835738897324, 0.002965504303574562, 0.0013001577463001013, -3.109104000031948e-06, -0.0005099691916257143, 0.00015966861974447966, -0.0027552624233067036, -0.0008094572112895548, 5.777145270258188e-05, -0.0015539854066446424, -0.00038198637776076794, 0.0017969354521483183, 0.001531472196802497, 0.0002155147958546877, -0.003696040017530322, -0.00040685595013201237, -0.003526562126353383, 0.000944856961723417, 0.0018975671846419573, -0.0010013137944042683, -0.001462546642869711, -0.00045301724458113313, 0.0010014906292781234, -0.0011149455094709992, -0.0014665515627712011, 0.00019737804541364312, 0.0007522407686337829, 0.0003149736439809203, 0.0034806979820132256, -9.083026088774204e-05, -0.0011182342423126101, -0.0001752804237185046, 0.0013050967827439308, -0.0004373728297650814, -0.00047740788431838155, 0.0005117693217471242, -6.662559462711215e-05, -0.000956724165007472, 0.00029415442259050906, -0.0028951491694897413, -0.0018506089691072702, 0.001108116819523275, 0.004030706360936165, 0.0014218452852219343, 0.0005385514232330024, -0.0002262096240883693, 0.0001746889902278781, 7.980206282809377e-05, -0.0001397632877342403, -0.0009048883221112192, -0.00010900275083258748, -0.00164204859174788, -0.0015646687243133783, -0.0018117662984877825, -0.0014504354912787676, -0.0015635248273611069, -0.00020439070067368448, 0.0005705353687517345, -0.0012283229734748602, -0.00543980672955513, -0.0031534559093415737, -0.00016242769197560847]], [[-0.0016252545174211264, 0.00021690764697268605, 0.00028244516579434276, 0.0003368930774740875, 0.0004132644971832633, -0.00021078325517009944, -0.0004638669197447598, 0.0005026454455219209, 0.00016420218162238598, 0.001282345037907362, 0.0019494047155603766, -0.0010364358313381672, 0.000879230909049511, 0.00227192509919405, 0.00099516985937953, -0.000388022162951529, 0.0016724427696317434, -0.0005116782267577946, 7.54982465878129e-05, 0.0028165997937321663, -0.0007055110181681812, 0.0007390719256363809, 0.0001612009946256876, -0.001289475243538618, -0.00021733441099058837, -0.0005453198682516813, -0.00025566742988303304, -0.0006930682575330138, -0.0014548531034961343, 0.00038853060686960816, -0.0007269639172591269, -0.0014471925096586347, -0.0004269413184374571, -0.0013724762247875333, -7.384762284345925e-05, 0.00031203555408865213, 0.0005911078187637031, 0.00047310383524745703, 0.0012720641680061817, 0.0010989310685545206, -0.001970296259969473, -0.0005330120911821723, 0.0003136821906082332, 0.0003663427196443081, -0.0010394660057500005, 0.0007128540892153978, -0.0004902899381704628, -0.00013643861166201532, 0.0009782958077266812, 0.00036588794318959117, -0.00044504707329906523, 0.001093134400434792, 0.0009257887722924352, -0.0003880661679431796, 0.00047732211533002555, 0.0003355304361321032, 0.0010427754605188966, 0.0005476864171214402, -0.0005859899683855474, -6.648250564467162e-05, -0.0006476363050751388, 2.7425761800259352e-05, 0.0014563588192686439, -0.0011465382995083928], [5.16279942530673e-06, 6.717047199344961e-06, -7.671072239645582e-07, 2.609190005387063e-06, -4.984227871318581e-06, 1.5354171409853734e-06, -1.7605341326998314e-06, 8.408342182519846e-06, -2.8738229502778267e-06, 6.870167453598697e-06, 2.3401780708809383e-06, -7.5654875217878725e-06, -3.98702104575932e-06, 2.2322783479467034e-06, -7.079861461534165e-06, 3.801828825089615e-06, -9.180586744150787e-07, 2.049998329312075e-06, -6.779023806302575e-06, 2.6067179987876443e-06, -2.4145731458702357e-06, -7.305264261958655e-06, 2.6906557195616188e-06, -3.960549861403706e-07, -3.077937208217918e-06, 3.154558044116129e-06, -5.085550128569594e-06, -6.122833838162478e-06, -1.1399863524275133e-06, 3.1080837743502343e-06, -1.6388524954891182e-06, -3.6464778077061055e-06, 9.081207281269599e-06, -2.9257630558277015e-06, 6.698420747852651e-06, 3.849178483505966e-06, -3.202199877705425e-06, 1.6959572235464293e-07, 1.8908567653852515e-06, 2.106322654071846e-06, -1.9714250356628327e-06, 9.043214049597736e-06, 4.188778802927118e-06, -3.364912117831409e-07, -3.932613708457211e-06, -2.9712222016087253e-08, -3.107331167484517e-06, -8.994076665658213e-07, 2.021946556851617e-06, 3.2103105240821606e-06, -5.591451554209925e-06, 6.3716865952301305e-06, 2.427692379569635e-06, 5.077122295915615e-06, 3.932591425837018e-06, -1.3521689652407076e-06, -5.002073066862067e-06, 5.148123364051571e-06, -3.0019302812434034e-06, -1.352197386950138e-06, 3.9162154052974074e-07, 3.7624890865117777e-06, -2.8705426302622072e-06, -1.9420731405261904e-06], [-7.95711275713984e-06, 1.8349892343394458e-05, -6.760453743481776e-07, -1.989230077015236e-05, -3.198292461092933e-06, 6.225864126463421e-07, -1.6523365047760308e-05, -1.6093582644316484e-06, 2.3709697416052222e-05, 7.2113252826966345e-06, -2.245477298856713e-05, -2.8941126402060036e-06, -1.5163405805651564e-05, 9.824350399867399e-08, -7.151785666792421e-06, 8.028569595808221e-07, 7.589927463413915e-06, -9.342167686554603e-06, 3.626860234362539e-06, 5.513080395758152e-05, -3.775584264076315e-05, 4.896857262792764e-06, -6.072201358620077e-06, 2.6933581466437317e-05, -5.8562618505675346e-06, 2.8458239285100717e-06, -2.5891451969073387e-06, 5.78874505663407e-07, -1.0709367415984161e-05, 4.264794370101299e-06, 5.741906079492765e-07, 5.372779469325906e-06, 4.401495061756577e-06, 1.1894342605955899e-05, 1.1457265827630181e-05, -2.69158736045938e-05, -2.0090465113753453e-05, 6.332834345812444e-06, -6.698036941088503e-06, 1.9129332940792665e-05, 1.3998195754538756e-05, -5.943444648437435e-06, -3.7896354569966206e-06, -2.925884473370388e-05, 6.265907472879917e-07, -2.4908782506827265e-05, -2.253785169159528e-06, -2.1320214727893472e-05, -2.8307501906965626e-06, -7.442366722898441e-07, -8.902888112061191e-06, 1.8072693137582974e-06, -8.892578989616595e-06, -4.602297849487513e-06, 2.7397645681048743e-06, -4.130209708819166e-05, 5.498593964148313e-06, 4.113358500035247e-06, 7.359549726970727e-06, 1.6544054233236238e-06, 1.0855736945813987e-05, 1.1047291991417296e-05, 1.0755398761830293e-05, -6.051915534044383e-06], [-4.1567465814296156e-05, -5.374903048505075e-05, 6.060056693968363e-05, 9.966742800315842e-05, 0.00010203194688074291, 5.808489368064329e-05, -2.7571502869250253e-05, -0.00011432500468799844, 1.3385624697548337e-05, -2.4883747755666263e-05, -3.901871241396293e-05, -2.6415184038341977e-05, -9.783310815691948e-05, 2.088739893224556e-05, -7.9617093433626e-06, 4.227618046570569e-05, -3.790970367845148e-05, -2.573859819676727e-05, 1.4881331480864901e-05, -0.0005113754305057228, -0.00010453804134158418, -5.272149792290293e-06, -7.220549741759896e-05, 4.591015022015199e-05, -0.00010492287401575595, 3.4906247492472176e-07, -1.5686831829953007e-05, -2.2560720026376657e-05, -9.97001961877686e-07, -7.228100002976134e-05, -0.0001368717203149572, -0.00010774415568448603, 0.00013547000708058476, -0.00011613738752203062, 4.948351488565095e-05, 2.532907274144236e-05, 3.662054950837046e-05, -5.469841562444344e-05, -4.6191220462787896e-05, 8.941534179029986e-05, 6.741384277120233e-05, -5.3664822189603e-05, 3.0587136279791594e-05, 7.868877219152637e-06, -4.85688287881203e-05, 0.0002495989319868386, -5.394277104642242e-05, -5.399337169365026e-06, 6.840410060249269e-05, -0.0001114646001951769, -9.184466034639627e-05, 7.578406803077087e-05, -7.680465205339715e-05, -3.136241502943449e-05, 9.290376328863204e-05, 4.645424269256182e-05, -0.0002379573998041451, 4.843964416068047e-05, -0.00013191389734856784, 3.0935123504605144e-05, 3.874333560816012e-05, 0.00012364634312689304, -1.489831629442051e-05, -0.00012066341878380626], [0.0008334291051141918, 0.0003330542240291834, 0.0001509137509856373, 4.917693877359852e-05, 0.00013819170999340713, 1.5859550330787897e-06, -0.000237548490986228, -0.00012950363452546299, -7.765036571072415e-05, 0.00016775776748545468, 0.0006695997435599566, -0.00014590623322874308, -0.0004691690264735371, -0.0001476297329645604, 0.000821490422822535, -0.0001588187733432278, -9.029958164319396e-05, 0.00025880735483951867, -0.0004944410757161677, 0.0010654984507709742, 0.00048765080282464623, 0.0002789774152915925, -0.00012324588897172362, 0.00010459891927894205, -0.00010915098391706124, 7.594717317260802e-06, 7.427547825500369e-05, -9.529337694402784e-05, -0.00027540622977539897, 3.38463723892346e-05, -0.0009344805730506778, 2.5875691790133715e-05, -0.00012497557327151299, -0.0004488516424316913, 0.00011019931844202802, 0.0003133086138404906, 0.0007712776423431933, -0.00037568656262010336, -0.00023358868202194571, -0.00019549985881894827, -0.0002725202648434788, 2.85635469481349e-05, 7.797795842634514e-05, 3.275048220530152e-05, 0.0007125431438907981, 0.0004245344316586852, -7.15250862413086e-05, -0.00019796800916083157, -5.232034163782373e-05, -8.76976118888706e-05, -1.946411794051528e-05, -0.00023150068591348827, -9.310957830166444e-05, 5.827867425978184e-06, -9.254345786757767e-05, -0.00017047932487912476, -0.00045418727677315474, 9.203085210174322e-05, -0.00026161293499171734, -0.00012354239879641682, 0.0005495836376212537, -0.0006913444958627224, 0.0002554225502535701, -9.407996549271047e-05], [0.0005459116655401886, 0.0022274309303611517, -0.00011426811397541314, -0.001562301767989993, 0.00012176678865216672, -0.000857891864143312, 0.0008950462797656655, 0.00021824172290507704, -0.00048505549784749746, -6.780020339647308e-05, 0.0006527324439957738, 0.0031230056192725897, -2.2080668713897467e-05, -0.00047476167674176395, 5.7021759857889265e-05, -0.00034517026506364346, 0.00020194100216031075, 0.0015179215697571635, 0.00027008657343685627, 0.00024318345822393894, -0.00046751860645599663, -0.00019885403162334114, 0.0009035930270329118, -0.0015811763005331159, 6.26556429779157e-05, 0.0002301625208929181, 0.00040605320828035474, 0.0003348048194311559, 0.0005704188952222466, -0.00035189755726605654, -0.0004575935599859804, 0.0014211356174200773, -0.002022362081333995, -0.00026216916739940643, 0.00037791638169437647, 0.00011250883108004928, 5.8055265981238335e-05, -0.00016024173237383366, 1.8555467249825597e-05, -0.00036841005203314126, -0.0009211877477355301, 0.0008559003472328186, 3.8180864066816866e-05, -0.0006199851050041616, 0.0011833037715405226, 0.0007197629311122, -0.00015755504136905074, 0.00045411413884721696, -0.00041598064126446843, 0.0021664162632077932, -0.0001249071501661092, 0.00018624274525791407, 0.00012587929086294025, 0.0010467416141182184, 0.00025166277191601694, 0.0012248631101101637, -0.0002246024669148028, 4.3547843233682215e-06, -0.0004151377943344414, 0.00014193270180840045, 0.0014260137686505914, -0.004103540908545256, 0.00021108961664140224, 7.196796650532633e-05], [0.00047774743870832026, 0.0006155509618110955, -0.0004291702061891556, 0.001292235217988491, -0.000534258724655956, -0.0017793977167457342, 9.819131082622334e-05, -6.220265640877187e-05, -0.0015012172516435385, -9.158912871498615e-05, 0.00022192960022948682, 0.0023193596862256527, -0.0008874008781276643, -0.0006997715681791306, 0.0012053116224706173, 0.00048023267299868166, -0.0006094120908528566, 0.00019618525402620435, 0.0012325013522058725, -0.0008044904097914696, -0.0005614922847598791, -0.00019770648214034736, -0.002762033138424158, -0.0022685034200549126, -0.0004379487654659897, -0.0007535992190241814, -0.00030544702894985676, 0.0007096301997080445, 0.0009743318660184741, 0.0006543362396769226, -0.0014128840994089842, 0.0008047171286307275, -0.00042211776599287987, -0.0010780037846416235, 0.0002837524516507983, 0.0004993908223696053, 1.920037902891636e-06, 0.00026720663299784064, 0.0005485391011461616, -0.00013921504432801157, 0.00048546926700510085, -0.0009639680502004921, -0.003114055609330535, 7.299320714082569e-05, 1.3118842616677284e-05, -0.0016245786100625992, -0.0003109842073172331, -0.0011634593829512596, -0.00016459912876598537, -0.00028983617085032165, -0.0017951433546841145, 0.0008233908447436988, 0.00028716237284243107, -0.000241050889599137, -0.0009970490355044603, 0.0012333453632891178, -0.0007777586579322815, -0.00016202320693992078, 0.00018798827659338713, -0.0005306255770847201, 0.0006356909871101379, -0.003282552119344473, 0.0003109863610006869, 0.00010272518557030708], [-8.215982234105468e-06, -0.002242694143205881, 0.0011460137320682406, 0.000680497963912785, 0.0007299003773368895, 0.002349988091737032, -0.0010673209326341748, 0.0010219833347946405, 0.0012927037896588445, -0.00011011329479515553, -1.3648183085024357e-05, -0.001354431500658393, 0.000355166761437431, -0.001001538708806038, 1.5765486750751734e-05, -0.0013925309758633375, 0.000517874606885016, 0.0011080948170274496, 0.0018012247746810317, 0.0015111765824258327, -0.0008312276331707835, -0.00041332648834213614, -2.486019002390094e-05, 0.0010117649799212813, -0.00044651603093370795, 0.0002443358825985342, 0.0007499723578803241, 4.8916786909103394e-05, -0.0008054082281887531, -0.0002032714255619794, -0.0017942347330972552, -0.0014962914865463972, -0.00013808804214932024, -0.0007423441857099533, 0.00044904390233568847, -0.000947404361795634, 9.25491622183472e-06, 0.0004364626365713775, -0.00063034996856004, -2.2834399715065956e-05, -0.002543131820857525, 8.385803084820509e-06, 0.0006258459761738777, -0.0023591797798871994, -0.0021554597187787294, -0.00015587480447720736, -0.00036289385752752423, 0.0007032179273664951, -0.0007575047784484923, -1.7356767784804106e-05, -2.8938335162820294e-05, 0.0003619393100962043, -0.0008728995453566313, 0.0002722714561969042, -0.0009476959239691496, 0.00027111772214993834, -0.0012965595815330744, 0.0018191603012382984, -0.0003395494422875345, 0.0008596013649366796, -0.0006691668531857431, -0.0013004930224269629, 0.0015149647369980812, -0.0012697854544967413], [-4.182441989541985e-05, 0.00014299232861958444, -1.2261534720892087e-05, -0.00012009949568891898, -6.0630132793448865e-05, 1.9102503756585065e-06, 1.293970944971079e-05, 9.719668742036447e-05, -3.243307946831919e-05, 3.769424802158028e-05, 2.066176966764033e-05, 4.9981728807324544e-05, -6.287635915214196e-05, 0.00010411719267722219, 5.369874088501092e-06, 9.109635720960796e-05, -7.404421921819448e-05, -0.00015084932965692133, 1.965749470400624e-05, -9.164858784060925e-05, 2.1683106751879677e-05, -6.0750484408345073e-05, -0.00014745864609722048, 7.439477485604584e-06, -7.651151099707931e-05, 4.7031302528921515e-05, -7.790583185851574e-05, 2.126547769876197e-06, -2.27665022975998e-05, 2.4976596250780858e-05, 2.6575384254101664e-05, 4.304172398406081e-05, 2.199795017077122e-05, -7.753448153380305e-05, -3.827382897725329e-05, -4.207948222756386e-05, 3.404513336136006e-06, 3.459257277427241e-05, 1.239320590684656e-05, 7.297004231077153e-06, -4.5452667109202594e-05, -4.929634087602608e-06, -7.5250500231049955e-06, 0.00017478122026659548, 0.00011058556265197694, 1.2770183275279123e-05, 1.1661878488666844e-05, -2.0211546143400483e-06, -6.146913074189797e-05, -1.0887682947213762e-05, 1.791504109860398e-05, 2.602453423605766e-05, -3.497447687550448e-05, -2.717216921155341e-05, 1.0830914106918499e-05, -4.546176205622032e-05, -6.091244358685799e-05, -6.501609277620446e-06, -6.986543303355575e-05, -4.425703082233667e-06, 1.6416237485827878e-05, -0.0009143233764916658, 3.4118766052415594e-06, 2.1263173039187677e-05], [-0.00011975784582318738, 0.00010828989616129547, 6.660748113063164e-06, -7.684854790568352e-05, -4.691017238656059e-05, 5.582832818618044e-05, 1.9451665139058605e-05, 0.00012438418343663216, 3.1502306228503585e-05, 3.5669181670527905e-05, 2.1937918063485995e-05, 2.788508209050633e-05, -3.502558683976531e-05, 8.48217896418646e-05, -5.277503441902809e-05, 0.00010504017700441182, 3.173545701429248e-05, -0.00010987139103235677, 5.698649329133332e-05, -0.00013597187353298068, 2.225421485491097e-05, -7.481866487069055e-05, -4.563346737995744e-05, 3.448613279033452e-05, -8.041627006605268e-05, 5.626452184515074e-05, -9.853807569015771e-05, 7.341488526435569e-06, -6.124689389253035e-05, 2.1028237824793905e-05, 2.822963688231539e-05, 4.904200250166468e-05, 7.328716310439631e-05, -8.402405364904553e-05, -0.00010860615293495357, -3.789404217968695e-05, 3.7187246562098153e-06, 3.886277409037575e-05, 2.281490878885961e-06, -2.5545450625941157e-06, -6.404283340089023e-05, -3.4560798667371273e-10, 4.924283712171018e-05, 0.00013256810780148953, 6.729756569257006e-05, 8.316923776874319e-05, 1.7842909073806368e-05, 5.0017474677588325e-06, -6.517009023809806e-05, -6.076925728848437e-06, -1.1722513590939343e-05, 3.269738954259083e-05, -4.370066017145291e-05, -5.390393198467791e-05, 1.1082723176514264e-05, 4.480825737118721e-05, -8.052450721152127e-05, 4.156407158006914e-06, -7.119613292161375e-05, 4.1852083086268976e-05, -9.395549568580464e-06, -0.0012714562471956015, 0.00010447344538988546, -1.0279536581947468e-06], [-0.00034017470898106694, 0.00046092033153399825, -8.638477447675541e-05, 0.00048596240230835974, -4.413561327964999e-05, 0.00010081244545290247, 2.7694955861079507e-05, -0.0006804243894293904, 0.00022805746993981302, -5.331588181434199e-05, -3.364718577358872e-05, 0.0006806000019423664, 0.00011515308142406866, -3.8969657907728106e-05, -0.00022423526388593018, 0.0002723730867728591, 0.00018487752822693437, 3.0843119020573795e-05, 0.00034221226815134287, -0.0005499721737578511, -5.641471943818033e-06, -0.00035891146399080753, -0.00029383727815002203, -0.00036027131136506796, -0.0005350428982637823, -6.624744855798781e-06, -4.483519296627492e-05, -7.633018685737625e-05, 0.00016899000911507756, 0.00010289416240993887, -8.498182432958856e-05, 0.000388502114219591, 0.00013596871576737612, -0.0001711291988613084, -0.00021172536071389914, -2.5713809009175748e-05, -8.886244177119806e-05, 0.000285792542854324, 0.0002000184467760846, 0.00017340606427751482, 0.0006360987899824977, 3.126243427686859e-06, 0.0001432459830539301, 5.268415770842694e-05, 3.6876401281915605e-05, 0.00019434202113188803, -8.3844133769162e-07, 3.0433808205998503e-05, -0.00010953481978503987, -4.725551116280258e-05, 6.557456799782813e-07, 6.989046960370615e-05, -0.0002729590341914445, -9.483895701123402e-05, -0.00010390329407528043, -2.0081653929082677e-05, 1.469463313696906e-05, 0.00017064600251615047, -0.0004656684468500316, -0.00016285701713059098, -0.0006084762862883508, -0.0013508780393749475, 2.363701059948653e-05, -3.0959768082539085e-06], [-0.0006268961005844176, -8.085546141956002e-05, -4.8945919843390584e-05, 0.0004034299054183066, 3.243912215111777e-05, 7.41374897188507e-05, 0.00012759068340528756, -0.0002851610188372433, 0.00038041180232539773, 9.149003017228097e-05, 9.486453927820548e-05, 0.0007363668410107493, 0.0008087275200523436, 9.731599129736423e-05, -0.0006483657052740455, 9.122671326622367e-05, -0.000372581765986979, 0.0007362446049228311, 5.7212659157812595e-05, 0.0007416054140776396, 0.0004540920490399003, -9.399551345268264e-05, 0.0010144521947950125, -0.0017915847711265087, -9.092472464544699e-05, 0.0002639393205754459, 0.0002262089983560145, 0.0005761892534792423, 0.0001413465797668323, 0.00010185893188463524, 1.921845250762999e-05, 0.0006348294555209577, 0.00039755008765496314, 0.0003281668177805841, -0.0006676086923107505, 0.00038596283411607146, 0.000381916732294485, -0.0001872773573268205, 0.00043546987581066787, 0.0002243180642835796, -0.00015377142699435353, 0.00014183894381858408, 0.001031332416459918, -5.672820043400861e-05, -0.0002553218510001898, 0.0005789564456790686, 0.0003745010762941092, 0.0006456532282754779, -0.0006464670295827091, 4.13369489251636e-05, 0.00048444262938573956, 0.00017166885663755238, -0.0006018017302267253, -0.0001284149766433984, 0.00025645800633355975, 0.00130425114184618, -0.00037059944588690996, -0.00044086159323342144, 0.0001641901326365769, -7.5467905844561756e-06, 0.0002301208151038736, 0.0005613676621578634, 4.671997157856822e-05, -0.0001893220323836431], [-0.0006240968941710889, -0.00020765172666870058, -6.579922774108127e-05, 2.8117865440435708e-05, 0.0005955483065918088, 0.00026821368373930454, 0.00021220756752882153, 0.001024860073812306, -0.0007776165148243308, 0.0003750573087017983, 0.00019050930859521031, -3.401079447939992e-05, 0.000491664104629308, 0.0005425726412795484, -0.0005139039130881429, -0.00048665067879483104, 0.00037510122638195753, -0.0005055266083218157, -0.0004634566721506417, -0.00051547319162637, 0.002173585817217827, -0.0006337726954370737, 0.0017499327659606934, -0.0007395235588774085, 0.00038260617293417454, -0.0003743078850675374, 0.0005531943752430379, -0.00048391916789114475, 0.0005529351183213294, 0.0004166969738435, 0.00028384762117639184, 0.0006959860911592841, -8.1954276538454e-05, -0.00020910092280246317, -0.0005496705998666584, 9.864874300546944e-06, 0.001001155935227871, 0.00015639275079593062, 0.000760798342525959, -0.0008085676236078143, -0.00023474996851291507, -0.0003682838869281113, 4.596557118929923e-06, -4.039741907035932e-05, -2.994187525473535e-06, -2.643503830768168e-05, 0.0008104868466034532, 0.0015279189683496952, -0.0002852955076377839, 0.0003257476491853595, 0.00014441023813560605, 0.00022478646133095026, -0.0003688543220050633, 1.704546230030246e-05, -0.0002755889145191759, 0.0010019387118518353, -0.00037364137824624777, -0.0006847810000181198, 0.0017045856220647693, 0.001296770991757512, 0.0007881029159761965, -0.0009443428134545684, 0.0001286978367716074, 4.1882682126015425e-05], [-0.00017694222333375365, -0.0017333169234916568, 0.0001680894783930853, 0.0004517521592788398, -0.0002509895130060613, 0.00047504768008366227, -0.0004205034929327667, -0.0009795698570087552, 0.0019822402391582727, -0.0006945483619347215, -0.0013430749531835318, -0.0029791926499456167, 0.002080196514725685, 8.339754276676103e-05, 6.594201840925962e-05, 0.00016253182548098266, 0.002126150531694293, 0.0010103427339345217, -0.0005299079930409789, -0.004017030354589224, 2.6820474886335433e-05, -0.0009602885693311691, -0.000523433496709913, 0.00018258040654473007, 0.0007434349972754717, -3.086362630710937e-05, -0.0003893162647727877, -0.0007529625436291099, -0.00042330933501943946, 2.127810148522258e-06, 0.002910698764026165, -0.0020421689841896296, 0.0011936196824535728, 0.0004385597712825984, -4.6837489207973704e-05, 7.811497198417783e-05, 5.078800313640386e-05, 0.0008075839723460376, -0.0021965326741337776, 0.0013648293679580092, 0.0010042916983366013, -0.0007093212334439158, 0.0015296739293262362, -0.0016984752146527171, -0.0005115746171213686, -0.0007450810517184436, -0.000410298554925248, -0.0012983737979084253, 0.00398866506293416, -0.0022377304267138243, -0.000709492014721036, 0.0009122345945797861, 0.0028636823408305645, -0.0008257849258370697, -7.484806701540947e-05, -0.0002975612587761134, -2.436418435536325e-05, 0.0005403244867920876, -0.0019620293751358986, -0.0005043228738941252, -0.0002958502736873925, -0.007504410110414028, -0.0003177750331815332, -0.0012320306850597262], [0.000785578740760684, 0.0008229758241213858, -0.0010246809106320143, 0.002893236465752125, 0.0009677826310507953, 0.0005367756821215153, -0.0004855258739553392, -1.1592870578169823e-05, -0.0021539207082241774, -0.0009285500855185091, -0.00017715967260301113, -0.002251765690743923, 4.793168045580387e-05, 0.00180069450289011, 0.001896154135465622, 0.0002448244486004114, -0.0035710011143237352, -0.00026142015121877193, -0.003489030757918954, 0.0005906962906010449, 0.0018473370000720024, -0.0009251490118913352, -0.0016398555599153042, -0.0006763605051673949, 0.0007911537541076541, -0.0010289843194186687, -0.0015124480705708265, 0.00010475977614987642, 0.0007536184275522828, 0.0003398014232516289, 0.003340896451845765, -0.00029862229712307453, -0.0008762457291595638, -0.00015206981333903968, 0.0012484292965382338, -0.0003430525539442897, -0.0005110955098643899, 0.0007217196398414671, -0.0004487365949898958, -0.0007249608170241117, 0.00019825526396743953, -0.0029279785230755806, -0.0020411533769220114, 0.0011321438942104578, 0.0038642145227640867, 0.0014020511880517006, 0.00022071157582104206, -0.00033050443744286895, 0.0004391911206766963, 0.00010090866999235004, -0.00011041003017453477, -0.0012127154041081667, 0.0006814018706791103, -0.001596480025909841, -0.0016060699708759785, -0.0017908487934619188, -0.0014663439942523837, -0.0016260322881862521, -0.0002247509837616235, 0.0005311017157509923, -0.0011562812142074108, -0.006247363984584808, -0.0025800017174333334, 0.0002960009151138365]]], [[[0.00031398035935126245, -0.0013120608637109399, -0.0003075570857618004, 0.0007885628147050738, 0.00031895373831503093, -0.0003071988467127085, -0.0009777063969522715, 0.0014852462336421013, 0.0014006078708916903, 0.0013666102895513177, 0.00035896620829589665, -0.0013328714994713664, 0.0010988239664584398, 0.0015764294657856226, 0.001558163552545011, -0.0009905121987685561, 0.000775280175730586, 0.00030728732235729694, -0.0007546034757979214, 0.0016805168706923723, -0.0018758305814117193, 4.16590046370402e-05, -0.00034526456147432327, -0.0029005720280110836, 0.0007306786719709635, 0.0002045254805125296, -8.16358660813421e-05, -0.0005480487016029656, -0.0008895696373656392, 0.0006655678153038025, 0.0013891622656956315, -0.0015049651265144348, 0.00034242167021147907, -0.00015966159116942436, 0.0012108203954994678, -0.00024358820519410074, -3.1699659302830696e-05, 5.199669976718724e-05, 0.0005011606262996793, 0.0005434395861811936, -0.003102282527834177, 0.0006068428047001362, -0.0001943602692335844, 0.0012041209265589714, -0.0009901606244966388, 0.00011156918480992317, -0.0003305847058072686, 0.0001477859914302826, 0.001534752082079649, -0.0003872332745231688, -0.0005325923557393253, 0.001927426434122026, 0.000519963214173913, 0.00010374211706221104, 7.5167627073824406e-06, 0.0011919402750208974, 0.0011588408378884196, -0.00033731729490682483, 0.0018182079074904323, 0.0007646431913599372, -0.0001641324197407812, -0.003682458307594061, -0.0003615249297581613, -0.002020730637013912], [-3.872467459586915e-06, -6.366993147821631e-06, -2.9031377835053718e-06, 1.3444002888718387e-06, -3.2566749723628163e-06, 2.28077988140285e-06, -3.5020116229134146e-06, -2.7893363494513324e-06, -7.310688488360029e-06, -1.820719290890338e-07, 4.8964238885673694e-06, 4.149194865021855e-06, 3.0661772143503185e-07, 2.2940146209293744e-06, 8.10288929642411e-06, 5.035081812820863e-06, 8.685095053806435e-06, -3.7959964629408205e-06, -2.3630354917258956e-06, 3.239567547552724e-07, 6.912319349794416e-06, 4.975340175406018e-07, -6.157383722893428e-06, -4.114430112167611e-07, 1.3593037238024408e-06, -1.3356568615563447e-06, -1.827732262427162e-06, -6.663467502221465e-07, -3.5631055652629584e-06, -3.073430661970633e-06, 7.020561042736517e-06, 8.4439716374618e-06, 6.453618880186696e-06, 8.1860398495337e-06, 6.240996981432545e-07, -2.9455491130647715e-06, -1.7318488971795887e-06, 2.853224032151047e-06, 2.007205239351606e-06, 9.669564349223947e-08, 5.038998551754048e-07, -6.654436674580211e-06, -9.940260497387499e-06, 4.750079369841842e-06, -3.3941159927053377e-06, 2.441295464450377e-06, -1.2695863915723749e-06, -1.9309368326503318e-06, -1.9355557014932856e-06, -8.352753866347484e-06, 4.734530193672981e-06, 4.3956229092145804e-06, -9.940260497387499e-06, -6.057324753783178e-06, 2.1422342797450256e-06, -2.6938180326396832e-06, 2.6957143290928798e-06, -3.389239054740756e-06, -6.732026577083161e-06, -2.071126800728962e-06, -1.74230945049203e-06, 3.0213650461519137e-06, -8.549020549253328e-07, -3.2117293358169263e-06], [1.7022248357534409e-06, 4.20523656430305e-06, -9.257586498279124e-06, 1.1966136526098126e-07, 9.976345609175041e-06, -8.0576901382301e-06, 7.347715836658608e-06, 9.853962410488748e-07, 2.1014623143855715e-06, 1.3229849173512775e-05, -9.198422958434094e-06, 5.551622962229885e-06, 4.116043783142231e-06, -1.767191497492604e-05, 1.316730777034536e-05, 1.9385901396162808e-05, 3.6778205867449287e-06, 2.02612386601686e-06, 5.893874458706705e-06, -5.691617843694985e-08, 2.400521907475195e-06, 6.640538686042419e-06, -2.7459947204988566e-07, -1.3329824469110463e-05, -2.0111407138756476e-05, -3.368546231286018e-06, 4.971096132067032e-06, 2.2987633201410063e-06, -2.012397771977703e-06, 4.606988113664556e-06, -3.9482929423684254e-06, 2.116993891831953e-05, 8.625294867670164e-06, 1.973830194401671e-06, 1.2569331602207967e-06, -7.4496938395895995e-06, 8.181113116734196e-06, -1.1851656154249213e-06, 3.5128093713865383e-06, 5.829980409544078e-07, 7.250201633723918e-06, 5.262801096250769e-06, 9.086742466024589e-06, 5.112503004056634e-06, 1.236326261278009e-05, -1.1661971257126424e-05, 1.3252604730951134e-05, -1.0073569683299866e-05, -1.2643567060877103e-05, -1.0114853466802742e-05, -7.005889074207516e-06, 5.505883564183023e-06, 3.6437190829019528e-06, 6.091252544138115e-06, 3.6827493659075117e-06, 1.087606278815656e-06, 1.989860948015121e-06, 3.776933397148241e-07, -7.881690180511214e-06, 9.223723282048013e-06, -2.9479479053406976e-06, 1.2186877938802354e-05, 1.557784889882896e-05, 4.606288712238893e-06], [5.579097705776803e-05, 9.782839333638549e-05, -2.5825378543231636e-05, -9.234406024916098e-05, -8.969602276920341e-06, -3.513641422614455e-05, 4.5108215999789536e-05, -3.425941395107657e-05, -0.00013351567031349987, 4.131722016609274e-05, 0.00011634393740678206, 4.63061842310708e-05, -3.1230985769070685e-05, 3.628317062975839e-05, 1.517348391644191e-05, 3.9361755625577644e-05, -5.749037518398836e-05, 1.8091845049639232e-05, 2.158184361178428e-05, -5.346105535863899e-05, -9.0358080342412e-05, -4.9481604946777225e-06, -2.0484105334617198e-05, -8.152812370099127e-05, 1.1583946616156027e-05, -7.934329005365726e-06, -4.301879744161852e-05, -1.4538198229274713e-05, -5.833859904669225e-05, -7.335736154345796e-05, -5.641359166475013e-05, 9.328225860372186e-05, -3.3343294489895925e-05, -6.198219489306211e-05, 0.00012768049782607704, 2.0417672203620896e-05, -1.4045246643945575e-05, -9.419502021046355e-06, -1.47308710438665e-05, -8.522723510395736e-05, 3.485503839328885e-06, -3.388266486581415e-05, -1.9513881852617487e-05, 8.35275131976232e-05, 0.00011157953122165054, -3.9066879253368825e-05, 4.42842319898773e-05, -3.377936081960797e-05, -4.938220445183106e-05, 6.138546450529248e-05, -3.2698153518140316e-05, -1.1814218851213809e-05, 3.99417194785201e-06, 1.8284110410604626e-05, 3.7295503716450185e-06, 4.192513006273657e-05, -0.000150096500874497, -8.304328366648406e-05, -9.778367530088872e-05, 1.5583746062475257e-05, -0.00014007097342982888, -0.00048161210725083947, -0.00011055756476707757, 8.805698598735034e-05], [0.0011680015595629811, 0.0006493513938039541, -0.00028573028976097703, -9.456710540689528e-05, 6.901084270793945e-05, -0.0006865710602141917, -0.0001161015170509927, 0.0004375157877802849, -0.0003886112535838038, 0.00011003670806530863, 0.0008795215981081128, 0.00022098755289334804, -0.0001342847099294886, -8.153328963089734e-06, 4.9659392971079797e-05, 0.0001297082781093195, 7.107983401510864e-05, -0.0005575466202571988, 0.00014916302461642772, -6.877598934806883e-05, -0.00013617618242278695, -0.00013213754573371261, 0.0002529039338696748, -1.0945885151159018e-05, 1.738035643938929e-05, 7.99190893303603e-05, -0.0009218516061082482, -4.3658335926011205e-05, -0.00040427176281809807, -8.872833859641105e-06, 0.0002639737504068762, 0.00035452705924399197, 0.0001870335836429149, -0.0004953275201842189, 8.445199637208134e-05, 1.2665826943702996e-05, -0.00010119390208274126, -1.0941752407234162e-05, -3.225560067221522e-05, -0.0002148293424397707, -0.0003312687622383237, 0.00010773666144814342, -0.00025214007473550737, 0.00034290493931621313, 3.6275530874263495e-05, 0.00014123575238045305, -8.891498146113008e-05, 0.0003442832676228136, 0.00012839397822972387, 0.00021764604025520384, 0.0002128096966771409, -0.00017083677812479436, -0.00032390523119829595, -3.666953125502914e-05, 9.63753554970026e-05, 0.0003450126969255507, -0.0004911281866952777, -0.00025838983128778636, 0.00011508084571687505, 0.0004720469005405903, -0.0006952154217287898, -0.0009369548643007874, 0.00012121979671064764, 0.00040738319512456656], [0.00020068150479346514, 0.0002908365277107805, -0.0002953010844066739, -0.00027976976707577705, -0.0008472505724057555, 0.00023913226323202252, -5.0749942602124065e-05, 0.0003600044874474406, -0.0005459213862195611, -0.0003961921902373433, 0.0007498151389881968, 0.00125229568220675, 0.0001736222766339779, 0.0007755980477668345, 0.0009040108416229486, -0.0011156648397445679, 1.9121187506243587e-05, -0.0002097479155054316, -0.00026928953593596816, 0.0018533436814323068, -0.00028328015469014645, 0.0003216409240849316, -5.927449092268944e-05, 0.0002652868570294231, -0.00027622413472272456, 0.000496554421260953, -0.0002861859684344381, -0.00015652802539989352, 0.00029238295974209905, 0.0008964255684986711, 0.00025439306045882404, 0.0005431921454146504, -8.783157682046294e-06, 0.000748063437640667, 1.9214567146264017e-05, 0.000648301444016397, 0.0005078858812339604, 6.354827200993896e-05, 0.00016006239457055926, 0.0009188795229420066, -0.001603763084858656, -0.00013624441635329276, -0.001103286282159388, 0.00013425134238786995, 0.000467202189611271, 0.00020324572687968612, 0.00023890897864475846, 0.0004592924960888922, 0.0002558180131018162, -0.00018800239195115864, 0.0015388710889965296, 0.00018009271298069507, -0.00015836632519494742, 0.0008504939032718539, -0.0002271991252200678, 0.0005200081504881382, 6.21368526481092e-05, 0.0008809072896838188, -0.001116983126848936, 3.5865523386746645e-06, 0.00039188735536299646, 0.0012649705167859793, 0.00020887010032311082, 0.0007972182356752455], [-0.0002902237174566835, -0.0008378977072425187, -0.00046854716492816806, -0.00035292882239446044, 0.0018469670321792364, -0.0002977086987812072, 0.0004909855197183788, -0.0025419178418815136, -0.00274644885212183, -0.0006625305395573378, 0.002842226531356573, -0.002301801461726427, 0.0005575109971687198, 0.0004617593949660659, 0.0010318201966583729, 0.00043713045306503773, -0.0012967699440196157, -0.0013963994570076466, 0.0001699195127002895, -0.0009905803017318249, 0.0010294762905687094, -3.700198431033641e-05, -0.0006723348633386195, -0.0015528826043009758, -0.0009274570620618761, 0.00046540750190615654, -0.00011531618656590581, -0.0010453632567077875, 0.0009673656895756721, -0.00035699395812116563, 0.0005558573175221682, -0.0013082257937639952, -0.0035443915985524654, 0.00010399360326118767, -1.0538991773501039e-05, 0.0014767125248908997, 0.002028001705184579, 0.0011789909331128001, 0.0004391581460367888, -0.0014059707755222917, -0.0006132856942713261, 0.00033873290522024035, -0.0013070490676909685, -0.0010136245982721448, 0.0010184695711359382, 0.0004634778597392142, 0.0001399938337272033, -0.0008992410730570555, 0.0005282338242977858, 0.0007735319086350501, -4.245864329277538e-05, 0.0012655524769797921, -0.0012862894218415022, -0.0008074548095464706, 0.00029493626789189875, 0.000332029681885615, 0.001238099648617208, 0.0010339346481487155, -0.001253163325600326, -0.0008163712918758392, -0.0024235285818576813, -0.005476986523717642, 0.00012170018453616649, -0.0013765665935352445], [0.0017552018398419023, 0.0006058593862690032, 0.0004627130401786417, 0.0006155561422929168, -0.0003377659304533154, -0.0011835930636152625, 0.0010305463802069426, 0.0018579282332211733, 0.0007002605707384646, -0.0006210292340256274, 0.0002568489871919155, -0.001616031862795353, 0.0016057015163823962, -0.001334294443950057, 0.0002970347413793206, -0.0016429780516773462, 0.0009643504745326936, -0.0017838863423094153, -0.0008921455009840429, -0.0012202556245028973, 0.0014853326138108969, 0.0009250538423657417, -0.000533377518877387, 0.001495772274211049, -0.0008446150459349155, 0.0004017934261355549, 0.0005303816869854927, 0.0009968995582312346, -0.00012071272794855759, 0.00307204807177186, -0.0002988337946590036, 0.0002497045788913965, -0.0005033601191826165, -0.0010720393620431423, 0.0008825279655866325, 0.0005741579225286841, -0.00032007330446504056, -0.0019037469755858183, 0.0009407422039657831, 0.0005208702059462667, -0.0015576141886413097, -0.0007593142800033092, -0.0021985825151205063, -0.00010339610162191093, -0.0009771971963346004, 0.0011632926762104034, 0.0003649914579000324, -0.0002504709118511528, -0.0015781652182340622, -0.00023420649813488126, 0.00039444240974262357, -0.001342541421763599, -8.993188384920359e-05, 0.00012278935173526406, -0.000676995434332639, 0.00025917531456798315, -0.0011997700203210115, 0.00035395147278904915, -0.0009164772345684469, 0.0013640144607052207, 0.00093953957548365, 0.0034196798224002123, -0.00022984924726188183, 0.000993044232018292], [5.166346454643644e-06, 2.497386230970733e-05, -4.6926514187362045e-05, 1.6200342543015722e-06, 4.909520157525549e-06, 5.691882506653201e-06, -4.958719728165306e-06, -6.631176802329719e-05, -4.6243144424806815e-07, 6.847918484709226e-06, 1.0596912034088746e-05, 2.264847898914013e-05, -2.1597388695226982e-05, 3.076580469496548e-05, 1.386567987538001e-06, -4.227716999594122e-06, 1.750845149217639e-05, -3.8629299524473026e-05, 1.592433727637399e-05, -4.772288230014965e-05, -0.00011244569031987339, 9.453870006836951e-05, -1.0642507731972728e-05, -0.0001281541190110147, 5.589650754700415e-05, 7.593661393912043e-06, -1.9888375391019508e-05, -7.78305038693361e-05, 3.676699998322874e-05, 4.008203904959373e-05, -2.3483418772229925e-05, 3.665923486551037e-06, 3.4076296287821606e-05, 1.9111947040073574e-05, 2.321502506674733e-05, 3.567104067769833e-05, -5.9408339438959956e-05, -1.3201371984905563e-05, -1.2953896657563746e-06, -5.182570930628572e-06, -4.5205473725218326e-05, -1.2821376003557816e-05, -1.2977950063941535e-05, -2.6198213163297623e-06, 2.120917633874342e-05, -3.458644641796127e-05, 1.4892403669364285e-05, 1.991182443816797e-06, 9.813250471779611e-06, 5.46460159966955e-06, 1.3621258403873071e-05, -2.5860126697807573e-05, -2.90482712443918e-05, -2.3159368538472336e-06, 9.84346479526721e-05, -1.1303494829917327e-05, -9.55799623625353e-05, 1.739796789479442e-05, -5.748786134063266e-05, 3.1919931643642485e-05, -1.0430349902890157e-05, 3.876243226841325e-06, -1.772460927895736e-05, 2.0090650650672615e-05], [2.833323014783673e-05, 5.1053135393885896e-05, 1.0574276529951021e-06, -2.9883469323976897e-05, 2.6655365218175575e-05, -1.91822400665842e-05, 1.2858577065344434e-05, -0.0002702247293200344, 5.195022822590545e-05, 1.8877641196013428e-05, 9.089314517041203e-06, 5.467252049129456e-05, -3.635890607256442e-05, 1.7437128917663358e-05, 3.5142926208209246e-05, -3.5307632060721517e-05, 6.700631638523191e-05, -6.683848187094554e-05, -8.61564403749071e-05, -2.3326758309849538e-05, -0.00012383676948957145, 0.0001123861875385046, -4.7762190661160275e-05, -0.00022459652973338962, 3.753686905838549e-05, 5.063057687948458e-05, -6.125284016889054e-06, -7.452868885593489e-05, 5.119906927575357e-05, 5.416457133833319e-05, -2.115156348736491e-06, -1.7862692402559333e-05, 0.00010676803503884003, 2.5937984901247546e-05, 3.152938370476477e-05, 0.0001817990851122886, -8.646795322420076e-05, -3.233116149203852e-05, -8.920330401451793e-06, -1.545883969811257e-05, -1.772238829289563e-05, 4.084992724529002e-06, 1.5128614904824644e-05, 3.186594040016644e-05, 4.784513293998316e-05, -8.156771946232766e-05, 9.725927156978287e-06, -2.6241306841257028e-05, 1.5742306231913972e-06, 3.041621084776125e-06, 5.091445200378075e-05, -3.544894207152538e-05, -2.9133188945706934e-05, 1.6493957446073182e-05, 0.00012812209024559706, -4.021136192022823e-05, -0.00012633051665034145, 0.00011001146776834503, -6.41061196802184e-05, 2.082752871501725e-06, 8.647314098197967e-05, -0.00016877389862202108, 5.385539407143369e-05, 3.405845563975163e-05], [9.833877993514761e-05, 0.00018243004160467535, -0.00011051147885154933, 4.509591599344276e-05, -9.697476343717426e-05, -3.345670847920701e-05, 3.741797627299093e-05, -0.000778854067903012, 6.499838491436094e-06, -0.0004925787798129022, 0.0003633208980318159, -0.00013460636546369642, -5.588807835010812e-05, 7.335843110922724e-05, 0.0001343313924735412, 0.00022678342065773904, -0.00032981240656226873, 0.0007352966931648552, -4.377706864033826e-05, 0.00021796794317197055, 0.0003334761713631451, -0.00031090585980564356, 0.000578993814997375, -0.00010989922884618863, 0.00015179149340838194, -0.0002445148129481822, 5.2527360821841285e-05, -1.7546859453432262e-05, 0.00020028611470479518, -0.0002131456567440182, -1.4121760614216328e-05, -0.00011612063099164516, -0.0001600931864231825, 0.0005527993198484182, -3.199141065124422e-05, -0.0006825983291491866, 0.0002533077204134315, 0.0004057094338349998, 6.797051173634827e-05, -2.7754595066653565e-05, 0.0006814589723944664, 2.6462972527951933e-05, -9.12122595764231e-06, 2.6106470613740385e-05, 0.00025104719679802656, -5.089177284389734e-05, 0.00014199235010892153, 9.537655569147319e-05, 2.8368629500619136e-05, -1.4470963833446149e-05, -6.484947516582906e-05, 0.00016982996021397412, 3.12487427436281e-05, -0.0001419172913301736, -4.110059671802446e-05, 1.266355684492737e-05, -8.821043593343347e-05, -0.0003281765675637871, 0.0003771091578528285, -2.115326606144663e-05, -0.00022097304463386536, 0.0005363030359148979, -8.612797682872042e-05, -0.00029175568488426507], [0.0005540749989449978, -8.098111720755696e-05, 0.00010342879249947146, -0.00040448567597195506, 2.669735113158822e-05, -0.00010289880447089672, 4.0423292375635356e-05, -0.0004700083227362484, -8.962045831140131e-05, -0.00045083387522026896, 0.0002790780854411423, -0.0007140784291550517, 9.186934039462358e-05, -9.349589527118951e-05, 0.0003524053900036961, 0.00023061793763190508, 1.85246899491176e-05, 0.000799373839981854, -0.0006295710918493569, 0.001169655006378889, 0.00038092152681201696, -2.1870015189051628e-05, 0.00048204095219261944, 5.8827048633247614e-05, 0.00036109049688093364, -0.0003570439585018903, 0.00046079332241788507, 4.404319042805582e-05, -0.0003056353598367423, 0.000194542997633107, -0.0003097011358477175, -0.000497767876368016, 0.0007697510300204158, 0.0004810960090253502, 3.569468390196562e-06, -0.000794178107753396, 0.0002462434349581599, 0.00031609655707143247, -7.422574708471075e-05, -0.00021498712885659188, 0.001127420924603939, -7.497074693674222e-05, -9.846379543887451e-05, 5.203617547522299e-05, 0.000298483093502, -0.0002582315937615931, 5.667897130479105e-05, 6.491548265330493e-05, -7.887215178925544e-05, 9.201595094054937e-05, -0.0001193343341583386, 0.0003471786330919713, -6.136178853921592e-05, -2.2374733816832304e-06, 3.0409195460379124e-05, 0.0003322391421534121, 0.0005185205955058336, 0.00042100591235794127, 0.0005188579671084881, 0.0003062168543692678, 0.00042144779581576586, 0.0014089272590354085, 0.0008404114050790668, -0.0002797293127514422], [-4.1331059037474915e-05, -0.00012290809536352754, -0.00019091898866463453, 0.0002214369596913457, 0.00029424444073811173, 0.0008168374770320952, 0.0001732555974740535, 0.0007534630713053048, 0.00032803142676129937, 0.00022183169494383037, -0.00011560193524928764, 5.275440344121307e-06, 0.0004192560736555606, 0.00021947530331090093, -0.001265719998627901, -0.0003115443978458643, -0.0007930168649181724, 0.0006458499701693654, -0.0004216489614918828, 0.0008058961248025298, -5.2486779168248177e-05, -9.737082291394472e-05, 0.0002612807147670537, -0.0012632355792447925, 0.0001382415066473186, 0.0008965033339336514, -0.0004476133035495877, -0.0005668324301950634, -0.0015553493285551667, 0.0005874588969163597, 2.0585954189300537e-05, 0.0008099911501631141, 0.00020299629250075668, -0.000294205907266587, -0.0012389617040753365, 0.0010452759452164173, -0.0001241967111127451, -0.00022581992379855365, 0.0005251551629044116, 0.0005003513069823384, -0.0008353912271559238, 6.977916200412437e-05, -0.0003596388269215822, 0.000458756519947201, 0.00037874976987950504, 5.6246062740683556e-06, 0.000235249477555044, -0.00046327366726472974, 3.969080717070028e-05, -0.00016823873738758266, 0.0013118505012243986, 0.00037369600613601506, -8.389964932575822e-06, 0.00016824118210934103, 0.0014571514911949635, -0.0006108628585934639, -0.0005603308090940118, 6.68387656332925e-05, -0.0005228412919677794, -0.0011377336923033, -0.0018837486859411001, 0.0019045517547056079, 0.0004255666281096637, -0.00015419037663377821], [0.0009617413161322474, 0.0008229438681155443, 0.00023727181542199105, 0.0008722971542738378, -0.0014340446796268225, -0.00010459328041179106, -8.863186667440459e-05, 0.0008369049755856395, -0.0007283842423930764, 0.00048785831313580275, 0.0008590230718255043, 0.0014160071732476354, 0.0007611699402332306, 0.000757532543502748, 0.000474447850137949, -0.0003864893224090338, 0.0005259400932118297, 0.0022943501826375723, -0.0005924722063355148, 0.00017700438911560923, 0.00046234839828684926, 0.00038433942245319486, -0.0011544737499207258, -0.001910873455926776, -0.0017505537252873182, 0.00015360358520410955, 0.00029738410376012325, -0.000672306283377111, -0.0008728669490665197, 0.000614593387581408, 0.0016042867209762335, -0.0010877343593165278, -0.0003511687973514199, 6.77257776260376e-06, -0.000623691885266453, -0.00033403790439479053, -0.0007173118647187948, -0.00022551315487362444, 0.0005534942029044032, -0.0013462378410622478, 0.00047975886263884604, -0.0008977281977422535, 0.00020696883439086378, -0.00017913602641783655, -0.00035665600444190204, -0.0007011069101281464, 0.00045282000792212784, -0.0008134314557537436, 0.0011752339778468013, 0.0013470235280692577, 0.0007057743496261537, 0.000864437548443675, -0.0004309055511839688, -0.00017595585086382926, 0.0007886382518336177, -0.0009560772450640798, -0.0007743853493593633, 6.852140359114856e-05, -0.0011524030705913901, -8.536799577996135e-05, 0.0014680998865514994, -0.0018707349663600326, -0.00033221501507796347, -0.0007591387839056551], [-2.3210421204566956e-05, 0.0003619295312091708, -0.0010048612020909786, 0.0028041121549904346, 0.001361744711175561, 3.942131297662854e-05, -0.00030353679903782904, 0.00026101607363671064, -0.002645629458129406, -0.0007744324393570423, -5.36518928129226e-05, -0.0014298706082627177, -0.001086610951460898, 0.0020767690148204565, 0.0007319757132790983, 4.137679934501648e-05, -0.0020928396843373775, -0.001012234715744853, -0.003571762004867196, -0.005862512160092592, 0.0008676047436892986, -0.0010584101546555758, -0.0009703357354737818, -0.0004509597201831639, 0.001061724266037345, 0.0003202964726369828, -0.0009983716299757361, 0.0004462047654669732, 0.000777457607910037, 0.0004546262789517641, 0.0038214095402508974, -0.0003856443800032139, -0.0011745757656171918, -0.00023068435257300735, 0.0012891337973996997, 0.0005204116459935904, -0.00023969804169610143, 0.0003897379501722753, -6.311555625870824e-05, -0.00029992201598361135, 0.0004164671408943832, -0.0010126945562660694, -0.0011844681575894356, 0.001202134182676673, 0.003775870893150568, 0.0011711899423971772, 0.0005089686601422727, -0.00027055840473622084, 0.0006128674140200019, 0.000607257941737771, -0.00010686754831112921, -0.0016052015125751495, 0.00043825950706377625, -0.0007951584411785007, -9.821655112318695e-05, -0.0015608102548867464, -0.00090234843082726, -0.0008700154721736908, -0.0003085103817284107, 0.0006186464452184737, -0.0005558468401432037, -0.006018387619405985, -0.0033123744651675224, 2.9409711714833975e-06]], [[0.00019694668299052864, 0.00021135684801265597, 0.0002301881613675505, -0.0005709212273359299, -9.016113472171128e-05, 0.0001410858822055161, 3.614551678765565e-05, -0.0006669135764241219, 0.0009707168210297823, 0.0002654255658853799, 0.0016712041106075048, 6.483285687863827e-06, 0.0009869247442111373, -0.0002677581214811653, 0.0007604648708365858, -0.002156356815248728, -7.903855293989182e-05, -0.0017623519524931908, -4.7787558287382126e-05, -0.0012306655989959836, 0.0008755718590691686, 0.0012139116879552603, 9.892923117149621e-05, 0.00020385354582685977, -0.00026431403239257634, 0.0008992718649096787, -0.000258330546785146, 0.0008133508963510394, -0.0011496581137180328, 0.00095906644128263, -0.0007624705322086811, -0.0005331862485036254, -0.001325627788901329, -0.0012971586547791958, -0.0012352070771157742, -0.0001003570796456188, 0.0009937228169292212, -0.0002556638792157173, -0.00027809300809167325, -2.5778543204069138e-05, -0.00269986386410892, -0.00010425399523228407, -7.062777876853943e-05, -0.00033325134427286685, -0.0006910546217113733, 0.000513383187353611, -0.00016552588203921914, 0.00041078287176787853, -0.0016446926165372133, -0.000790888792835176, -0.0011948393657803535, -0.00016279827104881406, 0.0005448496667668223, 0.0009632606524974108, 0.0013134379405528307, 0.0016020582988858223, -0.0010878231842070818, 0.001046889927238226, -0.0018194218864664435, 0.0003998428292106837, -0.0001360954629490152, 0.0009439439745619893, 0.0005016161594539881, -0.0002820960362441838], [-2.3437214622390456e-06, -3.578668383852346e-06, -9.951386346074287e-07, 6.8679532887472305e-06, 2.6758732474263525e-06, -1.8683173266254016e-06, -2.9476118470483925e-06, -1.4920869944035076e-06, -1.6130525182234123e-06, -1.3477849734044867e-06, -2.4549780164306867e-07, 1.162925286735117e-06, 2.2351865425207507e-07, 1.0794669833558146e-06, 4.120010544284014e-06, -5.748630883317674e-06, -7.710987688369642e-07, -8.031489414861426e-06, -2.696495812415378e-06, 1.2240799378560041e-06, -9.778799721971154e-06, -4.275411356502445e-06, 1.2458350511224126e-06, -1.3663834579347167e-06, 2.428299922030419e-06, 5.920005605730694e-07, 6.247546480153687e-06, -1.1153383638884407e-06, -3.056285549973836e-06, 1.475863427913282e-06, 2.5360725430800812e-06, 7.809987323526002e-07, -3.151471901219338e-06, 1.915031333510342e-07, 4.191025709587848e-06, 6.225682682270417e-06, 3.884003945131553e-06, -7.556733180535957e-06, -4.740419626614312e-06, 3.52305733031244e-06, 5.449210789265635e-07, 1.0357346127420897e-06, -5.696063453797251e-06, 1.0439575817144942e-06, -9.940260497387499e-06, -2.6440125111548696e-06, 2.3434536160493735e-06, -2.494248747098027e-06, -6.084740675760258e-07, 4.455439466255484e-06, 5.445642727863742e-07, -7.233998985611834e-06, 1.7535768392917817e-06, 4.289495791454101e-06, -3.064656539208954e-06, -2.5775334506761283e-06, 4.494233053264907e-06, 6.4209957599814516e-06, 3.4450808925612364e-06, -1.119237822422292e-06, -2.8915059147038846e-07, -9.154985036730068e-07, -3.836477844743058e-06, -1.661375222283823e-06], [-1.840273034758866e-05, -2.056231096503325e-06, -9.072508873941842e-06, -3.402250058570644e-06, -6.629829840676393e-06, -4.294730388210155e-06, -3.498765295262274e-07, 4.549629011307843e-07, 2.5337078113807365e-05, -2.0321681404311676e-06, 1.6554229659959674e-05, -7.671714229218196e-06, -7.251102118743802e-08, -3.310524334665388e-07, 1.964626608241815e-05, 2.794945794448722e-05, 1.9930275811930187e-06, -8.480392352794297e-06, -1.0426460903545376e-05, 2.8965556339244358e-05, -4.5592150854645297e-07, -2.0032559405080974e-05, 2.5312742764072027e-06, 3.2944053600658663e-06, -1.2814108231395949e-05, 2.795163254631916e-06, 1.6114727259264328e-05, 1.2045195944665466e-05, 1.599168717802968e-05, 6.598702384508215e-06, 2.6055536181956995e-06, -3.135719907731982e-06, -3.2714908684283728e-06, -1.4291646039055195e-05, -6.282248250499833e-06, 1.0911324352491647e-05, 6.55648591418867e-06, 3.414679440538748e-06, -1.5946550774970092e-05, 6.603369001823012e-06, 1.5881452782195993e-05, 4.259811248630285e-06, -6.733973805239657e-07, 1.3686385500477627e-05, 3.471727040960104e-06, 1.7961979210667778e-06, 5.050590971222846e-06, 2.0840097931795754e-06, 6.64970139041543e-06, -3.2669408938090783e-06, 2.5269887373724487e-06, -1.3833719094691332e-06, 1.3216076695243828e-05, 2.2806723336543655e-06, 1.0845131328096613e-05, -5.144443093740847e-06, 6.359217422868824e-06, 7.118564553820761e-06, 3.4457337960702716e-07, 4.734671620099107e-06, -3.6789788282476366e-06, -2.6473114758118754e-06, -1.1362328677932965e-06, 1.1534351870068349e-05], [0.0001256600662600249, 0.00026901529054157436, -1.417655948898755e-05, -1.3792356185149401e-05, -1.3365969607548323e-05, 3.1144561944529414e-05, 9.842164217843674e-06, -0.00010629696043906733, -3.583617944968864e-05, -2.6744342903839424e-05, 0.00021031663345638663, -7.628061575815082e-05, -1.3953525012766477e-05, 1.6930385754676536e-05, 0.0001499941572546959, 0.00016380223678424954, -3.382395880180411e-05, 4.178419476374984e-05, -0.0002615170378703624, 8.183882164303213e-05, -5.062782747700112e-06, -0.00011708286183420569, -1.89642705663573e-05, 6.225801189430058e-05, -2.9339720640564337e-05, 1.7011448107950855e-06, -7.842977356631309e-05, 3.790264599956572e-05, -6.791088526370004e-05, 4.519563663052395e-05, 1.6086212781374343e-05, 6.906495855218964e-06, 2.1411417037597857e-05, 3.142007699352689e-06, 0.00012230212450958788, 5.069361941423267e-05, 8.614151738584042e-06, 3.783269494306296e-05, 2.279546606587246e-05, -0.00010055625170934945, 0.000121334582217969, -2.0868103092652746e-05, -7.919871131889522e-05, 0.00013767005293630064, 0.00016008659440558404, -7.348613871727139e-05, -6.129704161139671e-06, 6.782987838960253e-06, 8.275444997707382e-06, 6.0669561207760125e-05, 4.33715722465422e-05, 3.044007098651491e-05, 0.00013797235442325473, -5.0233884394401684e-05, -0.00011586940672714263, -2.2943233489058912e-05, 3.1895389838609844e-05, -3.039826151507441e-05, -5.10184581798967e-05, -2.2544596504303627e-05, -2.67876275756862e-05, -0.00031533322180621326, 1.5459714632015675e-05, 8.813136810204014e-05], [0.0005882321856915951, 0.0008616158156655729, -0.0001198830796056427, -0.00029147107852622867, 0.0013791639357805252, 0.00023185755708254874, 0.0002989276545122266, 0.00037081787013448775, 0.00034958263859152794, -0.00019301516294945031, 0.0005148225463926792, -0.0003049580554943532, 0.0005774479941464961, -0.00039438362000510097, 0.00026499986415728927, 0.0002389464498264715, 0.0003829658089671284, 0.00030355696799233556, -0.0010679910192266107, 0.0020649086218327284, -0.0008292141137644649, -0.0003236051998101175, -0.00013983370445203036, -8.785408863332123e-05, -0.000124834812595509, -0.00010513504093978554, -0.000304880493786186, -0.00011891360918525606, -3.220205690013245e-05, -5.755618622060865e-05, -0.0005590706714428961, -0.0001538941141916439, 0.0004664715670514852, -0.00029685001936741173, 0.00040610122960060835, 0.00026575493393465877, -0.00030708100530318916, -2.26869888138026e-05, 0.00021961788297630847, -0.00019724620506167412, -0.00037070346297696233, 5.804307875223458e-06, -5.482188498717733e-05, -8.521433483110741e-05, -0.00017406053666491061, -0.00014021901006344706, -6.1002378060948104e-05, 0.00019452773267403245, -0.000473978987429291, -6.227052654139698e-05, -5.683164999936707e-05, 0.00023193590459413826, 0.00014247297076508403, 0.0004454201553016901, -0.0003423531888984144, -0.00047327758511528373, 0.0005669317906722426, 4.329500370658934e-06, -0.00013559886428993195, 9.645898535382003e-05, 5.2346593292895705e-05, 4.707273910753429e-05, 0.0004785626952070743, 0.0008759233169257641], [-9.49111272348091e-05, -0.0006715898052789271, -0.00044579990208148956, -0.0004197932139504701, 0.0007652465719729662, -0.0002959710836876184, 9.014499664772302e-05, 0.0003343804564792663, 0.0009564104839228094, -0.00023787235841155052, -0.0011419225484132767, 0.0003186259127687663, 0.0010310006327927113, -0.0015372049529105425, -0.0006814777734689415, -0.0009456535335630178, -0.0002271315170219168, -0.00014277780428528786, 0.0017954761860892177, 0.0016715123783797026, 0.0009571698028594255, -0.0006516887224279344, 0.0025497705210000277, -0.00022870226530358195, 0.0006229846039786935, 0.0002678261371329427, -0.00042328040581196547, 0.0004791772225871682, -0.00010039145854534581, 0.0002960643614642322, -0.002519801026210189, 0.0004695471143350005, -0.0005210241070017219, 0.0008351152064278722, -0.0003333348431624472, 5.610657899524085e-05, 8.011728641577065e-05, -0.0013484435621649027, 0.0007032317807897925, 0.00035151938209310174, -0.00061494653346017, -0.00039742328226566315, 0.00026284350315108895, 0.0004079869540873915, -0.001030448591336608, 0.0007345842313952744, 0.00038628227775916457, 