{"nesterov": true, "init_weights": [8967, [[[[-0.0018077339045703411, -0.00016411294927820563, -0.0007113526808097959, -0.0001381890324410051, -0.000892152835149318, 0.0014089369215071201, -0.0002898497332353145, -0.00022753966914024204, -0.0006129257963038981, 0.00017985509475693107, -0.0011825640685856342, 0.0016447186935693026, -0.001511557144112885, -0.00012076766870450228, 0.0005839632358402014, -0.0007565707783214748, -0.00044893898302689195, 2.5546825781930238e-05, 0.001564358826726675, -0.0012591765262186527, -0.0008314724545925856, -0.0013551282463595271, 0.0017604323802515864, 0.001076925196684897, -0.0004699421988334507, 0.00045747397234663367, 0.00011640849697869271, 0.0007482397486455739, -0.0006588354590348899, 0.0002303158980794251, -0.00034165752003900707, -0.0003762983251363039, -0.00019627012079581618, -0.0001747673813952133, 0.0006733188638463616, 6.625096284551546e-05, -0.0003382290597073734, 9.320789104094729e-05, 0.0004016142338514328, 0.0002699145406950265, 0.0014060370158404112, 0.00013425867655314505, -0.0006520148017443717, 0.00015845097368583083, -2.317839243914932e-05, -0.000308306363876909, -0.0021763616241514683, -0.0004977102507837117, 0.00032794021535664797, 0.00015243982488755137, -0.00015280320076271892, 5.034075002186e-06, -0.0013443204807117581, -0.0010565223637968302, 0.0004144810081925243, -0.0008732535061426461, 0.0010147002758458257, -0.0006120014004409313, 0.00023090786999091506, -0.0001758457801770419, 0.0003442060260567814, -0.0005868072621524334, 0.001255168579518795, -0.0008288481622003019], [3.90287505069864e-06, 1.3114851071804878e-06, 3.403934272228071e-07, 1.4126692349236691e-06, 3.5956597344011243e-07, -7.644161428288498e-07, 1.929411382661783e-06, 9.608206710254308e-06, -3.346686071381555e-06, 1.0803496479638852e-06, -5.604412763204891e-06, -1.8951729998661904e-06, -5.797401172458194e-07, -5.906739716010634e-06, -7.951866791700013e-06, 9.643718840379734e-06, 4.994473329134053e-06, 2.6638787176125334e-07, 8.922404958866537e-06, -3.1808931453269906e-06, -1.6893745851120912e-06, 9.940260497387499e-06, -5.675275588146178e-06, 4.796396751771681e-06, -1.62356764121796e-06, -9.337300980405416e-06, -1.2395513522278634e-06, -2.3620582396688405e-06, -3.4256836443091743e-06, -7.387064215436112e-06, 3.18486854666844e-06, 1.921019247674849e-06, -5.362518322726828e-07, -6.947072961338563e-06, -3.2511879908270203e-06, -1.4304491742223036e-06, -5.707579020963749e-06, -1.1316925565552083e-06, 3.3594403703318676e-06, -2.944877451227512e-06, 8.746072126086801e-06, 5.343378688849043e-06, 4.712128884420963e-06, -5.125756956658734e-07, -3.6107535379414912e-06, 6.299389042396797e-06, -7.917839866422582e-06, 7.487914444936905e-06, -1.2984340855837218e-06, -9.084338671527803e-06, -4.934488970320672e-06, -7.239113529067254e-06, 2.6795646590471733e-06, -1.4388850786417606e-06, 4.53556140200817e-06, 8.149345944730157e-07, 4.450104370334884e-06, -1.2606379584667593e-07, 3.89262049793615e-06, -6.86094062984921e-06, -8.97010431799572e-06, 8.980854886431189e-07, -6.716443294862984e-06, 1.6581382169533754e-06], [-1.6462622625113e-06, 7.547262612206396e-06, 1.722437809803523e-05, 1.6271633285214193e-06, -2.073762152576819e-05, -4.257400632923236e-06, -1.5469671780010685e-05, -1.226021777256392e-05, 5.81896529183723e-06, -2.40951476371265e-06, 4.882367647951469e-06, -2.381334161327686e-05, -1.6124315152410418e-05, -1.3576762285083532e-05, 3.7395564049802488e-06, 7.381741397693986e-06, 1.2608465112862177e-05, -2.8853418143626186e-07, 1.2649898962990846e-05, -1.5234501915983856e-05, 3.488933543849271e-06, -1.2578811947605573e-05, -0.00017352777649648488, -7.733477104920894e-06, -1.0687645954021718e-05, -8.222688848036341e-06, 4.596111466526054e-06, 3.29500244333758e-06, 1.0756789947663492e-07, -4.0060931496554986e-05, 7.253325975398184e-07, -1.5163936041062698e-05, -7.953545718919486e-06, 1.095252446248196e-05, -1.4401598491531331e-05, -6.869914159324253e-06, -1.0037731954071205e-05, -5.567741482082056e-06, -5.460341981233796e-06, 5.635635716316756e-06, -6.015639883116819e-06, -7.573005973426916e-07, 5.155891358299414e-06, 3.965068572142627e-06, -1.6199401215999387e-06, -7.401279617624823e-06, 9.420628884981852e-06, 5.4178758546186145e-06, 1.1460771929705516e-05, 4.800698206963716e-06, 6.390439921233337e-06, -2.5514741537335794e-06, 1.80412480403902e-05, 9.045754268299788e-06, -5.879238869965775e-06, -7.297109732462559e-06, -5.667937330144923e-06, 7.643249773536809e-06, 2.174994551751297e-05, 5.809759841213236e-06, -1.0627155461406801e-05, -9.294803021475673e-06, 1.1156338587170467e-05, 5.475978923641378e-06], [2.3460914235329255e-05, -7.5036214184365235e-06, -0.00011585732136154547, 1.99747082660906e-05, 0.0001640471164137125, -6.152476271381602e-05, -9.36453761823941e-06, 8.825074473861605e-05, -3.745054345927201e-05, -1.8407321476843208e-05, -3.19339960697107e-05, 4.743023237097077e-05, 0.00021516828564926982, -5.071475243312307e-05, 8.652072210679762e-06, 1.1943257959501352e-05, -0.00010096418554894626, -1.7350266716675833e-05, -0.00010216492955805734, -1.8951268430100754e-05, -0.00011145696771563962, -3.822755388682708e-05, 0.0005386222619563341, 6.131775444373488e-05, 2.027539630944375e-05, 4.937986159347929e-05, -6.785534060327336e-05, -8.235745190177113e-05, -7.267437467817217e-05, -1.0553199899732135e-05, 6.656952609773725e-05, 0.00011810421710833907, -3.553371789166704e-05, -8.785636600805447e-05, -0.0001562966499477625, -4.432160949363606e-06, 1.753817377903033e-05, 6.352306081680581e-05, 9.147052332991734e-05, 4.3095693399664015e-05, -0.00011984242155449465, 4.433482899912633e-05, -2.2433446247305255e-06, -1.632538806006778e-05, 2.6770589101943187e-05, -0.0002484074793756008, -2.4061324438662268e-05, 4.648286630981602e-05, 3.621560972533189e-05, -7.49893588363193e-05, -4.1625520680099726e-05, 9.426833457837347e-06, -1.4125615052762441e-05, -0.00010592181934043765, -5.024151687393896e-05, 4.063469896209426e-05, -8.127863111440092e-05, 3.0394698114832863e-05, -0.0001638673129491508, -8.694770076544955e-05, 4.47625461674761e-05, -3.4057929951814003e-06, -1.9487619283609092e-05, 3.0126902856864035e-05], [0.0007738039130344987, -2.3125787265598774e-05, 0.000352243660017848, 0.0014051464386284351, 0.0012555241119116545, -0.0004094845207873732, 0.0014002465177327394, -0.000133461260702461, -0.0002471015613991767, -0.0005841201054863632, 0.0010004269424825907, -0.0017422768287360668, -0.00010329176438972354, 0.0004995066556148231, -0.0002128718188032508, 0.00024553347611799836, -0.0010948762064799666, -0.00043807164183817804, 0.0001989868760574609, -0.0006736775394529104, 0.0006055909325368702, 0.00019456029986031353, 0.0017663358012214303, -0.0009853398660197854, 0.000665944186039269, 0.00013955355098005384, -8.187646744772792e-05, -0.00037649329169653356, 6.792951899114996e-05, -0.00012071033415850252, 7.952586747705936e-05, -0.00046557033783756196, -7.6022406574338675e-06, -0.0006437497795559466, -0.0012774443021044135, -0.0007827207446098328, -0.0005944124422967434, -0.0013760720612481236, 0.0005031229229643941, -0.0006626949761994183, 0.0003341537085361779, -0.0013003540225327015, -0.001197182689793408, 0.0005719605833292007, 0.00018741714302450418, -0.0001518673379905522, -0.000282600405625999, 3.242879392928444e-05, 2.079546538880095e-05, -0.00019528830307535827, 0.0013913058210164309, 0.00033122615423053503, 0.0010792813263833523, -0.00031759345438331366, 0.0009927023202180862, 0.00048135395627468824, -0.00037525512743741274, 0.000548756099306047, 0.00020269129890948534, -0.0002900335821323097, -0.0004370153183117509, 0.00028053513960912824, -0.0001469110866310075, -6.714920164085925e-05], [-0.001550187123939395, 0.00015064839681144804, 0.0003186529502272606, 0.00019562394300010055, -0.00044074744801037014, -0.0017868713475763798, 0.000691896362695843, -0.0006924774497747421, 0.000525327050127089, 1.0166426363866776e-05, 0.00014365300012286752, 0.0006337549421004951, -0.0011547519825398922, -0.00121375045273453, -0.00029561936389654875, 0.0012868721969425678, -9.74686918198131e-05, -0.0005184169858694077, 0.0006267692078836262, -7.051228021737188e-05, -0.00020042166579514742, -0.00029687784262932837, 0.0003730190801434219, 0.00033624941715970635, 0.0007394484709948301, -0.0001666220632614568, -0.0005191891104914248, 0.00014379198546521366, 0.0006383595173247159, -0.0006951122195459902, 0.0005698414170183241, -0.0013253734214231372, 0.0009058451978489757, -0.0004914181190542877, -0.0023319763131439686, 0.0004287765477783978, -9.296333882957697e-05, 0.0005013871705159545, 2.7500758733367547e-05, -0.0008137216791510582, -0.0002113411610480398, 9.571638656780124e-05, 0.00010847685916814953, -0.0008120285929180682, 0.0002576476545073092, 3.181459032930434e-05, 0.00015531726239714772, 0.0005169713986106217, -0.00024162910995073617, 0.0010527520207688212, -0.00032681578886695206, 0.0003060734015889466, -0.0003280173987150192, -0.00043420580914244056, 0.000544438895303756, -6.626930553466082e-05, 0.0009299373487010598, -0.00012922919995617121, 0.0002687277155928314, -0.00041248081834055483, -0.00020613244851119816, 0.000793667568359524, 0.0005016279174014926, 0.0005615047411993146], [-0.0004069981223437935, 0.00018938463472295552, 0.0013983509270474315, 0.0005743912770412862, -4.394886491354555e-05, -0.0006586745148524642, -0.0009721948299556971, -0.00026491362950764596, -0.0013017813907936215, 0.0008280041511170566, 0.0004620138497557491, -0.001678472151979804, -0.0018418326508253813, -0.0012510416563600302, 0.0003066416538786143, -0.001133969984948635, -0.00030073372181504965, -0.0003642277151811868, 8.292272104881704e-05, 0.00023997534299269319, -0.0005184317124076188, -0.00031995296012610197, -0.0037177905905991793, -0.0012579697649925947, 0.0003016738046426326, -0.001423487439751625, 0.0012890927027910948, 0.0008697884040884674, -0.0013547217240557075, -0.0008390163420699537, -0.001108852680772543, -0.0014505338622257113, -0.0008371843723580241, -0.0008200238225981593, 6.24038148089312e-05, -0.0006447156192734838, -0.00012026164768030867, -0.0007366720819845796, -0.0002344251552131027, -0.0011818133061751723, 0.0021111599635332823, -9.07449284568429e-05, -0.0004701180150732398, 1.0880903573706746e-05, 4.882540088146925e-05, -0.0009992234408855438, -0.0005618227296508849, 0.0008070046897046268, -0.000511220539920032, 0.0005121960421092808, 0.000276600185316056, -0.0005056140944361687, -0.0003957906737923622, 0.0007512703305110335, 0.00046243704855442047, -0.00048061396228149533, -0.001261741854250431, 0.0008821869851090014, -0.0003938560839742422, 0.0008782811928540468, -0.0008716080337762833, -0.0012953882105648518, 0.001085555530153215, -0.0011049734894186258], [-0.0007199023384600878, 0.00031713396310806274, 0.0009041798766702414, -0.0011469930177554488, -0.0005723280482925475, 0.00021791522158309817, -0.00019591742602642626, -0.00016804478946141899, 0.00011567908222787082, -0.00030773476464673877, -0.0009931325912475586, 0.00020018385839648545, -0.0006359403487294912, -0.00023196960682980716, -0.0010608829325065017, -0.0007961392984725535, -0.00013178733934182674, 0.0004060522769577801, 0.0011674396228045225, 0.001906669931486249, 0.000749620608985424, -3.225998443667777e-05, 3.866147017106414e-05, 0.0011230160016566515, -0.001951195183210075, -0.0006744868005625904, 0.0006267456337809563, -2.7588423108682036e-05, 0.0003951939579565078, -0.0011897142976522446, -0.00015010648348834366, -0.00029807252576574683, 0.000981460209004581, -0.0005968084442429245, 0.0025208950974047184, 0.0008648385992273688, -0.00034931005211547017, 0.00011581582657527179, -0.0007487497641704977, 0.0002319639315828681, -0.0022982016671448946, 0.0007803594344295561, -0.0019336857367306948, -0.00012160916230641305, 0.00022854158305563033, 0.0003958567976951599, -0.0002218669978901744, 0.0003165310772601515, 0.00036899803671985865, -0.0002824280527420342, 0.00031863385811448097, -0.0009897267445921898, 0.0011954335495829582, 0.00013178586959838867, 0.00026356076705269516, -0.0020416954066604376, 0.0016461389604955912, -0.0013233963400125504, 0.001640457659959793, -0.00012361965491436422, 0.00010587801807560027, 0.0003328843740746379, -0.0009579719044268131, 0.0007625597645528615], [-9.627885447116569e-05, -7.411621481878683e-06, 8.194534893846139e-05, 0.000131719556520693, -1.5460180293302983e-05, -0.00011636781709967181, -2.428355765005108e-05, -6.449206557590514e-05, 5.450326716527343e-05, -6.502581527456641e-05, 1.7716705769998953e-05, -0.00014166593609843403, 3.5809945984510705e-05, -6.13708543824032e-05, 4.118066135561094e-05, 2.8799336178053636e-06, -1.4478593584499322e-05, -0.0001530406007077545, 7.971562445163727e-05, -0.00013033188588451594, 7.311898571060738e-06, -3.233067400287837e-05, 0.0003933346306439489, -7.036815077299252e-05, 4.556469139060937e-05, -9.577129821991548e-05, -5.80150799578405e-06, -1.687429175944999e-05, 9.041006705956534e-05, -0.00013509734708350152, 3.5926045711676124e-06, 6.563276201632107e-06, -2.085461346723605e-05, -0.00019013688142877072, -0.0001831121335271746, -4.4009575503878295e-06, 0.00010019444016506895, -0.00015550832904409617, 5.537788638321217e-06, -6.739870150340721e-05, -0.0003926384961232543, 1.2254016837687232e-05, -1.3512579926100443e-06, -2.6782186978380196e-05, -3.6749827359017218e-06, -5.1306968089193106e-05, 6.688333087367937e-06, 0.00012837133544962853, 2.1139965610927902e-05, 5.9024678193964064e-05, -2.8873835617559962e-05, 2.710268927330617e-05, 5.008991502108984e-05, 2.4098576432152186e-06, -1.4291836123447865e-05, 4.434048241819255e-05, -4.812208658222517e-07, 2.6271325168636395e-06, -1.7074647985282354e-05, -0.00017084924911614507, -7.01638637110591e-05, -1.3313963791006245e-05, 2.5781044314499013e-05, 2.649967063916847e-05], [-6.512118125101551e-05, -1.1248289411014412e-05, 7.844379433663562e-05, 0.000135320849949494, -5.197189238970168e-06, -9.696588676888496e-05, -9.249054528481793e-06, -6.167733226902783e-05, 6.903817848069593e-05, -6.597703031729907e-05, 2.665060128492769e-05, -0.00016170510207302868, 5.7394739997107536e-05, -3.2096570066642016e-05, 3.687163825816242e-06, -1.5816210634511663e-06, 3.234061659895815e-05, -0.00017641282465774566, 7.409606041619554e-05, -5.9153608162887394e-06, 4.4150216126581654e-05, 1.2935142876813188e-05, 0.0009964582277461886, -2.669397508725524e-05, 0.00010566900891717523, -8.928040188038722e-05, -6.387933808582602e-06, -2.1914571334491484e-05, 0.00013822935579810292, -8.484501449856907e-05, 4.211453051539138e-05, 2.597431193862576e-05, 9.105635399464518e-05, -0.00014842704695183784, -0.00018359336536377668, -7.31092495698249e-06, 0.00015148546663112938, -7.65985605539754e-05, 5.892193439649418e-05, -8.284874638775364e-05, -0.0003809188201557845, 1.4090161130297929e-05, 5.375200998969376e-05, -0.0001021735297399573, 4.002232799393823e-06, -2.8535207093227655e-05, -6.912484241183847e-05, 0.00013929299893788993, 3.2559102692175657e-05, 6.869700155220926e-05, -6.339888204820454e-05, -3.856852345052175e-06, 3.626166289905086e-05, -1.7751692212186754e-05, 1.2185648301965557e-05, 5.161625813343562e-05, -5.3940926591167226e-05, 7.584439299535006e-05, 1.4551492313330527e-05, -5.058946771896444e-05, -0.0001010711130220443, -8.441767022304703e-06, 0.00012879856512881815, -1.1484255082905293e-05], [0.00028926978120580316, -1.0014722647611052e-05, 3.618364280555397e-05, -5.122084985487163e-06, 0.00022088235709816217, -9.363239223603159e-05, -0.00039517361437901855, 0.0003419677377678454, 0.00025752902729436755, -2.370703441556543e-05, 0.00018220130004920065, 0.0002804804826155305, 0.0004450791166163981, 9.897696145344526e-05, -2.162584860343486e-05, 0.00016225481522269547, -0.0003545778163243085, 0.00032976537477225065, -0.00038932886673137546, -0.0003825706080533564, 3.8545927964150906e-05, -4.340432496974245e-05, 0.005711826030164957, 0.0003615997266024351, 0.00018834235379472375, 0.0004409228276927024, -0.00015473748499061912, 0.00015026766050141305, -0.0006218685302883387, 0.00045670903637073934, -2.8382746677380055e-05, 0.0003973287530243397, 0.0005786839174106717, 0.00016124760441016406, -0.0003771925694309175, -8.500755211571231e-05, 0.00040089443791657686, -0.00035088974982500076, -3.986519004683942e-06, -0.00015618960605934262, -0.00018725877453107387, -4.573135811369866e-05, -0.0005681663751602173, -0.00012254178000148386, 0.00017091231711674482, -0.00019544179667718709, 0.00014152482617646456, -9.943345503415912e-05, -0.0003600108902901411, 7.441474008373916e-05, -3.6419383832253516e-05, -1.4291676052380353e-05, 6.601701898034662e-06, -0.0002601263695396483, -0.00021303935500327498, -2.4118515284499153e-05, -0.00021286614355631173, 5.932134808972478e-05, -0.0003891071246471256, 0.00013990172010380775, 0.0005565794417634606, 0.00018585153156891465, 0.00025855947751551867, -3.61745769623667e-05], [-0.0006325295544229448, 0.0001312351960223168, 0.0006591515266336501, -0.0006245958502404392, -0.0003180326602887362, -0.00025582703528925776, -3.394739906070754e-06, -0.0003544509527273476, 0.0001587060687597841, 0.0006383815198205411, 3.2103402190841734e-05, 0.0003222592349629849, 0.0002459069946780801, -0.0005435997154563665, -0.0003103588242083788, -0.00043315516086295247, 0.0007531297160312533, 0.00022364048345480114, 9.5170340500772e-05, 0.0007261792197823524, 0.0004343126784078777, 0.00021795193606521934, -0.00015211431309580803, 0.0003767749876715243, -0.00021110879606567323, -0.00039219827158376575, 0.00038628827314823866, 0.0002231806138297543, 0.0003914801054634154, -0.0005584227619692683, 0.0006673521711491048, -0.0003772439085878432, 0.000715661677531898, 0.0005788677372038364, 0.0010268918704241514, -0.00011266143701504916, -0.0009318549418821931, 0.0003342122945468873, 0.0003855631221085787, 0.000162572629051283, -0.0005762376822531223, 2.5122597435256466e-05, -0.0003479202277958393, -0.0011939804535359144, 7.958588685141876e-05, -0.0005873430636711419, 0.0007858218741603196, -0.0001074634346878156, 0.0006775180227123201, 0.0002572591765783727, -0.00014418133650906384, -0.0005140973371453583, -0.00022243222338147461, -0.00023844362294767052, -5.3671785281039774e-05, -0.0004132752656005323, 0.000583966146223247, 3.186919457220938e-06, 0.0005061739357188344, -5.244641215540469e-06, -0.00164457643404603, -0.0001875620218925178, 0.0002476155059412122, 0.001018670154735446], [-0.00025750137865543365, -0.0004261362773831934, 0.0003831717185676098, 0.00010450986155774444, 0.00020191841758787632, -0.00027260856586508453, -0.0003557262534741312, 0.0006534811691381037, 0.0008610386867076159, 0.000349941139575094, 0.0014880085363984108, 0.0003000652068294585, 2.7715112082660198e-05, -0.00038834006409160793, 5.03336195833981e-07, -0.0003457080165389925, 0.001118914457038045, 0.0003466545313131064, -0.001028037047944963, 0.0012093191035091877, -7.389645907096565e-05, 0.0006810864433646202, 0.0009171700803562999, 0.00023667950881645083, -0.000629907357506454, 0.0010503160301595926, -0.0004846005467697978, 0.00030284965760074556, -0.00015088057261891663, -0.0005074449582025409, -0.00010178569937124848, 0.0005219986196607351, -0.0001360521710012108, 0.00025504440418444574, -0.00032188306795433164, 0.0009656701004132628, 0.001118204672820866, 0.0006990003166720271, -7.200700929388404e-05, 0.0006108581437729299, 0.004906967282295227, 0.0005789666902273893, 0.0010479539632797241, 0.0005795918405056, -0.0007170406170189381, -0.001752752112224698, 0.0010920200729742646, 0.0006368226604536176, -4.674212686950341e-05, 0.00022784178145229816, -0.00042468978790566325, 0.0004759260336868465, -0.00018706037371885031, 0.0008891759789548814, -0.0004077415796928108, -0.00048263833741657436, 0.0006931153475306928, -1.666280149947852e-05, 0.00016676804807502776, 0.0005216603167355061, 0.0006490956293419003, -0.0005082938587293029, -0.00024237777688540518, -0.00011726337834261358], [0.002242371207103133, -0.0014624709729105234, -0.0003931598621420562, -0.0002057324891211465, 0.0008790202555246651, -0.0005985256284475327, 0.0005200366722419858, -0.0008092444040812552, 0.0009456167463213205, 0.00019111049186903983, 0.001649657730013132, 0.0001528788125142455, -0.00013254251098260283, -0.00014381526852957904, 0.0007392339175567031, 0.000617647310718894, 0.0007873718859627843, 0.0006914661498740315, -0.0007126294658519328, 0.0006485972553491592, 0.000608833332080394, -7.405717042274773e-05, -0.0017800102941691875, -6.000215944368392e-05, 0.00037638479261659086, 0.00024550012312829494, -0.000633698480669409, -0.0006211599102243781, -0.0002191564126405865, -0.0002334985474590212, 0.0003272106114309281, -0.0008054240024648607, 0.0008764067897573113, -0.00035768363159149885, 0.00024742743698880076, -9.134768333751708e-05, 0.00026356885791756213, -0.0006133242277428508, 0.0007080375216901302, -0.00021781312534585595, -0.0015503426548093557, 0.0017731902189552784, 0.00049994932487607, -0.00033954193349927664, -0.0009074106928892434, -0.000402346282498911, 0.00017501851834822446, -0.0002637617872096598, 0.00022471403644885868, -5.608856008620933e-05, 0.0014398295897990465, 0.0005566236795857549, -0.00023786970996297896, 0.0012237029150128365, 0.0007939875940792263, -0.0005524817970581353, 0.0013059602351859212, 0.0004227709723636508, -0.0016354656545445323, -0.00024255953030660748, 0.000724567158613354, 7.086702680680901e-05, -0.000477815541671589, -8.639818406663835e-05], [-0.0009818044491112232, -0.0008253761334344745, -0.00024600111646577716, -0.0007669490296393633, 4.7381618060171604e-05, -0.0006132671842351556, -0.0003681331581901759, -0.0001843338250182569, -0.0026330039836466312, -0.0011749828699976206, 0.0011177659034729004, 0.0002496145316399634, 0.00021730130538344383, -0.0010325454641133547, 0.0022133979946374893, -0.0018359763780608773, -0.002759815426543355, 0.0006823029252700508, -0.0024921682197600603, -0.0005420435918495059, -0.0002315597957931459, -0.0006539478781633079, 0.003120320849120617, -0.0020111247431486845, -0.0018444540910422802, -0.001518487581051886, 2.0513078197836876e-05, -0.0018433535005897284, -0.0016709442716091871, 0.0016485898522660136, -0.0007229991024360061, -0.0005994047969579697, 0.0010474704904481769, -0.0017486866563558578, -0.0053938040509819984, -0.0015783660346642137, -0.0021166817750781775, 0.0015663282247260213, -0.001803254708647728, 0.002217371016740799, 0.0008092642528936267, -0.0008587632328271866, -0.0006340998224914074, 0.0032023764215409756, -0.0005385737167671323, -0.0042281970381736755, -0.004535245709121227, 0.00046442358870990574, -0.0009967910591512918, -0.00046463473699986935, 0.00013291783398017287, 0.0014747518580406904, 0.0006623213412240148, -0.0005148522322997451, 0.00037727784365415573, 0.0017666658386588097, -0.006541053298860788, 0.0010576730128377676, -0.0018751986790448427, -0.0034239361993968487, -0.0003499645972624421, -0.0001827130327001214, 0.0016026212833821774, -5.347331170924008e-05]], [[-0.0036052968353033066, -0.0001396208826918155, 0.0008421388920396566, -0.0005267866072244942, -0.0017135728849098086, -0.0013127655256539583, 5.005047933082096e-05, -0.0008019060478545725, -0.00019522166985552758, -0.0007789920782670379, -0.00021973944967612624, 0.00030152869294397533, -0.0018622828647494316, -0.00010367132927058265, -0.000761773728299886, -6.332129123620689e-05, -0.000596784520894289, -0.0011861943639814854, 0.0018080503214150667, -0.00011281503975624219, -0.000519623514264822, -0.0010281018912792206, 0.006811458617448807, 0.000133560475660488, -0.0025015147402882576, -0.0013542332453653216, 5.606852937489748e-06, 0.0009250274742953479, -0.0007002361817285419, -0.0010176252108067274, -0.00047163464478217065, -0.0005810870206914842, 0.00039161962922662497, 0.00010792096145451069, 2.2144406102597713e-05, 0.0005316109745763242, 0.00024175876751542091, -0.00016558759671170264, -0.0009731630561873317, -0.002502759452909231, 0.0022261657286435366, 3.334082430228591e-05, -0.0007481203065253794, -0.0013811863027513027, -8.460836397716776e-05, -0.0012189520057290792, -0.0019261400448158383, 0.000876807258464396, 0.0012096632272005081, -0.00021664437372237444, -0.0007759624277241528, 0.0006693856557831168, 0.0003474978730082512, -0.0003155730664730072, 0.00019656481163110584, -0.0019514912273734808, 0.0007246737368404865, -0.0006724818958900869, 0.0019924980588257313, -0.0013509213458746672, -0.0004656164674088359, 0.0003854978713206947, 0.0036469921469688416, 0.0011905753053724766], [3.5650045902002603e-06, -9.940260497387499e-06, 3.2646084946463816e-06, 1.7976408344111405e-06, -2.5001018002512865e-06, -2.4530718292226084e-06, 4.515737600740977e-06, 1.220421268044447e-06, -5.150684046384413e-06, -1.400902988279995e-06, -4.171843556832755e-06, -4.899312898487551e-06, 9.940260497387499e-06, -9.940260497387499e-06, 1.6102080735436175e-06, 9.940260497387499e-06, 3.5263494737591827e-06, -3.2557359190832358e-06, -1.2833779692300595e-06, -4.56518137070816e-06, -2.2206056655704742e-06, -4.147429066847508e-08, -1.216428586303664e-06, 2.208814521509339e-06, -1.5772473034303403e-06, -2.2638489554083208e-06, 1.4204584886101657e-06, -5.3272797231329605e-06, 6.0956276684009936e-06, -1.5413532992170076e-06, 3.134611574751034e-07, 9.940260497387499e-06, -8.366650945390575e-06, -4.507635821937583e-06, -4.73273939860519e-06, 1.662150339143409e-06, -7.58331771066878e-06, 6.161136752780294e-06, 4.031114258395974e-06, 6.162850240798434e-06, 7.500245260416705e-07, 9.940260497387499e-06, 1.1790598364314064e-06, -6.108582510933047e-07, 2.419821612420492e-06, 9.940260497387499e-06, 8.678072845214047e-06, 9.940260497387499e-06, 5.84357849220396e-06, -3.1396461963595357e-06, -1.0684147611073058e-07, -4.558696218737168e-06, -4.614754743670346e-06, -7.589937013108283e-06, -5.319955562299583e-06, 5.522922037926037e-06, 2.8559245492942864e-06, -9.246900845027994e-06, -2.640450020408025e-06, -9.940260497387499e-06, 6.175588168844115e-06, 3.0833973596600117e-06, 5.822137609357014e-06, 7.016584731900366e-06], [3.1622726055502426e-06, -4.939915925206151e-06, 3.214631760783959e-07, -5.3645449042960536e-06, -3.455825208220631e-05, -9.556233635521494e-06, -1.2710289638562244e-06, 7.384001037280541e-06, -7.2754746724967845e-06, -5.694733772543259e-06, -5.926522135268897e-07, -9.472290003031958e-06, -3.3322703529847786e-05, -1.3803721230942756e-05, 1.666187927185092e-05, -4.251393875165377e-06, 4.709685072157299e-06, -9.026445695781149e-06, 2.9895672923885286e-05, -1.6413112462032586e-05, 7.996642636953766e-08, 2.4633859538880643e-06, -8.521675772499293e-05, -1.7641112208366394e-05, -2.354619027755689e-05, 1.0407694389868993e-05, -6.543937161040958e-06, 2.4235609998868313e-06, -9.37028835323872e-06, -8.917012564779725e-06, -1.5269010873453226e-06, -1.128274652728578e-05, -6.474037036241498e-06, 9.085627425520215e-06, 6.743839549017139e-07, 4.866658855462447e-06, -5.754862286266871e-06, -1.2903900824312586e-05, 1.155989707513072e-06, -1.438979415979702e-05, 1.052643438015366e-05, 2.825835508701857e-06, 6.865955128887435e-06, 1.534075454401318e-05, -4.660319973481819e-06, -4.745206297229743e-06, -5.431500085251173e-07, -9.247674825019203e-06, 1.243594454081176e-07, 7.292218469956424e-06, -6.481979653472081e-06, -5.820396609124145e-07, 3.490384870019625e-06, 6.600771030207397e-06, -7.703218216192909e-06, -1.6895482986001298e-05, 1.0586009921098594e-05, -2.2203508706297725e-05, 1.9346414774190634e-05, -1.4648145224782638e-05, -6.114158622949617e-06, 1.2180566955066752e-05, -4.715437171398662e-06, -2.1711186946049565e-06], [2.3177119146566838e-05, 4.091073606105056e-06, 6.55026815366e-05, 4.346612695371732e-05, 7.288975757546723e-05, -3.5660188586916775e-05, 1.1032503607566468e-05, 3.1196137570077553e-05, -2.4517790734535083e-05, -6.122627382865176e-05, 6.745880091330037e-05, -0.00011897740478161722, 7.677871326450258e-05, -2.3719938326394185e-05, 1.4742401617695577e-05, 9.89304044196615e-06, -4.422296115080826e-05, 7.638881470484193e-06, -2.4514150936738588e-05, -9.339321695733815e-05, -1.3786138879368082e-06, -3.087530058110133e-05, -0.00012329766468610615, -0.0001341960596619174, 8.665228961035609e-05, -9.931678505381569e-05, -2.5534282031003386e-06, 7.957469279062934e-06, -8.44900387164671e-06, -4.685713065555319e-05, 6.128079257905483e-05, -2.873024277505465e-05, -0.00010349667718401179, -8.595362305641174e-05, -2.680859324755147e-05, -0.00011506678856676444, 2.9636341423611157e-05, -2.465517354721669e-05, 3.0301416700240225e-05, 8.254030399257317e-05, -0.0001101865345844999, 1.1439038871685625e-06, 3.1611758458893746e-05, 5.204673288972117e-05, 6.261780072236434e-05, 7.461787026841193e-05, -0.00012738681107293814, 3.511754039209336e-05, -2.199426671722904e-05, -6.342408596538007e-06, 7.814484706614166e-05, 5.938162939855829e-05, 4.013454599771649e-06, 2.4276239855680615e-05, 8.695637370692566e-05, 0.0001655199594097212, -0.0002853154728654772, 0.0003498400910757482, -5.291527486406267e-05, -7.88394536357373e-05, -2.905539258790668e-05, 5.336691901902668e-05, 0.00010316399857401848, -1.2155045624240302e-05], [-0.0003249940345995128, 0.0006436261464841664, 0.0001748797221807763, -0.00031598261557519436, -0.00020046549616381526, -0.00014974552323110402, -0.0004207671736367047, -0.0010956879705190659, 0.0004709828644990921, 7.090608414728194e-05, 0.0002474426291882992, 0.0009899663273245096, -0.0008249577367678285, 0.0011333826696500182, 0.0007012856658548117, 1.6428733943030238e-05, 3.906525671482086e-05, 0.00010388736700406298, -0.0006409462075680494, 0.00012229167623445392, 0.001383951515890658, 4.148761217948049e-05, 0.0004009362019132823, 0.0016522587975487113, -6.314357597148046e-05, -0.0004113286267966032, 0.0008742527570575476, -0.0007856556912884116, 0.00044097434147261083, 0.00019036262528970838, 0.0004460756608750671, -0.0009111781837418675, 0.0014131926000118256, -0.0001385036885039881, 0.0010123184183612466, -0.0002471918414812535, 0.00045957512338645756, 0.0009327165898866951, -0.000811044592410326, 0.00015549091040156782, -0.0001716709230095148, -0.0005865461425855756, -0.0013102383818477392, -0.0008518002578057349, 0.0006136453012004495, 0.000354823685484007, -0.000155747082317248, -0.00017312630370724946, 5.190022420720197e-06, -0.00022931964485906065, 0.0007569740409962833, 0.0005323198856785893, -0.0003445287875365466, -0.0010016036685556173, -0.0004399990721140057, -0.0012460373109206557, 0.000983428442850709, -0.001359471003524959, 0.0007718688575550914, -0.00010024472430814058, -0.00012694575707428157, -0.0005676697473973036, -0.00020043808035552502, 0.000588984286878258], [0.0005355378380045295, -2.365981345064938e-05, -0.0005882787518203259, 0.00023636582773178816, 8.341908687725663e-05, 0.0009058824507519603, 0.0003182254731655121, 0.00041261932346969843, -0.0001840726617956534, -0.0003658430650830269, -0.0010361751774325967, 9.190943092107773e-05, 0.0002485729055479169, 0.0001800477912183851, 0.00010363456385675818, -0.00045411070459522307, 0.00036133977118879557, -0.0003550723195075989, -0.00040834140963852406, -0.000435464084148407, -0.0008213265100494027, -0.0009020100114867091, 0.00048533754306845367, 8.96177371032536e-05, -0.00023450655862689018, 0.00020201414008624852, 0.0004955854965373874, 0.0006850273348391056, -0.0010040279012173414, 0.0005279717734083533, -0.00038828200194984674, -0.0006597420433536172, -0.0006386135937646031, 0.00019994957256130874, 0.0007485608221031725, -0.0005695273284800351, 0.00038110834429971874, 0.0002512678038328886, 5.385855911299586e-05, 0.00048821105156093836, -0.0010835407301783562, 0.00020037736976519227, -0.0005155375692993402, -0.00052885920740664, -0.00016372086247429252, -1.2831296771764755e-06, -0.0019727509934455156, -0.0008203185279853642, -0.0005887599545530975, -0.00034753966610878706, 0.00051660998724401, -0.00022068401449359953, -0.0004365841450635344, 1.9562859961297363e-05, 0.00047459942288696766, -0.00044618442188948393, -3.162366192555055e-05, 0.0002225142379757017, -0.00022998391068540514, -0.00032742336043156683, -0.0009338917443528771, -9.95741575025022e-05, -0.0002158432616852224, -3.3354497190885013e-06], [0.00013980989751871675, -0.00026758969761431217, 0.00064380734693259, -0.0002903538988903165, -0.0024009142071008682, -0.0011155246756970882, -0.0003975420549977571, -0.0004330399970058352, 0.00020944565767422318, -0.00033732829615473747, 0.0005876836366951466, -0.0002732860448304564, -0.0012396428501233459, -0.0018876225221902132, 0.0006057745194993913, -0.0002613467222545296, -0.0007640300900675356, -0.001688339514657855, -0.0006492641987279058, 0.0013792798854410648, -0.0008954802760854363, -9.118224261328578e-05, -0.0024463848676532507, -0.00029923999682068825, -0.00046454533003270626, 3.5916600609198213e-06, -0.0009789427276700735, 2.1822366761625744e-05, -9.63604252319783e-05, 0.0001803844643291086, 0.0005598104908131063, -0.0005204498884268105, 0.00033449498005211353, -0.0005323140067048371, -0.0002777113113552332, 0.00036765780532732606, -0.0005847462452948093, -0.0001797445584088564, 0.0001457204925827682, -0.0008017573272809386, -0.0005121964495629072, -7.211709453258663e-05, -0.0011836083140224218, 0.00040548702236264944, 0.00041570840403437614, -0.0021460005082190037, 0.0002777600602712482, -0.0006066504865884781, 0.00038121387478895485, 0.0004902856890112162, 0.0018070356454700232, 0.0004494700988288969, -0.0008762263460084796, -0.0002956113312393427, -0.0001221018610522151, -0.0011855756165459752, -0.00019378493016120046, 0.0006565547082573175, 0.00033070624340325594, 0.002226976677775383, -0.0013324700994417071, -0.00032985222060233355, -0.0009003496961668134, -0.0006929816445335746], [-0.000600568309891969, -0.0010822013719007373, 0.00021706297411583364, 0.00022377484128810465, 0.0017941449768841267, -0.00027997727738693357, 0.0008153925882652402, 0.0015696808695793152, -0.0007682027062401175, 0.00022836880816612393, 0.0005236669676378369, 0.0006024668691679835, 0.001272514695301652, -0.0016274040099233389, -0.0014729879330843687, -0.0014767535030841827, -0.0012159118195995688, 0.0022593222092837095, -5.2835093811154366e-05, 0.0011087683960795403, 0.000702798250131309, 0.0006667341222055256, 0.00037613254971802235, -0.0006734296912327409, -0.0007530541624873877, 0.0014600055292248726, -0.0005463691195473075, 0.0007167019066400826, 0.0009217263432219625, -0.0006893038516864181, -0.0008029111195355654, 0.0011804604437202215, 3.362580173416063e-05, -0.0011558255646377802, 0.0029136361554265022, 0.0006122856866568327, 0.0020439864601939917, 0.0010961330262944102, -0.00029145696316845715, 0.001322985626757145, 0.0015103849582374096, -0.0002355389588046819, -0.0007217559032142162, -0.0001138343068305403, -0.00023762240016367286, -0.00021199515322223306, -0.00010464333172421902, -0.0008878184016793966, -0.00043060752796009183, 0.0002646516659297049, 8.718605386093259e-05, -0.0012024061288684607, 0.00040046623325906694, 0.0004382839542813599, -0.00011971216008532792, -0.0001447679242119193, 0.00018358789384365082, -6.93887413945049e-05, 0.00011385635298211128, -0.0009551234543323517, 0.00047580726095475256, 0.0009729991434141994, -0.000313258555252105, 0.0001496172626502812], [0.0001548049767734483, 8.26244013296673e-06, -2.8463764465413988e-05, 2.0791800125152804e-05, 1.069205882231472e-05, 8.050772157730535e-05, 6.201172800501809e-05, -3.947945515392348e-06, -2.475967994541861e-05, -6.458491407101974e-05, 3.7840395634702872e-06, -1.5046953194541857e-05, -6.4979021772160195e-06, -1.9512968719936907e-05, 2.3909866285976022e-05, 1.286297629121691e-05, -8.148408232955262e-05, -3.2225325412582606e-05, -5.572008012677543e-05, 2.090151065203827e-05, -1.0234870728709211e-07, 2.7992318791802973e-06, 0.00044159646495245397, -1.0785240192490164e-05, 4.9281246901955456e-05, 2.871464312192984e-05, -2.3585056624142453e-05, -1.550624438095838e-05, -4.212587373331189e-05, 0.00014702128828503191, 2.9556149456766434e-05, -6.568807293660939e-06, 2.608272188808769e-05, 5.211332245380618e-05, -3.4395950933685526e-05, -4.665003143600188e-05, 5.1030823669862e-05, -2.2984022507444024e-05, 2.116088944603689e-05, -1.8450791685609147e-05, -3.585000376915559e-05, 1.4850159459456336e-05, -2.1981857116770698e-06, 2.7917863917537034e-05, -7.77006698626792e-06, -6.638267223024741e-05, -2.9845949029549956e-05, -3.229465801268816e-05, -2.1232834114925936e-05, -2.9462694328685757e-06, 4.6731809561606497e-05, -5.080486971564824e-06, -2.8191379897180013e-05, -3.9202277548611164e-05, 4.374178024590947e-05, 9.244937973562628e-05, -7.309181819437072e-05, 1.3962933735456318e-05, -0.00010318541899323463, 0.0001284970057895407, 6.375496741384268e-05, 1.5205755516944919e-05, -7.604027632623911e-05, -2.9642882509506308e-05], [0.00020319719624239951, 1.0933015801128931e-05, -2.9601555070257746e-05, 7.831036054994911e-05, 7.888845175330061e-06, 0.00011639946751529351, 8.167150372173637e-05, -2.2831289243185893e-05, -5.913610948482528e-05, -5.862237230758183e-05, 2.063130887108855e-05, -1.8578139133751392e-05, 1.969410732272081e-07, -3.4433558084856486e-06, 2.8773429221473634e-06, 2.8227232178323902e-06, -0.00010619305248837918, 1.725724905554671e-05, -2.3498454538639635e-05, 1.4637069398304448e-05, -2.7506732294568792e-05, 9.542423867969774e-06, 0.0002788343117572367, -4.458234616322443e-05, 2.1272877347655594e-05, -1.0881212801905349e-06, -5.304271326167509e-06, 4.538639586826321e-06, -3.995314546045847e-05, 9.453139500692487e-05, 4.6536231820937246e-05, -8.643195906188339e-05, -3.558954631444067e-05, 3.8309910451062024e-05, -4.885879752691835e-05, -0.00010429370013298467, 3.9274251321330667e-05, -3.0237773898988962e-05, 3.993024802184664e-05, 3.5877008485840634e-05, -1.8071425074595027e-05, -4.382069892017171e-05, 4.52103340649046e-05, 3.5356908483663574e-05, -8.200146112358198e-06, -1.4417899365071207e-05, -5.8499957958702e-05, 4.283949238015339e-06, -4.7687535698059946e-05, 1.6780879377620295e-05, 8.83785014593741e-06, 5.772383701696526e-06, -3.490642484393902e-05, -1.0654248399077915e-06, 8.029782065932523e-07, 7.269974594237283e-05, -0.00013482419308274984, 5.9558809880400077e-05, -0.00015681188961025327, 0.00012865154712926596, -4.136251300224103e-05, 2.098315962939523e-05, -8.118974801618606e-05, 4.42175951320678e-06], [0.000393075926695019, 7.6608921517618e-06, 5.405585397966206e-06, -0.00011627381900325418, 0.0009855956304818392, 0.0003084137279074639, -0.0001832862908486277, -5.909885658184066e-06, 1.8160131730837747e-05, 5.260517355054617e-08, 0.00011770824494305998, 6.19321217527613e-05, 0.00033208614331670105, 0.0002953194489236921, -0.00022367056226357818, 1.7534133803565055e-05, -0.00021073462266940624, 7.421566260745749e-05, -0.00014900464157108217, 3.87930849683471e-05, -4.694301969720982e-05, -0.00014910157187841833, -0.0006329460884444416, 0.0001472413568990305, 0.00041311775567010045, 4.631845513358712e-05, -8.038434316404164e-05, -0.00017557568207848817, 0.00013733450032304972, 0.0001156502403318882, -0.00034089043037965894, 9.524625056656078e-05, 0.0001593823981238529, 0.00017417829076293856, -0.0003399040724616498, -0.00037607603007927537, -0.0003400796849746257, -9.361155389342457e-05, 0.00026018026983365417, -3.6203091440256685e-06, 0.0006356901722028852, -0.0001392553240293637, -0.00019905179215129465, 0.00017550424672663212, 9.584749932400882e-05, 0.00011071540939155966, 8.195429836632684e-05, 3.14691751555074e-05, -1.3642827980220318e-05, 8.322788926307112e-05, 9.483789472142234e-05, -0.00016256279195658863, -8.947451715357602e-05, -0.00011907421139767393, 0.0007061697542667389, 0.0005369675345718861, -0.00045893259812146425, 0.0005154116661287844, -0.0005283065838739276, -0.00015690852887928486, 0.00011309813999105245, -7.935805479064584e-05, 5.4913791245780885e-05, -0.0001248987391591072], [0.0007886645034886897, 0.0004746519844047725, -0.0009043829049915075, 0.00024260733334813267, -0.00045546190813183784, -0.0003461794403847307, 0.0002065479930024594, 2.824488365149591e-05, -0.0005971884820610285, -0.0002851150056812912, -0.0010602128459140658, -0.000622895429842174, -0.0003741900436580181, -0.0007245148299261928, 0.0006726258434355259, -0.000257004052400589, 0.0005397527129389346, 0.0002603399334475398, 6.386566383298486e-05, 3.910482337232679e-05, 0.00029646261828020215, -0.0005207796348258853, -0.0033291380386799574, -0.00027048378251492977, 0.0006695188349112868, -0.0006665961700491607, -6.837269756942987e-05, 0.0002916983503382653, -0.0005319656920619309, 0.001000849180854857, 0.00017152089276351035, -0.0010704799788072705, 0.0004510442668106407, 0.0005419299122877419, -0.0001921075745485723, 9.560208127368242e-05, 0.00025717358221299946, 0.00010022422065958381, 0.0003744099522009492, -0.0011265920475125313, -0.0007744617760181427, -0.0002196648420067504, -0.0003600745985750109, 0.00022868186351843178, 0.00029610193450935185, -0.0006282482645474374, -0.0002139579737558961, -0.0010975304758176208, -0.0007726026233285666, 6.137043237686157e-05, 0.00014764965453650802, 0.00045894947834312916, -1.0676973033696413e-05, -0.0003157752216793597, -0.0004229818587191403, -0.0001834561990108341, 0.00015811691991984844, -5.5347678426187485e-05, 0.00012401040294207633, 0.00070619658799842, -0.0005498097743839025, 0.0003719704400282353, 0.0004927525296807289, -0.00075286824721843], [0.0001637553214095533, -0.0005675595602951944, -7.191112672444433e-05, -0.0010930855059996247, -0.0002693042333703488, 0.0009163530776277184, -0.0004186524311080575, -0.0002051742048934102, 0.0002341303916182369, -0.00015501501911785454, -0.0001251545618288219, -0.000990261323750019, 0.0003110142715740949, -0.00021127244690433145, 0.0012745929416269064, 6.642559310421348e-05, 0.000892255047801882, -0.0001947537821251899, -0.0008458974189125001, -0.0006372368661686778, -0.00032862776424735785, 0.00020534146460704505, -0.004118333104997873, -0.00015414405788760632, 0.00019765080651268363, 0.0001299209543503821, -0.0017178594134747982, -0.0008995989337563515, 0.0001945238036569208, -0.0003717034705914557, 0.00018488545902073383, 0.00016571384912822396, -0.000586854584980756, -0.0007541067316196859, -0.0015749529702588916, -9.000512363854796e-05, -0.0011344975791871548, -0.0007867651875130832, 0.0006615364109165967, 4.013211582787335e-05, -0.0009322295663878322, 0.000699192751199007, 0.00027387909358367324, 0.0008890490862540901, -0.0006135953008197248, 6.051355740055442e-06, 0.0003073480329476297, -0.00018602631462272257, 8.184020407497883e-05, 0.0003408272750675678, -0.0002730097039602697, 0.000617120647802949, -0.0006457240087911487, 0.0002674814604688436, 0.0008807263220660388, 0.00047081653610803187, -0.00017266177746932954, -0.0005900152027606964, -0.000510682410094887, -0.0002584525500424206, -0.0005605274927802384, -3.0356895877048373e-05, -0.00018138953601010144, -2.2836262360215187e-05], [0.0007857627351768315, -0.0010948400013148785, -0.0003374445950612426, 0.0007288500783033669, 0.00038145072176121175, 4.074024400324561e-05, 0.0013235186925157905, -0.0005140315624885261, -0.0005326502723619342, -0.000668504333589226, 0.0013554811011999846, -0.0018497641431167722, -0.0002885264402721077, 0.000253806181717664, 8.586942567490041e-05, 0.0005318618495948613, 0.0007662468706257641, -0.0007196770748123527, 0.0006425687461160123, 0.0006263243267312646, 0.0004765091580338776, 0.0012980499304831028, -0.0039789252914488316, -0.0012952545657753944, 0.0005877878866158426, 0.000558401457965374, -0.0007391560939140618, -0.0012153303250670433, -0.0006303208065219223, -9.748101001605392e-05, -0.0007839850150048733, -0.0007469237898476422, -0.0004596056242007762, -0.0004165851860307157, 0.00032616569660604, 0.00040370115311816335, 0.0003057804424315691, -0.0002916065277531743, 0.00020026310812681913, 2.8115668101236224e-05, -0.0008821815135888755, 0.0007693725056014955, -0.0006421389989554882, 0.0009859830606728792, 0.0007714255480095744, 3.797435783781111e-05, -0.00041103849071078, 2.160490839742124e-05, -0.00031587554258294404, 0.000178890026290901, 0.0001634222426218912, 0.0016702469438314438, -0.00017909961752593517, 0.0006935698911547661, 0.0007724222959950566, -0.00012867443729192019, -0.000285847345367074, 0.0009670762228779495, -0.00026741341571323574, -0.000641311751678586, -0.0011839421931654215, 0.0008053411729633808, -8.680513565195724e-05, -0.0017963461577892303], [-0.0009478529682382941, -0.0014040754176676273, -0.0002895181532949209, -0.0007604837883263826, -4.970957525074482e-05, -0.0006697166245430708, -0.0002775545581243932, 0.0005998238921165466, -0.002578248968347907, -0.0012457346310839057, 0.001106402138248086, 0.00029774883296340704, 0.0002925412554759532, -0.0009385038865730166, 0.0021457839757204056, -0.0016282687429338694, -0.0026270176749676466, 0.0005744924419559538, -0.0027344455011188984, -0.0005126592004671693, -0.0014989706687629223, -0.0007155110943131149, 0.003573785535991192, -0.0022403886541724205, -0.0017782460199669003, -0.0007631817716173828, -0.0007502917433157563, -0.0018751014722511172, -0.0016611239407211542, 0.0018055312102660537, -0.0006817028042860329, 0.00031456435681320727, 0.0010437004966661334, -0.0017490577884018421, -0.005624938756227493, -0.0015265117399394512, -0.0017742100171744823, 0.0015180620830506086, -0.0016717729158699512, 0.0023674271069467068, 0.0006549296667799354, -0.0008907344890758395, 0.00013361789751797915, 0.0032012537121772766, -0.0011650982778519392, -0.005700872745364904, -0.00452839583158493, 0.0003792589996010065, -0.0011061752447858453, -0.0009060287848114967, 0.0001064934185706079, 0.0016256853705272079, 0.0005775447934865952, -0.0006961134495213628, -0.0008129077032208443, 0.001990047749131918, -0.006709761451929808, 0.0013496049214154482, -0.0024177252780646086, -0.003360162489116192, -0.00025151617592200637, -0.0005407914286479354, 0.0014761077472940087, -0.00044837649329565465]], [[-0.0012472636299207807, -0.0006415907992050052, -0.0006167861865833402, 0.0014168169582262635, 0.0016504384111613035, -0.0012781430268660188, 0.0002648617955856025, 0.0001539614167995751, 0.0003687764110509306, -0.00014631770318374038, 0.0002202622126787901, 0.0004120089579373598, 0.000469993450678885, 0.000971834291703999, -0.0016381441382691264, -0.001402543974108994, 0.0003726573195308447, -0.00028558610938489437, -0.0016598589718341827, 0.0013051488203927875, 0.00023910045274533331, 0.00040522561175748706, 0.001817998243495822, -0.00010501212091185153, 0.0012166821397840977, 0.0004911790601909161, -0.0005747101968154311, -0.0013860990293323994, 0.00017145846504718065, -0.0007087936392053962, 0.00032899482175707817, -0.00012874859385192394, 0.0011887883301824331, -0.00010880750051001087, 0.0006191979628056288, 0.0009196732426062226, 0.0024292070884257555, 0.0001414771977579221, 0.00037173807504586875, -0.00043373467633500695, 0.0018078763969242573, 8.201507444027811e-05, -0.0005624933983199298, -0.0016208314336836338, -0.00011996793909929693, -0.0006447462365031242, -0.000599859980866313, -9.322480764240026e-05, 0.0009011300280690193, -0.0002103475562762469, 0.003053331049159169, -0.0009115615393966436, -0.0006470077205449343, -0.0016488843830302358, -0.00011745438678190112, -0.0010004929499700665, -4.166096186963841e-05, -0.001980744767934084, 0.0007728742784820497, -0.00015169294783845544, -7.843071216484532e-05, 0.0009014387615025043, 0.00015740538947284222, 0.0004268756601959467], [-1.9060704516959959e-06, 5.240586688159965e-06, 4.1695707864164433e-07, 1.290077648263832e-06, 9.940260497387499e-06, 5.1870483730454e-06, -2.3333312171303078e-08, -1.220574858962209e-06, -2.3005316052149283e-06, -1.9662843442347366e-06, -6.090209581088857e-07, -3.5966909308626782e-06, 5.850112756888848e-06, 1.9428432551649166e-06, -1.7785446289053652e-06, 1.4130448562355014e-06, -1.1938922170884325e-06, -7.842111699574161e-06, -7.854258001316339e-06, 9.609804692445323e-06, 8.559899470128585e-06, 1.39759799822059e-06, 2.066247816401301e-06, 9.493595598542015e-07, -6.246792054298567e-06, -6.202085955919756e-07, 3.4482507089705905e-06, -4.256637112121098e-06, 1.9871024505846435e-06, -1.5211388699754025e-06, 3.9446922528441064e-07, -3.946539891330758e-06, -4.126683506910922e-06, 6.670358743576799e-06, 7.343398010561941e-06, -9.008724077830266e-07, -1.8295811514690286e-06, 3.7353686366259353e-07, -2.861745770132984e-06, -7.120741884136805e-06, -1.0798243721410472e-07, 4.2065034904226195e-06, -1.024027369567193e-06, 4.110240752197569e-07, -7.131419010875106e-07, 6.139785000414122e-06, 2.2367019028024515e-06, -1.0818914688570658e-06, 4.825505129701924e-06, -9.940260497387499e-06, -1.154210849563242e-06, -1.4541776636178838e-06, 5.533976036531385e-06, -3.849562290270114e-06, -4.882610937784193e-06, 3.378082737981458e-06, 9.58714917942416e-06, 2.2686888314638054e-06, 3.2494849619979504e-06, -7.421466762025375e-06, -8.839931069815066e-06, 9.657816917751916e-06, -7.898692047092482e-07, 4.295879989513196e-06], [1.8558212104835548e-06, -2.33382047554187e-06, -3.11580970446812e-06, -5.496947778738104e-06, -1.3873102943762206e-05, 4.643878583010519e-06, 4.2284609662601724e-06, -7.538178579125088e-06, -1.4766809499633382e-06, -5.3702965487900656e-06, 4.866490144195268e-06, -9.110252904065419e-06, -3.387778178876033e-06, 2.8352044409984956e-06, -4.2669234971981496e-06, -1.973276994249318e-06, 2.087239863612922e-06, 8.873570550349541e-06, 7.019515123829478e-06, -7.505791927542305e-06, -1.825987965275999e-05, 1.7047440223905141e-06, 6.478808245446999e-07, -2.8143662348156795e-05, 4.053512839163886e-06, 7.045261554594617e-06, -1.1168541277584154e-05, 3.7840750337636564e-06, -5.020325716031948e-06, -1.16943792818347e-05, 6.148300599306822e-06, -1.0328679991289391e-06, -6.881042281747796e-06, -6.7974478952237405e-06, 5.214330485614482e-06, 5.518782927538268e-06, -3.0437267923844047e-06, 9.915238479152322e-06, 1.0849880709429272e-05, 5.630172950077394e-07, 1.0328658390790224e-06, 3.7617667203448946e-06, -9.371616215503309e-06, 4.524648829828948e-06, -7.471296612493461e-06, -4.3228550339335925e-07, -5.63489902560832e-06, 9.731029422255233e-06, -1.0046376701211557e-05, -1.093452829081798e-05, -1.1089659892604686e-05, 4.254954092175467e-06, -8.502318451064639e-06, 5.4613415159110446e-06, -9.189541742671281e-06, -4.124757197132567e-06, 4.444746082299389e-08, -3.2151228879229166e-06, 1.273793532163836e-05, -7.520147846662439e-06, 8.005429208424175e-08, -6.194670731929364e-06, -1.1157009794260375e-05, 1.0951938747894019e-05], [-1.6456055163871497e-05, 3.6763594835065305e-05, 6.693800241919234e-05, 6.387570465449244e-05, 9.290926391258836e-05, -6.308459705905989e-05, 3.806821769103408e-05, -5.064410652266815e-05, 4.3349187762942165e-05, 2.2521351638715714e-05, 7.846360676921904e-05, 1.942810558830388e-05, 2.6027393687400036e-05, 4.2046187445521355e-05, 8.465559221804142e-05, 8.670201350469142e-05, -6.095223216107115e-05, 2.5763598387129605e-05, -6.061809108359739e-05, 1.1117355825263076e-05, 6.252837192732841e-05, -9.906785271596164e-05, 5.5254211474675685e-05, 1.769262416928541e-05, 9.721594688016921e-05, -5.4488649766426533e-05, 1.0873945939238183e-06, 1.4396289770957083e-05, 4.711244037025608e-05, -3.6589368392014876e-05, 3.062191535718739e-05, -4.776474725076696e-06, -1.816714575397782e-05, -3.440787622821517e-05, 0.00010279323760187253, -1.4487341104540974e-05, 6.162511454022024e-06, -1.816899555251439e-07, -8.643842193123419e-06, -1.0519315765122883e-05, -1.9457984308246523e-05, -4.145874481764622e-05, -9.725366544444114e-05, 7.231521522044204e-06, 5.270567271509208e-05, 2.0057870642631315e-05, -9.210756979882717e-05, 8.328720286954194e-05, -3.922834002878517e-05, 8.468193118460476e-05, 2.1346721041481942e-05, 5.5222924856934696e-05, 6.482956814579666e-05, -6.725099228788167e-05, 5.4998541600070894e-05, 7.56488589104265e-05, -7.683267176616937e-05, 3.746885704458691e-05, -9.726900316309184e-05, 9.81056728051044e-05, 9.446404874324799e-06, 0.00015487612108699977, 0.00011964871373493224, -5.545915337279439e-05], [-0.0002063784922938794, 0.00024137337459251285, -0.00016256867093034089, -0.0002995966642629355, 4.522560629993677e-05, -2.715578011702746e-05, 0.0003896501148119569, -0.00023324304493144155, -0.0003341478877700865, -0.0009847478941082954, 0.0005262827035039663, -0.0009700507507659495, -0.0005470017204061151, 9.02850297279656e-06, -3.17927188007161e-05, 0.00040821265429258347, -0.0004354962147772312, -4.215165972709656e-06, 0.0013504824601113796, 0.00030965101905167103, -3.10465729853604e-05, -0.00048494385555386543, -0.0011598129058256745, -0.0004717556876130402, 0.00047229952178895473, 0.00023152699577622116, -0.0002455135399941355, -0.00018691824516281486, -0.0006769504980184138, 0.00021582104091066867, 0.00011841263039968908, -0.00011533065844560042, 0.0007904002559371293, 0.00024004088481888175, -0.0006750185275450349, -0.0008493161294609308, -0.00015778618399053812, -0.00012753537157550454, -0.0004378018493298441, -0.0008783072698861361, -0.00041951617458835244, -0.0002961932623293251, -2.46593845076859e-06, -0.00023076371871866286, 8.730961417313665e-05, -0.0007037217728793621, -6.343932909658179e-06, 2.360803773626685e-05, -0.0005112586077302694, 0.000637992168776691, -0.0001447922841180116, 0.0004891711287200451, 0.0008255282882601023, -0.0005923266289755702, 0.0008689184905961156, -0.00033969449577853084, 0.0002427585714031011, 3.9946724427863955e-05, 0.00018819316755980253, -7.210658077383414e-05, -0.0004819939786102623, -0.0002358011988690123, 0.0011068334570154548, 5.176859849598259e-05], [0.00014698704762849957, 1.680213608779013e-05, 0.0003624354721978307, -0.0004903151420876384, 0.0001315405243076384, 0.0005823974497616291, -0.0005218455335125327, 0.00011084281140938401, 3.993084828834981e-05, -0.0012828675098717213, 0.00017651540110819042, -0.0007471403805539012, 0.0007708178600296378, -0.0004058369086124003, -0.00028144015232101083, -0.00020593796216417104, -0.0002046863519353792, -0.00040989756234921515, -0.00020223326282575727, -3.134039434371516e-05, -0.0003444254689384252, -0.0002784749958664179, -0.0010840799659490585, -0.0014008808648213744, 0.00036953832022845745, 0.0002944032894447446, -0.0014342634240165353, 0.00024689437123015523, 0.0007229015463963151, 0.00012304482515901327, 0.00035629826015792787, -0.0004651098570320755, -0.0002588688803371042, -0.0006809926708228886, -0.001074239844456315, -0.0007806892972439528, 0.00046579676563851535, -0.0003248309076298028, 0.0007576405187137425, -0.00016992673045024276, -0.000995276845060289, -0.00012044516915921122, 2.4005930754356086e-05, 0.0006495726411230862, 0.00027170017710886896, 0.0002223440387751907, -0.0001927623525261879, 0.0008528538164682686, -1.8981823814101517e-05, 0.00029205638566054404, 0.00019195399363525212, 0.0006169220432639122, 0.0007533108000643551, 0.0003865360631607473, 0.0013704028679057956, 0.0007163374102674425, -0.0005086420569568872, 0.00042953752563335, -0.0007844161009415984, -0.0007471420685760677, -0.0007423734059557319, -1.8819944671122357e-05, 0.0004919770290143788, 0.00026438082568347454], [0.0002740120398811996, -0.0007916359463706613, 0.00017598448903299868, -2.5924804504029453e-05, -0.00040918748709373176, -0.0012327157892286777, -0.000213817271287553, -0.00042523982119746506, -0.0002589459763839841, -0.0017144759185612202, -0.0005075981607660651, 0.0005655334098264575, -0.00032646406907588243, -0.0006996322772465646, 0.00046333513455465436, 0.0006673915777355433, 0.0002127469051629305, -0.0002607787027955055, -0.0018616801826283336, -0.0005648389342240989, 0.001110600191168487, -0.0008239385206252337, -0.00237878505140543, 0.0009082579636014998, 0.001516703050583601, -0.000637655786704272, -0.003479801118373871, -8.038041414692998e-05, 0.0005007304716855288, 0.0005819296929985285, 0.00011339951015543193, -0.00020791185670532286, -0.0011197773274034262, 5.308910476742312e-05, -0.0004897549515590072, 0.0010747723281383514, 0.0014098421670496464, -0.00024365057470276952, 0.0019927690736949444, -0.00176716479472816, -0.0021491029765456915, -0.00047980068484321237, -2.1747255232185125e-05, 0.0010418443707749248, 0.0009586880332790315, 0.00012408150359988213, -0.0005980775458738208, -0.0005162553279660642, 0.0005256281583569944, 0.0008980609127320349, -2.9459246434271336e-05, 0.00033767102286219597, 0.0005185456830076873, -0.00221959687769413, -0.00019904060172848403, -0.0010040011256933212, -0.00023303154739551246, -0.0002840257075149566, 0.0013021838385611773, 0.0008257785812020302, 4.28948005719576e-05, 0.0006133880815468729, -0.001272639725357294, -0.0001826907100621611], [-0.001989902462810278, -0.00048210055683739483, 0.0005834292387589812, 0.00045138809946365654, -0.0012434107484295964, -0.001108057564124465, -0.000948679109569639, -0.00037768014590255916, -0.0016838531009852886, -0.0006289197481237352, -0.0017353356815874577, -0.00050052982987836, -0.0006772676715627313, -0.0008228187216445804, -0.0020173739176243544, -0.001129327341914177, -0.0011157817207276821, 0.0004809437959920615, 0.0032663007732480764, 0.0012780928518623114, -0.0015271486481651664, 0.00035923629184253514, 0.00736619858071208, -0.0003427169576752931, -0.00124955247156322, -4.441532655619085e-05, 0.0005259710596874356, 0.0024575642310082912, -0.0003431333170738071, -0.0016224444843828678, -0.001069687306880951, -0.0005792092415504158, 0.0010879683541134, -0.0011379411444067955, 0.0023639241699129343, 0.00048222753684967756, -0.004027767106890678, 0.000212822575122118, -0.0005482472479343414, -0.0014802981168031693, 0.0028925598599016666, 5.277783202473074e-05, -0.0018374238861724734, -0.0004386721411719918, -0.00019777831039391458, -0.0008489809697493911, -0.0016527620609849691, 0.00027220568154007196, -0.0007736536208540201, -0.000131603519548662, -0.00394607475027442, 0.0003073458792641759, 0.001019595772959292, 0.0002285315713379532, -0.0005895331269130111, -0.00043911338434554636, -0.0005621416494250298, 0.001379478257149458, 0.0014370584394782782, -0.004071493167430162, -0.000770560116507113, 0.00023824325762689114, 0.0030975029803812504, -8.26527684694156e-05], [3.547935557435267e-05, -5.8447826631891076e-06, -2.476533700246364e-05, -0.00011625050683505833, 3.427905176067725e-05, 1.8713465976816224e-07, 1.3958587260276545e-05, -2.8746475436491892e-05, 7.74797226767987e-05, -1.678824810369406e-05, -2.0840130673605017e-05, -3.7973066355334595e-05, -4.0198054193751886e-05, 1.2690609764831606e-05, 1.0689700502553023e-05, 8.928410579756019e-07, 2.137186675099656e-05, 4.917196565656923e-05, -6.908395789650967e-06, 2.171909954995499e-06, 2.2186024580150843e-05, -2.432775181659963e-05, 1.7068887245841324e-06, 1.0800373274832964e-05, 4.909490598947741e-05, -8.629150397609919e-05, 1.2809388863388449e-05, 1.7088115782826208e-05, 2.5501944037387148e-05, 2.473430686222855e-05, -1.5720215742476285e-05, -3.2440273116662866e-06, 5.199672523303889e-05, 3.3728601920302026e-06, -5.042502743890509e-05, -5.455294171952119e-07, 2.461422081978526e-05, -4.131995956413448e-05, 4.916109173791483e-05, -5.380602306104265e-05, -3.7738557239208603e-06, -8.288673598144669e-06, 1.1694775139403646e-06, -0.00010110508446814492, 5.208484708418837e-06, 1.2888132914667949e-05, -2.9333949669307913e-07, 4.8356330808019266e-05, 0.00011155039828736335, -1.5543189874733798e-05, 5.2428353228606284e-05, 1.6852010958245955e-05, -3.291991743026301e-05, -5.319867796060862e-06, 2.001281245611608e-05, 1.1331412679282948e-05, 1.919659916893579e-05, -6.063010914658662e-06, -1.8733771867118776e-05, 3.2307147193932906e-05, 2.403893813607283e-05, 7.148807412704627e-07, -3.051951716770418e-05, 6.37786797597073e-05], [-2.5230161554645747e-05, -1.7114754882641137e-05, -3.1818584830034524e-05, -7.939569331938401e-05, 6.511898391181603e-05, 2.225573371106293e-05, 8.831009836285375e-06, -3.4030515962513164e-05, 0.00010587122233118862, -5.741168570239097e-05, -2.1706271581933834e-05, -8.872360922396183e-06, -2.9192387955845334e-05, 2.688305903575383e-05, 6.825290620326996e-05, 2.864091220544651e-05, 6.25523243797943e-05, 0.00012990606774110347, -1.648307079449296e-05, 6.983851926634088e-05, -4.8696452722651884e-05, -0.00016937620239332318, -5.0226102757733315e-05, 3.7227177926979493e-06, 3.151880082441494e-05, -0.0001422117929905653, 4.7665394959039986e-05, 6.0424910770962015e-05, 7.166833529481664e-05, 3.119091707048938e-05, 1.3466532436723355e-05, 4.246662501827814e-05, 8.949752373155206e-05, -3.507095971144736e-05, 8.735547453397885e-05, -2.5301553250756115e-05, 2.0870576918241568e-05, -5.233056072029285e-05, 3.0148778023431078e-05, -4.5048072934150696e-05, -3.25033106491901e-05, 3.826201918855077e-06, -3.927923899027519e-05, -0.00014009818551130593, 5.773710290668532e-05, -1.6909558326005936e-05, 0.00014242695760913193, 7.622098928550258e-05, 0.00015533034456893802, 4.0165432437788695e-05, 7.058486517053097e-05, 6.456035043811426e-05, -2.2233518393477425e-05, 1.8570067368273158e-06, -8.675193384988233e-06, -3.97726898881956e-06, -4.819903915631585e-05, 7.959988579386845e-06, -4.646649904316291e-05, 8.140607678797096e-05, 2.972429501824081e-05, 5.551988579099998e-06, 0.00012915959814563394, 4.678312689065933e-05], [-3.088303856202401e-05, 0.0002511855564080179, -7.892207941040397e-05, -0.00024618685711175203, 0.0002015231002587825, -8.259581954916939e-05, -0.00030521792359650135, -0.00020435536862351, 0.0003206696710549295, 0.0007792202522978187, 2.977935946546495e-05, -6.314877100521699e-05, 1.4594972526538186e-05, 0.00016731933283153921, 0.00022284839360509068, -0.0003379051049705595, -1.3896744349040091e-05, 0.00019813426479231566, -1.9468487153062597e-05, -0.0003282122779637575, 0.0002401528472546488, -2.213695552200079e-06, -0.00023248344950843602, 0.0005296577583067119, 0.0001929808349814266, -0.0002938880352303386, 0.0013853568816557527, 0.00023772762506268919, -0.00014783060760237277, -8.136361429933459e-05, -0.000107180567283649, -0.00018260395154356956, 0.000716099631972611, -0.00016527324623893946, -2.4173041310859844e-05, -8.202424214687198e-05, -6.3800616771914065e-06, -0.00024356298672500998, -0.00014225167979020625, 0.0003325670841149986, 3.922550240531564e-05, -9.319823584519327e-05, -0.0006124048377387226, -0.0002880592073779553, 0.00017674868286121637, -0.0001946958072949201, 0.00016939197666943073, 0.0002464173303451389, -0.00030318315839394927, 0.00018401394481770694, 2.6130197511520237e-05, 0.00044318533036857843, 0.0001718146522762254, -0.00013414560817182064, 0.00010369713709224015, 0.00020485869026742876, 1.6580146620981395e-05, 0.0002082029968732968, -0.000545310031156987, -0.00023394737218040973, 0.0001567345898365602, 1.1695374269038439e-07, 0.0003230620641261339, 0.00028898095479235053], [0.0007216485100798309, 0.0005327456165105104, -0.0009535353165119886, -0.00010413596464786679, 7.129996811272576e-05, 0.0006658515776507556, -0.00031081432825885713, 0.00011555348464753479, -0.0008870145538821816, -0.00016255861555691808, -0.00038041494553908706, 0.0004288156342227012, 5.687000520993024e-05, 0.0001875788439065218, 0.00019565327966120094, -0.0002477194939274341, -0.0008571048965677619, -0.0004048514529131353, -0.0005866739666089416, 0.00041083560790866613, -0.00028547513647936285, 0.00024197610036935657, 0.0006027065101079643, 0.00016578467329964042, -0.0007844857173040509, 0.0004698971752077341, -2.2244159481488168e-05, 0.00035210754140280187, -0.001633250154554844, 0.0016417232109233737, -0.000690791173838079, 0.0001927222328959033, -0.000729179591871798, -0.000276927778031677, 0.0012397804530337453, 0.00018125548376701772, -0.00016264307487290353, -0.00014646418276242912, 0.00011845216795336455, 0.0005507655441761017, -0.00019019938190467656, -5.6287630286533386e-05, -0.0001806373766157776, -0.0003096922009717673, -0.00018582007032819092, -0.0012378387618809938, -0.0014517384115606546, -0.0005427359137684107, -0.0013053446309641004, -3.2196403481066227e-06, 0.0005805317778140306, -0.000616949051618576, -0.00011395412002457306, 2.617254722281359e-05, -4.2442334233783185e-05, -4.079504287801683e-05, -0.0005486449808813632, 0.00023553668870590627, 0.00019390109810046852, 0.0007990672602318227, 7.021575584076345e-05, -0.0006398027762770653, -0.0003360408591106534, 9.533535921946168e-05], [0.00033010804327204823, -0.00024019832198973745, -3.1461677281185985e-06, -0.0009890059009194374, -0.0006161002675071359, 0.0006773430504836142, -5.115650128573179e-05, 0.000172589483554475, 0.0003299761447124183, 0.0005280793411657214, 0.0015054336981847882, -0.000924888823647052, -0.0007659569964744151, -0.0013698083348572254, 0.0010082172229886055, -0.0005647828802466393, 0.0014419059734791517, 0.00033535651164129376, 0.00046193820890039206, 0.00034444406628608704, 0.00020589875930454582, -6.33466406725347e-05, -0.0006373355281539261, -0.0008410997106693685, -0.00013485466479323804, 0.0001763859181664884, -0.00010177155490964651, 0.0005755488527938724, 0.0006498280563391745, -0.00020260276505723596, 0.00042570510413497686, -0.00012278163922019303, 0.0006054076366126537, -0.001342548057436943, -0.001655349973589182, 0.0002011787728406489, 0.0006986527587287128, -0.001490866532549262, -9.019645949592814e-05, -0.0012334368657320738, -0.00034528900869190693, 0.00020430951553862542, 0.000423810794018209, 0.0001737960847094655, -7.874474249547347e-05, -0.0003446405753493309, 0.0005717127351090312, 0.0005461479304358363, 0.0011612578528001904, 0.0004849651886615902, -0.00020761041378136724, 0.0011165884789079428, -0.00035450575524009764, 0.000798261258751154, 0.00043087676749564707, -0.0006196306785568595, 0.0009351916378363967, -0.00033353600883856416, 0.0002992710215039551, 0.0009313279297202826, 0.0002940217964351177, -0.0005153482197783887, 0.0001549987937323749, 0.0007847521919757128], [0.0004485121462494135, -0.0005433554761111736, 0.00012874038657173514, 0.0008106506429612637, 0.0007130794692784548, 0.0005551205249503255, -0.0003558227908797562, -0.0003534937568474561, 0.0013588311849161983, -0.0005691521801054478, 0.0011844509281218052, 0.0013285661116242409, 0.00016180711099877954, 0.0018859189003705978, 0.0011465568095445633, 9.067245991900563e-05, 0.0008458211086690426, 0.0012663587694987655, -0.00021630621631629765, 0.0015708712162449956, -8.662242908030748e-05, 0.00021309053408913314, -0.0015685175312682986, 0.0002044172288151458, 0.0002750810526777059, 0.0015128571540117264, -0.00046411508810706437, -0.0006373760988935828, -0.0014411547454074025, 0.0013539866777136922, -8.171881199814379e-05, -0.00036640980397351086, -0.00014083212590776384, 7.64391734264791e-06, 0.00240901717916131, 0.00038788735400885344, 0.0006580408662557602, 0.0008430979214608669, -0.00029257958522066474, 0.0005778766353614628, 0.0002418914227746427, 0.0008657919242978096, 0.0010504152160137892, 0.0013983002863824368, -0.0006118668825365603, -0.0009881730657070875, 0.0018341675167903304, -0.0018829300533980131, 0.00018604923388920724, -6.515787390526384e-05, 0.0006692359456792474, 0.00029898012871854007, -0.00021024903981015086, 0.0006528438534587622, -4.5182881876826286e-05, -0.0013933376176282763, 0.0023271339014172554, -0.000585822097491473, 0.0003073468978982419, 0.0006054253899492323, 0.0015654615126550198, -0.00045987480552867055, 0.0004784623743034899, -0.0011995643144473433], [-0.0010925497626885772, -0.0015949406661093235, -0.0002351446310058236, -0.0011892911279574037, -0.0007843766361474991, -0.0007688283221796155, -0.0002752196742221713, 0.0005422572139650583, -0.0015734205953776836, -0.0013509385753422976, 0.0011336966417729855, 0.00018046883633360267, -0.00016296666581183672, -0.0012268145801499486, 0.002133660949766636, -0.001864827936515212, -0.00222038640640676, 0.0008747397805564106, -0.0020907458383589983, 0.00018664021627046168, -0.0015713861212134361, -0.0006920276791788638, 0.001572860055603087, -0.0025192699395120144, -0.0018366717267781496, -0.0006803431315347552, -0.0002289338590344414, -0.0018741637468338013, -0.0016469350084662437, 0.0003431605873629451, -0.0005665831849910319, -0.0005638208240270615, 0.0017212510574609041, -0.0017206274205818772, -0.005167566239833832, -0.000848925847094506, -0.0016376477433368564, 0.0013422719202935696, -0.001449206261895597, 0.002250173594802618, 0.0002653453848324716, -0.0008485442958772182, 0.00025702931452542543, 0.0031245420686900616, -0.0013789969962090254, -0.004874528385698795, -0.0030926521867513657, 0.00039811540045775473, -0.0010517493356019258, -0.0009102821350097656, 0.00022632809123024344, 0.0016736590769141912, 0.0012067609932273626, -0.0001386901130899787, -0.0012651148717850447, 0.001448761555366218, -0.005598191171884537, 0.00084399722982198, -0.0022202078253030777, -0.003324305173009634, 1.3878918252885342e-05, -0.001119877677410841, 0.0014104858273640275, -0.00046259359805844724]]], [[[-0.0025193539913743734, -0.0006283466354943812, 2.340765786357224e-05, 4.490754508879036e-05, 0.0001541650854051113, -0.0007671854691579938, -0.0011460327077656984, 0.0009739150991663337, 0.000771023565903306, 0.00010495012975297868, -0.0009808330796658993, 8.148670895025134e-05, -0.0010630489559844136, -0.0021557884756475687, -0.0010235251393169165, -0.0013119240757077932, -0.0004239492700435221, 7.774969708407298e-05, 0.0007409822428599, 0.0011916295625269413, -0.00041880947537720203, 0.0005750127602368593, 0.000735899549908936, 0.0009395672241225839, -0.0009133811108767986, 7.613416528329253e-05, 0.0010548384161666036, 0.00037161880754865706, -0.0016779957804828882, 0.0011193412356078625, 0.0006143739446997643, -0.00032956484938040376, 0.0002002378460019827, -0.0004275808169040829, -0.0010278060799464583, 0.00047030861605890095, 0.0009645707905292511, -0.00020766891248058528, 0.0004948043497279286, -0.0004810922546312213, 0.00080004648771137, 0.0008302098140120506, -0.0012310226447880268, 0.0004358800651971251, 0.00022947756224311888, 0.0007574976189061999, -0.0013610412133857608, -0.0007233357755467296, 0.00022273398644756526, 0.0005467915907502174, 0.00012075019185431302, -0.00045780977234244347, -0.0012755298521369696, -0.0013692275388166308, 7.385443313978612e-05, -0.0008636392303742468, 0.0003107001248281449, -6.567753007402644e-05, -0.00010391557589173317, -0.00010604080307530239, 0.0008599557331763208, 0.0001292339584324509, 0.0006627920083701611, 9.765348659129813e-05], [3.322905968161649e-06, 3.4902861898444826e-06, -6.090792339819018e-06, -4.943358362652361e-06, -4.567798896459863e-06, -5.666881861543516e-06, 1.4300946986622876e-06, 5.013469490222633e-06, -9.452411831034624e-08, 4.955043095833389e-06, -3.79227958546835e-06, -3.7282729863363784e-06, -7.764971883261751e-07, -2.9202899440861074e-06, -2.2960198293731082e-06, 3.314686182420701e-06, -3.6901672046951717e-06, 7.72189196140971e-06, -4.281052042642841e-06, 2.1741800537711242e-06, 2.4797736841719598e-06, 3.552362841219292e-06, 9.940260497387499e-06, -2.261979716422502e-06, 3.408109478186816e-06, 7.365639248746447e-06, -1.3746869171882281e-06, -3.0873441119183553e-06, 2.7896312531083822e-06, 2.0215541951529303e-07, -1.2586347111209761e-06, -1.468815185035055e-07, -2.2802116745879175e-06, 8.967156190919923e-07, 3.646756567832199e-07, 4.714145234174794e-06, -6.9122079366934486e-06, -4.143571459280793e-06, 1.5272776181518566e-06, 7.86636121574702e-07, 8.30622468583897e-07, 5.518356374523137e-06, -8.515639819961507e-07, -3.8602479435212445e-06, 2.8185065730212955e-06, -4.451145741768414e-06, 4.29915360200539e-07, -5.055851943325251e-06, -3.0985529519966803e-06, 5.1267011258460116e-06, 9.940260497387499e-06, 8.44730129756499e-06, 1.8024443306785543e-06, 1.9350688944541616e-06, -3.4359497931291116e-06, 2.1939740690868348e-07, 6.127824576651619e-07, -3.0506432722177124e-06, 3.856930561596528e-06, -4.640120323529118e-07, -1.0434303021611413e-06, 9.940260497387499e-06, -6.305970600806177e-06, 1.4065641380511806e-06], [-1.695519131317269e-05, 5.103966032038443e-07, 1.3521249456971418e-05, 6.8931253736082e-06, 1.6762704035500064e-05, -1.2748895642289426e-05, 4.385818556329468e-06, 4.201197043585125e-06, -6.955446679057786e-06, 1.201303894049488e-05, 6.479228431999218e-06, -1.551513560116291e-05, -2.6796042220667005e-06, -3.9858741729403846e-07, 9.945290457835654e-08, -1.380632966174744e-06, 7.830273716535885e-06, -3.004098971359781e-06, 1.7341120837954804e-05, 5.156744009582326e-07, 1.2860891729360446e-05, 3.7137701838219073e-06, -0.00011094193177996203, -2.769689672277309e-06, 2.2318767150864005e-05, 5.346332272893051e-06, 1.2554568456835113e-05, 1.3776912055618595e-07, 2.0083637082279893e-06, -9.264052096114028e-06, -3.0030635116418125e-06, -9.013645467348397e-06, -1.128425446950132e-05, 1.4304120554697874e-07, 1.6068597687990405e-05, 3.071683295274852e-06, 6.516657776955981e-06, -2.4525502340111416e-06, -4.313829322200036e-06, 7.468136573152151e-06, -3.161911081406288e-06, 9.696649613033514e-06, 4.0533482206228655e-06, -3.6983258269174257e-06, -4.6612831283709966e-06, -4.489266302698525e-06, -6.761806162103312e-06, 1.3193154700275045e-05, 1.3430181752482895e-05, 3.574753236534889e-06, -2.344591621294967e-06, -9.691957529867068e-07, 6.149654836917762e-06, 4.072648152941838e-06, 8.989847628981806e-06, 1.8411912606097758e-05, 4.0565297240391374e-05, -2.274111920996802e-06, 1.974938641069457e-05, 1.1802002518379595e-05, -1.888847691589035e-06, 5.948186299065128e-07, 2.078442048514262e-05, -1.8496621123631485e-05], [9.440763096790761e-05, 2.342494553886354e-08, -6.536577711813152e-05, 3.104079587501474e-05, 0.00016788591165095568, 1.6228865206358023e-05, -3.327558806631714e-05, -3.695520354085602e-05, 4.2884792492259294e-05, -2.6186968170804903e-05, 1.495185642852448e-06, -2.2914287001185585e-06, 6.838751141913235e-05, -1.9989051907032263e-06, 2.304463487234898e-05, -7.61570772738196e-05, -0.00011660172458505258, 4.6646437112940475e-05, -0.00013470578414853662, 4.447176252142526e-05, -3.6456673115026206e-05, -5.047706508776173e-05, 0.0003327647573314607, 3.201673462172039e-05, 6.0734346334356815e-05, -5.280162804410793e-05, -2.6807529138750397e-05, -7.870270201237872e-05, -5.10638601554092e-05, -9.230408613802865e-05, 3.1018716981634498e-06, 3.078339796047658e-05, 5.597274866886437e-05, -9.13252733880654e-06, -3.8258509448496625e-05, -9.070448140846565e-05, 2.6778883693623357e-05, -4.5384003897197545e-05, 0.00011289180838502944, -4.7940367949195206e-05, -9.758403029991314e-05, -6.107531135057798e-06, -0.00010539625509409234, -2.1469895727932453e-07, 6.842851871624589e-05, -3.101513721048832e-05, -0.00011900219396920875, -7.695383828831837e-06, -2.4935761757660657e-05, -1.595661524333991e-05, 6.871821824461222e-05, 6.345478323055431e-05, 2.6947887818096206e-05, -3.4549586416687816e-05, 9.106394281843677e-05, 0.00013501604553312063, -9.223796951118857e-05, 9.458010754315183e-05, -0.0001672146754572168, -2.4190638214349747e-05, -6.804477015975863e-05, 2.2624553821515292e-05, -1.4215969713404775e-05, 5.708956450689584e-05], [-0.0003510023234412074, 0.0012973034754395485, 0.00048698895261622965, -0.000711167580448091, -0.00025970523711293936, 0.0010996925411745906, -0.0001966441050171852, -0.0003491605748422444, -0.0003856408002320677, 0.00015301888925023377, 1.2016651453450322e-05, 0.0012954036938026547, -0.00015712360618636012, 0.0027683048974722624, -0.00015255200560204685, -0.0004214770451653749, -0.0002895522629842162, 3.966388976550661e-05, -0.0012105759233236313, 0.000346419052220881, 0.0009516620775684714, 2.2896274458616972e-05, 0.0013104609679430723, 0.0008750027627684176, 0.00011533973156474531, -0.00020491046598181129, 0.0008060981635935605, -0.0001901840150821954, -0.00010806477075675502, -0.0003591285494621843, 0.00017495668726041913, 0.00023370511189568788, 0.0012104322668164968, 7.783385808579624e-05, 0.00021831794583704323, -0.0010571330785751343, 0.00028850813396275043, 0.0007507411064580083, 0.000669725239276886, 0.0020828712731599808, -0.0004348384100012481, 0.00010266742901876569, -0.0008968966430984437, -1.9374158000573516e-05, 0.00019522036018315703, -7.943648961372674e-05, 0.00017035732162185013, -2.2977656044531614e-05, -0.00014948262833058834, 5.744118243455887e-05, 0.00039234725409187376, -0.00015302392421290278, 0.0006857639527879655, 9.298055374529213e-05, 0.0012118732556700706, -0.0012979579623788595, -0.00036477751564234495, -0.0012413725489750504, 0.0008976571261882782, 0.00028106028912588954, -0.0005979957059025764, -0.000411971501307562, 0.0002405848354101181, 2.873769699363038e-05], [-0.0013182967668399215, -0.00011656338756438345, 0.0008515539229847491, -0.0005808152491226792, -0.000578666920773685, -0.0004104658728465438, 0.0005778247723355889, 0.000658092088997364, 0.0007552245515398681, -0.0004472134751267731, -0.000262870395090431, -0.000661994912661612, -0.0002916044322773814, -0.00039110559737309813, -0.00044832221465185285, -5.0144008127972484e-05, -1.8278180505149066e-05, 0.00023373396834358573, 0.0006201618816703558, -0.00012100585445296019, -0.00021232025756035, -0.00032230684882961214, 0.001287970575504005, 0.001351459650322795, -0.001803617225959897, 0.0007290072389878333, -6.0782367654610425e-05, 0.00012630780111066997, 0.00036914244992658496, -4.4069136492908e-05, 8.443582919426262e-05, 0.00015890452777966857, -0.00018077714776154608, 0.0011512602213770151, -0.000622062012553215, 0.0003523670311551541, -0.00023764448997098953, 0.0002358818892389536, -2.9245602490846068e-06, -0.000819722656160593, -0.0010209669126197696, 0.0001064016978489235, -0.0013450214173644781, -0.00044365611393004656, 0.0002147176710423082, 0.0005421721143648028, -0.0007457376923412085, -0.0003446779737714678, -0.00040268749580718577, -6.810826016589999e-05, -0.001203472726047039, -0.0004240404814481735, 0.0002214880078099668, -0.0007856900338083506, 3.651127917692065e-05, -0.0015135343419387937, -0.0003912305401172489, -0.00023943920677993447, 0.0009127163793891668, -0.0002368702262174338, -0.0008212666143663228, 0.0003037460264749825, -2.8468963137129322e-05, 0.00020000734366476536], [0.001668364042416215, -8.653511031297967e-05, 0.00014406342233996838, -0.0008429959416389465, 0.0004576339269988239, 4.370766691863537e-05, -0.0013618607772514224, -0.00020742311608046293, -0.0016210812609642744, -0.0006384256412275136, -0.0009435132960788906, 0.0003653301973827183, 0.0001539427030365914, 0.0005353351589292288, 0.0011045944411307573, -0.001967048505321145, 0.00015694223111495376, -0.00180496321991086, -0.0006862211739644408, -0.0008921169210225344, -0.0021736060734838247, -0.00010540903895162046, 0.0003414320817682892, -0.0009154885774478316, -6.082933396100998e-06, 0.0016183763509616256, -0.0007985180709511042, -0.0002628363436087966, -0.00045546391629613936, -0.00037270612665452063, -0.0005950581980869174, -0.000110201770439744, -0.0004933988675475121, -0.00047869147965684533, -0.00017978712276089936, -0.0005237461300566792, -0.0004038167535327375, -0.00044700433500111103, 0.0003738153027370572, 0.00024275880423374474, 0.0020591807551681995, 0.0017997280228883028, -1.4080957043915987e-05, 0.0007936903857626021, -0.0014946612063795328, -0.0009539017337374389, -0.000780352158471942, 0.00010047410614788532, -0.0007115069311112165, -0.0007767030037939548, 3.9999402360990644e-05, 0.00016561822849325836, -0.0010979068465530872, -0.0004883846850134432, -0.0004759797011502087, 0.0008025204879231751, 0.0005856289644725621, 0.0006457492709159851, -0.0001331133535131812, 0.00015910880756564438, -0.002168306615203619, -0.0004747077473439276, -0.0005386556731536984, -0.0017283897614106536], [-0.0009984071366488934, -0.000351136113749817, -0.00024266609398182482, -0.0004994319169782102, -0.0007683984003961086, -0.0009120538597926497, 0.00021483984892256558, -0.000827955431304872, 0.0013094379100948572, -0.0008608903153799474, 0.0009066680213436484, -0.001794816111214459, -0.00018460907449480146, -0.0006604447844438255, -0.00012052571401000023, -0.001170494593679905, 0.00021813447528984398, 0.0014876254135742784, -0.0012397441314533353, 0.0016540191136300564, -0.0009354605572298169, -0.0008209270890802145, 0.006483385805040598, 0.0004758076975122094, 0.0005805619875900447, -0.00012200881610624492, -0.0006991249974817038, -0.0007015779847279191, 0.0008935602381825447, -0.0011661534663289785, -5.852905451320112e-05, 0.0011853069299831986, 0.002249464625492692, 0.0006260642549023032, 0.0015223082154989243, 0.0003422326990403235, -0.0009745489805936813, 0.0003799677360802889, 0.00030537316342815757, -0.0005688562523573637, 6.897526327520609e-05, -9.520113235339522e-05, 6.619258783757687e-06, -0.0009321113466285169, 0.00016213796334341168, 0.00048414376215077937, -3.1685500289313495e-05, 0.000433081469964236, 0.0001261532015632838, 0.0005165498005226254, -0.00034864561166614294, -0.0007535155164077878, 1.0366260539740324e-05, -0.0004054687451571226, 0.0005067326128482819, -0.0019187694415450096, 0.0005259848549030721, -0.00031392250093631446, 0.0007318292045965791, -0.0016446193912997842, 0.0011488074669614434, 3.3645286748651415e-05, 6.999092875048518e-05, 0.0005254365387372673], [-6.301788380369544e-05, 4.1495600271446165e-06, 0.00011406119301682338, 0.00010607953299768269, -1.4165174434310757e-05, -9.149967081611976e-05, 3.234267933294177e-05, -1.8435061065247282e-05, 6.681038939859718e-06, -7.733164238743484e-05, 3.758291859412566e-05, -0.0002494993095751852, 3.5842208490066696e-06, -0.00010539645154494792, 1.104102011595387e-05, 3.7385743780760095e-05, -1.912292282213457e-05, -4.340471787145361e-05, 0.00019112015434075147, -0.00011130026541650295, -1.7064598068827763e-05, -5.07351869600825e-05, -0.0026007448323071003, 4.2640778701752424e-05, 1.4855022527626716e-06, 2.0949704776285216e-05, -2.3025077098282054e-05, -2.8586168809852097e-07, 0.00012367892486508936, -0.00013832740660291165, -1.0032222235167865e-05, -5.418788532551844e-06, 1.473213796998607e-05, -8.247941877925768e-05, -0.00022520490165334195, 2.0098936147405766e-05, -7.447865209542215e-05, 1.4338203982333653e-05, 1.4884263691783417e-05, 3.561053745215759e-05, -0.0002010124735534191, -7.108988938853145e-05, -3.0283319574664347e-05, -3.583339639590122e-05, 8.55024245538516e-06, 4.3777610699180514e-05, -6.075310466258088e-06, 2.8159776775282808e-05, -1.958084340003552e-06, 0.00010775351984193549, -6.749097519787028e-05, 6.092393596190959e-05, 3.165818634442985e-05, 4.336430720286444e-06, -6.488737199106254e-06, 3.7602338124997914e-05, 3.097324224654585e-05, 7.186511993495515e-06, 4.088244531885721e-05, -0.000223132548853755, -6.328448944259435e-05, 2.3996921299840324e-05, 6.324649439193308e-05, -4.75088381790556e-05], [-0.0001199989637825638, 2.2272402929957025e-05, 0.0001458732149330899, 0.00014074011414777488, 5.9411544498289004e-05, -5.845902705914341e-05, 6.716132338624448e-05, -5.7578410633141175e-05, -2.2023657948011532e-05, -7.677575194975361e-05, 2.3164355297922157e-05, -0.00020647572819143534, 2.2652144252788275e-05, -9.910637163557112e-05, 1.458193946746178e-05, 2.983128979394678e-05, -6.295053026406094e-05, -4.4204905861988664e-05, 0.00013776497507933527, -0.00014494231436401606, -4.6923574700485915e-05, -0.00017960570403374732, -0.0019085558596998453, -3.3838309718703385e-06, -1.3288317859405652e-05, -9.269497240893543e-06, 7.3579803938628174e-06, 6.892078090459108e-05, 0.000145238998811692, -0.00010933511657640338, 5.100580892758444e-06, -3.0297160265035927e-05, 2.3413569579133764e-05, -6.375777593348175e-05, -0.0002477221132721752, 3.995708539150655e-05, -0.00010452331480337307, -2.2776446712668985e-05, -2.8138947527622804e-06, 0.00011313226423226297, -0.0002812428865581751, -1.0387089787400328e-05, 9.17789111554157e-06, -9.256649718736298e-06, -5.729377153329551e-05, 7.946381811052561e-05, -0.00018454089877195656, 1.4143590306048281e-05, 4.078345591551624e-05, 0.00012080942542525008, -6.494791159639135e-05, 9.524734923616052e-05, -1.6329839127138257e-05, 6.581676643691026e-06, -1.095257539418526e-05, 3.724471389432438e-05, 6.496060086647049e-05, -2.5869967430480756e-05, -1.075171439879341e-05, -0.00021362205734476447, -0.00014044134877622128, 1.4917636690370273e-05, 0.00012482990860007703, -1.6150985175045207e-05], [8.049937605392188e-05, 5.798398706247099e-05, -0.00018607325910124928, -0.00013240041153039783, 0.0008130205096676946, 0.00023813731968402863, -9.110081009566784e-05, 0.00012913478713016957, -1.8687012925511226e-05, -0.00019030336989089847, -6.777836460969411e-06, 0.00027511166990734637, -2.5150118744932115e-05, 0.00027110398514196277, -0.00015500241715926677, 0.00023140685516409576, -0.0001023303484544158, 0.0002394831390120089, -3.4236185456393287e-05, 0.0001848765095928684, 0.0002436980721540749, 0.00010116328485310078, 0.00044072396121919155, 0.00038180718547664583, 0.0004903461667709053, 0.00013903666695114225, -0.00010781174205476418, -0.0002974593953695148, 0.00028695387300103903, 2.1737214410677552e-05, -0.00027149313245899975, -7.816315337549895e-05, 0.0006050908123143017, 0.00024386338191106915, -0.00040083902422338724, -0.00021120195742696524, 0.0003835351672023535, 0.0001855980372056365, 0.00019000016618520021, 0.00012104454799555242, -0.0008499016985297203, -0.000237756670685485, -0.00021312736498657614, 2.7876696549355984e-05, 0.00020570507331285626, 0.00023743754718452692, 0.00013140193186700344, -0.00012031137885060161, 0.0003109865356236696, 0.00018523840117268264, 0.00011448014993220568, 0.00027976196724921465, -2.4677576220710762e-05, -0.0004584154230542481, 6.853375816717744e-05, -0.00013612568727694452, -0.00014763005310669541, -8.125221938826144e-05, -0.0002612636308185756, 0.0005349612329155207, 0.0003570199478417635, 0.0001594785280758515, 0.00015922499005682766, -4.76260029245168e-05], [0.00023880251683294773, 0.00012289948062971234, 0.0006560826441273093, -0.0003505763306748122, -7.469468255294487e-05, -0.00011761467612814158, 0.00039540784200653434, -0.0008160258294083178, -0.00010286849283147603, 0.00017565442249178886, 5.012733527109958e-05, -0.0007322349702008069, -6.131026020739228e-05, -0.00046828307677060366, 0.0005328591214492917, -0.00045884918654337525, -5.748608964495361e-05, 0.00013658992247655988, 0.00047305214684456587, -0.0011933250352740288, 0.00119334040209651, -0.0008310711127705872, -0.003994515631347895, -0.00018164685752708465, 0.0004550726735033095, 0.0003890977241098881, 8.240008901339024e-05, 0.00024280595243908465, 0.0006985731888562441, -0.00209980271756649, -0.0005454385536722839, 0.000197927700355649, -0.0010261114221066236, -0.001949417288415134, -0.0014118201797828078, -0.0003812939685303718, -0.0009848077315837145, -0.0020501078106462955, 8.99103470146656e-05, -0.00018459357670508325, 0.0008384670363739133, -0.00048003008123487234, -0.000502829672768712, -0.0006117477896623313, 0.0001900197530630976, -0.0011347663821652532, -0.00033005967270582914, 0.0012202473590150476, 0.0016271719941869378, 0.000329737231368199, -0.0002549787750467658, -2.6803681976161897e-05, 0.0001344831835012883, 0.0006215482717379928, 0.00019335714750923216, 5.2466151828411967e-05, -7.139700755942613e-05, 8.877013169694692e-05, 8.449930464848876e-05, -0.0005235764547251165, -0.00023482504184357822, -0.00035637730616144836, 0.0002639537851791829, -0.000288677925709635], [-0.00025764346355572343, -4.122088284930214e-05, 0.0004820391768589616, 0.0004831471014767885, 0.0009226173278875649, 0.0010745562613010406, -0.0006504363263957202, 0.001094500650651753, 0.00011521807755343616, -5.47727795492392e-05, -0.0003744883288163692, 0.00015110833919607103, -0.00016663895803503692, -0.0005846527637913823, 0.000617609650362283, 0.00033117260318249464, -0.000375018164049834, 3.9594247937202454e-05, -0.0003307037986814976, 0.0005858209915459156, -0.0005586586776189506, -0.00013014793512411416, 0.001443403074517846, -0.0004966503474861383, -0.0012390638003125787, 0.0007935622707009315, 0.0007034961017780006, 0.00020604097517207265, 1.9015365978702903e-05, -0.0006288680015131831, -0.0007050540298223495, 0.0004804916097782552, 1.0848219972103834e-05, -0.0010106469271704555, -0.0009608193067833781, 0.00023659737780690193, -0.00021942892635706812, -0.0002031093608820811, -0.0004896321333944798, 5.066591256763786e-05, 0.0008400576771236956, 0.0010439854813739657, 0.0001229964691447094, -0.0001586707221576944, -0.0008311113924719393, -0.001301827491261065, -0.0001984835253097117, -0.00017182511510327458, -0.00062351836822927, 0.00032441853545606136, 0.00011213247489649802, 0.0007544673280790448, -0.0006181625649333, 0.001021882169879973, 2.3672204406466335e-05, 0.0001874420850072056, -0.00015004255692474544, 0.0006383123691193759, -0.0007761947344988585, -0.00013851247786078602, 0.0002489898179192096, -0.0009267726563848555, 0.00029518382507376373, 0.00014552219363395125], [0.0017736675217747688, -0.0014234500704333186, -0.0011754573788493872, -0.0006360221304930747, 0.0019044427899643779, 0.0018457418773323298, 0.00011223171895835549, -0.00027888501062989235, -5.4667965741828084e-05, -0.00037275065551511943, 0.0008132915827445686, 0.0006290282472036779, -0.000201937640667893, 0.0006919186562299728, 0.0004048991249874234, -0.00046142659266479313, 0.00015232371515594423, 0.0004901795764453709, -0.00029561255360022187, 0.0008478176896460354, -0.0003891279629897326, -0.00012768720625899732, -0.0005300373304635286, 0.0002650677924975753, 0.0008238328155130148, 0.0001853540597949177, -0.0019604742992669344, -0.0005648669903166592, -0.0009873189264908433, -0.00043946769437752664, -0.0009468509233556688, -1.0210220352746546e-05, 0.0009778371313586831, -0.0005290680564939976, -0.0002701475750654936, -0.00019863630586769432, 0.0008456918294541538, -0.0008290319237858057, 3.5264703910797834e-05, 0.0007905410602688789, -0.0030587150249630213, 0.0013284399174153805, 0.0014560960698872805, -7.12009787093848e-05, -0.00013459836191032082, -0.0005973135121166706, 0.0003317094233352691, 0.0004945095861330628, 0.000484243908431381, -0.0005341867217794061, 0.0018098364816978574, 0.0005795870092697442, 5.254102870821953e-05, -0.00013412308180704713, 0.00028212511097081006, 0.00014422617095988244, 0.000850253039970994, 0.00022379710571840405, -0.002315677935257554, 0.0015721805393695831, 0.00021209666738286614, -5.504785804077983e-05, 0.000251650606514886, -0.000824423972517252], [-0.0009025575127452612, -0.0007613074849359691, -0.0001565797283546999, -0.0007779698353260756, 0.00046804663725197315, -0.0008655049605295062, -0.0004327104543335736, -0.0004183987621217966, -0.002721094060689211, -0.0017858606297522783, 0.0014356666943058372, 0.0003583438810892403, 0.00013083667727187276, -0.0010238263057544827, 0.0023316210135817528, -0.0018263295060023665, -0.002861387562006712, -0.0004304500762373209, -0.0030306430999189615, -0.000754084438085556, 0.0006235303590074182, -0.0003112824051640928, 0.0021637987811118364, -0.002070137532427907, -0.001783792395144701, -0.0025049608666449785, -0.0009311452740803361, -0.0018292960012331605, -0.0016680927947163582, 0.001811770722270012, -0.0005998607957735658, -0.0007693537627346814, 0.0010283923475071788, -0.0017864268738776445, -0.005926270037889481, -0.001671717967838049, -0.0017997492104768753, 0.0015264825196936727, -0.0011706771329045296, 0.0024333763867616653, 0.0007348937215283513, -0.0008249240927398205, -0.000456569017842412, 0.0033076750114560127, -0.0004043477529194206, -0.0045429132878780365, -0.00460041593760252, 0.0006490989471785724, -0.0007619450916536152, -0.0005046466249041259, 0.00025485065998509526, 0.0016946641262620687, 0.00107893708627671, 8.449133019894361e-05, 0.0005431041354313493, 0.002979026176035404, -0.007163614965975285, 0.0016306207980960608, -0.002056366764008999, -0.003387174569070339, -0.0005627316422760487, 0.00033052137587219477, 0.0015517016872763634, 0.00022895829170010984]], [[0.0005033502820879221, -0.0005720424233004451, 0.001193480333313346, 0.00039910589111968875, 0.0007928179111331701, -0.0016070054844021797, -0.0005454664933495224, -0.0007050780695863068, -0.00011375464964658022, -0.000420491152908653, 0.00021133288100827485, 0.000835603685118258, -0.0007907860563136637, -0.0008341394132003188, -0.000371308415196836, 0.00016755182878114283, 0.00047704039025120437, 9.056022827280685e-05, -0.0011980062117800117, -0.00014382711378857493, -0.0004746440681628883, -0.0011406573466956615, 0.003548444714397192, 7.040140917524695e-05, 0.0006793692009523511, 0.0002768478880170733, -0.00016280602721963078, -0.0023877413477748632, -0.0009110734099522233, -0.0007094554603099823, 0.00030847976449877024, 0.0009187314426526427, 0.0010414717253297567, -0.0014097664970904589, 0.0002115030074492097, 0.0007678117835894227, 0.0019292719662189484, -6.0921243857592344e-05, 0.0009735813364386559, -0.001679704524576664, 0.0015300362138077617, 0.0010101402876898646, -0.0025837805587798357, -0.00045144977048039436, 0.0005540894344449043, 0.0010900277411565185, -0.000692151312250644, 0.0006790830520913005, 0.0008370064315386117, 0.0011201356537640095, 0.000763113028369844, 0.0006580455228686333, 0.0006429454078897834, -0.001590244472026825, -0.0007854559808038175, -0.001081154914572835, 0.0002558587002567947, -0.0005397932254709303, 0.0016966680996119976, -0.0010273070074617863, -0.0008247830555774271, 0.000430563697591424, -0.0007815120043233037, -0.0005706849042326212], [-8.210064947888895e-07, 9.701795534056146e-06, -1.4675975990030565e-06, -1.24320854411053e-06, 2.5549634301569313e-06, 5.709785000362899e-06, -1.5693102568548056e-06, 1.325204607383057e-06, -6.868653485980758e-07, -1.7869052726382506e-06, -7.419803864650021e-07, -1.3199539807828842e-06, 7.844917604415969e-07, -5.813231382489903e-06, -8.945969511842122e-07, -4.5285510168469045e-06, 1.4624519053541007e-06, -7.521157385781407e-06, -5.386843895394122e-06, -2.5050974272744497e-06, -1.6340632100764196e-06, 5.531057922780747e-06, -7.200810159702087e-06, 7.298684067791328e-06, -5.921731371927308e-06, 1.2960650792592787e-06, -1.111269966713735e-06, 1.3736284927290399e-06, 4.5180021857049724e-07, 3.914247827196959e-06, 9.940260497387499e-06, 2.8050919809174957e-06, -1.4216759609553264e-06, 5.9937165133305825e-06, -6.104869498813059e-06, 9.940260497387499e-06, 3.3063990940718213e-06, -5.677553872374119e-06, 5.33914999323315e-06, -9.940260497387499e-06, 1.2303574976613163e-06, -6.843549726909259e-07, 2.9378900308074662e-06, -3.1797712836123537e-06, -2.730811729634297e-06, -6.187704002513783e-07, 1.6965631175480667e-06, -2.5007175281643867e-06, 6.689956080663251e-06, 6.432660939026391e-06, -2.7279895675746957e-06, 9.940260497387499e-06, 1.7991739014178165e-06, -8.324939699377865e-06, 1.0988215990437311e-06, -7.729946446488611e-06, 5.313074325385969e-06, -3.5813213798974175e-06, -7.425214789691381e-06, -8.419348887400702e-06, -9.364633115183096e-06, -3.150221573378076e-06, 8.887337230589765e-07, -2.7199928354093572e-06], [-1.3391114407568239e-05, 3.2459201975143515e-06, -1.0715468761191005e-06, -1.0710519745771307e-05, -2.6441208319738507e-05, -8.283624993055128e-06, 1.6227455489570275e-05, 3.3047012948372867e-07, 9.502588909526821e-06, 1.53197584040754e-06, -2.5365429792145733e-06, 2.2968320081417914e-06, -1.7964110156754032e-05, -4.09561062042485e-06, 6.96319466442219e-06, 4.785660166817252e-06, 1.2013324521831237e-05, 5.463307388708927e-06, -1.2636185147130163e-06, 1.3302164006745443e-05, 9.67698952081264e-07, -2.2077410903875716e-06, -3.442062734393403e-05, 3.228653213227517e-06, 7.425214789691381e-06, 1.5950492525007576e-05, -9.429058081877884e-06, 5.546299689740408e-06, -1.0035084414994344e-05, -2.8177685180708067e-06, -2.0661338567151688e-05, 1.5261277894751402e-06, 1.0605823263176717e-05, 7.0209844125201926e-06, -5.248376055533299e-06, 8.705984328116756e-06, 3.216509639969445e-06, 5.23238668392878e-06, 1.067177527147578e-05, 3.889741947205039e-06, 8.074999641394243e-06, -7.091411134751979e-06, 2.023482920776587e-06, 6.5546496443857905e-06, -1.5898100173217244e-05, 1.5457524114026455e-06, -1.0070441021525767e-05, 6.406322427210398e-06, -9.084324119612575e-06, -7.672713309148094e-07, -1.1597032425925136e-05, -4.513439762376947e-06, -1.4091435787122464e-06, -1.6904919903026894e-05, 9.883522579912096e-06, -2.6606538085616194e-05, 1.1403923963371199e-05, -3.607609323807992e-05, 1.1877319593622815e-05, -1.7188038327731192e-05, 7.719064342381898e-06, -1.6611700630164705e-05, 2.2051144696888514e-06, 7.600708613608731e-06], [-3.912560714525171e-06, 1.3198346096032765e-05, 2.168359060306102e-06, 1.9473853171803057e-05, 0.0002717968891374767, -3.9402431866619736e-05, 3.5180969462089706e-06, 1.3572569514508359e-05, -1.7301092157140374e-05, 5.54510006622877e-05, -2.2746564354747534e-05, -0.0001033175503835082, 7.979110523592681e-05, -7.310686487471685e-05, -2.1625317458529025e-05, 2.8035694413119927e-05, -9.733969636727124e-05, -4.7635676310164854e-05, -5.0756985729094595e-05, 3.6136007111053914e-05, 3.51806593243964e-05, -6.857868584120297e-07, -0.0004462158540263772, -5.931589475949295e-05, 0.0003543664643075317, -6.5785093283921015e-06, 1.722658271319233e-05, -5.438471816887613e-06, -3.980840847361833e-05, -9.749530727276579e-05, -4.663926301873289e-05, -2.856916398741305e-05, 3.1438783480552956e-05, -7.926627586130053e-05, -6.532407132908702e-05, -0.00012060326844220981, 6.297486834228039e-05, -2.6308203814551234e-05, 7.640273543074727e-05, -4.651059862226248e-05, -0.0001069525969796814, -3.187293259543367e-05, -3.3797521609812975e-05, -4.770619852934033e-06, 7.336652925005183e-05, 5.365621746022953e-06, -3.2923708204180002e-09, 6.105990905780345e-05, 5.166971732251113e-06, 8.108250767691061e-05, 5.527560642804019e-05, -3.3633605198701844e-05, 3.448528877925128e-05, 5.4082454880699515e-05, 2.205902273999527e-05, 0.0001322301832260564, -0.00016967944975476712, 7.623244891874492e-05, -8.465340215479955e-05, -9.514734119875357e-05, 9.176597814075649e-05, 5.761258216807619e-05, 0.0001311495143454522, 3.551966437953524e-05], [-0.00014806627586949617, 0.0004564604314509779, -0.00047071033623069525, -5.445274291560054e-05, -0.0014354336308315396, 0.0003650030121207237, 0.0009466918418183923, 0.00036304863169789314, 0.00024512558593414724, 0.000322359730489552, -0.0012889638310298324, -0.0010634665377438068, -0.00016810715897008777, -3.579826443456113e-05, 0.00034951925044879317, -9.574901196174324e-05, -0.0009579102625139058, 0.00036075059324502945, 0.001687629264779389, 7.677993562538177e-05, 5.812077870359644e-05, -0.00013251481868792325, -0.001101223286241293, 0.0001120032393373549, -0.0014064657734706998, 0.0006330908508971334, 6.715284689562395e-05, -3.959276364184916e-05, -0.0006871880032122135, 0.0002006755385082215, 0.00036579486913979053, -0.0011490193428471684, 0.00034145021345466375, -0.00024270509311463684, -0.0003029705840162933, 0.00021750334417447448, 0.0004512507875915617, -3.688261494971812e-05, -0.000245703908149153, 0.00015834049554541707, -7.166730938479304e-06, -0.0002575356047600508, 2.640597813297063e-05, -3.2422794902231544e-05, -8.232641266658902e-05, 0.00020455480262171477, 0.0005382061353884637, -0.0002820663503371179, -0.0003837823460344225, 0.0002252359699923545, -0.0012143440544605255, -0.0009142780909314752, -4.8175876145251095e-05, 0.0003702292451635003, 0.0006248866557143629, -0.0005622011376544833, 0.0011358363553881645, -0.0007234516669996083, 0.00025689281756058335, -6.668364949291572e-05, 6.993795977905393e-05, -0.0002560603606980294, -0.0004940342623740435, -0.00020925624994561076], [0.0010209057945758104, -0.0007205914589576423, -0.0001211547787534073, -0.0006085803615860641, 0.0007395343272946775, 0.0006265761912800372, -0.000747902668081224, 0.00021149533858988434, -0.0007510000141337514, 0.0002592637320049107, -0.0002806791162583977, -0.00010661128908395767, 0.0006374004879035056, -0.0003844086022581905, -0.0006360927945934236, -0.001055989065207541, -0.0001649183250265196, -3.4532113204477355e-05, 0.0001505733816884458, -0.0008420495432801545, -9.303606202593073e-05, -0.00038337628939189017, 0.00045271837734617293, 0.0007331593078561127, 0.00038281382876448333, 0.00033432344207540154, -0.0007045803358778358, 0.0007647444144822657, 0.00022234850621316582, -0.0007924360106699169, -0.0002774097374640405, 8.27321782708168e-05, -0.0006124119972810149, -0.0008212964748963714, -0.0006577875465154648, -0.00044229699415154755, -0.001615632325410843, -0.0005667039076797664, 0.0003766163717955351, -0.0004437199095264077, -0.00023907404101919383, 0.0004589257878251374, 2.963677980005741e-05, -0.0005382313393056393, 7.084187382133678e-05,